-2.12787613e-02 -5.23734896e-04 1.75979193e-02 -1.95274465e-02 -1.71331428e-02 1.41308904e-02 -4.76658810e-03 -9.24245734e-03 -8.61605164e-03 -6.09928416e-03 2.28904262e-02 2.41641793e-02 -7.83592928e-03 9.59211402e-03 -4.90423851e-03 -1.70363183e-03 -8.73094797e-03 1.70449950e-02 -4.42600343e-03 -7.93637987e-03 8.63291789e-03 1.43006805e-03 -1.27951894e-02 1.56963691e-02 1.33475158e-02 1.29852723e-02 -8.86297692e-03 -1.54808897e-03 4.58542537e-03 5.50342584e-03 -7.85989407e-03 1.68934707e-02 -2.27133408e-02 -1.64980572e-02 1.02180697e-04 -1.44465333e-02 -9.48316883e-03 1.26883145e-02 2.77157854e-02 -1.87038295e-02 2.96959677e-03 1.02558043e-02 -2.59423237e-02 -9.42409970e-03 5.44839073e-03 -1.32439111e-03 1.47732021e-02 -4.71380819e-03 2.28654370e-02 -6.52294280e-03 -2.08978076e-02 -1.92673244e-02 -2.43697893e-02 -1.26479175e-02 5.48753235e-03 7.16915913e-03 1.52716674e-02 -1.12227434e-02 -2.55976513e-04 6.07645093e-03 1.35851484e-02 -1.07614938e-02 -1.35699445e-02 4.77985153e-03 2.51750858e-03 2.05268208e-02 1.65129974e-02 1.20296376e-03 1.55261802e-02 -2.01796349e-02 -1.36888949e-02 -5.68707706e-03 3.55429831e-03 -2.18216255e-02 -1.48567464e-02 -2.40000430e-03 7.66134216e-03 1.54458974e-02 3.28973355e-03 2.64545809e-02 1.15006873e-02 -5.46075264e-03 -2.18244679e-02 -1.96117721e-02 -2.61699297e-02 3.49055603e-03 -2.40524355e-02 -1.46082733e-02 -9.33767762e-03 8.26135743e-03 2.01426111e-02 -2.18945593e-02 -1.98253654e-02 -1.38514824e-02 -1.96136851e-02 1.16519378e-02 5.44260815e-03 1.82404928e-02 5.74843539e-03 1.67356059e-03 -9.24881082e-04 1.69836227e-02 1.09587694e-02 -1.36623541e-02 2.17560641e-02 5.73462434e-03 -3.79218254e-03 7.10302498e-03 -9.69619397e-03 1.04772421e-02 2.38794293e-02 -1.90510340e-02 1.32899522e-03 -1.03899101e-02 1.23289395e-02 9.74017661e-03 2.67590415e-02 -3.85759142e-03 1.99970771e-02 1.77345797e-02 1.08949477e-02 6.55497937e-03 1.05326744e-02 -8.72486923e-03 1.48038240e-03 2.23347731e-03 -7.80221727e-03 4.01350157e-03 5.96994907e-03 -1.96130257e-02 -2.30241148e-03 -6.75139157e-03 1.00731244e-02 -1.88843422e-02 2.55504753e-02 1.48372697e-02 -7.03455508e-03 2.60969042e-03 1.96915977e-02 8.66855960e-04 1.19341509e-02 -3.47512006e-03 -9.20467358e-03 2.17373744e-02 -6.90146443e-03 1.56976692e-02 1.93165317e-02 2.18287259e-02 1.61953066e-02 2.46154591e-02 1.63580421e-02 1.06420880e-02 -1.84386000e-02 6.10791519e-03 1.63649619e-02 2.95940656e-02 1.61278211e-02 6.47918414e-03 2.53766589e-02 -3.37642757e-03 1.74997244e-02 1.58938561e-02 2.54345266e-03 2.61162966e-03 1.31536229e-02 -1.50131760e-02 -8.03302974e-03 1.79240457e-03 1.16778025e-02 1.20179988e-02 2.21613571e-02 -1.60563141e-02 3.15593020e-03 3.20915162e-04 2.50907056e-02 -6.90059364e-03 -1.36897806e-02 1.90608297e-02 8.18066392e-03 7.16413138e-03 -1.20187588e-02 -2.38157641e-02 7.00341444e-03 -4.52147424e-03 -1.28824729e-02 -3.48044815e-03 -2.57319305e-02 9.24091972e-03 -1.57762878e-02 -2.68492172e-03 1.67627726e-02 1.21190604e-02 -2.28953287e-02 -1.55061288e-02 2.07109563e-02 -2.89697964e-02 5.62887266e-03 -1.34059368e-02 1.94747746e-02 -3.73282819e-03 1.08895113e-03 2.21305843e-02 -4.23717033e-03 9.22596361e-03 7.60778319e-03 -1.17208492e-02 2.36385968e-03 -1.83522776e-02 -1.61543442e-03 -1.54739041e-02 -1.34230154e-02 6.18356885e-03 -5.81880100e-03 7.80847762e-03 2.74200458e-02 -2.84528416e-02 1.18037937e-02 3.73527291e-03 5.89676341e-03 9.76874772e-03 1.17605804e-02 1.08288545e-02 1.62386876e-02 2.32688244e-03 1.02332905e-02 2.74500847e-02 1.50948158e-02 2.26696525e-02 -8.78851954e-03 1.08380448e-02 -2.16217395e-02 -2.52979957e-02 4.61631408e-03 9.01757367e-03 6.71246182e-03 1.02569265e-02 4.28610062e-03 -4.71133692e-03 -2.41342746e-03 8.88174865e-03 -7.59940594e-03 2.02228967e-02 -2.39758771e-02 5.72559843e-03 1.19145419e-02 2.70603434e-03 -1.19735142e-02 1.79367159e-02 1.17406184e-02 -4.45844932e-03 1.31936604e-02 -1.58579182e-03 -1.95488837e-02 2.35923938e-02 -1.03339935e-02 -8.96709133e-03
5.69268421e-04 -5.88262780e-03 4.99502383e-03 -1.37099801e-02 4.32551315e-06 2.18539722e-02 2.03087460e-02 -2.45176498e-02 9.24528926e-04 2.29320512e-03 -5.35663974e-04 1.03581697e-02 3.32221668e-03 -3.15355626e-03 8.30873754e-03 -1.24390004e-02 1.34722842e-02 -4.64794366e-03 -1.09712398e-02 3.01101012e-03 -1.58487324e-04 -1.90996367e-03 -9.42333892e-04 7.42198480e-03 1.18626887e-03 -1.62122864e-03 -9.18720732e-04 1.65658034e-02 -2.71055219e-03 -1.01835765e-02 -7.62261404e-03 1.24590779e-02 -6.15594070e-03 -5.93652483e-03 -1.54387327e-02 -1.01947431e-02 -9.02012084e-03 1.69592316e-03 3.73850577e-04 -8.99873488e-03 1.78058930e-02 4.49325377e-03 -4.52018203e-03 4.04342543e-03 -5.38688479e-03 1.49127347e-02 7.57649029e-03 1.42509686e-02 4.87174373e-04 2.52925372e-03 -1.02637429e-03 -9.52873286e-03 2.04446935e-03 1.15174809e-02 -5.25885075e-03 -1.76898576e-02 1.86094418e-02 -1.41735682e-02 1.81392860e-02 1.95539705e-02 2.03653406e-02 -1.10880388e-02 -1.24389865e-02 1.94357075e-02 6.83268358e-04 9.30290483e-03 5.80011588e-03 -2.12114723e-03 9.24233161e-03 -6.71499362e-03 -1.39884809e-02 -9.47605539e-03 3.04626301e-04 -1.05025601e-02 -1.37502570e-02 -5.80013311e-03 -1.47642568e-03 7.17805512e-03 5.03378548e-03 4.53140493e-03 2.73477426e-03 -2.22658422e-02 -1.82855707e-02 -1.54000027e-02 -1.49819981e-02 3.67315626e-03 -1.16698071e-02 -1.72236236e-03 6.75006595e-04 -1.43673103e-02 1.46509670e-02 -3.21510271e-03 -1.22218323e-03 1.46753830e-03 1.32764522e-02 -6.41346676e-03 -8.12196638e-03 1.23208258e-02 6.77332701e-03 1.32929592e-03 -1.52481836e-03 2.39117593e-02 -3.18861846e-03 6.82171900e-03 -2.26566009e-03 2.60819728e-03 1.67079121e-02 1.49861872e-02 -8.58430378e-03 1.19180856e-02 -2.63615837e-03 -9.64406785e-03 1.67909078e-02 3.36165936e-03 8.16133432e-03 -4.10393439e-03 -2.66927574e-03 -1.30955351e-03 3.99190094e-03 1.86049175e-02 5.48324315e-03 -2.15011532e-03 -5.26051456e-03 -1.33925234e-03 1.30987447e-03 1.34623973e-02 -9.86230094e-03 -3.78149678e-03 3.36827664e-03 -1.94365233e-02 7.21654249e-03 -1.33075183e-02 3.94929852e-03 -2.09788848e-02 9.30972025e-03 4.70430823e-03 1.89939328e-03 1.71747133e-02 1.10653099e-02 1.31772626e-02 1.42401857e-02 -8.71985592e-03 -7.00696651e-03 6.22567302e-03 3.12788901e-03 -1.47596886e-03 -9.87287983e-03 -2.10571028e-02 -1.01289954e-02 -4.37722541e-03 1.26583886e-03 -6.03846647e-03 1.26000550e-02 1.10761411e-02 -1.13309612e-02 -1.04436581e-03 -1.14723649e-02 -6.18021330e-03 -7.05534080e-03 7.11401971e-03 9.44412220e-03 -1.55915720e-02 6.45707361e-03 -9.81002301e-03 -4.57136426e-03 2.63398327e-03 -7.28189293e-03 3.72566655e-03 -1.13983429e-03 6.13536406e-03 1.64628699e-02 -2.38821423e-03 -2.11492889e-02 -2.07906943e-02 -2.63152900e-03 -1.35568483e-02 1.11521175e-02 2.47250521e-03 -9.07065696e-04 1.36717148e-02 -5.18447580e-03 7.14352587e-03 4.24730638e-03 -6.24242146e-03 -3.54764028e-03 2.40798085e-03 7.38246180e-03 -3.35151050e-03 1.10349748e-02 -6.10590260e-03 -1.19638694e-02 1.24247314e-03 1.72736892e-03 -1.50429765e-02 4.61216923e-03 -1.96062736e-02 2.20017470e-02 -5.94820920e-03 1.03263615e-03 1.27722640e-02 7.89024308e-03 4.46316227e-03 1.35229295e-03 1.31483544e-02 -5.91793889e-03 8.06998275e-03 1.26775194e-04 -1.31837623e-02 -7.82439392e-03 -1.38126602e-02 -7.38329440e-03 -2.32438631e-02 -1.50099127e-02 1.01659913e-02 6.03446458e-03 7.84773729e-04 4.51639341e-03 -1.39527721e-02 1.06823118e-02 2.68063881e-03 4.14778944e-03 -3.83562874e-03 7.46333087e-03 1.13348113e-02 2.73447949e-03 4.22110641e-03 1.29832663e-02 1.65747404e-02 -1.29224742e-02 1.47128385e-02 3.00639053e-03 -5.67657314e-03 6.84662070e-03 5.69099700e-03 8.59038811e-03 1.01891197e-02 -9.55299940e-03 -8.65264330e-03 -2.19322722e-02 9.98212025e-03 1.07921315e-02 -2.83631729e-03 -1.08534480e-02 2.49260105e-03 -1.73666514e-02 1.07172516e-03 9.02640354e-03 -5.43770846e-03 1.17739737e-02 -1.88944093e-03 -5.03800809e-04 -1.51368929e-02 -2.24373490e-03 1.41447803e-04 -9.15051810e-03 -4.44786856e-03
-1.13438172e-02 1.90894753e-02 1.77360345e-02 -1.65903978e-02 1.75195318e-02 -2.56026573e-02 1.12834740e-02 1.94641110e-02 -8.94685276e-03 1.84811489e-03 -7.59687694e-03 -2.50154641e-03 -3.99228074e-02 1.61783155e-02 -9.20675229e-03 -1.41145578e-02 -1.55289602e-02 4.31714430e-02 -1.52118597e-02 -2.05835849e-02 4.23062816e-02 2.43587717e-02 -9.08776224e-02 1.66467242e-02 2.24407949e-02 -2.17286404e-02 -3.69862206e-02 -1.44506600e-02 -1.05254585e-02 -1.70696974e-01 -4.70535131e-03 2.43296511e-02 -8.03501718e-03 1.06340158e-03 -8.59038308e-02 -1.95734855e-02 1.45824924e-01 3.00971754e-02 -1.34965405e-02 -4.45012525e-02 -9.59077850e-02 -7.45476112e-02 6.24086745e-02 1.30223958e-02 -1.95015073e-02 -7.99538419e-02 -9.33542773e-02 -7.14338347e-02 2.68688742e-02 -5.30207530e-02 -5.77363335e-02 -5.28190732e-02 -6.32656515e-02 -2.82442272e-02 5.24600409e-02 3.01173180e-02 7.04243258e-02 -3.04614417e-02 2.05704081e-03 -2.02933308e-02 -4.29021083e-02 -8.87002945e-02 -2.64944360e-02 7.12105483e-02 -7.93849379e-02 2.62270328e-02 5.45466430e-02 8.55434611e-02 4.79022823e-02 -3.82248238e-02 -6.99736923e-02 8.06989744e-02 2.71475548e-03 -4.77535613e-02 -7.23854825e-02 -6.81509823e-02 3.19303982e-02 2.46644448e-02 -1.77967399e-02 6.40282556e-02 3.44952643e-02 -2.12256145e-02 -1.80653820e-03 5.35760168e-03 8.38386826e-03 7.56617859e-02 -1.72028601e-01 7.55404774e-03 2.78205350e-02 1.37147680e-01 -4.06486243e-02 8.54728296e-02 3.84034514e-02 5.29429615e-02 8.44143704e-02 -1.06328435e-01 -4.92789224e-03 9.13487095e-03 5.30732460e-02 2.00231280e-02 -2.28457171e-02 4.19064872e-02 2.54085474e-02 3.08947321e-02 -4.51119579e-02 -3.07842363e-02 1.11438319e-01 -6.01559393e-02 5.67220598e-02 -4.23235912e-03 -2.97432505e-02 5.13914935e-02 3.21991183e-02 -4.17428650e-02 4.11943980e-02 -2.74744292e-04 1.78540815e-02 4.41213995e-02 2.69507747e-02 3.06329876e-02 2.63495501e-02 8.47831815e-02 -6.75219595e-02 3.40297073e-02 -7.85409063e-02 1.54072577e-02 5.21781035e-02 -1.78416427e-02 -2.02925242e-02 2.13223137e-02 3.40295881e-02 -4.68798587e-03 -1.52705926e-02 1.97018869e-02 -7.72714475e-03 -2.56459834e-03 5.88040752e-03 5.13000451e-02 9.46403369e-02 9.33830515e-02 -8.19948986e-02 -7.85133988e-02 -1.01336434e-01 1.44826667e-02 -1.85313132e-02 -7.93981657e-04 -9.34439804e-03 4.53486554e-02 -9.17042978e-03 -1.55910738e-02 4.32884879e-03 -8.74959305e-03 -3.78264152e-02 -1.32029355e-02 3.03176939e-02 8.58198255e-02 5.08300103e-02 5.61058708e-02 6.95132241e-02 -6.09229952e-02 3.27294618e-02 4.98506241e-02 1.23938480e-02 7.28214607e-02 2.90162042e-02 -2.43836381e-02 -1.42924786e-02 2.69969646e-02 4.09880653e-02 1.40233710e-02 3.57086062e-02 9.15914178e-02 3.47189978e-02 -4.17300612e-02 1.13329478e-02 5.88857010e-03 -4.97474372e-02 3.73871215e-02 8.25744569e-02 4.65355217e-02 -2.50100289e-02 -6.73828721e-02 4.79715951e-02 -4.02755402e-02 -2.16367468e-02 7.68575910e-03 -2.20741425e-02 2.40316056e-02 -3.29962671e-02 -8.53168126e-03 4.04234184e-03 1.48992995e-02 -1.38678057e-02 3.79303433e-02 8.65074154e-03 -1.88614968e-02 1.41605008e-02 4.97620478e-02 3.78426053e-02 1.38243623e-02 -1.59992911e-02 2.13709064e-02 3.12115904e-03 -1.28575703e-02 -2.26510391e-02 -5.41916005e-02 -5.99363856e-02 4.67705987e-02 -4.56256568e-02 9.09428170e-04 -3.34888622e-02 -2.88903783e-03 -8.55732616e-03 4.01475728e-02 3.30622587e-03 1.37067484e-02 2.01965515e-02 2.95206215e-02 5.04586846e-02 1.83413569e-02 2.36801915e-02 3.36190276e-02 7.26492703e-03 7.39777014e-02 1.43225700e-01 9.92843881e-02 1.05558068e-01 7.37131387e-02 7.56844878e-03 4.56112437e-02 -1.05917223e-01 -9.74645689e-02 -5.29186018e-02 -5.29719740e-02 -6.27256855e-02 -6.05520010e-02 7.58364145e-03 4.85211462e-02 8.45040083e-02 1.75403785e-02 8.63511562e-02 -4.45915572e-02 4.64853011e-02 4.31413762e-02 -2.78153848e-02 8.32966864e-02 -9.25056562e-02 -4.49527539e-02 3.76652889e-02 -9.91782323e-02 2.74244938e-02 -8.97332206e-02 -5.55088893e-02 4.40551899e-02 -1.27817363e-01 -3.22214290e-02
-1.09883845e-02 -1.95789523e-02 4.25778329e-03 -1.56070562e-02 -7.91081227e-03 1.61178913e-02 2.73102503e-02 -2.74630934e-02 -8.97019927e-05 -2.25254018e-02 1.90990027e-02 6.96808798e-03 -5.78824477e-03 1.26413768e-02 -3.21234833e-03 -1.79612692e-02 3.13870073e-03 9.37679317e-03 -1.46675827e-02 -9.78295319e-03 1.99409183e-02 1.11973332e-02 4.12701815e-03 3.49020166e-03 5.60691673e-03 1.44232986e-02 -1.52536528e-02 1.93846039e-02 1.87335145e-02 -9.32125561e-03 -9.17577837e-03 1.89022664e-02 -7.82502908e-03 -4.61377017e-03 -1.71709079e-02 -2.11744159e-02 -2.10715905e-02 7.96000939e-03 1.14129959e-02 -2.68053561e-02 1.17874751e-02 9.37197171e-03 -2.33086068e-02 -9.35714040e-03 1.25908833e-02 1.49794864e-02 2.57655862e-03 7.89287593e-03 8.64174590e-03 -1.90599710e-02 6.44814631e-04 -5.02642384e-03 -2.38492954e-04 -1.24338092e-02 7.07360497e-03 8.39741528e-03 1.87055692e-02 -8.69010296e-03 1.21247713e-02 2.24227179e-02 1.58692244e-02 -2.83337589e-02 -1.82456989e-02 2.74942759e-02 -3.92116606e-03 4.68429690e-03 1.55532109e-02 5.28181205e-03 2.54958076e-03 -2.01844834e-02 -1.81689896e-02 7.05682114e-03 -2.06595212e-02 -1.57573149e-02 -1.94763448e-02 -2.55426373e-02 2.24571526e-02 1.58751421e-02 1.34221260e-02 1.23700183e-02 1.86671969e-03 -7.41181709e-03 -4.04151296e-03 -8.00174195e-03 -9.28217266e-03 9.39372985e-05 -4.16039070e-03 -4.91194800e-03 -1.61794829e-04 -3.10676638e-02 1.40155088e-02 -1.93446688e-02 -1.24889752e-03 -1.38437124e-02 -7.64599768e-03 1.76820587e-02 -7.42423581e-03 1.06672309e-02 2.09496617e-02 1.32854814e-02 3.16004036e-03 3.04167951e-03 2.39634179e-02 -1.11682983e-02 1.09979352e-02 6.31742133e-03 1.85902938e-02 2.20457781e-02 -3.11697042e-03 1.94442086e-02 9.72384401e-03 -2.58537452e-03 7.47318845e-03 -2.01823488e-02 8.46724771e-03 1.22164201e-03 6.51472993e-03 7.41053373e-03 2.26528402e-02 8.39523133e-03 1.36865713e-02 1.66059434e-02 3.08621093e-03 -1.27339847e-02 -1.75927114e-02 1.12996930e-02 -1.96813121e-02 -1.16647026e-02 6.43806718e-03 -2.45821849e-02 1.07934838e-02 -2.59134602e-02 9.77991149e-03 -1.62661150e-02 4.96691791e-03 2.25762110e-02 -2.38250513e-02 1.43137062e-02 1.89130101e-02 2.35296357e-02 3.26643027e-02 -1.38151702e-02 -1.17437430e-02 5.76493610e-03 2.44767801e-03 6.38116337e-03 4.51668911e-03 -8.18963535e-03 6.98588369e-03 6.79183844e-03 1.35205584e-02 1.03965104e-02 -1.24418112e-02 1.16196359e-02 3.71738011e-03 8.02398287e-03 1.15539161e-02 5.43035939e-03 2.03671250e-02 -1.34771653e-02 1.22577548e-02 2.20100884e-03 1.79423708e-02 1.14221340e-02 1.84366165e-03 -4.42129700e-03 1.49755774e-03 -5.34201134e-03 2.62836926e-02 1.43206464e-02 2.30785571e-02 -2.18420029e-02 -6.99514756e-03 -5.61724510e-03 2.16077007e-02 -2.28808597e-02 -1.57850664e-02 2.20133946e-03 9.08544846e-03 1.76787544e-02 -1.83383783e-03 -6.84460998e-03 7.01697194e-04 -1.68422218e-02 -1.41883036e-02 8.44874606e-03 1.35983026e-03 5.83614092e-05 -2.70035234e-03 1.48435524e-02 7.71205826e-03 9.90823656e-03 -5.78303123e-03 -8.26700777e-03 8.73492844e-03 -2.19365116e-02 1.27897756e-02 -1.21213300e-02 2.71402095e-02 1.14860879e-02 -1.46527169e-02 2.24380679e-02 -1.82116572e-02 1.83952600e-02 1.32146114e-02 -2.83608190e-03 -7.94246607e-03 -6.41006045e-03 -1.62562951e-02 -2.32485086e-02 -2.03406326e-02 -1.65590122e-02 -9.49079357e-03 2.61608846e-02 2.24387757e-02 -2.60467287e-02 1.49753606e-02 -1.93421151e-02 8.59728269e-03 1.67252962e-02 1.55500853e-02 -2.15558871e-03 1.47841079e-02 -8.51241592e-03 8.65421537e-03 2.41153892e-02 1.01805041e-02 1.37276798e-02 -1.74172837e-02 8.65808688e-03 -1.27603319e-02 -1.22217592e-02 2.03773305e-02 1.11051919e-02 2.06857100e-02 1.10521326e-02 -1.68911014e-02 -3.08198342e-03 -2.23914459e-02 2.75469366e-02 1.87878758e-02 -2.14115274e-03 -2.60027740e-02 1.34054730e-02 1.02675874e-02 8.24593566e-03 1.95451127e-03 1.12089943e-02 6.30680146e-03 -2.51547713e-02 5.64917782e-03 -1.51192416e-02 -1.66290700e-02 2.38133073e-02 -1.37289530e-02 -2.52741575e-02
-2.62683276e-02 -1.95514988e-02 7.35301431e-03 -1.76301077e-02 -1.59032270e-02 2.99486909e-02 1.35090481e-02 -2.12826431e-02 -2.18936317e-02 9.23043990e-04 2.32655443e-02 1.49249854e-02 -1.95060074e-02 1.03734415e-02 -1.01986676e-02 -6.55601034e-03 -8.71521514e-03 1.24527887e-02 -1.04649123e-02 -7.97845982e-03 2.29048617e-02 -3.82078206e-03 -1.48187708e-02 1.20398058e-02 5.36124746e-04 1.92204546e-02 -7.08020246e-03 2.13690307e-02 5.39972959e-03 -3.32446257e-03 -5.65987406e-03 2.10388470e-03 -1.93989053e-02 -3.26759787e-03 -1.75286904e-02 -1.40834395e-02 -6.73744921e-03 7.22652441e-03 1.42779900e-02 -1.50509505e-02 1.22261867e-02 1.51397521e-02 -8.22176598e-03 -1.81397125e-02 1.61734037e-02 2.25738380e-02 8.07695370e-03 6.44993270e-03 -1.09004532e-03 -1.31750861e-02 3.75568029e-03 -3.03032040e-03 -4.98684589e-03 -2.28370577e-02 1.53210275e-02 -5.10720210e-03 5.07695694e-03 -1.87923852e-02 2.01009661e-02 1.04686981e-02 2.56506056e-02 -2.68520024e-02 -2.12029256e-02 7.91560207e-03 -1.48923034e-02 2.42377212e-03 -6.71930029e-04 -5.24818525e-03 1.72165390e-02 -8.50705337e-03 -1.64970588e-02 1.05522173e-02 -6.87522069e-03 -2.24798340e-02 -1.98027473e-02 -9.35568474e-03 1.04411216e-02 2.00113207e-02 1.77474152e-02 2.77717761e-03 1.23378995e-03 -1.29734753e-02 -2.91181402e-03 -3.11607588e-03 -2.31017582e-02 -1.72662700e-03 -3.10439710e-03 -2.12692115e-02 -4.86357603e-03 -9.27987602e-03 1.77424662e-02 -4.67443420e-03 -3.62992659e-03 -1.48185706e-02 6.18901430e-03 1.46153476e-02 1.27498072e-03 1.59811154e-02 6.09460752e-03 1.61233190e-02 1.43781388e-02 1.79057326e-02 1.51344780e-02 -1.69276688e-02 1.33844989e-03 2.01165844e-02 1.57551747e-02 2.30238470e-03 -7.47923367e-03 1.26466285e-02 -1.76543239e-04 -1.41010080e-02 8.70679971e-03 -1.05762221e-02 6.95707044e-03 6.13418687e-03 9.15218145e-03 4.11825581e-03 9.28862672e-03 9.41129681e-03 -1.59089826e-03 2.33734176e-02 2.37194858e-02 -2.55467892e-02 -3.19233956e-03 5.77813946e-03 -2.17362121e-02 -1.73838008e-02 3.05808266e-03 -6.01471681e-03 1.74131114e-02 -7.57960184e-03 1.07066482e-02 -1.74546465e-02 1.78223830e-02 1.14957774e-02 -7.57457362e-03 1.49683803e-02 1.89446472e-02 6.40252139e-03 3.40834558e-02 -1.11618703e-02 -1.58161931e-02 1.09866234e-02 -1.55935611e-03 1.76047739e-02 -3.82554927e-03 -8.75013880e-03 1.32451663e-02 2.06173100e-02 5.75634511e-03 6.33248966e-03 -1.71316937e-02 2.12008599e-02 3.78589379e-03 5.36358636e-03 -9.93228401e-04 1.31046381e-02 2.02136021e-02 -2.07513086e-02 1.62255950e-02 4.50576423e-03 1.32394535e-02 2.51295208e-03 1.83717143e-02 -2.20723152e-02 -1.07100774e-02 2.81445961e-03 2.55797803e-02 1.72282252e-02 2.12944718e-03 -2.33783312e-02 -1.77315157e-02 -1.40889743e-02 1.24777080e-02 -1.82557926e-02 -3.35454312e-03 2.17103977e-02 1.61325186e-02 2.18870919e-02 -4.89301095e-03 -5.96070336e-03 4.17819060e-03 -9.24311299e-03 -8.42754357e-03 1.76696840e-03 -1.57367706e-03 1.58368628e-02 6.49062218e-03 8.48172698e-03 9.80507582e-03 5.25324082e-04 -2.25649290e-02 -1.81837697e-02 2.46059522e-02 -2.37957239e-02 5.69596235e-03 -1.76333673e-02 9.46608093e-03 1.79129560e-02 -4.50312917e-04 2.29745749e-02 -2.01343861e-03 2.10404024e-02 -2.26951647e-03 -8.59567546e-04 -9.99834761e-03 -9.85594839e-03 -8.95520952e-03 -1.40309641e-02 -7.36855343e-03 -1.54472068e-02 -1.34804435e-02 1.53274694e-02 2.00365782e-02 -2.15826426e-02 9.87754203e-03 -8.82106833e-03 6.26583910e-03 1.17577016e-02 1.76494252e-02 1.63875744e-02 1.27918134e-02 -1.30744250e-02 6.91121735e-04 4.20103176e-03 2.13308707e-02 2.38702893e-02 -6.16608700e-03 1.24140782e-02 -2.07742397e-02 -1.53743988e-02 2.72791553e-03 1.66944545e-02 5.03124576e-03 1.09679690e-02 -2.25345604e-02 -1.65327862e-02 -1.02713061e-02 1.14226975e-02 1.25156948e-02 1.41265858e-02 -1.60150751e-02 -7.53457309e-04 1.07111083e-02 8.11399799e-03 -1.45473387e-02 5.47532924e-03 1.87040009e-02 -1.03031136e-02 1.81159787e-02 -6.65971404e-03 -1.32937254e-02 4.65946365e-03 -2.22416725e-02 -4.43933718e-03
-9.81473457e-03 -2.76079145e-03 -8.98184808e-05 -1.04894964e-02 -1.41080795e-02 3.76041385e-06 -1.92896777e-03 -1.35914088e-04 5.16498135e-03 -1.60299207e-03 6.32178411e-03 -4.92130313e-03 9.64044873e-03 -3.92925274e-03 5.76717639e-03 8.20723362e-03 -9.56641510e-03 -4.02469747e-03 -8.58923828e-04 8.79314914e-03 -2.14591995e-03 -3.13782319e-03 1.68727158e-04 -7.39413034e-03 -7.70989479e-03 4.55527799e-03 9.69444867e-03 -1.11881755e-02 9.66318534e-04 4.36243322e-03 4.65937331e-03 -8.94678012e-03 2.31720228e-03 1.21376816e-05 8.48201162e-04 1.47026870e-03 -1.24765458e-02 -5.57531603e-03 -3.58888414e-03 2.54298886e-03 -5.77311032e-03 -1.03136487e-02 7.21525820e-03 -5.23460004e-03 -3.39492224e-03 4.27614758e-03 -4.13042260e-03 5.74164558e-03 -6.80939818e-04 -3.40287923e-03 1.01551537e-04 3.16008297e-03 9.74670053e-04 6.93566352e-03 -1.03204353e-02 -8.82699562e-04 -7.25916820e-03 -5.76230045e-03 -7.72902137e-03 -7.55021255e-03 8.41941405e-03 4.51249350e-03 2.58855661e-03 6.51061861e-03 -3.45561234e-03 -4.89346217e-03 -6.32519135e-03 4.09450801e-03 -9.23054293e-03 7.49300979e-03 -8.73886421e-03 -7.21066119e-03 -8.96058604e-03 -3.73517419e-03 -2.96148192e-03 1.34928850e-02 -3.27652134e-03 6.73576398e-03 8.51252209e-03 -8.48454051e-03 6.10235846e-03 1.16369314e-02 -8.78383033e-03 -4.48666606e-03 -9.44025815e-03 2.53592618e-03 6.97918178e-04 -2.62332568e-03 -6.21007243e-03 -1.37566337e-02 9.81659908e-03 -8.06837250e-03 -5.24120918e-03 -2.94972886e-03 1.85655037e-04 -1.88268523e-03 -9.40138660e-03 -9.97691974e-03 -9.32089053e-03 -1.70627655e-03 6.43701386e-03 9.21721658e-05 3.26575479e-03 -8.13427940e-03 -6.63050916e-03 6.51142374e-03 -2.04513990e-03 -1.13538476e-02 1.16442647e-02 -5.14287152e-04 -6.39841938e-03 6.27852092e-03 -6.32454269e-03 -2.62049050e-03 3.59894265e-03 6.62873825e-03 -6.67662499e-03 3.69604048e-03 -1.68948679e-03 3.03910719e-03 1.27097848e-03 5.13400976e-03 -5.49118547e-03 4.41807508e-03 1.32449800e-02 -2.01026746e-03 2.91340402e-03 7.44947884e-03 1.07589979e-02 1.95979094e-03 -1.01862215e-02 -5.52004622e-03 -1.00509273e-02 -9.55806114e-03 9.31907445e-03 -2.34326581e-03 -8.35453905e-03 -6.32308098e-03 1.01616094e-02 1.31116190e-03 -1.17829022e-05 3.44636012e-03 4.30993875e-03 -5.35535859e-03 -3.10469791e-03 3.86935985e-03 6.12427806e-03 -1.23533662e-02 -1.12372711e-02 -9.86583903e-03 -1.50440661e-02 5.21735754e-03 -1.73506711e-03 -7.15556322e-03 -1.01459655e-03 -7.53044806e-05 -1.35025708e-02 -3.14374827e-03 4.83272318e-03 6.18202845e-03 -6.33201050e-03 7.50872539e-03 -5.43747516e-03 -2.53143301e-03 -2.14866851e-03 -7.22592929e-03 8.91663227e-03 -8.90188676e-04 -4.67323791e-03 3.52864782e-03 7.97566306e-03 -1.35909189e-02 -2.56157224e-03 8.69718660e-03 -4.49703448e-03 -9.48672357e-04 1.34647451e-02 -1.08713321e-02 6.16816571e-03 -1.26878489e-02 1.52668701e-02 -1.83849726e-04 -1.37996138e-03 1.06387325e-02 -8.49278923e-03 -1.35950688e-02 2.35826080e-03 -1.81271767e-04 -1.80556881e-03 8.42739828e-03 4.96819708e-03 -8.35062843e-03 3.30783729e-03 8.12673196e-03 -1.00764050e-03 1.66926009e-04 -5.29478013e-04 3.65567720e-03 -1.04783634e-02 -4.51986212e-03 1.13629112e-02 4.11026832e-03 5.80366142e-03 8.19833731e-05 -9.87413991e-03 1.13541288e-02 2.33953935e-03 2.33596424e-03 2.57158373e-03 -6.72166003e-03 9.97769553e-03 -9.07803513e-03 7.76826683e-03 -2.53080344e-03 -6.15542382e-03 5.99030114e-04 -1.13140407e-03 7.45439483e-03 -1.11954790e-02 -8.27694032e-03 -2.82614934e-03 -7.50236306e-03 7.94523768e-03 -5.86998323e-03 8.61208141e-03 -5.02637681e-03 -1.10728480e-02 6.72896439e-03 5.00301365e-04 5.03618969e-03 2.62071472e-03 6.07833127e-03 -9.73471068e-03 -2.91626132e-03 -1.38147110e-02 -1.08666243e-02 7.29555171e-03 1.24902846e-02 7.68015953e-03 -3.53315962e-03 6.14162348e-03 -1.33220758e-02 -2.09599314e-03 -1.29829394e-02 1.47212460e-03 -3.47340200e-03 5.79879573e-03 2.00823182e-03 3.02731991e-04 -7.88623933e-03 -3.21566011e-03 -3.12745036e-03 -1.17783779e-02 -8.18176102e-03 6.43206434e-03 5.81623707e-03
-2.15065815e-02 -1.25775421e-02 2.23660283e-02 -3.32636549e-03 -1.29159270e-02 1.16085988e-02 1.77088547e-02 -2.43200772e-02 -5.38047682e-03 -2.29997933e-02 1.18783172e-02 3.21490178e-03 -1.91893242e-02 3.36877792e-03 -7.32517848e-03 -1.70142651e-02 -1.48688061e-02 4.62010317e-03 -2.09900625e-02 -2.26479787e-02 1.23167271e-02 4.55762492e-03 -1.41088199e-03 8.25664122e-03 2.16378439e-02 2.11595483e-02 -1.32259633e-02 9.93216131e-03 3.48425028e-03 -2.02394347e-03 -2.30114441e-02 2.24035196e-02 -2.13936847e-02 -2.43651979e-02 -2.34716032e-02 -1.67952981e-02 -1.49972532e-02 1.07517187e-02 2.80559249e-03 -1.69673394e-02 2.34804042e-02 2.09357347e-02 -7.59859011e-03 -1.75983105e-02 7.73808639e-03 1.36929117e-02 9.65225697e-03 9.79186967e-03 3.54069308e-03 -1.15082953e-02 -2.36208625e-02 -1.70158539e-02 -1.07953558e-02 -1.32495528e-02 1.16602723e-02 2.36644857e-02 2.75705159e-02 -1.71056669e-02 1.78000405e-02 8.92822351e-03 4.39134426e-03 -1.88598316e-02 -1.35182161e-02 1.90957375e-02 -5.75641450e-03 7.12078391e-03 7.43291620e-03 1.65439080e-02 1.84357949e-02 -2.87888153e-03 -1.37927551e-02 2.18211133e-02 -1.72302853e-02 -1.86975263e-02 -2.07590796e-02 -1.17596267e-02 2.17267051e-02 2.42434777e-02 2.75924839e-02 3.48946336e-03 9.47197620e-03 -1.43175116e-02 -1.17971627e-02 -1.89192854e-02 -2.21166853e-02 1.42429154e-02 -1.41707733e-02 -2.10306142e-02 -1.89990494e-02 -1.55454408e-02 -1.29438506e-03 -1.81788448e-02 -2.25159284e-02 -2.74173426e-03 -1.33496663e-02 2.11472176e-02 -2.39185188e-02 2.14740001e-02 7.79338647e-03 2.24211235e-02 1.14140613e-02 9.06240195e-03 1.47328563e-02 -1.72041729e-02 9.04240273e-03 1.47802169e-02 1.99980456e-02 5.82117029e-03 -1.17493467e-02 2.23425124e-02 1.07840868e-02 -1.30644571e-02 1.59849413e-02 -5.69662591e-03 5.02273394e-03 9.02387686e-03 7.36068003e-03 1.82313081e-02 1.91699546e-02 1.84949599e-02 2.60810321e-03 6.41932338e-03 2.50397008e-02 -3.90387862e-03 -1.09964656e-02 1.99665856e-02 -8.29761196e-03 -1.47654733e-03 6.99470937e-03 -1.27422623e-02 2.08809078e-02 -1.52639914e-02 2.50301044e-02 -1.91426836e-02 1.42746549e-02 6.91531412e-03 -3.26622743e-03 2.29662620e-02 3.76657560e-03 1.99673194e-02 2.42266785e-02 -7.05998484e-03 -2.09508929e-03 9.43989772e-03 -5.60061447e-03 7.47775659e-03 1.02600204e-02 -1.59887150e-02 1.14761796e-02 1.38089769e-02 1.63719989e-02 1.82692204e-02 -2.24879645e-02 1.21607250e-02 1.37483729e-02 1.94783759e-04 9.09385085e-03 2.98473844e-03 2.18431698e-03 -1.84675194e-02 3.58707155e-03 2.56675296e-03 -1.27372768e-04 9.22761485e-03 1.65718384e-02 -1.53868170e-02 -2.22876202e-02 1.59793049e-02 4.44610463e-03 2.71387002e-03 1.50664980e-02 -1.86047647e-02 -8.99581797e-03 -2.44452897e-02 2.16379054e-02 -4.95076366e-03 -1.20637361e-02 9.69462935e-03 1.61847379e-02 1.49328904e-02 -8.55657365e-03 -1.05394116e-02 1.26750683e-02 -8.21674615e-03 -6.59282692e-03 1.67888459e-02 -1.03287864e-02 7.80248828e-03 -4.74877702e-03 1.44527471e-02 2.09797472e-02 2.18464732e-02 -1.62086114e-02 -6.84797158e-03 8.03102925e-03 -7.48004764e-03 1.70178227e-02 -2.15514358e-02 2.38214824e-02 1.28639545e-02 -1.49244620e-02 1.63860538e-03 -2.42238436e-02 2.13641170e-02 1.67519357e-02 -2.02412484e-03 -2.21865736e-02 -1.55116692e-02 -1.26271201e-02 -2.04032077e-03 -1.36908926e-02 -1.46180578e-02 -2.42746584e-02 2.36131866e-02 4.25864197e-03 -6.46637892e-03 1.13110794e-02 -7.06565659e-03 1.27797835e-02 1.35417674e-02 1.90078989e-02 2.03766134e-02 1.77854784e-02 -1.16605135e-02 9.88656934e-03 2.04751845e-02 5.90729760e-03 4.46634041e-03 -2.09101662e-02 6.44347491e-03 -2.19540298e-02 -2.06520911e-02 7.53685040e-03 4.93351789e-03 1.56242521e-02 1.83029901e-02 -1.86388269e-02 -1.34352287e-02 -2.28829980e-02 2.25951225e-02 2.23658588e-02 4.86123376e-03 -5.86410705e-03 1.93480868e-02 3.15932138e-03 6.05982868e-03 -1.32576330e-02 1.64020024e-02 1.27132284e-02 -7.19391694e-03 1.40383365e-02 -2.20249761e-02 -2.05726977e-02 6.57791877e-03 -2.38071755e-02 -1.05240596e-02
-4.59451415e-03 -2.17507854e-02 1.09589370e-02 -1.37077197e-02 -3.46710393e-03 1.11482842e-02 9.56973713e-03 -2.03639846e-02 -1.08708441e-02 -1.53174717e-02 1.10511435e-02 1.96425081e-03 -1.39784173e-03 1.20958807e-02 -4.77625895e-03 -4.68890322e-03 -1.18163032e-02 6.38551684e-03 -1.66097172e-02 -1.65335461e-02 7.39483070e-03 1.64757445e-02 -8.11995752e-03 7.22500542e-03 1.15740579e-02 5.27101150e-03 -7.67172873e-03 2.05210573e-03 1.35509521e-02 -1.99948885e-02 -1.26624508e-02 -4.92449035e-04 -2.02828106e-02 -1.94239919e-03 -9.65072867e-03 -1.61638614e-02 -2.42445488e-02 2.33365782e-02 2.06351373e-02 -1.89893749e-02 1.43687306e-02 1.93586648e-02 -7.48749962e-03 -2.12408584e-02 -5.72597608e-04 1.48484241e-02 4.21533873e-03 1.10393800e-02 2.98919505e-03 -7.28358142e-03 1.91261608e-03 -5.46259526e-03 2.55227875e-04 -7.67082442e-04 -4.75296145e-03 1.58816343e-03 5.64863067e-03 -2.52748728e-02 9.62462835e-03 1.31731126e-02 2.51590554e-02 -7.71294674e-03 -1.84868742e-02 2.55512521e-02 -1.60070378e-02 8.37318972e-03 4.53489413e-03 -6.81855110e-03 1.83635820e-02 3.96157731e-04 -1.15371309e-02 9.41460580e-03 -1.86935533e-02 -1.66318845e-02 -2.12074406e-02 -1.62778758e-02 1.07424101e-02 2.20205691e-02 2.12106965e-02 8.26052856e-03 1.64238084e-02 -2.03408096e-02 -1.24795213e-02 -8.97786487e-03 -1.72667075e-02 9.47529171e-03 4.48166579e-03 -6.52711955e-04 -2.10969821e-02 -1.35250604e-02 2.12814179e-04 -8.36209394e-03 -9.16835573e-03 -1.74744893e-02 2.88482569e-03 4.64401022e-03 -1.82009730e-02 1.88539177e-02 2.11203266e-02 1.31961042e-02 1.79930255e-02 5.48624480e-03 1.04212388e-03 -8.57510231e-03 2.34631151e-02 1.78215802e-02 5.90901449e-03 1.71591286e-02 -1.02775311e-03 1.80743523e-02 1.37928035e-02 -2.15202514e-02 1.19385635e-02 -1.94313750e-02 2.24673171e-02 7.21563702e-04 -1.06234907e-03 1.00520421e-02 7.06484634e-03 6.49361755e-05 1.81944035e-02 2.20933575e-02 1.09804599e-02 -1.10381115e-02 -4.95928200e-03 1.42424256e-02 -2.12732386e-02 -1.60185471e-02 4.68317792e-03 -9.32513177e-03 5.09039778e-03 -1.40214525e-02 1.46129429e-02 -2.42849495e-02 1.43166911e-02 1.97491553e-02 -1.72208361e-02 2.85956636e-03 1.43629080e-02 1.30134756e-02 2.27058586e-02 -1.36662023e-02 -2.32729465e-02 1.15125934e-02 -1.93925444e-02 9.48073808e-03 8.62755626e-03 -5.85663583e-05 1.75228622e-02 3.51850013e-03 7.09314877e-03 -3.32891662e-03 -5.14433347e-03 1.13263791e-02 1.40449759e-02 1.74328052e-02 2.84677534e-03 6.07488537e-03 3.76827153e-03 -3.11446819e-03 2.59052985e-03 -3.65711888e-03 4.36597643e-03 2.15471606e-03 -7.26059731e-03 -1.77778136e-02 -4.63981327e-04 1.71977654e-02 1.94228180e-02 2.20469367e-02 1.53396530e-02 -2.06027050e-02 -2.01259106e-02 -1.53821325e-02 4.27179458e-03 -6.42592646e-03 -1.47393383e-02 1.03187952e-02 -3.92968766e-03 1.82539485e-02 -1.37867196e-03 4.36601957e-04 -2.57925852e-03 -1.82305444e-02 3.91642656e-03 5.33331512e-03 2.73784529e-03 1.50641631e-02 -1.11665362e-02 1.31235237e-03 5.12992265e-03 4.26898757e-03 -1.51674552e-02 -2.69238241e-02 2.43792981e-02 -2.40765568e-02 2.39628535e-02 -1.86921824e-02 1.78912226e-02 2.07547061e-02 -1.16377808e-02 1.80897564e-02 -6.84712641e-03 1.85817182e-02 1.02317184e-02 -1.13176601e-02 -1.47523731e-02 -1.64471045e-02 -1.79694202e-02 -9.29962005e-03 -1.67387314e-02 -5.83544187e-03 -1.08045600e-02 7.32920179e-03 2.55667102e-02 -1.98483281e-02 1.43106803e-02 -2.67457739e-02 2.72342470e-02 1.73076373e-02 1.21614533e-02 3.87444557e-03 1.60749666e-02 -1.92403607e-02 1.72402039e-02 9.77604650e-03 2.30760388e-02 7.39091914e-03 -1.51236914e-02 1.33959958e-02 -1.24772312e-02 -1.74785089e-02 1.70521848e-02 9.83431842e-03 1.41042536e-02 1.65049806e-02 -4.43530874e-03 -6.22915896e-03 -1.85482819e-02 4.86460887e-03 1.88678748e-03 1.84493940e-02 -1.87535328e-03 1.35023054e-02 1.07505815e-02 1.34460842e-02 -1.83689129e-02 1.21897664e-02 1.26535818e-02 -2.23132428e-02 1.92368571e-02 -4.61445283e-03 -5.69459330e-03 2.31759064e-02 -1.04088783e-02 -8.86999164e-03
-2.77594514e-02 -1.40259778e-02 2.70806272e-02 -1.73463579e-02 -1.06548332e-02 3.15234959e-02 2.52377726e-02 -1.65634360e-02 -1.31009445e-02 -5.49347512e-03 9.29354131e-03 2.06568949e-02 -1.09004532e-03 -1.88909576e-03 -1.18048964e-02 -1.63077586e-03 -1.18657667e-02 -4.21501929e-04 4.16155579e-03 -1.82574044e-03 -1.42118754e-03 5.50471339e-03 -8.68485402e-03 7.74432952e-03 7.71922898e-03 1.52254838e-03 -2.32494865e-02 1.78281739e-02 3.71689838e-03 -1.18213370e-02 -1.25412103e-02 4.60959878e-03 -2.17239037e-02 -2.57692579e-02 -5.56086656e-03 -8.54244828e-03 -2.38430426e-02 1.50928106e-02 1.28108254e-02 -1.15259495e-02 2.27765311e-02 6.48117717e-03 -2.71457732e-02 -2.29763538e-02 9.40116029e-03 2.36912388e-02 1.66211259e-02 1.56041598e-02 1.97903123e-02 1.99235190e-04 5.40659856e-03 -4.03469009e-03 -1.36530558e-02 -1.09884655e-02 4.33131587e-03 4.38261777e-03 1.91326980e-02 -2.20032204e-02 2.04110332e-02 2.46913712e-02 2.07503829e-02 -2.14774627e-02 -9.06276330e-03 2.77000275e-02 -1.10106524e-02 8.38686340e-03 5.20903617e-03 -3.89784668e-03 6.11466635e-03 -9.85807739e-03 -8.98559950e-03 3.45549127e-03 -1.16775129e-02 -2.24236455e-02 -1.33983959e-02 -1.51306419e-02 2.10504960e-02 1.78447701e-02 1.22200316e-02 2.21300125e-02 1.13870921e-02 -4.42229537e-03 -6.19311864e-03 -2.22660247e-02 -1.35297878e-02 -8.91769212e-03 2.21659965e-03 -1.66307203e-02 -6.62102783e-03 -1.28672300e-02 -1.62618281e-03 -1.44038182e-02 -3.74768651e-03 -1.56442374e-02 -4.99340426e-03 1.86419338e-02 1.31771760e-03 2.02420764e-02 1.73958987e-02 1.74588673e-02 8.11827835e-03 2.06716284e-02 5.07572759e-03 -2.03476176e-02 8.57667904e-03 1.18101835e-02 1.63376555e-02 -5.94676763e-04 -3.05677124e-04 2.07550824e-02 1.79852899e-02 -2.16716155e-02 1.38058504e-02 1.23468367e-03 8.11408088e-03 3.60856275e-03 8.29545967e-03 6.64983923e-03 8.93031061e-03 1.14658196e-02 1.09173618e-02 2.68929126e-03 3.67330713e-03 -8.66633561e-03 3.40804528e-03 2.19030827e-02 -7.50078214e-03 -4.77074973e-05 2.10690591e-02 -1.61562618e-02 1.28671508e-02 -7.44605856e-03 1.49684334e-02 -2.03314722e-02 1.53325293e-02 2.55327765e-02 -2.23878771e-02 1.80057213e-02 5.18692378e-03 6.11754227e-03 1.73429605e-02 -2.51402706e-02 -1.83016174e-02 2.09041312e-02 7.77980371e-04 -2.28379876e-03 8.88132770e-03 -1.46178557e-02 1.53156007e-02 5.73224016e-03 1.39451791e-02 1.10738985e-02 -1.32715451e-02 4.11179941e-03 2.37469492e-03 2.68668029e-02 1.78733561e-02 1.65631734e-02 1.27383554e-02 -1.83964875e-02 6.23517763e-03 1.44197457e-02 -1.80791633e-03 1.07723633e-02 1.26184672e-02 -2.83737807e-03 1.71790028e-03 1.38339987e-02 9.16068070e-03 1.52181173e-02 1.74146350e-02 -8.51584226e-03 -8.76875222e-03 -1.02881221e-02 6.09240076e-03 -2.23780163e-02 2.18761317e-03 2.16118973e-02 -5.71566913e-03 1.69048291e-02 3.29542370e-03 -1.99427977e-02 1.32375571e-03 5.90286311e-03 -2.21161125e-03 -5.16195502e-03 -1.77731421e-02 1.15600172e-02 9.52717208e-04 4.24395595e-03 -2.24848255e-03 8.72943085e-03 -2.16521397e-02 -8.53720494e-03 2.67896745e-02 -2.03419514e-02 1.29682226e-02 -2.54396107e-02 1.53275840e-02 2.74612773e-02 -6.03162497e-03 4.00729384e-03 1.81163335e-03 1.13077918e-02 1.43334484e-02 4.58107376e-03 5.05661685e-03 -2.02441383e-02 -1.90503057e-02 -1.46543533e-02 -1.79064088e-02 -7.30856601e-03 -1.40579147e-02 1.63860787e-02 1.04295108e-02 -1.47831663e-02 8.93319678e-03 -1.90935489e-02 2.07391400e-02 2.03878898e-02 2.43902132e-02 1.71706658e-02 1.26380390e-02 -9.30041447e-03 9.95144807e-03 1.33079812e-02 1.16410898e-02 2.88852453e-02 -1.71090197e-02 2.18609311e-02 -2.10194737e-02 -2.83921901e-02 2.54019499e-02 2.52227914e-02 6.88942196e-03 1.06706144e-02 -1.32581042e-02 -1.08083431e-02 -1.83572490e-02 9.04899556e-03 8.07243772e-03 -3.99904675e-04 -2.56198719e-02 6.11294154e-03 2.16967496e-03 -4.55624470e-03 -9.48841963e-03 2.05359515e-02 2.46825814e-02 -5.77229680e-03 2.59127896e-02 -6.87607564e-03 -2.02894751e-02 1.46577489e-02 -2.18093991e-02 -2.00126097e-02
8.80982319e-04 -2.48112367e-03 1.17504401e-02 -3.90023430e-04 -1.85049284e-04 9.23185237e-03 1.18501289e-02 -1.16300751e-02 6.50688121e-03 -1.82893185e-03 -8.40858498e-04 -7.34748319e-05 7.14745698e-03 9.49044339e-03 -9.82716959e-03 1.09607028e-03 -9.34637245e-03 -6.06830977e-03 -1.31893456e-02 -1.85800018e-03 8.52000993e-03 -7.35971844e-03 7.35573098e-03 3.41644441e-03 1.26126362e-02 4.04776959e-03 7.28064822e-03 1.12626664e-02 -2.97965808e-03 5.28548006e-03 6.35031098e-03 7.33738998e-03 -5.71893016e-03 2.24104049e-04 3.54436168e-04 -1.54084619e-03 -2.12684763e-03 -6.76582428e-03 1.44058550e-02 -5.04035782e-03 -5.76560060e-03 -8.28425691e-04 -1.14810662e-02 -9.82508902e-03 -5.53735672e-03 1.01857185e-02 1.16642890e-02 5.47674438e-03 1.04080904e-02 -1.28869340e-02 7.28594419e-03 2.24075746e-03 4.95585008e-03 1.80397730e-03 -7.99608696e-03 -3.25342547e-03 1.60549174e-03 -6.60057180e-03 -3.64376302e-03 -2.40761042e-03 -6.26781443e-03 -2.96640326e-03 2.08770181e-03 2.86830543e-03 -1.02926744e-03 -3.77599662e-03 -3.95333255e-03 5.58693195e-03 -8.00684839e-03 7.03531643e-03 4.86232294e-03 -8.40946194e-03 -9.67631023e-03 -9.84358042e-03 -5.38324879e-04 -1.03490669e-02 -1.92563469e-03 5.97780989e-03 1.08014857e-02 -7.83929322e-03 7.38881622e-03 -1.09305577e-02 2.25391719e-04 -5.97994868e-03 1.30968413e-03 3.17723094e-03 -2.26745661e-03 -1.24571500e-02 -1.03796860e-02 -5.81683265e-03 1.11586312e-02 1.06766410e-02 6.96101505e-03 -5.30649954e-03 -7.70711573e-03 -2.98965815e-03 -6.89156679e-03 8.75548366e-03 -1.33919166e-04 -5.93224482e-04 -2.22134031e-03 -3.33234877e-03 3.88436345e-03 2.03970718e-04 7.56792119e-03 6.52710767e-03 1.26784341e-02 5.28964587e-03 3.08150775e-03 -6.16998086e-03 1.73284672e-03 -4.95732063e-03 1.07657304e-02 5.15586697e-03 -3.99797410e-03 1.46218878e-03 -9.38961096e-03 6.24559773e-03 -1.06545156e-02 9.80542693e-03 -3.89629463e-03 1.39271794e-03 -1.12406746e-03 -3.04401712e-03 -8.59759562e-03 -3.63000599e-03 -9.50284861e-03 -5.93191152e-03 5.09919738e-03 6.57393970e-03 -3.13240918e-03 1.09394873e-03 -7.94555712e-03 -1.81652163e-03 7.47061288e-03 -8.49834061e-04 5.09365927e-03 3.58193158e-03 7.59897707e-03 -1.56966294e-03 6.99198106e-03 5.23851439e-03 -6.13104086e-03 6.91767270e-03 1.38181506e-03 1.30072357e-02 7.53329252e-04 -1.01427222e-02 3.26565560e-03 -5.69494860e-03 1.89564552e-03 1.21159619e-02 -1.08522223e-02 -8.45626183e-03 -7.05592625e-04 3.92983085e-04 -4.97057568e-03 -5.05587785e-03 1.06240902e-02 4.08277288e-03 -9.97427665e-03 6.32934878e-03 -7.75416102e-03 -2.31043174e-04 4.06113826e-03 -9.68722277e-04 1.05473110e-02 2.28107581e-03 4.09959024e-03 -8.53622239e-03 -4.00492270e-03 5.74492035e-04 -1.32285738e-02 -9.38356295e-03 -6.42234646e-03 5.86450240e-03 8.78260285e-03 7.80119281e-03 1.01357177e-02 -1.86917966e-03 6.66769408e-03 8.02631117e-03 -8.09331983e-03 -1.03289960e-02 -5.09652356e-03 3.43138003e-03 5.33582270e-03 -6.11981796e-03 1.59719982e-03 1.92803869e-04 3.77697195e-03 1.16655873e-02 2.49449001e-03 4.99808043e-03 1.24126463e-03 -5.61714685e-03 -8.67978483e-03 -1.04731778e-02 -8.49732012e-03 1.07517103e-02 -1.18246526e-02 7.09619233e-03 -4.23719268e-03 -9.16866772e-03 -4.90616588e-03 -7.46014435e-03 2.97842128e-03 -1.23822456e-02 -4.61311173e-03 2.06907070e-03 -8.89722072e-03 -1.11608850e-02 -6.32019481e-03 9.77296382e-04 -3.31770815e-03 4.08867793e-03 1.17797954e-02 4.59364755e-03 9.25292820e-03 1.24221230e-02 1.10571692e-02 8.87127593e-03 -7.74073694e-03 -6.22683950e-03 8.30609817e-03 1.35997748e-02 -3.20312474e-03 -9.17930796e-04 -1.07838754e-02 1.47746289e-02 -4.02189186e-03 -3.96895129e-03 -9.64918919e-03 1.15450341e-02 6.64256699e-03 -3.33634927e-03 2.85575143e-03 -8.31080601e-03 -1.60180219e-03 6.58508763e-03 -3.80739640e-03 1.99309201e-03 -1.94714777e-03 -2.23310641e-03 5.71220135e-03 -8.79803579e-03 2.95823114e-03 2.99811107e-03 -7.31434999e-03 6.25504088e-03 -1.91747618e-03 3.75049585e-03 8.91275331e-03 8.56608339e-03 6.33676955e-03 -7.66388560e-03
-1.74208805e-02 -2.30072327e-02 1.84163637e-02 -2.19327491e-02 -1.76434275e-02 1.87191293e-02 2.03176066e-02 -1.48940086e-02 -7.22148269e-03 -7.40723498e-03 8.27832241e-03 1.06243249e-02 -1.16052534e-02 3.11483187e-03 -1.83905698e-02 -1.23985698e-02 -3.65528348e-03 1.32961841e-02 3.16646020e-03 -1.64134204e-02 5.88094816e-03 4.54062968e-03 3.73757910e-04 1.80695020e-02 1.95271373e-02 1.04759019e-02 -1.03631914e-02 1.51991900e-02 1.52162882e-02 -1.99167896e-02 -1.49927633e-02 1.24965562e-03 -1.54694933e-02 -8.07347614e-03 -1.10567082e-02 -2.12378781e-02 -8.17675050e-03 2.12130304e-02 2.47202255e-02 -2.26199254e-02 1.81744415e-02 1.27950348e-02 -6.61309296e-03 -1.95516422e-02 2.09334847e-02 1.82913169e-02 1.85006186e-02 1.58548802e-02 1.69142988e-02 -2.05611568e-02 -4.31333482e-03 -2.02815160e-02 4.33158013e-04 -1.25624463e-02 1.78573036e-03 1.43640917e-02 1.63423736e-02 -2.40461491e-02 2.72156075e-02 9.77327023e-03 2.89066099e-02 -2.25976817e-02 -6.34417171e-03 9.00815707e-03 1.63795822e-03 1.54358093e-02 1.52636785e-02 2.02313066e-03 1.04291514e-02 -1.20729106e-02 -2.12592371e-02 -2.42714630e-03 -1.03938309e-02 -1.27330236e-02 -2.11373307e-02 -2.00058911e-02 2.69312435e-03 9.19905305e-03 7.82232638e-03 5.01559256e-03 2.25855578e-02 -6.52696146e-03 -2.00399682e-02 -1.73750911e-02 -1.31066972e-02 1.73653252e-02 -1.48891495e-03 -7.87869468e-03 -2.42702872e-03 -1.25604291e-02 1.20418165e-02 -1.19257765e-02 -4.01281938e-03 -1.02283321e-02 -1.65384717e-03 2.23953910e-02 -1.15797138e-02 9.25355498e-03 2.27444991e-02 1.95444152e-02 1.00800311e-02 2.48416960e-02 -9.63036320e-04 -1.54350861e-03 9.70803760e-03 1.50906888e-03 4.35504643e-03 1.79749224e-02 -1.84512865e-02 1.68342311e-02 1.17012896e-02 -2.13168208e-02 1.37157971e-02 -1.57644805e-02 8.96705780e-03 1.12599377e-02 7.84934964e-03 1.23600047e-02 2.32566781e-02 1.89535785e-02 1.64972059e-02 1.12581672e-02 1.74667761e-02 -8.75876751e-03 -1.50471888e-02 1.13729555e-02 -7.03954545e-04 -1.30228810e-02 2.71954928e-02 -2.50773653e-02 6.92638278e-04 -2.53784750e-03 1.92983751e-03 -4.27357294e-03 1.60043910e-02 2.47398913e-02 -1.51614081e-02 1.51928822e-02 1.37897749e-02 2.10167244e-02 8.63063242e-03 -2.49486119e-02 -2.26486418e-02 2.25891583e-02 -1.45437727e-02 1.73536167e-02 2.34694080e-03 1.37930531e-02 1.28333061e-03 1.83071159e-02 1.72696859e-02 7.82257970e-03 -2.04714923e-03 3.10113677e-03 8.00692849e-03 2.72914711e-02 1.04379114e-02 8.22006632e-03 1.50496950e-02 -1.08264573e-02 9.58502200e-03 1.19463382e-02 1.22848907e-02 5.51950070e-04 1.70388129e-02 -6.18592417e-03 -1.30838957e-02 7.95475207e-03 1.46460487e-02 1.09484298e-02 9.38103348e-03 -2.20072903e-02 -1.42630693e-02 -6.07685233e-03 1.74054466e-02 -5.97966649e-03 -7.01859128e-03 2.28985734e-02 2.51047692e-04 2.15695668e-02 -9.56718251e-03 -1.51255159e-02 1.12446770e-02 4.42285184e-03 7.41390802e-04 1.33178337e-02 -1.32135423e-02 1.30062802e-02 -1.42488554e-02 5.42419916e-03 5.09781938e-04 1.12756742e-02 -6.59223413e-03 -1.52728762e-02 6.60129171e-03 -1.53830759e-02 1.16740353e-02 -1.72903575e-02 2.13722698e-02 5.30825928e-03 -5.56299114e-04 1.21349040e-02 -8.62110755e-05 2.76071504e-02 9.08917654e-03 -9.20619722e-03 -5.68307098e-03 -7.94754643e-03 -1.24480026e-02 -2.29825620e-02 -8.88894498e-03 -1.23881949e-02 -1.43944034e-02 9.48909391e-03 2.40352843e-02 -1.50154717e-02 1.23635111e-02 -8.41045473e-03 2.29210150e-03 1.63062774e-02 9.39740799e-03 1.98467113e-02 7.85758998e-03 -1.75368134e-02 1.28792394e-02 2.15382762e-02 1.22292740e-02 1.23194009e-02 -1.69831011e-02 2.28268057e-02 -1.74525045e-02 -1.45117445e-02 2.41999086e-02 5.07338531e-03 2.53297668e-02 2.40100827e-02 -1.94294229e-02 -1.41162621e-02 -8.94622505e-03 2.25829184e-02 1.08256955e-02 2.19115689e-02 -4.96212160e-03 1.83478743e-02 6.04915107e-03 4.96827066e-03 -4.30117548e-03 7.25655118e-03 1.71905626e-02 -7.97256269e-03 1.48487901e-02 -1.75911952e-02 -1.44422241e-02 1.89960822e-02 -7.09825940e-03 -1.33160446e-02
-1.68698505e-02 -7.53596006e-03 7.58939283e-03 -1.52503774e-02 -1.86249427e-02 1.04379300e-02 1.98501945e-02 -1.70942377e-02 -4.76989336e-03 -1.58315115e-02 1.19521916e-02 2.79683620e-02 -6.01082109e-03 1.57712940e-02 -1.01891803e-02 -6.09025871e-03 3.44458059e-03 1.69385523e-02 -1.57817304e-02 1.74725719e-04 2.81513901e-03 1.56451799e-02 -2.05770275e-03 2.14230511e-02 2.06824392e-02 3.64647154e-03 -8.27974919e-03 3.33250617e-03 1.56543795e-02 -1.37229133e-02 -1.71332546e-02 1.82253625e-02 -1.03985136e-02 -1.19689396e-02 -1.75554305e-02 -5.02608391e-03 -2.73114294e-02 5.86486794e-03 1.35751162e-02 -1.63915642e-02 1.84745584e-02 2.43907552e-02 -3.10592190e-03 -6.75465399e-03 8.98858998e-03 1.90864336e-02 2.42072120e-02 1.90620255e-02 7.43310060e-03 -1.21951029e-02 -1.46559719e-02 -1.82895046e-02 -1.24893468e-02 -2.00290680e-02 8.22519325e-03 9.58014559e-03 7.31808832e-03 -1.83112044e-02 8.26197583e-03 2.02287901e-02 1.79831479e-02 -1.51253724e-02 -2.18086950e-02 2.68636514e-02 -1.64519995e-02 1.07650803e-02 1.09021692e-02 3.06340493e-03 9.21851117e-03 -4.96012531e-03 -3.10667120e-02 4.04812675e-03 -1.47627387e-02 -2.05133688e-02 -7.01380381e-03 -1.73835084e-02 4.49394016e-03 2.47094594e-02 1.63076222e-02 5.59943961e-03 2.20848583e-02 -1.18577387e-02 -2.54240539e-02 -1.60526130e-02 -8.45375471e-03 1.52180567e-02 -8.91217124e-03 -2.06049718e-02 -4.44867788e-03 -3.03446911e-02 1.82768404e-02 -2.81932764e-03 -9.15844087e-03 -1.84199326e-02 -1.73133006e-03 6.15006732e-03 -3.76288826e-03 1.32685127e-02 4.26371489e-03 1.79470349e-02 1.26152197e-02 2.55862400e-02 2.09841412e-02 -1.61613151e-02 1.85606014e-02 2.03298889e-02 1.05814626e-02 6.30989112e-03 -2.94770836e-03 1.08225131e-02 6.14687451e-04 -1.88305657e-02 1.86031517e-02 -1.80734526e-02 1.06821489e-02 6.18617376e-03 1.46077201e-02 1.22555997e-02 2.90339463e-03 5.93778351e-03 6.36906549e-03 9.63042583e-03 4.78230743e-03 -2.04770602e-02 -9.07876436e-03 3.49306548e-03 -2.78041186e-03 -1.26879327e-02 1.07489880e-02 -1.65066570e-02 3.73440864e-03 -8.82378686e-03 6.63376320e-03 -1.77514143e-02 1.20671205e-02 2.06827000e-02 -2.32969970e-02 2.32658423e-02 2.54920851e-02 1.29002323e-02 2.51163337e-02 -2.14518569e-02 -1.88562740e-02 1.14770196e-02 -1.46270273e-02 5.46400063e-03 -7.52783439e-04 -1.15387365e-02 8.36670864e-03 1.43193761e-02 1.05645992e-02 1.27549656e-02 -1.82601865e-02 1.78214647e-02 7.52781099e-03 2.97221858e-02 1.26019623e-02 4.56708437e-03 1.11012459e-02 -1.00739405e-03 6.49370393e-03 1.10028172e-03 1.74078364e-02 1.55666564e-02 7.20862392e-03 -1.63471922e-02 -2.20520385e-02 -2.29827780e-03 1.67616811e-02 2.67644078e-02 2.40231901e-02 -2.18269881e-02 -2.50743814e-02 -2.48929858e-02 1.06538795e-02 -1.69673935e-02 -6.36976538e-03 1.73032302e-02 1.78860873e-02 6.77216239e-03 -2.07340512e-02 -1.08385067e-02 5.08422963e-03 -1.58591233e-02 1.47070072e-03 5.41041233e-03 -4.85999417e-03 1.03825275e-02 -8.92091077e-03 1.17443148e-02 1.52422860e-02 2.11539585e-02 -1.75754894e-02 -2.62033697e-02 1.72421280e-02 -4.25128266e-03 2.16828100e-02 -2.51615904e-02 2.55658422e-02 1.02773653e-02 -5.44973137e-03 1.51049644e-02 -1.74575094e-02 2.56240554e-02 7.13917194e-03 -1.63989011e-02 -2.07288731e-02 -1.67342182e-02 -1.96647011e-02 -2.16615535e-02 -1.04198130e-02 -2.76678782e-02 -4.67520859e-03 2.26404741e-02 1.82182360e-02 -1.76729225e-02 4.01432626e-03 -2.76324954e-02 1.47644021e-02 6.70030201e-03 7.79807242e-03 1.58047695e-02 1.05768326e-03 -1.93549469e-02 7.65617890e-03 1.07339676e-02 1.23137832e-02 1.87263805e-02 -3.95540800e-03 7.88583420e-03 -4.04208293e-03 -2.71264873e-02 1.98156890e-02 1.95412077e-02 1.40995840e-02 1.36176134e-02 -1.39815416e-02 -1.32223535e-02 -1.09336050e-02 1.06468238e-02 2.12180167e-02 1.23110320e-02 -2.27082297e-02 7.56907696e-03 -2.78749992e-03 2.00942885e-02 -4.02718177e-03 5.00284042e-03 1.09517146e-02 -5.48240496e-03 2.61795130e-02 -5.17336791e-03 -1.87813602e-02 5.18692890e-03 -1.99244823e-02 -1.93878710e-02
-1.11289388e-02 6.84494711e-03 1.28888115e-02 -6.45046122e-03 -5.32390433e-04 8.57112557e-03 1.28509039e-02 -1.01567162e-02 -2.52643693e-03 1.26578324e-02 -6.76001934e-03 1.46925608e-02 2.52801040e-03 1.61298015e-03 1.00414744e-02 6.59271935e-03 5.49309514e-03 -3.25084751e-04 2.00338312e-03 1.17079979e-02 1.37973931e-02 -5.42619964e-04 1.26479734e-02 6.57048495e-03 -1.92869478e-03 -6.14272617e-03 -2.63552601e-03 -7.76879024e-03 1.55810881e-02 1.24474633e-02 -1.75617868e-04 7.21011497e-03 -1.77722629e-02 -1.14555946e-02 -4.04760288e-03 -5.96373621e-03 -1.08850943e-02 -8.89272837e-04 1.75108779e-02 -3.40710185e-03 1.64812207e-02 7.05811661e-03 -6.73724222e-04 -1.27849565e-03 -4.18005884e-03 7.82979466e-03 1.16842957e-02 1.10698519e-02 -2.11734674e-03 1.48688294e-02 1.04485080e-02 1.46644460e-02 -6.69222651e-03 -1.83351120e-04 6.07655104e-03 -5.42266527e-03 -1.05725325e-04 -2.16990542e-02 7.92599935e-03 1.85451508e-02 6.02876395e-03 -9.44971852e-03 -7.37425964e-03 3.22414446e-03 5.53711411e-03 -1.45185869e-02 -8.04946013e-03 -1.03590926e-02 2.85203499e-03 1.02698081e-03 -1.75126977e-02 -2.45583942e-03 5.63001214e-03 -6.80138916e-03 1.07136816e-02 4.93428484e-03 5.82508743e-03 -1.70259108e-03 -1.78116339e-03 6.00930490e-03 1.32741025e-02 -1.46123748e-02 -1.68399364e-02 4.82864864e-03 -1.17726186e-02 1.48285087e-02 -7.95417372e-03 -1.25742750e-02 -6.96077896e-03 -1.96827501e-02 2.66112736e-03 7.15477800e-04 7.20013119e-03 -6.93037221e-03 1.16328690e-02 -5.34529454e-06 -5.59805485e-04 4.40927083e-03 1.27834743e-02 8.81566014e-03 1.10453619e-02 4.50533442e-03 -1.27418740e-02 -5.20995585e-03 8.13221931e-03 5.81302666e-05 2.24330854e-02 -8.53847188e-04 -6.31073606e-04 -9.31656826e-03 -1.32801495e-02 8.71266983e-03 -2.50964379e-03 1.39391376e-02 1.24291712e-02 5.27844124e-04 1.14096301e-02 7.39009120e-03 -6.94005564e-03 2.20187823e-03 -3.53414589e-03 1.28384493e-02 1.06335301e-02 -3.79288010e-03 8.43336864e-04 -1.35409250e-03 -8.84598680e-03 -8.78735725e-03 1.44122271e-02 -6.08963543e-04 -8.36164691e-03 -1.75503816e-03 -6.30399818e-03 -1.51595511e-02 1.32985003e-02 5.00261132e-03 2.16974830e-03 8.04065168e-03 -7.05730543e-03 -7.69032724e-03 7.44074397e-03 -5.47036482e-03 -8.37682746e-03 1.13745462e-02 -3.06026079e-03 1.11335085e-03 2.64933705e-03 -6.89200452e-03 -1.29939336e-02 1.18044019e-02 9.74205136e-03 1.16268930e-03 -5.00775827e-03 2.07698122e-02 -9.35849361e-03 8.83279275e-03 -1.06285550e-02 -6.06278051e-03 -3.92810069e-03 -6.30482379e-03 -1.12652369e-02 -1.42715788e-02 -2.76928023e-03 -1.79976597e-02 -8.34853854e-03 9.35762469e-03 -6.66094199e-03 -3.69061227e-03 3.35556944e-03 8.76100268e-03 6.81181671e-03 -8.61885957e-03 8.03550612e-03 -6.19913032e-03 -7.59316282e-03 -4.18648496e-03 4.89178626e-03 -4.49527148e-03 -5.75538725e-03 -1.08321849e-02 3.70274764e-03 9.65413451e-03 -1.29311085e-02 1.52344229e-02 1.15523138e-03 2.89263111e-03 5.01535018e-04 -1.41697307e-03 1.50011601e-02 8.82239640e-03 2.81025260e-03 4.43338370e-03 -9.69455764e-03 2.61219218e-03 8.22900608e-03 1.36924279e-03 1.24383587e-02 1.47628319e-03 -5.41641517e-03 6.91175461e-03 -2.27549113e-03 1.47488415e-02 -3.32256383e-03 6.06803503e-03 -6.09920267e-03 2.75850529e-03 1.16560934e-02 -1.35063715e-02 -9.17111896e-03 -1.68139127e-03 -5.47084538e-03 -1.51285939e-02 -8.09422974e-03 1.02912253e-02 1.61642358e-02 -6.10948680e-03 1.30776046e-02 -5.48044278e-04 1.27736097e-02 8.32181517e-03 1.29166497e-02 5.58840623e-03 3.22649442e-03 5.65938419e-03 -1.06251976e-02 3.91570292e-03 -9.70880594e-03 1.36074331e-02 -2.45762104e-03 -4.39051026e-03 2.51957448e-03 -6.49855880e-04 1.26646729e-02 -7.30838365e-05 1.41226314e-02 1.87846913e-03 1.22118685e-02 -2.24618218e-03 -1.28310341e-02 7.93383736e-03 -1.43416272e-02 -7.52960797e-03 -2.73397285e-03 -1.14551717e-02 -6.17114734e-03 -1.27230305e-02 1.07688997e-02 1.52584743e-02 1.07300831e-02 -5.27123455e-03 -3.95876076e-03 1.72694353e-03 -3.06708366e-03 -1.68501178e-03 -1.69746224e-02 4.24570753e-05
-7.10566435e-03 -9.10270121e-03 1.62798110e-02 2.69170268e-03 -1.83231197e-03 -2.86800461e-03 -3.42225097e-03 -3.43892165e-03 -1.13128806e-02 1.26951942e-02 1.01608522e-02 1.59235280e-02 -7.56811257e-03 -1.03462320e-02 -5.37858112e-03 -4.56847437e-03 -4.43621166e-03 5.95407886e-03 -7.55196530e-03 4.22734022e-03 -9.67744179e-03 8.86227179e-04 -8.35270621e-03 -6.74647931e-03 1.16620865e-02 7.61837512e-03 -1.25979343e-02 1.35313040e-02 -3.35430820e-03 -7.73396576e-04 -6.16309280e-03 9.56960674e-03 -1.98795577e-03 2.80854013e-03 8.57760478e-03 1.43629417e-03 -1.21939080e-02 1.20311454e-02 1.68379918e-02 1.71801518e-03 1.00836819e-02 6.17766101e-03 -3.46702477e-03 -9.14178137e-03 5.33734122e-03 -7.05757923e-03 8.07962660e-03 3.67829722e-04 -1.11529874e-02 1.16654253e-02 1.21021979e-02 -4.97063110e-03 -9.18895751e-03 3.83144221e-03 -5.27229067e-03 -5.41600818e-03 -3.58505943e-03 -6.64583594e-03 -1.71834195e-03 6.22702995e-03 -1.88394589e-03 -4.86792764e-03 -3.12858005e-03 -2.20748014e-03 -5.40102879e-03 -7.36048352e-03 -2.12903251e-03 7.80084345e-04 -1.00304103e-04 -4.35801921e-03 -1.14539908e-02 -7.98687618e-03 -3.14830267e-03 -3.84854968e-03 -4.54577012e-03 -2.93091894e-03 -3.00725619e-03 8.42752680e-03 4.29894123e-03 1.12296396e-03 -5.87578537e-03 -8.39725230e-03 6.82358304e-03 5.68468822e-03 1.68864173e-03 7.71282008e-03 1.13038197e-02 -4.03678743e-03 -8.61242041e-03 -4.12639230e-03 -7.10464735e-03 2.33585993e-03 -3.69023578e-03 -5.58399595e-03 -2.22522253e-03 -6.24484196e-03 6.20342558e-03 5.44751761e-03 7.87875522e-03 -7.58285727e-03 5.76413888e-03 9.36203077e-03 -9.37001221e-03 -7.17233960e-03 1.60389149e-03 8.24088231e-03 1.62430182e-02 -1.72694563e-04 -9.10660438e-03 4.87994822e-03 -3.90504138e-03 7.73190428e-03 1.12016662e-03 6.43471954e-03 -4.74692148e-04 -6.50467258e-03 -3.73517768e-03 1.56097929e-04 -8.47809855e-03 -2.55959504e-03 5.83864888e-03 1.00207776e-02 -3.08424933e-03 -8.02361779e-03 -1.02777593e-02 -7.70067377e-03 8.65339674e-03 -8.97241815e-04 8.52356758e-03 -9.17871832e-04 1.33781014e-02 -4.32406412e-03 1.18230078e-02 -1.02276988e-02 -5.56342490e-03 3.88055062e-03 -1.13706542e-02 6.32108795e-03 -6.81041367e-03 -1.18908740e-03 -7.51967193e-04 5.96135017e-03 7.03248486e-04 6.26282068e-03 7.43716722e-03 4.10560239e-03 6.36920193e-03 -4.71018394e-03 -6.70572091e-03 1.08564710e-02 -7.26740016e-03 -9.81339999e-03 6.82096370e-03 -2.17839680e-03 5.21624880e-03 1.51480995e-02 -1.48238754e-03 6.28509419e-03 -7.96483085e-03 -3.84241715e-03 6.92538312e-03 7.37782242e-03 -1.01595195e-02 -1.30486023e-02 -6.49160298e-04 8.31562653e-03 -9.67694074e-03 -3.89882387e-03 9.90482629e-04 7.09231617e-03 4.31115739e-04 5.11609018e-03 -2.00025691e-03 -1.64934509e-02 -3.40482267e-03 -1.72668975e-02 -1.03585357e-02 8.42389837e-03 -1.38612157e-02 -2.45712651e-03 -1.39030593e-03 -6.29065372e-03 -9.21555547e-05 5.82702598e-03 -4.47997730e-03 -8.56919028e-03 1.90855295e-03 -4.69764415e-03 -1.70986590e-04 7.95668550e-03 -4.70333919e-03 5.29156486e-03 -8.64272006e-03 6.76682033e-03 3.47790588e-03 1.50897319e-03 1.02104601e-02 -1.13507332e-02 8.66498426e-03 1.32877119e-02 -1.49214733e-03 -8.16703495e-03 1.19909004e-03 -2.64749932e-03 4.85797971e-03 1.16220524e-03 4.85359132e-03 -8.65811296e-03 5.20674232e-03 6.26616238e-04 5.61737502e-03 -6.58736844e-03 -1.45818321e-02 1.08814547e-02 5.27193304e-03 -1.42080942e-02 8.44346080e-03 -5.34683326e-03 1.95866525e-02 1.26645425e-02 -2.11180351e-03 9.71788308e-04 -1.27160940e-02 -2.69126426e-03 -3.75827961e-03 1.01879574e-02 4.89856582e-03 2.29873299e-03 -1.09381713e-02 3.91364284e-03 -1.21413004e-02 -1.29338568e-02 8.00867274e-04 1.37034981e-02 5.80023392e-04 9.61534400e-03 -6.99723978e-03 -1.27738239e-02 -1.92594696e-02 8.74320045e-03 -3.79056961e-04 8.90554767e-03 9.83562507e-03 -3.98176751e-04 -1.10406606e-02 -9.20891203e-03 1.12221239e-03 -5.88292372e-04 -5.80405863e-03 -5.42663329e-04 1.48148509e-02 4.21387469e-03 -3.78973735e-03 1.59205794e-02 6.14512293e-03 6.80792797e-03
-1.46640586e-02 -2.72696633e-02 1.56041030e-02 -1.49154551e-02 -1.07230684e-02 3.10908742e-02 1.58110447e-02 -1.43230371e-02 -7.70093082e-03 -1.01367682e-02 1.65743101e-02 6.79158315e-04 -5.25949616e-03 1.22951753e-02 -1.24424975e-02 -1.62054673e-02 3.76249664e-03 5.43261413e-03 5.25083812e-03 -5.96340280e-03 -5.03668671e-05 1.52921034e-02 1.49392546e-03 6.13788888e-03 1.22528914e-02 4.70453966e-03 1.33581378e-03 1.37421442e-02 1.56350266e-02 -4.78609378e-04 -5.06662205e-03 2.47271406e-03 -8.38077348e-03 -2.01408938e-02 -2.32171454e-02 -2.42433175e-02 -1.26979472e-02 2.13247631e-02 1.68535132e-02 -2.70559080e-02 1.40262814e-02 1.64241660e-02 -1.47939427e-03 -3.82775301e-03 1.39446994e-02 6.64369110e-03 1.13207605e-02 1.41356867e-02 1.71364844e-02 -1.37832640e-02 -5.37971640e-03 -1.28922164e-02 -1.32202329e-02 -6.91971873e-05 -1.04667293e-03 7.45859090e-03 2.22786460e-02 -2.58817524e-02 2.35018544e-02 1.92866586e-02 3.06758247e-02 -1.55166853e-02 -1.73723921e-02 2.27891970e-02 -1.36412783e-02 1.42672947e-02 1.79795492e-02 9.22583975e-03 3.98406642e-04 -1.04812477e-02 -2.11560614e-02 -6.03183638e-03 -4.53387946e-03 -2.78498325e-03 -6.25484530e-03 -8.28863215e-03 2.56304466e-03 5.79961902e-03 1.09319179e-03 1.22037893e-02 1.55427465e-02 -1.11154141e-02 -1.81931593e-02 -1.72375999e-02 -6.77803718e-03 1.33707840e-02 -8.80929176e-03 -3.41392029e-03 -1.00413924e-02 4.01491160e-03 1.94896981e-02 1.32319424e-03 -1.42533258e-02 -1.44196963e-02 1.46892399e-03 1.39295999e-02 9.76791140e-04 1.24707976e-02 7.23286020e-03 1.45550808e-02 2.08608061e-03 -2.54291389e-03 -3.06047010e-03 -3.62075772e-03 1.45412274e-02 -2.31079548e-03 5.39206527e-03 2.80646677e-03 -5.98022831e-04 5.92458015e-03 -3.77289415e-03 -9.28346254e-03 9.34385322e-03 3.36861401e-03 6.18297001e-03 1.75800361e-02 4.89874696e-03 1.55810136e-02 -3.34817421e-04 2.33009760e-03 -4.00133803e-03 1.59859043e-02 1.15054697e-02 -2.34050001e-03 -1.28172385e-02 3.52439267e-04 -1.04968371e-02 -2.26406706e-03 2.29828265e-02 -1.63466837e-02 7.39427487e-05 -1.67369843e-02 4.09777323e-03 -1.98029969e-02 1.28439814e-02 2.29456332e-02 -6.01619808e-03 1.20894490e-02 1.86854377e-02 2.60248072e-02 1.79305449e-02 -1.35685811e-02 -9.54005402e-03 4.10255184e-03 -1.14788627e-02 1.95769854e-02 1.67376492e-02 -1.18802432e-02 1.23955635e-02 3.66821070e-03 3.94192066e-05 1.00929476e-02 -8.87354650e-03 1.40608838e-02 1.08003395e-03 2.21989248e-02 1.46201462e-03 1.98416449e-02 1.29751563e-02 -1.44354720e-03 1.45261921e-02 1.45864980e-02 7.84920901e-03 1.36463216e-03 3.47421947e-03 1.29820604e-03 1.95051229e-03 1.31471632e-02 2.30800677e-02 2.70980746e-02 1.01292059e-02 -2.16703974e-02 -1.54300332e-02 -9.30967182e-03 9.61953122e-03 -1.47911776e-02 -2.31865374e-03 1.47698456e-02 2.42881849e-03 5.72610786e-03 -1.90962790e-04 -1.14851771e-02 -6.55141601e-04 -9.02100280e-03 -1.08925225e-02 -1.33007052e-04 -3.53999389e-03 -4.38781967e-03 7.34249409e-03 1.45565299e-02 4.30499786e-04 9.23984405e-03 -2.20478587e-02 -1.68447513e-02 1.58025157e-02 -2.86914576e-02 1.24580404e-02 -2.49438602e-02 2.00234130e-02 1.58098601e-02 1.26546028e-03 5.88336214e-03 4.44689626e-03 1.43425819e-02 3.00386292e-03 -6.15764270e-03 -7.64941389e-04 1.42992160e-03 -1.26603199e-02 -1.19038336e-02 -1.71966925e-02 -1.73360538e-02 -1.25356261e-02 2.90391743e-02 6.02504704e-03 -1.93165969e-02 2.16611475e-02 -2.34962385e-02 9.43921134e-03 1.78440362e-02 5.48643200e-03 7.09996233e-03 7.68661825e-03 -1.44424392e-02 5.25818381e-04 1.96551606e-02 1.29474299e-02 2.50316281e-02 -1.09018087e-02 1.86414865e-03 -5.39927697e-03 -2.46671960e-02 1.12350192e-03 9.55911912e-03 1.56762898e-02 1.64799951e-03 -2.71272357e-03 -9.82405711e-03 -2.42297277e-02 3.13452519e-02 -3.03280447e-03 1.26019903e-02 -9.86369792e-04 5.66994818e-03 3.96233425e-03 1.12217013e-02 5.02242707e-03 3.36966314e-03 6.96195755e-03 -2.62698177e-02 1.12209264e-02 -1.36600202e-02 -1.92457549e-02 1.56246964e-02 -1.47721274e-02 -2.56664269e-02
-1.49770258e-02 -7.90736917e-03 1.29116690e-02 -2.70176935e-03 -7.60379480e-03 2.76178811e-02 1.86421778e-02 -2.48923097e-02 -7.16908649e-03 -9.92517918e-03 1.51283620e-03 1.07057532e-02 -1.39100552e-02 -1.99373998e-03 -1.37389656e-02 2.23808736e-03 -6.22963160e-03 -1.24256797e-02 -7.48220179e-03 -2.75529246e-03 5.75707015e-03 4.95153712e-03 2.35319883e-03 -2.14551413e-03 -2.14793230e-03 1.58242565e-02 -1.61256492e-02 1.39158908e-02 1.72080696e-02 -9.67698824e-03 -6.87951036e-03 4.23857896e-03 -2.24929489e-02 -3.04279174e-03 -2.30183695e-02 -1.62824721e-03 -6.33043144e-03 9.47787333e-03 2.19776426e-02 -1.94738188e-03 1.34328811e-03 1.60180926e-02 -1.41271744e-02 -1.18676396e-02 8.64381529e-03 5.75941522e-03 8.78814980e-03 1.49474004e-02 7.86716584e-03 1.31837633e-02 -9.50121135e-03 -1.55384594e-03 -8.53624288e-03 -8.85844976e-03 -5.65612828e-03 -6.00688113e-03 2.03159843e-02 -2.57732309e-02 9.64715425e-03 4.22884570e-03 1.11942180e-02 -5.73836127e-03 -1.75577030e-02 1.25070792e-02 -4.41170530e-03 1.79632590e-03 8.43467098e-03 -1.28930376e-03 9.74714477e-03 1.10342680e-03 -7.73964915e-03 4.16477025e-03 -8.22021347e-03 -2.91761942e-03 -1.59806851e-02 -7.89059140e-03 5.67670818e-03 1.66002363e-02 2.22695060e-02 1.34852296e-02 -6.61363767e-04 -3.23293475e-03 -8.65645008e-04 -1.03677893e-02 -3.24110547e-03 -2.08119545e-02 -8.32261052e-03 5.62934205e-03 -5.50921820e-03 -8.84664804e-03 1.44083956e-02 -7.35141709e-03 5.24415285e-04 -5.94210112e-03 8.71515088e-03 5.40459203e-03 -3.75899626e-03 -6.62592589e-04 7.41842343e-03 -1.21669378e-03 -1.17902784e-03 9.13196069e-04 2.12313281e-03 3.41206742e-03 1.40487887e-02 1.62293378e-03 8.01363960e-03 1.31495725e-02 5.77507587e-03 -6.99799787e-03 1.23630334e-02 -5.38149383e-03 1.19641824e-02 -5.10649197e-03 1.27368243e-02 1.37847578e-02 7.96917174e-03 8.22829362e-03 -1.93080574e-03 2.57544103e-03 5.38303889e-03 5.85892517e-03 -5.46512846e-03 -1.03060072e-02 -7.18698604e-03 -4.90208948e-03 -4.78846673e-03 -1.49554703e-02 2.05250923e-02 -5.81312110e-04 5.57552371e-03 -3.56544787e-03 1.84409451e-02 -8.13387055e-03 1.83197530e-03 2.59050131e-02 -1.92588884e-02 1.09905761e-03 -4.14690585e-05 2.12330464e-02 2.79181320e-02 -1.31669436e-02 -1.64459068e-02 8.35801940e-03 -3.68153094e-03 4.10615513e-03 -3.41201108e-03 -1.22861760e-02 -7.74896471e-03 6.96873013e-03 -1.08995913e-02 -1.22972522e-02 -7.65161822e-03 2.40659006e-02 2.40996084e-03 1.07428096e-02 -4.45629470e-03 1.03825638e-02 -8.40440951e-03 -4.90385108e-03 -5.60639100e-03 -2.45689601e-03 8.26300588e-03 -3.80313653e-03 1.35817903e-03 1.16339105e-03 5.58119966e-03 -1.24787213e-02 2.15209555e-02 6.34361804e-03 6.79869205e-03 -1.17992004e-02 -2.74740681e-02 -8.32255930e-03 2.65122182e-03 -1.95516367e-02 -5.83699532e-03 -3.87023157e-03 -3.17877252e-03 3.88745777e-03 -5.13782445e-03 -1.54442796e-02 -9.60487034e-03 -5.32242935e-03 -5.05041983e-03 8.50651413e-03 -9.17053141e-04 -6.50841044e-03 -6.43539568e-03 9.12165735e-03 -4.93475329e-03 -1.84819009e-03 -7.54659530e-03 -2.32592542e-02 1.75962504e-02 7.43282362e-05 1.93062164e-02 -1.28836716e-02 1.81875806e-02 1.70091130e-02 -9.12860967e-03 -4.98082908e-03 6.71157194e-03 1.11582447e-02 3.69250285e-03 7.52835860e-03 -3.04879132e-03 -9.81243886e-03 -7.95220304e-03 -4.30095522e-03 -2.28969511e-02 -1.13403611e-02 -2.01469436e-02 1.85768008e-02 1.43525302e-02 -1.29145738e-02 1.81524828e-02 -2.29375158e-02 1.36027914e-02 1.01796659e-02 1.30416201e-02 -7.58775370e-03 1.04425177e-02 -1.05233956e-02 1.13322251e-02 2.50462797e-02 2.07274128e-02 1.11901527e-02 -5.60372742e-03 1.25816697e-02 -8.08420684e-03 -1.85887478e-02 -1.72166352e-03 -8.80317239e-04 -3.00199096e-03 1.07352454e-02 -1.76743697e-02 -5.79409720e-03 -2.15473212e-02 4.80592251e-03 1.17696160e-02 -8.38653592e-04 -1.72375906e-02 3.44460062e-03 -1.28136426e-02 6.32397272e-03 -1.82041212e-03 1.96070969e-03 1.02266446e-02 -1.68840289e-02 1.65819936e-02 -1.16665699e-02 -1.94420684e-02 4.85673686e-03 -1.56964865e-02 -2.32120287e-02
-1.53116016e-02 -2.97607444e-02 1.40245100e-02 -4.23030229e-03 -9.86911263e-03 2.86283474e-02 2.48541813e-02 -1.98321175e-02 -1.90541875e-02 -1.03565883e-02 1.10574802e-02 9.76767577e-03 -3.55816446e-03 -2.72701168e-03 4.90033533e-03 -3.20645678e-03 1.69862271e-03 -9.67323314e-03 -5.73599478e-03 -1.04817785e-02 1.55717283e-02 2.93676392e-04 1.21784164e-02 -8.76626093e-03 1.24530932e-02 2.94229831e-03 -1.06934570e-02 5.52084623e-03 1.23774512e-02 -5.82932681e-03 -7.49679981e-03 1.20671513e-02 -1.45377377e-02 -1.21046575e-02 -2.29717512e-02 -1.83559395e-02 -1.00691617e-02 2.54542287e-02 3.67646455e-03 -1.25104133e-02 7.69360224e-03 3.76822194e-03 -2.39539612e-02 -1.72583126e-02 2.01227218e-02 2.38565933e-02 6.57859584e-03 9.77549888e-03 1.68648902e-02 9.45987273e-03 -1.34953866e-02 -8.70025996e-03 -1.19207101e-02 4.92932834e-03 1.24578020e-02 5.22742048e-03 2.53600124e-02 -1.84947755e-02 1.46949394e-02 3.02053783e-02 2.42904536e-02 -2.16533057e-02 -1.50802787e-02 9.47172381e-03 3.88725544e-03 -8.02349951e-03 1.00018624e-02 3.26454581e-04 5.30248042e-03 -3.04217637e-03 -9.27539263e-03 2.33672909e-03 -2.07024161e-02 -1.46353673e-02 -2.30958760e-02 -9.98934731e-03 8.59551784e-03 3.02917440e-03 1.83786023e-02 8.18542019e-03 1.78859886e-02 -6.32089330e-03 -6.77035423e-03 -9.33848508e-03 -7.94125313e-04 -6.45178556e-03 -1.32639948e-02 -1.64200589e-02 -7.15272967e-03 -1.08686918e-02 -9.20309161e-04 -4.90490487e-03 -1.44615804e-03 3.87538527e-03 -1.18812500e-02 7.79888546e-03 -1.83515307e-02 1.74995400e-02 4.88734432e-03 -4.57299902e-04 1.75021123e-02 4.30802070e-03 1.04631530e-02 -5.97552676e-03 8.41957051e-03 1.24729546e-02 5.91211347e-03 7.72078568e-03 -3.26574966e-03 1.89347367e-03 1.26458928e-02 -1.78971712e-03 1.85054522e-02 -1.47657478e-02 2.34253146e-03 6.64661406e-03 1.77843031e-02 1.09689003e-02 3.74294876e-04 2.22195126e-02 1.63077358e-02 4.10601357e-03 9.84297134e-04 -2.63219737e-02 -9.63061117e-03 1.69391725e-02 -3.08914483e-03 -2.14002002e-02 9.49232560e-03 -2.44404636e-02 2.18643900e-02 -2.32160576e-02 2.58805417e-02 -2.35999040e-02 8.44849087e-03 1.72866806e-02 -2.51943730e-02 1.02973562e-02 9.79285687e-03 8.44848435e-03 1.29229371e-02 -2.43743509e-02 -4.68264380e-03 1.63273271e-02 -8.02724715e-03 1.53560704e-02 3.16466438e-03 -6.45630294e-03 -3.49970930e-03 1.67142823e-02 9.80470888e-03 3.81225324e-03 7.75968377e-03 2.12114155e-02 8.70150805e-04 7.21533131e-03 -4.05021338e-03 1.27715906e-02 8.75065103e-03 6.08197926e-03 1.51323585e-03 2.98554730e-03 2.93020639e-05 -1.06623014e-02 -1.19575206e-02 -2.35719164e-03 4.64198878e-03 -1.29906274e-02 1.08543979e-02 2.02783700e-02 2.61721313e-02 -3.01674362e-02 -2.94942092e-02 -2.56977882e-02 2.39341874e-02 -9.75516718e-03 9.18442942e-03 1.17897661e-02 3.17546306e-03 -2.93378998e-03 -4.61337110e-03 -1.79831814e-02 9.28742904e-03 5.20851091e-03 -1.11437039e-02 -5.51446900e-03 3.57474899e-04 1.24238450e-02 4.63350210e-03 -6.37709629e-03 -9.14044771e-03 4.32083895e-03 -2.21348181e-02 -1.25447866e-02 1.96779910e-02 -6.57548662e-03 2.41125189e-02 -2.02996135e-02 2.64811423e-02 2.03462932e-02 5.95597923e-03 1.21173414e-03 -5.42186806e-03 2.02767216e-02 -4.52059368e-03 -3.67826270e-03 -9.09483992e-03 -4.26144979e-04 -8.32017045e-03 -2.29169074e-02 -1.17403436e-02 -7.09374482e-03 -4.07747691e-03 2.74156854e-02 1.92152485e-02 -1.10099334e-02 9.87827126e-03 -3.15529369e-02 2.51474697e-02 1.93689484e-02 2.19287863e-03 -5.29072154e-03 1.78618543e-02 1.69960142e-04 1.16586927e-02 2.08998658e-02 1.58696081e-02 2.26513352e-02 -1.98158436e-02 2.39887200e-02 -1.02737406e-03 -1.45619754e-02 1.85658634e-02 1.02064507e-02 4.45106486e-03 1.06889969e-02 -1.44789163e-02 -4.64430172e-03 -2.31695063e-02 2.57246792e-02 7.85398111e-03 -3.22964508e-03 -2.37689633e-02 1.75925530e-02 -7.83772208e-03 7.26378988e-03 -1.33484947e-02 -9.65756655e-04 1.89153217e-02 -1.69181693e-02 2.02063452e-02 -1.49737354e-02 -1.67533420e-02 1.77131817e-02 -2.16438137e-02 -2.90922057e-02
-1.70869697e-02 -3.52412905e-03 1.50672188e-02 -2.37277430e-02 -4.98592434e-03 9.70501825e-03 -1.63254503e-03 -1.62868071e-02 8.95436853e-03 -1.39817148e-02 1.61489006e-02 1.64485853e-02 -6.97975606e-03 -2.77899601e-03 1.12371901e-02 -8.68135411e-03 9.10452451e-04 9.50784516e-03 -3.22248344e-03 5.23214322e-03 -6.42519817e-03 2.38516927e-03 6.84476644e-03 1.61902588e-02 3.48838535e-03 1.34740779e-02 2.52514915e-03 1.23183969e-02 -2.00254936e-03 -9.46251769e-03 -1.59484148e-02 1.14791291e-02 -2.18251571e-02 -2.30210088e-02 -1.51939923e-04 -1.03323776e-02 -7.57341785e-03 1.01998178e-02 1.14400862e-02 -1.45990886e-02 7.87511468e-03 7.90312048e-03 -2.12306585e-02 -7.57933315e-03 1.86350266e-03 4.69363853e-03 8.71801376e-03 -6.47877343e-03 1.03516486e-02 3.61495535e-03 9.76947322e-03 -8.74828547e-03 -5.63300401e-03 -9.86251887e-03 -8.36260431e-03 -1.65404174e-02 2.55834125e-03 -2.13176068e-02 1.84869021e-02 6.33723289e-03 2.70000510e-02 -3.37324315e-03 -6.16410701e-03 3.25007830e-03 4.53430833e-03 2.94195069e-03 8.28519091e-03 2.77937227e-03 -3.63721862e-03 -1.27276117e-02 -1.28101557e-02 -1.17532900e-02 6.55970629e-03 -2.14919411e-02 -1.04389735e-04 -2.42514838e-03 1.80953126e-02 2.71168957e-03 4.94135357e-03 2.56424360e-02 7.64530711e-03 5.17574605e-04 -2.91578774e-03 -1.79048236e-02 6.87995635e-04 5.71282580e-03 -1.13198021e-02 -1.16970176e-02 -3.46397911e-03 8.63698684e-03 4.63432958e-03 -6.87893294e-03 -9.79220495e-04 -9.40786954e-03 4.53785202e-03 -2.61673890e-03 -1.20624416e-02 -4.99269646e-03 1.11199096e-02 8.27234052e-03 4.23887977e-03 6.65616104e-03 -4.22179466e-03 -1.52732497e-02 1.72698610e-02 -8.74666311e-03 -5.91064570e-03 -2.69659935e-03 -1.88228383e-03 1.05649838e-02 1.58548448e-02 -1.06792655e-02 1.59689889e-03 7.05080573e-03 1.71568766e-02 -1.20891538e-03 1.12221688e-02 -6.83879526e-03 1.95681117e-02 -9.80925630e-04 8.02341325e-04 -1.06261997e-02 5.94416575e-04 -3.96089209e-03 1.19265914e-02 5.63353160e-03 -6.88351179e-03 8.82976316e-03 2.23315209e-02 -2.93342420e-03 4.84727789e-03 -1.41069898e-02 4.84406855e-03 -6.06633583e-03 2.10787728e-03 1.36749391e-02 -2.00072434e-02 6.12644712e-03 2.14668028e-02 4.24167048e-03 -9.70222405e-04 -6.94010593e-03 -1.15671300e-03 1.82247125e-02 -5.61799156e-03 1.71304084e-02 3.30966571e-03 -2.93183047e-03 6.55274047e-03 -6.76287105e-04 7.20721623e-03 -2.69917562e-03 -1.46716204e-03 -1.26648403e-03 7.08981929e-03 -2.87591887e-04 1.54093895e-02 2.66747200e-04 1.49477227e-02 1.96741032e-03 1.33046247e-02 2.68248003e-03 -6.22285018e-03 -1.15169585e-02 1.12532871e-03 2.79704574e-03 -5.34636201e-04 -8.26370809e-03 1.47174504e-02 5.45259705e-03 1.42684178e-02 -5.46470098e-03 2.75742845e-03 -1.76954828e-02 5.63756051e-03 -1.11987256e-02 -1.35695236e-03 1.17852967e-02 1.31467013e-02 6.53410470e-03 1.11356499e-02 -9.68887750e-03 6.19605230e-03 1.30187133e-02 8.59772880e-03 -8.79003666e-03 -9.33718216e-03 -3.05942213e-03 1.23457490e-02 -1.37355737e-02 1.55878710e-02 5.16076572e-03 -2.81386506e-02 -9.66129359e-03 5.30921249e-03 -1.06248474e-02 1.44730434e-02 -5.28906798e-03 1.36237973e-02 1.74657442e-02 -1.01478621e-02 -3.54293355e-04 -5.61962661e-04 2.16201060e-02 1.34403137e-02 1.22927753e-02 1.05823250e-02 -1.89860575e-02 -1.39246183e-02 -1.58842225e-02 -2.01768838e-02 -1.67611223e-02 -1.74252037e-02 6.95564738e-03 9.74640064e-03 -1.12946006e-02 1.61138177e-02 -1.22539597e-02 6.88459631e-03 1.21044694e-02 6.97498070e-03 1.02227125e-02 4.18809615e-03 -1.15772034e-03 1.43792359e-02 5.63338073e-03 8.18030071e-03 6.03434583e-03 -1.09214736e-02 7.03909155e-03 -3.10670887e-03 -9.66192596e-03 1.82397142e-02 1.49835683e-02 1.87791407e-03 -3.00307875e-04 7.98682624e-04 -7.86014181e-03 -1.54159106e-02 2.63928901e-02 -2.59924307e-03 -3.69678042e-03 -8.92488938e-03 9.81947873e-03 1.44226421e-02 1.13533554e-03 1.12266205e-02 -4.61870513e-04 2.60548815e-02 -7.84463063e-03 1.55014070e-02 -7.87018333e-03 -5.88979479e-03 2.36685947e-02 -1.23403911e-02 -1.30152600e-02
-8.41789972e-03 -5.65078063e-03 1.62656009e-02 -1.94584802e-02 -1.69111360e-02 8.50992743e-03 9.08130314e-03 -2.05794945e-02 -1.97131205e-02 -2.27092952e-02 2.23324727e-02 2.30131019e-02 -2.14647613e-02 1.79429185e-02 -1.12404255e-02 -2.17075814e-02 2.02550297e-03 6.97571645e-03 -1.51699223e-02 -8.41716956e-03 6.05542678e-03 8.67785187e-04 -1.23138968e-02 1.71248429e-02 1.70842595e-02 2.17949264e-02 -2.00183652e-02 2.35783719e-02 2.35608444e-02 -1.13282166e-03 -6.06673444e-03 1.39719956e-02 -1.25880931e-02 -1.81640778e-02 -1.51014803e-02 -1.66225526e-02 -1.94690172e-02 2.44299881e-02 2.31141988e-02 -1.74955763e-02 1.44640775e-02 4.42082575e-03 -2.17955280e-02 -1.16368691e-02 2.32981425e-02 2.38057673e-02 3.80425039e-03 3.24049382e-03 1.34946369e-02 1.20317214e-03 -2.95216241e-03 -1.40717216e-02 -1.37320608e-02 -2.08945982e-02 1.01086572e-02 1.02367345e-02 2.50640512e-02 -1.33309383e-02 8.96596629e-03 1.42337941e-02 2.09239889e-02 -2.71710157e-02 -1.44752571e-02 1.26160514e-02 -1.79930832e-02 9.47604538e-04 1.18328519e-02 4.16061096e-03 5.35622751e-03 -5.09399781e-03 -2.96603423e-02 -5.27902646e-03 -1.64897274e-02 -1.60559881e-02 -9.98164527e-03 -1.04188090e-02 6.68436149e-03 1.42602436e-02 2.38199402e-02 1.66335739e-02 2.14005578e-02 -2.47636084e-02 -1.51693514e-02 -1.02742640e-02 -1.82874762e-02 1.53502645e-02 -4.54326579e-03 -2.22416967e-02 -2.20980048e-02 -1.12444414e-02 2.07542796e-02 -6.37254072e-03 -1.18112406e-02 -1.61004681e-02 4.10247175e-03 1.24300737e-02 -4.29939805e-03 1.52422078e-02 1.37989633e-02 1.09312609e-02 4.33765398e-03 9.98246111e-03 1.25667565e-02 -1.46936895e-02 6.16824953e-03 8.25120509e-03 2.58832797e-02 -6.89322886e-04 -1.24881510e-02 2.13057138e-02 7.70595064e-03 -2.37339251e-02 1.34267863e-02 -1.50484573e-02 2.15602722e-02 2.29032896e-02 1.26806023e-02 8.52533616e-03 1.82289779e-02 1.01853739e-02 3.25495703e-03 2.04074308e-02 1.02847070e-02 -1.52134271e-02 -7.95650482e-03 4.10320470e-03 -1.84161738e-02 -1.71058271e-02 1.61490999e-02 -1.82514507e-02 2.16016807e-02 -1.06641864e-02 6.72673853e-03 -1.90499071e-02 1.70300268e-02 2.60459110e-02 -4.99336468e-03 1.39604639e-02 2.56388704e-03 1.99469645e-02 2.73178164e-02 -2.37297546e-02 -9.59047582e-03 2.18973663e-02 -2.07952894e-02 1.01354923e-02 1.02477251e-02 -1.22261532e-02 -5.62325353e-04 2.04010159e-02 1.88010279e-03 1.04210628e-02 -1.60189085e-02 2.27725562e-02 1.98573656e-02 8.84139352e-03 1.88692510e-02 5.38269989e-03 3.13250162e-03 -2.79830792e-03 1.61356460e-02 1.97624337e-04 5.73659502e-03 -5.05044870e-03 6.66141044e-03 -1.94919445e-02 -8.52957834e-03 -2.42739473e-03 2.09567100e-02 6.40655542e-03 1.33342985e-02 -2.79706568e-02 -1.50765711e-02 -2.58441344e-02 9.07196943e-03 -1.86896734e-02 -4.27463511e-03 1.80779882e-02 1.54496143e-02 9.13291331e-03 -3.71745438e-03 -1.15034534e-02 1.80881545e-02 1.57031929e-03 -2.64467276e-03 2.66621052e-03 -6.67996472e-03 -2.29983032e-03 -4.85848170e-03 1.66118126e-02 2.16108281e-02 3.69369751e-03 -8.08238517e-03 -1.54731357e-02 2.12074276e-02 -1.61701068e-02 2.69928779e-02 -1.37151200e-02 1.37647735e-02 2.60991026e-02 -6.56710239e-03 1.73217021e-02 -1.01725636e-02 7.87083711e-03 1.85267795e-02 -1.85911953e-02 -7.93406554e-03 -4.03651502e-03 -1.33999521e-02 -1.79326516e-02 -9.98331141e-03 -1.24654621e-02 -3.56948026e-03 2.81531047e-02 1.85308550e-02 -9.73693468e-03 1.08290128e-02 -1.35780079e-02 7.51074916e-03 1.43839754e-02 1.62499305e-02 1.66541152e-02 1.75669864e-02 2.25804048e-03 1.92942247e-02 8.21468607e-03 1.62670705e-02 5.16618090e-03 -9.56760161e-03 2.46749874e-02 -1.51862241e-02 -6.75693480e-03 1.25411944e-02 1.12350909e-02 1.04967905e-02 1.06456010e-02 -1.88814010e-02 -1.74001995e-02 -1.66290794e-02 8.01233388e-03 -1.58518355e-03 2.19806973e-02 -4.55871411e-03 1.28728477e-02 1.07638454e-02 1.39208892e-02 -4.90421802e-03 1.68373659e-02 6.19593356e-03 -2.31038369e-02 3.78389540e-03 -7.05557270e-03 -1.41698150e-02 2.55323201e-02 -1.49411066e-02 -6.99241739e-03
-2.13073567e-02 -2.52425503e-02 1.71002019e-02 -6.13810448e-03 -2.07545459e-02 8.21729563e-03 1.58548709e-02 -2.78050695e-02 -2.67601907e-02 -1.87145472e-02 2.35043652e-02 7.76119903e-03 -8.30375683e-03 2.44780313e-02 -1.37307113e-02 -1.51910279e-02 -1.04068071e-02 1.82211027e-02 -1.71939023e-02 -2.10690722e-02 1.28970658e-02 2.57797465e-02 -1.27960034e-02 1.16969189e-02 1.89762004e-02 1.99330766e-02 -5.87358791e-03 1.03730410e-02 1.81416236e-02 -1.02052214e-02 -8.95932317e-03 5.74206095e-03 -6.63003698e-03 -2.85057537e-02 -6.12670183e-03 -1.20429378e-02 -1.40952822e-02 1.99060906e-02 2.13495418e-02 -1.21826101e-02 9.34187323e-03 6.45146519e-03 -2.70787813e-02 -2.67988499e-02 5.38939284e-03 1.56275555e-02 1.42804878e-02 1.55383730e-02 1.82650909e-02 -1.82263982e-02 -1.46837775e-02 -2.65220832e-02 -1.80174150e-02 -1.91237871e-02 1.49316844e-02 7.12971669e-03 7.63906119e-03 -1.71564929e-02 3.10298186e-02 1.52567681e-02 2.74174195e-02 -9.91942734e-03 -1.83859728e-02 2.91386526e-02 -1.97290126e-02 2.59494856e-02 2.03356519e-02 9.05330386e-03 2.91823521e-02 -6.09235605e-03 -1.18304929e-02 2.10658051e-02 -5.43430028e-03 -1.57281738e-02 -2.68590599e-02 -1.91431977e-02 1.62833072e-02 1.22985551e-02 2.48987898e-02 1.75523497e-02 5.83659299e-03 -4.44688601e-03 -1.43542616e-02 -2.65511889e-02 -9.76746157e-03 5.36159100e-03 -1.33349225e-02 -1.46886641e-02 -2.78703272e-02 -1.11093111e-02 1.83615703e-02 -2.59767678e-02 -1.61241814e-02 -1.22316042e-02 -1.39055066e-02 2.79361028e-02 -1.33431368e-02 1.24053899e-02 2.19386816e-02 1.53107038e-02 1.60710905e-02 2.08721813e-02 8.83477833e-03 -8.63404106e-03 2.23437343e-02 1.21192047e-02 4.10179235e-03 4.70289215e-03 -1.51378745e-02 5.40326443e-03 2.49219500e-02 -1.21407323e-02 2.54906211e-02 -2.17908416e-02 6.18791208e-03 2.02147216e-02 2.79195402e-02 8.52686353e-03 2.38714442e-02 1.13871433e-02 1.78542472e-02 1.94823686e-02 9.36224032e-03 -1.40606137e-02 -1.20738847e-02 1.52715510e-02 -1.63249262e-02 -6.15125895e-03 9.53071285e-03 -1.49372891e-02 1.24320975e-02 -5.71081694e-03 2.24617459e-02 -2.22947877e-02 1.62054338e-02 1.64023824e-02 -1.74776632e-02 1.91975012e-02 1.23441033e-02 2.50428803e-02 1.17684975e-02 -1.28045827e-02 -2.49022823e-02 2.84638572e-02 -2.83112861e-02 1.74618959e-02 2.09275149e-02 -3.45197739e-03 1.43993869e-02 1.63415130e-02 6.06806809e-03 4.47620172e-03 -2.48386282e-02 1.35687683e-02 1.26150120e-02 1.55353136e-02 2.05351710e-02 1.67904645e-02 2.70635057e-02 -2.62245052e-02 2.16672197e-02 1.24106323e-02 1.24271121e-02 2.30542645e-02 4.92510153e-03 -2.73037255e-02 -2.60402840e-02 2.83497646e-02 2.01141052e-02 1.96546074e-02 1.32964319e-02 -8.85725673e-03 -2.49602143e-02 -2.57372819e-02 1.55875506e-02 -1.86849032e-02 -6.39618747e-03 2.77193822e-02 1.84768159e-02 1.22069884e-02 -2.19063517e-02 -1.08765997e-02 9.40893404e-03 -1.35150310e-02 -2.55065113e-02 2.61746813e-02 -1.48288701e-02 1.68960933e-02 -2.22401954e-02 2.32129470e-02 1.23634180e-02 7.67959189e-03 -2.89157741e-02 -1.85458437e-02 5.93444053e-03 -1.14375930e-02 2.05226690e-02 -2.04669069e-02 1.76751688e-02 1.47165293e-02 -2.53613144e-02 2.25619562e-02 -1.51715605e-02 1.86603647e-02 2.67919023e-02 -1.04176598e-02 -2.79697962e-03 -2.02705506e-02 -2.35816371e-02 -1.72578469e-02 -2.52007376e-02 -2.38821264e-02 -7.92235788e-03 1.61572248e-02 6.03458332e-03 -1.36051718e-02 2.81512626e-02 -1.32892625e-02 2.82083359e-02 1.12203741e-02 2.38873549e-02 1.92146804e-02 2.42690481e-02 -1.24413585e-02 2.71150991e-02 2.35841256e-02 2.44700331e-02 2.53184978e-02 -2.37037893e-02 1.54710468e-02 -2.67672464e-02 -7.97321927e-03 2.06020642e-02 9.30938777e-03 1.42231602e-02 2.77957451e-02 -2.83507630e-02 -2.82233935e-02 -1.75870564e-02 1.83705799e-02 2.21712627e-02 1.86192449e-02 -8.97824299e-03 5.35198674e-03 5.37879765e-03 1.64709426e-02 -2.13598162e-02 2.24432126e-02 2.05462519e-02 -1.08388551e-02 1.32302539e-02 -2.24805251e-02 -1.82586554e-02 2.59233397e-02 -2.47839410e-02 -2.20628586e-02
-7.71854492e-03 -1.15027595e-02 2.24446915e-02 -1.48651497e-02 -1.90393459e-02 2.10340638e-02 2.06067394e-02 -1.41520388e-02 -9.16737970e-03 -4.69403202e-03 1.91907715e-02 1.62334461e-02 2.03938049e-04 1.61045175e-02 -1.56193702e-02 -1.22577650e-03 5.77114522e-03 2.39135399e-02 -3.35237035e-03 -7.79573806e-03 2.87939887e-03 -5.96165052e-03 -7.23081641e-03 2.02306435e-02 7.77496817e-03 1.39620611e-02 -3.89460917e-03 1.95697099e-02 1.41402008e-02 -1.48232793e-02 -2.11554077e-02 2.00304296e-02 -7.23148184e-03 -2.14972477e-02 -2.44163033e-02 -4.74223495e-03 -2.31539384e-02 4.53556189e-03 1.71311125e-02 -2.19626650e-02 1.95005611e-02 2.06715502e-02 -1.79439560e-02 -2.14147493e-02 1.84460096e-02 1.72610208e-02 1.75010618e-02 2.83411797e-03 7.01134792e-03 3.56516987e-03 -1.62651036e-02 2.91153046e-05 2.83606583e-03 -5.83644584e-03 5.72915829e-04 5.10376785e-03 2.34208554e-02 -2.72832345e-02 2.60187965e-02 2.41654329e-02 2.44403817e-02 -1.08295307e-02 -6.03683200e-03 2.14817543e-02 4.51915711e-03 -4.61044768e-03 -1.01767099e-02 -6.71832310e-03 1.71883740e-02 -2.41217692e-03 -7.58971134e-03 2.34079733e-03 -2.15281770e-02 -1.47966789e-02 -1.40915532e-02 -1.99196693e-02 1.72590895e-03 1.86247975e-02 1.80121344e-02 3.08823911e-03 1.33929402e-02 -1.93212777e-02 -2.22177524e-02 4.84637363e-04 -1.34002436e-02 -8.38282343e-04 -6.29374571e-03 -9.11221374e-03 -1.70231126e-02 -1.54522089e-02 6.70064474e-03 -1.04509331e-02 4.04494954e-03 6.76581170e-03 -4.18832991e-03 5.38115483e-03 -4.29357681e-03 6.55494630e-03 9.71735828e-03 6.57833007e-04 9.30548704e-04 1.93183906e-02 1.73739791e-02 1.99485826e-03 2.87448871e-03 4.02082549e-03 2.79996302e-02 1.98143516e-02 -8.92127957e-03 1.22490115e-02 1.57053545e-02 -1.90280955e-02 1.16143562e-03 -1.86921947e-03 2.78615952e-03 -9.87091218e-04 5.45634830e-04 1.07337795e-02 2.07335548e-03 1.39217982e-02 1.72917880e-02 3.57420021e-03 8.43171589e-03 -1.07369889e-02 -1.61945168e-02 1.14551987e-02 -1.77269336e-02 -1.39214294e-02 1.03317164e-02 -6.99953828e-03 2.11859923e-02 -1.55883459e-02 8.50725733e-03 -4.78916941e-03 1.38582531e-02 5.17288875e-03 -1.58235207e-02 8.16719886e-03 1.74735468e-02 3.42995231e-03 1.29417684e-02 -4.20422573e-03 -6.41354034e-03 3.95963481e-03 -6.41172344e-04 -1.53328199e-03 -3.54756764e-03 -1.15819788e-02 1.44489482e-02 -3.73738050e-03 7.84902368e-03 -6.05140300e-03 -3.20962491e-03 2.30739452e-02 1.64743122e-02 2.61362419e-02 9.65321902e-03 2.22699810e-02 1.86757054e-02 -1.40218828e-02 -4.63266217e-04 4.76795918e-04 9.79226734e-03 -1.16946725e-02 3.67230154e-03 -1.64216571e-02 -2.49822950e-03 -8.60348926e-04 5.51114790e-03 1.90221686e-02 5.71292033e-03 -2.50457581e-02 -1.96007304e-02 -1.50474720e-02 2.45570652e-02 -2.04479434e-02 -5.55012189e-03 1.61695685e-02 -1.01929549e-02 1.43648954e-02 2.55534193e-03 -4.50385240e-04 -1.70916156e-03 -1.29641769e-02 5.33426227e-03 7.13538902e-04 -2.99690850e-03 3.54153733e-03 -1.10855065e-02 -1.50995236e-03 8.58897436e-03 1.90756395e-02 -2.40940135e-02 -2.29098257e-02 1.20812003e-02 -2.38521453e-02 2.29746494e-02 -1.01315659e-02 1.82052776e-02 5.88865532e-03 -1.26107494e-04 2.05095075e-02 -1.76526271e-02 1.57145262e-02 1.34887910e-02 -1.31985627e-03 -1.49949193e-02 -2.12641228e-02 -1.56477038e-02 -4.30155545e-03 -8.19186680e-03 -1.22380676e-02 -7.71835400e-03 3.51412734e-03 2.45991182e-02 -9.09231137e-03 1.34354234e-02 -1.44227017e-02 2.49142461e-02 1.14245135e-02 -1.01788214e-03 1.18802651e-04 -5.02028223e-03 3.25185189e-04 6.30122563e-03 1.11748492e-02 1.84179877e-03 1.83551330e-02 -1.87497623e-02 1.05780335e-02 -1.77615043e-02 -9.61046759e-03 -1.38716341e-03 1.88387632e-02 3.84893874e-03 1.98669266e-02 -2.03830488e-02 -1.92045476e-02 -1.60951447e-02 4.21579508e-03 1.82034262e-02 9.63723287e-03 -2.36740522e-02 -1.12943712e-03 -5.11757843e-03 1.46709494e-02 -1.60020459e-02 2.46036379e-03 2.18334217e-02 -1.35685001e-02 2.50246003e-03 -1.76381953e-02 -1.25249121e-02 2.46147402e-02 -1.26535073e-02 -2.68415567e-02
-1.02487495e-02 -1.05568338e-02 2.25872751e-02 -5.65642770e-03 -1.01369759e-02 9.27915983e-03 1.12617286e-02 -7.51114171e-03 -1.14956032e-02 -7.22355442e-03 4.77801403e-03 1.38149988e-02 -1.63726835e-03 2.04075668e-02 -1.00051367e-03 -5.78984013e-03 -1.99496243e-02 1.74860246e-02 -4.60839225e-03 -1.73354354e-02 1.93426535e-02 1.50022013e-02 -6.39380480e-04 2.10850704e-02 1.13990745e-02 9.37013701e-03 -1.74524523e-02 1.46808000e-02 1.75838005e-02 5.36248495e-04 -2.13269517e-02 2.95662973e-03 -1.68226901e-02 -2.65700892e-02 -2.72282748e-03 -3.16972123e-03 -1.84666570e-02 1.17597338e-02 1.83272883e-02 -1.21378722e-02 5.74389845e-03 2.00109575e-02 -2.43690982e-02 -2.13312879e-02 2.16116328e-02 8.41451716e-03 2.03518551e-02 1.90380365e-02 1.38870561e-02 -2.09181197e-03 -1.24208694e-02 -7.06413854e-03 -6.16413727e-03 -7.58735510e-03 9.61136725e-03 1.68034844e-02 2.85095088e-02 -9.14090406e-03 2.46186256e-02 9.12151393e-03 2.52064466e-02 -1.45030823e-02 -2.49620210e-02 2.73672212e-02 -4.99337679e-03 1.47742536e-02 1.13395900e-02 1.77219845e-02 1.44026950e-02 -1.65307671e-02 -1.81369893e-02 8.83521419e-03 -1.43527212e-02 -2.52238363e-02 -6.41656760e-03 -7.27849035e-03 9.79607180e-03 1.51531994e-02 2.42080330e-03 2.18393262e-02 1.56659633e-02 -1.10800350e-02 -1.76032484e-02 -7.19189877e-03 -2.13438775e-02 9.41336621e-03 -1.43516017e-02 -1.13750556e-02 -3.38477688e-03 -1.06653629e-03 1.57006066e-02 -2.28882376e-02 -1.38097210e-02 -1.90024730e-02 -1.56420060e-02 2.51911990e-02 -8.75919964e-03 1.17377164e-02 1.02346977e-02 8.47029034e-03 4.89453133e-03 2.55953539e-02 2.06960551e-02 -5.07064071e-03 2.19815206e-02 1.33691952e-02 2.56961095e-03 2.22916505e-03 -7.07408832e-03 1.05117708e-02 2.29218714e-02 -2.59860046e-02 5.39416540e-03 -8.81684013e-03 1.25485118e-02 5.22439089e-03 2.30613295e-02 1.29852525e-03 6.52019028e-03 4.52754460e-03 8.90362449e-03 1.08582433e-02 2.54538525e-02 -6.74811006e-03 -1.71039887e-02 2.15989370e-02 -6.59919484e-03 -2.45580878e-02 1.78472288e-02 -8.68824776e-03 1.64383426e-02 -1.43596996e-02 2.01209001e-02 -8.87448154e-03 2.51935106e-02 1.33851133e-02 -1.97092369e-02 4.71305661e-03 7.80424057e-03 2.30907705e-02 2.96481866e-02 -8.47170036e-03 -1.09384712e-02 7.12217437e-03 -1.23784691e-02 1.71916131e-02 7.09137367e-03 5.42624108e-03 1.95998307e-02 5.69474557e-03 8.19807779e-03 1.16216801e-02 -1.83718670e-02 2.45310087e-03 -8.47591436e-05 1.49242766e-02 -1.10525289e-03 1.21991308e-02 7.14102853e-03 -5.87239815e-03 1.43026635e-02 5.48870629e-03 2.92309211e-03 1.21638561e-02 1.24415988e-02 -1.77074652e-02 -7.16815703e-03 -3.58635734e-04 2.12825313e-02 1.68108921e-02 1.02466233e-02 -1.54816452e-02 -1.82927866e-02 -1.93358306e-02 1.44070657e-02 -1.39900018e-02 -2.05032825e-02 2.42751949e-02 2.48383246e-02 8.24169070e-03 -1.70263015e-02 -1.33594545e-02 1.60253271e-02 -1.94213819e-02 -3.83457722e-04 8.84710159e-03 -7.97020271e-03 7.09846057e-03 3.62141081e-03 1.84052531e-02 1.66204181e-02 1.38322022e-02 -1.20027643e-02 -1.66117195e-02 1.43096857e-02 -8.38903897e-03 9.85671114e-03 -2.46328171e-02 1.89631470e-02 1.00201992e-02 -1.48548149e-02 1.02872336e-02 -1.41330529e-02 2.80198343e-02 2.14536861e-02 -4.73268889e-03 -5.66945411e-03 -1.34600457e-02 -2.27112658e-02 -1.87187847e-02 -1.71986297e-02 -2.18866970e-02 -5.33888116e-03 1.62792634e-02 9.07611474e-03 -4.97805607e-03 2.10214294e-02 -1.37934340e-02 4.07293672e-03 5.44232875e-03 1.64911672e-02 -1.54530152e-03 4.03204048e-03 -6.89860992e-03 2.51606833e-02 7.68467877e-03 1.89507008e-02 1.84499640e-02 -1.00623574e-02 2.13555116e-02 -2.50553768e-02 -1.80319306e-02 7.77802756e-03 1.28644165e-02 2.14375760e-02 7.94934761e-03 -7.84571934e-03 -4.20202967e-03 -2.17673909e-02 2.91840006e-02 6.01281459e-03 7.30852084e-03 -1.36586446e-02 2.33511813e-02 6.50019012e-03 1.47579494e-03 -1.87660363e-02 1.29838334e-02 1.30796712e-02 -2.15846114e-02 2.18627490e-02 -1.76394917e-02 -8.90345685e-03 1.57710705e-02 -1.96267329e-02 -3.93845281e-03
-1.23152016e-02 -1.03384182e-02 2.37190332e-02 -2.19786055e-02 -1.51256006e-02 1.60819814e-02 2.50143721e-03 -7.72654498e-03 -2.38535530e-03 -2.20283810e-02 4.12455434e-03 1.65067799e-02 2.87021603e-03 2.45157885e-03 8.50177777e-04 2.99595552e-03 -9.34664346e-03 2.09286883e-02 -4.26571956e-03 7.96435401e-03 1.85779501e-02 4.00448823e-03 1.17099946e-02 1.99273694e-02 -2.54255952e-03 1.15923593e-02 2.89706141e-03 1.36898588e-02 1.95282027e-02 -4.04871098e-04 -7.19180983e-03 1.46991750e-02 -1.51921529e-02 -2.07154658e-02 -6.95617730e-03 -1.68141685e-02 -9.91289271e-04 3.53803835e-03 2.73326132e-02 -3.32769414e-04 1.41486097e-02 5.43589517e-03 -5.63713629e-03 -2.76644249e-04 7.52649084e-03 2.06028782e-02 1.82699598e-02 9.14032944e-03 1.39330039e-02 -6.25159172e-03 -1.42654674e-02 -1.48731675e-02 -3.54728755e-03 -1.27832973e-02 -4.35164338e-03 -1.15796563e-03 1.32590337e-02 -1.89251546e-02 1.33455563e-02 1.31045301e-02 2.04884335e-02 -2.39465688e-03 -6.04984630e-03 9.84191336e-03 -7.84877408e-03 9.40591190e-03 1.54003389e-02 -4.58701048e-03 2.01589558e-02 -1.30257672e-02 -1.74415149e-02 2.69636698e-03 9.81329195e-03 -5.24772657e-03 -1.09458063e-02 -2.91145709e-03 1.51842097e-02 1.17920153e-02 -1.07110646e-02 2.52613835e-02 5.74434223e-03 -4.24569333e-03 -2.04958878e-02 -1.80004407e-02 -8.23128782e-03 1.19058439e-03 -8.77260417e-03 2.09654123e-03 -6.07400388e-03 4.19013435e-03 9.51076113e-03 -6.76803896e-03 6.75279601e-03 -9.03298787e-04 -6.74048997e-03 5.71742700e-03 -1.24815274e-02 1.72595754e-02 1.13974577e-02 1.52364708e-02 1.12982104e-02 1.28792948e-03 -6.99021854e-04 -1.03292344e-02 1.73731558e-02 1.27936145e-02 -3.99547303e-03 8.69342871e-03 -1.78399310e-03 1.44685283e-02 1.52025167e-02 -1.20399687e-02 9.70673002e-03 1.17190825e-02 6.56232238e-03 8.52761231e-03 1.05592143e-02 -5.38738859e-05 1.27079971e-02 7.33613549e-03 -8.76060687e-03 2.51013786e-03 3.68757173e-03 -4.38518170e-03 -5.90745173e-03 1.61888134e-02 -4.27405909e-03 1.92718493e-04 2.32432093e-02 -2.30326485e-02 -9.83739179e-03 -1.81112345e-02 9.77062341e-03 -1.52550116e-02 1.21509377e-02 2.20771339e-02 -6.05406426e-03 1.51957981e-02 5.10785170e-03 2.59582885e-03 6.98106736e-03 -9.58758779e-03 -1.02039920e-02 1.11185815e-02 9.24446504e-04 -7.81620693e-05 5.50949387e-03 1.52941281e-02 4.13542334e-03 2.07382347e-02 -6.72823191e-03 5.60904806e-03 -3.21588083e-03 -9.63802915e-03 1.31648425e-02 5.91253163e-03 1.56811299e-03 1.05971284e-02 2.21543685e-02 -1.59668382e-02 1.61827765e-02 -6.25406438e-03 1.64606404e-02 3.08567728e-03 7.93199055e-03 2.29968643e-03 -1.85981877e-02 1.49076469e-02 1.15315299e-02 1.64172072e-02 2.45774146e-02 -8.69113393e-03 -1.76090524e-02 2.23528803e-03 9.31010861e-03 -2.19191909e-02 -1.31395021e-02 6.69569569e-03 -1.31777313e-03 4.71001491e-03 1.05858753e-02 -8.68241116e-03 4.53603966e-03 5.92327071e-03 -1.64204778e-03 -2.64774682e-03 -1.61630586e-02 -1.14243780e-03 -2.53104139e-04 5.82390558e-03 -4.20720171e-04 9.90825426e-03 -9.18469951e-03 -1.26023600e-02 2.68681236e-02 -2.33491436e-02 8.79092295e-06 -8.89709219e-03 1.90912243e-02 1.22433361e-02 -3.48385354e-03 -5.27434424e-03 -1.57819856e-02 2.65883505e-02 1.38793536e-03 -8.59949645e-03 1.32572493e-02 -1.83239090e-03 -3.05734505e-03 -9.07427818e-03 -1.31437071e-02 -1.14197074e-03 -2.03883052e-02 -5.77584316e-04 1.95801686e-02 -1.77525468e-02 1.98170487e-02 -1.69186182e-02 -7.70912739e-04 1.33534195e-02 3.73306591e-03 1.28817204e-02 6.47573592e-03 -6.49660593e-03 1.13344961e-03 1.08633060e-02 -2.48316443e-04 2.50714906e-02 8.34689848e-03 -2.81142979e-03 -1.51561173e-02 -5.31220855e-03 2.76321615e-03 -7.93003768e-04 2.40151454e-02 6.78734295e-03 -6.04730519e-03 -5.95928123e-03 -9.81064327e-03 1.50132254e-02 -4.86085843e-03 9.32739396e-03 -1.57116801e-02 1.15586361e-02 1.69281885e-02 -1.35781942e-02 -4.51017963e-03 6.13554940e-03 2.17328072e-02 -8.24187323e-03 6.97115576e-03 2.85045011e-03 -9.73184220e-03 1.20800156e-02 3.41612892e-03 -1.30814537e-02
-5.41351968e-03 -1.98054127e-02 1.29271299e-02 -6.94964314e-03 -9.43414867e-03 1.00002252e-02 2.02776212e-02 -1.82315763e-02 -1.29054068e-02 -1.89204316e-03 1.18051851e-02 1.54827721e-02 2.39190669e-03 1.24712726e-02 3.00597469e-03 -5.60186012e-03 1.34109519e-02 1.33330720e-02 -4.98327520e-03 -4.74360166e-03 5.46944444e-04 -8.76137707e-03 1.56009961e-02 1.13334050e-02 1.38056902e-02 -5.50919911e-03 -1.50883310e-02 1.63720269e-03 1.01116858e-02 5.77883329e-03 -7.84271024e-03 2.32718792e-03 -1.97678152e-02 -2.04169583e-02 5.32582263e-03 2.34582485e-03 -1.64388958e-02 -3.37069761e-03 4.41104127e-03 3.95427691e-03 2.03180537e-02 -5.84556675e-03 -6.84309052e-04 -1.05061922e-02 -6.66613411e-03 7.78820785e-03 -4.49009379e-03 1.13519486e-02 -1.77422562e-03 1.24564217e-02 -4.16190084e-03 -1.75539346e-03 4.30271402e-03 -4.97892266e-04 -9.35493875e-03 -5.94568672e-03 1.36261424e-02 -2.50078738e-02 8.98774713e-03 4.03122138e-03 8.07411689e-03 -1.73914526e-02 -1.02385608e-02 6.14901818e-03 7.33426539e-03 -6.34280266e-03 9.04253917e-04 6.31763879e-03 6.30992604e-03 -5.45047689e-03 -1.39794704e-02 -1.23429333e-03 1.62602076e-03 -6.47956273e-03 2.56721047e-03 1.96505222e-03 -4.70647402e-03 1.36089856e-02 1.79343913e-02 1.90923344e-02 1.16152205e-02 -4.91055800e-03 5.11189864e-04 -1.50593668e-02 1.82820519e-03 1.01868976e-02 -8.18936434e-03 -5.37599204e-03 -1.49946958e-02 -1.24588935e-02 6.12232136e-03 -1.46515239e-02 7.96604529e-03 1.28962856e-03 -7.57881091e-04 -2.93622306e-03 3.05707217e-04 1.84909832e-02 1.14314519e-02 1.56045388e-02 1.03314035e-02 -8.70278664e-03 -3.74842738e-03 -5.47977770e-03 8.98766425e-03 2.90775276e-03 2.51445398e-02 -2.92083062e-03 -3.00668669e-03 -5.15093002e-03 -3.92487785e-03 -7.34696677e-03 1.30412099e-03 -6.49513630e-03 1.75612345e-02 1.23027116e-02 2.25210618e-02 -6.24161074e-03 1.30208386e-02 9.60377045e-03 3.79256322e-03 1.67275015e-02 8.73672403e-03 -1.89566761e-02 -3.29784118e-03 -6.44675456e-03 6.57693064e-03 9.01798892e-04 4.45264671e-03 -1.96935590e-02 -3.59485787e-03 -1.05436761e-02 -2.84068706e-03 -1.59399975e-02 1.00185508e-02 1.50446026e-02 -1.79948583e-02 1.19121298e-02 8.20777938e-03 1.63392834e-02 1.38398455e-02 -1.43411579e-02 -3.70472367e-03 1.66566223e-02 -5.66040585e-03 -3.38143494e-04 8.94252211e-03 -5.05187595e-03 4.24596434e-03 1.33611504e-02 -7.94067886e-03 8.27878341e-03 2.16450938e-03 2.51012966e-02 3.04687559e-03 1.00223487e-02 -9.02084354e-03 6.52409019e-03 1.41798733e-02 -1.60250161e-02 -1.19455270e-02 -7.88380578e-03 1.94464682e-03 -1.54901613e-02 -1.04589900e-02 -4.85330820e-03 -6.96738390e-03 4.73591592e-03 1.50665268e-02 1.19069768e-02 1.15056895e-02 -1.31552536e-02 -1.00578759e-02 -3.03974794e-03 -2.32412538e-04 -1.06499586e-02 5.35568641e-03 -1.16729608e-03 -6.43348973e-03 -8.40588287e-03 -8.98106582e-03 3.53048975e-03 -6.10681111e-03 2.20818981e-03 -7.58744637e-03 6.21978892e-03 4.23431769e-03 1.16770752e-02 1.35248099e-02 -7.05598714e-03 -9.88821592e-03 1.49338935e-02 6.32036012e-04 -9.29682329e-03 1.46170547e-02 -6.06368063e-03 1.37545839e-02 -1.90204736e-02 1.22757191e-02 9.12693422e-03 -3.38175660e-03 7.93252047e-03 -7.54021481e-03 2.07219794e-02 7.68884085e-03 4.29308217e-04 -2.59817159e-03 2.62512802e-03 -4.13948670e-03 -3.63715272e-03 -1.42307952e-02 -1.15404390e-02 -1.24567859e-02 7.04612490e-03 1.27875675e-02 -1.91534758e-02 1.34824254e-02 -5.99343469e-03 1.65252555e-02 1.01273060e-02 1.11037018e-02 -1.67635118e-03 1.19442241e-02 -1.07605932e-02 4.83807968e-03 2.36979555e-02 1.95452501e-03 1.60535369e-02 -4.23921883e-04 1.59242116e-02 2.47645803e-05 -1.92203780e-03 5.37865283e-03 4.05524997e-03 1.10002710e-02 9.65926424e-03 2.70613120e-03 -5.10592014e-03 -1.53622972e-02 1.35538811e-02 -2.94821733e-03 3.89054487e-03 -1.15325274e-02 -1.89745706e-03 -3.40927363e-05 -6.32544979e-03 -1.30355521e-03 -5.93410898e-03 1.69004984e-02 -3.51748781e-06 1.36160869e-02 -1.39934774e-02 4.48541576e-03 1.93137173e-02 -5.35366684e-03 -8.19260441e-03
-9.16843396e-03 -7.26219779e-03 2.19474845e-02 -1.44146727e-02 -1.37842558e-02 1.47964470e-02 8.75632465e-03 -8.05431604e-03 -1.07348189e-02 -1.20759653e-02 1.55862439e-02 2.36714892e-02 -8.73659924e-03 1.75339226e-02 -1.63644981e-02 -1.72966681e-02 -1.06964093e-02 2.82365968e-03 -1.47076361e-02 -2.06940621e-02 4.94201202e-03 1.45116951e-02 -1.65699609e-02 9.17716045e-03 1.48676597e-02 1.69192464e-03 -3.41960671e-03 8.75888020e-03 2.18357947e-02 -2.22197343e-02 -2.52766907e-02 1.89106725e-02 -7.78912427e-03 -1.81346647e-02 -6.21885573e-03 -2.66519990e-02 -6.96770567e-03 3.85722425e-03 1.82333495e-02 -2.57822983e-02 2.61024293e-02 5.71695017e-03 -1.94586143e-02 -1.22743510e-02 2.11253297e-02 1.78514775e-02 1.18334098e-02 1.09000811e-02 1.77760925e-02 -1.84407271e-02 -1.74581800e-02 -2.00803131e-02 -1.10528637e-02 -1.55103346e-02 1.05781518e-02 1.13434717e-02 7.45122554e-03 -1.78680047e-02 1.82287302e-02 1.55520039e-02 2.26830617e-02 -2.14508474e-02 -2.70304121e-02 2.77451184e-02 -7.84095004e-03 1.07616074e-02 1.69872853e-03 1.31676497e-03 1.88669097e-02 -2.25593871e-03 -2.05803066e-02 8.01261608e-03 -2.33556367e-02 -1.22796334e-02 -1.84010994e-02 -2.29964200e-02 1.39817055e-02 1.94253065e-02 1.17262742e-02 8.45400710e-03 1.75160114e-02 -1.84023101e-02 -2.31579095e-02 -6.17736066e-03 -8.82455986e-03 1.42611412e-03 3.88756423e-04 -1.99684501e-02 -9.70060937e-03 -1.20429033e-02 1.09375408e-02 -9.09097772e-03 1.92124979e-03 -1.85990985e-02 -1.78129133e-02 9.56505071e-03 -1.12211267e-02 6.68665254e-03 2.28169411e-02 5.89351542e-03 1.53257484e-02 2.43856795e-02 1.86580531e-02 -4.58890246e-03 2.14026887e-02 2.22283360e-02 2.15739049e-02 2.32709330e-02 -1.19428672e-02 2.08628830e-04 1.36176059e-02 -1.03568379e-02 3.49711324e-03 -1.14077851e-02 1.96668133e-02 1.02674123e-03 1.74253602e-02 4.44518682e-03 2.01804750e-02 2.12941319e-02 1.10316649e-02 1.79812349e-02 7.00364308e-03 -8.51024967e-03 -1.52587369e-02 1.18243620e-02 -1.21756895e-02 -1.60117559e-02 1.75342150e-02 -1.15915071e-02 7.17362715e-03 -2.46983934e-02 1.86264962e-02 -1.07000321e-02 9.91209503e-03 2.21219789e-02 -1.13468179e-02 1.01340795e-02 1.44475037e-02 8.81702639e-03 1.50145600e-02 -2.57410556e-02 -8.11900850e-03 1.10710924e-02 -2.89828330e-03 2.03598682e-02 1.83472671e-02 -2.12501585e-02 -9.78953205e-04 4.27557575e-03 1.26019102e-02 1.28450822e-02 -1.03017660e-02 2.45838612e-02 1.96340382e-02 1.07021071e-02 1.26957232e-02 4.92767198e-03 1.52440015e-02 -1.62309725e-02 1.35032041e-02 2.42342777e-03 6.86115539e-03 -6.55602617e-03 2.01805662e-02 -3.58303287e-03 -9.96354502e-03 -1.11285923e-03 2.62314063e-02 1.65638141e-02 2.08603144e-02 -9.76499636e-03 -1.19699109e-02 -1.75484642e-02 2.37236992e-02 -2.39249561e-02 -5.46939700e-05 9.45873652e-03 -2.19700160e-03 3.78161296e-03 -8.50469153e-03 -2.31252182e-02 1.61828026e-02 -1.94126554e-02 -2.08655205e-02 4.27157298e-04 -1.62356403e-02 -1.55155984e-04 -1.66263729e-02 1.48581509e-02 6.51089288e-03 2.05585472e-02 -1.71103552e-02 -2.62775645e-02 1.93750169e-02 -1.43518066e-02 2.66236383e-02 -2.76254322e-02 1.72027536e-02 1.05620194e-02 -3.13800364e-03 1.85448136e-02 -6.26885844e-03 1.11034028e-02 7.66940834e-03 -9.34532005e-03 -6.42513204e-03 -1.16178775e-02 -2.55011246e-02 -2.10673213e-02 -1.87187549e-02 -2.55313255e-02 -2.47928780e-02 6.50139758e-03 8.62671807e-03 -2.05298401e-02 1.69581380e-02 -9.96235479e-03 2.14903019e-02 1.60886813e-03 2.01114770e-02 2.07616240e-02 1.15727214e-02 -3.39211058e-03 1.49405859e-02 1.65290721e-02 8.71457346e-03 1.75975431e-02 -5.79311652e-03 1.46184051e-02 -1.17386272e-02 -1.24599822e-02 2.43168809e-02 5.94698172e-03 1.56920385e-02 2.49104318e-03 -2.17759367e-02 -2.27919184e-02 -2.97091287e-02 1.42149637e-02 3.70641239e-03 1.44350566e-02 -1.22236339e-02 4.48191911e-03 1.00997109e-02 6.43984461e-03 7.21365388e-04 2.18272917e-02 1.41226538e-02 -7.95745477e-03 4.35763597e-03 -8.61153658e-03 -2.58768480e-02 5.90390014e-03 -5.40956203e-03 -1.90437101e-02
