-2.18370222e-02 -1.54092219e-02 2.12063286e-02 -2.57451776e-02 -1.94197684e-03 3.59651097e-03 1.59329604e-02 -4.67374688e-03 -2.05075741e-03 -1.45279337e-02 -1.64390216e-03 1.44833671e-02 -1.03282258e-02 3.97533318e-03 1.36591494e-03 -5.89140551e-03 9.62232240e-03 2.21813731e-02 -2.11788836e-04 5.66029921e-03 7.40917772e-03 -1.33163424e-03 -9.76478215e-03 1.40288426e-02 -4.34522191e-03 5.99812623e-03 -5.58764813e-03 -2.01916136e-03 1.80082899e-02 9.75041930e-03 -1.84186865e-02 1.58818532e-03 -1.89052280e-02 -4.34520189e-03 -1.59968287e-02 -1.86973251e-02 5.38397534e-03 7.40954280e-03 9.08094365e-03 -1.72313452e-02 1.48580046e-02 4.18237271e-03 -9.11345414e-04 3.06507689e-03 9.51460190e-03 3.44158313e-03 1.50826219e-02 -3.15778307e-03 1.86132696e-02 -1.22239748e-02 -1.49080129e-02 -8.09567329e-03 -1.61293969e-02 -5.40208211e-03 1.15265930e-05 -1.38327270e-03 2.31658313e-02 -2.34811399e-02 2.53768712e-02 8.51988792e-03 2.10979786e-02 -2.41298340e-02 -7.78951310e-03 1.47789821e-03 4.51181037e-03 8.95408168e-03 1.18353823e-02 -7.12252548e-03 1.23863705e-02 -1.63733959e-02 -7.51608657e-03 -9.38707311e-03 5.62378811e-03 -1.13210827e-02 1.37109798e-03 -2.15289276e-02 1.14812274e-02 1.33430930e-02 8.69294163e-03 6.38386561e-03 1.86734274e-03 -5.67055307e-03 -2.03763023e-02 -1.32921385e-02 3.04986723e-04 9.77636408e-03 -1.13247344e-02 -1.40817882e-03 -4.78052069e-03 9.28090792e-03 1.86837297e-02 -1.39778536e-02 -1.55286310e-04 3.89556284e-03 -1.19808130e-02 2.10429635e-02 -1.07574770e-02 1.45080741e-02 1.43412896e-03 8.67118128e-04 9.97571461e-03 3.26306047e-03 -9.88235604e-03 -9.67803318e-03 1.64390318e-02 1.28008807e-02 -6.97615277e-03 -6.82434393e-03 3.13508720e-03 1.11508090e-02 -8.40672350e-04 -7.47155352e-03 5.00107976e-03 8.01967736e-03 1.76714156e-02 1.16345147e-02 1.69078317e-02 -9.39822290e-04 1.57272257e-02 -2.09492701e-03 1.55902980e-03 -9.36195254e-03 1.13287587e-02 -9.10032541e-03 -8.94160289e-03 -1.22750457e-03 -1.88639462e-02 3.05290427e-03 7.14048650e-03 -1.95508748e-02 3.47379153e-03 -1.90752838e-02 -5.36805857e-03 -2.02175844e-02 7.44837197e-03 1.05973417e-02 -7.70805683e-03 2.93353829e-03 1.60332788e-02 7.19826948e-03 3.22152721e-03 -5.83559787e-03 -4.28525684e-03 2.06324123e-02 -2.11754144e-04 -2.21109716e-03 5.36672026e-03 -6.73228060e-04 -1.95092487e-03 8.93534161e-03 1.30914720e-02 -9.65568610e-03 -1.96518674e-02 3.49039282e-03 4.53354651e-03 8.69962573e-03 -1.46130577e-03 5.38769411e-03 1.24110822e-02 -4.40897979e-03 9.24766716e-03 8.20591740e-05 7.82835763e-03 -7.81725440e-03 4.69465187e-04 -2.01483034e-02 -1.29250325e-02 1.83381457e-02 1.06634395e-02 1.23928953e-02 2.94281216e-03 -1.41066229e-02 -1.48345698e-02 -4.63973265e-03 1.91820245e-02 -2.63778027e-02 -9.30406153e-03 1.94751378e-02 1.64128244e-02 1.52641358e-02 -1.74307614e-03 -1.57805216e-02 1.92930002e-03 4.64234455e-03 -5.61845372e-04 1.38646634e-02 -1.88588575e-02 2.47026770e-03 -8.66792910e-03 3.85889667e-03 9.87434201e-03 -5.02163079e-03 -9.56351124e-03 -7.39176571e-03 2.70035416e-02 -6.77203573e-03 9.75294411e-03 -8.65568221e-03 8.82392097e-03 5.90030476e-03 -1.46878809e-02 1.90865400e-03 -1.17554814e-02 2.11942475e-02 6.59530377e-03 1.08551821e-02 -3.12596210e-04 2.88071483e-03 -9.34751704e-04 -2.35623047e-02 -5.24479849e-03 -1.45263912e-04 -1.11910496e-02 1.28132664e-02 1.06846401e-02 -6.38415292e-03 6.44255709e-03 4.80390852e-03 -9.86386742e-03 3.71225574e-03 1.02105504e-02 3.64874466e-03 1.06842369e-02 3.56581324e-04 -5.71704283e-03 2.58359350e-02 8.42744671e-03 2.63535678e-02 -6.82714395e-03 1.16271013e-02 -1.68990176e-02 -1.87844653e-02 1.91506147e-02 1.82922953e-03 2.36789826e-02 -1.08462747e-03 -8.80023837e-03 -8.36556777e-03 4.10096440e-03 1.10992687e-02 -1.95256050e-03 1.34751787e-02 -3.63957253e-03 -3.17097013e-03 2.48120143e-03 6.78325817e-03 1.04460828e-02 -9.36961384e-04 1.40528940e-02 -9.26934835e-03 2.78729293e-02 -1.26963295e-02 -2.71412544e-02 1.29140615e-02 2.28507648e-04 3.56525043e-03
-1.38531495e-02 -7.35234702e-03 1.35505507e-02 -1.63290743e-02 -1.36177978e-02 2.75886059e-02 1.47871301e-02 -2.35094205e-02 4.66606999e-03 8.31769221e-03 -1.27328254e-04 1.70203522e-02 -5.58535242e-03 4.06089984e-03 9.70536564e-03 -7.38236774e-03 9.17224865e-03 3.16626695e-03 -6.52166549e-03 -3.77477985e-03 5.34098409e-03 -4.04171878e-03 1.19746104e-02 2.39628064e-03 5.00537734e-03 -6.37853984e-03 -4.96459834e-04 9.32850502e-03 1.18928663e-02 4.93627368e-03 -1.73559953e-02 1.48705970e-02 -8.21720576e-04 -1.56046906e-02 -6.18015695e-03 -3.93904373e-03 -1.12129133e-02 8.72308388e-03 3.49957077e-03 -1.27220564e-02 1.01332581e-02 1.48935467e-02 -5.17208129e-03 -1.36254844e-03 7.76342209e-03 3.24026740e-04 1.61526483e-02 1.49435485e-02 8.22187494e-03 -2.86468025e-03 5.49051445e-03 1.02513516e-02 -4.53257700e-03 4.18546237e-03 3.63439531e-03 3.51818884e-03 7.29564857e-03 -1.30639533e-02 1.74511075e-02 1.98216289e-02 1.57910977e-02 -1.13099616e-03 -1.57328863e-02 3.45898792e-03 -4.73628519e-03 -7.37003633e-04 3.23326187e-03 -5.85847907e-03 7.27677112e-03 -7.97562953e-03 -1.05783474e-02 5.42219076e-03 -5.94699802e-03 -7.02934945e-03 -1.02360193e-02 -1.52539266e-02 -6.12227572e-03 8.64436105e-03 1.92139857e-02 1.56933535e-03 1.56463347e-02 -2.01386716e-02 -1.05032362e-02 -4.58865706e-03 3.87524371e-03 -1.19050145e-02 -7.72752473e-03 -7.59741105e-03 1.77356962e-03 -8.30250420e-03 7.59093976e-03 -6.30566617e-03 4.03988454e-03 3.79391317e-03 -4.92761424e-03 2.77316372e-04 -9.51059815e-03 1.14943041e-02 3.01088858e-03 -5.16041601e-03 5.98076847e-04 1.50947990e-02 -5.45090623e-03 1.64594338e-03 7.56074674e-03 8.02273024e-03 7.54081178e-03 9.04766843e-03 1.05066923e-02 -5.04585216e-03 1.21554891e-02 -1.16981426e-02 2.59670458e-04 7.40649458e-03 1.56736989e-02 -5.87410619e-03 1.10456245e-02 3.13785858e-03 6.98761642e-03 -8.02387192e-04 2.68256967e-03 1.15309656e-02 -5.50501572e-04 -5.92563255e-03 4.34854813e-03 3.23801325e-03 -5.88960946e-03 -8.75300542e-03 5.56924380e-03 -1.05839865e-02 1.56112602e-02 -1.02967024e-02 1.18626393e-02 1.23160612e-03 1.23094869e-04 4.83279536e-03 2.44961749e-03 1.89406089e-02 -9.48289235e-04 2.14078240e-02 2.52506547e-02 -1.36604728e-02 -1.50299072e-03 1.59479417e-02 2.56031635e-03 -7.38488790e-03 -6.91342540e-03 -1.44118126e-02 -1.77543145e-04 -2.76596542e-03 -2.35670595e-03 6.08055806e-03 1.59484439e-03 1.44587066e-02 4.97630856e-04 1.31755881e-02 -8.68435204e-03 9.53534804e-03 -5.01281722e-03 6.86868443e-04 -4.11525194e-04 -1.20725911e-02 6.59013959e-03 -1.26866046e-02 -6.41638786e-03 -2.81941239e-03 1.13655627e-02 7.77879823e-03 6.20702608e-03 6.55129319e-03 8.48712493e-03 -2.57876813e-02 -3.36295413e-03 -2.18023336e-03 -2.69375509e-03 -1.59245003e-02 4.03853040e-03 -6.24887552e-03 -1.25178453e-02 8.90677737e-04 -4.68814606e-03 1.52966415e-03 -1.34142339e-02 -1.45304075e-03 -9.28746443e-03 -2.32572178e-03 4.37455857e-03 2.84720096e-03 1.55304547e-03 6.80338312e-03 2.49001500e-03 7.88415596e-03 -1.17117343e-02 -5.96344611e-03 4.00734879e-03 -1.68647300e-02 1.36965513e-02 -3.85429966e-03 6.67527365e-03 1.06775761e-02 -7.52302492e-03 -6.23328192e-03 2.33337027e-03 7.21669709e-03 3.41129210e-03 4.47743060e-03 -1.30275702e-02 -1.23343579e-02 -1.04813399e-02 6.95203897e-04 -4.15521301e-03 -1.17251519e-02 -1.09247863e-02 1.20315775e-02 1.81124285e-02 -4.61121759e-04 1.28982542e-02 -2.55391784e-02 1.63424350e-02 -5.02932305e-03 -2.84571201e-03 4.66747023e-03 8.29599705e-03 5.12718176e-03 1.91103038e-03 2.09051333e-02 1.54751521e-02 -1.31532806e-03 -1.72096360e-02 2.51793000e-03 -1.87555887e-02 -6.93119655e-04 4.41329647e-03 7.38145318e-03 1.40478602e-02 1.58252958e-02 -3.06076393e-03 -1.75647251e-02 -2.58948095e-02 6.81345118e-03 -8.80239008e-04 4.10984829e-03 1.26360776e-03 -3.74549534e-03 -1.51952431e-02 -1.25600407e-02 -2.55505904e-03 3.90272751e-03 1.40096014e-02 -4.00761096e-03 1.59238204e-02 -6.53417688e-03 -1.88804492e-02 1.44798839e-02 -6.28978899e-03 -2.51082005e-03
5.13813570e-02 5.63392267e-02 -3.89652699e-02 5.78877851e-02 7.06759468e-02 -6.16613589e-02 -8.23185146e-02 5.65852001e-02 -9.11903940e-03 -1.75631456e-02 2.29140520e-02 1.49982432e-02 -6.25030175e-02 3.36669944e-02 -2.63779666e-02 1.52066350e-03 2.01543167e-01 -2.16006249e-01 1.43259838e-01 1.72707066e-01 -1.95629954e-01 -1.55711234e-01 -2.83972789e-02 -2.11500660e-01 2.20551272e-03 -3.41426991e-02 -1.62495263e-02 -4.55224849e-02 -6.56159967e-02 -1.61898255e-01 2.86077037e-02 1.37408162e-02 -1.61656607e-02 9.38219950e-03 -2.59329900e-02 -1.41576864e-04 -4.31061946e-02 5.17966710e-02 -3.10526248e-02 -5.58414087e-02 -9.19234753e-03 1.08642980e-01 -2.96439398e-02 -1.06187776e-01 -1.97909810e-02 2.21889578e-02 1.58138722e-02 4.58696373e-02 7.46227354e-02 -6.65660799e-02 -7.08949417e-02 -8.56516510e-02 -7.46867806e-02 -1.15269750e-01 1.66600104e-02 -9.03493315e-02 -6.41774908e-02 7.99312741e-02 -8.05771947e-02 -7.85257742e-02 -9.12549272e-02 7.48646110e-02 8.97454768e-02 -7.67013282e-02 -4.05160263e-02 6.54346822e-03 1.40899092e-01 1.54232075e-02 2.99616205e-03 -9.61835540e-05 3.57751921e-03 2.59658080e-02 -2.83517659e-01 -9.71819535e-02 -1.94385529e-01 -1.82885364e-01 2.60748893e-01 7.70329535e-02 2.94280887e-01 1.39255673e-01 -1.22316666e-01 1.95031136e-01 1.36479467e-01 9.74726304e-02 1.39356881e-01 1.17599271e-01 -2.16995791e-01 1.05810381e-01 6.27792180e-02 1.69933334e-01 1.18851634e-02 1.38404310e-01 -4.65922877e-02 6.30129874e-02 9.48565826e-02 -1.65669605e-01 -6.03961572e-02 3.26987281e-02 8.01148824e-03 -4.81368862e-02 1.68352984e-02 1.34119600e-01 1.18134201e-01 3.41884531e-02 -3.56433541e-02 6.48429245e-02 2.45463233e-02 6.38370365e-02 -3.62820597e-03 9.55737531e-02 6.18960522e-02 2.72404291e-02 1.11497547e-02 -6.48235381e-02 2.87091918e-02 -2.75532920e-02 -5.53584890e-03 4.71825264e-02 2.16938239e-02 -1.50326658e-02 1.08796507e-01 1.05007447e-01 -6.29839674e-02 6.79368824e-02 -1.02853194e-01 9.71780717e-03 2.98069306e-02 -6.28832802e-02 -1.21398252e-02 -7.65543208e-02 2.14508533e-01 -5.83168939e-02 2.18633085e-01 -6.71281591e-02 3.55256014e-02 1.15993116e-02 -1.67745315e-02 1.72115326e-01 1.05182260e-01 1.28102079e-01 2.09343601e-02 -1.00115798e-01 -1.44095331e-01 2.15264671e-02 -3.60250920e-02 9.34964139e-03 3.43792588e-02 -1.12265699e-01 4.04945575e-02 1.01441890e-02 3.78229022e-02 4.68267277e-02 -4.70682830e-02 3.41404974e-02 5.86885922e-02 3.03142630e-02 6.74818009e-02 2.47914791e-02 3.40984650e-02 -5.20901419e-02 1.19080074e-01 1.02441847e-01 1.01948574e-01 6.95614889e-02 6.72062188e-02 -9.96898338e-02 -1.12123810e-01 1.01923913e-01 6.83851317e-02 -2.26495657e-02 -7.77941896e-03 -2.20393017e-03 -3.20197493e-02 -1.91505104e-02 -6.04798086e-02 2.64237579e-02 1.67664647e-01 -1.21597692e-01 9.70787108e-02 -1.31065905e-01 1.53514177e-01 9.07162800e-02 -1.48921803e-01 1.31395817e-01 8.67820606e-02 -1.14279345e-01 8.34363848e-02 -8.87769237e-02 7.49337301e-02 -9.74589661e-02 -8.90319869e-02 -9.17575434e-02 -2.10606400e-03 -6.74025714e-02 -2.12740083e-03 -2.62343287e-02 1.11623161e-01 -1.52570345e-02 2.93613039e-02 9.12202522e-02 -2.31960993e-02 8.96322355e-03 1.84704494e-02 -4.36827429e-02 -3.72857787e-02 -4.56366949e-02 -4.88619208e-02 4.51311283e-02 -7.63509497e-02 3.52328792e-02 -3.28593552e-02 -1.76310271e-01 -3.70278507e-02 1.63143709e-01 -3.45312655e-02 -1.58132128e-02 2.22267554e-04 7.86497146e-02 1.70125496e-02 4.17456552e-02 2.20102891e-02 8.99449736e-03 -2.42605014e-03 6.65181205e-02 1.12102270e-01 4.41514403e-02 1.52642176e-01 2.64320895e-02 -2.61774659e-01 2.42511332e-01 -2.95203701e-02 -5.50101213e-02 2.43749972e-02 4.65661511e-02 3.04115973e-02 6.45836517e-02 -1.44480035e-01 -1.17399283e-01 8.29522014e-02 -7.25958729e-03 5.98419644e-02 -9.31897461e-02 9.95003954e-02 -4.44388995e-03 -8.62261727e-02 3.85002755e-02 -5.22700399e-02 -4.82523032e-02 3.47001478e-02 -2.02389851e-01 1.80643555e-02 -1.35990754e-01 -3.59082073e-02 8.40191729e-03 -2.47856602e-01 -9.47113112e-02
-2.03326773e-02 -7.74293160e-03 1.02210129e-02 -8.11661687e-03 -1.41993240e-02 1.62059274e-02 1.30811697e-02 -2.00743675e-02 -1.78080779e-02 -4.16615186e-03 1.51064461e-02 2.44815107e-02 -2.12467997e-03 5.64220920e-03 -1.91431716e-02 -2.04683710e-02 -1.21987506e-03 2.60847807e-03 -9.15414828e-04 1.30218104e-03 1.58826001e-02 1.16692679e-02 -1.60946250e-02 3.85169452e-03 1.72550790e-02 1.42474547e-02 -2.20369976e-02 2.34989543e-02 4.36728355e-03 -2.37743352e-02 -9.12143756e-03 2.02359632e-02 -2.48812642e-02 -1.28660528e-02 -2.30349638e-02 -1.60951745e-02 -1.90292932e-02 2.33459193e-02 1.48579115e-02 -1.36208050e-02 1.84167065e-02 1.30149638e-02 -2.31718551e-02 -4.28357115e-03 2.53886562e-02 2.37439275e-02 1.98740792e-02 1.63521599e-02 9.18395817e-03 -6.77321060e-03 -1.44041255e-02 6.12145886e-05 -8.53331853e-03 -9.04235430e-03 1.00999209e-03 3.13346414e-03 2.17022114e-02 -1.22399740e-02 2.05711294e-02 1.07162278e-02 2.49031708e-02 -2.23074891e-02 -7.80675560e-03 2.89107095e-02 -4.54225857e-03 2.02472284e-02 1.58117190e-02 1.62498932e-02 3.20460950e-03 -2.21672393e-02 -1.25217587e-02 5.10376645e-04 -2.11479422e-02 -2.04915646e-02 -1.55358193e-02 -8.69022496e-03 8.85734614e-03 1.29150711e-02 1.38539998e-02 2.27768440e-02 1.85869560e-02 -1.60036683e-02 -1.63756628e-02 -1.73370540e-02 -7.59991258e-03 -9.42762848e-03 -5.89505443e-03 -2.13055387e-02 -1.10325888e-02 -3.12866457e-02 -4.68790735e-04 -6.17793854e-03 -4.48698876e-03 -1.26658622e-02 1.46215409e-03 1.59269944e-02 -5.50297461e-03 9.97001491e-03 7.71562662e-03 1.71618331e-02 9.36372578e-03 1.47561990e-02 2.34199855e-02 -1.37823797e-03 1.10007655e-02 2.28048954e-02 1.83244217e-02 1.41410092e-02 -1.90391019e-02 2.40808050e-03 2.15277425e-03 -1.06771206e-02 1.89317279e-02 -3.44445929e-03 4.34859097e-03 2.42202748e-02 1.68622043e-02 3.30879446e-03 2.15053633e-02 1.34562198e-02 7.89546315e-03 1.09893205e-02 1.04390932e-02 -1.45741897e-02 -1.17070628e-02 2.26268955e-02 -1.88588316e-03 -8.21384043e-03 2.15213522e-02 -1.63749401e-02 6.47900719e-03 -6.65956736e-03 2.54927501e-02 -2.43489072e-02 2.10942398e-03 2.87186764e-02 -2.05581486e-02 1.90298576e-02 1.17244255e-02 1.47732226e-02 1.97014846e-02 -1.22652641e-02 -1.01495776e-02 1.65036172e-02 -1.76359375e-03 1.98333729e-02 -1.44410948e-03 -2.34026723e-02 8.69979616e-03 1.94486696e-02 9.58240498e-03 2.86262162e-04 -1.28435728e-03 1.35204280e-02 1.10394815e-02 9.61371139e-03 1.71379000e-02 8.69996008e-03 1.70650613e-02 -2.12251879e-02 1.68487914e-02 4.67017805e-03 3.57576367e-03 -3.19353712e-04 1.20355869e-02 -1.10038444e-02 -1.20166959e-02 -7.54120643e-04 1.78742167e-02 2.38596685e-02 1.03954449e-02 -2.33904105e-02 -2.56665461e-02 -2.84191910e-02 7.47477356e-03 -2.62594316e-02 -1.88263562e-02 2.42846664e-02 4.35510790e-03 1.23020532e-02 -1.22272130e-02 -1.91749465e-02 -4.52881586e-03 -4.59532207e-03 -1.73641704e-02 6.91510038e-03 -2.07179934e-02 1.62455663e-02 -5.94552606e-03 1.46569135e-02 7.62005337e-03 4.70080040e-03 -7.34194601e-03 -9.01777670e-03 1.91485994e-02 -1.76996049e-02 2.14336645e-02 -1.61769707e-02 1.71897262e-02 1.95368174e-02 -2.13925280e-02 1.52778802e-02 -4.96090576e-03 2.61278134e-02 1.22423023e-02 -1.79491621e-02 -2.33736052e-03 -1.55587895e-02 -9.90818813e-03 -1.55048324e-02 -5.76808443e-03 -2.94159595e-02 -1.67755857e-02 2.09208932e-02 2.43508425e-02 -1.22030796e-02 1.10664340e-02 -2.92155519e-02 8.83107726e-03 1.87586471e-02 8.96606874e-03 3.97759344e-04 4.59657796e-03 -1.76146198e-02 1.52103184e-02 6.32915599e-03 1.76225528e-02 1.01576708e-02 -6.76325196e-03 2.47402526e-02 -9.87566262e-03 -2.10063271e-02 5.93268033e-03 3.29073449e-03 1.60388052e-02 2.10957769e-02 -1.88825205e-02 -2.48836596e-02 -1.78555436e-02 2.85878759e-02 1.75413638e-02 5.68889140e-04 -2.31895149e-02 1.13487979e-02 1.47665991e-03 1.04632238e-02 -4.74262238e-03 1.34012839e-02 2.31451057e-02 -4.79906332e-03 1.92390066e-02 -1.10047944e-02 -1.40895667e-02 1.80152524e-02 -2.28712149e-02 -1.11915907e-02
-3.89279728e-03 -1.77070722e-02 1.51101099e-02 -1.04099233e-02 -2.08558366e-02 1.08092660e-02 2.78538764e-02 -2.38383096e-02 -2.19066441e-02 -1.20627228e-02 2.02664062e-02 3.09640821e-03 1.03303336e-03 3.10819619e-03 -7.47483037e-03 -7.23776082e-03 -6.81595039e-03 1.05444472e-02 -7.69389735e-04 1.75342278e-03 9.63556860e-03 1.17679024e-02 -7.20800273e-03 1.54475421e-02 6.03127992e-03 2.29703952e-02 -2.36014370e-03 8.84950627e-03 1.76190399e-03 -1.41560836e-02 -2.27598809e-02 1.46884785e-03 -7.92636257e-03 -1.61306541e-02 -5.04939631e-03 -3.53035028e-03 -1.40691716e-02 2.08825916e-02 8.17414466e-03 -1.88938342e-02 2.49445457e-02 5.52421948e-03 -2.09577717e-02 -1.58666875e-02 1.06868045e-02 9.74785723e-03 2.72251503e-03 1.73879992e-02 3.47839494e-04 -1.07650529e-03 -1.20912935e-03 -1.22848852e-02 -1.66387782e-02 -2.58694477e-02 5.76156541e-04 1.49118509e-02 1.09619265e-02 -2.52843350e-02 2.65646465e-02 2.19607446e-02 2.17200797e-02 -2.84871962e-02 -1.17163584e-02 2.87795495e-02 3.03117326e-03 2.39011529e-03 1.73166487e-02 5.08997822e-03 1.74277183e-02 -9.58530232e-03 -1.04378127e-02 3.53356428e-03 -1.15630785e-02 -1.85235392e-03 -1.66169759e-02 -9.81393852e-04 2.40587443e-02 1.86077636e-02 8.55646189e-03 9.82103683e-03 1.30210780e-02 -1.13868145e-02 -8.39555264e-03 -1.47585496e-02 -9.98261478e-03 1.40451761e-02 -5.45995450e-03 -1.86497271e-02 -2.40739137e-02 -1.66057125e-02 1.58281047e-02 -1.82951149e-02 -9.67963599e-03 -1.20305670e-02 4.11415379e-03 2.34018546e-02 -9.77301225e-03 8.97614565e-03 6.74553635e-03 1.33170458e-02 1.50732242e-03 8.16074479e-03 6.18927274e-03 -1.47434892e-02 9.26666334e-03 2.17267293e-02 2.76936870e-02 1.54519528e-02 -1.62469205e-02 1.99573790e-03 2.07584500e-02 -6.78019458e-03 1.96101815e-02 -1.73865678e-03 9.30683315e-03 2.17742529e-02 5.54524269e-03 1.63936820e-02 2.13730410e-02 1.21828932e-02 9.89399757e-03 1.56806130e-02 1.03468271e-02 -1.40039939e-02 -1.21491970e-02 1.80455931e-02 -1.47861065e-02 -5.75041678e-03 8.71767011e-03 -1.60586555e-02 1.48953665e-02 -1.97659116e-02 5.76773612e-03 -1.57346465e-02 1.76332071e-02 2.40501761e-02 -2.45141909e-02 3.46669601e-03 9.12346039e-03 1.10691581e-02 1.40291592e-02 -1.61989275e-02 -1.90997589e-02 1.70496274e-02 -1.90167185e-02 -1.14005234e-03 3.94781539e-03 -7.34234601e-03 2.24554329e-03 2.05640085e-02 9.23693180e-03 1.76193006e-02 -1.05877994e-02 1.67085566e-02 8.11333302e-03 2.75949221e-02 -8.76874139e-04 1.28305433e-02 1.41872875e-02 -4.17920761e-03 3.95527197e-04 5.82354423e-03 2.05123927e-02 1.26042357e-02 1.69023983e-02 -3.38008674e-03 -1.28281978e-03 -1.53642916e-03 1.44569958e-02 6.51240628e-03 2.62003187e-02 -2.76113003e-02 -2.59283278e-02 -2.44674589e-02 2.20352411e-02 -1.98464729e-02 -5.03992848e-03 1.82743333e-02 6.42541936e-03 1.48679214e-02 -3.20489897e-04 -1.23677831e-02 1.32494802e-02 -1.30825937e-02 -1.42164310e-04 9.11731273e-03 -6.97342330e-04 -1.94429385e-03 -8.39201920e-03 6.57426426e-03 -3.24778119e-03 1.68239325e-02 -2.43688487e-02 -2.51149535e-02 6.36185333e-03 -2.39117667e-02 2.74811294e-02 -5.83957462e-03 1.73777249e-02 2.24396493e-02 -4.72347206e-03 2.92839319e-03 -1.97985433e-02 1.53969564e-02 4.04989766e-03 -1.44715467e-02 -7.25070713e-03 -8.05369299e-03 -1.62017345e-02 -1.55489333e-02 -2.64172237e-02 -5.68657275e-03 -2.30315086e-02 2.60761194e-02 2.62774564e-02 -4.85064276e-03 1.73768438e-02 -3.21320705e-02 2.56313570e-02 2.19395943e-02 1.83621235e-02 1.29055241e-02 2.07337774e-02 -3.51630151e-03 1.40479207e-02 8.80337507e-03 1.27274301e-02 2.23344117e-02 -1.66014873e-03 3.85824824e-03 -1.22830365e-02 -2.32837182e-02 2.19930764e-02 1.97058916e-02 1.46156000e-02 2.56587169e-03 -6.46079518e-03 -2.02760100e-02 -2.41357256e-02 2.47608144e-02 1.03218965e-02 1.89824682e-02 -2.27894448e-02 1.01243285e-03 7.71447492e-04 1.86738577e-02 -1.50123453e-02 2.26214398e-02 3.60120740e-03 -1.23031177e-02 2.44106129e-02 -2.32553668e-02 -1.41520929e-02 1.55468928e-02 -1.06515614e-02 -9.75761842e-03
1.94294335e-04 1.69371627e-03 -6.13863906e-03 -2.76884390e-03 -4.47118096e-03 1.88178092e-03 8.39295704e-03 -1.50703848e-03 1.46910024e-03 4.41199727e-03 -9.14943218e-03 1.26704210e-02 2.25072843e-03 -7.73433177e-03 -4.26411163e-03 -5.28119178e-03 -6.84895786e-03 5.69080049e-03 6.56157453e-03 1.42678116e-02 -3.52340424e-03 -8.72925296e-03 7.59522012e-03 1.04577153e-03 4.66764206e-03 1.05883379e-03 -4.58019786e-03 -5.01674414e-03 1.07176807e-02 -3.64753883e-03 7.15000182e-03 -1.54074325e-04 -9.88555141e-03 -2.48854072e-03 7.71955959e-03 6.64887810e-03 5.59493527e-03 3.02141556e-03 -5.22621442e-03 1.14888232e-02 2.94943992e-03 1.08818049e-02 9.58516169e-03 -5.70754334e-03 9.05227847e-03 2.94269249e-03 -3.60596506e-03 -7.53261615e-03 4.66048531e-03 1.32836113e-02 6.25715684e-03 -1.19176684e-02 -3.36808735e-03 5.29126124e-03 -2.96259276e-03 1.68843719e-03 -7.68963306e-04 7.85238948e-03 -5.55563532e-03 -3.72910942e-03 9.06925183e-03 1.38172274e-03 -1.17971590e-02 1.02077574e-02 -3.72962747e-03 -4.12659440e-03 -3.78669961e-03 -1.04195978e-02 -9.75996256e-03 8.46191496e-03 -7.12607568e-03 1.32787868e-03 -5.85605437e-03 -8.75354931e-03 -9.91778728e-03 -3.89198028e-03 -6.78908965e-03 1.06664253e-02 2.09264923e-03 1.03425439e-02 9.06993076e-03 1.04639679e-02 6.24433300e-03 1.17305864e-03 7.96078704e-03 3.82140558e-03 -2.40201410e-03 -4.71171644e-03 4.77959961e-03 6.19152747e-03 -6.10997993e-03 1.06009729e-02 1.44599145e-02 1.40309576e-02 1.98735949e-03 2.17002071e-03 -9.29518323e-03 -7.42271589e-03 1.27089530e-04 -1.03569897e-02 -5.39345574e-03 5.56323212e-03 -1.33377463e-02 1.11605152e-02 9.79007501e-03 9.54521541e-03 8.07104725e-03 2.09333084e-05 -8.41869693e-03 2.22003157e-03 6.92892820e-03 -6.64474349e-03 -5.86319598e-04 -7.08736060e-03 7.88671803e-03 5.12710714e-04 3.53435084e-04 -1.17591480e-02 -1.20124791e-03 8.00497644e-03 9.44106095e-03 2.83136661e-03 6.67326758e-03 -8.16599187e-03 -4.69584996e-03 -9.23992973e-03 5.88302640e-03 -3.17927846e-03 4.29392885e-03 2.89280829e-03 -6.47991849e-03 8.40657391e-03 -6.58219960e-03 5.19382593e-04 4.35663760e-03 -3.40093835e-03 4.78292815e-03 8.89311731e-03 1.13076009e-02 5.96520398e-03 -2.78255017e-03 1.33312971e-03 -1.04563553e-02 9.10906121e-03 -2.86974013e-03 -1.04424749e-02 -1.02450754e-02 8.53832811e-03 -8.94291326e-03 -3.38486838e-03 4.15227842e-03 -1.41356969e-02 -3.24823032e-03 -3.57322278e-03 -1.12329144e-02 -2.41587497e-03 2.17634928e-03 5.88320801e-03 6.74120104e-03 2.51554791e-03 -7.25953700e-03 -6.57425914e-03 6.73126616e-03 -2.19498039e-03 -6.40175305e-03 1.20843174e-02 9.77080502e-03 -1.27121732e-02 -1.13315135e-02 8.27689655e-03 1.01474412e-02 -1.62414070e-02 -1.41048040e-02 -6.92728721e-03 -5.73299266e-03 1.83693354e-03 1.83632900e-03 -2.74029071e-03 -2.43992195e-03 -1.30954590e-02 6.94472867e-04 -7.54276058e-03 4.68479516e-03 -4.84250579e-03 5.62548498e-03 -4.70030867e-03 7.48180505e-03 -1.13352453e-02 -3.70339002e-03 -1.20617487e-02 -1.45670353e-02 -1.07834185e-03 -5.31092344e-04 -1.34618059e-02 8.10241606e-03 4.84251417e-03 -2.04678345e-03 -6.96236873e-03 2.62612151e-03 2.94543337e-04 1.16189951e-02 5.92800649e-03 -7.19730370e-03 -1.16097629e-02 -4.65208926e-04 1.54095225e-03 -8.64893571e-03 -1.19615742e-03 1.82635384e-03 -2.98037170e-03 1.09037878e-02 8.98692664e-03 8.30279663e-03 8.28518718e-03 -9.38743073e-03 1.01552298e-02 -9.37718339e-03 3.66185047e-03 -6.37561269e-03 1.51040591e-03 7.87012000e-03 9.01480578e-03 -1.29787661e-02 8.05660558e-04 -2.69390782e-03 7.96623062e-03 -1.08653065e-02 -5.99139137e-03 -2.39587598e-03 7.31360633e-03 -4.05856268e-03 -4.32759570e-03 -7.16675725e-03 7.02019362e-03 8.37443490e-03 9.45953000e-03 -2.49056634e-03 4.14612470e-03 -2.99935765e-03 7.95213133e-03 2.62091286e-03 -7.33642466e-03 1.15348510e-02 -9.77329630e-03 -1.93666108e-03 -1.07864924e-02 3.60375643e-03 -3.38415988e-03 -1.39431475e-04 -2.33026175e-03 1.19798379e-02 -2.45682779e-04 -9.96623188e-03 -6.43441081e-03 -4.54614259e-04 -1.11732632e-02
-1.89564098e-02 -2.07982920e-02 2.00351160e-02 -4.19979729e-03 -1.64181590e-02 1.56561472e-02 2.74762623e-02 -2.47127283e-02 -3.33611644e-03 -1.38081005e-02 1.13320919e-02 2.55290531e-02 -2.27980912e-02 1.86342504e-02 -1.33676613e-02 -4.07696562e-03 -1.65738054e-02 3.13229254e-03 -1.81340557e-02 -1.26946839e-02 5.59756206e-03 1.57391895e-02 -9.29455645e-03 2.28217356e-02 1.18660359e-02 1.20721105e-02 -1.82621256e-02 1.90652087e-02 2.68003419e-02 -2.07304060e-02 -5.62081486e-03 1.81569960e-02 -1.64911896e-02 -2.21652184e-02 -1.15119368e-02 -7.40548223e-03 -2.54267566e-02 2.80904546e-02 1.45159913e-02 -9.93210729e-03 2.80884542e-02 1.40905026e-02 -1.63054448e-02 -1.06913606e-02 2.51753181e-02 1.21719437e-02 1.87131688e-02 9.73462313e-03 2.24886555e-02 -4.81667789e-03 -6.04381552e-03 -2.01566238e-02 -1.86499320e-02 -2.40943562e-02 8.66639335e-03 1.81022137e-02 2.34199092e-02 -1.84862018e-02 2.86951866e-02 6.34220988e-03 1.63999591e-02 -2.76347194e-02 -6.88673090e-03 1.61439236e-02 -1.58385616e-02 2.42606085e-02 1.84616521e-02 1.00978864e-02 1.58689804e-02 -2.55648382e-02 -1.03746988e-02 7.12709082e-03 -2.24558841e-02 -1.19661763e-02 -1.76250450e-02 -4.46975185e-03 1.61553193e-02 1.96555164e-02 5.93193946e-03 9.68319178e-03 1.76241044e-02 -2.40350235e-02 -2.44071800e-02 -9.05824546e-03 -7.22498586e-03 1.40418708e-02 -1.76787302e-02 -3.07811587e-03 -5.49765304e-03 -7.14096753e-03 2.03743465e-02 -1.21098887e-02 -1.39712766e-02 -1.34843085e-02 -1.46998111e-02 4.12378367e-03 -8.88321921e-03 7.10609369e-03 2.52179764e-02 1.54301273e-02 2.12983582e-02 3.68595327e-04 1.00693759e-02 -4.93781455e-03 1.65540911e-02 1.69674121e-02 5.90471504e-03 2.45960169e-02 -2.05582585e-02 2.38859523e-02 1.72709003e-02 -1.92341320e-02 1.97592080e-02 -2.21946798e-02 2.61994489e-02 1.57846864e-02 7.92836491e-03 8.72209109e-03 2.49526054e-02 1.21444631e-02 1.20092910e-02 1.95595603e-02 4.68605943e-03 -1.51895629e-02 -1.59195773e-02 1.90185960e-02 -7.23785907e-03 -1.63435619e-02 2.78908685e-02 -1.76298246e-02 2.34546680e-02 -1.00539662e-02 1.93182249e-02 -1.34515455e-02 2.08816328e-03 5.15941158e-03 -1.55851590e-02 2.34555285e-02 2.60053948e-02 2.81468648e-02 6.88377442e-03 -1.21729327e-02 -6.02679607e-03 1.98161304e-02 -2.37117186e-02 4.59393440e-03 2.28395518e-02 -1.53193995e-03 1.20784435e-02 1.33656086e-02 3.21172643e-03 2.33012643e-02 -2.56862789e-02 1.55573841e-02 2.27332278e-03 2.63033882e-02 2.42811739e-02 1.35189407e-02 2.46654227e-02 -1.95607971e-02 1.20668849e-02 2.40157451e-02 1.38741387e-02 2.49445476e-02 8.29670671e-03 -3.26149259e-03 -1.60945170e-02 2.80865561e-03 2.15438772e-02 1.25126168e-02 5.56976208e-03 -7.07315933e-03 -1.12114744e-02 -2.49337759e-02 1.08332941e-02 -6.60782913e-03 -1.58384081e-03 6.55056583e-03 1.60975195e-02 1.50835682e-02 -1.44387130e-02 -3.58628249e-03 2.75300629e-03 -5.22491056e-03 -1.05033210e-02 2.17937622e-02 -1.08766444e-02 3.41925235e-03 -2.02424768e-02 2.73387530e-03 1.92420483e-02 1.86737943e-02 -2.49451008e-02 -1.71520915e-02 1.81710999e-02 -1.22334445e-02 2.26350669e-02 -1.25981215e-02 1.86009724e-02 1.57873221e-02 -2.00537965e-02 3.18290316e-03 -2.51333918e-02 5.52944979e-03 1.32311676e-02 -4.52533644e-03 -7.00054597e-03 -1.12018650e-02 -1.90565754e-02 -1.98761374e-02 -7.05871172e-03 -2.44916230e-02 -7.07986858e-03 1.11457398e-02 8.59100930e-03 -1.94108319e-02 1.83223095e-02 -1.48450285e-02 9.97876469e-03 6.21076487e-03 7.16411229e-03 1.34589048e-02 2.49450263e-02 -1.13220084e-02 2.58040708e-02 2.17173714e-02 7.44706346e-03 1.08843194e-02 -2.53061038e-02 2.47912891e-02 -1.13876453e-02 -2.62240414e-02 1.74625367e-02 1.28790298e-02 2.30714902e-02 4.07477003e-03 -2.76646335e-02 -9.00029205e-03 -2.12356076e-02 3.43109644e-03 1.04597537e-02 2.37567220e-02 -2.41390038e-02 1.27273360e-02 9.77703836e-03 2.21767202e-02 -2.36517992e-02 1.53569775e-02 2.20452473e-02 -2.36835219e-02 1.18198311e-02 -1.86417978e-02 -1.26527818e-02 6.58325292e-03 -1.10259084e-02 -2.66384501e-02
-5.38397953e-03 -5.61445579e-03 1.27253775e-02 -1.06511572e-02 -4.37598675e-03 1.10564949e-02 9.15453769e-03 -2.37386115e-02 -1.38260899e-02 -7.33211357e-03 5.52317686e-03 9.97863826e-04 1.93927938e-03 7.08438409e-03 -1.83906928e-02 -1.54530173e-02 -8.46927613e-03 1.09478841e-02 -3.70759342e-04 -1.33966710e-02 3.97653173e-04 4.42364579e-03 -4.19868343e-03 -6.37943624e-03 6.17096899e-03 1.26250489e-02 -1.32974265e-02 8.19081441e-03 1.99422538e-02 -5.25605911e-03 -1.42079806e-02 2.04749145e-02 -5.14076790e-04 1.98835289e-04 -3.47866328e-03 -5.09651005e-03 -7.76206562e-03 5.89844491e-03 1.80699974e-02 -1.25042219e-02 2.98818195e-04 -2.34683859e-04 -3.47941881e-03 -1.30180512e-02 1.64011456e-02 1.38456794e-02 1.83243174e-02 -1.57401536e-03 -4.29959921e-03 2.43052957e-03 -2.47889664e-03 -2.16219132e-03 -4.12079319e-03 1.29823224e-03 -1.43262162e-03 -8.43847287e-04 1.50116812e-02 -1.29345730e-02 2.60732006e-02 1.78993903e-02 1.85983013e-02 -2.84215785e-03 -5.53655345e-03 6.46702247e-03 -1.69177689e-02 1.61601268e-02 -6.96390960e-03 5.52326394e-03 -2.60801939e-03 -5.44447498e-03 -2.23039603e-03 1.53392216e-03 -1.62069146e-02 -1.45635498e-03 -1.59500670e-02 1.35830243e-03 1.21585038e-02 8.14503804e-03 1.15881087e-02 1.56931311e-03 1.03871385e-02 -1.94869339e-02 -1.52646815e-02 -2.41180928e-03 -1.57730933e-02 -9.55962017e-03 -6.14808174e-03 -6.63196761e-03 2.20129717e-04 -1.58268551e-03 -4.38579707e-04 -2.24962016e-03 -1.17908558e-02 -8.80154129e-03 -6.15614699e-03 -3.53386765e-03 -6.87774457e-03 2.51224684e-03 2.18225829e-02 1.02930814e-02 1.27399052e-02 1.56319477e-02 1.86325219e-02 -6.69468334e-03 7.44213490e-03 -3.57634528e-03 1.97148565e-02 -1.66672631e-03 -1.03474781e-02 5.59817767e-03 1.99735146e-02 -9.94664710e-03 4.81170556e-03 1.19528582e-03 1.79343689e-02 1.10849766e-02 1.50979413e-02 2.09648814e-02 1.63480490e-02 2.34161783e-03 -2.03855312e-03 1.47128236e-02 1.47488695e-02 -1.37283746e-02 -8.62970110e-03 1.79372616e-02 -1.09010807e-03 -6.85093785e-03 9.24973749e-03 -1.69954263e-02 1.18322605e-02 1.42252550e-03 1.44201843e-02 -1.18539054e-02 1.08488379e-02 1.55835859e-02 -1.79842282e-02 4.35865996e-03 1.92100799e-03 1.73246805e-02 1.33750597e-02 -2.97995261e-03 -1.62136443e-02 1.99514311e-02 2.41521792e-03 1.20433848e-02 7.38790352e-03 -1.71931107e-02 -1.07191224e-03 1.12192063e-02 4.79856646e-03 1.34708611e-02 4.08302015e-03 1.06734233e-02 3.75160575e-03 1.10067865e-02 7.07491580e-03 -1.88478283e-04 6.30164845e-03 -1.52564440e-02 1.05383499e-02 1.37536814e-02 5.91984834e-04 3.27707198e-03 1.27225555e-02 -1.80350207e-02 -1.08880950e-02 -3.26920720e-03 1.84443332e-02 2.03422401e-02 1.58487372e-02 -1.69102717e-02 -2.04085968e-02 -1.33851846e-03 1.00534847e-02 -1.63896903e-02 -7.75690284e-03 -3.57513153e-03 -5.04462468e-03 1.84360966e-02 -6.89745648e-03 -1.00494437e-02 -3.68218729e-03 4.34699282e-03 -1.12490403e-02 2.12869141e-03 4.20149788e-03 1.27350660e-02 4.40436369e-03 5.04969433e-03 4.29533282e-03 1.59128364e-02 -1.57455131e-02 -1.70682520e-02 6.96452567e-03 -4.10574768e-03 2.66645700e-02 -1.02297915e-02 2.58217473e-03 1.15132099e-02 -2.63128954e-04 1.83289405e-02 -8.31379031e-04 1.47775784e-02 1.05633158e-02 -4.81673330e-03 -1.45070786e-02 -1.19257011e-02 -1.96356438e-02 -1.63370501e-02 -1.81892291e-02 -3.37977079e-03 -1.30898785e-02 1.23459874e-02 2.06771418e-02 -1.86904538e-02 3.49576888e-03 -2.32704934e-02 1.25815608e-02 7.72907911e-03 1.22073311e-02 1.51641609e-03 1.73218176e-02 -5.08814398e-03 1.67354662e-02 2.09140535e-02 1.46351401e-02 1.97220501e-02 -1.19866878e-02 5.14202658e-03 -1.53984698e-02 -2.22241040e-02 7.95129221e-03 2.10452955e-02 -1.70229457e-03 1.46163525e-02 -1.08314799e-02 -1.83143280e-02 -2.74970289e-02 3.56478477e-03 8.45483039e-03 1.22033479e-02 1.48238323e-03 1.44223385e-02 -2.07148981e-03 1.50564555e-02 -1.04038976e-02 6.50117174e-03 1.89683028e-02 -1.08823413e-02 1.33238267e-02 -1.92248095e-02 -1.87490955e-02 1.23595260e-02 -2.05237176e-02 -1.97505252e-03
-2.70277020e-02 -1.25294337e-02 1.27075231e-02 -2.22051367e-02 -2.58936230e-02 1.23122688e-02 2.97279600e-02 -1.93316992e-02 -7.51289213e-03 -1.53329298e-02 2.04158276e-02 1.97487250e-02 -1.33135067e-02 1.25466445e-02 -1.00572864e-02 -9.56495386e-03 9.27412417e-03 5.46002900e-03 -1.27587598e-02 1.04237755e-03 6.33721938e-03 -1.69644156e-03 4.75727348e-03 -6.44279458e-03 1.97987724e-02 1.58413989e-03 -1.73260737e-03 1.41620673e-02 1.03618437e-02 -1.85828358e-02 -8.74866173e-03 1.38825346e-02 -1.23890908e-02 -5.07929223e-03 -2.55983565e-02 -2.61807777e-02 -2.57272162e-02 2.36942694e-02 1.56135177e-02 -2.35996246e-02 1.02868946e-02 1.22121451e-02 -1.83457453e-02 -2.08899248e-02 7.37373903e-03 3.68236355e-03 6.62320293e-03 1.32413637e-02 7.54003320e-03 -1.44996019e-02 -2.13646097e-03 -6.68435870e-03 -1.39754536e-02 -4.89443960e-03 6.64821174e-03 -1.08251013e-02 1.83325689e-02 -8.92716926e-03 1.34812202e-02 3.04939356e-02 1.54330656e-02 -1.88075975e-02 -2.29270197e-02 8.27430934e-03 -1.56059125e-02 6.37906487e-04 1.59554295e-02 7.52869528e-03 1.68868694e-02 -1.32901510e-02 -1.88851710e-02 -3.41361342e-03 -5.28493372e-04 -1.58456601e-02 -2.21929103e-02 -5.52209467e-03 1.54901920e-02 1.79080851e-02 1.66276228e-02 1.75928809e-02 6.24763453e-03 -6.01679599e-03 -8.40556435e-03 -1.57992270e-06 -8.32202751e-03 -1.03312768e-02 -1.16064250e-02 -1.06593128e-02 -2.27551404e-02 -1.95024684e-02 -1.47857191e-03 -1.28213204e-02 -3.73360002e-03 -6.65384810e-03 -3.17662139e-03 1.18655041e-02 -1.51482988e-02 1.45749771e-03 2.18325853e-02 2.21977913e-04 1.52910808e-02 1.13264779e-02 6.22198591e-03 -4.80303960e-03 1.13468450e-02 8.55854154e-03 1.35276150e-02 1.53189583e-03 -2.12946367e-02 3.25494749e-03 1.20943757e-02 -4.97686304e-03 2.01334921e-03 -1.37263574e-02 2.34664138e-02 1.67433638e-02 4.91960021e-03 9.95946582e-03 2.43317429e-02 1.26791028e-02 1.68388691e-02 -1.82834431e-03 2.29563322e-02 -1.13733569e-02 -1.88446138e-02 1.40053462e-02 -1.73867345e-02 -5.06542157e-03 2.45897416e-02 -6.78513153e-03 7.50091020e-03 -2.31248699e-02 5.97890653e-03 -9.97710135e-03 2.28803623e-02 3.07256039e-02 -5.02708741e-03 2.14590225e-02 1.13625703e-02 2.38074530e-02 2.98763253e-02 -2.64707040e-02 -6.05421420e-03 2.21305825e-02 -4.27474827e-03 -2.78199092e-03 1.13061173e-02 -1.19999582e-02 1.11905709e-02 1.00800628e-02 1.60462726e-02 1.31834522e-02 -1.85564999e-02 9.60967690e-03 8.06409493e-03 2.38727052e-02 9.08215065e-03 1.56195415e-02 5.10317320e-03 -1.46130044e-02 4.00762632e-03 5.55281853e-03 8.90384521e-03 9.49371513e-03 -1.69495679e-03 -1.44771198e-02 7.03801354e-03 1.12483080e-03 8.81809555e-03 2.71035656e-02 1.98765714e-02 -2.38142014e-02 -3.10878512e-02 -2.11600754e-02 1.94074940e-02 -1.98714174e-02 -8.94959923e-03 2.14561783e-02 5.62351139e-04 -5.30806137e-04 3.20522161e-03 -1.34564256e-02 6.80220034e-03 4.19577677e-03 5.64139755e-03 4.23164479e-03 -1.78046040e-02 1.29446592e-02 -1.02031957e-02 -5.85290696e-03 1.31687652e-02 1.65296141e-02 -1.59734245e-02 -1.95753612e-02 2.32335906e-02 -2.59379689e-02 1.60340630e-02 -2.32850146e-02 1.01815509e-02 2.84818187e-02 1.39167719e-03 1.39215011e-02 -1.62553508e-02 2.26027612e-02 2.60422588e-03 -1.15044042e-02 -2.50465120e-03 -3.89077724e-03 -2.14187223e-02 -1.45250512e-02 -2.60141995e-02 -2.48253215e-02 -2.79157571e-02 2.14877073e-02 1.03652598e-02 -1.88121703e-02 9.88790952e-03 -2.39995606e-02 5.51728578e-03 1.77266076e-02 5.80863189e-03 1.21085932e-02 5.19562745e-04 -1.38244200e-02 1.26603553e-02 1.03139691e-02 9.13127139e-03 1.91153064e-02 -1.98109238e-03 2.05777176e-02 -7.47830607e-03 -2.45862771e-02 7.19232950e-03 2.02040654e-02 2.26792991e-02 1.45163555e-02 -6.27144147e-03 -1.79624520e-02 -2.32110061e-02 1.53566124e-02 1.52156157e-02 1.17192436e-02 -1.24612469e-02 1.66576821e-02 -1.00296671e-02 7.18961377e-03 -7.23751867e-03 1.40746366e-02 4.92371945e-03 -1.75489187e-02 1.06040081e-02 -1.50263673e-02 -2.10396778e-02 1.23130763e-02 -1.92053933e-02 -1.02781672e-02
-8.05016607e-03 -6.05303794e-03 -8.13728478e-03 8.79801996e-03 -6.19623205e-03 -4.32885019e-03 -4.32741921e-03 -5.60366316e-03 -8.79644789e-03 2.88499426e-03 1.43214886e-03 1.09030893e-02 -6.23273198e-03 -9.38286353e-03 -8.45436100e-03 -7.48170167e-03 1.15794102e-02 5.97701827e-03 -8.41479632e-04 -1.12369973e-02 1.34898874e-03 7.49697909e-03 -1.28922956e-02 -7.62356911e-03 1.32256118e-03 -5.30566741e-03 -6.14019204e-03 6.75644446e-03 -2.90069054e-03 -3.30891227e-03 -1.06440168e-02 -7.58061511e-03 1.83775963e-03 3.74649581e-03 -8.49908125e-03 -1.01742968e-02 -9.49217007e-03 -2.61549163e-03 -4.80599422e-03 -8.59162956e-03 -6.69155596e-03 1.06147155e-02 -5.05843945e-03 2.05631182e-03 1.28433835e-02 7.04667019e-03 -1.67419098e-03 1.28747802e-02 -4.54932731e-03 6.36973931e-03 -3.12903989e-03 -6.01027813e-03 7.28723034e-03 -7.06739351e-03 -1.71415461e-03 8.73498246e-03 9.39229410e-03 -8.94600898e-03 -5.15891984e-03 -1.75357098e-03 -5.30968234e-03 -3.46777355e-03 1.01863034e-03 -4.86390246e-03 -5.38603403e-03 -6.01506373e-03 4.22633439e-03 1.11572687e-02 7.81854987e-03 7.12601515e-03 5.98392496e-03 4.64081881e-04 -1.02459462e-02 -3.77151358e-04 1.07633825e-02 2.00570305e-03 -7.73590943e-03 -7.66364764e-03 6.29112730e-03 4.47863620e-03 8.56494624e-03 -5.73354587e-03 -4.61070426e-03 6.78262580e-03 1.88817293e-03 -1.00654773e-02 3.36481445e-03 -1.28107769e-02 1.33041688e-03 -5.95854246e-04 9.91820265e-03 -5.37596084e-03 8.36843904e-03 4.30710241e-03 -3.57435225e-03 -3.75700626e-03 -4.25256277e-03 9.89262015e-03 3.05471336e-03 1.54086677e-02 5.23735071e-03 -1.98105630e-03 -6.37460966e-03 -6.94788713e-03 -5.53390104e-03 3.10966349e-03 5.19236783e-03 -1.01182451e-02 8.04105029e-03 -7.92523474e-03 -7.21787522e-03 8.96718260e-03 1.39290737e-02 4.27166000e-03 9.28040070e-04 -5.17760264e-03 3.66015011e-03 -8.83393362e-03 5.17462287e-03 7.07577122e-03 -9.54090245e-03 1.02890329e-03 1.26866354e-02 -5.23682544e-03 3.71568114e-03 1.06549542e-02 -5.26817923e-04 2.70488276e-03 -5.07392967e-03 -3.67199606e-03 -2.23964176e-04 -5.73543273e-03 -8.10807757e-03 -1.04884636e-02 -3.11498065e-03 1.38238184e-02 -8.98502549e-05 7.16684014e-03 1.06044870e-03 -8.02473444e-03 8.83171707e-03 -9.74519458e-03 2.06412212e-03 1.45141771e-02 7.81644229e-03 9.15728603e-03 -9.11727920e-03 -4.17364342e-03 -6.78713154e-03 -2.58246146e-04 8.80676787e-04 1.38614215e-02 -4.16212063e-03 1.03257624e-02 -3.82248755e-03 7.06789130e-03 1.17466049e-02 -4.28051455e-03 -8.71013664e-03 -3.06468713e-03 -1.70076778e-03 1.01189381e-02 -1.23051403e-03 3.05377529e-03 1.22674899e-02 2.99832155e-03 8.02814309e-03 -9.69124399e-03 -6.28107868e-04 1.32456468e-02 1.48572179e-03 1.72231859e-03 -5.25587471e-03 6.06264034e-03 -3.54947080e-03 -3.96493310e-03 -1.13330234e-03 3.75017105e-03 4.85410506e-04 2.40365602e-03 2.63172900e-03 -3.33965523e-03 -7.90642854e-03 -4.71105380e-03 -3.27116367e-03 -6.23821421e-03 -1.04814367e-02 6.72556926e-03 -2.57285894e-03 -5.05897263e-03 -2.35066656e-03 3.25921224e-03 5.85992029e-03 -1.26214214e-02 1.09885689e-02 3.31711693e-04 2.51568784e-03 8.61611404e-03 2.23497069e-03 -3.92690720e-03 9.17275902e-03 7.49373867e-04 -1.01880105e-02 2.40100501e-03 2.19479972e-03 -1.11968908e-02 -6.69631315e-03 -1.25819314e-02 4.55004256e-03 -8.46981816e-03 5.49265742e-03 5.88329090e-03 -1.17167281e-02 -2.01457995e-03 1.57506187e-02 6.99889008e-03 -5.30558126e-03 -3.94685194e-03 -2.61631655e-03 7.27282232e-03 1.28823507e-03 -5.28320577e-03 7.15165585e-03 -9.96597297e-03 7.63532380e-03 1.14499582e-02 -6.89930143e-03 -8.69444571e-03 -5.71707077e-03 2.95332097e-03 -4.23258776e-03 1.68593752e-03 7.99158961e-03 -4.95675392e-03 6.48897374e-03 2.40992545e-03 -2.02380610e-03 -5.41304657e-03 -9.15396493e-03 1.40501019e-02 -5.30665973e-04 5.81280096e-03 2.25403300e-03 8.10267683e-03 -3.96848796e-03 -7.22389761e-03 -1.34211378e-02 6.68044377e-04 2.98483903e-03 3.33691540e-04 3.05451895e-03 8.61313753e-03 3.59521760e-03 1.28303887e-02 -1.46434817e-03 -4.98177344e-03
-2.46664565e-02 -2.46658418e-02 1.17835216e-02 -1.43033005e-02 -2.08193939e-02 1.29160937e-02 1.64587591e-02 -2.17585023e-02 -8.63122381e-03 -6.03615120e-03 1.07815664e-03 1.33859916e-02 -1.56880356e-02 1.74532421e-02 -2.05844119e-02 -1.29156848e-02 -3.53636150e-03 1.15284342e-02 -6.59833616e-03 -1.81801878e-02 2.06742194e-02 1.38743958e-02 -6.30165404e-03 1.63168851e-02 2.19662320e-02 9.24476795e-03 -1.26583641e-02 1.32121507e-03 1.58876856e-03 -1.31884161e-02 -1.96112487e-02 1.47438059e-02 -5.85496007e-03 -1.14053115e-02 -3.78628401e-03 -4.29975381e-03 -1.73785593e-02 2.03369781e-02 2.61176340e-02 -3.06115788e-03 7.51603441e-03 2.02716868e-02 -1.42810624e-02 -2.16742512e-02 8.35774187e-03 2.73126131e-03 1.09266629e-02 2.06466243e-02 1.97795387e-02 1.77530525e-03 -6.96729985e-04 2.86550471e-03 -1.51855452e-02 -7.97418505e-03 1.59494299e-02 9.05001070e-03 1.92134157e-02 -8.31967499e-03 1.57978032e-02 1.22920144e-02 3.03342920e-02 -2.70397384e-02 -1.15402816e-02 1.75946187e-02 -1.44796753e-02 2.04692483e-02 2.46408097e-02 -5.19721955e-03 1.24952253e-02 -2.37776041e-02 -9.22157802e-03 -5.58830705e-03 -1.74671616e-02 -1.81617234e-02 -1.00011127e-02 -4.71692253e-03 1.12624997e-02 8.01019650e-03 2.96010938e-03 8.14364292e-03 6.94951927e-03 -1.46181406e-02 -2.28265561e-02 -7.04367738e-03 -1.57501940e-02 1.51332971e-02 1.86495099e-03 -2.28283908e-02 -1.33874537e-02 -2.36937683e-02 1.96852442e-02 -2.48658266e-02 -9.18105431e-03 -4.29519732e-03 -1.75139718e-02 1.04081994e-02 -1.43491486e-02 1.59701239e-02 1.01456670e-02 1.88550334e-02 7.69916922e-03 3.63904145e-03 2.12684423e-02 -2.17428021e-02 5.67376474e-03 1.03636123e-02 1.41131626e-02 1.67059060e-02 -8.48617684e-03 3.82039812e-03 4.11093514e-03 -1.64117906e-02 1.69851072e-02 1.74082152e-03 2.66294414e-03 1.58745423e-02 1.64031349e-02 9.80352797e-03 1.56289078e-02 2.18765717e-02 1.56308077e-02 6.73829904e-03 2.23425720e-02 -1.48853604e-02 -7.99968932e-03 2.25957911e-02 -1.09354118e-02 -1.30914664e-02 2.60062125e-02 -2.28621736e-02 2.36787982e-02 -1.70048960e-02 1.44098355e-02 -2.16106456e-02 1.50454864e-02 1.21779889e-02 -2.64582764e-02 1.48592412e-03 1.02228764e-02 5.26394323e-03 7.58450944e-03 -1.73314605e-02 -8.57673679e-03 1.92500222e-02 -9.19669494e-03 8.90012365e-03 9.03812516e-03 6.31616497e-03 8.13513435e-03 1.57975964e-02 8.58321600e-03 1.86871067e-02 -4.56882903e-04 2.72410717e-02 1.77502278e-02 1.86104383e-02 -3.40026221e-03 1.15831373e-02 1.80693790e-02 -1.25100221e-02 8.86661001e-03 -3.95353371e-03 1.19844852e-02 9.00128949e-03 1.10230567e-02 -4.96024638e-03 -7.85789173e-03 1.73966237e-03 1.88664868e-02 8.79418291e-03 1.67332962e-02 -1.06341969e-02 -8.97272676e-03 -6.55461615e-03 3.79581866e-03 -1.13584064e-02 -1.00770546e-03 1.54611617e-02 3.31479590e-03 4.11640573e-03 -1.53780375e-02 -1.66619886e-02 6.91674324e-03 -1.30874896e-02 8.92115117e-04 1.47587648e-02 -1.42176906e-02 2.14584935e-02 5.37912967e-03 6.58549974e-03 7.23746512e-03 2.03342978e-02 -2.22989246e-02 -2.73673758e-02 1.19500365e-02 -9.92241781e-03 1.20222829e-02 -7.69051304e-03 1.92200821e-02 2.43102033e-02 1.52565641e-04 3.80437239e-03 1.73932244e-03 1.42032057e-02 9.34181083e-03 -5.39055793e-03 -1.32853799e-02 -1.30096842e-02 -2.69965380e-02 -1.02657247e-02 -2.58174594e-02 -1.83123648e-02 -5.00813406e-03 2.73101870e-02 2.19783019e-02 -1.11237941e-02 9.26116947e-03 -1.39878532e-02 2.15395559e-02 1.34120882e-02 6.06241683e-03 1.41511643e-02 9.23625287e-03 -1.71583313e-02 2.49641924e-03 1.18278498e-02 4.87273745e-03 3.57801514e-03 -2.27882657e-02 2.30643768e-02 -2.46130768e-02 -1.15522398e-02 1.88224227e-03 1.91448703e-02 2.44054608e-02 2.24706791e-02 -1.70675442e-02 -9.27036908e-03 -2.29802076e-02 2.29427312e-02 1.14044817e-02 1.89549588e-02 -9.69038904e-03 1.30884610e-02 1.10388761e-02 -7.10676948e-04 -1.96571890e-02 3.23424535e-03 1.64738409e-02 -8.13983008e-03 2.14243587e-02 -2.28480641e-02 -3.90692102e-03 2.65714061e-02 -4.29757917e-03 -1.13556245e-02
-1.96386129e-02 -2.81219743e-02 1.12962434e-02 -9.24635120e-03 -2.28605382e-02 1.57538131e-02 8.68093595e-03 -2.79534366e-02 -1.38375247e-02 -1.06360214e-02 8.33822601e-03 1.98569410e-02 -9.76879383e-04 2.06000321e-02 -2.26911791e-02 -1.82300899e-02 1.22976338e-03 1.32057723e-02 -1.83031149e-03 -1.15602976e-02 5.01663890e-03 6.42981566e-03 -8.93180538e-03 2.04700418e-02 4.14284039e-03 1.46970758e-02 -1.87795348e-02 2.22441345e-03 8.08975846e-03 -2.35733017e-02 -5.93739841e-03 9.46902949e-03 -8.63515120e-03 -1.76714323e-02 -2.30563730e-02 -5.20729972e-03 -2.80306526e-02 1.33168614e-02 2.14741342e-02 -3.86050204e-03 2.57713404e-02 8.99480190e-03 -2.62461398e-02 -2.73747439e-03 2.15430874e-02 2.01310385e-02 1.33045530e-02 2.13671457e-02 2.27613300e-02 -6.54362282e-03 -1.19131105e-02 -8.23807158e-03 -9.32268612e-03 -2.30660364e-02 1.81845445e-02 3.06505081e-03 9.49269347e-03 -1.46774491e-02 2.09632237e-02 3.03275175e-02 1.16604408e-02 -2.83962823e-02 -1.70346089e-02 1.79969538e-02 -4.41760803e-03 2.01906506e-02 5.48265176e-03 3.95412045e-03 8.58794246e-03 -2.06582882e-02 -1.51252318e-02 8.45435448e-03 -1.16518354e-02 -1.25901615e-02 -2.02694628e-02 -6.14396669e-03 1.80308614e-02 1.25187542e-02 1.08250044e-02 1.88075155e-02 2.13286821e-02 -2.16064863e-02 -4.31710202e-03 -2.66580451e-02 -2.29924489e-02 3.57781537e-03 -1.73538718e-02 -4.50042170e-03 -2.32716482e-02 -3.00761219e-02 8.34510475e-03 -8.94063711e-03 -1.40845831e-02 -6.06157165e-03 -4.96612629e-03 6.65058149e-03 -2.31930185e-02 1.99835766e-02 6.41688798e-03 1.86908450e-02 1.30031528e-02 2.09717173e-02 4.07526223e-03 -1.45634972e-02 1.70690566e-02 1.21268607e-03 4.06580418e-03 2.19969079e-02 -1.28329452e-02 1.10715339e-02 8.17337446e-03 -8.81643035e-03 7.54957506e-03 -1.72070076e-03 2.34584305e-02 6.83752773e-03 1.46287596e-02 2.21188441e-02 2.29057353e-02 1.51599860e-02 1.50834620e-02 1.21511491e-02 1.12228999e-02 -1.68515462e-02 -1.24245854e-02 2.14216858e-02 -1.92232989e-02 -8.52816924e-03 1.39236730e-02 -5.60748857e-03 1.23944730e-02 -6.30336534e-03 1.85712893e-02 -4.44909139e-03 2.19682902e-02 2.72751302e-02 -1.21912323e-02 1.11037074e-02 1.80130713e-02 2.66434774e-02 1.88926924e-02 -2.58658361e-02 -1.24424454e-02 1.93322226e-02 -3.31525761e-03 8.11799243e-03 1.79294385e-02 -1.14868228e-04 1.95875969e-02 1.70991160e-02 1.95256136e-02 1.22601185e-02 -2.08170041e-02 2.05232240e-02 1.81603413e-02 7.18933670e-03 -1.55815715e-03 1.93674676e-02 9.87650920e-03 -1.73542798e-02 6.38334919e-03 1.24997471e-03 9.02774464e-03 6.13473402e-03 -1.14132394e-03 -1.39921834e-03 -1.20658707e-02 1.97947767e-04 2.19632946e-02 9.51832533e-03 7.76552595e-03 -1.55349337e-02 -2.68037170e-02 -1.85242593e-02 1.58457495e-02 -2.67845951e-02 -5.92748774e-03 1.57362390e-02 2.80464737e-04 1.93755105e-02 8.04924057e-05 -1.39722461e-02 3.13484366e-03 1.37954415e-03 -1.63748544e-02 4.06354433e-03 -1.04784127e-02 1.80301089e-02 -2.39686947e-03 1.87631957e-02 1.00991866e-02 4.65680240e-03 -5.53213246e-03 -2.33307611e-02 6.25610724e-03 -1.03505459e-02 5.96110243e-03 -5.97294047e-03 7.80637376e-03 1.75709017e-02 -1.78325698e-02 2.00522002e-02 -5.45090670e-03 9.04334150e-03 4.02027508e-03 1.44243322e-03 -1.53721422e-02 -1.62964575e-02 -7.44798360e-03 -2.46878546e-02 -1.85513496e-02 -2.51520164e-02 -2.48398874e-02 1.31983403e-02 8.27134587e-03 -2.14499533e-02 1.21042896e-02 -3.12449243e-02 1.79138351e-02 2.17750650e-02 7.25011854e-03 1.38558494e-02 1.16784330e-02 -2.92758993e-03 5.04596019e-03 2.39699055e-02 5.21941343e-03 1.76536478e-02 -7.13615166e-03 8.13220069e-03 -2.64056306e-03 -1.80751402e-02 6.96830451e-03 2.09506955e-02 2.04927530e-02 2.56667193e-02 -1.92746986e-02 -1.89203806e-02 -8.27813335e-03 1.96710359e-02 1.31530380e-02 1.46349277e-02 -1.99239478e-02 1.81253180e-02 1.01087801e-02 7.54730077e-03 -1.60769019e-02 8.89324117e-03 1.28637580e-02 -1.33007225e-02 7.49088684e-03 -1.59287490e-02 -7.75079941e-03 5.60513139e-03 -6.58824807e-03 -2.61651855e-02
4.56206733e-03 -6.04811823e-03 1.49861844e-02 1.98660512e-03 1.07871303e-02 -3.61079746e-03 -6.95133582e-04 1.18533066e-02 -1.75719569e-03 -5.73764322e-03 -6.77132653e-03 6.15427876e-03 1.23955142e-02 -5.65001043e-03 8.06012191e-03 1.23675354e-02 1.50526697e-02 2.20810212e-02 1.64220929e-02 -9.11384879e-04 -5.65637136e-03 -6.57697162e-03 -4.73826239e-03 -5.85041614e-03 -1.13115218e-02 -1.21403334e-03 7.02866027e-03 3.24681372e-04 1.31883575e-02 -3.77700990e-03 -1.03751291e-02 1.20345345e-02 -1.19914841e-02 8.05003382e-03 1.44616561e-02 2.21027713e-03 1.07995486e-02 6.43863576e-04 5.08804061e-03 -5.06895129e-03 -4.42135893e-03 -1.06013957e-02 -3.31847486e-03 2.86646915e-04 -2.04558531e-03 -9.27398261e-03 -1.08984811e-02 -1.41844889e-02 -7.86500704e-03 1.19507993e-02 5.29069640e-03 4.50003613e-03 8.38144496e-03 -6.30470552e-03 2.13249889e-03 2.84772454e-04 -7.72006670e-03 -3.78529960e-03 1.18559022e-02 7.49640027e-03 1.78270135e-02 -1.58359110e-02 3.47588095e-03 7.76138715e-03 1.21997530e-02 -5.20908460e-03 -1.88231398e-03 -5.36836125e-03 1.74230449e-02 -6.50423719e-03 -1.39140608e-02 -2.03117523e-02 -3.06947669e-03 -9.12234932e-03 2.16030725e-03 -3.75009188e-03 -7.04411557e-03 6.69857208e-03 6.80356799e-03 -3.40617262e-04 2.58161640e-03 -2.21418752e-03 -2.00738534e-02 -1.18314754e-02 -4.76305373e-03 1.04929246e-02 7.81505555e-03 -7.55030243e-03 -8.68059136e-03 -2.02293531e-03 -7.72599177e-03 -5.39133186e-03 3.49649298e-03 5.25867892e-03 -2.81400629e-03 7.04259705e-03 1.40384892e-02 -4.34333785e-03 -6.50392193e-03 9.27891524e-04 3.81962722e-03 4.82417271e-03 -1.24722384e-02 -6.98763877e-03 7.67642539e-03 -4.94168233e-03 8.45054723e-03 6.38528436e-04 7.18302047e-03 -2.09753658e-03 -7.21726287e-03 -7.41683552e-03 -6.01082668e-03 1.19680334e-02 -4.93012602e-03 -9.47511755e-04 1.19849676e-02 -1.08410576e-02 -1.15201017e-02 -5.84663590e-03 2.75352923e-03 3.16633889e-03 -3.99311399e-03 -6.96170749e-03 1.19101750e-02 -2.65012099e-03 8.52323975e-03 9.01822373e-03 -7.71696586e-03 8.45511723e-03 -6.59820018e-03 4.55257157e-03 -1.47503000e-02 -1.67619362e-02 2.01625703e-03 1.22204041e-02 -1.51255273e-03 -7.62755098e-03 -1.30777266e-02 -1.27189057e-02 9.07451101e-03 1.50974083e-03 1.05304755e-02 6.64863270e-04 9.10016056e-03 -6.60935137e-03 -1.09781250e-02 -1.01799180e-03 5.77902829e-04 8.26400612e-03 -1.14961024e-02 3.92662222e-03 -5.62012708e-03 1.15240300e-02 -1.73373695e-03 1.03568267e-02 1.84060610e-03 1.60534773e-02 -1.15617840e-02 -1.03440871e-02 3.33653390e-03 1.66843890e-03 -1.40612759e-02 -2.52821483e-04 -1.22543769e-02 7.72216730e-03 -8.09823349e-03 4.59535606e-03 1.14890290e-02 -6.17913855e-03 -2.75805173e-03 7.13938009e-03 4.41545038e-04 4.38457029e-03 2.28356174e-03 -3.71151743e-03 -7.67891156e-03 -2.54472415e-03 -6.73737563e-03 9.13969055e-03 -3.12936818e-03 2.23366427e-03 4.19221091e-04 9.74025670e-03 4.78112698e-03 -1.11167273e-02 -1.90167525e-03 -5.99641411e-04 1.24379741e-02 -1.44838439e-02 1.09695634e-02 -4.57190862e-03 9.12192801e-04 4.09451220e-03 1.10230753e-02 -9.83017962e-03 -4.05061850e-03 8.88738409e-03 -4.92693018e-03 5.48909511e-03 -7.94843026e-03 1.19955344e-02 -6.31231721e-03 5.03378501e-03 -1.42791797e-03 -4.09080600e-03 7.08264706e-04 -1.12246871e-02 -7.27859931e-03 -4.72865161e-03 6.32371940e-03 6.07615104e-03 -7.90927559e-03 -1.07549289e-02 8.85843858e-03 2.69225985e-03 -9.80467070e-03 -3.82578350e-04 9.38275643e-03 3.39420134e-04 -1.05911223e-02 -9.38593503e-03 -1.42186618e-04 1.07598184e-02 -4.98924963e-03 1.90276583e-03 -4.50433092e-03 9.58523992e-03 -2.16278876e-03 -4.55809757e-03 -9.26544052e-03 4.41340497e-03 -7.79172918e-03 -3.64820031e-03 -6.05585007e-03 -6.17176713e-03 -4.01318166e-03 -9.05064587e-03 -2.35261954e-02 -1.04927458e-02 -1.23123880e-02 -1.30305039e-02 -6.31635124e-03 -1.75688474e-03 2.92360713e-03 5.62292198e-03 7.34676782e-04 -5.79770654e-03 1.15428008e-02 8.88793438e-04 5.37057268e-03 -8.28491524e-03 2.17440678e-03 9.42401472e-04 -1.11269942e-02 -1.13048963e-02
-1.70222186e-02 -8.56239721e-03 8.07728246e-03 4.67535388e-03 -5.59898745e-03 -1.29190611e-03 4.74565430e-03 3.69269145e-03 -1.07056759e-02 1.10653611e-02 9.10857040e-03 5.14337700e-03 2.25936319e-03 -2.90399254e-03 2.27098982e-03 -2.53115268e-03 -2.80045089e-03 7.54679181e-03 -3.78769939e-03 2.64678709e-03 6.87485049e-03 7.95366999e-04 -2.89094541e-03 7.72138080e-03 -6.95613353e-03 1.09821381e-02 1.43711024e-03 -7.72436056e-03 7.61796907e-03 -8.67329654e-04 -1.64133310e-02 1.49219269e-02 -6.78796507e-03 -6.50408352e-03 -1.83368986e-03 6.03516912e-03 -1.22735556e-02 -3.83626041e-03 5.58892905e-04 -8.33723880e-03 3.67106870e-03 -1.28946337e-03 -1.77184455e-02 -1.68365054e-03 6.82626758e-03 1.70294959e-02 7.70439394e-03 -6.64234627e-03 -1.39602437e-03 2.72721821e-03 1.39656318e-02 8.09677690e-03 7.72152143e-03 -2.75400328e-03 -9.18516144e-03 -1.37233110e-02 7.84571934e-03 -1.54552041e-02 6.57475693e-03 1.43547198e-02 1.32558085e-02 -1.46879917e-02 -6.51730085e-03 -5.24831098e-03 -2.59468029e-03 -6.32741489e-03 6.37966814e-03 -9.41365119e-03 1.10787796e-02 1.66840991e-03 -1.48513932e-02 -1.09700449e-02 1.78365270e-03 1.79412274e-03 -1.12707261e-02 -1.14015117e-02 3.30009940e-03 1.01781385e-02 6.34438172e-03 3.75923072e-03 -1.34452363e-03 -1.91918854e-03 -1.14170033e-02 -1.62865110e-02 -1.10859354e-03 -1.76545943e-03 -3.58134531e-03 -6.58148108e-03 -8.14360683e-05 -1.89057514e-02 6.41608238e-03 2.75685918e-03 1.39324851e-02 3.60967731e-03 7.64479861e-03 -6.92599278e-04 4.19744058e-03 -7.45080411e-03 3.40594864e-03 1.51545210e-02 -1.81709009e-03 5.19388961e-03 8.37322604e-03 -4.24886728e-03 -3.10660806e-03 -4.26179171e-03 1.71326206e-03 -6.21741638e-03 4.40273288e-04 -1.16191674e-02 7.41686812e-03 -1.27535863e-02 -1.35707378e-03 -1.07130157e-02 1.46915624e-02 9.77600738e-03 -5.29903977e-04 1.04484977e-02 8.51901062e-03 -5.87321469e-04 -2.69167311e-03 -6.49414025e-03 8.38790741e-03 5.80508634e-03 -1.39168231e-03 6.46776985e-03 -9.40320920e-03 -1.19446730e-02 1.43820085e-02 -7.13431230e-03 2.54285196e-03 -4.45441343e-03 1.43236304e-02 -7.41487043e-03 -2.46445439e-03 1.48243671e-02 -1.07711218e-02 1.23269074e-02 9.74449422e-03 1.68438219e-02 1.22954305e-02 -1.09406142e-02 2.62744492e-03 6.53320877e-03 5.91650466e-03 6.95335027e-03 2.24339240e-03 -9.92291374e-04 9.33765259e-04 -5.43576805e-03 7.94033054e-03 -3.73393227e-03 -2.93999654e-03 1.74136143e-02 -7.65483221e-03 1.06574921e-02 1.42554822e-03 9.69535857e-03 6.41219085e-03 3.46524976e-05 1.21136140e-02 -5.59820281e-03 5.58624323e-03 3.94682633e-03 9.56308679e-04 8.27115402e-03 -1.08624797e-03 -1.05892755e-02 5.92680008e-04 8.06833341e-05 5.33444434e-03 -1.37048336e-02 -2.77066557e-03 4.35679127e-03 1.35922832e-02 -2.02977005e-02 -8.66427179e-03 7.19953747e-03 -1.27907991e-02 6.64933398e-03 -3.03569483e-03 -4.46907245e-03 -7.36576680e-04 5.56571735e-03 6.80824416e-03 -1.20398486e-02 -9.00070649e-03 9.56676202e-04 -8.15610751e-04 -9.04220156e-03 -8.68235435e-03 -1.72929768e-03 -1.03721337e-03 4.48654033e-03 9.67456959e-03 1.60599104e-03 1.56695731e-02 -1.57131385e-02 9.16239060e-03 1.07248605e-03 2.89697084e-03 -2.49194261e-03 -3.19767348e-03 2.08462011e-02 4.07649437e-03 -2.50950083e-03 5.63197164e-03 -8.25047586e-03 1.03207561e-03 3.13270907e-03 -4.95912833e-03 -7.24304514e-03 -1.12235527e-02 -2.07180576e-03 1.07671041e-02 -4.52100858e-03 9.29288007e-03 -1.81643907e-02 1.09530278e-02 1.17907496e-02 -7.78578501e-03 -1.08895078e-02 -7.27478741e-03 -6.12010201e-03 -2.70615588e-03 -1.18201133e-03 2.54578562e-03 1.79278012e-03 4.03779093e-03 -6.85086567e-03 -1.62757020e-02 -1.16723347e-02 2.39164219e-03 2.38582352e-03 1.16726141e-02 1.54456431e-02 7.88511243e-03 -1.07746860e-02 -2.24618316e-02 2.36763842e-02 -8.22722167e-03 5.81078604e-03 -1.32061886e-02 5.07633900e-03 -4.82164370e-03 -1.26444399e-02 4.39141272e-03 1.36064980e-02 1.25430143e-02 -7.06952671e-03 1.92612913e-02 -5.65371616e-03 6.40553713e-04 3.33873695e-03 -4.58019413e-03 4.11317777e-03
-2.28865817e-02 -1.54365776e-02 1.09247193e-02 -1.33178802e-02 -2.10295469e-02 1.11257862e-02 3.06431819e-02 -7.38153979e-03 -1.39551051e-02 -1.47033902e-02 1.34349207e-03 -6.91837748e-04 -1.17433397e-02 3.36481119e-03 3.53350001e-03 -1.18426913e-02 3.70294903e-03 2.62128119e-03 -3.89137492e-03 3.85543844e-03 2.80411937e-03 -7.48240622e-03 4.57460666e-03 1.22378152e-02 -2.13369657e-03 4.41378774e-03 -5.36169996e-03 1.95422135e-02 5.34342183e-03 -3.78763652e-04 -1.68711357e-02 1.41517987e-04 -2.46725027e-02 -2.44227368e-02 -1.42437136e-02 -2.14481782e-02 -1.66618265e-02 2.09311657e-02 2.14373115e-02 -7.26891635e-03 4.56146477e-03 4.56810696e-03 -3.85575625e-03 -1.37056038e-02 4.71633393e-03 1.72196273e-02 1.56685915e-02 4.55710542e-04 -2.22761487e-03 -1.09115811e-02 -1.00266831e-02 -1.67438071e-02 -1.95850804e-02 -6.64225500e-03 3.43890069e-03 7.47095514e-03 3.28104571e-02 -2.76515987e-02 3.44422273e-02 3.24259177e-02 1.81837510e-02 -2.39323247e-02 -2.91653797e-02 3.43097076e-02 -1.32568693e-02 1.36421772e-03 -4.07732185e-03 -5.77130821e-03 8.14959500e-03 -8.97749793e-03 -2.60969549e-02 -8.50990042e-03 -2.16303747e-02 -2.01629438e-02 -6.28006877e-03 -1.78906620e-02 1.01980334e-02 2.99319043e-03 1.76993422e-02 1.89511850e-02 1.25428503e-02 -1.13669755e-02 -2.02372465e-02 -1.89369339e-02 -1.76129583e-02 1.10900700e-02 3.06030945e-03 -1.32528981e-02 -9.75642446e-03 4.03584214e-03 4.86188655e-04 -1.43061904e-02 -7.65470846e-04 4.05856268e-03 -1.58744548e-02 8.95082951e-03 -1.76058430e-02 1.78629421e-02 -1.53163366e-03 4.76371124e-03 1.00363670e-02 2.10896563e-02 2.58999993e-03 -5.31387189e-03 1.30912671e-02 1.02903629e-02 1.05894208e-02 1.71981007e-02 -1.77009478e-02 1.74208861e-02 1.85263269e-02 -9.87138413e-03 7.38356961e-03 -9.40480910e-04 1.79204568e-02 1.28329452e-02 3.85753601e-03 1.18353358e-02 1.26058720e-02 5.36160031e-03 -9.23875137e-04 9.09483898e-03 1.58085730e-02 -1.58606209e-02 -1.22074727e-02 1.21206362e-02 -1.45217385e-02 -1.14459079e-02 1.15003977e-02 -2.04999782e-02 4.99944261e-04 -9.53924563e-03 5.34295756e-03 -2.37833653e-02 -2.92801950e-03 2.18480714e-02 -2.57377177e-02 1.16215320e-02 1.24672381e-02 1.24267908e-02 2.89586261e-02 -2.13357341e-02 -1.69517305e-02 2.27349605e-02 -6.42855559e-03 4.90435818e-03 1.19323255e-02 1.16287265e-02 -1.32034614e-03 1.95620935e-02 -2.46310676e-03 5.50865021e-04 -1.06299412e-03 -1.60458998e-03 9.56877880e-03 1.92994718e-02 4.32799617e-03 1.80592276e-02 1.30497366e-02 -1.41142972e-03 -8.54449405e-04 1.08369952e-02 8.17486085e-04 5.44632319e-03 -5.46978414e-03 -2.06438499e-03 -4.44016047e-03 9.49161965e-03 2.95868590e-02 2.08869502e-02 2.81060338e-02 -2.05467045e-02 -9.31624044e-03 -1.80921480e-02 5.98343648e-03 -2.65877992e-02 -1.13763493e-02 1.05134603e-02 1.32365329e-02 7.94089586e-03 -6.42352924e-03 -3.91399924e-04 1.23682665e-02 -1.39908222e-02 -5.35434810e-03 -3.35073494e-03 -1.53597314e-02 7.32767070e-03 9.65108164e-03 -5.86381508e-03 1.48775466e-02 -1.51150732e-03 -2.35552751e-02 -2.02125721e-02 1.61651541e-02 -1.05114104e-02 2.61744224e-02 -2.74619609e-02 2.67822705e-02 2.03809310e-02 -1.39870271e-02 1.56612042e-02 -1.79444253e-02 8.23621452e-03 1.55826854e-02 -1.24231540e-02 -6.89472491e-03 -1.43225444e-03 -1.41364727e-02 -1.83712207e-02 -1.00375814e-02 -2.44739484e-02 -2.53302194e-02 1.97549835e-02 1.91131681e-02 -1.93246230e-02 2.38733627e-02 -1.01894382e-02 3.50094098e-03 1.90682262e-02 2.19260491e-02 6.42670493e-04 6.86340779e-03 2.51496676e-03 2.19253171e-02 1.45779019e-02 1.82059370e-02 1.65793076e-02 -1.05780270e-02 5.13986265e-03 -2.17350572e-03 -3.16511746e-03 3.77677218e-03 1.90192107e-02 8.82703904e-03 9.82791744e-03 -1.54175097e-02 -1.34496801e-02 -5.79715800e-03 1.31061701e-02 -1.99519144e-03 1.99630242e-02 -8.60600546e-03 1.52124399e-02 6.98339054e-03 1.71050783e-02 -1.55302929e-02 6.37319358e-03 1.32630663e-02 -3.82522005e-03 4.61255200e-03 -1.82397421e-02 -5.76420082e-03 1.01779830e-02 -2.07375698e-02 -2.07813997e-02
-2.31553614e-02 -2.87919249e-02 6.76993700e-03 -1.43758096e-02 -7.90853798e-03 2.76751947e-02 5.02245501e-03 -1.84722058e-02 3.00123967e-04 -1.84733942e-02 1.84105728e-02 1.33329555e-02 -9.43544204e-04 -4.47663106e-03 2.46637221e-03 -1.02761493e-03 7.54678505e-04 -2.46030930e-02 -3.41604208e-03 -1.09935994e-03 3.49240308e-03 -1.92174432e-03 6.29876088e-03 -1.09296348e-02 6.02560164e-03 5.20329364e-03 -1.58499107e-02 -2.16907778e-04 9.37715173e-03 -9.38469265e-03 -1.30905136e-02 3.48676904e-03 -5.33370860e-03 -1.55578265e-02 -1.20102493e-02 -1.33711463e-02 -9.84752085e-03 2.26666946e-02 1.64876953e-02 -1.69508047e-02 1.68328322e-02 1.37704518e-02 -1.07451454e-02 -8.86504166e-03 1.48365786e-02 2.29495969e-02 1.39529323e-02 1.96480080e-02 8.16153269e-03 6.26934180e-03 7.77126756e-03 -1.05220918e-02 7.72637501e-03 4.31012922e-05 1.04030957e-02 -4.75014839e-03 1.23602310e-02 -2.06116680e-02 7.79012451e-03 6.38695527e-03 1.11052878e-02 -2.20871400e-02 -1.47099737e-02 1.17836380e-02 -8.78772326e-03 2.97918054e-03 -5.94336540e-03 -6.82805572e-03 1.03855906e-02 -3.88831506e-03 -1.55471275e-02 3.34136491e-03 -3.06535210e-03 -1.93465583e-03 -3.14923027e-03 -9.30632744e-03 1.79609042e-02 1.04868552e-02 1.56015856e-02 1.04954210e-03 1.45450821e-02 -1.72741525e-02 1.23274664e-03 4.61734133e-03 -1.17506757e-02 -2.38007437e-02 -8.94206017e-03 -2.60241842e-03 -1.72018365e-03 -1.05697634e-02 4.93233139e-03 -1.17808161e-02 -3.69352463e-04 2.06053111e-04 2.84413295e-03 -2.35456019e-03 -4.99438215e-03 1.33183999e-02 6.30162423e-03 8.53518303e-03 1.96236782e-02 1.05864871e-02 -2.76085630e-04 -1.90310031e-02 2.39985459e-03 3.85100557e-03 2.20335852e-02 8.51169415e-03 -1.09530482e-02 -5.10719046e-03 6.94657722e-03 -1.47475861e-02 1.51111698e-02 3.73263797e-03 1.17380386e-02 9.93475877e-03 3.58926249e-03 7.39801256e-03 -3.45888943e-03 1.23290736e-02 6.33943547e-03 7.81022245e-03 1.43054938e-02 -2.05123816e-02 -1.16007905e-02 1.74707733e-02 3.41466581e-03 -1.53129250e-02 4.44246596e-03 -6.90267514e-03 5.99080790e-03 -1.94944665e-02 9.52383783e-03 -2.08693314e-02 9.29517392e-03 1.46640716e-02 -1.78712606e-02 1.91904902e-02 9.46872495e-03 1.08161699e-02 1.68939251e-02 -5.10763004e-03 -1.36115188e-02 2.03089826e-02 -1.09537849e-02 -4.01131529e-03 -8.92052427e-03 -1.36610717e-02 5.22099342e-03 -7.06575532e-03 -4.14598733e-03 -9.29318368e-03 -6.38325745e-03 3.01052928e-02 -8.84981360e-03 6.22399757e-03 -5.75493928e-03 1.96491368e-02 5.76033257e-03 6.35819137e-03 6.31390838e-04 -5.27177181e-04 4.56013484e-03 -5.51205641e-03 2.06122384e-03 7.89643917e-03 -4.36682114e-03 2.83680041e-03 9.22574755e-03 2.41249311e-03 9.31456406e-03 -1.46362260e-02 -5.89756714e-03 -1.65568423e-02 2.04299875e-02 -2.29664352e-02 -7.43647711e-03 9.86316521e-03 -1.22334743e-02 -4.41781618e-03 1.01041077e-02 -1.72138512e-02 -1.00309476e-02 -4.50011902e-03 -1.08052241e-02 5.50978212e-03 9.25372075e-03 1.41186547e-02 -9.76425502e-03 4.33823047e-03 2.14800122e-03 -7.96855148e-03 -4.38809022e-03 -6.93959743e-03 1.33712881e-03 -2.24840641e-02 1.76791809e-02 -1.73132345e-02 2.09038444e-02 1.47763472e-02 -3.07223317e-03 -6.54820213e-03 6.01457758e-03 6.63260370e-03 1.51238113e-03 6.89058425e-03 -4.43650130e-03 4.80073551e-03 -2.74453163e-02 -8.54862109e-03 -1.78420786e-02 -2.39168722e-02 -2.45413780e-02 7.28334021e-03 3.13284481e-03 -9.78586730e-03 4.55993460e-03 -3.11840251e-02 1.76339783e-02 1.40942475e-02 -2.82854494e-03 1.25381639e-02 -4.69163107e-03 -1.03499992e-02 1.27833374e-02 1.27305929e-02 1.47753591e-02 1.18875206e-02 -1.67865176e-02 2.62214267e-03 -9.61653423e-03 -1.48361158e-02 3.22818727e-04 1.66979693e-02 3.83779686e-03 1.88815780e-02 -2.02671457e-02 -1.18643455e-02 -3.06327194e-02 4.12525004e-03 1.00063542e-02 8.29696003e-03 -5.41404355e-03 8.19432549e-03 -2.02477016e-02 -3.55443638e-03 -1.14303222e-02 -2.06206786e-03 1.47956340e-02 -1.16528599e-02 2.07361057e-02 -9.06930596e-04 -1.40013006e-02 1.02334078e-02 -2.58301552e-02 -1.29853860e-02
-2.61289091e-03 -2.47730352e-02 2.03977209e-02 -5.41788479e-03 -2.43622418e-02 9.42437630e-03 1.09510571e-02 -2.68539693e-02 -1.06826108e-02 -1.06830783e-02 2.19063275e-03 1.52930394e-02 -1.26696238e-02 8.34266469e-03 -3.30495765e-03 -1.86262093e-02 -9.97325219e-03 -2.80507281e-03 7.07949419e-03 6.24451181e-03 1.17520848e-02 -1.71137718e-03 -2.30182940e-03 2.42968788e-03 2.65262160e-03 1.25905089e-02 -4.65119956e-03 1.81958228e-02 1.74532961e-02 -1.81635059e-02 -1.52409989e-02 1.44518251e-02 -1.68421082e-02 -1.72860492e-02 -1.33802053e-02 -2.19614692e-02 -1.00078285e-02 4.39825421e-03 5.01054153e-03 -2.23162910e-03 5.10962075e-03 1.37129277e-02 -6.79754233e-03 -2.00845655e-02 7.41546601e-03 1.28764119e-02 1.05897617e-02 1.49050225e-02 8.24819878e-03 -7.35031208e-03 -1.39478734e-02 -7.21194723e-04 -1.11936976e-03 4.04483918e-03 9.12166759e-03 -3.06516816e-03 2.46717725e-02 -1.42178638e-02 2.73001026e-02 1.73039176e-02 2.87089981e-02 -2.69760285e-02 -2.57503912e-02 2.65801717e-02 3.14191217e-04 5.24617871e-03 -2.79366318e-03 -5.87168429e-03 -6.61398284e-03 -1.19224237e-02 -2.28017662e-02 -9.30982362e-03 -1.03677940e-02 -1.46123609e-02 -1.01564666e-02 -1.01533858e-03 1.99120808e-02 8.72972049e-03 6.41578203e-03 -5.39389730e-04 1.55221634e-02 -1.57844275e-02 -9.29235201e-03 -5.60417445e-03 1.76107488e-03 6.75509730e-03 -3.34843108e-03 6.24265848e-03 -7.88733456e-03 -2.08146544e-03 4.06179950e-03 3.47476709e-03 -4.79602301e-03 -4.97054262e-03 3.62047250e-03 -1.08459743e-03 -1.22927791e-02 -1.95153919e-03 1.40819484e-02 1.95549428e-02 1.07714590e-02 1.82384271e-02 -4.25558910e-03 -4.42662463e-03 6.38339901e-03 5.39414538e-03 1.82112418e-02 3.34480405e-03 -1.75619889e-02 7.82507379e-03 1.30579025e-02 3.84752778e-03 1.03949176e-04 2.09254236e-03 -2.44075287e-04 -2.43931194e-03 1.75874215e-02 1.31502328e-03 2.55923043e-03 -9.47047316e-04 1.21549331e-02 5.07748825e-03 1.13411946e-02 -2.27589142e-02 -3.69360158e-03 1.92655381e-02 -3.65017261e-03 -1.53010273e-02 5.54979593e-03 -1.65125392e-02 1.95608344e-02 -1.12798046e-02 2.50222757e-02 -2.17031576e-02 7.61349220e-03 2.61150543e-02 -2.00860519e-02 1.92401782e-02 1.21493349e-02 1.07984710e-02 1.40007054e-02 -1.95190553e-02 -1.31460894e-02 1.42207900e-02 -4.38289158e-03 -4.45930008e-03 9.72197764e-03 -1.61610898e-02 1.18008545e-02 1.43875247e-02 1.13880988e-02 -7.98379350e-03 -2.72583216e-03 1.45118916e-02 3.34849174e-04 1.27834706e-02 9.46465693e-03 1.02396430e-02 6.19663624e-03 -9.08074528e-03 -2.82986695e-03 8.56291130e-03 1.31372502e-02 5.98303415e-03 -6.29478786e-03 7.86681939e-03 -4.71476582e-04 -2.18448439e-03 1.11333355e-02 1.04599940e-02 1.24462955e-02 -1.57743376e-02 -2.95724329e-02 -1.96051262e-02 7.83282053e-03 -5.96122770e-03 9.14751831e-03 1.62266977e-02 -2.03414559e-02 1.36397593e-02 -4.64619650e-03 -1.72241329e-04 -2.74376175e-03 -1.79660608e-04 -1.53875910e-02 -7.18359137e-03 3.41985398e-03 1.27494130e-02 -3.20435409e-03 -7.88661279e-03 3.58360983e-03 -3.80718568e-03 -2.14176551e-02 -2.86656525e-02 1.30635845e-02 -1.07511366e-03 1.27674518e-02 -2.28631757e-02 2.26878021e-02 1.62103008e-02 5.91346994e-03 1.25225913e-02 7.09389942e-03 2.58383318e-03 1.17003918e-02 7.78174552e-04 -1.53806200e-02 -2.08389610e-02 -1.21696433e-02 -6.56870613e-03 -2.16680169e-02 -1.02177626e-02 -6.34915894e-03 2.58315541e-02 1.64542235e-02 -1.00949053e-02 5.99595672e-03 -2.19008476e-02 1.44407423e-02 -3.03405616e-03 -4.20900993e-03 7.02466629e-03 1.46954730e-02 -1.63348217e-03 7.30269635e-03 2.10255831e-02 1.29699325e-02 3.03366641e-03 -1.67826992e-02 1.30490577e-02 -3.94163234e-03 -1.24627566e-02 1.66763272e-02 1.50568774e-02 1.12750763e-02 2.34223399e-02 -1.18935679e-03 -6.12425385e-03 -8.21941532e-03 1.07381614e-02 -7.73978885e-04 1.26753002e-02 -2.25422550e-02 1.37298778e-02 -1.98877007e-02 7.03095831e-03 8.81852303e-03 1.71610061e-02 7.83535745e-03 -1.30193233e-02 1.69716869e-02 -1.27036963e-02 -1.78009775e-02 2.48721223e-02 -1.79420714e-03 -2.16180813e-02
-2.07754876e-02 -1.53614888e-02 4.49662004e-03 -4.68958728e-03 -1.66510977e-02 1.81659032e-02 2.07475964e-02 -1.06096184e-02 3.86648555e-03 -1.36118717e-02 -3.07753263e-03 7.33948452e-03 -9.56437958e-04 -4.13073692e-03 1.19252261e-02 -1.18077202e-02 -6.70029502e-03 1.40052745e-02 -6.61606295e-03 5.26453694e-03 1.45698129e-03 4.05778782e-03 -6.39500329e-03 4.98088822e-03 -4.96935798e-03 6.68545580e-03 -1.76378507e-02 -2.39151600e-03 1.21930260e-02 6.91542495e-03 -1.21518085e-02 9.56656761e-04 -2.69862879e-02 -2.29918007e-02 -1.73408296e-02 -5.60950022e-03 7.69787177e-04 7.17280273e-05 5.03835268e-03 -7.86216464e-03 2.26362199e-02 6.78944681e-03 -7.38779455e-03 6.67996379e-03 4.69881808e-03 6.13162387e-03 8.38903897e-03 1.61284469e-02 3.36809130e-03 1.22005539e-03 -1.25755947e-02 -1.49770165e-02 -3.91077576e-03 3.66839301e-03 1.32408142e-02 9.73215851e-04 3.76568874e-03 -1.67683735e-02 1.79740302e-02 1.21062240e-02 2.29820199e-02 -1.13763791e-02 -7.65901431e-03 1.68536659e-02 9.63262841e-03 1.21115958e-02 1.39074074e-03 2.28522602e-03 1.83053203e-02 -2.01771576e-02 -1.84076168e-02 -1.22158164e-02 -8.14959314e-03 -3.23628308e-03 -2.00202186e-02 -1.21106142e-02 4.29284386e-03 1.51291220e-02 -8.14059656e-03 1.74280684e-02 1.54815027e-02 4.24021063e-03 -2.64448742e-03 -1.94837470e-02 -3.06130317e-03 1.65504050e-02 -1.56235229e-02 -9.48067696e-04 -9.47814342e-03 -6.23471627e-04 -1.84896553e-03 -8.56110069e-04 9.69089381e-03 -1.58041120e-02 4.45509888e-03 1.65117737e-02 -1.36276503e-04 8.61144625e-03 1.53637063e-02 1.79118458e-02 8.32317024e-03 8.75574443e-03 5.92112169e-03 4.32626251e-03 1.33651113e-02 2.25400203e-03 4.52038553e-03 2.10219529e-03 -1.82421915e-02 9.69049288e-04 -1.39384985e-03 -1.68431271e-02 8.19775648e-03 -1.04172772e-03 5.04729664e-03 -3.67395906e-03 1.56367067e-02 3.48768267e-03 -2.14246276e-04 -4.46079904e-03 1.21722445e-02 1.59625697e-03 2.24215705e-02 -2.00592652e-02 5.21235308e-03 3.97500210e-03 -1.94520447e-02 -9.06359963e-03 2.46114396e-02 -1.43115995e-02 4.94655082e-03 -2.05476284e-02 1.44715300e-02 -2.01581456e-02 1.67430602e-02 2.83942372e-02 -2.59586349e-02 3.53369047e-03 1.24960439e-02 -3.29885678e-03 1.66096501e-02 -5.83322300e-03 -1.77296903e-02 1.98178682e-02 2.75781704e-03 2.90265860e-04 -8.65019858e-03 -2.05088546e-03 -4.89933556e-03 1.61748938e-02 -1.40149251e-03 -6.28553424e-03 -7.48633174e-03 -1.78711358e-04 4.38365620e-03 1.29825762e-02 8.20749998e-03 -4.99466143e-04 1.83277857e-02 -2.05567162e-02 9.25348327e-03 2.85489298e-03 -2.79518054e-03 8.80249776e-03 1.12510165e-02 -6.79454394e-03 -6.34829095e-03 1.10550066e-02 6.06695982e-03 1.96642671e-02 8.32070876e-03 -9.87129286e-03 -1.06986482e-02 3.85586289e-04 1.68318599e-02 -2.10425258e-02 8.89275409e-03 -6.08264655e-03 -1.17702328e-03 -7.26894476e-03 -5.01898583e-03 1.64077408e-03 -1.57516857e-03 1.25303678e-02 9.63333063e-03 -8.44333693e-03 4.51766234e-03 1.09782862e-02 -4.76710964e-03 -5.12295030e-03 1.18286554e-02 -6.58126548e-03 -1.62478331e-02 -1.87477190e-02 1.09728957e-02 -7.46851880e-03 5.76499803e-03 -1.96591858e-03 2.26501133e-02 7.87730271e-04 -3.69171539e-05 4.93901549e-03 -1.62411537e-02 8.58847518e-03 -1.37961411e-03 -2.86206952e-03 -7.55689759e-03 -1.17656458e-02 -2.11394504e-02 -6.87286491e-03 -1.75106972e-02 -5.75106870e-03 -1.83501374e-02 -1.35812501e-03 5.53787267e-03 -2.09966432e-02 2.19451822e-02 -1.84753984e-02 -4.34143562e-03 1.69993341e-02 1.03623364e-02 -5.08485315e-03 4.23836662e-03 -1.44995097e-02 1.66055486e-02 1.97621267e-02 1.81260332e-03 8.68599117e-03 -1.15208421e-02 7.24057807e-03 -6.28909841e-03 -2.06393618e-02 1.63830537e-02 4.41808579e-03 2.04712171e-02 1.92564484e-02 4.79890360e-03 -1.56974159e-02 -1.90897975e-02 1.73803438e-02 7.03768386e-03 -2.66271899e-03 1.14622305e-03 2.80762697e-03 -2.54973979e-03 -8.71881144e-04 1.19129205e-02 2.39379844e-03 6.25558058e-03 -1.65859219e-02 1.82673931e-02 -6.79910765e-04 -1.19797047e-02 2.31903289e-02 -1.74215995e-02 -1.63900182e-02
-1.63823422e-02 -1.11156460e-02 2.11471599e-02 -6.78793900e-03 -1.71006229e-02 1.50815072e-02 2.00835299e-02 -1.50846262e-02 -1.66022480e-02 -3.37967230e-03 2.26925667e-02 2.58298125e-02 -9.67870373e-03 1.98939051e-02 -4.69865184e-03 -2.07777433e-02 -1.92657374e-02 1.04744071e-02 -1.67772565e-02 -3.10214167e-03 1.52755128e-02 7.72049138e-03 5.63300448e-04 5.05501684e-03 1.66276880e-02 2.40034815e-02 -1.26164583e-02 8.85873009e-03 1.56540386e-02 -2.28616260e-02 -4.20230394e-03 5.87957446e-03 -1.20861353e-02 -2.03498676e-02 -6.25367556e-03 -1.91588476e-02 -1.79789532e-02 2.17669867e-02 2.02267841e-02 -3.59893986e-03 1.59931574e-02 1.59869641e-02 -2.57022996e-02 -3.96682555e-03 4.56612930e-03 8.32406152e-03 1.59493908e-02 1.09432032e-02 2.12506913e-02 -1.17552290e-02 -1.09444594e-03 -7.21988443e-04 -2.15115231e-02 -1.81780756e-02 1.92460138e-02 1.54732084e-02 2.04177387e-02 -2.19188221e-02 1.90635696e-02 2.42932830e-02 1.16981706e-02 -6.33804128e-03 -2.83194482e-02 2.62847506e-02 -1.55924102e-02 1.14347301e-02 4.67293896e-03 4.97935852e-03 5.07821376e-03 -4.30278573e-03 -2.24290807e-02 -5.12895081e-03 -7.78222829e-03 -1.80848297e-02 -1.77181158e-02 -2.30053272e-02 1.28678931e-02 2.03620102e-02 5.65838348e-03 8.32098071e-03 1.58107337e-02 -1.46262590e-02 -3.59846978e-03 -1.37658883e-02 -1.04018729e-02 6.63818372e-03 -2.04468053e-02 -4.65781474e-03 -1.00469245e-02 -1.56678725e-02 2.11036168e-02 -9.94551089e-03 1.68734987e-03 -1.44845527e-02 -5.11357281e-03 8.29756446e-03 7.44474819e-04 1.41524719e-02 3.90439038e-03 1.97741687e-02 1.54989320e-04 4.17410443e-03 5.15574531e-04 -9.41883307e-03 2.32898407e-02 2.00134479e-02 1.83734801e-02 2.14719903e-02 8.28302349e-04 1.82070993e-02 6.56940881e-03 -3.50356707e-03 3.19353770e-03 -1.80068309e-03 4.92140139e-03 7.52205588e-03 3.56631796e-03 1.27147250e-02 8.17356072e-03 1.27007905e-02 1.49001759e-02 1.87523738e-02 1.84694286e-02 -1.19919870e-02 -1.21104922e-02 2.37826277e-02 -2.06356421e-02 -2.10505128e-02 1.70270354e-02 -5.27209556e-03 1.78561527e-02 -1.71771720e-02 1.46503095e-02 -1.59373935e-02 7.70723959e-03 2.71956678e-02 -1.53506259e-02 2.57839598e-02 2.67080944e-02 1.84674114e-02 2.54237000e-02 -2.57312488e-02 -3.85772088e-03 2.78635509e-02 -7.50721013e-03 1.89671828e-03 -2.76161102e-03 -1.42211400e-04 -3.95253627e-03 1.04255462e-02 -2.14036996e-03 1.65498611e-02 -1.51322158e-02 1.54444817e-02 1.48710441e-02 2.12016534e-02 -6.37230929e-04 1.01580275e-02 1.42106824e-02 -1.61973946e-02 2.41116453e-02 1.50657736e-03 6.75855391e-03 1.23530291e-02 -4.77898493e-03 -1.30242724e-02 -2.13106703e-02 8.02048668e-03 8.50274879e-03 1.56796742e-02 1.64624788e-02 -2.03551482e-02 -8.69310740e-03 -2.77523827e-02 1.75286401e-02 -2.38718092e-02 1.71778840e-03 8.05932842e-03 1.81100275e-02 1.36301657e-02 -1.18653979e-02 -1.77441370e-02 7.96133094e-03 -1.47020724e-02 -5.86820254e-03 4.37134830e-03 -1.05330972e-02 1.05795665e-02 -1.18954172e-02 5.44709060e-03 1.79122034e-02 4.43553727e-04 -1.25591885e-02 -2.07824912e-02 1.77064314e-02 -1.29509689e-02 1.91439651e-02 -2.54659578e-02 1.64108779e-02 1.35236438e-02 1.53193413e-03 6.02912670e-03 -1.64837891e-03 9.11881495e-03 2.08137613e-02 -8.62860680e-03 -3.86911980e-03 -2.27625780e-02 -1.29296547e-02 -1.06775174e-02 -2.06182133e-02 -9.69619863e-03 -2.64621228e-02 2.06977520e-02 7.72380503e-03 -1.88813470e-02 1.85758737e-03 -1.46918828e-02 6.54350501e-03 1.09031592e-02 9.45106335e-03 1.61443930e-02 1.41525017e-02 -9.24854074e-04 3.80036281e-03 2.11683288e-02 7.11755548e-03 1.90929249e-02 -2.96526658e-03 5.37310541e-03 -2.72012595e-03 -1.17695276e-02 1.33547531e-02 1.39456559e-02 1.24590462e-02 2.42000241e-02 -1.02525000e-02 -8.12579691e-03 -2.32438147e-02 2.55472381e-02 1.53563591e-03 5.02266083e-03 -1.91360712e-02 1.80763714e-02 -4.95454529e-03 6.11791573e-03 1.11829497e-04 2.14914456e-02 2.46942956e-02 -5.28317504e-03 2.15076637e-02 -2.54808497e-02 -1.30370818e-02 1.28544271e-02 -1.57905407e-02 -1.71228331e-02
-6.31852727e-03 -1.48835098e-02 2.88755316e-02 -7.67327519e-03 -2.66788602e-02 1.89712103e-02 1.38560552e-02 -1.04787853e-02 -7.87038356e-03 -2.79475767e-02 2.38650683e-02 1.77047979e-02 -2.08401661e-02 5.53339627e-03 -2.20053997e-02 -2.59630848e-02 -2.05543358e-02 9.81151778e-03 -4.54019615e-03 -1.15333302e-02 2.24136617e-02 1.33992601e-02 -1.15147224e-02 1.65044181e-02 2.56442763e-02 1.85449421e-02 -1.33684734e-02 1.66655667e-02 1.53617281e-02 -1.55457035e-02 -2.80880276e-02 7.07454560e-03 -2.32847407e-02 -1.33927362e-02 -1.39817726e-02 -9.94266570e-03 -9.29302443e-03 2.63319388e-02 1.76956672e-02 -1.42761115e-02 2.17198655e-02 6.71086041e-03 -2.54869610e-02 -7.37872254e-03 4.95841727e-03 5.18282363e-03 1.28227565e-02 1.29385991e-02 2.64022145e-02 -5.14121819e-03 -1.36134494e-02 -2.60545015e-02 -8.96237232e-03 -2.29557194e-02 8.89592897e-03 1.55969458e-02 1.53084183e-02 -1.12443008e-02 2.12385040e-02 2.39596739e-02 1.58269387e-02 -1.04672769e-02 -1.78445391e-02 1.11363856e-02 -6.89070113e-03 4.18132124e-03 2.78001428e-02 1.06342835e-02 6.59496477e-03 -2.32648421e-02 -1.31844310e-02 2.10725423e-02 -1.68312676e-02 -2.33275685e-02 -1.01370523e-02 -1.31396456e-02 1.49701303e-02 2.30595116e-02 2.37946473e-02 2.68088430e-02 5.78687899e-03 -6.26018597e-03 -2.70276275e-02 -2.31628045e-02 -2.45633777e-02 6.37389533e-03 -6.04348630e-03 -2.64062397e-02 -1.54877873e-02 -1.10435123e-02 1.16943317e-02 -1.30886873e-02 -7.67212175e-03 -2.34752949e-02 -4.47532348e-03 1.55436900e-02 -2.05517970e-02 2.52414718e-02 2.02813465e-02 2.27686688e-02 7.76445912e-03 9.60926339e-03 8.14365968e-03 -1.80151816e-02 1.11294612e-02 1.53122935e-02 2.56056320e-02 2.34814696e-02 -9.17380489e-03 1.82121601e-02 1.19370893e-02 -2.11961195e-02 1.67706925e-02 -1.85413603e-02 5.12313703e-03 2.36034710e-02 1.93362571e-02 1.12716286e-02 7.64276367e-03 1.03877801e-02 1.03272013e-02 7.73543585e-03 8.23235791e-03 -2.90939249e-02 -1.33684091e-02 1.35197127e-02 -2.29192190e-02 -2.05579009e-02 2.80627310e-02 -2.58239806e-02 2.71378551e-02 -1.30483601e-02 2.60972977e-02 -1.36354798e-02 1.54705858e-02 1.12108458e-02 -2.26675645e-02 1.49266208e-02 7.05519039e-03 1.95217002e-02 9.81434714e-03 -2.39665881e-02 -1.59222037e-02 1.16513660e-02 -1.38329891e-02 9.36380122e-03 1.00737121e-02 1.75411138e-03 1.97550971e-02 2.23658085e-02 2.46578660e-02 1.31549854e-02 -1.00176698e-02 1.34752039e-02 6.22035190e-03 2.17784848e-02 1.57091375e-02 2.70978510e-02 1.95108764e-02 -7.29846163e-03 2.35011317e-02 1.07486751e-02 1.67882945e-02 5.17520728e-03 1.24512007e-02 -1.55967493e-02 -2.02039536e-02 2.34719925e-02 1.16482666e-02 1.69171225e-02 1.58525649e-02 -2.19061133e-02 -2.84999497e-02 -2.78877374e-02 1.94204319e-02 -2.60960441e-02 -2.62671113e-02 2.52039488e-02 1.73128992e-02 1.06051089e-02 -2.38313191e-02 -1.06031597e-02 2.02916730e-02 -1.09799355e-02 -2.53820028e-02 8.07989668e-03 -2.48651877e-02 4.25466569e-03 -1.69619005e-02 1.89787857e-02 1.25090992e-02 1.84439775e-02 -2.05919705e-02 -2.97761708e-02 1.15089752e-02 -2.64608767e-02 1.21534523e-02 -1.17916232e-02 1.72999129e-02 1.71460379e-02 -2.42785458e-02 4.68316860e-03 -1.25455130e-02 6.70451252e-03 2.75911018e-02 -1.47284418e-02 -1.69730280e-02 -1.41772898e-02 -1.92468911e-02 -2.85570491e-02 -1.87433790e-02 -8.11293535e-03 -8.45646486e-03 2.38459408e-02 1.82121098e-02 -9.45194717e-03 1.97687633e-02 -2.63947193e-02 7.99732376e-03 2.54659802e-02 1.76841728e-02 2.53029168e-02 1.88227426e-02 -1.30757270e-02 8.17619637e-03 2.79757529e-02 7.68398261e-03 2.13499479e-02 -2.16842368e-02 2.26171874e-02 -8.71764682e-03 -2.95569971e-02 2.13286709e-02 1.07732816e-02 1.61455832e-02 1.87248532e-02 -1.02994023e-02 -1.35395126e-02 -1.72778834e-02 2.26036645e-02 5.44220442e-03 1.40509699e-02 -2.56869383e-02 4.67579253e-03 1.77995171e-02 1.32013382e-02 -9.41695739e-03 2.61650272e-02 1.46129932e-02 -1.10388547e-02 9.86085925e-03 -2.46696081e-02 -8.56885687e-03 2.11705547e-02 -1.95980910e-02 -2.51847971e-02
-4.35232511e-03 -1.67021845e-02 6.81324909e-03 -2.03544907e-02 -2.11129952e-02 1.31547367e-02 2.43173521e-02 -1.81273520e-02 -1.17206983e-02 -1.46877381e-03 1.31878620e-02 5.10267564e-04 -1.51402131e-02 3.52192530e-03 -3.32926726e-03 -5.32546872e-03 1.17229414e-03 1.45360660e-02 -9.34774615e-03 -5.76568861e-03 1.44296130e-02 8.98590218e-03 -1.36451004e-02 1.17362393e-02 1.52743664e-02 1.82126649e-02 -1.33759482e-02 9.09411721e-03 2.21899822e-02 -1.43860579e-02 -7.48276757e-03 2.62078200e-03 -1.80178862e-02 -2.26351526e-02 -1.95583347e-02 -1.04412762e-02 -1.11319982e-02 5.38745848e-03 2.04348359e-02 -2.29963986e-03 1.82236210e-02 8.07315204e-03 -7.75679713e-03 -2.83807097e-03 6.11148542e-03 1.99028365e-02 2.62200978e-04 -7.11668981e-04 1.28922360e-02 7.16076884e-03 6.33563939e-03 3.16157239e-03 -9.76919755e-03 1.03559996e-05 7.37723894e-03 -9.78832319e-03 2.10504625e-02 -2.59016845e-02 1.80373881e-02 1.69378351e-02 2.46988218e-02 -4.78967978e-03 -2.44292375e-02 1.51549969e-02 -7.95310922e-03 9.67042055e-03 -8.10800679e-03 -3.88231082e-03 9.01206955e-03 -7.47432606e-03 -1.42027959e-02 -6.16347184e-03 -1.69444159e-02 -1.62160711e-03 -4.42873687e-03 -4.58653929e-04 7.13160774e-03 6.45791087e-03 1.02674356e-02 1.62286597e-04 1.66219622e-02 -1.00887362e-02 -6.22049393e-03 -1.57064348e-02 -1.05019123e-03 3.43242893e-03 -9.07705911e-03 2.00347928e-03 -2.17145272e-02 -2.93652974e-02 4.96218912e-03 -5.36914123e-03 -3.41560785e-03 -1.31270022e-03 -4.17340687e-03 2.14526542e-02 -1.56637537e-03 1.29780369e-02 3.56879877e-03 1.83267239e-02 4.83560562e-03 4.49935906e-03 3.91998282e-03 -6.30269712e-03 2.06013341e-02 1.13689480e-02 2.29048841e-02 9.58179124e-03 -7.79199041e-03 -9.73580754e-04 -1.72048970e-03 -7.13875843e-03 3.12412652e-04 -6.03825133e-03 1.50471190e-02 4.59705247e-03 3.24536627e-03 9.23947338e-03 -4.22552635e-04 2.24704817e-02 1.83194727e-02 1.58695865e-03 3.22008436e-03 -4.17423761e-03 -1.80408843e-02 -3.21050175e-03 -1.48572074e-02 -9.09133907e-03 -3.85490450e-04 -2.29870845e-02 1.92193128e-02 -1.14893215e-02 2.33176108e-02 -1.84462313e-02 1.30448071e-02 4.11028368e-03 -2.51128175e-03 2.40647271e-02 1.15824500e-02 5.46999834e-03 2.91211884e-02 -1.15896193e-02 -1.93751063e-02 2.07757037e-02 -1.70585550e-02 1.67788249e-02 -5.53890690e-03 3.04679223e-03 -7.00522214e-03 8.30665417e-03 -1.40681467e-03 1.50166731e-02 -1.07038568e-03 1.28816292e-02 1.42749557e-02 2.02198345e-02 9.41772200e-03 1.19612888e-02 1.42848575e-02 -1.81486681e-02 -7.06550526e-03 -1.42868492e-03 4.36315360e-03 1.78964355e-03 1.38233462e-02 -4.47933888e-03 4.10721777e-03 1.17703844e-02 2.29436029e-02 1.22216530e-02 1.29219647e-02 -2.16193926e-02 -1.51709057e-02 -4.29137703e-03 3.75022879e-03 -2.41410919e-02 1.51483354e-03 -1.44766318e-03 1.06785903e-02 9.80265788e-04 -1.51020391e-02 -1.93854664e-02 -4.99738799e-03 -8.94247275e-03 4.97252971e-04 -6.31859107e-03 -1.52524316e-03 3.09974444e-03 -7.30862003e-03 -3.26872338e-03 -6.32878440e-03 7.59427529e-03 -9.90616065e-03 -1.41797559e-02 1.20705692e-02 -1.31814200e-02 2.18408331e-02 -2.69134287e-02 2.24538725e-02 1.06412377e-02 -1.22750942e-02 1.26196183e-02 -1.40225366e-02 2.90662069e-02 8.77925381e-03 -4.53662593e-03 -5.18244226e-03 -1.54639529e-02 -8.20321310e-03 -4.55567148e-03 -1.15895858e-02 -2.25996803e-02 -4.90649743e-03 2.59459764e-02 2.48902431e-03 -8.30698200e-03 5.48164779e-03 -3.02763842e-02 2.31404416e-02 3.16819362e-03 1.57831274e-02 5.30862901e-03 1.22656925e-02 -1.31557966e-02 2.27619819e-02 1.38494764e-02 1.33576654e-02 1.31989121e-02 -1.25405146e-02 2.55664811e-02 1.18909415e-03 -1.64513011e-02 1.69661064e-02 4.69329039e-04 1.08133480e-02 3.41615826e-03 -2.25298498e-02 -1.84369031e-02 -1.45424772e-02 2.14451905e-02 1.68064367e-02 8.80583003e-03 -1.72057357e-02 1.23639246e-02 1.40430848e-03 1.62143074e-02 -1.51251992e-02 1.44348796e-02 2.48650857e-03 -9.01099294e-03 1.12868128e-02 -1.95187647e-02 -1.13639375e-02 1.77761838e-02 -1.86314825e-02 -1.21214651e-02
-1.71319284e-02 -1.69025809e-02 2.12456062e-02 -1.44434283e-02 -5.28709823e-03 1.48208095e-02 2.56452449e-02 -2.55785808e-02 -2.76578031e-03 -5.32696443e-03 1.28776897e-02 2.43981276e-02 -1.79566685e-02 2.73252791e-03 -1.77971402e-03 -1.35544147e-02 1.21006335e-03 1.16408039e-02 -4.10426874e-04 -4.87486692e-03 2.63852384e-02 5.93744311e-03 -1.68271400e-02 1.83409806e-02 1.12020923e-02 1.65539011e-02 -1.44104697e-02 1.71392541e-02 1.03490762e-02 -6.70448830e-03 -7.48809427e-03 3.75104044e-03 -7.95835163e-03 -2.04083454e-02 -7.72773754e-03 -1.85525753e-02 -1.71861257e-02 8.49845540e-03 1.38766756e-02 -1.54466014e-02 1.16094034e-02 1.25467852e-02 -1.16118249e-02 -3.51541676e-03 9.55439545e-03 2.61638425e-02 9.13989544e-03 1.70818549e-02 1.44485654e-02 -1.23965146e-03 -4.40285122e-03 -1.95503533e-02 -1.37616629e-02 -6.85704919e-03 3.09442123e-03 4.90100635e-03 1.06020262e-02 -2.09488813e-02 7.11641088e-03 2.44441535e-02 2.09885351e-02 -6.51664846e-03 -2.74277199e-02 1.51407141e-02 -1.23874629e-02 4.32979024e-04 4.30315407e-03 -3.97893926e-03 2.04397608e-02 -1.91651918e-02 -3.41709405e-02 8.76834337e-03 -1.87608562e-02 -2.84432564e-02 -1.46784512e-02 -1.83392316e-02 2.43279058e-02 2.46042237e-02 1.53110102e-02 1.28433751e-02 9.24657937e-03 -1.25293881e-02 -9.55516193e-03 -1.84251145e-02 -1.76684204e-02 1.57332849e-02 -4.01776936e-03 -1.71440989e-02 -2.61368211e-02 -1.44561322e-03 1.71044525e-02 -1.57667045e-02 -1.23663880e-02 -1.00069307e-02 -3.47223901e-03 1.17387753e-02 -2.27928180e-02 1.79584473e-02 2.72339415e-02 2.27506962e-02 2.18524281e-02 2.01189797e-02 1.50270499e-02 -1.70557778e-02 1.39532061e-02 2.39963066e-02 1.50162056e-02 1.60924869e-03 -1.74003169e-02 1.47469938e-02 6.19748235e-03 -1.65559985e-02 3.16058658e-03 -9.77238640e-03 7.33077805e-03 1.68377310e-02 2.77169198e-02 7.03930249e-03 8.46273173e-03 2.04995945e-02 1.48886517e-02 6.27170131e-03 1.95581447e-02 -1.75283216e-02 -1.46039138e-02 1.91666484e-02 -2.41217613e-02 -1.75589770e-02 2.69396268e-02 -1.42653855e-02 6.64642220e-03 -4.24955646e-03 2.33175140e-02 -6.88216416e-03 1.99277960e-02 2.73355991e-02 -7.68588763e-03 1.26540316e-02 2.34383941e-02 1.47423949e-02 1.10791214e-02 -4.85678017e-03 -2.58823149e-02 1.98343582e-02 -2.43864004e-02 2.04744488e-02 1.77799035e-02 6.57744752e-03 1.25364251e-02 2.31502298e-02 4.59608622e-03 1.00081377e-02 -2.57266941e-03 1.49802240e-02 -1.95156399e-03 2.93573570e-02 1.85638703e-02 2.76542027e-02 7.99444783e-03 -6.14282954e-03 1.22809336e-02 5.89882117e-03 2.53754742e-02 1.37443943e-02 8.00889917e-03 -4.15280089e-03 -1.84835512e-02 1.45873856e-02 2.01864224e-02 7.00339675e-03 1.66397206e-02 -2.63074301e-02 -2.16314681e-02 -8.51040613e-03 1.97827611e-02 -1.54901855e-02 -4.62568505e-03 9.19945538e-03 1.00691766e-02 2.11824179e-02 -3.47653008e-03 -1.44483838e-02 1.51261222e-02 -1.51141230e-02 -1.60058476e-02 1.94880590e-02 -1.17393797e-02 4.90503013e-03 -1.07995020e-05 1.83202587e-02 1.42186256e-02 1.24375140e-02 -3.01603116e-02 -1.03197647e-02 2.14933138e-02 -1.14207333e-02 2.03211717e-02 -1.61211267e-02 7.56959291e-03 2.29325593e-02 -1.52413715e-02 4.32414981e-03 -1.16772866e-02 2.87196785e-02 1.83835533e-02 -1.39871789e-02 8.69752723e-04 -2.04676930e-02 -2.53358725e-02 -2.03698911e-02 -2.37890240e-02 -2.10535191e-02 -2.63430532e-02 1.23157492e-02 1.20103154e-02 -2.85594389e-02 1.15535865e-02 -9.58082266e-03 1.33384652e-02 1.65021662e-02 1.31043727e-02 6.66186796e-04 2.59937663e-02 -3.14574252e-04 2.57997904e-02 9.44446959e-03 1.51862251e-02 1.29507557e-02 -9.72556602e-03 1.03079276e-02 -2.09614318e-02 -2.47875229e-02 2.23978274e-02 2.60746703e-02 6.42328616e-03 1.49500277e-02 -7.96590652e-03 -2.04548463e-02 -1.37863709e-02 2.55890619e-02 1.22617343e-02 2.11420543e-02 -1.72614567e-02 4.16314928e-03 -1.67952792e-03 1.83850955e-02 -2.01187991e-02 5.39063662e-03 1.23278936e-02 -1.87944733e-02 1.90227777e-02 -1.49825811e-02 -1.12168957e-02 2.61343699e-02 -9.66714974e-03 -2.02461593e-02
-2.45037191e-02 -1.85105633e-02 9.14237835e-03 -2.29884125e-02 -2.75371573e-03 1.21591082e-02 1.56070730e-02 -1.18162772e-02 3.59490886e-03 -2.21776757e-02 1.94980167e-02 6.99004298e-03 -9.18896520e-04 1.05951456e-02 2.36513792e-03 -9.57647152e-03 8.04793742e-03 -1.21815060e-03 2.26060743e-03 -3.43234604e-03 1.61118843e-02 1.61842222e-03 3.99408536e-03 7.83274975e-03 1.34967407e-03 1.17237226e-03 -1.54218520e-03 1.12029444e-02 3.57485889e-03 9.96692106e-04 -1.08641982e-02 8.71929061e-03 -1.48812737e-02 -1.35278609e-02 4.86189919e-03 3.05037276e-04 -8.90681986e-03 2.93907244e-03 2.28578616e-02 -3.48306820e-03 1.68745946e-02 1.40550826e-02 -2.21281201e-02 -4.80490318e-03 1.35212867e-02 6.47495175e-03 8.91181361e-03 -2.65599112e-03 -7.75469525e-04 -8.65754485e-03 3.00123054e-03 -1.37029700e-02 -1.31096859e-02 -4.31176601e-03 2.75933882e-03 1.80323783e-03 1.68810599e-02 -1.11425109e-02 4.48605325e-03 1.71518922e-02 2.87076663e-02 -2.53640320e-02 -1.19268009e-02 7.62089947e-03 -3.06767784e-03 1.83937475e-02 1.28523558e-02 2.83087837e-03 2.76064966e-03 1.39900332e-03 -2.48405095e-02 -1.15019422e-04 -7.90224969e-03 -2.30280664e-02 -5.19595575e-04 -5.22142928e-03 4.59413463e-03 1.14199519e-02 7.48966588e-03 1.24800224e-02 1.61780920e-02 1.48505932e-02 -4.49818652e-03 -1.73619110e-02 -1.01608168e-02 1.12856366e-02 4.54805139e-03 -6.02246262e-03 -2.25662738e-02 -1.16661401e-03 1.67039242e-02 -7.26621924e-03 5.07546542e-03 -7.74236210e-03 -5.67313191e-03 2.26065908e-02 -7.99175166e-03 1.59090124e-02 1.51183922e-02 3.99378967e-03 1.13281580e-02 1.45471366e-02 -1.05290869e-02 -8.94543529e-03 1.44490227e-02 1.69223417e-02 -4.77617327e-03 1.16598932e-02 -2.02215253e-03 1.64299794e-02 1.46832485e-02 -1.88862775e-02 7.30286818e-04 -4.23039077e-04 1.91002134e-02 3.42221087e-04 1.55518400e-02 1.00709517e-02 2.27410309e-02 7.03752553e-03 1.33681959e-02 -3.09039978e-03 1.51527962e-02 -1.40119419e-02 -6.29277248e-03 1.61010511e-02 -1.18136093e-04 5.35349734e-03 2.75978632e-02 -1.76182538e-02 1.33799380e-02 -1.99544877e-02 -5.78010827e-03 -9.04526748e-03 1.53815374e-02 1.98551957e-02 -9.52237751e-03 7.22627249e-03 7.07609719e-03 7.14563532e-03 9.16408282e-03 -1.93691719e-02 -1.62710454e-02 1.76189374e-02 3.96152696e-04 1.28627550e-02 5.92302671e-03 -1.30522985e-03 6.43371930e-03 1.02790426e-02 -2.07300554e-03 1.25765717e-02 -3.54404375e-03 4.00160393e-03 6.05181733e-04 1.76781062e-02 5.20916982e-03 1.70925574e-03 1.42408255e-02 -4.49890317e-03 -1.15129852e-03 2.77192937e-03 3.03162984e-03 1.57968211e-03 1.45015059e-04 -2.93580513e-03 -1.89891439e-02 1.15869287e-02 3.28709109e-04 1.66664086e-02 1.01279235e-02 -1.63803715e-02 -1.21099725e-02 -1.73569322e-02 2.85357200e-02 -1.65897384e-02 -3.19960481e-03 1.74795948e-02 1.20903356e-02 -4.74050641e-03 5.35831321e-03 -1.02896020e-02 -9.25326068e-03 1.14050964e-02 6.09480310e-03 -5.24565519e-04 -1.20092579e-03 2.69365124e-03 5.45473630e-03 -4.65216301e-03 1.46093136e-02 1.17474440e-02 -1.32425111e-02 -6.44433172e-03 7.55288545e-03 -2.20066439e-02 -1.38494244e-03 -5.61218197e-03 2.12227274e-02 3.48297413e-03 -8.08628928e-03 1.24196392e-02 -1.53039198e-03 2.28056256e-02 5.08377422e-03 1.14141880e-02 1.30890235e-02 -1.11821434e-02 -8.62118136e-03 -2.01835297e-02 -4.85787541e-03 1.52170693e-03 -2.82721110e-02 1.52393850e-02 1.02694556e-02 -1.34139815e-02 1.29316328e-02 -8.02119635e-03 -7.33616436e-03 1.41728166e-02 1.77410897e-02 6.72765821e-03 2.00482365e-02 -1.53532820e-02 1.82819944e-02 9.56538040e-03 6.31497096e-05 7.40026543e-03 -7.47475959e-03 1.00047477e-02 -2.35473253e-02 -2.51126178e-02 2.26390511e-02 2.18073651e-03 2.17575077e-02 7.33692991e-03 -5.20106638e-03 -2.60696514e-04 -1.39638046e-02 7.92254694e-03 -9.09825880e-03 1.54166147e-02 -2.28562318e-02 1.21026337e-02 -6.45375485e-03 -7.40546593e-03 1.22653262e-04 2.14311089e-02 1.11431144e-02 -5.15496777e-03 2.55505312e-02 -5.71072893e-03 -5.08460123e-03 6.23139320e-03 -3.65649140e-03 -1.20112421e-02
-3.27733508e-03 -6.44023716e-03 7.66635500e-03 -6.59304252e-03 5.60931294e-05 1.14114536e-02 3.30316275e-03 -1.01795839e-02 -7.55631272e-03 2.29489617e-03 1.32826008e-02 1.61099788e-02 -7.73322210e-03 -6.21078303e-04 9.68614034e-03 -1.11723477e-02 -1.34447205e-03 4.39615315e-03 1.28555493e-02 -6.52081426e-03 -7.69641250e-03 -7.05263927e-04 -1.99751998e-03 8.32597539e-03 7.16228737e-03 2.34491215e-03 3.86687741e-03 -5.70215518e-03 5.38729178e-03 -3.13158752e-03 -1.85405568e-03 1.50301429e-02 -2.36363895e-02 -6.00122195e-03 2.95562786e-03 -3.00861750e-04 -2.62604165e-03 8.44274461e-03 1.97696872e-02 -1.36363730e-02 1.96570437e-02 5.63186686e-03 -1.14877662e-02 -1.00904172e-02 1.11271320e-02 7.13987974e-03 2.76506040e-03 -6.84060669e-03 -2.58287950e-03 -7.05339888e-04 -7.88479298e-03 1.07595325e-02 -1.16043845e-02 -1.20917587e-02 1.97066716e-03 -3.59257637e-03 3.03898612e-03 -1.26378033e-02 7.29232049e-03 9.59777180e-03 1.56375561e-02 -3.53766582e-03 -2.93379242e-04 1.39024770e-02 -6.61017280e-03 -5.21771843e-03 3.64095729e-04 -1.81823806e-03 9.95251234e-04 2.25537969e-03 -2.12220270e-02 5.96881565e-03 -1.48138441e-02 7.52705848e-04 -1.38683803e-02 2.43065809e-03 2.59783561e-03 -5.17206313e-03 1.13847842e-02 2.06981879e-03 -3.19625461e-03 -2.48994422e-03 -8.66805494e-04 -4.53038432e-04 -1.67184584e-02 -4.84442525e-03 -2.87305494e-03 3.03201494e-03 -1.01830782e-02 -1.58156045e-02 8.97944253e-03 -1.64697468e-02 -5.98632125e-03 8.12770054e-03 5.43035241e-03 1.18992459e-02 5.24628442e-03 2.93942797e-03 9.14820703e-04 -6.87868940e-03 4.80087521e-03 -4.69983788e-03 -4.66434006e-03 -1.21349012e-02 3.31618078e-03 -4.01160540e-03 9.73469578e-03 1.04002235e-03 4.62332554e-03 2.85577774e-03 9.84784402e-03 -1.55567424e-02 8.19371268e-03 -1.19263986e-02 -1.22177904e-03 -8.24498944e-03 1.17610432e-02 -2.22568098e-03 -5.47632575e-03 8.99349991e-03 -9.15847998e-03 4.31103818e-03 5.21703763e-03 -2.24191397e-02 -1.57709245e-03 5.61808283e-03 -7.52651948e-04 -5.21420129e-03 -6.81860000e-03 -6.20149355e-03 2.79723154e-03 5.12127858e-03 5.52705443e-03 -1.62527747e-02 6.64248643e-03 2.24292241e-02 -1.41929844e-02 -2.84646614e-03 3.05415248e-03 8.17189831e-03 2.70848982e-02 -1.90074090e-02 6.02863915e-03 1.05708120e-02 7.16314651e-04 1.10276518e-02 1.97141641e-03 -1.98159050e-02 -9.18629114e-04 -1.24532748e-02 -1.47327762e-02 -2.51215626e-03 -7.95082096e-03 1.45140355e-02 -8.06402508e-03 1.10107586e-02 -9.45286267e-03 -5.88307483e-03 -2.20694183e-03 -1.48274591e-02 -2.48666550e-03 2.01285351e-03 -4.74461960e-03 -1.36983916e-02 5.87082002e-03 -6.60451781e-03 -8.00507702e-03 -2.09991634e-03 1.92760546e-02 1.04810502e-02 1.44497966e-02 -7.10055325e-03 -5.04147820e-03 1.66963262e-03 6.85473578e-03 -1.37556046e-02 9.79167502e-03 -1.78083812e-03 6.84076967e-03 6.73658866e-03 2.91680172e-03 -5.03558666e-03 1.34228193e-03 -9.19896047e-05 -2.44186929e-04 8.95576552e-03 -1.15461862e-02 -2.77263485e-03 7.46478466e-03 -5.35816725e-05 8.22332501e-03 -3.78154009e-03 -1.09243598e-02 -1.96172874e-02 -2.11973372e-03 -2.53726635e-03 1.63902398e-02 -2.06849240e-02 -1.15424034e-03 1.15378108e-02 -2.58235238e-03 5.28376130e-03 2.01877323e-03 2.29320843e-02 -7.47869839e-04 -8.41250236e-04 -3.68007110e-03 -7.03808293e-03 -6.72835112e-03 1.89596065e-03 -4.81621176e-03 -1.34499781e-02 -7.44623551e-03 1.28396256e-02 1.66814192e-03 -8.44659191e-03 5.19616855e-03 -2.26932727e-02 4.71929926e-03 1.16978176e-02 1.35587724e-02 -1.65599072e-03 9.17451762e-05 -5.64450352e-03 9.85328108e-03 1.90286711e-02 -2.42377678e-03 7.55545776e-03 1.23141683e-03 1.36561664e-02 3.55231250e-03 -7.14742346e-03 1.22080222e-02 1.41187394e-02 1.49062211e-02 -5.66906109e-03 6.22209860e-03 4.39147744e-03 -3.02147325e-02 1.09777134e-02 -4.66707442e-03 4.65692440e-03 -2.01932993e-02 1.14019178e-02 -2.73030903e-03 9.20015853e-03 -4.67923051e-03 1.63762495e-02 -3.64893209e-03 -1.63378771e-02 1.14885438e-02 -6.28304807e-03 -9.07698646e-03 1.04784602e-02 -1.15422877e-02 -8.46925599e-04
-2.24514753e-02 -2.61275042e-02 1.97267216e-02 -4.07309877e-03 -2.93834638e-02 1.00791743e-02 2.29285490e-02 -2.09601764e-02 -1.81539916e-02 -1.39633557e-02 1.80450622e-02 4.38806042e-03 -1.45336082e-02 8.74946266e-03 -8.96946993e-04 -7.43013667e-03 -7.74804130e-03 1.61398686e-02 -1.44927567e-02 -4.94901324e-03 2.14599147e-02 7.58242328e-03 -9.56664234e-03 1.33700874e-02 9.21296608e-03 2.34562680e-02 -1.46920290e-02 1.95322614e-02 2.53536273e-03 -2.07173601e-02 -1.70418266e-02 2.38868985e-02 -2.43833717e-02 -1.61654204e-02 -2.82419827e-02 -9.52245668e-03 -1.95654649e-02 1.73797887e-02 1.20044146e-02 -1.88425109e-02 1.30183399e-02 1.28848478e-02 -5.94679033e-03 -2.44065449e-02 2.42599826e-02 2.16644462e-02 5.09754475e-03 8.18885863e-03 1.13765299e-02 -2.39019422e-03 -3.52177559e-03 -1.50668835e-02 -2.03805752e-02 -1.96838677e-02 1.52327418e-02 1.13699678e-02 1.95253063e-02 -1.23373866e-02 1.92524549e-02 2.18077600e-02 1.02693308e-02 -5.98565256e-03 -1.97678823e-02 2.03378350e-02 -1.46928420e-02 9.41043068e-03 -2.80134380e-03 -3.22794588e-03 1.61572602e-02 -1.87544730e-02 -2.09334884e-02 9.90182068e-03 -2.17345003e-02 -1.07641714e-02 -1.61337722e-02 -1.66119989e-02 2.47571338e-02 1.40435128e-02 1.71642657e-02 1.35388132e-02 7.49210501e-03 -2.88777631e-02 -2.46356037e-02 -6.11499185e-03 -2.27511730e-02 5.71385445e-03 -4.47251648e-03 -3.91673762e-03 -2.28541698e-02 -2.06843410e-02 4.35053278e-03 -6.86020707e-04 4.57248790e-03 -9.90316644e-03 -6.95793005e-03 1.97566804e-02 -8.97944905e-03 9.81874578e-03 1.25898803e-02 1.40724387e-02 7.29632797e-03 1.93559245e-04 1.80358738e-02 -8.65162816e-03 7.63976341e-03 3.62963998e-03 2.93440651e-02 8.01664195e-04 -1.37722129e-02 7.93119799e-03 2.34543346e-02 -1.88132301e-02 8.14344455e-03 -1.26677146e-02 2.29969490e-02 1.08028594e-02 2.35320926e-02 1.87923927e-02 1.77548453e-02 1.38225984e-02 1.54730082e-02 2.01173387e-02 8.32411367e-03 -1.05460370e-02 -9.06425528e-03 2.07995027e-02 -9.84888431e-03 -8.83954111e-03 2.42807101e-02 -6.63315877e-03 2.56688930e-02 -2.04631556e-02 2.04809401e-02 -2.04478838e-02 2.19857180e-03 1.50336698e-02 -2.53635105e-02 2.14850754e-02 7.94659369e-03 1.68721732e-02 3.15091424e-02 -6.95539871e-03 -1.83945633e-02 1.12875616e-02 -1.74685065e-02 1.97313558e-02 1.87927186e-02 -2.29353625e-02 1.19026061e-02 1.04544964e-02 3.09774023e-03 5.40530367e-04 -8.93448573e-03 2.38244142e-02 1.71251856e-02 1.77456886e-02 5.07647917e-03 1.07588125e-02 6.39832206e-03 -9.87091381e-03 1.00016808e-02 1.16509087e-02 3.63430916e-03 -5.04278438e-03 1.05510466e-02 -1.52800838e-02 -1.48806479e-02 5.36363944e-03 8.26056208e-03 8.68689921e-03 1.84391625e-02 -2.20188145e-02 -1.96449924e-02 -8.62830691e-03 7.74572603e-03 -2.22234409e-02 -1.89851392e-02 7.49690551e-03 9.67182685e-03 1.49310171e-03 2.27388507e-03 -8.00753664e-03 2.89719115e-04 -1.71589088e-02 -1.92996971e-02 8.62438418e-03 -1.42134866e-02 9.78941936e-03 1.21772417e-03 -1.20849512e-03 -3.94508289e-03 1.64789744e-02 -1.50886206e-02 -1.90730579e-02 5.95866702e-03 -4.33042971e-03 3.08132172e-02 -2.35953424e-02 1.64021570e-02 1.88076198e-02 -7.80370785e-03 -2.24266754e-04 -1.39618544e-02 1.76355559e-02 1.00872908e-02 -1.15578696e-02 -8.81206896e-03 -2.24186406e-02 -2.56327763e-02 -1.32172005e-02 -2.20878664e-02 -2.96514798e-02 -1.86914317e-02 2.17053611e-02 9.05150268e-03 -2.25788206e-02 1.55026438e-02 -2.35516857e-02 2.19073705e-02 1.43096335e-02 1.51457107e-02 2.06988268e-02 1.18472483e-02 -1.57036707e-02 1.81176048e-02 9.39653162e-03 1.40681667e-02 1.00156171e-02 -9.72345658e-03 2.55747754e-02 -1.17096100e-02 -1.59798861e-02 1.36327336e-03 2.05143653e-02 4.69514262e-03 2.44958196e-02 -2.23318059e-02 -6.38024323e-03 -2.98318584e-02 1.46072162e-02 1.51945082e-02 2.01065056e-02 -6.14239462e-03 1.70887709e-02 -7.12084910e-03 1.87767055e-02 -1.92865916e-02 2.13843007e-02 2.20091976e-02 -1.32388780e-02 2.70518865e-02 -1.84965488e-02 -1.32188061e-02 8.21706001e-03 -1.39148654e-02 -2.62737442e-02
