-1.54253962e-02 -1.50335431e-02 2.35098992e-02 -1.28448606e-02 -4.58174990e-03 2.01734458e-03 2.19084416e-02 -5.49993012e-03 -7.59622641e-03 -8.16893950e-03 -1.51637709e-03 2.04790365e-02 -3.34900082e-03 1.12482393e-02 -1.23743424e-02 -1.47483256e-02 9.54016764e-03 1.80140939e-02 1.12415096e-02 -9.07000247e-03 5.43500343e-03 8.36141128e-03 1.07263438e-02 1.24572385e-02 9.78070870e-03 3.71077307e-03 -1.22061204e-02 -4.05730680e-03 -5.50418277e-04 8.51122290e-03 -2.57833791e-03 -5.32923825e-03 -1.27548212e-02 -3.11822910e-03 -2.09336802e-02 -1.01788202e-02 -4.06504958e-04 5.04418276e-03 1.29797794e-02 -8.87384824e-03 1.04936231e-02 1.40750175e-02 -6.88252598e-03 4.95416718e-03 -4.46039299e-03 1.35934381e-02 1.45642264e-02 1.86821483e-02 -5.95760811e-03 -2.55222060e-03 7.81549979e-03 -1.36830611e-02 2.61711446e-03 -1.25799011e-02 1.07103968e-02 6.18490763e-03 4.66362759e-03 -1.62515305e-02 1.51346466e-02 1.02929352e-02 3.06000151e-02 -2.35132109e-02 -6.97495369e-03 9.69679467e-03 -6.21093856e-03 1.05013428e-02 1.62511859e-02 2.25042435e-03 3.25599685e-03 -1.78913902e-02 -1.32753365e-02 4.74568084e-03 1.71557663e-03 -1.80324465e-02 -1.05398968e-02 -1.39208902e-02 3.43746948e-03 2.21151486e-02 9.57116112e-03 2.09763963e-02 -7.41242955e-04 -5.29326452e-03 1.85582461e-03 -1.42462896e-02 -1.21121090e-02 -1.77774741e-03 6.11166516e-03 -1.00360438e-02 1.60170346e-03 -3.46136256e-03 1.58720613e-02 -3.55603290e-04 6.10690610e-03 -5.87358186e-03 -1.31789716e-02 1.96098480e-02 -7.36264931e-03 1.03359437e-02 1.83029491e-02 9.84603976e-05 -1.83522771e-03 5.40234102e-03 -6.87937113e-03 -1.78186335e-02 7.85132125e-03 1.09545980e-02 8.65425542e-03 1.33146364e-02 -2.46072072e-03 1.06398668e-02 -9.71820089e-04 5.63515292e-04 9.94275324e-03 2.58302363e-03 9.18203499e-03 -4.77683637e-03 6.72815042e-03 6.13803091e-03 1.66224386e-03 8.37838335e-04 2.16597994e-03 -1.83926488e-03 1.47662284e-02 -1.61553044e-02 -7.01260753e-03 -1.10979658e-03 -1.66220572e-02 5.64891496e-04 2.26456448e-02 -2.30443645e-02 1.48589592e-02 -1.40507119e-02 -2.69343052e-03 -2.40145884e-02 2.15369407e-02 2.08593793e-02 -2.46202294e-02 6.32400205e-03 1.42662814e-02 -1.17888849e-03 2.13686880e-02 -2.49080360e-02 -1.60887279e-02 1.42320218e-02 -1.44107835e-02 7.48263346e-03 1.86839036e-03 -4.00597975e-03 -4.99344082e-04 1.80900674e-02 -5.03681786e-03 4.20728792e-03 -1.17434328e-02 -1.01407792e-03 3.70400818e-03 2.09923629e-02 -5.87913580e-03 5.50722610e-03 9.65100154e-03 -1.84163265e-03 1.01489788e-02 7.24744459e-04 5.11543779e-03 8.20345059e-03 1.16341151e-02 -1.20499833e-02 2.28071632e-03 -4.97216592e-03 6.06491836e-03 7.23625440e-03 1.61837805e-02 -2.59764809e-02 -1.43832788e-02 -1.81338796e-03 7.05706514e-03 -1.73442606e-02 -8.59049801e-03 -5.38270036e-03 1.59540046e-02 4.48562670e-03 -1.38837378e-03 -1.71950050e-02 -1.27613370e-03 4.32935962e-03 -6.20753795e-04 -2.72340397e-03 2.40602251e-03 9.13740043e-03 1.05434714e-03 3.72742419e-03 5.25475107e-03 -8.48394167e-03 -1.98009759e-02 -1.09523311e-02 1.77448858e-02 -1.05098737e-02 5.47803566e-03 -1.26507282e-02 1.68436356e-02 7.26865092e-03 -1.41839739e-02 -6.49998756e-03 -1.13728559e-02 8.58821999e-03 1.03931222e-02 -8.41572008e-04 8.92864540e-03 -1.62512939e-02 -2.19164062e-02 -1.32000353e-02 -4.42152796e-03 -1.49664748e-02 -2.27624960e-02 8.29189550e-03 1.88316870e-02 -2.44406760e-02 2.28367001e-03 -8.47841147e-03 3.18168430e-03 1.56302340e-02 9.61846788e-04 -5.79481386e-03 1.67915621e-03 -4.00464376e-03 1.89597476e-02 1.20876096e-02 2.10588984e-02 6.29895134e-03 4.96243685e-03 1.16459336e-02 -4.90684342e-03 -7.32854707e-03 1.71379279e-02 2.24500569e-03 2.61788685e-02 2.79726321e-03 -4.59091156e-04 -1.70961730e-02 1.89771398e-03 2.01245137e-02 -6.99722208e-04 1.11132571e-02 -6.73315628e-03 9.40874312e-03 -6.45212131e-03 1.15950184e-03 -5.69723221e-03 1.32321632e-02 5.00026625e-03 -1.21429125e-02 1.57316048e-02 -4.46119113e-04 -2.64587104e-02 1.34265209e-02 -8.40845052e-03 -1.41949058e-02
-1.39732496e-03 -2.46836478e-03 1.77620202e-02 -1.17214397e-03 -5.08275488e-03 1.77807286e-02 8.11253395e-03 -4.37392993e-03 -6.13674009e-03 -1.01662995e-02 2.05415254e-03 1.16622094e-02 -7.97918625e-03 -5.46135008e-03 -4.55302699e-03 2.12352537e-03 1.13754673e-02 6.39587501e-03 -7.23141432e-03 1.92997255e-03 4.98052640e-03 1.14347432e-02 -9.74097755e-03 -7.47434516e-03 1.32598933e-02 1.39016630e-02 -1.05778072e-02 3.44140129e-03 5.56546124e-03 1.04520889e-03 -1.06879892e-02 9.11084935e-03 -1.96789801e-02 -1.23794815e-02 1.22778362e-03 -1.99904405e-02 -2.06174497e-02 7.65090482e-03 3.76682659e-03 -2.79607862e-04 6.56825677e-03 5.69516374e-03 -4.87422384e-03 1.16979377e-03 1.32822897e-02 1.96482204e-02 9.61678289e-03 1.20880250e-02 9.34967212e-03 -5.13891689e-03 -6.12284243e-03 -2.95981788e-03 -1.42313847e-02 -4.59139410e-04 -3.86542547e-03 -1.47174392e-02 1.93946324e-02 -1.85567029e-02 5.97909745e-03 2.51505170e-02 2.24173777e-02 -1.43664619e-02 -2.04798393e-02 1.03237284e-02 -5.53668756e-03 1.16655203e-02 1.18099581e-02 -1.64282729e-03 1.24685476e-02 -4.34899284e-03 -5.47036389e-03 5.52499481e-03 5.26326429e-03 -1.43782399e-03 -8.52562580e-03 -1.72855854e-02 1.53131131e-02 -3.77806555e-03 1.80901177e-02 1.61257535e-02 3.28664249e-03 -2.17758603e-02 -7.94321578e-03 -1.11025749e-02 -1.42884925e-02 -2.52886722e-03 -1.13250213e-02 -1.96556654e-02 -2.18292978e-03 -1.50440037e-02 5.92339505e-03 -1.47624034e-02 6.29418064e-03 5.85779641e-03 2.79098720e-04 7.77942408e-03 -1.36238534e-03 9.86708445e-04 3.43920517e-04 -4.94464720e-03 7.69009301e-03 5.00404974e-03 -4.93403384e-03 4.80089150e-03 1.14420708e-02 7.66650587e-03 1.09983236e-02 -3.85560631e-03 -1.28172841e-02 4.47221426e-03 8.51908512e-03 -6.36009965e-03 1.74393021e-02 1.90595968e-03 5.53332921e-03 -2.00751144e-03 -1.22412189e-03 7.37859262e-03 1.93963051e-02 2.46726559e-03 -2.73033138e-03 3.07926978e-03 3.02858651e-03 -7.57452007e-03 -1.09232841e-02 -2.16783397e-03 -1.46296304e-02 -1.91946309e-02 1.34618245e-02 -1.61312595e-02 1.23130307e-02 2.90378067e-03 4.52370709e-03 -1.67043619e-02 -2.60344270e-04 9.98198986e-03 -1.71021298e-02 6.60517544e-04 2.33555608e-03 2.09759176e-02 5.86318830e-03 -8.10622331e-03 -6.43575843e-03 3.09480238e-03 -4.64708963e-03 3.39227775e-03 -9.44377948e-03 1.86248985e-03 6.48072828e-03 1.80803458e-04 -7.72140129e-03 -1.04454234e-02 6.57238718e-03 1.69280805e-02 -9.08048730e-03 2.25571599e-02 1.48775952e-03 1.12469513e-02 -3.46879754e-03 8.24627466e-03 1.35651361e-02 5.73134515e-03 4.75792168e-03 -2.60688877e-03 -1.36442520e-02 -6.00960711e-03 -1.25943413e-02 -1.60697813e-03 4.77513950e-03 1.60290599e-02 9.74958763e-03 -1.19405212e-02 -8.35137814e-03 -2.17618197e-02 1.81035511e-03 -1.97366700e-02 -3.78952464e-05 1.57760121e-02 7.23213749e-03 -5.99561073e-03 1.07790844e-03 -7.75221328e-04 1.00323735e-02 -2.84757261e-04 1.09588949e-03 -1.29122967e-02 -9.77254356e-04 -6.65619096e-04 -3.14336596e-03 -7.11022690e-03 4.03346820e-03 9.98239405e-03 -1.64579656e-02 -1.76651441e-02 9.25165694e-03 -1.83621384e-02 1.96881741e-02 -2.20935009e-02 1.01255244e-02 5.98553149e-03 -1.23917516e-02 3.77566949e-03 8.76199640e-03 1.69919193e-04 1.40232197e-03 -1.30413156e-02 -1.31645026e-02 -6.51160115e-03 -7.03548640e-03 -1.78874247e-02 -5.68404282e-03 -4.78622084e-03 -1.99002642e-02 2.18252260e-02 5.08348597e-03 -2.86550564e-03 1.65380333e-02 -1.02170128e-02 6.15409762e-03 1.29469248e-04 6.55171461e-03 -5.91145502e-03 9.56292637e-03 -5.51374676e-03 1.17998337e-02 1.22137545e-02 2.85305083e-04 1.48686618e-02 -7.26421946e-04 6.78717718e-03 -6.88644173e-03 -2.92505743e-03 1.00041768e-02 -9.59094963e-04 4.50042868e-03 1.79146659e-02 -1.11378357e-03 -5.24349371e-03 -7.74560822e-03 1.93526968e-02 2.90837698e-03 -6.57266099e-03 -1.09256133e-02 1.19686751e-02 -1.80978037e-04 -2.52878806e-03 5.63402567e-03 1.55854085e-02 9.83550679e-03 -2.34793429e-03 8.83510523e-03 -1.92281289e-03 2.82416493e-03 1.29412822e-02 -9.79092158e-03 -1.45402448e-02
-4.90109576e-03 2.87804846e-02 -3.65190627e-03 -3.10259429e-03 1.84651781e-02 -2.84371525e-02 -1.70833655e-02 1.00683300e-02 2.15181392e-02 2.14306191e-02 -3.06376573e-02 5.94978081e-03 -2.91938297e-02 -6.87955180e-03 1.37207434e-02 3.29261236e-02 3.73898633e-02 -2.04373300e-01 4.65378799e-02 5.11164628e-02 -1.04485042e-01 -5.14583476e-02 -1.78139415e-02 -6.25952631e-02 2.81254556e-02 2.60088481e-02 -1.33663276e-02 -5.46777993e-03 3.68302613e-02 -4.18619253e-02 -9.34697967e-03 -2.44994741e-02 1.51058072e-02 1.11726001e-02 4.72246706e-02 3.07733174e-02 -1.49139864e-02 2.57271598e-03 -6.00240950e-04 -1.47924665e-03 1.52030280e-02 2.49951612e-02 -2.74175163e-02 -2.34754253e-02 -3.61710601e-02 2.33264919e-02 -5.12616755e-03 -2.69758888e-02 -3.56623344e-02 2.91372780e-02 5.33168763e-02 1.90626755e-02 2.23931298e-02 2.81722844e-02 -1.12299155e-02 8.36745128e-02 -4.21430990e-02 5.15053570e-02 -3.84019911e-02 -3.01847961e-02 -3.51452641e-02 6.20079525e-02 2.44846027e-02 -6.09364919e-02 1.04907630e-02 -4.81733307e-02 4.63462323e-02 2.67496035e-02 -4.03533876e-02 3.12300567e-02 4.52862643e-02 3.25927301e-03 -1.60957724e-01 -8.64154771e-02 -1.52391866e-01 -1.19540609e-01 1.68236747e-01 5.31349443e-02 1.67811513e-01 9.40449461e-02 -4.01647799e-02 8.25423151e-02 1.99897420e-02 3.64803299e-02 3.60508375e-02 3.14655229e-02 -6.33601844e-02 2.09794194e-02 1.24051413e-02 3.25840376e-02 2.73924451e-02 3.65763530e-02 -9.01364908e-03 1.56590044e-02 2.86804587e-02 -4.10451107e-02 -2.36539152e-02 -8.43037758e-03 -3.12778391e-02 -2.71729603e-02 9.24780779e-03 2.42554373e-03 4.84218225e-02 -2.53740344e-02 -2.35448554e-02 2.35615708e-02 -1.88646987e-02 3.08490936e-02 -1.54284574e-02 5.16225360e-02 1.93882529e-02 1.54118882e-02 3.50021124e-02 -3.68626714e-02 8.14708974e-03 -1.90702491e-02 -1.41905453e-02 5.81793115e-02 3.22060287e-03 1.76949967e-02 -1.37236193e-02 1.87248997e-02 -1.83469281e-02 5.47646591e-03 -1.22899711e-02 -1.06687751e-02 -1.32513768e-03 5.16083278e-03 1.05486847e-02 -7.75049394e-03 9.58476141e-02 -3.19362879e-02 6.29678220e-02 -2.51529012e-02 2.10060012e-02 5.20777702e-03 -2.49133073e-02 6.02348372e-02 1.04691021e-01 1.99638665e-01 1.47329178e-02 -9.33266953e-02 -1.28266111e-01 3.52726541e-02 1.42038264e-03 1.05126882e-02 1.98370665e-02 -5.02024870e-03 -7.78051617e-04 1.63909849e-02 4.98887384e-03 1.79008348e-03 2.26384997e-02 -1.67019162e-02 5.89394767e-05 2.37687770e-03 -5.18741831e-03 8.35998543e-03 -6.55930350e-03 1.11717945e-02 -2.63037011e-02 -2.26551350e-02 -3.71870175e-02 -1.21740028e-02 -4.32741940e-02 3.61187756e-02 1.68405678e-02 -2.56027896e-02 -2.68152524e-02 -1.20287938e-02 -1.72658525e-02 -7.93744251e-03 -4.29387949e-03 2.40850486e-02 2.71919486e-03 -8.29514023e-03 2.98550278e-02 -3.27908471e-02 4.88209836e-02 -2.44687665e-02 4.16638926e-02 4.73654009e-02 -2.84543224e-02 3.37605514e-02 4.60917428e-02 -2.06793305e-02 3.68987061e-02 -5.75181693e-02 -5.54418303e-02 2.97752246e-02 -6.69096559e-02 -5.24053238e-02 -2.29300396e-03 -2.38895305e-02 1.59980524e-02 -8.32567457e-03 2.04912969e-04 -2.15131644e-04 -2.78847758e-03 -6.12580450e-03 1.77327506e-02 -1.86765008e-02 1.90016292e-02 -5.36860153e-02 -4.19863984e-02 -1.15861306e-02 -1.52628415e-03 5.07058837e-02 -2.15616152e-02 1.62812825e-02 4.63105785e-03 -2.22663153e-02 -1.57752226e-03 4.77709994e-02 2.35942961e-03 -7.25409156e-03 -1.85337830e-02 8.08524340e-03 -6.19973466e-02 -2.13431027e-02 -2.40632575e-02 1.17439951e-03 -6.47063460e-03 -3.23558673e-02 6.84898943e-02 -1.18794804e-02 7.39951506e-02 -4.68242634e-03 -1.81825936e-01 1.76112548e-01 -1.04163783e-02 -3.40717100e-02 3.80464606e-02 -8.53720400e-03 2.20994409e-02 5.01056798e-02 -7.92995794e-04 -4.06022966e-02 2.68482277e-03 3.33277173e-02 3.17460708e-02 -2.07857694e-02 4.23259027e-02 -9.03775822e-03 -8.07914808e-02 4.08271961e-02 -3.31182256e-02 -2.82027442e-02 -1.76635217e-02 2.36252807e-02 -3.06325462e-02 2.73086084e-03 8.61068256e-03 -2.11487971e-02 5.11644827e-03 -1.92434154e-02
-2.21272837e-02 -2.63971724e-02 1.26270819e-02 -1.44776115e-02 -1.61393136e-02 2.73631085e-02 2.29403209e-02 -2.34179664e-02 -1.47372652e-02 -2.41857264e-02 2.24573705e-02 4.70324513e-03 -1.48907900e-02 1.68964695e-02 -1.40150832e-02 -1.16720479e-02 3.49778775e-03 -6.63460232e-03 -8.01057182e-03 -4.29501617e-03 5.63086104e-03 2.08256161e-03 -1.66379865e-02 3.20945377e-03 5.37672173e-03 1.11371316e-02 -7.09522562e-03 1.96435824e-02 1.26606431e-02 -2.71360157e-03 -2.31884383e-02 1.17072603e-02 -2.41152123e-02 -1.65944546e-02 -1.71271712e-02 -1.59760062e-02 -2.97438279e-02 1.35846110e-02 1.13352789e-02 -9.72110778e-03 2.11090408e-02 2.28508022e-02 -2.50096619e-02 -2.28484385e-02 6.17906963e-03 2.49136481e-02 2.53795534e-02 1.76287517e-02 1.07855233e-03 4.61693574e-03 -7.15436938e-04 -3.15801101e-03 -1.57794841e-02 -8.56255833e-03 8.47601891e-03 4.31900466e-04 7.48603418e-03 -9.56645794e-03 1.56660192e-02 2.57602371e-02 2.50339024e-02 -2.58274302e-02 -2.70041395e-02 1.74217280e-02 -1.82255283e-02 1.81063842e-02 2.04315921e-03 5.58562716e-03 1.18174208e-02 -1.02779800e-02 -2.10010596e-02 -1.00073474e-03 -6.07612170e-03 -1.40216891e-02 -4.00175061e-03 -4.08799294e-03 8.43320973e-03 1.51386410e-02 2.79413052e-02 7.24185584e-03 2.30779983e-02 -1.47256004e-02 -5.33762912e-04 -9.07875597e-03 -1.08227227e-02 -1.35352509e-02 -6.96877483e-03 -4.76462534e-03 -2.25269776e-02 -3.30049694e-02 1.65024064e-02 -2.03416198e-02 -1.62190653e-03 -6.72784168e-03 4.55578277e-03 1.73795279e-02 -1.78329982e-02 2.02766117e-02 1.73858777e-02 8.37971270e-03 2.10154825e-03 2.48515140e-02 1.88195743e-02 -1.25051867e-02 9.92456265e-03 1.28757162e-02 2.34759618e-02 1.01283109e-02 -1.96709065e-03 1.47310412e-02 7.96857011e-03 -2.03261059e-02 2.06187945e-02 -1.54890185e-02 5.45312511e-03 2.31340155e-02 2.12587486e-03 6.82236673e-03 2.44884416e-02 2.04157289e-02 1.81011278e-02 2.53292220e-03 8.78041238e-03 -2.13341173e-02 -8.41787364e-03 2.32636519e-02 -4.62555140e-03 -3.81544349e-03 1.50297433e-02 -1.22663248e-02 2.14030277e-02 -2.14704238e-02 2.77206097e-02 -1.38395838e-02 1.69936623e-02 2.11098660e-02 -4.76049446e-03 1.13809668e-02 5.53842774e-03 1.06804082e-02 1.62319392e-02 -1.94001980e-02 -2.51405332e-02 1.15265762e-02 -8.42311783e-05 -9.30339273e-04 6.60156691e-03 -1.30631374e-02 -1.13379420e-03 7.98124261e-03 1.17487116e-02 5.64050209e-03 -8.38564616e-03 2.86143497e-02 -2.22618040e-03 8.56605172e-03 1.47964098e-02 3.11258947e-03 3.54900956e-03 -1.01817213e-03 -2.08601239e-03 -2.50372896e-03 -8.87564383e-04 7.39855180e-03 -4.17524623e-03 -1.50163546e-02 -9.33798216e-03 1.40216285e-02 2.01776084e-02 2.52420623e-02 1.20306732e-02 -2.17139833e-02 -2.70682499e-02 -2.37185415e-02 2.62698215e-02 -2.63189301e-02 -1.35928974e-03 9.75475088e-03 -3.12886783e-03 1.64968930e-02 -1.59466229e-02 -2.22773757e-02 8.41704756e-03 4.47730068e-03 -3.48291156e-04 8.12811404e-03 -8.83225538e-03 1.07546225e-02 5.34656225e-04 -1.26853911e-03 7.22703943e-03 1.29325744e-02 -7.43181631e-03 -2.36764252e-02 3.51370196e-03 -1.08821215e-02 1.00439992e-02 -2.00011283e-02 1.87499840e-02 1.79831460e-02 -4.42220271e-03 7.15280697e-03 -3.57878301e-03 1.86699945e-02 4.34071384e-03 -7.65960664e-03 -1.47576639e-02 -2.09695045e-02 -2.81347036e-02 -2.47936957e-02 -1.22901415e-02 -2.06292607e-02 -8.15603416e-03 7.65728857e-03 3.48116434e-03 -1.13102579e-02 3.62247182e-03 -2.87939738e-02 1.12596136e-02 2.21036468e-02 1.59483775e-02 4.17452306e-03 5.32373367e-03 -7.19901035e-03 3.98702128e-03 7.41766999e-03 1.82948112e-02 2.15897001e-02 -1.13211926e-02 6.54069846e-03 -1.33523932e-02 -2.38845553e-02 1.67016350e-02 2.40898859e-02 1.77263096e-02 1.70758832e-02 -4.23407415e-03 -8.70143995e-03 -2.86999568e-02 1.10564921e-02 3.63920582e-03 1.90624986e-02 -4.04420635e-03 1.12262294e-02 -1.40467575e-02 1.30326254e-02 2.87703960e-03 2.71730893e-03 9.15219355e-03 -1.52482111e-02 2.17794478e-02 -2.15132721e-02 -7.30909919e-03 1.27443550e-02 -6.45959424e-03 -1.23483315e-02
-2.17265170e-02 -1.24592725e-02 2.06169672e-02 -1.55157829e-02 -2.03406904e-02 1.67094562e-02 2.55481303e-02 -2.84452755e-02 -1.90572385e-02 -1.30736195e-02 1.13036297e-02 9.50445607e-03 2.38490960e-04 7.46607454e-03 -4.35831305e-03 -1.79273996e-03 -1.64241660e-02 1.06187575e-02 -1.30834039e-02 -1.07598992e-03 1.22099218e-03 1.64760426e-02 -1.71701703e-02 1.14924861e-02 4.93421638e-03 2.31976490e-02 -1.41747864e-02 2.18867529e-02 1.54773705e-02 -7.12029077e-03 -7.54781207e-03 2.56453659e-02 -1.24513386e-02 -1.26437265e-02 -1.11834509e-02 -2.12355573e-02 -2.89704911e-02 1.01655843e-02 1.41317789e-02 -1.97160821e-02 9.10859462e-03 2.01483592e-02 -1.67690292e-02 -9.42802057e-03 1.12783099e-02 1.93157494e-02 2.48907004e-02 1.20748337e-02 3.84427491e-03 3.12117138e-03 -2.02534464e-03 -5.90650504e-03 -1.28334202e-02 -2.04925817e-02 1.33225620e-02 6.64317980e-03 2.35143378e-02 -2.66684592e-02 2.49143429e-02 2.49206424e-02 1.27244396e-02 -2.56937500e-02 -3.06608845e-02 2.74056792e-02 -5.50855929e-03 9.49499430e-04 1.57661699e-02 5.34507213e-04 4.47854167e-03 -1.39852231e-02 -1.50706973e-02 3.13941506e-03 -1.71423294e-02 -2.09613107e-02 -1.13122007e-02 -2.09239982e-02 2.44465400e-03 4.51151514e-03 3.27952392e-03 4.24910011e-03 5.41012222e-03 -2.20962390e-02 -2.37473194e-03 -5.74661326e-03 -3.46999336e-03 7.53740640e-03 -1.02663832e-02 -5.55791846e-03 -1.51438918e-02 -1.32122673e-02 1.35939773e-02 -1.23485290e-02 -2.16928520e-03 -2.04194454e-03 -1.20783206e-02 2.46845622e-04 -1.30188549e-02 2.07061972e-02 1.92337967e-02 2.17498001e-02 1.07678529e-02 2.16682367e-02 8.44684243e-03 -2.96556205e-03 8.07932299e-03 7.22384639e-03 2.56399754e-02 2.32133386e-03 -1.59050245e-02 3.67418374e-03 9.57988948e-03 -1.48022082e-02 2.32554190e-02 -2.02546623e-02 2.43868772e-02 4.65230271e-03 6.44730777e-03 2.22377535e-02 4.03920980e-03 2.46559568e-02 2.16284185e-03 1.71563607e-02 2.03843918e-02 -9.20874253e-03 -9.81704611e-03 6.51877373e-03 -1.83753651e-02 -1.48304179e-02 7.09053827e-03 -7.67448358e-03 2.64272559e-02 -1.81184877e-02 7.10489508e-03 -7.08060525e-03 1.62056368e-02 1.78887080e-02 -2.05336604e-02 5.46012027e-03 1.65254641e-02 1.07453587e-02 2.23152786e-02 -1.30346520e-02 -1.74978469e-02 1.60501376e-02 -5.61762135e-03 -4.00813478e-05 1.35906255e-02 -2.29920484e-02 6.57536834e-03 8.44607537e-04 1.45377545e-02 -3.85713251e-03 -2.00923197e-02 1.44108720e-02 -3.82799073e-03 1.86808575e-02 -2.74114381e-03 2.17739437e-02 2.01810263e-02 -7.92784989e-03 2.22150683e-02 -4.10050713e-03 1.62141677e-02 5.71019901e-03 1.50893815e-02 -1.66508742e-02 1.70498027e-03 -5.61319245e-03 1.90171432e-02 2.02652030e-02 2.74398606e-02 -1.99890397e-02 -2.81945188e-02 -1.71582066e-02 9.19988938e-03 -7.24204024e-03 -1.26566710e-02 8.21253471e-03 1.51390126e-02 1.86169259e-02 5.02998766e-04 -1.55755375e-02 8.43962282e-03 -8.82265624e-03 -1.69318449e-02 -8.06255848e-04 -1.65959690e-02 5.88775380e-03 -1.65535882e-02 1.86483271e-03 -4.61913925e-03 4.12922679e-03 -1.79609582e-02 -2.38001775e-02 6.65440364e-03 -1.85567997e-02 2.82630771e-02 -8.35423172e-03 1.06143383e-02 1.02230217e-02 -1.52957076e-02 2.19158214e-02 -6.18375198e-04 7.95301609e-03 1.53920008e-02 -1.39294546e-02 -1.19328657e-02 -1.71168707e-02 -2.49334276e-02 -9.16293077e-03 -1.62024703e-02 -1.26004759e-02 -1.33072948e-02 2.59516407e-02 1.77045036e-02 -2.48750765e-02 3.00531089e-03 -2.57380120e-02 6.54993579e-03 1.75507292e-02 1.14060193e-02 5.51183335e-03 3.61553370e-03 -3.97153618e-03 2.78650085e-03 2.72530895e-02 1.87895447e-02 2.32142694e-02 -6.44502370e-03 1.12174833e-02 -1.79205649e-02 -1.47725213e-02 1.62056144e-02 6.62448723e-03 8.26423056e-03 1.91894304e-02 -1.50545193e-02 -1.74828488e-02 -1.27556995e-02 1.93646252e-02 1.23975873e-02 4.35711769e-03 -5.30940853e-03 1.73018053e-02 6.09732373e-03 5.22680348e-03 -7.23708281e-03 2.16373689e-02 5.90863964e-03 -1.88057628e-02 5.39248716e-03 -3.84015380e-03 -1.86475124e-02 2.22825333e-02 -5.26912604e-03 -2.17746720e-02
-4.09736391e-03 1.19181909e-02 -5.79688745e-03 7.90139835e-04 -6.46701409e-03 1.30122760e-03 9.90481116e-03 9.18920338e-03 1.37735317e-02 7.80131109e-03 -1.34714413e-03 -9.96539090e-03 -9.68270935e-03 -2.11066217e-03 8.08134302e-03 -9.83329024e-03 9.52408998e-04 1.96486898e-03 4.15635528e-03 5.19196456e-03 1.17900455e-02 -7.40450900e-03 -1.10552821e-03 1.05884653e-02 -3.34313419e-03 6.62692543e-03 8.64201877e-03 -9.22336522e-03 4.50327713e-03 1.46019049e-02 -6.37068413e-04 -2.71067629e-03 4.98115225e-03 7.03938678e-03 -7.88618997e-03 2.40603625e-03 -7.07336655e-03 -2.47450988e-03 -7.01568369e-03 1.16200559e-02 -1.09572615e-02 -4.92778746e-03 -1.82780297e-03 2.21835822e-03 8.45022686e-03 5.70764496e-06 -1.01686679e-02 -5.85677940e-03 1.66883925e-03 1.23026073e-02 6.85135741e-03 5.57510648e-03 1.15478132e-02 -6.76418096e-03 4.33056441e-04 -2.01361766e-03 -1.19041605e-02 -1.35948891e-02 -4.14830958e-03 1.71743485e-03 -1.02869757e-02 8.88750702e-03 2.97778612e-03 5.08750975e-03 2.60083936e-03 -1.04127368e-02 6.46552304e-03 8.35965108e-03 -3.41120898e-03 -8.83355923e-03 1.31430449e-02 -1.26198241e-02 -4.52630362e-03 -1.06090466e-02 6.25789585e-03 -5.45520196e-03 -7.86226150e-03 -1.89325423e-03 1.16409715e-02 -2.98872939e-03 9.49962903e-03 6.14830945e-03 5.91980293e-03 1.09932916e-02 -4.95918270e-04 -1.52418239e-03 9.98189487e-03 -9.68317222e-03 -2.52828305e-03 1.15346687e-03 -4.72313492e-03 5.69950324e-03 5.88640396e-04 4.97914478e-03 1.31690493e-02 -5.80493966e-03 4.36726678e-03 5.04939212e-03 5.03692217e-03 9.59018338e-03 5.81435952e-03 -1.75976194e-03 -6.26145769e-03 8.90959892e-03 -5.57094580e-03 -2.24448019e-03 8.60994682e-03 -8.77705636e-04 -5.49071142e-03 -7.07015488e-03 5.71214454e-03 -8.61327350e-03 5.85832726e-03 1.35903293e-02 7.48019712e-03 -1.40180970e-02 8.10934603e-03 -5.56908082e-03 -3.69347748e-03 6.48085494e-03 -1.14071537e-02 -3.83173511e-03 -7.02781603e-03 7.21344352e-03 7.52669061e-04 -7.68444780e-03 9.16947704e-03 1.13038728e-02 -7.67045945e-04 -3.83033906e-03 -6.07605791e-03 -2.78720120e-03 7.38265831e-03 3.28142033e-03 -5.96034992e-03 1.02507481e-02 6.83905371e-03 5.64294821e-03 3.12200398e-03 5.54573862e-03 9.67768393e-03 6.69189543e-03 5.91160357e-03 6.64283661e-03 1.09794447e-02 -9.06797219e-03 -6.01244112e-03 1.03014829e-02 -8.25631898e-03 7.81429838e-03 -1.28886243e-03 -7.25738890e-03 -6.43464318e-03 3.25716846e-03 -8.90605524e-03 -1.91226671e-03 -1.10607846e-02 3.60779464e-03 -1.08207390e-02 -7.53693748e-03 1.94532215e-03 3.98037909e-03 1.03796308e-03 -1.33916382e-02 -2.98696058e-03 6.60852250e-03 1.67273520e-03 -5.71590208e-04 -6.82885991e-04 6.60149753e-03 6.60972204e-03 -6.87094964e-03 -5.35259023e-03 1.11419393e-03 1.04376497e-02 -6.71056937e-03 -4.78689605e-03 -1.08209450e-03 1.47374021e-03 -9.95037984e-03 6.66204421e-03 -7.72604160e-03 -8.74058716e-03 1.13278208e-02 1.82226882e-03 -4.42935008e-04 -8.08631256e-03 -9.42736771e-03 -5.63151669e-03 5.87629899e-03 -8.47060513e-03 -1.09073082e-02 -5.67534519e-03 1.02525288e-02 8.95673130e-03 -1.01414500e-02 2.10517109e-03 -5.46465674e-03 -7.30717368e-03 -7.70451035e-03 -4.43460746e-03 -1.86869048e-03 -9.74945351e-03 1.13136098e-02 -5.64210489e-03 1.17060682e-02 -2.61967606e-03 1.10892989e-02 -4.05973988e-03 -9.62419342e-03 -4.57625743e-03 -7.01748533e-04 1.83810981e-03 -2.10516341e-03 -2.30574328e-03 -5.73629327e-03 7.49337673e-03 -4.87861829e-03 -3.34236515e-03 1.55687355e-03 -5.73299406e-03 -1.40946694e-02 -3.59126623e-03 4.99923807e-03 7.97073264e-03 -3.94424237e-03 -1.87408517e-03 -8.76963232e-03 -1.86077273e-03 -1.51957653e-03 5.11987647e-03 4.68374370e-03 -1.99456303e-03 8.54525436e-03 4.56118025e-04 4.48067486e-03 -6.01494576e-05 -1.00856721e-02 -3.42171756e-03 -9.77239106e-03 -2.73572956e-03 9.84289963e-03 -9.33625828e-03 -7.34481448e-03 6.86178217e-03 -4.95966943e-03 1.21796839e-02 5.14249492e-04 -4.03576111e-03 -6.86414866e-03 1.23629943e-02 1.12752523e-02 -1.11072781e-02 6.52065547e-03 1.12908147e-02 -2.63132108e-03
-1.41654089e-02 -2.75904424e-02 2.46470179e-02 -1.24059999e-02 -1.10383453e-02 2.90485788e-02 1.78203080e-02 -1.16921067e-02 -1.31948292e-02 -1.81808099e-02 4.13935911e-03 1.00088511e-02 -1.18104024e-02 2.39416361e-02 -5.80697507e-03 -2.25262810e-02 -2.50277482e-02 -7.41037680e-03 -1.14366766e-02 -1.25950528e-02 1.70886517e-02 9.53308307e-03 -2.33088080e-02 1.70872714e-02 2.61628889e-02 1.68134943e-02 -3.46244266e-03 4.69071046e-03 6.16922090e-03 -7.52047403e-03 -8.42620619e-03 6.93562813e-03 -2.72646360e-02 -1.39680402e-02 -2.35195179e-02 -1.70858521e-02 -1.43254157e-02 1.51833575e-02 8.74341838e-03 -2.72973590e-02 1.37070939e-02 3.51411779e-03 -9.40702483e-03 -1.56942233e-02 2.66611334e-02 1.59754716e-02 1.37927756e-02 2.59153862e-02 2.28450857e-02 -1.96486097e-02 -1.65691990e-02 -1.33094536e-02 -2.59203482e-02 -7.41800945e-03 7.14151887e-03 1.21967411e-02 8.80632643e-03 -2.56342199e-02 2.49970332e-02 2.41456460e-02 6.85564522e-03 -2.20527463e-02 -1.24201477e-02 6.67738682e-03 -1.34610981e-02 5.37544210e-03 7.33899535e-04 1.41115030e-02 2.08429080e-02 -2.52768993e-02 -1.61964428e-02 1.25998994e-02 -2.17452552e-02 -2.32305415e-02 -1.77426133e-02 -2.48314105e-02 1.04051065e-02 1.48471547e-02 7.83301517e-03 2.38382909e-02 4.49934881e-03 -2.37660971e-03 -8.28037597e-03 -2.33387928e-02 -1.17078861e-02 -1.87354675e-03 -1.67151224e-02 -1.19140102e-02 -5.35294786e-03 -7.09969271e-03 1.72083881e-02 -2.39397995e-02 -6.65105879e-03 -3.64083168e-03 -1.36498781e-02 1.88675579e-02 -4.79079224e-03 1.70870274e-02 1.41047845e-02 1.27422046e-02 2.37401351e-02 9.36655607e-03 1.72917191e-02 -2.42135376e-02 9.56117921e-03 7.58731831e-03 2.14942694e-02 4.02821228e-03 -1.61994286e-02 2.17113625e-02 4.49781120e-03 -6.11152314e-03 2.25470886e-02 -2.05905996e-02 2.60577798e-02 1.59765314e-02 1.03957374e-02 1.34880953e-02 1.87509116e-02 2.14897618e-02 1.20879421e-02 1.39837852e-02 1.03559429e-02 -3.30123072e-03 -8.75272788e-03 1.85151361e-02 -5.56113198e-03 -1.26021709e-02 2.16292161e-02 -1.17592877e-02 1.62514932e-02 -2.10930426e-02 1.12844408e-02 -2.64637470e-02 3.85705428e-03 2.03466062e-02 -1.15438160e-02 1.32039767e-02 1.31301433e-02 1.18384995e-02 5.48764970e-03 -2.38798633e-02 -1.91417206e-02 4.62045334e-03 -1.64012443e-02 5.70422458e-03 2.77462718e-03 -5.20674931e-03 2.09781565e-02 2.50738971e-02 2.42588855e-02 1.11104045e-02 -2.25283206e-02 7.00647570e-03 2.10694540e-02 1.80735774e-02 9.09035839e-03 2.24209055e-02 1.41247250e-02 -1.45315630e-02 2.29203906e-02 4.61571151e-03 6.24450040e-04 1.08350599e-02 6.17170008e-03 -1.19867139e-02 -2.46377978e-02 6.11722795e-03 1.26615502e-02 1.33013455e-02 1.41718341e-02 -2.71484535e-02 -8.30184482e-03 -2.61198003e-02 1.84965264e-02 -5.22900699e-03 -3.21658538e-03 9.84802842e-03 1.33620026e-02 4.11033025e-03 -1.43944817e-02 -1.12047493e-02 2.17230506e-02 -1.96579192e-02 -3.65978898e-03 2.55329870e-02 -2.55938359e-02 1.95553154e-02 -1.34657659e-02 7.94636458e-03 1.21545717e-02 1.25401523e-02 -2.09804494e-02 -5.88140776e-03 1.26625188e-02 -8.21724720e-03 1.00853257e-02 -1.68604236e-02 1.77404173e-02 1.10109327e-02 -1.66948996e-02 1.47827603e-02 -1.12864068e-02 1.02414200e-02 6.57897163e-03 -1.23972045e-02 -1.66352484e-02 -1.28719267e-02 -1.31090917e-02 -2.23671105e-02 -1.56831034e-02 -1.59914382e-02 -2.75472924e-02 2.34566573e-02 6.97120931e-03 -2.10039206e-02 1.00392001e-02 -1.15864547e-02 6.07444393e-03 9.46863461e-03 2.19466425e-02 2.47481186e-02 1.15442732e-02 -3.12789646e-03 5.13498299e-03 2.71141864e-02 2.05250084e-02 1.27539188e-02 -2.66594440e-02 2.23077685e-02 -5.21118427e-03 -1.33264968e-02 2.33826432e-02 9.26358439e-03 2.38209683e-02 2.47762259e-02 -2.29996424e-02 -1.00871939e-02 -1.82547122e-02 2.65431199e-02 1.42349275e-02 1.09118028e-02 -9.21545736e-03 1.46976449e-02 -3.30944196e-04 2.47743018e-02 -2.09960807e-02 2.36007515e-02 1.90340839e-02 -1.65158603e-02 2.48802174e-02 -1.35285864e-02 -9.10580531e-03 1.60441995e-02 -2.80203931e-02 -2.29031444e-02
-1.51163330e-02 -3.59913427e-03 1.80544369e-02 -2.18168758e-02 -1.23246415e-02 2.55193189e-02 2.01097187e-02 -1.42441308e-02 -7.63646048e-03 -1.74264275e-02 1.92138962e-02 1.21923713e-02 6.34922180e-04 1.11657958e-02 3.98540357e-03 -1.39502762e-02 -9.28394683e-03 -3.09587270e-03 -5.58826979e-03 -1.33980392e-02 -1.81066722e-03 -4.55739768e-03 2.56252941e-03 4.78733564e-03 1.58422124e-02 1.34984059e-02 -8.43875576e-03 1.43739870e-02 8.19791853e-03 5.05724689e-04 -1.63449515e-02 2.12372541e-02 -1.86818205e-02 -8.21167883e-03 -1.51875615e-02 -1.74081270e-02 -1.42118586e-02 2.29864363e-02 4.21494059e-03 -6.42253691e-03 1.80959627e-02 8.61606374e-03 -2.26210267e-03 -6.00939570e-03 8.28365237e-03 2.26066224e-02 8.42210092e-03 -1.98374921e-03 9.77626350e-03 -2.93653621e-03 6.12209132e-03 -1.17280921e-02 4.99455072e-03 -2.29793857e-03 -3.54591291e-03 -2.70293094e-03 1.61748193e-02 -1.39350360e-02 2.18210015e-02 2.75133774e-02 1.77828502e-02 -2.20598541e-02 -2.20010523e-02 1.01785455e-02 -1.26247965e-02 -5.13477577e-03 1.00324638e-02 1.25152487e-02 5.40379900e-04 -1.00645470e-02 -1.76901408e-02 -2.00291188e-03 -1.59654766e-03 -2.11595669e-02 -4.90617286e-03 -1.79090220e-02 2.04769634e-02 1.39077613e-02 2.04570368e-02 6.07738923e-03 1.44672059e-02 -1.88144520e-02 2.50394130e-03 -2.56197294e-03 -5.19834599e-03 1.03804469e-02 3.04655870e-03 -1.06519531e-03 -3.08702141e-03 -6.70483196e-03 1.44941285e-02 3.75245768e-03 2.20667617e-03 1.90797250e-03 -8.49584304e-03 2.46306113e-03 1.65917780e-04 1.02246564e-03 6.01141434e-03 -6.82265847e-04 1.37204044e-02 -1.33501738e-03 9.11760610e-03 -2.04464700e-03 2.14244835e-02 1.28385350e-02 1.41091114e-02 6.21423312e-03 -1.80359203e-02 1.15831001e-02 1.32739870e-02 -7.25237327e-03 2.05162410e-02 3.01872101e-03 1.58671159e-02 2.87456159e-03 9.49807651e-03 -2.40949518e-03 2.04786286e-02 1.68119576e-02 1.47507852e-03 1.53561858e-02 6.19782647e-03 -1.66396163e-02 3.57391872e-03 9.64995008e-03 -1.11507587e-02 -4.07917239e-03 3.66669102e-03 -1.03593152e-02 1.94249786e-02 -1.47483870e-02 2.03584153e-02 -1.21990880e-02 -3.80625646e-03 8.20695236e-03 -6.35648426e-03 1.28847808e-02 1.50566911e-02 1.07574845e-02 6.70396071e-03 -1.87543333e-02 -1.59169678e-02 -9.43878607e-04 -1.33577343e-02 7.16885040e-03 1.01278466e-03 -1.72536094e-02 1.49051202e-02 1.57230869e-02 1.34960481e-03 1.51363304e-02 -5.79628348e-03 1.97137352e-02 8.76930542e-03 4.92408546e-03 -8.44034180e-03 6.27214415e-03 6.19266927e-03 -5.77154628e-04 1.31016718e-02 -9.22612008e-03 7.65346177e-03 -2.69094016e-03 -6.11082790e-03 -1.29226167e-02 -2.37981323e-03 -7.62643851e-03 1.27312057e-02 1.55532025e-02 2.21081264e-02 -6.53921766e-03 -2.26978157e-02 -1.65071785e-02 7.71613605e-03 -8.93820263e-03 -3.95779125e-03 -3.65893822e-03 1.28198126e-02 -1.20378181e-03 5.56931272e-03 -1.26668215e-02 1.08135222e-02 8.23236164e-03 -7.28805643e-03 7.65544875e-03 -6.50504651e-03 1.28178606e-02 7.26811076e-03 3.77232488e-03 1.50022507e-02 -6.41114893e-04 -1.29900882e-02 -2.13004779e-02 2.32848432e-02 -1.71509031e-02 2.03139205e-02 -1.22533077e-02 1.79735217e-02 1.31778643e-02 -1.41694797e-02 4.42358898e-03 -1.54663678e-02 8.67470820e-03 -1.78378436e-03 -4.05223900e-03 -1.22518111e-02 -6.77300058e-03 -1.81405302e-02 -1.04288720e-02 -1.25497710e-02 -2.40450278e-02 -1.50675718e-02 2.38494873e-02 -1.39081827e-03 -5.80044743e-03 5.88787952e-03 -1.56882815e-02 2.18910035e-02 -2.29598582e-03 1.97669528e-02 3.97036923e-03 6.21361018e-04 -6.57863729e-03 4.05790145e-03 1.94087450e-03 8.46886728e-03 8.26759730e-03 -1.98769700e-02 8.14463478e-03 -2.06412207e-02 1.57030401e-04 1.61752906e-02 8.77216738e-03 1.61399208e-02 1.72256045e-02 -1.06543954e-02 -1.48863364e-02 -1.15781371e-02 9.63301864e-03 8.22517963e-04 -5.63067663e-03 -8.21583252e-03 1.16325226e-02 -1.05814980e-02 -3.55805713e-03 4.16986737e-03 -1.57025526e-03 4.66486951e-03 -4.71472694e-03 9.55911260e-03 -7.06974929e-03 -9.92850959e-03 1.87477674e-02 -2.10827664e-02 -2.50561628e-02
-2.66694110e-02 -2.61000805e-02 1.96151007e-02 -1.69210285e-02 -2.16567386e-02 1.93313342e-02 2.50249710e-02 -1.35001186e-02 -7.14869658e-03 -1.34366052e-02 1.97430626e-02 2.40310729e-02 -2.78768974e-04 -3.86177737e-04 3.49713606e-03 -1.45838736e-02 -6.11258857e-03 4.61521850e-04 -7.86953699e-03 2.00663181e-03 2.00393214e-03 -5.17082075e-03 -1.41555462e-02 -9.74728086e-04 2.08736062e-02 6.70587504e-03 -2.11379994e-02 2.64953496e-03 1.40767209e-02 -6.71569631e-03 -2.31555868e-02 1.85238067e-02 -1.12594375e-02 -1.03082862e-02 -6.46016328e-03 -1.90000050e-02 -1.42245125e-02 8.99726152e-03 5.68066956e-03 -2.38057859e-02 2.32191049e-02 1.74782109e-02 -2.08271667e-02 -3.12104844e-03 9.12272371e-03 1.43070025e-02 8.87381192e-03 -1.15922117e-03 7.10025523e-03 6.94139674e-03 4.15223930e-03 1.61227828e-03 -1.37530193e-02 -1.36375027e-02 -9.60283563e-04 7.12338043e-03 1.83947384e-02 -1.28684090e-02 2.83880457e-02 1.20888911e-02 3.11519429e-02 -1.60155687e-02 -2.62539014e-02 1.07241115e-02 2.34623929e-03 2.92691914e-03 5.16133429e-03 7.12143257e-03 1.98396575e-02 -9.56251286e-03 -1.58956591e-02 -2.78800097e-03 -1.53907174e-02 -1.11092767e-02 -2.08135098e-02 -3.45042394e-03 7.07596540e-03 2.77544628e-03 6.57832716e-03 8.80758092e-03 1.49114374e-02 -1.56975526e-03 -3.50992451e-03 -4.08673193e-03 -1.63464192e-02 -4.42423299e-03 -6.98100030e-03 -1.72351692e-02 -1.12938182e-02 -4.84109530e-03 6.70883199e-03 -2.01916508e-02 4.14288696e-03 -9.77138337e-03 -8.59578792e-03 7.47111335e-05 -4.44841990e-03 1.77612156e-02 1.60856619e-02 1.36805121e-02 -1.06076570e-03 3.94366356e-03 1.60869374e-03 -1.50175449e-02 2.26323679e-02 -5.82405645e-03 5.47435042e-03 -4.26705554e-03 3.17532686e-03 -3.06794327e-03 1.65461563e-02 -9.64922644e-03 4.35036840e-03 -1.29008843e-02 1.56885535e-02 1.43071702e-02 2.44500488e-02 8.76376231e-04 2.20334083e-02 9.30265430e-03 1.12007298e-02 4.38298285e-03 1.92229133e-02 -1.65596120e-02 1.56891753e-03 1.60433464e-02 -9.19828750e-03 -1.73283811e-03 1.94049906e-02 -1.03811352e-02 1.17213260e-02 -8.58058315e-03 1.08817918e-02 -2.06139889e-02 2.92938692e-03 2.38850694e-02 -2.32333913e-02 1.41258854e-02 2.51577614e-04 1.44960256e-02 2.38735080e-02 -1.51277576e-02 -3.01102642e-03 2.51409542e-02 -1.82987656e-02 8.17742571e-03 1.21661481e-02 -3.41891940e-03 -6.06354093e-03 1.39650060e-02 6.45033643e-03 9.93132312e-03 -4.51874267e-03 9.87548567e-03 4.32515144e-03 7.78949587e-03 1.49899507e-02 1.44938342e-02 -4.96011053e-04 -1.55049264e-02 1.58989094e-02 9.36768018e-03 1.72466431e-02 1.02664111e-02 -2.69619166e-03 -1.58337820e-02 3.71980318e-03 7.98053516e-04 2.57748011e-02 1.82611682e-02 2.51311716e-02 -2.69734561e-02 -2.32432242e-02 -1.30674010e-02 1.79579891e-02 -1.15220668e-02 -6.31165644e-03 4.06581268e-04 1.04715386e-02 1.71997938e-02 6.37112791e-03 -2.11006636e-03 1.42733855e-02 -1.07750832e-03 3.51808220e-03 1.15836738e-03 -1.88143458e-02 -1.68399757e-03 -1.14523107e-02 7.60992756e-03 4.59210807e-03 1.47380345e-02 -9.58891865e-03 -1.55538507e-02 2.81315465e-02 -2.49733571e-02 2.81732921e-02 -2.60338746e-02 9.18757450e-03 1.31753506e-02 -7.48888683e-03 1.68667249e-02 1.76934735e-03 1.68397930e-02 3.16970865e-04 8.83783447e-04 -1.51478294e-02 -1.67978704e-02 -1.48153864e-02 -2.47358275e-03 -4.13981173e-03 -1.22635216e-02 -2.32343581e-02 6.06568949e-03 9.07337479e-03 -4.01041098e-03 2.53293477e-02 -2.61147879e-02 6.43156283e-03 2.10307110e-02 1.71924767e-03 -3.79738933e-03 1.19094283e-03 -1.59015916e-02 7.96742924e-03 1.60589367e-02 8.22726358e-03 5.84507687e-03 -1.59673635e-02 1.47925485e-02 -2.10757516e-02 -2.06501689e-02 1.39128473e-02 1.64476410e-02 2.44424287e-02 1.93074625e-02 -9.21253301e-03 -1.79992970e-02 -2.79739425e-02 1.08261434e-02 1.94521807e-03 1.11811133e-02 -1.21790320e-02 -1.87281426e-03 1.18874433e-02 -3.84565280e-03 -3.84063576e-04 6.66963542e-03 1.43242963e-02 -2.25409009e-02 2.10405663e-02 -2.11567264e-02 -7.79462140e-03 1.41084073e-02 -6.29901420e-03 -1.45045547e-02
7.82766845e-03 9.10871290e-03 2.26395717e-03 -4.32689954e-03 1.05430502e-02 -8.92347284e-03 -1.16131175e-02 -1.21013355e-03 -1.15423054e-02 2.24274583e-03 -3.31555819e-03 7.82481674e-03 -3.65332584e-03 7.86587317e-03 1.21724801e-02 1.00322077e-02 5.17613487e-03 7.38004129e-03 4.80870623e-03 -9.42836702e-03 -7.77952839e-03 -8.46456364e-03 -3.33354692e-03 1.15468856e-02 1.30225834e-03 1.32597995e-03 -2.60933535e-03 1.05030397e-02 6.41229004e-03 -9.24299657e-03 -4.65274230e-03 -4.86772228e-03 6.10033702e-03 8.56014341e-03 6.60053408e-03 6.39648736e-03 -9.33404453e-03 -3.27042048e-03 -9.39672720e-03 2.34068240e-04 -5.25992829e-03 -6.03191368e-03 -7.05973431e-03 7.04651640e-04 -5.31110959e-03 1.21636633e-02 -4.73026931e-03 -9.73080099e-03 -1.11389095e-02 -1.14964684e-02 1.27844028e-02 -5.49890427e-03 3.49257002e-03 1.81898323e-03 9.38888825e-03 9.77533055e-04 1.09995073e-02 -1.15163978e-02 -3.72050307e-03 -7.70994276e-03 5.11928461e-03 -7.93295540e-03 -1.35884876e-03 3.21443891e-03 -4.07434721e-03 4.57648281e-03 5.77897485e-03 5.49313938e-03 1.22537175e-02 -2.35390267e-03 -9.92491655e-03 8.54384527e-03 -5.18711144e-03 -1.13991974e-02 -7.11767701e-03 -5.20091970e-03 -2.23455462e-03 -4.36314382e-03 -1.31927282e-02 4.47129802e-04 -9.63611808e-03 1.96944384e-04 6.28750818e-03 -6.79630134e-03 -1.13295969e-02 4.40674974e-03 -1.08237155e-02 2.90919538e-03 1.14411907e-02 4.96629253e-03 5.47257299e-03 8.86465795e-03 1.28690992e-02 1.72583410e-03 -9.75847431e-03 8.77559837e-03 4.07041749e-03 -8.39448813e-03 -4.57790354e-03 -1.13362691e-03 1.06040547e-02 -1.26701444e-02 -3.46861058e-03 -1.01074344e-02 -1.05931154e-02 -4.56893118e-03 1.62062247e-03 3.68804322e-03 1.08988555e-02 5.89750707e-03 9.57877282e-03 -8.71969108e-03 -8.19600187e-04 -4.06922819e-03 1.69231999e-03 -9.30250436e-03 1.28911005e-03 -4.84080939e-03 -5.42846799e-04 3.19212605e-03 -1.23113059e-02 2.26123724e-03 1.47855794e-03 1.97198056e-03 6.88394590e-04 -8.33932310e-03 2.40194131e-05 -2.00644392e-03 1.03654768e-02 4.30695480e-03 -5.86973596e-03 -1.03161596e-02 2.27859057e-03 1.02445483e-02 -2.74789799e-03 8.73378478e-03 -1.20731378e-02 -7.03487406e-03 -9.46401991e-03 -1.14488378e-02 9.05853231e-03 1.22791692e-03 -5.00004273e-03 3.18828784e-03 4.11034422e-03 -2.57474079e-04 4.02255100e-04 -3.29657993e-03 -6.70842035e-03 4.54778690e-03 -8.40598810e-03 -1.18993297e-02 -2.00145016e-03 2.18158611e-03 6.42921589e-03 -2.01569148e-03 -3.97187192e-03 -7.22919684e-03 -3.86929698e-03 5.18556510e-04 2.05726028e-04 -5.03206393e-03 -2.50316085e-03 3.52764642e-03 2.42756936e-03 5.54507459e-03 4.02269140e-03 4.75209253e-03 7.87213538e-03 -6.86156563e-03 -6.65799528e-03 -3.03278118e-03 -7.78242666e-03 3.82694276e-03 9.29689221e-03 6.22211630e-03 5.78086218e-03 6.05548965e-04 -2.60154530e-03 -4.21844330e-03 1.15119051e-02 -8.03203881e-03 -1.73558055e-06 -1.60055642e-03 -1.91314879e-03 4.38077282e-03 1.08153718e-02 -9.30689834e-03 7.06889108e-03 3.34187737e-03 9.29767080e-03 -9.81295016e-03 -6.13192748e-03 -1.05528003e-02 -8.34992435e-03 -7.77318748e-03 9.72799084e-04 -1.07492730e-02 1.27931271e-04 -6.15757611e-03 -3.83368297e-03 -1.03491573e-02 1.49358937e-03 1.10489698e-02 -5.28910896e-03 -2.33706366e-03 9.26008075e-03 -7.89287593e-03 -3.09420843e-03 5.43979462e-03 8.76707211e-03 3.09315370e-03 -1.10660708e-02 -2.86022853e-03 9.28339083e-04 3.92149715e-03 6.87046384e-04 7.76720466e-03 -9.85485688e-03 -4.03567124e-03 4.64773690e-03 4.28633625e-03 7.16033857e-03 9.61052999e-03 -2.52256496e-03 6.19097939e-03 -3.28960666e-03 4.51016612e-03 -4.94829845e-03 2.84652715e-03 -4.00566636e-03 2.41706287e-03 3.73659097e-03 -1.02798836e-02 3.79123050e-03 1.03382813e-02 5.79308160e-03 -1.03282398e-02 2.86623323e-03 9.08679608e-03 8.57695658e-03 -7.36968545e-03 -2.78383843e-03 -8.17034766e-03 2.21357495e-03 -3.35440016e-03 -5.25113707e-03 -1.07318852e-02 1.34313283e-02 -3.81883816e-03 1.23528894e-02 -1.05593435e-03 1.58502068e-03 4.94408142e-03 3.62459011e-03 3.06546013e-03
-1.19080944e-02 -1.16328159e-02 1.71070397e-02 -2.32816450e-02 -1.42689692e-02 2.04026885e-02 2.30089072e-02 -1.42226368e-02 -7.86581915e-03 -1.38378358e-02 2.62366049e-02 9.21850931e-03 -1.29131200e-02 6.36876374e-03 -1.91190876e-02 -1.62613392e-02 -3.22129740e-03 7.74171902e-03 -6.62483228e-03 -5.20962710e-03 1.68842878e-02 5.86187188e-03 -3.30510526e-03 1.19552296e-02 9.35748219e-03 2.13456843e-02 -1.99793112e-02 1.70551818e-02 2.08867621e-02 -9.97047685e-03 -8.54647066e-03 2.00548340e-02 -1.43692186e-02 -2.67005991e-02 -1.03538800e-02 -1.11852232e-02 -4.30826331e-03 1.09779239e-02 2.64508966e-02 -2.28040367e-02 5.64603042e-03 1.09027745e-02 -7.70827616e-03 -6.75651990e-03 1.79780591e-02 2.33567413e-02 2.02095713e-02 1.47537412e-02 2.36270241e-02 -2.04750486e-02 -2.01469194e-02 -2.24089883e-02 -2.06726696e-02 -1.89502612e-02 1.83208771e-02 4.06104187e-03 2.10549664e-02 -2.68013366e-02 8.87426920e-03 2.59321686e-02 1.77202839e-02 -1.94300208e-02 -2.76253186e-02 2.74762847e-02 -2.14161705e-02 9.44581069e-03 1.98341217e-02 1.48428204e-02 1.89233199e-02 -2.37346720e-02 -1.08683305e-02 1.07224733e-02 -7.09185516e-03 -8.19859188e-03 -2.35870481e-02 -1.99458022e-02 1.29341083e-02 2.49909461e-02 1.94838329e-03 2.09662616e-02 2.65946444e-02 -1.04264328e-02 -1.09690521e-02 -9.19690076e-03 -1.55790038e-02 9.80498362e-03 -1.38617028e-02 -2.24486161e-02 -2.62013897e-02 -1.87339224e-02 3.94200766e-03 -1.37141831e-02 -1.39121823e-02 -2.11994741e-02 -1.97819453e-02 2.45878566e-02 -9.72807594e-03 1.38467001e-02 2.11504046e-02 1.03280814e-02 9.59080365e-03 3.24127898e-02 2.18415111e-02 -1.60777383e-02 2.64319312e-02 3.27884150e-03 1.41572021e-02 6.80556009e-03 -1.65334698e-02 1.27439061e-02 5.56283817e-03 -1.45713519e-02 5.94403734e-03 -3.29676061e-03 1.90072097e-02 5.11473790e-03 1.74631309e-02 2.17418969e-02 1.48959830e-02 1.94642991e-02 4.84941807e-03 9.27841663e-03 2.55290512e-02 -2.06827689e-02 -8.35678540e-03 2.22192090e-02 -7.47575099e-03 -2.13175011e-03 2.17121337e-02 -8.38562939e-03 5.10040764e-03 -1.47556271e-02 3.54509498e-03 -2.49743648e-02 2.69845556e-02 1.54358745e-02 -1.97287388e-02 7.92843662e-03 2.18736045e-02 4.72912472e-03 6.82444172e-03 -4.65892255e-03 -1.56997535e-02 1.27768135e-02 -4.30707680e-03 2.11835168e-02 1.70387719e-02 3.98339285e-03 4.20573680e-03 4.20756079e-03 1.60697289e-02 1.45429391e-02 -8.95854831e-03 9.96308401e-03 3.64365638e-03 1.59784984e-02 1.93783883e-02 2.81673875e-02 1.44640533e-02 -2.33458634e-02 5.43520972e-03 -5.60865970e-04 1.29675586e-03 3.60169355e-03 6.24893513e-03 -2.40624566e-02 -2.16680709e-02 1.77557915e-02 2.39703245e-02 1.00348406e-02 1.09367557e-02 -1.82832368e-02 -2.91634910e-02 -1.75972395e-02 1.29986163e-02 -2.56416537e-02 1.46752875e-03 2.55311206e-02 5.24706952e-03 1.40706170e-02 2.04357482e-03 -1.61239188e-02 1.05994567e-02 -1.09903356e-02 -1.69018973e-02 5.00694569e-03 -1.61766298e-02 2.29583606e-02 1.16852601e-03 2.04051118e-02 2.02359259e-02 1.23864701e-02 -1.34243527e-02 -1.62487067e-02 1.23135801e-02 -1.60570517e-02 2.68813055e-02 -1.48763238e-02 2.15091482e-02 1.42621007e-02 -2.10753065e-02 2.07550228e-02 -1.28014246e-02 1.62829254e-02 7.98307545e-03 -8.70674103e-03 -2.11441815e-02 -1.91003680e-02 -2.61330213e-02 -5.35355974e-03 -2.14524549e-02 -1.98682640e-02 -1.55236367e-02 1.16955051e-02 2.77808234e-02 -4.86956025e-03 1.74869020e-02 -1.45880869e-02 6.63861306e-03 1.64626427e-02 1.72592960e-02 1.69127670e-04 5.97365247e-03 -7.79813854e-03 6.84248190e-03 7.75471097e-03 2.16581337e-02 5.86591801e-03 -2.35424377e-02 1.92333590e-02 -1.59585755e-02 -2.51684953e-02 5.18694799e-03 1.60063468e-02 2.26023681e-02 2.43315045e-02 -1.00339511e-02 -7.26038124e-03 -1.04785645e-02 1.72851719e-02 1.97641309e-02 1.48313958e-02 -1.76141951e-02 9.16386489e-03 5.56373503e-03 1.12926438e-02 -2.03603487e-02 1.64703988e-02 9.22888424e-03 -2.30814088e-02 1.27479648e-02 -2.35108212e-02 -1.39626237e-02 1.96299888e-02 -2.29783989e-02 -1.08592436e-02
-1.89016014e-02 -7.50020519e-03 1.89991947e-02 -1.54570853e-02 -2.45883036e-02 8.09247326e-03 6.91412715e-03 -2.77241655e-02 -1.59276091e-02 -1.09971873e-02 3.53084202e-03 8.27883929e-03 -2.21103020e-02 2.22198796e-02 5.49392389e-05 -2.15724036e-02 -1.85888354e-02 1.71564706e-03 -1.16371298e-02 -3.59761150e-04 1.78881865e-02 1.75292529e-02 3.32495081e-03 1.34705231e-02 5.34897158e-03 1.11030554e-02 -7.07569113e-03 2.01688334e-02 2.08253451e-02 -1.56064471e-02 -2.99959816e-03 1.13877784e-02 -1.13193952e-02 -2.15829816e-02 -1.02043757e-02 -1.57988369e-02 -2.52793822e-02 9.00086854e-03 1.22468118e-02 -2.63020936e-02 1.92146357e-02 3.50154354e-03 -9.21694096e-03 -2.13507675e-02 1.79966446e-02 6.35436596e-03 2.34577432e-02 1.11315157e-02 2.24135481e-02 -1.40749114e-02 -3.24301049e-03 -3.09120142e-03 -1.40752050e-03 3.56298580e-04 1.57180503e-02 -2.43700459e-03 1.94554292e-02 -9.59586073e-03 2.80662142e-02 1.48788467e-02 1.43751716e-02 -2.06348412e-02 -1.17569510e-02 2.62584593e-02 1.38937088e-03 3.64718842e-04 1.15288654e-02 1.05498433e-02 5.49845456e-04 -2.50579771e-02 -5.54244220e-03 -5.45363582e-04 -2.10397299e-02 -2.57684719e-02 -1.27468789e-02 -1.66467596e-02 3.42717161e-03 2.36948244e-02 7.43674673e-03 2.46707741e-02 1.55980261e-02 -2.28589363e-02 -1.24775218e-02 -1.37926759e-02 -2.30965409e-02 -1.82071782e-03 -2.27575526e-02 -1.03091346e-02 -1.73402242e-02 -1.35805430e-02 4.98320954e-03 -4.66754008e-03 1.43448077e-03 -1.46128032e-02 -1.37509480e-02 8.66763946e-03 -1.42731583e-02 2.17899028e-02 7.25872861e-03 2.41875891e-02 4.05204436e-03 2.66834758e-02 1.71204917e-02 -1.60836056e-02 1.68909244e-02 2.30500335e-03 1.92967039e-02 2.15404276e-02 -1.03547014e-02 9.37203132e-03 2.38942094e-02 -1.40966820e-02 4.29353770e-03 -9.41675808e-03 2.44673956e-02 5.21245738e-03 2.01686658e-02 1.98646262e-02 4.33383882e-03 5.19793201e-03 2.11052950e-02 1.34190423e-02 2.40721405e-02 -9.20026843e-03 -1.42199798e-02 9.09465458e-03 -1.14658494e-02 -2.45261826e-02 1.32510122e-02 -1.10531412e-02 5.81829296e-03 -1.74403097e-02 3.44051397e-03 -7.11897621e-03 2.10346188e-02 6.43449975e-03 -8.98930617e-03 7.66229024e-03 2.37847548e-02 2.29310766e-02 1.47058871e-02 -4.55654738e-03 -2.48219240e-02 1.75117012e-02 -2.17685606e-02 1.87315103e-02 6.08436903e-03 -1.16123399e-02 8.99795070e-03 1.06941285e-02 8.70577991e-03 1.16320718e-02 -3.25722760e-03 1.10661667e-02 2.90954439e-03 1.77941341e-02 1.53383575e-02 1.99931879e-02 2.71296827e-03 -6.40093302e-03 1.52804963e-02 -8.67563998e-04 2.00427994e-02 9.43493005e-03 -1.04512274e-03 -1.15440823e-02 -8.33893288e-03 8.95035826e-03 7.11709075e-03 2.67493092e-02 1.73572265e-02 -2.14883666e-02 -2.03601699e-02 -2.44977493e-02 2.69123185e-02 -1.85023416e-02 -4.08162875e-03 1.70867015e-02 6.13485056e-04 6.10021129e-03 -5.75572019e-03 -6.14347635e-03 1.42777665e-02 -1.05762240e-02 -2.01088516e-03 7.79419485e-03 -1.47427954e-02 1.88346617e-02 -1.84252225e-02 3.43376771e-03 -4.51070117e-03 4.47354373e-03 -8.81202053e-03 -2.81008836e-02 6.87203091e-03 -1.55080529e-02 2.53522769e-02 -6.59189746e-03 1.52145401e-02 8.51386879e-03 4.76194429e-04 1.69189693e-03 -2.05676984e-02 2.69506034e-02 1.18848775e-02 -1.18134348e-02 -1.15171606e-02 -1.85417645e-02 -1.33699691e-02 -2.69578323e-02 -1.04035409e-02 -5.72041376e-03 -1.62670836e-02 1.12860044e-02 4.20119567e-03 -1.50901033e-02 1.96107030e-02 -2.84851808e-02 2.77593695e-02 1.25970645e-02 1.52258985e-02 9.72385332e-03 3.69556923e-03 -1.98147986e-02 2.30810437e-02 6.03346666e-03 5.29341586e-03 7.77900824e-03 -1.44602107e-02 2.72955559e-02 -2.78939609e-03 -1.40254498e-02 3.19092744e-03 2.35997587e-02 1.92451570e-02 1.87655818e-02 -1.07154362e-02 -3.95044964e-03 -2.34550368e-02 2.52434313e-02 1.55143561e-02 9.37170349e-03 -1.84953492e-02 8.43098015e-03 3.70717840e-03 1.63836591e-02 -8.65960587e-03 6.93690358e-03 3.64008197e-03 -4.51362459e-03 2.05341261e-02 -6.14051102e-03 -9.06039402e-03 9.64275468e-03 -1.49099752e-02 -6.93831826e-03
-2.25356165e-02 -2.12430190e-02 3.92721035e-03 5.72650926e-04 -1.23396469e-02 1.28728841e-02 2.24887468e-02 -2.10360903e-02 2.28479807e-03 -1.46410726e-02 1.15168178e-02 6.54594274e-03 -4.76988032e-03 7.83712603e-03 8.68454576e-03 7.70422025e-03 9.24905110e-03 7.56575307e-03 4.23578359e-03 -6.09810557e-03 4.94599482e-03 -8.70889635e-05 1.03580044e-03 1.02628572e-02 1.55997276e-02 7.98972324e-03 -1.96998270e-04 4.00762027e-03 1.49982153e-02 -2.77842884e-03 -1.85460057e-02 1.25430711e-02 -2.35214904e-02 -5.06507931e-03 -2.61770212e-03 -5.96447103e-03 -8.50118510e-03 1.55049060e-02 5.22706285e-03 -6.13188092e-03 3.07343388e-03 6.04787841e-03 -1.06798792e-02 -2.68617342e-03 1.29056349e-02 1.28822653e-02 -1.99705339e-03 1.03844628e-02 1.39410188e-02 7.01819547e-03 -1.28626283e-02 8.32261797e-03 1.01794982e-02 -1.12911761e-02 -1.38772372e-03 -7.83193950e-03 9.34248976e-03 -2.41676588e-02 3.82587127e-03 1.07646864e-02 1.32344412e-02 -2.20776200e-02 -1.34431385e-02 8.54750257e-03 -9.76313744e-03 5.89784002e-03 1.17516937e-02 6.03066664e-03 2.05761404e-03 -1.05259044e-03 -1.39135886e-02 1.27186382e-03 6.72228727e-03 -5.00024587e-04 4.62675979e-03 5.78931719e-03 -5.20674232e-03 1.73515715e-02 9.85231344e-03 5.39622921e-03 5.26425941e-03 -5.79386856e-03 -1.13437576e-02 -1.87949080e-03 -1.06047895e-02 7.84576032e-03 1.10494671e-02 -4.81382798e-04 1.29786227e-03 -1.18843392e-02 1.73856653e-02 -3.13201104e-03 9.67419334e-03 1.35436580e-02 -5.59826894e-03 1.51460106e-02 -1.32099248e-03 -2.02298490e-03 1.43198362e-02 1.41241718e-02 8.86146352e-03 -1.37896638e-03 8.42229370e-03 -1.25030847e-02 4.50572418e-03 -7.52622588e-03 7.40588875e-03 1.18149370e-02 -1.06686866e-02 -1.83657871e-03 4.93660802e-03 1.26477517e-03 1.25679933e-02 -1.45668234e-03 1.34292068e-02 -7.25522288e-04 1.41047956e-02 1.20366421e-02 1.70267336e-02 1.72145497e-02 -4.80115926e-03 1.26372864e-02 1.83553789e-02 -1.29202716e-02 -2.77738087e-03 6.35274220e-04 -1.42206587e-02 -1.31767644e-02 -9.76464071e-04 -1.92301646e-02 3.32242483e-03 -4.35286341e-03 6.69941492e-03 -6.98516518e-03 -4.42681182e-03 1.57091077e-02 -7.91756250e-03 3.87102086e-03 1.56966206e-02 7.27146724e-03 1.55253652e-02 -2.45491159e-03 -1.79437120e-02 8.27402808e-03 -1.16972942e-02 3.23638925e-03 -4.63215867e-03 5.79707930e-03 3.14032263e-03 -6.25395821e-03 -9.25340690e-03 6.65068114e-03 1.25274546e-02 9.29058250e-03 -6.93163043e-03 1.66222118e-02 8.59022979e-03 -3.90453235e-04 8.56996607e-03 2.57048639e-04 -1.22838921e-03 -2.22001900e-03 9.45820194e-03 -1.56846344e-02 -4.87247342e-03 -1.05600627e-02 -6.45469734e-03 -1.53862173e-02 1.21516772e-02 1.17611419e-02 2.20432747e-02 -9.66720469e-03 -4.67981864e-03 -4.04387421e-04 1.90213753e-03 -1.34536568e-02 -7.30466191e-03 7.77307991e-03 9.66182817e-03 5.88995079e-03 -1.00294817e-02 -1.37828337e-02 -1.31155988e-02 8.29771534e-03 4.57741506e-03 -5.78661123e-03 -2.94198352e-03 -6.82073063e-04 1.43926162e-02 2.45269446e-04 -3.97004979e-03 3.20742768e-03 -1.90837849e-02 -2.96386774e-03 7.66166579e-03 -1.03608398e-02 2.54171039e-03 -2.55097821e-03 1.57160815e-02 1.73197780e-02 -5.79984253e-03 -4.35584661e-04 -7.36557506e-03 1.89837012e-02 -8.78977403e-03 5.11420844e-03 -9.59373638e-03 -1.27236759e-02 -1.23170633e-02 -5.97421965e-03 -7.83575885e-03 -2.10305173e-02 2.11783499e-03 1.90561041e-02 1.84833333e-02 -2.57733511e-03 1.48594547e-02 -2.22140457e-02 1.44757731e-02 6.45022141e-03 1.02783123e-03 8.68300069e-03 1.31153930e-02 7.93288369e-03 5.25360042e-03 2.54487880e-02 -2.41861795e-03 2.19556428e-02 -1.03916936e-02 1.79235991e-02 4.41032648e-03 -4.09030356e-03 7.39003066e-03 1.62533671e-02 1.11958506e-02 1.48860449e-02 -1.09074973e-02 -1.13151837e-02 -3.11555211e-02 1.51318330e-02 8.99764244e-03 2.10114382e-03 -2.47730408e-02 -7.68307224e-03 8.86860862e-03 8.74762889e-03 -1.14995679e-02 -8.25314783e-03 1.42830499e-02 -9.12119355e-03 2.10376326e-02 -1.83733962e-02 -1.39225172e-02 4.13992937e-04 -1.04250330e-02 -3.38279665e-03
-1.10789221e-02 -3.89684900e-03 1.22100161e-02 -1.16492771e-02 3.28006456e-03 1.33124003e-02 1.93498954e-02 -1.23997440e-03 6.57690689e-03 6.40207389e-03 1.25518823e-02 7.02647679e-03 9.51345917e-03 -3.63865076e-03 7.77770067e-03 -4.05167602e-03 -7.30162952e-03 -6.24322938e-03 1.44236512e-03 1.32940151e-02 1.27078071e-02 -4.33277292e-03 1.42467767e-03 -1.56238710e-03 1.13342628e-02 4.28250432e-03 -1.46346437e-02 9.76802222e-03 1.13667557e-02 7.51680741e-03 8.49032716e-04 1.24345915e-02 -1.43362964e-02 -1.23469047e-02 -1.07909599e-03 -1.17724715e-02 1.15102611e-03 4.36061760e-03 4.67724400e-03 -1.67682127e-03 6.48955954e-03 -2.87395786e-03 -1.50276981e-02 -3.47952242e-03 1.32706631e-02 -1.22677872e-03 8.76061060e-03 -8.91253632e-03 -8.06206837e-03 -9.02672298e-03 5.73692936e-03 -8.75638705e-03 8.38432461e-03 -2.20971508e-03 9.60362051e-03 -5.43039478e-03 4.82534431e-03 -5.43107686e-04 5.81017230e-03 1.97406728e-02 1.57100800e-02 -2.04292778e-03 -2.35900027e-03 1.60534978e-02 -6.31250965e-04 -1.85693323e-03 -5.26999868e-03 6.01269072e-03 1.00856423e-02 -1.33475438e-02 -1.22411568e-02 -1.60789508e-02 -8.63412116e-03 1.30172004e-03 -6.07490167e-03 5.27369743e-03 3.92935053e-03 9.14446730e-03 -1.05629850e-03 1.36818578e-02 7.40209315e-03 -3.86700383e-03 -1.32396594e-02 -9.08403844e-03 -1.09952353e-02 -2.41472991e-03 -1.34504605e-02 -4.18278389e-03 -5.96492086e-04 -1.50747886e-02 -1.78228563e-03 -7.84724019e-03 5.17045055e-03 1.03750955e-02 1.38152121e-02 -7.40947435e-03 2.55421083e-03 1.09546315e-02 -4.38047945e-03 9.61403176e-03 3.04114888e-03 4.22828132e-03 9.40605346e-03 9.05766897e-03 -5.36339870e-03 -8.32357444e-03 5.69389481e-03 3.90068977e-03 -8.91846418e-03 -9.44604259e-03 9.74533055e-03 -1.13319652e-02 1.52877055e-03 -7.87597708e-03 -5.00650518e-03 -6.68125413e-03 1.22945365e-02 1.23545425e-02 1.43776992e-02 1.56675633e-02 9.62600857e-03 9.07828845e-03 1.42751029e-02 -1.47926493e-03 -8.18251283e-04 -3.32258153e-03 -7.99286924e-03 -1.43537037e-02 -2.78604799e-03 -1.15044126e-02 -3.43147665e-03 -5.67106809e-03 -6.28006551e-03 -5.96736232e-03 -3.44479247e-03 1.04778139e-02 5.35291340e-03 1.46178529e-02 -8.12296548e-06 9.62192006e-03 1.22114467e-02 -8.63762572e-03 -1.12264268e-02 3.18376790e-03 1.71199604e-03 7.25881709e-03 1.30265846e-03 -1.95454825e-02 -5.56087680e-03 -1.04502207e-02 5.60912117e-03 8.49296222e-04 3.02348915e-03 5.90549549e-03 -5.73816826e-04 1.70283951e-02 4.56468947e-03 8.63112137e-03 1.13867931e-02 -1.15660792e-02 1.24515053e-02 -9.79033951e-03 -7.26385275e-03 1.38691044e-03 -8.43170378e-03 -1.45761098e-03 -1.00769186e-02 5.59953740e-03 -2.75069871e-03 1.82838049e-02 1.11176185e-02 -1.50501709e-02 7.68933562e-04 -1.42810941e-02 -8.85159941e-04 -1.65672712e-02 -3.24483565e-03 -5.04020508e-03 -1.28518641e-02 -2.87191733e-03 -7.92984385e-03 2.78324517e-03 -7.63869006e-03 5.01881726e-03 1.07763642e-02 -1.65519130e-03 -1.26605835e-02 4.19639703e-03 1.32756000e-02 -2.97316140e-03 -6.80139521e-03 1.22066010e-02 -4.56891209e-03 -1.88024789e-02 7.66467396e-03 -1.28157670e-02 2.10272241e-02 -7.46264821e-03 5.38676418e-03 9.30225197e-03 -2.48503243e-03 -2.92592356e-03 4.51940636e-04 9.09274910e-03 -2.19199411e-03 -3.28764669e-03 -2.99442350e-03 3.73572926e-03 1.30817411e-03 -2.77708448e-03 -1.06659839e-02 3.31316050e-03 -1.09930774e-02 1.67382676e-02 7.59096956e-03 -8.90415628e-03 1.05495972e-03 -1.29257077e-02 9.56623629e-03 1.29857045e-02 1.09087098e-02 -3.39243142e-03 -1.01213660e-02 3.47588118e-03 -7.54739798e-04 5.60162403e-03 1.58114359e-02 1.31210331e-02 -9.57716815e-03 8.76561832e-03 -2.06316519e-03 -4.12788661e-03 5.98225463e-03 -5.58376173e-03 1.05568143e-02 5.50659327e-03 5.01073431e-03 -7.60373985e-03 -1.08919377e-02 2.09734365e-02 -5.12614055e-03 -6.23479253e-04 -3.42051312e-03 -2.24866928e-03 -6.45079883e-03 -1.33791231e-02 3.93705955e-03 -6.03392813e-03 1.55659504e-02 2.69818027e-03 8.38346779e-03 -2.23270501e-03 -1.20627903e-03 9.21401754e-03 -8.88377987e-03 -1.69893894e-02
-2.07147393e-02 -1.55045567e-02 1.60981081e-02 -1.46666244e-02 -1.08964024e-02 1.18230591e-02 1.83028094e-02 -2.70912517e-02 -8.67344253e-03 -7.73394527e-03 2.16644518e-02 1.02934120e-02 -3.80223873e-03 7.83034135e-03 -6.12142822e-03 -1.07398899e-02 -6.63495762e-03 3.56388465e-03 -9.76033788e-03 4.99839778e-04 5.73315518e-03 6.75104512e-03 -5.38684009e-03 1.83938351e-02 1.71015467e-02 1.48558784e-02 1.07361225e-03 1.90750044e-02 1.61271580e-02 -1.66600123e-02 -6.33406569e-04 -2.01853178e-03 -1.32264281e-02 -1.89392213e-02 -9.57060792e-03 -2.62554232e-02 -5.94450952e-03 2.43365075e-02 1.88607462e-02 -2.61222594e-03 1.04452046e-02 2.08373014e-02 -1.28110880e-02 -3.46712954e-03 1.09758712e-02 1.49156032e-02 1.14403777e-02 1.98234878e-02 1.10160680e-02 -1.48734841e-02 -1.05586341e-02 1.13881100e-03 -1.34360353e-02 -1.02156610e-03 -3.52674257e-03 7.16035441e-03 1.10865850e-02 -1.23528913e-02 1.93106700e-02 3.49824503e-02 3.05742975e-02 -2.50899959e-02 -1.33499401e-02 1.76374372e-02 -6.22327672e-03 1.53449709e-02 1.42063824e-02 6.98491512e-03 5.93374157e-03 -4.45368933e-03 -2.01850645e-02 -3.23364674e-03 -1.48259765e-02 -1.05537539e-02 -7.91487936e-03 -1.32174259e-02 1.05908969e-02 1.43682072e-02 6.06428040e-03 1.14057204e-02 7.31916213e-03 -4.36903164e-03 -5.14664222e-03 -2.76874308e-03 -4.09282697e-03 5.38500259e-03 -9.90215875e-03 -5.46260690e-03 -6.32711360e-03 -7.23608118e-03 1.56386402e-02 -4.22321260e-03 -9.09583550e-03 7.96968059e-04 5.00264484e-03 9.24760662e-03 -8.10636766e-03 -2.08056485e-03 1.50064481e-02 1.94231272e-02 3.34020308e-03 1.92568805e-02 1.05321584e-02 -1.55653069e-02 1.42540503e-02 1.77973825e-02 -2.92819296e-03 1.80429164e-02 -1.64578427e-02 -1.09673850e-03 1.79396663e-02 -8.23971070e-03 1.02336388e-02 4.52096621e-03 2.07998175e-02 1.22419493e-02 1.81780085e-02 2.62641697e-03 2.15186439e-02 1.65557805e-02 -1.77968026e-03 -9.48208442e-04 9.77756362e-03 -1.00575658e-02 -1.51305236e-02 3.48492502e-03 -2.19515171e-02 -3.39695578e-03 7.98585638e-03 -6.61003683e-03 8.00937880e-03 -1.68771464e-02 1.93296876e-02 -9.60375648e-03 1.80798713e-02 4.77666501e-03 -1.98814273e-02 1.50862355e-02 3.17472988e-03 1.51070841e-02 1.92308370e-02 -4.62012133e-03 -3.07948235e-03 8.22527520e-03 -1.47998044e-02 -1.20824645e-03 2.16858927e-03 7.53588649e-03 1.01736989e-02 2.14001928e-02 1.63162015e-02 4.24584048e-03 -7.45724980e-03 1.22453310e-02 1.71709917e-02 4.40895185e-03 2.00785082e-02 2.01246925e-02 1.46556906e-02 -2.06565131e-02 2.21394710e-02 6.28014328e-04 8.54744576e-03 6.04399154e-03 -1.54830888e-03 -1.85254607e-02 1.41108350e-03 5.36515471e-03 9.94287897e-03 1.14141107e-02 1.62712969e-02 -2.02202592e-02 -2.57660151e-02 -2.39613820e-02 1.82259772e-02 -1.81048531e-02 -5.25216339e-04 1.79096218e-02 7.62207806e-03 1.70065369e-02 -9.67387203e-03 -1.13224955e-02 7.52239674e-03 -2.93304399e-03 -1.68815814e-02 1.17952246e-02 -9.20521934e-03 2.61176215e-03 -1.09056651e-03 9.62095521e-03 1.93680590e-03 8.71344842e-03 -9.93257295e-03 -2.08651777e-02 5.54811908e-03 -1.86713748e-02 8.03626888e-03 -1.66831817e-02 1.33899339e-02 1.22207887e-02 -1.59092974e-02 8.14550184e-03 -1.23155175e-03 3.03021097e-03 3.52238980e-03 5.37526142e-03 -3.29545932e-03 -5.10065071e-03 -1.99404303e-02 -5.40602114e-03 -1.36240739e-02 -1.95089225e-02 -9.26086120e-03 1.66529287e-02 2.31318865e-02 -8.39078240e-03 1.98802873e-02 -1.24879340e-02 1.21054510e-02 9.39965248e-03 8.38716794e-03 1.56744607e-02 8.53984430e-03 -1.91778634e-02 5.93294157e-03 1.97037030e-02 5.73129114e-03 2.16959491e-02 9.37130360e-04 1.70601271e-02 -4.59189853e-03 -7.92990346e-03 1.65502019e-02 1.02320490e-02 1.23903565e-02 5.30985929e-03 -3.66383954e-03 -1.99259166e-02 -1.05015142e-02 2.09206901e-02 -5.52212773e-03 1.94748938e-02 -2.38849837e-02 6.22277055e-03 -9.24404059e-03 1.26580074e-02 -7.46895210e-04 1.41786796e-03 2.83437688e-03 -6.72408612e-03 1.37308361e-02 -1.18728755e-02 -8.30708351e-03 2.24307589e-02 -4.00881981e-03 -1.77556986e-03
-5.13600372e-03 -1.67225543e-02 3.27299861e-03 -1.20871644e-02 -1.54319722e-02 1.76441278e-02 1.42490175e-02 -1.86301954e-02 7.78384623e-04 6.83818711e-03 6.08734693e-03 2.27975138e-02 4.28629806e-03 1.17708398e-02 -4.60599083e-03 -8.88888072e-03 -6.60502352e-03 -1.87898856e-02 8.39254912e-03 1.25113139e-02 1.15757538e-02 -9.87573178e-04 -1.80842544e-04 2.11727014e-03 8.41675233e-03 6.34547556e-03 -3.13337962e-03 -1.78956489e-05 -3.76523985e-03 -5.09056449e-03 1.62067625e-03 3.54982843e-03 -1.31536173e-02 -5.11774095e-03 8.23267445e-04 -1.41642177e-02 -3.98129644e-03 -1.30038534e-03 7.60725234e-03 -1.24694221e-02 1.64536033e-02 9.60572343e-03 -1.61640327e-02 -1.85755193e-02 1.27271414e-02 5.90375299e-03 1.71082243e-02 5.56868967e-03 1.06660584e-02 1.18137356e-02 -1.96374557e-03 2.60197395e-03 -1.71003252e-04 1.63870286e-02 7.30738335e-04 -1.48847662e-02 4.27104393e-03 -2.67509613e-02 1.19636031e-02 1.99403260e-02 2.67857630e-02 -1.12729603e-02 -2.58479360e-02 3.07387603e-03 1.32148713e-03 -7.05391075e-03 -7.12259021e-03 -1.25712287e-02 8.94124992e-03 -9.75197647e-03 -5.86202927e-03 -3.12196813e-03 -3.31972796e-03 -1.62704603e-03 4.85513266e-03 -1.27215572e-02 1.11442655e-02 -1.49266364e-03 2.05114465e-02 4.82447771e-03 7.32020754e-03 -6.09053066e-03 2.55078007e-03 -5.05851582e-03 -1.54415611e-02 -1.82707924e-02 -1.32796168e-02 -1.45578664e-02 -1.10034756e-02 -1.99876074e-02 1.34257479e-02 -5.83054963e-03 1.48304831e-02 1.22643588e-02 1.45219937e-02 -5.73139498e-03 -1.29076801e-02 1.43238939e-02 1.52852433e-03 4.12801886e-03 -3.22442455e-03 5.00710122e-03 7.22184684e-03 1.74664415e-03 4.92787268e-03 -8.25753668e-04 5.20502171e-03 -1.20492680e-02 -9.16451029e-03 -6.99045043e-03 -2.64108763e-03 -5.19558042e-03 -6.56370772e-04 -1.13875289e-02 1.50144007e-02 6.53659133e-03 1.32498043e-02 5.43614675e-04 -1.72263174e-03 1.37714332e-03 1.33310771e-02 1.37622925e-02 1.27588594e-02 -6.10922929e-03 -8.18162505e-03 -8.07722285e-03 -7.89185707e-03 -9.34864581e-03 1.61882602e-02 -3.08751897e-03 1.55518493e-02 4.30003216e-04 1.04583493e-02 -5.95326396e-03 6.64363662e-03 1.89808961e-02 1.02963684e-04 4.89237718e-03 4.68329759e-03 8.46127700e-03 5.49952872e-03 -9.35850944e-03 1.79290585e-03 8.05769768e-03 4.89205646e-04 -1.71298988e-03 -1.17814364e-02 -1.61467679e-02 2.02316511e-03 -1.13217449e-02 5.45598241e-03 4.13811440e-03 -9.01989348e-04 2.80552786e-02 8.75365548e-03 6.31644716e-03 -1.11208169e-03 4.08209069e-03 -7.61767477e-03 -6.79643219e-03 -1.89440360e-03 -6.79893943e-04 -1.28807910e-02 5.76535822e-04 -2.05701217e-03 6.22292561e-03 2.28211386e-04 -2.13208026e-03 3.61297512e-03 1.75749417e-02 2.26996038e-02 -6.71997666e-03 -2.50795344e-03 -8.93168524e-03 1.12761809e-02 -1.33300712e-02 4.94944770e-03 -4.06232430e-03 -1.56456791e-02 8.03164020e-03 1.08969929e-02 6.22020150e-03 -6.36139372e-03 7.91315548e-03 8.95021390e-03 -1.69413761e-05 9.18299425e-03 -2.30065244e-03 3.61587829e-03 -8.67468957e-03 9.40780330e-04 -4.98812704e-04 -3.51208088e-04 -6.38944143e-03 6.89023221e-03 -1.02054356e-02 8.65613203e-03 -6.76597143e-03 1.25953427e-03 1.69546418e-02 3.18563078e-03 -1.46739744e-03 -9.23145842e-03 1.72089953e-02 1.28184445e-02 -3.97111708e-03 -8.85952543e-03 -3.90217756e-03 -1.24202697e-02 -8.34230706e-03 -1.56839862e-02 -1.67755429e-02 -5.68259601e-03 2.51805643e-03 1.71629433e-02 -1.14728771e-02 1.22971144e-02 -1.19996192e-02 6.55577984e-03 -3.28464783e-03 1.32445265e-02 -1.07089635e-02 -6.54805731e-03 1.56302974e-02 1.69404987e-02 9.77008883e-03 -1.80648989e-03 1.73179302e-02 2.68575852e-03 1.72636355e-03 -9.04629752e-03 -9.66819096e-03 1.27928331e-03 4.99705179e-03 9.54428129e-03 -3.20683024e-03 -1.51362345e-02 6.50411588e-04 -1.78088341e-02 4.70233662e-03 -7.20595103e-03 -1.24412298e-03 1.06899824e-03 -1.31741259e-03 2.14770716e-03 -1.19250547e-02 3.39584169e-03 -2.42536375e-03 -1.84372033e-03 -2.34359177e-03 1.89162733e-03 -6.26309542e-03 -4.62104240e-03 7.22853094e-03 -1.34458076e-02 -6.63539162e-03
-5.21330396e-03 -9.26541723e-03 1.65369622e-02 -1.71558540e-02 -1.54824266e-02 1.61043031e-03 3.18580703e-03 -9.19559039e-03 3.79310898e-03 -3.06012295e-03 1.20188352e-02 1.37865078e-02 -3.09943780e-03 -6.79440983e-03 9.63725802e-03 -3.53565323e-03 6.63357507e-03 4.83557209e-03 -1.54214203e-02 -4.02170117e-04 -2.91000609e-03 -9.09832865e-03 -7.08239945e-03 3.17831081e-03 4.60700970e-03 4.52511798e-04 4.88112262e-03 9.66192037e-03 1.09507246e-02 5.67918457e-03 -8.27553682e-03 1.33659411e-02 -1.19028334e-02 6.34194992e-04 -1.45928189e-02 -1.70868309e-03 -2.20000427e-02 2.00536940e-02 7.41930539e-03 -1.95606053e-02 -4.86568641e-03 9.24371183e-03 -6.57212175e-03 1.26543327e-03 1.06728822e-03 4.73735761e-03 -3.67309456e-03 4.40216530e-03 6.24194974e-03 6.50711777e-03 3.95073090e-03 -1.68126728e-02 -1.36645678e-02 -1.61315536e-03 -5.39876870e-04 -5.69700096e-05 2.06126124e-02 -2.77220104e-02 1.26939304e-02 1.11229904e-02 2.27230452e-02 -6.96697272e-03 -1.09835993e-02 1.86680276e-02 1.77164518e-04 -9.15773911e-04 -5.43027837e-03 -1.05788158e-02 1.45729771e-02 -5.47327381e-03 -1.24153476e-02 -1.08924825e-02 -1.81686471e-03 1.03403581e-03 -8.70461226e-04 -1.35564338e-02 4.43176227e-03 5.62756730e-04 1.56377871e-02 -3.76522215e-03 5.63787157e-03 -1.81474797e-02 2.95459526e-03 -1.13602873e-04 -1.51124764e-02 -3.15960473e-03 2.59652222e-03 -1.79116838e-02 -2.39733811e-02 -4.24385956e-03 1.50768971e-02 4.34910087e-03 -1.96451740e-03 7.78069906e-03 1.20016690e-02 9.64180194e-03 -1.67827941e-02 -7.68341997e-04 1.92981344e-02 3.45885777e-03 1.20666269e-02 3.41127277e-03 7.89153390e-03 -1.57847684e-02 9.06241313e-03 5.35009941e-03 2.27632467e-03 -3.65336193e-03 -9.15582851e-03 1.23502954e-03 1.46340923e-02 -5.84321469e-03 9.33523569e-03 -6.41213683e-03 7.43956864e-03 1.19917840e-02 -3.71612288e-04 8.28693435e-03 9.67722386e-03 9.25100991e-04 3.60775203e-03 8.69856309e-03 1.40294600e-02 -8.61868844e-04 -1.10786976e-02 1.61648635e-02 4.71838098e-03 8.58631916e-03 1.98657941e-02 -8.18707282e-04 1.87894551e-03 -4.53935005e-03 1.79546454e-03 -1.55273667e-02 1.10972258e-04 1.88199505e-02 -1.03470273e-02 1.91933289e-02 -5.46136824e-03 1.71578676e-02 -1.90605316e-03 -8.49008188e-03 -1.12820007e-02 1.22457743e-02 1.24894315e-02 1.18012382e-02 5.01432340e-04 -1.43445833e-02 2.68752058e-03 -1.22453796e-03 9.55154467e-03 4.47167433e-04 -1.94405427e-03 1.74780320e-02 -4.52902215e-03 1.49765415e-02 1.12200547e-02 -2.43478222e-03 -6.47426676e-03 -1.85424008e-03 -1.21319033e-02 -9.86184180e-03 -7.52038555e-03 1.04550575e-03 -4.97751124e-03 -4.70472733e-03 1.20888352e-02 -1.65614561e-04 3.11260577e-03 1.61793865e-02 1.60108656e-02 -1.98952276e-02 -2.04828419e-02 -1.52040590e-02 5.17816236e-03 -1.10271387e-02 -1.27292620e-02 1.03309304e-02 -1.73353888e-02 3.12260981e-03 -6.57382002e-03 -6.24457374e-03 -3.92163591e-03 3.02858022e-03 -8.46591953e-04 9.99824330e-03 9.61997139e-04 2.31032167e-03 7.33689917e-03 1.29200295e-02 6.81096455e-03 8.96900520e-03 -1.02336323e-02 -4.27104952e-03 1.41368266e-02 -1.00257748e-03 4.61703213e-03 -4.86745639e-03 2.69891764e-03 1.24489516e-02 8.11630767e-03 -4.68681188e-04 -4.82018944e-03 2.02009082e-02 4.39653639e-03 -1.04456756e-03 -6.20791037e-03 -8.09495710e-03 -1.22946734e-02 -3.40204895e-03 -1.72673222e-02 -7.23809702e-03 -1.08567290e-02 1.61990654e-02 8.92424118e-03 -7.27068307e-03 1.31824780e-02 -2.62177717e-02 2.25988347e-02 1.62240602e-02 6.24252390e-03 2.17397348e-03 3.80979734e-03 -2.53752363e-03 1.31794382e-02 1.56774260e-02 9.60573275e-03 -1.56055990e-04 -9.11075622e-03 8.12412705e-03 -1.23647209e-02 -1.09834028e-02 1.82920229e-02 5.16800908e-04 9.17398836e-03 1.61931533e-02 -2.32331920e-03 -2.14382284e-03 -3.72869242e-03 6.94816746e-03 -9.40018799e-03 -1.40736124e-03 -8.03708006e-03 1.70432031e-02 4.70042275e-03 -3.07440152e-03 5.53751225e-03 1.80880558e-02 1.69386491e-02 -2.36819801e-03 1.89407989e-02 -2.43360549e-03 -5.30774333e-03 4.06366214e-03 -1.43746817e-02 -1.32813193e-02
-2.05515679e-02 -8.59722588e-03 1.56033235e-02 -9.46583971e-03 -2.01441869e-02 2.18155398e-03 9.58865322e-03 -3.94470757e-03 -3.18812695e-03 -1.00534493e-02 1.74899176e-02 2.17601433e-02 1.33283727e-03 -1.80663227e-03 -1.43189030e-03 -6.72473945e-03 -7.81370327e-03 -4.25487058e-03 7.74631696e-03 -2.04140189e-04 5.15877595e-03 2.45059258e-03 -6.13058335e-04 -8.11997510e-04 1.14193745e-02 2.14499999e-02 2.47933273e-03 1.20653594e-02 1.73024740e-02 -7.52499094e-03 -1.85500868e-02 -1.57148321e-03 -1.82214919e-02 -1.50007773e-02 -1.42824734e-04 -1.68729778e-02 -1.71913076e-02 9.58312582e-03 5.28434385e-03 -1.42708169e-02 1.96770811e-03 9.74664558e-03 -1.30652934e-02 -1.23628397e-02 6.63590338e-03 1.56550705e-02 6.60763774e-03 1.47033518e-03 1.21515295e-04 7.22567376e-04 2.28763581e-03 -4.05453891e-03 -3.46395699e-03 -8.13467987e-03 -8.85874208e-04 -2.73228809e-03 4.23496636e-03 -2.64592767e-02 1.57372057e-02 1.56838726e-02 3.13494690e-02 -2.11818684e-02 -1.18796201e-02 1.30162239e-02 -1.10067800e-02 -5.70816733e-03 1.83165781e-02 6.24739099e-03 6.18331693e-03 -4.69287112e-03 -7.92463683e-03 -2.25662673e-03 -1.37534169e-02 -2.59604212e-02 -1.95469987e-02 -3.79344239e-03 4.21560742e-03 7.28284894e-03 -1.70106464e-03 2.01918464e-02 1.51529780e-03 9.83063783e-03 -4.68387129e-03 -1.84528250e-02 -1.08222943e-02 9.07445978e-03 -1.72343832e-02 -1.52298938e-02 -1.88263506e-02 7.68704759e-03 3.68148525e-04 -1.09011652e-02 -7.99988490e-03 6.54151896e-03 -2.73684552e-03 8.25866498e-03 9.35946871e-03 9.67472605e-03 1.27594760e-02 1.42366812e-02 -2.52866256e-03 1.94197819e-02 -9.87233035e-03 -1.54073024e-02 2.25144420e-02 6.51288638e-03 -1.10239210e-02 8.65976885e-03 -1.94362774e-02 1.23007027e-02 1.72388777e-02 -4.51115984e-03 5.41324087e-04 -1.75447180e-03 1.98864844e-02 1.29751507e-02 8.95974599e-03 1.10293981e-02 2.56107422e-03 -2.82453722e-03 6.05045632e-03 -1.06684789e-02 1.24039352e-02 -1.84452347e-02 9.35485680e-03 1.34044643e-02 -8.46468657e-03 3.16406717e-03 2.34007705e-02 -2.44132727e-02 7.92838167e-03 -1.88016277e-02 -2.51622591e-03 -7.44653586e-03 2.38265679e-03 2.62767319e-02 -8.75839218e-03 9.82071925e-03 1.22539587e-02 5.85951889e-03 7.52747897e-03 -2.79608788e-03 -1.26238214e-02 2.76538152e-02 -1.00154430e-02 7.66614126e-03 1.09437378e-02 -6.70381263e-03 -3.44156357e-03 -1.28249137e-03 -7.62610510e-03 4.81482316e-03 -6.64754258e-03 1.43457809e-02 -1.80242653e-03 1.37596065e-03 4.53984132e-03 1.50186045e-03 9.48628760e-04 -1.15965493e-02 1.31782610e-03 -8.33433867e-03 -5.07253408e-03 2.87424610e-03 -8.91166646e-03 5.86454943e-03 -7.40850857e-03 -5.50149195e-03 1.08968541e-02 6.30455790e-03 2.83749658e-03 -1.36028836e-02 -1.36685162e-03 -6.40601525e-03 6.36753114e-03 -5.00239991e-03 -6.89272163e-03 4.34024213e-03 6.58195792e-03 9.59507748e-03 -4.48053936e-03 -4.30654688e-03 -1.55471126e-02 -3.52658983e-03 -8.40797368e-03 -8.88230000e-03 -1.19899493e-02 -9.19421855e-03 -4.40487667e-04 -7.03913299e-03 3.27078928e-03 2.76423292e-03 -2.65085828e-02 -7.54126068e-03 2.47297827e-02 -2.07467582e-02 2.16386802e-02 -3.50632728e-03 2.13869959e-02 1.41260363e-02 -1.20494077e-02 -1.18010945e-03 -1.20758032e-02 1.76445339e-02 1.85023807e-02 5.10836439e-03 -2.79219565e-03 2.81184539e-03 -2.21777707e-02 -9.47282277e-03 -1.25151686e-02 -9.19588841e-03 -2.43922099e-02 1.74278412e-02 1.73209403e-02 -2.42696274e-02 2.30164058e-03 -1.37686823e-02 8.89000762e-03 1.06214418e-03 2.33408622e-03 -5.68977231e-03 4.74808132e-03 -5.29758073e-03 1.97200407e-03 2.08549779e-02 -1.92696939e-03 1.69373285e-02 -8.33604857e-03 9.57615208e-03 -5.81878610e-03 -1.53080458e-02 5.51096397e-03 -2.46946001e-03 9.19784047e-03 5.17571950e-03 -3.25374538e-03 2.78897554e-04 -1.02748778e-02 8.63640476e-03 4.46725823e-03 1.49954762e-02 -8.99838936e-03 1.19444197e-02 -9.00153816e-03 -6.38707867e-03 -7.16481532e-04 9.54478327e-03 2.54997890e-02 -2.86436803e-03 1.77005213e-02 -7.93284830e-03 -2.41782516e-02 2.21254658e-02 -1.12919929e-02 2.61931331e-03
-9.53638181e-03 -8.16070475e-03 7.31974142e-03 -1.38017824e-02 -8.04847665e-03 2.65657008e-02 2.52502263e-02 -1.00721139e-02 -2.31427476e-02 -1.26637919e-02 3.35830706e-03 1.98972858e-02 -2.00790428e-02 1.59273222e-02 -1.02815386e-02 -7.68187456e-03 -1.69885438e-02 -1.79725643e-02 -1.39570739e-02 -1.42913787e-02 6.93413382e-03 7.25834165e-03 -4.01324965e-03 1.31922336e-02 4.34643263e-03 2.18081032e-03 -8.61336756e-03 8.11333302e-03 5.59064792e-03 -1.87002849e-02 -1.65428817e-02 9.28560458e-03 -1.10902982e-02 -1.57329943e-02 -2.79534273e-02 -2.04089433e-02 -2.40305234e-02 1.43395867e-02 9.35206842e-03 -5.94475958e-03 5.49354311e-03 4.98009101e-03 -1.45268152e-02 -4.44565015e-03 1.18299462e-02 2.72601796e-03 2.61040963e-03 2.32341476e-02 1.53578427e-02 -8.49541835e-03 -1.13144880e-02 -8.49704444e-03 -9.51780879e-04 1.25267112e-03 5.54323895e-03 4.73877229e-03 2.66211797e-02 -2.39382926e-02 1.26197096e-02 2.92726457e-02 2.81405784e-02 -2.61002518e-02 -2.70168614e-02 6.98261010e-03 -1.05340304e-02 1.03875315e-02 1.13469511e-02 9.17653833e-03 7.18241557e-03 -2.02049706e-02 -3.60311801e-03 1.18416157e-02 -1.23335728e-02 -2.34518610e-02 -1.39704281e-02 -1.48324203e-02 1.95783861e-02 1.49699170e-02 2.32774634e-02 2.62214476e-03 1.70096159e-02 -2.66249906e-02 -1.62537470e-02 -2.11748295e-02 -1.13762245e-02 -1.09273428e-03 -9.21426434e-03 -2.44771317e-02 -2.39146575e-02 -1.36178927e-02 -3.40598146e-03 -2.27888022e-03 -1.43150315e-02 1.84253545e-03 -1.75977629e-02 5.22896275e-03 -1.03134662e-02 1.74151454e-02 4.31782752e-03 1.78821981e-02 6.72551943e-03 7.32449302e-03 6.91723730e-03 -6.02215389e-03 6.36089034e-03 1.92085896e-02 2.82230116e-02 2.27120724e-02 -8.50373972e-03 2.94085039e-04 1.67578310e-02 -1.34342071e-02 7.87289441e-03 -1.25678713e-02 1.16552459e-02 1.84524283e-02 1.15102055e-02 7.11173564e-03 5.59297437e-03 5.00099361e-03 9.28163761e-04 2.20873561e-02 1.47534302e-02 -1.86725948e-02 -1.75535567e-02 7.64325820e-03 -2.15013307e-02 -8.49644002e-03 1.90973077e-02 -9.06773098e-03 1.72118638e-02 -2.94442941e-03 7.78456312e-03 -4.34878236e-03 1.82713121e-02 1.34087931e-02 -2.70254910e-02 1.58671532e-02 7.69042224e-03 1.73732955e-02 2.22780891e-02 -9.06152092e-03 -2.33725999e-02 1.63989421e-02 -3.00776260e-03 8.26552697e-03 1.63419582e-02 -2.03570910e-03 1.92449037e-02 1.36020463e-02 9.98963602e-03 1.28035825e-02 -1.44266174e-03 3.06087863e-02 5.22081333e-04 2.73515619e-02 6.34113373e-03 1.60879400e-02 1.85374487e-02 -4.27331496e-03 1.57743767e-02 -6.38848590e-03 1.75890774e-02 1.51940882e-02 9.60680190e-03 -1.04125617e-02 -1.57584157e-02 -1.37845415e-03 8.07722192e-03 3.48261488e-03 3.91745148e-03 -2.94901077e-02 -1.42997885e-02 -1.43010393e-02 2.52324827e-02 -6.42079348e-03 -8.84960964e-03 1.95555184e-02 6.12977194e-03 1.36995818e-02 -8.97500291e-03 -2.40432583e-02 1.01315156e-02 -1.76019117e-03 -1.40984291e-02 5.93272503e-03 -1.83979105e-02 7.75239337e-03 -1.38829956e-02 4.69484366e-03 1.00482432e-02 1.74963418e-02 -2.51553878e-02 -2.67908387e-02 2.03421116e-02 -1.55968014e-02 2.15936303e-02 -9.00772680e-03 1.65529959e-02 1.30788097e-02 -6.46639615e-04 8.97234771e-03 -1.95113197e-02 1.77527368e-02 1.71771441e-02 -1.18047399e-02 -1.02912653e-02 -2.00372636e-02 -3.04927900e-02 -2.65646875e-02 -1.01876389e-02 -1.33950971e-02 -2.17006132e-02 1.81711093e-02 5.74343139e-03 -1.27883088e-02 1.94792468e-02 -2.16689929e-02 1.75551660e-02 2.22095083e-02 9.15863458e-03 1.50448130e-02 1.81067102e-02 -1.50568215e-02 6.46480313e-03 2.16573942e-02 2.57711038e-02 8.53216741e-03 -2.44467445e-02 1.81937646e-02 -1.15334466e-02 -2.78406534e-02 1.54231116e-02 2.56211571e-02 3.73100629e-03 2.60405969e-02 -1.49220098e-02 -1.23711219e-02 -2.86828857e-02 2.51416266e-02 1.57064144e-02 7.24440301e-03 -1.22215562e-02 2.03857832e-02 -8.94040859e-04 1.21559082e-02 -7.51070026e-03 1.69127844e-02 1.59767810e-02 -1.88442450e-02 1.74847525e-02 -4.35006758e-03 -2.00784709e-02 9.83708911e-03 -8.22859351e-03 -8.17220099e-03
-6.32662978e-03 -1.43389646e-02 2.72862446e-02 -1.49861882e-02 -2.52857096e-02 1.02589820e-02 1.13644795e-02 -1.45099638e-02 -1.21502606e-02 -1.98413096e-02 1.31308194e-02 1.75239872e-02 -1.74966268e-02 9.85280704e-03 -2.14272235e-02 -1.38481148e-02 -1.81309450e-02 5.36780478e-03 -2.30506100e-02 -1.56961381e-02 1.77199822e-02 8.80048983e-03 -6.92903949e-03 2.59778053e-02 2.53820531e-02 1.65888537e-02 -2.54132319e-02 6.01032469e-03 4.30995924e-03 -1.12325810e-02 -2.64477134e-02 5.47046447e-03 -1.71352811e-02 -9.84834414e-03 -8.83759558e-03 -5.93478419e-03 -2.58218944e-02 1.82657111e-02 1.06826928e-02 -1.46518433e-02 6.73214719e-03 2.32410599e-02 -5.54309599e-03 -1.02532012e-02 1.37065500e-02 5.82179101e-03 1.88900325e-02 1.76128820e-02 8.21506232e-03 -1.43193677e-02 -1.91206690e-02 -1.28363706e-02 -2.22571827e-02 -2.96705198e-02 8.53161793e-03 1.64779499e-02 1.03889592e-02 -2.91966219e-02 2.06772629e-02 1.58644356e-02 1.50852306e-02 -8.41320585e-03 -1.10026989e-02 1.31582916e-02 -2.36457307e-02 9.79306642e-03 1.35302925e-02 4.03587380e-03 1.13459118e-02 -1.29408594e-02 -6.19579665e-03 3.46760126e-03 -1.16782309e-02 -8.75802152e-03 -6.37338171e-03 -2.18582228e-02 1.94761455e-02 1.97032541e-02 1.97712872e-02 2.08813101e-02 9.10605025e-03 -2.72797290e-02 -2.79673077e-02 -1.72763672e-02 -2.43243407e-02 2.29739118e-04 -2.64981873e-02 -1.74402166e-02 -1.39989639e-02 -9.52486694e-03 2.28665862e-02 -1.27188852e-02 -1.25330668e-02 -1.47789968e-02 -1.22280577e-02 2.07060538e-02 -3.81221366e-03 2.41524782e-02 1.73769947e-02 1.80470012e-02 9.76077560e-03 2.66015641e-02 8.43440276e-03 -1.80275235e-02 6.63925707e-03 7.46311015e-03 2.86501460e-02 6.44919043e-03 -2.37729736e-02 5.93355484e-03 5.94861945e-03 -2.68792100e-02 1.03980023e-02 -6.77645998e-03 5.93233109e-03 4.68904106e-03 7.58630969e-03 1.37592992e-02 2.15035267e-02 2.29349546e-02 2.13710815e-02 6.96804747e-03 2.53243968e-02 -1.44972708e-02 -2.58533470e-02 2.66529433e-02 -1.59165580e-02 -2.42878031e-02 1.51605485e-02 -1.03567597e-02 1.71839148e-02 -1.55471060e-02 2.37098876e-02 -2.77293343e-02 1.44766159e-02 1.77643858e-02 -2.26387493e-02 2.26088632e-02 2.60507297e-02 1.29389502e-02 1.50579037e-02 -2.14860328e-02 -9.08479840e-03 1.94851197e-02 -1.90564599e-02 2.68279277e-02 2.76625454e-02 -2.32848376e-02 1.19751431e-02 2.32801996e-02 1.23064583e-02 1.54252797e-02 -2.49271058e-02 2.07791235e-02 2.38945559e-02 1.17403036e-02 6.56390004e-03 1.95616763e-02 2.15572249e-02 -1.32874092e-02 2.60659996e-02 8.95084720e-03 2.67616045e-02 9.30817705e-03 1.31188352e-02 -2.06483305e-02 -6.36299234e-03 1.17998645e-02 1.94283612e-02 2.37813778e-02 1.87304635e-02 -1.68345422e-02 -2.44119540e-02 -1.98730715e-02 1.57580972e-02 -2.44194251e-02 -1.94711927e-02 1.73107944e-02 1.29445903e-02 2.65940893e-02 -1.77397467e-02 -2.17191819e-02 2.61543728e-02 -2.61583198e-02 -9.70954355e-03 1.00442097e-02 -1.58286206e-02 4.45424160e-03 -1.95726566e-02 1.86650492e-02 9.82198305e-03 2.25188360e-02 -2.43051406e-02 -2.04902627e-02 2.38158964e-02 -6.52108248e-03 2.79024914e-02 -1.70976557e-02 2.67464593e-02 1.93197038e-02 -2.19321828e-02 4.60919226e-03 -4.10911348e-03 1.36944922e-02 2.33842917e-02 -9.65797156e-03 -1.95860695e-02 -1.14043495e-02 -2.38950998e-02 -5.85881248e-03 -9.88285057e-03 -7.04519590e-03 -2.59727314e-02 1.16003687e-02 5.92155941e-03 -7.58786267e-03 2.51144748e-02 -3.06332670e-02 2.65982784e-02 2.53661424e-02 1.60186552e-02 1.07305925e-02 1.57249775e-02 -1.02136116e-02 1.90237742e-02 2.02047974e-02 1.53088477e-02 2.56513059e-02 -1.57782212e-02 8.80193803e-03 -2.52476931e-02 -8.51383246e-03 7.98053388e-03 1.96505692e-02 1.81169659e-02 2.14768108e-02 -1.45108663e-02 -8.56451597e-03 -1.31239565e-02 1.89515390e-02 7.67487753e-03 1.58334933e-02 -1.01027684e-02 1.57698207e-02 1.37376469e-02 2.63949856e-02 -1.75123233e-02 2.67524198e-02 8.84973072e-03 -1.01787224e-02 2.13412587e-02 -1.67284869e-02 -2.56672986e-02 8.80092569e-03 -1.36362500e-02 -6.45211479e-03
-1.59626454e-02 -6.11014059e-03 1.00992452e-02 -2.47142408e-02 -7.71774538e-03 2.25117896e-02 1.38121154e-02 -2.36522947e-02 -8.99856444e-03 3.83200269e-04 1.17853831e-03 2.28056423e-02 -9.49373469e-03 -1.98295712e-03 -1.00936498e-02 2.06484366e-03 -9.55632515e-03 5.02681313e-03 -1.54358670e-02 -1.29959015e-02 9.95586533e-03 1.35820284e-02 -8.17289692e-04 7.61737907e-03 2.89782323e-03 2.03291215e-02 -8.53064097e-03 9.91146732e-03 2.18324307e-02 -1.58734806e-02 -4.08107834e-03 2.03504357e-02 -1.18323788e-02 -9.84722655e-03 -2.13018693e-02 -7.63304997e-03 -1.37564968e-02 2.41012946e-02 1.48216179e-02 -2.14179289e-02 1.82491131e-02 1.75230931e-02 -1.48518924e-02 -1.04582915e-02 9.85396467e-03 1.35646993e-02 2.31164182e-03 1.95096731e-02 9.12590511e-03 1.11591928e-02 3.52222612e-03 -5.87572111e-03 -2.44615087e-03 8.20123963e-03 1.53275076e-02 -2.80398899e-03 1.33379130e-02 -1.45583525e-02 1.15285618e-02 2.30378862e-02 1.28214760e-02 -7.22750789e-03 -1.00361723e-02 1.56855341e-02 -1.55301346e-02 2.48231902e-03 1.04494654e-02 -5.35895582e-03 1.65545922e-02 -8.78476351e-03 -2.50272769e-02 1.32639185e-02 -2.14348026e-02 -1.16337538e-02 9.00232233e-04 -1.39475018e-02 1.31314751e-02 9.71418619e-03 1.27181178e-02 6.43611792e-03 4.90906928e-03 -2.38578487e-02 -1.73523966e-02 -1.70748010e-02 -2.29393903e-04 8.34804866e-03 9.77098197e-03 1.60339393e-03 -2.00482141e-02 -3.13924365e-02 2.18395349e-02 -3.27146775e-03 -6.62566768e-03 -6.66137727e-04 -1.41930049e-02 4.22126753e-03 -2.03282945e-02 2.02263221e-02 1.79999731e-02 1.82816703e-02 -1.88788527e-03 1.25341518e-02 1.21631445e-02 -1.53226508e-02 1.84583757e-02 -1.28197554e-03 1.08600492e-02 1.57931391e-02 -1.32504748e-02 1.32787935e-02 9.53846727e-04 -9.88756027e-03 3.87343345e-03 -1.93410832e-02 1.61790065e-02 8.27905373e-04 -1.33795815e-03 1.45915281e-02 1.28263775e-02 2.20466796e-02 3.65169067e-03 1.02717858e-02 1.87782608e-02 -2.46017203e-02 -1.76841132e-02 -1.08125701e-03 -5.91267785e-03 -2.25472264e-02 2.03314628e-02 -2.36858893e-02 1.32869594e-02 2.60081788e-06 1.99017338e-02 -1.49406167e-02 -2.48002890e-03 1.63656361e-02 -1.38465557e-02 6.13311026e-03 9.86147951e-03 2.52840631e-02 7.12964591e-03 -1.13132279e-02 -9.60802007e-03 1.34474933e-02 7.28893094e-04 8.37150402e-03 6.23007165e-03 -2.07989085e-02 -1.12218193e-04 1.37811564e-02 8.50661937e-03 -3.86053021e-03 -3.30444542e-03 2.00058389e-02 -8.36539455e-03 1.63625162e-02 1.45815220e-02 1.68024972e-02 4.23246855e-03 -1.86964534e-02 1.67625323e-02 -2.98274052e-03 1.11324964e-02 -7.03542028e-03 -9.92773008e-03 -1.49687158e-03 8.06161109e-03 -4.20766091e-03 5.25014894e-03 2.42437720e-02 7.65437260e-03 -2.01224349e-02 -8.21346976e-03 -4.67719743e-03 2.08475739e-02 -1.09418081e-02 -6.43835729e-03 2.02552173e-02 4.16153995e-03 -2.93818535e-03 -4.63341083e-03 -4.44805995e-03 -1.82966155e-03 -1.55383702e-02 -1.49536431e-02 8.54285527e-03 -7.77287758e-04 1.77654326e-02 -2.23494321e-03 1.50581114e-02 -1.15228409e-03 1.01174070e-02 -2.47098431e-02 -1.64548662e-02 9.49116517e-03 -2.42903791e-02 2.49954537e-02 -2.74569020e-02 1.50473230e-02 2.58263052e-02 -1.69378836e-02 8.03726353e-03 1.38795399e-03 3.29765840e-03 3.99488397e-03 4.60427068e-03 -1.97454588e-03 -1.06902802e-02 -1.39706526e-02 -5.87500352e-03 -1.75966471e-02 -1.90201178e-02 -5.14077907e-03 2.01453585e-02 9.49629024e-03 -6.09282218e-03 6.69745030e-03 -2.61742100e-02 9.38450545e-03 1.91276483e-02 1.04737077e-02 6.76498655e-03 -1.73531123e-03 -1.65146552e-02 1.45070963e-02 2.13097334e-02 1.63201857e-02 2.09229235e-02 -1.69550739e-02 2.59066615e-02 -7.95784406e-03 -1.28710587e-02 1.69296898e-02 1.21146152e-02 1.41154714e-02 2.27970351e-03 -8.70423485e-03 -4.10014391e-03 -1.35524385e-02 2.38015186e-02 9.48175788e-03 3.48076830e-03 -1.32175796e-02 1.59190614e-02 -5.21660736e-03 2.01102416e-03 -1.71725545e-02 1.25591615e-02 1.06882928e-02 -2.51587923e-03 1.69048160e-02 -7.68708950e-03 -2.30408292e-02 1.38685917e-02 -2.21710596e-02 -2.40690298e-02
-2.72909421e-02 -6.91658910e-03 6.48947060e-03 -2.15288159e-02 -2.14070212e-02 1.88332722e-02 1.48270093e-02 -1.03407642e-02 -1.48324892e-02 -2.72222478e-02 4.83449921e-03 1.09295081e-02 -1.61335208e-02 2.42085103e-03 -1.96266249e-02 -1.09151676e-02 -1.05798608e-02 1.23536540e-02 -5.78575255e-03 -2.04049703e-02 1.91421080e-02 2.06031613e-02 -2.54863012e-03 5.25734294e-03 2.27963179e-02 1.45338653e-02 -2.11960282e-02 1.88425872e-02 2.19864678e-02 -4.95939562e-03 -1.94863193e-02 2.23238077e-02 -1.45924482e-02 -1.86110698e-02 -4.72950935e-03 -2.61830818e-02 -2.39398181e-02 1.65645201e-02 1.54649662e-02 -6.41029049e-03 2.44236179e-02 2.15353481e-02 -8.76855664e-03 -5.90998330e-04 1.97147168e-02 5.45515027e-03 9.98181477e-03 1.12606939e-02 2.87300348e-03 -1.71220023e-02 -2.11627912e-02 -2.09126249e-02 -4.14597616e-03 -1.42731052e-02 7.51564791e-03 1.14661902e-02 1.01493364e-02 -1.88248139e-02 2.72369254e-02 2.93900520e-02 2.02350002e-02 -1.18762134e-02 -1.70583520e-02 1.19109815e-02 -1.62690561e-02 2.25664843e-02 2.07893290e-02 1.26433745e-02 1.77700054e-02 -1.28096230e-02 -2.92173941e-02 1.23873437e-02 -8.39950144e-03 -4.44983877e-03 -1.79085080e-02 -1.28673557e-02 9.77839809e-03 1.56071587e-02 6.44078711e-03 1.86794996e-02 9.62899253e-03 -2.10631732e-02 -2.61334740e-02 -1.96626931e-02 -2.21952051e-02 1.33346012e-02 -2.53384840e-02 -8.94488022e-03 -1.25022512e-02 2.10776911e-04 1.25232814e-02 -1.76934469e-02 -1.05974376e-02 -1.67294173e-03 -1.87243465e-02 1.49899898e-02 -2.03403663e-02 9.20720119e-03 4.89729038e-03 7.85138272e-03 1.38079710e-02 1.25248227e-02 9.10906028e-03 -2.01025996e-02 3.82166333e-03 2.61130021e-03 1.24578096e-03 9.76741686e-03 -1.91663634e-02 2.32371241e-02 2.44801166e-03 -2.70219054e-02 8.87957681e-03 -2.91554374e-03 3.58672137e-03 2.35509034e-02 9.86773893e-03 1.58209621e-03 2.01010779e-02 6.40849629e-03 1.24341724e-02 1.95975043e-02 2.30779275e-02 -2.46085003e-02 -2.07350422e-02 1.16853574e-02 -3.80928814e-03 -3.43572837e-03 1.63752604e-02 -2.76966412e-02 2.00185552e-02 -1.35935144e-02 2.39444841e-02 -4.32691164e-03 1.96912996e-02 1.38987284e-02 -1.06844632e-02 1.26223480e-02 2.64778379e-02 2.27632709e-02 7.24297808e-03 -7.68644875e-03 -1.56171108e-02 1.35816149e-02 -1.16246976e-02 2.20043696e-02 2.16194484e-02 -6.97238510e-03 1.60778388e-02 1.50195062e-02 5.80084743e-03 4.39217687e-03 -1.00862198e-02 1.05719417e-02 1.22365644e-02 8.19147099e-03 1.27126314e-02 1.57629680e-02 5.18517103e-03 -1.34589896e-02 2.05300190e-02 1.85006075e-02 3.04178894e-03 9.69729666e-03 9.58209217e-04 -2.38438044e-02 -6.87464420e-03 -1.32192008e-03 2.09570285e-02 1.36028640e-02 9.38901585e-03 -2.63270084e-02 -1.63328741e-02 -2.66442597e-02 2.50801854e-02 -8.52829684e-03 -3.06810951e-03 7.41078472e-03 1.10768387e-02 5.96245378e-03 -7.62570277e-03 -1.78317651e-02 1.17498506e-02 -1.27448281e-02 -1.49350986e-02 -5.76896244e-04 -1.71875618e-02 8.99635907e-03 -7.24575249e-04 -5.00550959e-04 3.15653440e-03 1.31565137e-02 -2.46563870e-02 -1.04612019e-02 1.96375865e-02 -8.69087130e-03 1.61145180e-02 -1.10283941e-02 1.75344143e-02 2.58457717e-02 -8.62054247e-03 9.30599961e-03 -1.37911513e-02 1.30391838e-02 6.69971528e-03 -1.33951998e-03 -1.02046235e-02 -3.27065308e-03 -6.29202975e-03 -5.88170532e-03 -9.69305914e-03 -1.70410611e-02 -2.69547682e-02 4.85935807e-03 1.47348186e-02 -1.99213754e-02 2.05792338e-02 -1.90156549e-02 2.11512074e-02 7.50462571e-03 2.36730222e-02 1.22845257e-02 6.68616360e-03 -1.44045269e-02 1.44224511e-02 1.16536077e-02 1.45364460e-02 8.99378024e-03 -2.83474429e-03 7.54982838e-03 -6.28269045e-03 -1.21452762e-02 1.70318279e-02 7.27980398e-03 2.01260112e-02 5.35686780e-03 -2.14490369e-02 -7.26978807e-03 -1.46599095e-02 1.31776528e-02 2.28470447e-03 1.04668476e-02 -2.36053113e-02 2.13890336e-02 2.97650578e-03 1.17971441e-02 -1.29435584e-02 1.46283749e-02 1.88744310e-02 -2.43401658e-02 2.80959457e-02 -1.27290701e-02 -1.76727995e-02 1.04396744e-02 -1.50234671e-02 -6.08710153e-03
-1.54857477e-02 -1.07518639e-02 2.85206977e-02 -9.08782706e-03 -1.70032550e-02 3.17823025e-03 4.31746058e-03 -5.70541667e-03 -7.99598265e-03 -1.05095226e-02 1.46304388e-02 1.60072092e-02 -4.37530084e-03 1.02668360e-03 -2.27722246e-03 -4.11059288e-03 4.86150756e-03 4.50084545e-03 -6.11378206e-03 -8.46215338e-03 -2.00166483e-03 5.40489471e-03 1.14282835e-02 4.58574900e-03 4.09462373e-04 1.96303688e-02 -1.91579144e-02 5.52284112e-03 2.76247365e-03 3.17845173e-04 -1.87390782e-02 -8.23444745e-04 -7.14595756e-03 -2.24280674e-02 -1.87043026e-02 -3.40612116e-03 -1.91648249e-02 2.26937383e-02 2.42425762e-02 -1.55875031e-02 2.11740602e-02 1.41314548e-02 -2.32337769e-02 2.59192567e-03 -4.34091128e-03 4.22394602e-03 2.50541009e-02 1.21202171e-02 1.74553450e-02 -1.03043681e-02 -6.43889466e-03 -1.33518865e-02 -1.38028469e-02 -1.63639281e-02 2.00079358e-03 -5.17088547e-03 1.90100744e-02 -1.32248988e-02 2.71882396e-02 1.06981881e-02 2.93240044e-02 -4.16145474e-03 -2.02865042e-02 1.92121007e-02 5.49063785e-03 1.19872401e-02 1.65316388e-02 -1.52077125e-02 1.11180618e-02 -9.29182919e-04 -2.00345404e-02 8.67764931e-03 1.70450308e-03 -1.65967327e-02 -1.78814884e-02 -5.58462786e-03 1.80392358e-02 2.18945872e-02 1.22900996e-02 5.07878559e-03 1.35961995e-02 -8.37157422e-04 -1.84415653e-02 -4.49009659e-03 -1.48511340e-03 1.26931164e-02 -1.18379248e-02 9.46777931e-04 -1.63168255e-02 -1.10655650e-02 3.35252145e-03 -5.70530351e-03 7.49406917e-03 -9.97774303e-03 -6.40270952e-03 1.22001097e-02 -1.15175629e-02 1.07543506e-02 2.19261348e-02 3.16211837e-03 -4.57686279e-03 8.02478846e-03 -9.15264804e-03 -9.58141219e-03 1.91193894e-02 8.97534098e-03 1.36750366e-03 1.01659494e-02 -1.12159252e-02 8.52057617e-03 1.36958677e-02 -2.03431174e-02 1.17205214e-02 -7.32725393e-03 1.01361200e-02 1.51698338e-02 1.39759015e-02 -9.66037624e-03 2.00236235e-02 -4.30894550e-03 2.75567407e-03 -6.89050509e-03 1.65801477e-02 -1.84797384e-02 5.67108672e-03 -2.24866625e-03 -1.95315797e-02 -2.06082035e-03 1.89225171e-02 -1.59800965e-02 2.29638652e-03 -7.52486475e-03 9.75258462e-03 -1.74759645e-02 1.04388082e-02 2.29817163e-02 -9.05363075e-03 1.62968668e-03 1.98849216e-02 1.64015107e-02 3.87148629e-03 -5.78228896e-03 -1.56847611e-02 9.06169135e-03 -9.88175068e-03 -1.92959921e-03 1.40578309e-02 -6.90845249e-04 5.94634004e-03 1.59259941e-02 6.97499700e-03 1.31199257e-02 1.52878568e-03 1.43742105e-02 3.88859981e-03 6.09646598e-03 1.66341141e-02 1.71317197e-02 2.09753420e-02 -4.47648391e-03 3.67007917e-03 1.41137084e-02 1.31108519e-02 7.05604907e-03 -8.24471284e-03 -5.20037021e-03 -1.11817997e-02 1.70781894e-03 5.49016520e-03 5.89213474e-03 5.86475804e-03 -2.49604508e-02 -8.62207357e-03 -8.81408248e-03 5.62373316e-03 -1.01257470e-02 -3.03085498e-03 -2.17053457e-03 -5.10821305e-03 5.41106053e-03 6.23328658e-03 -1.18303839e-02 -1.51452729e-02 4.93824249e-03 9.63177904e-03 1.06244311e-02 -8.99323821e-03 6.90900255e-03 -3.40210274e-04 -1.97160896e-03 9.15746018e-03 6.00857986e-03 -1.42685669e-02 -1.74344275e-02 6.00424968e-03 -1.15506612e-02 1.77819058e-02 -1.08980574e-02 1.24718519e-02 2.13439064e-03 -1.40831275e-02 3.41142062e-04 -4.82686982e-03 2.11444665e-02 2.99671455e-03 6.88791322e-03 -3.27211479e-03 -3.88731388e-03 -2.15758812e-02 -2.19752844e-02 -1.75241679e-02 -8.13919585e-03 -5.45048155e-03 1.92453451e-02 1.21471444e-02 -2.27873418e-02 2.13948227e-02 -8.44396558e-03 1.11977542e-02 1.78482030e-02 2.31484510e-02 -1.95470755e-04 8.33466370e-03 -1.57346558e-02 4.18274372e-04 1.10477610e-02 1.29881464e-02 5.98643767e-03 -1.59985814e-02 1.97431399e-03 -7.27156829e-03 -1.17331240e-02 9.18330066e-03 3.16884392e-03 1.36726731e-02 1.10747479e-02 -6.21921150e-03 -1.13892555e-02 -1.99107770e-02 1.09951552e-02 -7.52265099e-03 9.06454027e-03 -1.12337815e-02 -6.01094682e-03 1.20012397e-02 5.91299683e-03 3.22696660e-03 2.15335134e-02 7.73910526e-03 -1.70545671e-02 8.03775992e-03 1.10963290e-03 -1.36428913e-02 2.59291455e-02 -2.97391857e-03 -7.68680265e-03
-9.23895929e-03 -1.10236369e-02 1.43493395e-02 -2.53607985e-02 -2.22366899e-02 1.48898689e-02 1.43952705e-02 -3.85511573e-03 -8.81224032e-03 -5.23227546e-03 -5.03187475e-04 6.37348043e-03 -1.29576644e-03 1.40473004e-02 -6.68123085e-03 -6.58924552e-03 -1.05680227e-02 -1.00323174e-03 -1.04784695e-02 4.39725630e-03 7.64225796e-03 7.36227492e-03 7.17423018e-03 -2.80663255e-03 8.56623240e-03 -1.53794594e-03 -2.13979906e-03 2.23747175e-03 1.56522524e-02 6.02321792e-03 -2.08239779e-02 -2.23805211e-04 -1.33027667e-02 -1.96840856e-02 -8.25846661e-03 -1.04124555e-02 -2.08721478e-02 1.55012934e-02 1.35519579e-02 -1.74411864e-03 2.07820106e-02 1.29663395e-02 -1.24564278e-03 -1.75905991e-02 1.83800030e-02 2.22175363e-02 1.21947490e-02 5.51490067e-03 2.37328839e-03 -3.22056259e-03 4.82063461e-03 4.79577109e-03 -1.59478504e-02 -9.49931145e-03 -5.71273360e-03 -1.01347612e-02 2.58600991e-02 -2.48726178e-02 2.41355244e-02 6.44305022e-03 1.27971014e-02 -6.27080584e-03 -2.02438906e-02 2.48705056e-02 -6.51514810e-03 -9.12111718e-03 6.45966409e-03 -2.28645909e-03 7.29687791e-03 -6.14372920e-03 -2.35564206e-02 -6.07492449e-03 -6.14275644e-03 -1.31192207e-02 -1.29667344e-02 -1.31920548e-02 1.40685942e-02 2.09366847e-02 -9.04313463e-04 1.02204541e-02 1.16002103e-02 -6.40586670e-03 7.33373454e-04 -1.91487800e-02 -1.52179403e-02 1.75266489e-02 3.36320000e-03 -4.77311248e-03 -1.73624232e-02 -2.68954635e-02 3.42669943e-03 2.94578192e-03 -3.67507013e-03 3.31537309e-03 7.85147585e-03 1.59543063e-02 -4.64409450e-03 4.83392039e-03 1.26850279e-02 2.33675004e-03 1.30654555e-02 -2.15084245e-03 5.00815106e-04 -6.48799399e-03 2.09878129e-03 9.95575171e-03 8.81477538e-03 5.57452440e-03 -1.21286791e-02 1.16994390e-02 8.23294744e-03 -5.49396407e-03 -7.00674078e-04 -1.69681422e-02 2.23719468e-03 6.38014078e-03 6.22669561e-03 1.35631775e-02 1.69290826e-02 6.63377438e-03 4.12398530e-03 1.61897074e-02 1.04630040e-02 -2.55827531e-02 -1.18339686e-02 1.17783314e-02 -6.83770841e-03 -6.77159755e-03 6.73046708e-03 -9.89046064e-04 2.02691574e-02 -1.88131239e-02 -5.10500067e-05 -6.45701075e-04 1.85242109e-02 1.51430313e-02 -1.53561933e-02 1.06209759e-02 -1.18768343e-03 1.16408383e-02 2.77677067e-02 -1.46114705e-02 -2.05807555e-02 9.85748693e-03 1.08916627e-03 9.43907816e-03 -2.02366282e-04 9.38157458e-03 -9.05087916e-04 1.30723845e-02 -8.31598695e-03 6.80435169e-03 -1.10279154e-02 2.65669413e-02 1.06321611e-02 2.40154099e-02 2.96473945e-03 1.75011121e-02 3.94342188e-03 -4.77682240e-03 7.66350841e-03 -7.73124536e-03 -4.37196949e-03 -4.33315244e-03 4.70144121e-04 7.53301708e-03 4.06093989e-03 3.59624950e-03 2.41494440e-02 5.30772749e-03 2.12499518e-02 -1.57533474e-02 -1.34894280e-02 -1.88016556e-02 1.06029324e-02 -3.95435281e-03 -4.62768745e-04 1.94451958e-02 5.23782987e-03 8.32701009e-03 -1.37500407e-03 -8.49999895e-04 8.87244847e-03 -5.48532233e-04 8.72151926e-03 -4.26250277e-03 -1.10652689e-02 -2.73374910e-03 4.62575629e-03 1.25948424e-02 5.52737527e-03 -1.70709609e-04 -1.86065435e-02 -9.72923357e-03 1.80807244e-02 -2.15317234e-02 1.50623340e-02 -1.80905052e-02 1.18309930e-02 8.68765172e-03 -5.36093628e-03 -1.22846488e-03 -1.15010235e-02 1.12252561e-02 -6.24706445e-04 -5.98937785e-03 -1.54079366e-02 -1.39656593e-03 -1.02105923e-02 -1.81996357e-02 -2.38369983e-02 -2.63997130e-02 -2.33909804e-02 2.36510113e-02 4.08558128e-03 -1.55808497e-02 -9.34758515e-04 -2.65473183e-02 1.67775881e-02 1.13011505e-02 6.35577738e-03 -9.89142712e-03 -7.14333961e-04 -8.63467809e-03 1.24874907e-02 2.15891730e-02 8.21365695e-03 2.06788778e-02 -1.76343806e-02 9.62364767e-03 -1.78995207e-02 -2.04973714e-03 6.93431729e-03 6.06885646e-03 1.36410473e-02 5.93070732e-03 -1.70756951e-02 -1.74313523e-02 -2.71659940e-02 6.98960898e-03 7.96553679e-03 2.51655746e-03 -2.36912980e-03 1.29101574e-02 -1.11478874e-02 5.87711763e-03 -1.23614594e-02 -3.58399237e-03 2.16861628e-02 -1.10028526e-02 1.49527797e-02 -5.46708237e-03 -5.70500456e-03 6.04826445e-03 -5.37047721e-03 -2.89391377e-03
-1.06157055e-02 -1.78221911e-02 1.75037552e-02 -2.28197686e-02 -2.67263297e-02 1.22527508e-02 1.12679983e-02 -1.85918715e-02 -2.04288047e-02 -4.82775224e-03 8.93569365e-03 1.82311628e-02 -1.15360161e-02 1.66702606e-02 -3.70482844e-03 -1.80423225e-03 -1.74688604e-02 -6.37989491e-03 -1.44377537e-02 -2.77307886e-03 1.79299526e-02 3.02716438e-03 -1.14515917e-02 -2.43496429e-03 7.21897557e-03 1.96025074e-02 -5.64006157e-03 2.63179988e-02 1.51016153e-02 -2.38986243e-03 -4.90417005e-03 1.44740082e-02 -1.57994907e-02 -1.42560927e-02 -1.35315415e-02 -2.16958337e-02 -2.87814029e-02 2.27783322e-02 2.73007080e-02 -1.52130751e-02 1.18419351e-02 1.41933113e-02 -2.13688221e-02 -7.43058790e-03 1.01214098e-02 5.53847384e-03 1.33316685e-02 4.45400877e-03 1.56298596e-02 4.93045943e-03 -3.52164614e-04 -3.39351449e-04 -5.38039627e-03 -6.63196389e-03 -3.36358044e-03 -6.34215819e-03 9.59039386e-03 -1.43740214e-02 1.23469010e-02 2.66077910e-02 1.64930411e-02 -1.40273552e-02 -2.37456094e-02 9.20281373e-03 -1.93155240e-02 -7.54635403e-05 4.00893809e-03 -8.58985062e-04 -1.78045093e-03 -1.99225023e-02 -1.77963860e-02 1.68786105e-02 -2.55904440e-02 -1.23959426e-02 -7.83668738e-03 -2.25979537e-02 2.42689047e-02 1.90024413e-02 1.27339633e-02 2.33334862e-02 1.43107325e-02 -2.92768311e-02 -6.61102310e-03 -5.12757245e-03 -1.50166042e-02 -5.39886707e-04 3.46664595e-03 -2.37282012e-02 -2.67662834e-02 -3.03035621e-02 8.58753733e-03 -2.82124523e-03 -6.58286363e-03 -4.61234152e-03 -1.75991899e-03 1.96377952e-02 -1.51683120e-02 1.00006768e-02 1.56289618e-02 4.47165268e-03 1.01936497e-02 7.42864842e-03 1.26033910e-02 -7.64577463e-03 1.03595741e-02 1.61838047e-02 1.23181827e-02 1.55841624e-02 -9.21531208e-03 7.89456721e-03 1.84440706e-02 -9.67500545e-03 7.97683373e-03 -2.10179128e-02 9.83283203e-03 1.10921366e-02 7.13122543e-03 1.67894512e-02 8.69781617e-03 1.76608078e-02 8.17650091e-03 1.34727554e-02 1.21957324e-02 -1.79219432e-02 -2.40816940e-02 1.77683514e-02 -1.03616128e-02 -1.97563190e-02 8.56232177e-03 -3.27767432e-03 2.65995916e-02 -1.71990767e-02 7.52397766e-03 -1.54944686e-02 1.92054305e-02 1.60453096e-02 -9.57329292e-03 1.40791694e-02 9.84281488e-03 2.78972145e-02 2.55076569e-02 -2.35838499e-02 -2.57655606e-02 2.67141741e-02 -1.51234921e-02 1.85865667e-02 1.08102029e-02 -2.89414916e-02 1.54474312e-02 5.10051334e-03 1.28565645e-02 8.37988500e-03 -1.65451840e-02 9.97911301e-03 2.68830312e-03 2.30290797e-02 4.27035242e-03 8.97587743e-03 -5.52236859e-04 -1.91839039e-02 2.66706571e-03 -1.04217361e-04 1.24259898e-02 9.78047866e-03 2.32508662e-03 -1.60871539e-02 -5.91905368e-03 1.27104614e-02 1.81429628e-02 2.29394436e-02 6.69200718e-03 -1.18575431e-02 -9.73489694e-03 -2.23012492e-02 2.84242467e-03 -1.00756064e-02 -1.36303706e-02 1.73983388e-02 -3.97576438e-03 1.40491538e-02 -1.01871286e-02 -1.77541245e-02 9.48876049e-03 4.49606730e-03 -1.81191992e-02 1.16894301e-02 -1.65134091e-02 8.61839950e-03 -1.69686060e-02 1.70593075e-02 1.44234868e-02 1.77892502e-02 -7.49563240e-03 -2.46163160e-02 7.37287290e-03 -2.71945186e-02 1.42621929e-02 -2.18693186e-02 1.44484164e-02 2.03455444e-02 -1.89868268e-02 1.99846998e-02 -6.62417850e-03 2.26537231e-02 1.42988916e-02 -1.48482509e-02 -2.09393259e-02 -4.22251131e-03 -2.52991300e-02 -2.64467932e-02 -2.81844679e-02 -2.74302494e-02 -8.03890638e-03 3.02235764e-02 7.47079123e-03 -5.58346510e-03 7.91361462e-03 -2.92792171e-02 2.67180596e-02 2.94833537e-03 8.69217329e-03 2.09528767e-02 1.83975454e-02 -1.81901094e-03 2.35355571e-02 1.21845212e-02 1.35957906e-02 9.21857823e-03 -2.37496588e-02 2.45418474e-02 -1.18072573e-02 -2.32217163e-02 2.12031230e-02 7.41736405e-03 7.61973532e-03 2.34235283e-02 -1.40442587e-02 -1.67179964e-02 -1.52405249e-02 3.91193852e-03 1.22987861e-02 -2.02448270e-03 -3.30784614e-03 7.72256544e-03 -1.21914567e-02 9.34241340e-03 -9.57909320e-03 1.95946507e-02 9.38365236e-03 -2.34090220e-02 1.52808176e-02 -1.54387681e-02 -8.48334935e-03 5.29933069e-03 -8.80859978e-03 -8.54888652e-03
