-2.13048011e-02 -1.48271918e-02 5.37593896e-03 -2.49176994e-02 -7.55999424e-03 2.16339938e-02 1.88563019e-02 -7.74086080e-03 6.11047319e-04 -1.75633151e-02 1.13552790e-02 2.27075871e-02 1.73620565e-03 -1.79452565e-03 -1.47657818e-03 -3.72849288e-03 1.19089300e-03 1.30747715e-02 -2.05139001e-03 4.93418006e-03 -3.72856797e-04 -1.44950056e-03 3.67487036e-03 6.22370094e-03 6.99636759e-03 1.92899499e-02 -4.78286901e-03 2.07124802e-04 1.20316795e-03 -1.31031172e-02 -2.01325631e-04 -2.88142846e-03 -2.09670439e-02 -1.30639272e-02 -9.58086364e-03 -2.49388590e-02 -2.22506691e-02 5.45097562e-03 1.69052556e-02 -8.80805682e-03 1.06305173e-02 1.38521977e-02 -1.37276277e-02 -1.18826497e-02 -2.36385874e-03 1.91554036e-02 1.59108564e-02 1.31090349e-02 1.26231778e-02 6.26829639e-03 -1.28920516e-02 -6.99279085e-03 -6.70239143e-03 -1.20614506e-02 9.89821367e-03 -1.23058865e-02 1.38886310e-02 -7.22233858e-03 2.96738110e-02 1.77143663e-02 2.11809985e-02 -1.11472905e-02 -2.29693521e-02 1.56196468e-02 -8.23381264e-03 1.58939250e-02 1.64470542e-02 -3.32899671e-03 1.39344539e-02 2.29950412e-03 -1.38197653e-02 5.52714802e-03 -1.37862992e-02 -2.41236314e-02 -1.24793435e-02 -1.38930017e-02 1.66405179e-03 1.33011062e-02 5.96745405e-03 7.01978663e-03 1.18882125e-02 1.89364317e-03 3.91119579e-03 -1.53065203e-02 -8.42880923e-03 -5.97257912e-03 -8.10681004e-03 -1.40154501e-02 -1.99211203e-02 -3.75827216e-03 1.73421185e-02 -1.32977329e-02 3.26637947e-03 -5.73617034e-03 -6.67497190e-03 6.34711934e-03 -1.31272757e-02 3.57225304e-03 9.31253016e-04 -2.48032564e-04 8.12723488e-03 1.46345021e-02 -4.05014213e-03 -2.74313125e-03 6.66364795e-03 1.75670930e-03 -7.21101463e-03 -2.53625028e-03 -1.85522269e-02 -2.74833152e-03 1.16801327e-02 -2.24341229e-02 1.60546862e-02 8.51322711e-03 -3.69209680e-04 1.48246456e-02 1.72822662e-02 -4.43638349e-03 1.14599969e-02 1.66138802e-02 -6.62782928e-03 9.39689390e-03 1.25683118e-02 -2.61393562e-02 4.10381984e-03 9.60613892e-04 -8.24985746e-03 -8.66307318e-03 1.01438891e-02 -2.32126620e-02 -3.69975972e-03 -2.08584499e-02 1.02340924e-02 -7.55211385e-03 1.45828463e-02 2.39931121e-02 -4.93801851e-03 1.00872954e-02 1.65094417e-02 1.81799065e-02 4.13173391e-03 -2.40107328e-02 -8.04537348e-03 2.37170346e-02 -7.05049280e-03 7.53201032e-03 -5.83001180e-03 1.22208036e-02 7.42156291e-04 1.93105135e-02 -7.31441006e-03 1.06788240e-02 -1.14075281e-02 1.90594210e-03 1.38196908e-02 2.12932974e-02 6.13328209e-03 3.30472062e-03 8.66300485e-04 -1.16011342e-02 1.76765043e-02 5.53657860e-03 8.46764725e-03 -8.55610613e-03 4.14624531e-03 -1.58622991e-02 -2.54858751e-03 1.27370479e-02 1.56394988e-02 1.15619386e-02 9.04139318e-03 -2.13412102e-02 -1.40563892e-02 -6.21110667e-03 6.90042367e-03 -8.09473358e-03 4.74429224e-03 -4.17508790e-03 1.12841688e-02 3.27468221e-03 -9.13782418e-03 -1.02630472e-02 -3.08211893e-04 -6.63977116e-03 5.38930018e-03 -3.35364672e-03 -5.40180644e-03 -9.54736304e-03 -8.75627995e-03 -4.57599014e-03 -4.45018848e-03 1.20198755e-02 -2.24006455e-02 -8.53080023e-03 5.65684540e-03 -2.53242943e-02 2.11537071e-03 -2.41702925e-02 2.30864733e-02 1.83636893e-03 -1.90469809e-03 1.15080336e-02 5.93393249e-03 7.44119426e-03 -2.98478734e-03 -5.05081331e-03 -2.87028169e-03 -1.50959687e-02 -2.11092494e-02 -1.68290511e-02 -1.41863581e-02 -4.64204513e-03 -1.93581898e-02 2.01856866e-02 9.89581738e-03 -2.22899877e-02 2.70084664e-03 -5.68055082e-04 1.24718240e-02 1.43467169e-02 1.15168504e-02 1.54265156e-02 1.77172143e-02 -1.83284078e-02 1.77180506e-02 1.78042408e-02 2.12882143e-02 1.84802990e-02 -8.79496150e-03 6.68275403e-03 -2.16619838e-02 -2.36466434e-02 1.62629373e-02 1.23931952e-02 9.60130244e-03 1.88260758e-03 -9.69453249e-04 -1.15973279e-02 -1.26944538e-02 2.98632085e-02 5.49049582e-03 1.26517238e-02 -1.96537431e-02 8.71796813e-03 4.80869319e-03 7.02715386e-03 7.85552314e-04 9.82011296e-03 1.62652880e-02 -1.16542606e-02 2.43491177e-02 -1.21271368e-02 -1.53217930e-02 2.26561967e-02 1.34266866e-03 8.85159476e-04
-4.42818925e-03 -2.54423954e-02 7.47393211e-03 -6.99227396e-03 -9.29997396e-03 1.31931752e-02 7.10195210e-03 -1.45442430e-02 3.36201908e-03 -1.55985951e-02 6.81312894e-03 1.43696368e-02 -6.28172373e-03 6.65504672e-03 -8.89077317e-03 3.19567765e-03 -6.64647901e-03 2.39068898e-03 -1.12700956e-02 -2.09052209e-03 2.05833372e-02 4.46379883e-03 5.88345900e-03 1.27138672e-02 -2.00112257e-03 3.46219935e-03 -1.91792063e-02 1.41599262e-02 2.07894463e-02 -1.44253774e-02 -1.13509758e-03 1.19573800e-02 -1.65885445e-02 -4.71679354e-03 -5.17299213e-03 -1.31529085e-02 -4.67409892e-03 5.43986959e-03 9.40879341e-03 -1.07251760e-02 1.02888346e-02 3.02333315e-03 -2.36833491e-03 -1.46284420e-02 1.06588081e-02 1.05091799e-02 1.68992986e-03 2.99841980e-03 9.02347174e-03 -9.29341745e-03 -6.65900391e-03 1.74552167e-03 5.78438397e-03 -1.52218370e-02 -4.90948046e-03 -1.22050634e-02 2.85242088e-02 -1.51743507e-02 2.28039902e-02 1.01075014e-02 1.45425014e-02 -2.35885605e-02 -1.84322614e-02 1.85938366e-02 9.38115455e-03 8.71502329e-03 8.38918332e-03 -1.00326892e-02 1.70864929e-02 -1.55581534e-02 -1.63748898e-02 3.82209104e-03 -4.13875841e-03 -1.13379220e-02 -3.18678818e-03 -3.90934013e-03 1.96589790e-02 -1.35885156e-03 1.75695140e-02 1.30274650e-02 -3.30895325e-03 -1.05076272e-03 1.38718431e-04 1.41560077e-03 -1.77793354e-02 -3.37154465e-03 5.06803393e-03 -1.41397230e-02 -1.65619310e-02 -2.99169701e-02 -1.92704599e-03 5.59890363e-03 -2.57200818e-03 -3.20457853e-03 -5.28979115e-03 2.13523905e-04 -1.63106360e-02 1.22464611e-03 4.53516084e-04 1.95261482e-02 1.65989697e-02 1.47992224e-02 9.40511469e-03 -5.29023632e-03 7.63440132e-03 8.82758200e-03 2.01257840e-02 -2.86355964e-03 -3.84299527e-03 4.58955532e-03 1.43781025e-02 -1.74122397e-02 1.59655754e-02 -1.42313028e-02 1.47381499e-02 7.40818633e-03 3.60811173e-05 5.42135071e-03 2.12214869e-02 1.36383418e-02 -1.80325168e-03 1.88710378e-03 1.36337187e-02 -1.36880763e-02 -1.71302110e-02 2.87607522e-03 -7.30532641e-03 -1.90198068e-02 2.53094104e-03 -9.48253274e-03 1.97314285e-02 -6.75780652e-03 1.96285918e-02 -2.29954999e-02 8.17800872e-03 1.93708129e-02 -7.92731997e-03 2.27027033e-02 8.14330392e-03 1.48304161e-02 1.29581308e-02 -3.75417923e-03 -6.10768562e-03 1.35751092e-03 -4.85943491e-03 1.00529911e-02 5.82070230e-03 -1.70786958e-02 -5.75706316e-03 1.48081565e-02 -4.64470312e-03 1.00272633e-02 5.47626568e-03 2.71344036e-02 -3.46003030e-03 5.33827627e-03 4.73872898e-03 -1.37231126e-03 7.02152029e-03 -1.14534488e-02 1.66342072e-02 1.60123629e-03 -6.12650125e-04 4.45559528e-03 8.45302176e-03 6.28221827e-03 -9.76979546e-03 5.95967239e-03 6.73378445e-03 1.25127295e-02 1.82136316e-02 -1.77219771e-02 -1.86005495e-02 -1.69442575e-02 1.96493659e-02 -1.34059237e-02 -4.83918469e-03 3.72154149e-03 5.03580552e-03 -4.79049422e-03 -7.32497033e-03 2.41752085e-03 1.06720778e-03 -1.04132164e-02 -2.49369210e-03 -1.04082907e-02 -5.40731754e-03 3.23962583e-03 9.46237892e-03 8.33769049e-03 -4.66680806e-03 -8.00227560e-03 -1.37353141e-03 -1.67976413e-02 8.89452547e-03 -1.23317493e-02 9.43937991e-03 -9.75826848e-03 1.12805488e-02 9.75395646e-03 -1.33978145e-03 5.30303130e-03 2.19347375e-03 1.20239630e-02 1.31176377e-03 -3.45673785e-03 -3.02671315e-03 -8.60756449e-03 -1.97723210e-02 1.06054300e-04 -6.15833141e-03 -1.82597078e-02 -2.18306035e-02 1.70955993e-02 1.90348048e-02 -1.76730938e-02 4.15695645e-03 -1.35675091e-02 1.78210866e-02 -3.84379178e-03 4.82947053e-03 4.36041038e-03 -1.75202440e-03 2.52239686e-03 1.87441818e-02 9.14845243e-03 1.23503897e-02 1.21314898e-02 -1.90714207e-02 2.43801274e-03 -2.71808007e-03 -2.10363306e-02 5.31246979e-03 4.04022913e-03 1.46696251e-02 1.94121394e-02 1.46748300e-03 -5.76176913e-03 -3.07371598e-02 2.13334560e-02 1.86015980e-03 1.14107653e-02 -1.51452003e-03 2.60829087e-03 6.82109129e-03 1.32311508e-02 -1.16197225e-02 -2.10692384e-03 5.94389439e-03 -2.00824067e-02 1.30459405e-02 -9.80683044e-03 -1.74607728e-02 2.17398070e-02 -4.87686275e-03 -1.20211998e-02
-1.46316756e-02 1.48722134e-03 -8.94930586e-03 -2.20006128e-04 -7.33622117e-04 -7.18172081e-03 2.96570105e-03 7.32320244e-04 5.08541195e-03 4.03334051e-02 -4.59202155e-02 -1.96280610e-02 -3.82846557e-02 2.02523749e-02 -9.90784075e-03 2.61306074e-02 3.02536599e-02 -2.73860455e-01 7.72070438e-02 5.19980751e-02 -1.33560479e-01 -3.95345204e-02 -4.21382003e-02 -8.62346217e-02 6.61885366e-03 3.31182219e-02 -8.30683915e-04 1.84141248e-02 4.60183807e-02 3.96396220e-03 -6.60477323e-04 -1.64360721e-02 2.05827560e-02 6.63404912e-03 4.24875095e-02 2.34360043e-02 -3.40697076e-03 -2.98001301e-02 2.06181919e-03 3.01017798e-02 2.11672969e-02 1.28296828e-02 -2.08544414e-02 7.16548786e-03 -3.56869996e-02 1.82543341e-02 7.69980019e-03 -2.67092995e-02 -4.56640720e-02 4.64777648e-02 4.27512601e-02 4.12700884e-02 2.02687662e-02 5.34607545e-02 -6.67893235e-03 1.73837379e-01 -3.07279304e-02 1.96362957e-02 -1.49032683e-03 -2.11056154e-02 -1.08439662e-02 4.62573804e-02 1.15444511e-03 -2.94804238e-02 3.31859738e-02 -4.32169549e-02 6.29907241e-03 2.51323152e-02 -3.18993442e-02 2.39205807e-02 3.40003408e-02 1.38146412e-02 -8.66685510e-02 -3.63440141e-02 -9.44417641e-02 -5.24880216e-02 1.02069832e-01 1.25172734e-02 1.19272068e-01 6.59490749e-02 -1.16534820e-02 1.67076290e-02 -5.76925091e-03 1.33906619e-03 -8.42681387e-04 -1.04832426e-02 -3.42855826e-02 9.15315840e-03 2.62991823e-02 -1.23105785e-02 3.21130268e-03 2.47136783e-02 6.05912553e-03 1.67242642e-02 2.01950949e-02 -4.65740003e-02 -1.00680469e-02 -1.29008507e-02 -4.71943244e-02 -2.94479169e-02 3.91210848e-03 -9.02907271e-03 7.48410122e-03 -5.72467595e-02 7.96835375e-05 2.58589722e-02 -1.95696447e-02 5.60972020e-02 -3.19496281e-02 3.44411433e-02 3.00429910e-02 -1.47029152e-02 2.43776385e-02 -4.68099080e-02 -3.92921045e-02 1.22641232e-02 -3.24901715e-02 5.64354546e-02 -4.33548503e-02 2.76480820e-02 -3.58494092e-03 2.45054215e-02 -2.39788298e-03 7.53548136e-03 -1.25188725e-02 9.21706483e-03 6.54345378e-04 -1.13758855e-02 8.66419141e-05 -8.65051057e-03 7.12077096e-02 -9.78366286e-03 2.63076629e-02 -1.51268058e-02 6.07967889e-03 -8.22274853e-03 -3.23000103e-02 6.37608021e-02 1.12212710e-01 2.29478732e-01 -2.24811607e-03 -1.08346447e-01 -1.25079840e-01 2.66966876e-02 -5.36239566e-03 1.08550396e-02 8.03321507e-03 -2.72833873e-02 1.35020679e-02 2.18376089e-02 6.34003524e-03 9.05347895e-03 3.98689546e-02 -1.63137317e-02 -2.34087999e-03 -2.58571040e-02 -3.15428674e-02 -1.63293425e-02 -2.87598781e-02 2.46301591e-02 -3.75499167e-02 -3.71841826e-02 -3.22248861e-02 -3.35153006e-02 -4.23764102e-02 3.55430916e-02 4.18926664e-02 -4.19360884e-02 -3.74645740e-02 9.60276113e-04 -4.14929800e-02 1.93202996e-03 -3.48307425e-03 2.36172378e-02 -8.04974325e-03 1.18431300e-02 4.27978784e-02 -2.40925532e-02 3.68909463e-02 -2.43172050e-02 3.56019363e-02 2.91764718e-02 -1.26177976e-02 1.72709525e-02 3.77472080e-02 4.19854559e-03 3.12689692e-02 -3.10934633e-02 -6.61843792e-02 7.07612634e-02 -4.87843193e-02 -5.57900853e-02 2.03981027e-02 1.97308157e-02 -4.60858486e-04 9.20167752e-03 -1.89030226e-02 9.80112236e-03 -1.22541646e-02 -2.28730440e-02 -1.02329976e-03 -1.34734400e-02 2.76192799e-02 -3.19708250e-02 -5.02973795e-02 -1.16073666e-02 -3.39841992e-02 5.47672063e-02 -3.73109169e-02 1.69958093e-03 5.89850126e-03 1.34866983e-02 -2.43981267e-04 2.45721955e-02 -6.20880537e-03 1.02093266e-02 3.88180814e-03 8.68125074e-03 -2.99896505e-02 -6.09742012e-03 -1.70466639e-02 1.07740564e-02 -3.32967378e-03 -2.88676862e-02 7.86224827e-02 -3.48531455e-02 6.70540258e-02 -5.11000305e-03 -1.28234476e-01 1.48404077e-01 1.25035457e-02 -3.79192270e-02 2.90102176e-02 -4.59257253e-02 1.22236097e-02 2.79724039e-02 4.36171629e-02 7.30008073e-03 -1.45632662e-02 1.70970671e-02 3.09162792e-02 -3.55509780e-02 3.38426493e-02 6.54081174e-04 -7.00833052e-02 3.40948328e-02 -2.89005358e-02 -2.80568097e-02 -2.69657020e-02 5.93555868e-02 -4.94258180e-02 3.81710418e-02 2.28089709e-02 -3.12595442e-02 5.28715216e-02 -2.39070337e-02
-1.78857800e-02 -1.60408579e-02 1.56684425e-02 -2.12650206e-02 -1.87436175e-02 1.87057704e-02 7.74003658e-03 -1.61644462e-02 -1.36321438e-02 -1.85479540e-02 1.71356294e-02 1.98261645e-02 -1.34245437e-02 5.19267796e-03 3.38650920e-04 -2.18401314e-03 -2.29502050e-03 -9.13029164e-03 -7.73132732e-03 -1.87353045e-02 2.21658661e-03 -2.63466011e-03 -8.07329081e-03 1.57967885e-03 1.32064102e-02 2.83696968e-03 -1.89808058e-03 2.33507529e-02 1.26298815e-02 -1.98200196e-02 -1.91090424e-02 1.31320683e-02 -1.26634082e-02 -2.08672155e-02 -5.79117890e-03 -2.21239571e-02 -1.25745051e-02 1.52788591e-02 6.51380466e-03 -1.02038570e-02 1.28389429e-02 6.10701507e-03 -1.39295431e-02 -1.36952009e-02 1.22534437e-02 1.06404778e-02 2.80232774e-03 1.17181195e-02 1.77741311e-02 1.25841436e-03 3.64183506e-05 -1.24823200e-02 -7.98121386e-04 -1.49418553e-02 2.07202043e-03 1.00590792e-02 1.71842258e-02 -1.50854457e-02 1.25918733e-02 1.76966786e-02 1.25454720e-02 -2.78434772e-02 -1.74627919e-02 9.39606875e-03 -1.40664270e-02 1.27192959e-03 3.64586565e-04 -5.61547419e-03 2.07937099e-02 -1.49323232e-02 -2.29057856e-02 1.35094319e-02 -2.65381970e-02 -1.57192629e-02 -2.35007312e-02 -2.19143555e-02 2.57388107e-03 1.34765189e-02 9.13535338e-03 2.36961842e-02 2.19293032e-02 -1.44124301e-02 -1.73844919e-02 -2.06288658e-02 -9.79483593e-03 -6.07890822e-03 -4.83997399e-03 -1.64043158e-02 -2.58405264e-02 -1.30241634e-02 1.82942357e-02 -2.04578377e-02 -1.48577141e-02 -1.03379516e-02 -1.76853798e-02 1.78711452e-02 -1.37698250e-02 1.72184985e-02 2.22326238e-02 1.99335869e-02 2.06311811e-02 2.53512356e-02 9.38585680e-03 -1.51924863e-02 1.35543076e-02 3.22658569e-04 2.96194237e-02 1.86943542e-02 -2.06258390e-02 4.50676307e-03 1.36964479e-02 -2.01365594e-02 2.41147187e-02 -1.60221197e-02 1.31820031e-02 1.65102389e-02 6.97929226e-03 1.72291920e-02 2.19526254e-02 2.71194056e-03 2.08071917e-02 1.26318736e-02 1.19281430e-02 -1.53461434e-02 -1.83308683e-02 4.40924894e-03 -2.47919392e-02 -7.17279175e-03 1.02326730e-02 -1.55847911e-02 8.51847231e-03 -2.23459136e-02 2.30118446e-02 -3.46208015e-03 3.18086124e-03 1.82691999e-02 -1.88076422e-02 2.49925405e-02 1.75535921e-02 1.51282800e-02 1.32471733e-02 -2.33576056e-02 -1.48152644e-02 8.55361111e-03 -7.67397694e-03 4.14192164e-03 9.96743515e-03 -1.59733146e-02 6.64644118e-04 -1.01822533e-03 1.51007194e-02 1.89239774e-02 -1.54191554e-02 2.14949250e-02 -3.29715759e-03 1.67958736e-02 7.59356609e-03 1.74658671e-02 1.52229518e-02 -1.05601281e-03 8.75839032e-03 -2.06486741e-03 6.92301383e-03 3.59111885e-03 -8.53475370e-03 2.86367536e-03 -9.96289961e-03 -5.09876898e-03 2.91091744e-02 2.25165952e-02 9.60461702e-03 -2.74263564e-02 -3.05113550e-02 -2.18157005e-02 4.47939383e-03 -9.26846359e-03 -6.33033738e-03 1.00417547e-02 -7.17671495e-03 8.34363047e-03 -1.72650740e-02 -1.77831650e-02 8.40199366e-03 1.33091502e-03 -1.31685054e-02 5.97149180e-03 -8.75593908e-03 1.85886044e-02 -3.60170100e-03 1.15963770e-02 1.79475755e-03 1.14111658e-02 -1.85164250e-02 -9.57784615e-03 1.38861733e-02 -2.08472330e-02 3.12772281e-02 -3.07029616e-02 1.88125018e-02 1.37485992e-02 -1.31711494e-02 1.14754103e-02 -5.09544509e-03 2.26006694e-02 2.06234064e-02 1.20297936e-03 -1.43986391e-02 -6.02235366e-03 -2.16316096e-02 -2.68492494e-02 -2.31540184e-02 -1.68295074e-02 -1.31544936e-02 1.96359213e-02 2.29393803e-02 -1.16533292e-02 8.12474359e-03 -1.33886933e-02 8.57628509e-03 8.86330660e-03 3.54577671e-03 7.79607147e-03 2.39427816e-02 -5.44397486e-03 2.49726372e-03 1.72079280e-02 1.44212767e-02 3.33133014e-03 -2.50651427e-02 1.05311992e-02 -1.18570421e-02 -1.49717117e-02 6.66626496e-03 1.26019921e-02 1.06391152e-02 1.34145785e-02 -1.85883120e-02 -4.77269804e-03 -3.13152261e-02 2.30269432e-02 1.77778397e-02 1.88310686e-02 -1.02337319e-02 2.34007854e-02 -1.41261313e-02 4.68220707e-04 -3.42867710e-03 1.71012804e-02 2.27725301e-02 -1.90094728e-02 1.94978826e-02 -2.20883712e-02 -7.73583399e-03 1.33298738e-02 -2.78874040e-02 -2.10575033e-02
-1.32917902e-02 -2.18638238e-02 2.12665144e-02 -6.84516551e-03 -2.31334697e-02 1.87714603e-02 2.05144957e-02 -1.63843092e-02 -2.12977640e-02 -2.62190085e-02 1.19259935e-02 1.09909903e-02 -2.26636957e-02 2.13548522e-02 -8.93147476e-03 -4.59723553e-04 -1.69090796e-02 -3.99222784e-03 -6.45154389e-03 -9.66671295e-03 1.57393496e-02 4.40989388e-03 4.98833600e-04 9.42085031e-03 1.57985259e-02 1.21244565e-02 -2.48839967e-02 4.62977029e-03 1.17021082e-02 -1.18751293e-02 -1.36496434e-02 2.38935910e-02 -1.91836488e-02 -5.04312105e-03 -1.95777118e-02 -1.19681917e-02 -2.54186690e-02 2.63952464e-02 1.43936966e-02 -1.54581936e-02 1.40523789e-02 1.81803536e-02 -1.87003966e-02 -2.35914979e-02 1.39656179e-02 6.79608993e-03 1.72497183e-02 2.79700034e-03 2.38149501e-02 -1.57024954e-02 -1.64904248e-03 -4.10686625e-04 -2.28560604e-02 -8.65367707e-03 7.65210809e-03 1.59607194e-02 1.78837795e-02 -1.70417242e-02 3.00399978e-02 2.84229796e-02 2.30366532e-02 -1.03130275e-02 -3.00780181e-02 2.43192688e-02 -1.15459934e-02 5.13714738e-03 2.92675686e-03 1.76064589e-03 1.89824533e-02 -5.78826852e-03 -7.75840273e-03 5.46589773e-03 -9.12098307e-03 -1.49009600e-02 -1.46231763e-02 -2.34088413e-02 2.53144503e-02 2.54031066e-02 2.10346747e-02 1.26640694e-02 2.53346586e-03 -2.39777397e-02 -1.94682050e-02 -2.33218037e-02 -1.52104348e-02 8.98157991e-03 -1.51733188e-02 -9.07198247e-03 -2.52765510e-02 -8.07904359e-03 1.68112814e-02 -1.11639723e-02 -1.32924020e-02 -1.81410182e-02 2.39167269e-03 9.53702722e-03 -1.84182599e-02 2.27785744e-02 6.16179919e-03 1.22522209e-02 2.14331076e-02 8.64291377e-03 1.04386313e-02 -8.54548626e-03 1.66257545e-02 2.23590452e-02 2.43272055e-02 1.81589704e-02 -7.44850747e-03 1.48315844e-03 9.88518586e-04 -2.25713756e-02 6.64551882e-03 -2.10480765e-02 1.34337107e-02 1.42716225e-02 2.21384969e-02 1.75768714e-02 1.15789622e-02 1.46775246e-02 5.63217420e-03 2.51312535e-02 2.52506044e-02 -1.97263844e-02 -2.20246632e-02 1.44655677e-02 -5.13367122e-03 -7.81201385e-03 2.73612607e-02 -5.64424181e-03 4.82383324e-03 -1.97499748e-02 8.64128768e-03 -3.70434485e-03 1.48969060e-02 2.06302181e-02 -2.07882747e-02 2.55415067e-02 2.14670785e-02 1.84249468e-02 1.18808700e-02 -1.18427100e-02 -2.45873518e-02 2.09704656e-02 -7.83186313e-03 2.13990510e-02 4.64955391e-03 -5.35599701e-03 8.17469135e-03 7.51732197e-03 1.57413352e-02 5.15593356e-03 -1.28087699e-02 2.50095315e-02 1.73046459e-02 1.37432255e-02 3.26190004e-03 2.52887905e-02 1.79399922e-02 -2.34814715e-02 1.85789745e-02 1.62200239e-02 2.51263473e-03 -2.98037077e-03 1.09148768e-05 -9.86548420e-03 4.67874488e-04 4.34736675e-03 8.59835185e-03 6.12375559e-03 1.84037238e-02 -2.89736744e-02 -7.28311157e-03 -2.46730130e-02 1.49306050e-02 -1.07770190e-02 -8.62698629e-03 3.48243583e-03 1.21744862e-02 1.80082656e-02 -1.66309476e-02 -2.12990846e-02 -2.87583959e-03 -9.91559960e-03 -2.71982560e-03 1.71188787e-02 -1.21800625e-03 -1.29601860e-03 -4.46546124e-03 6.29688799e-03 9.41017549e-03 -1.41616139e-04 -2.13167761e-02 -2.66337357e-02 2.29908824e-02 -2.56500263e-02 2.31227558e-02 -1.12052625e-02 1.46834608e-02 2.08881758e-02 -2.02634651e-02 1.78183541e-02 -2.59866798e-03 1.07173864e-02 1.23128081e-02 -1.11419484e-02 -2.18702126e-02 -6.11268822e-03 -1.18351700e-02 -1.52684208e-02 -1.94327515e-02 -2.53021363e-02 -1.03708748e-02 9.21535585e-03 2.66957879e-02 -8.92262533e-03 2.10331231e-02 -1.16139613e-02 2.52871998e-02 1.56035470e-02 2.00829096e-02 -1.13012316e-03 2.78024003e-03 -4.22276789e-03 2.48221513e-02 6.26242626e-03 4.01567854e-03 1.02898497e-02 -2.37076674e-02 1.33401956e-02 -1.80353094e-02 -6.66999491e-03 1.07071139e-02 4.57252190e-03 1.14010414e-02 9.29450057e-03 -4.15311195e-03 -4.70422255e-03 -1.79301146e-02 2.41603274e-02 1.05517209e-02 1.65097397e-02 -2.04848796e-02 8.69631860e-03 1.09860962e-02 3.87144974e-03 -2.01209318e-02 8.38282146e-03 6.78314455e-03 -1.64911672e-02 2.34432071e-02 -1.22375349e-02 -2.13419031e-02 2.02251524e-02 -2.33541559e-02 -1.86564066e-02
-6.71929726e-03 8.75810254e-03 -8.58758390e-03 -1.45630457e-03 -2.29715533e-03 -1.97650632e-04 8.46938789e-03 -1.28645459e-02 -1.19987177e-04 -6.00650394e-03 -2.03577848e-03 -1.67955493e-03 5.77041460e-03 -6.14790386e-03 -1.09556038e-02 -7.04320101e-03 6.26492919e-03 5.86729683e-03 2.65119970e-03 -7.73274526e-03 1.11461608e-02 -9.91326850e-03 -1.01214247e-02 4.70976112e-03 -4.36262367e-03 -6.74513774e-03 -8.14084336e-03 -2.30509700e-04 -8.88367277e-03 3.60531826e-03 -5.79035468e-03 -9.56492126e-03 -1.06742382e-02 -4.67253756e-03 -4.11454681e-03 5.20490529e-03 -8.69726390e-03 -4.89367558e-05 3.27219930e-03 -5.97947231e-03 3.94649711e-03 -2.19556340e-03 -3.60817485e-03 -8.13826267e-03 4.84867534e-03 -3.45174200e-03 3.39384447e-03 8.26164498e-04 8.60049855e-03 -3.90730007e-03 -2.03433027e-03 -8.38161167e-03 -1.97550328e-03 -7.90570863e-03 -9.08025075e-03 -1.31682428e-02 5.38910972e-03 -1.48908084e-03 -1.96382217e-03 4.15795250e-03 1.47275943e-02 -1.04414131e-02 7.66935386e-03 -8.31232965e-03 -3.97820026e-03 6.94883289e-03 -8.30795150e-03 -2.76205712e-03 1.01579577e-02 -5.86978532e-03 7.37811485e-03 7.43503682e-03 4.02326137e-03 9.92322527e-03 3.69620672e-03 -9.87079809e-04 1.03509594e-02 9.95583716e-04 -7.56601244e-03 -5.66023961e-03 1.31245260e-03 -9.05144215e-03 -9.30821802e-03 -6.87143998e-03 -1.33904340e-02 -5.08814584e-03 1.11360941e-02 4.61658370e-03 -4.26301314e-03 -9.33061540e-03 8.39118962e-04 -4.43867641e-03 5.56108914e-03 1.92821422e-03 3.90944770e-03 -9.38464142e-03 9.76250507e-03 -7.37714441e-03 1.27188973e-02 -1.04114022e-02 -1.12134479e-02 8.12875479e-03 -3.11878463e-03 -5.07195387e-03 -2.11704662e-03 -1.00040985e-02 -5.74290566e-03 -3.74736451e-03 5.58545953e-03 9.28433891e-03 3.41771333e-03 9.08836536e-03 4.51035984e-03 -9.08632204e-03 6.09671324e-03 -5.11462986e-03 9.99169238e-03 3.99254169e-03 -1.07719162e-02 2.53100879e-03 7.62674958e-03 5.94081776e-03 1.40232388e-02 -6.84136851e-03 -5.79792401e-03 -6.68042526e-03 -3.41861299e-03 4.94947005e-03 9.54412576e-03 7.45106442e-03 1.27203204e-02 -1.07102897e-02 5.72723011e-03 7.62160448e-03 -7.88237620e-03 1.91278209e-03 7.14446930e-03 -6.05007634e-03 -2.88078119e-03 1.26699340e-02 -7.24290730e-03 -8.92410707e-03 -4.97401739e-03 -4.12488636e-03 -7.52636651e-03 1.45539956e-03 3.82613653e-04 -6.63077412e-03 2.85455212e-03 2.72661308e-03 -9.68471635e-03 -4.26981272e-03 -3.39773760e-05 1.23938359e-02 6.45996165e-03 3.70610296e-03 -5.62189380e-03 -2.54612649e-03 -6.28366927e-03 -3.58239049e-04 -8.57461151e-03 9.41703503e-04 2.59715998e-05 8.07020813e-03 6.67194650e-03 -3.22139938e-03 -7.03918980e-03 -5.33504039e-03 1.53080071e-03 8.17374326e-03 -7.85646029e-03 4.61792108e-03 -1.24247652e-02 1.47388980e-03 8.42149556e-03 -2.35452410e-03 3.50711285e-03 2.11587013e-03 -5.38770203e-03 -1.88871974e-03 1.21260975e-02 8.83827358e-03 4.78490861e-03 -2.87433388e-03 -4.78358893e-03 6.69175712e-03 -1.16764940e-02 6.42980123e-03 -8.94489512e-03 6.31346134e-03 1.06566446e-02 -7.07069552e-03 -2.96008890e-03 -1.38888108e-02 4.80553630e-04 -2.28473247e-04 1.41491080e-04 8.70072376e-03 -8.77293106e-03 -9.40921810e-03 -1.18755987e-02 1.10132601e-02 -8.05692107e-04 3.21635074e-04 6.74831728e-03 7.48346618e-04 5.88719733e-04 -7.51300389e-03 5.46164950e-03 -6.53418247e-03 -6.04289165e-03 1.10530283e-03 3.00013926e-03 -6.06204243e-03 -6.23453176e-03 -5.53282117e-03 -1.75143359e-03 -1.32873747e-02 1.49011603e-02 -2.63963453e-03 -9.31890309e-03 1.01875504e-02 1.29950116e-03 4.52575460e-03 3.02234106e-03 -9.88618564e-03 -5.97630744e-04 1.86077971e-03 -3.56418401e-04 -9.48215660e-04 -3.88824265e-03 -1.14692161e-02 -9.93372221e-03 3.07822553e-03 7.69742532e-03 4.79407638e-04 9.29408800e-03 2.14477442e-03 9.74587456e-05 6.63856044e-03 -1.79746549e-03 -1.07901059e-02 9.73168015e-03 1.42458966e-03 -9.60979331e-03 -5.63066825e-03 -8.52162763e-03 -7.07495119e-03 -9.62652173e-03 7.47539708e-03 1.23511255e-02 3.95263545e-03 -2.27866275e-03 -3.90263763e-03 -1.84578728e-03 -1.07460190e-02
-2.65627392e-02 -6.12085080e-03 4.32417821e-03 -1.22289890e-02 -1.89838596e-02 2.93490961e-02 1.19800195e-02 -2.66485121e-02 -1.30490838e-02 -1.07276989e-02 1.10649159e-02 1.87529791e-02 -1.32325375e-02 1.38476575e-02 -5.43964794e-03 -8.66500195e-03 -3.81900370e-03 -7.02863652e-03 -4.56293067e-03 -7.55563192e-03 7.10136537e-03 2.28656791e-02 -1.49598103e-02 1.92531794e-02 2.35039219e-02 2.32337676e-02 -5.09970216e-03 1.47729972e-02 1.25664221e-02 -1.19327484e-02 -1.37465056e-02 2.65949965e-02 -1.84688531e-02 -1.95480138e-02 -1.95531715e-02 -2.70853098e-02 -6.53848425e-03 1.65160354e-02 1.23420553e-02 -1.77346170e-02 1.83215123e-02 1.22182053e-02 -1.88476685e-02 -1.50717720e-02 1.51704997e-02 1.31454803e-02 1.01274140e-02 9.50120576e-03 1.67355239e-02 -3.87452287e-03 -1.27272410e-02 -9.63438861e-03 -3.30534787e-03 -1.20958136e-02 9.38032113e-04 4.10383148e-03 1.37849664e-02 -2.64716074e-02 2.03495380e-02 1.90710369e-02 2.85069477e-02 -1.06483251e-02 -2.87833381e-02 1.42290844e-02 -5.37468167e-03 2.56706476e-02 8.95463862e-03 8.52088165e-03 1.67240258e-02 -1.81944743e-02 -5.97087573e-03 2.33068094e-02 -7.63329258e-03 -1.20843183e-02 -1.07670864e-02 -1.46425478e-02 2.13847850e-02 2.58309953e-02 1.78765561e-02 1.52234994e-02 2.02822071e-02 -2.08107140e-02 -1.15488861e-02 -2.53937836e-03 -1.16870506e-02 -1.46091543e-02 -1.65429879e-02 -1.43830068e-02 -1.65361892e-02 -1.45433936e-02 1.50769083e-02 -1.03082303e-02 -5.66274440e-03 -1.02873864e-02 -8.36993742e-04 1.71900615e-02 -7.14500388e-03 1.53854229e-02 9.17105749e-03 1.53692951e-02 5.61935920e-03 2.16199346e-02 3.52425198e-03 -2.19375417e-02 1.21753355e-02 1.73188262e-02 1.29470164e-02 2.85169575e-03 -1.86195988e-02 2.19878741e-02 1.08378977e-02 -1.75524745e-02 9.60542168e-03 -1.24099394e-02 7.84792937e-03 5.74731175e-03 2.44225492e-03 2.64215115e-02 1.09557370e-02 1.50112417e-02 2.16684863e-02 1.89802926e-02 2.31535174e-02 -2.03693938e-02 -2.60985596e-03 5.55269746e-03 -3.42380395e-03 -1.04926433e-02 6.98635820e-03 -9.70321056e-03 1.89270955e-02 -7.68569065e-03 7.81810749e-03 -1.61331315e-02 1.73164420e-02 5.16734319e-03 -1.06638866e-02 1.68696325e-02 5.94440894e-03 2.04570256e-02 6.05251407e-03 -1.62073486e-02 -1.67272091e-02 1.70384329e-02 -2.27564499e-02 1.96134523e-02 1.12164076e-02 -1.48658594e-02 1.77091807e-02 1.71519611e-02 5.98273752e-03 1.17202597e-02 -1.38021326e-02 8.09093006e-03 1.82782039e-02 2.17921901e-02 2.23532002e-02 3.56412912e-03 3.12021351e-03 -1.03266584e-02 2.29775123e-02 1.95877883e-03 4.06518998e-03 8.15412495e-03 4.01044963e-03 -4.92391922e-03 -2.20013205e-02 6.77714404e-03 2.23957989e-02 1.60074849e-02 2.02914793e-02 -6.00495096e-03 -1.06081013e-02 -6.26236340e-03 1.53135760e-02 -1.42437182e-02 -1.69481151e-02 1.51160266e-02 -3.01962020e-04 3.21240281e-03 -1.11764316e-02 -5.83337620e-03 4.87954449e-03 -9.81293432e-03 -2.35387124e-02 2.42060386e-02 -1.67199634e-02 1.97136682e-02 -7.53584690e-03 5.90291852e-03 2.34683789e-02 3.44531192e-03 -1.35227470e-02 -1.89196710e-02 2.73685325e-02 -1.16509451e-02 1.51317986e-02 -2.31836103e-02 1.19218091e-02 1.45566892e-02 -6.66978722e-03 2.43183095e-02 -9.52402502e-03 1.96066629e-02 1.33226998e-02 -6.09318307e-03 -2.64799758e-03 -7.78847514e-03 -8.26655887e-03 -2.32272781e-02 -6.11666497e-03 -2.25803144e-02 -1.31630916e-02 6.01842022e-03 1.41103314e-02 -1.78703517e-02 2.43305154e-02 -1.22780623e-02 2.13109963e-02 2.11197101e-02 6.90192264e-03 9.11428500e-03 1.50078209e-02 -2.44951714e-02 1.61194913e-02 2.28984579e-02 1.06022041e-02 1.62136182e-02 -1.32487956e-02 2.05662511e-02 -5.18663693e-03 -2.25616768e-02 1.85564850e-02 1.66353397e-02 6.35834597e-03 1.47936791e-02 -7.08643254e-03 -1.73316356e-02 -2.68203411e-02 1.99999381e-02 1.48640899e-02 1.72033086e-02 -1.32127721e-02 1.75611991e-02 1.04803836e-03 4.75617032e-03 -3.74794705e-03 8.33566207e-03 6.22516219e-03 -2.69694980e-02 1.14862416e-02 -2.02130098e-02 -1.63100623e-02 4.40578302e-03 -2.09893901e-02 -1.89627670e-02
-1.23225460e-02 -1.04961665e-02 2.01898906e-02 -1.63413882e-02 -2.94329645e-03 1.47845205e-02 1.80801675e-02 -2.55392380e-02 -2.06323024e-02 -4.29326855e-03 4.06769197e-03 -4.04167775e-04 -1.75631065e-02 1.79627072e-02 -9.60905384e-03 -1.14708617e-02 3.17146257e-03 5.22774598e-03 6.90306129e-04 9.05573543e-04 -1.85052399e-03 1.66549049e-02 -1.11408867e-02 -5.08010434e-03 7.24227540e-03 5.57798147e-03 -8.55889078e-03 1.35582667e-02 2.09763236e-02 -2.63988483e-03 -2.12647002e-02 7.00838072e-03 -2.54611503e-02 -1.32932877e-02 -1.16796605e-02 -1.33105814e-02 -1.80376060e-02 1.60427168e-02 3.27688036e-03 -6.02244399e-04 2.27644369e-02 2.43981113e-03 -3.59562202e-03 -1.47469472e-02 -7.45093916e-04 2.39309501e-02 6.45933580e-03 8.27450585e-03 1.80112403e-02 -1.00473529e-02 -1.67698432e-02 -7.80091330e-04 -5.77522162e-03 -1.34441881e-02 9.47389100e-03 -2.89760018e-03 1.35398479e-02 -7.87360407e-03 2.20747255e-02 2.37465706e-02 2.75218915e-02 -2.05631964e-02 -9.77352727e-03 1.17949657e-02 -5.41513553e-04 1.56654529e-02 1.59879727e-03 9.49290954e-03 1.15933046e-02 -1.64715722e-02 -1.16765527e-02 3.40201193e-03 -2.21453886e-02 -2.34587956e-03 -1.10530211e-02 -1.54730799e-02 7.07706017e-03 7.05344277e-03 1.48877231e-02 3.35088978e-03 6.63081417e-03 -1.87032856e-02 -1.25010656e-02 -7.89019465e-03 -7.98858888e-03 -3.16124479e-03 1.42830517e-03 -1.53511604e-02 -1.16524603e-02 -3.14086722e-03 1.00079533e-02 -9.72441118e-03 8.85311607e-03 -1.39931624e-03 -1.16908774e-02 -3.07346485e-03 2.70119309e-03 -6.75140123e-04 5.83666610e-03 1.99512998e-03 1.77740417e-02 4.47488064e-03 1.89328063e-02 -1.62242427e-02 6.07967097e-03 1.05869034e-02 8.04651901e-03 7.02588959e-03 -1.19888401e-02 1.00151906e-02 -6.14851888e-04 -9.84412339e-03 -2.03423551e-03 -1.39120854e-02 4.77995630e-03 -3.02506774e-03 1.10935830e-02 1.50814764e-02 1.11217014e-02 1.02974195e-02 1.68617386e-02 6.44847425e-03 1.96967609e-02 -1.16635570e-02 -1.36520127e-02 1.43282057e-03 -4.66229022e-03 -1.93800405e-02 1.42859854e-02 -7.67214457e-03 6.61112694e-03 -5.90558862e-03 1.77321211e-02 -5.79187530e-04 2.68654112e-04 1.90062933e-02 -1.43171456e-02 2.23198300e-03 1.11211669e-02 5.16330125e-03 1.96510777e-02 -1.99853573e-02 -9.63422842e-03 6.83196727e-03 -1.27071561e-03 1.40000656e-02 7.20838970e-03 -2.08234750e-02 2.45417352e-03 1.17728729e-02 1.57572664e-02 2.49571586e-03 -2.43174494e-03 1.11118015e-02 4.77042329e-03 5.60840417e-04 1.80612761e-03 1.17927520e-02 9.09456983e-03 3.41266789e-03 -4.87346621e-03 3.59390303e-03 5.55775687e-03 7.99296889e-03 6.55308506e-03 -5.71769616e-03 -4.62017627e-03 -3.19531318e-06 1.01628378e-02 1.46806734e-02 2.39209998e-02 -1.23088863e-02 -2.08831970e-02 -1.76427457e-02 8.20961781e-03 -6.19879179e-03 -1.68193486e-02 1.29845832e-02 -5.38697187e-03 2.21788557e-03 -3.67731729e-04 -1.16905803e-02 3.27053806e-03 -3.24498792e-03 -6.78445771e-03 1.44798048e-02 -8.40764027e-03 5.06645581e-03 -7.01759709e-03 1.21418107e-02 4.82521486e-03 1.81344934e-02 -1.68994442e-02 -2.58357152e-02 2.41928976e-02 -8.33152141e-03 1.47538185e-02 -9.00271535e-03 2.45954492e-03 2.85187946e-03 -1.57112572e-02 -2.26343959e-03 -1.75131839e-02 2.16179658e-02 -1.61693559e-03 -1.25047360e-02 -1.82154868e-02 -1.72253326e-02 -3.35739646e-03 -6.49422454e-03 -1.69701315e-02 -1.47467647e-02 -5.01239998e-03 2.03814525e-02 5.35148336e-03 -6.90721488e-03 1.97973265e-03 -7.24419998e-03 4.38046176e-03 4.35181055e-03 2.09100693e-02 -4.77415044e-03 1.49796633e-02 5.42940339e-03 1.45384029e-03 1.80872194e-02 4.65224031e-03 1.44119831e-02 1.25060702e-04 1.99937299e-02 -1.53609039e-02 -1.08856298e-02 2.87465286e-03 2.20804010e-02 -1.53679552e-03 7.67756719e-03 -5.02068177e-03 -2.53574690e-03 -1.10604735e-02 1.72341764e-02 1.24584092e-02 4.90240427e-03 -4.75942530e-03 9.05878842e-03 -1.65266532e-03 -4.47900407e-03 2.00574985e-03 -1.81647681e-03 1.21456943e-02 -1.52118169e-02 -4.41969787e-05 -2.07484066e-02 -1.87759511e-02 1.42189730e-02 -2.43928004e-02 -1.44628268e-02
-1.15266517e-02 -2.01639794e-02 2.36856379e-02 -2.77591385e-02 -1.69830918e-02 6.90337550e-03 2.63793431e-02 -5.91461128e-03 -5.88539382e-03 -2.25769058e-02 2.01554187e-02 2.55732965e-02 -8.62091035e-03 -1.14040193e-03 -5.61012013e-04 -5.31449355e-03 -7.08574662e-04 3.30557604e-03 -5.87736350e-03 -1.06357317e-02 1.36338696e-02 6.73402566e-03 -9.00610257e-03 1.51694764e-03 2.24736184e-02 8.46242532e-03 -1.90175902e-02 2.22921241e-02 1.50415441e-02 -1.15097966e-02 -1.11233899e-02 8.16603377e-03 -1.13278581e-02 -2.54604481e-02 -9.34743788e-03 -5.87972347e-03 -6.20128633e-03 2.18294449e-02 9.76066757e-03 -3.15620610e-03 6.37622224e-03 7.70791806e-03 -9.10116266e-03 6.18603139e-04 1.41064601e-03 1.26197189e-02 1.02282455e-02 2.23343098e-03 3.59645975e-03 -2.08722032e-03 1.74887013e-03 -9.14588384e-03 -1.06142433e-02 -1.42120114e-02 1.28713986e-02 -3.69418575e-03 2.77714096e-02 -1.03118960e-02 2.60694548e-02 1.79855395e-02 1.32621964e-02 -1.16994018e-02 -2.59847604e-02 1.25446180e-02 -8.96267965e-03 1.68646239e-02 1.90754584e-03 -7.06663355e-03 5.50642191e-03 -1.07133379e-02 -1.00769121e-02 7.88851921e-03 -3.22661852e-03 -2.59475559e-02 -1.39454100e-02 -1.42626418e-02 2.35307291e-02 3.33928689e-03 2.05913950e-02 2.10311748e-02 1.00869630e-02 -3.79593996e-03 -2.03752536e-02 -2.09224708e-02 -1.09107634e-02 4.15733317e-03 -2.24975608e-02 -1.74656715e-02 -2.56687868e-02 -2.18924973e-03 7.32294517e-03 -1.85634289e-03 -1.39689231e-02 -1.20673585e-03 -1.30120376e-02 5.65061206e-03 -2.75547965e-03 1.32064531e-02 8.47081095e-03 9.70286597e-03 1.28270686e-02 1.84685234e-02 -3.52549076e-04 -2.70986580e-03 6.20237784e-03 1.58774033e-02 1.84531566e-02 7.45443488e-03 -7.16813782e-04 1.56055260e-02 1.81648266e-02 -5.78842871e-03 1.41238440e-02 -1.69534259e-03 9.69026517e-03 1.16116246e-02 1.32012703e-02 1.56910587e-02 2.20685313e-03 2.04015076e-02 4.82367212e-03 2.03957390e-02 2.53521209e-03 -2.61692517e-02 -2.02841591e-02 4.23815660e-03 -2.04284675e-02 -1.33737959e-02 8.11251346e-03 -2.05512382e-02 1.84017252e-02 -2.08244212e-02 7.87220336e-03 -1.25205358e-02 6.91281632e-03 1.42332604e-02 -7.77551997e-03 9.66327358e-03 2.15566102e-02 1.33041677e-03 1.58417821e-02 -1.65437069e-02 -5.54078165e-03 2.01971810e-02 -1.99019406e-02 3.22869234e-03 -2.84449401e-04 -2.55540293e-03 9.35762469e-03 2.12090947e-02 -1.97383109e-03 7.99341500e-03 -1.15020340e-02 9.42607038e-03 -2.97395070e-03 1.21277384e-02 1.15472684e-02 1.50039410e-02 9.48738866e-03 -2.14110408e-02 9.53166373e-03 1.52369449e-02 1.29570449e-02 7.84724578e-03 1.21040475e-02 3.59902368e-03 -4.25983267e-03 -4.76257410e-03 7.55450223e-03 1.74394827e-02 1.26418937e-02 -1.13909896e-02 -6.03265641e-03 -2.39391420e-02 1.50479944e-02 -5.23869414e-03 -2.48446502e-03 2.23304816e-02 4.94469982e-03 6.03102846e-03 2.82329530e-03 -1.30559439e-02 7.03005306e-03 -1.08080485e-03 -7.96097273e-04 1.44360596e-02 -5.21026552e-03 -8.83939152e-04 -3.59980529e-03 -6.71644346e-04 5.43013960e-03 3.81011749e-03 -2.60663722e-02 -5.90440352e-03 1.80777162e-02 -2.21759789e-02 5.12861460e-03 -1.93216931e-02 1.79084297e-02 1.51649853e-02 -1.36058144e-02 -2.41299640e-04 -4.02618106e-03 1.95063949e-02 1.20258601e-02 -9.89575498e-03 -1.01144938e-02 -2.66630109e-03 -1.33684129e-02 -2.18685381e-02 -1.95526667e-02 -1.34602031e-02 -1.35502024e-02 5.48072392e-03 2.73733772e-02 -1.30105466e-02 2.73212716e-02 -2.69910265e-02 1.00968676e-02 1.02965338e-02 8.49803258e-03 1.01274494e-02 2.05059256e-02 -9.18577053e-03 3.95161984e-03 2.46759765e-02 2.04784963e-02 1.35784959e-02 -7.99257401e-03 1.03541408e-02 -1.99283604e-02 -2.59048045e-02 9.30949580e-03 2.29249708e-02 4.64650476e-03 3.28425062e-03 -1.54313771e-02 -6.81766355e-03 -2.65436061e-02 2.23234314e-02 2.19550822e-03 2.21877731e-02 -1.25782369e-02 1.49661535e-02 1.14602773e-02 1.46321170e-02 -1.21345138e-02 1.55006777e-02 2.14527249e-02 -9.57518257e-03 2.16906592e-02 -1.07387640e-02 -1.26926731e-02 1.40519906e-02 -5.66110946e-03 -2.40590959e-03
-1.25754171e-03 1.53147045e-03 -2.79017346e-04 6.59270724e-03 7.28084100e-03 1.52961370e-02 9.70489066e-03 -1.18820164e-02 4.87237377e-03 6.43978885e-04 5.79747651e-03 -1.49160309e-03 -7.22288806e-03 1.22512169e-02 2.13398365e-03 8.58764909e-03 -8.03305488e-03 -1.34961237e-03 7.30975484e-03 8.18565115e-03 5.26874559e-03 2.63471412e-03 1.51410291e-03 -4.69879759e-03 7.98838958e-03 5.31248981e-03 3.35908798e-03 -7.75162783e-03 7.80201377e-03 3.22373467e-03 -2.40312261e-03 8.64988659e-03 -1.02933235e-02 6.56049978e-03 -4.98372316e-03 -1.26078492e-02 3.01449629e-03 -2.72894371e-03 1.39887249e-02 5.42267784e-03 -2.41851457e-03 5.37675060e-03 -6.53251912e-03 -9.61020868e-03 1.74794171e-03 1.43638067e-02 1.35176890e-02 -1.00675272e-02 4.61090496e-03 -1.17577566e-02 1.78531813e-03 -5.43325860e-03 5.41772041e-03 2.62695574e-03 1.12234440e-03 4.02301317e-03 4.07561660e-04 7.54316663e-03 -3.94301396e-03 -4.16647643e-03 4.97482996e-03 1.26148725e-03 -1.13039529e-02 7.86393415e-03 3.58874863e-03 3.62667441e-03 -3.42194362e-05 -5.11888927e-03 1.30949458e-02 3.45171057e-03 7.21284561e-03 -6.30565220e-03 1.10419206e-02 -7.03467894e-03 -1.27130533e-02 1.88648445e-03 4.35103243e-03 -4.96045826e-03 -7.77662825e-03 9.34538245e-03 -7.75674777e-03 -5.29760122e-03 -1.30732749e-02 -1.23869404e-02 -1.06024174e-02 1.22800255e-02 -7.61574926e-03 3.48191219e-03 4.89797816e-03 -1.54681420e-02 1.12712393e-02 9.51607618e-03 -8.24956968e-03 -8.19498766e-03 6.41656062e-03 4.42917552e-03 4.73770360e-03 3.18228640e-03 3.04087554e-03 -9.86487791e-03 -7.09122419e-03 7.72398850e-03 -6.42809458e-03 1.90060853e-03 1.05908327e-02 -4.69086459e-03 -2.41836626e-03 -5.78922639e-03 -3.18577699e-03 -6.04717247e-03 -4.81296703e-03 1.96543027e-04 -8.52476992e-03 -1.60612201e-03 -4.76655038e-03 2.65362533e-03 4.22878005e-03 -7.53368111e-03 7.94071425e-03 6.43154094e-03 1.05844922e-02 1.11686857e-02 8.20821151e-03 1.57937093e-03 3.07317800e-03 2.62010115e-04 3.90814943e-03 -6.81566820e-03 -8.86155665e-03 -1.26391612e-02 4.99128271e-03 1.15683454e-03 6.22579269e-03 -3.38144857e-03 7.06925243e-03 8.03155999e-04 3.55715025e-03 1.26433177e-02 9.23492014e-03 -7.50849722e-03 1.08281998e-02 5.56650618e-03 -8.55942257e-03 -5.84248547e-03 -3.99769610e-03 -7.42857577e-03 4.95408708e-03 1.16243754e-02 -5.43887145e-04 -1.21620367e-03 7.99557369e-04 1.38954539e-03 -2.52703880e-03 1.50950989e-02 2.20779722e-04 -1.04987842e-03 -5.63495792e-03 8.10889155e-03 1.01772798e-02 9.47764888e-03 -9.53723863e-03 -9.99240903e-04 4.50995890e-03 -5.59629779e-03 -5.37502253e-03 -1.09625766e-02 1.24923447e-02 -1.00184865e-02 -2.15664026e-04 -7.04619754e-03 6.00255467e-03 2.85939872e-03 1.67777832e-03 -1.43035585e-02 9.31454357e-03 -6.67968718e-03 1.32361837e-02 -2.41128309e-03 4.71737888e-03 5.25804644e-04 -7.84256030e-03 -4.65840427e-03 4.15795716e-04 1.19659994e-02 1.07390080e-02 -8.69502837e-05 2.15438567e-03 -1.05532184e-02 5.97848324e-03 -1.46668951e-03 2.24316190e-03 3.66281858e-03 -6.61499659e-03 6.03242544e-04 -6.95319008e-03 8.71092454e-03 1.07508609e-02 -6.63293665e-03 6.17238320e-03 -7.43879657e-03 -1.01051815e-02 -1.03882216e-02 7.14169070e-03 5.04088402e-03 -2.10320624e-03 9.77740623e-03 5.26647735e-03 2.23532389e-03 -1.12221185e-02 -1.24782212e-02 -5.75722381e-03 -1.12031940e-02 -3.00732139e-03 2.14781007e-03 1.14314435e-02 4.58494481e-03 -7.19535816e-03 4.60818689e-03 -2.76319613e-03 6.37025153e-03 -9.35702398e-03 9.00845043e-03 -2.79154675e-03 -2.94375373e-03 8.21031258e-03 4.71447082e-03 -7.11283041e-03 1.86415191e-03 -1.44876505e-03 -2.73452769e-03 -5.21665858e-03 5.63082518e-03 -9.56738833e-03 1.31164063e-02 1.16121359e-02 -7.15652248e-04 1.09606180e-02 9.25335480e-05 -9.80334822e-03 1.17606716e-02 -1.01047466e-02 -9.82945506e-03 -1.57536916e-03 -7.38088973e-03 4.09315201e-03 -1.34629682e-02 7.34819705e-03 -2.20220233e-03 -4.68916399e-03 9.24998254e-04 5.62380208e-03 -1.22930529e-02 1.52792339e-03 -6.56018360e-03 2.62379576e-03 5.97781455e-03
-1.90451946e-02 -2.76774410e-02 1.64904390e-02 -1.06185125e-02 -8.94537847e-03 1.74127743e-02 1.62338410e-02 -1.08817061e-02 -2.19933894e-02 -1.64059121e-02 2.13519093e-02 1.27848517e-02 -4.22799168e-03 1.84751786e-02 -4.68886923e-03 -4.61386796e-03 -1.11058997e-02 1.94866285e-02 -2.15734132e-02 -5.65218460e-03 1.03931874e-02 1.07269445e-02 -1.85743738e-02 1.34206433e-02 2.02019177e-02 2.33549695e-03 -2.29080990e-02 1.70057435e-02 2.31565721e-02 -2.00171936e-02 -7.49731762e-03 1.65858623e-02 -2.43068635e-02 -2.79598404e-02 -2.19813604e-02 -1.32072819e-02 -1.40166702e-02 9.61567368e-03 2.15110499e-02 -7.04197912e-03 9.70760453e-03 2.41179131e-02 -2.42364779e-02 -4.59663058e-03 1.09293265e-02 2.57398132e-02 1.88703984e-02 1.48355532e-02 1.86450910e-02 -6.14402874e-04 -1.89233981e-02 -4.65978356e-03 -1.18146110e-02 -4.10500728e-03 1.76989101e-02 -6.48513576e-03 2.91172918e-02 -1.31457048e-02 1.89460013e-02 2.69039124e-02 3.13212723e-02 -2.38020364e-02 -1.32052610e-02 1.90856736e-02 -5.67888492e-04 8.62676930e-03 2.64879186e-02 1.75445003e-03 2.42043417e-02 -2.68316399e-02 -2.50429194e-02 1.79742072e-02 -3.72990360e-03 -1.53893894e-02 -1.28326155e-02 -2.52588354e-02 6.74878899e-03 2.00499445e-02 3.26334778e-03 7.12413481e-03 1.03261461e-02 -1.06700109e-02 -8.11493676e-03 -1.23062711e-02 -6.40241941e-03 1.35509847e-02 -6.17424352e-03 -2.77138259e-02 -2.18908824e-02 -1.30924704e-02 2.64730095e-03 -2.62268893e-02 -4.87046596e-03 -1.72488950e-02 -2.62713875e-03 2.56755184e-02 -2.11132178e-03 2.21420024e-02 1.42633207e-02 1.25520583e-02 2.32154857e-02 2.52515413e-02 1.66376475e-02 -1.53914951e-02 2.17835438e-02 2.61043548e-04 1.60824005e-02 1.80781155e-03 -1.24474475e-02 7.61820935e-03 2.04589684e-02 -3.94387869e-03 2.13576742e-02 -1.62358638e-02 2.47545931e-02 1.43195298e-02 1.03549017e-02 1.67970080e-03 2.33595595e-02 1.37688024e-02 1.49983549e-02 1.40333651e-02 1.63495429e-02 -1.93400551e-02 -6.35754736e-03 7.82725774e-03 -6.53551007e-03 -8.59939028e-03 1.24433180e-02 -1.27914911e-02 5.30312583e-03 -1.48752583e-02 2.24403664e-02 -2.78306324e-02 1.28647322e-02 1.85846407e-02 -1.95964873e-02 1.34465741e-02 5.97927347e-03 5.85981971e-03 1.69334784e-02 -2.35857666e-02 -1.85844619e-02 1.38002066e-02 2.31008293e-04 1.11687258e-02 2.13141888e-02 3.62239126e-03 2.27307454e-02 2.28298437e-02 1.71748735e-02 1.56643684e-03 -5.54987881e-03 1.79826710e-02 6.82331156e-03 2.49905214e-02 2.10908256e-05 5.62163489e-03 4.73043090e-03 -3.98286944e-03 4.68251808e-03 5.83831640e-03 5.41664241e-03 -5.71305754e-05 1.40497601e-02 -2.09837258e-02 -1.55923078e-02 1.41919432e-02 1.37100890e-02 9.40496288e-03 2.50283759e-02 -1.95018928e-02 -2.92562451e-02 -2.00891104e-02 1.72016025e-02 -1.74813196e-02 -1.67309418e-02 1.31111899e-02 1.04218153e-02 3.55927809e-03 -1.22906705e-02 -1.68803129e-02 -1.50388852e-03 -8.62299558e-03 -1.41104711e-02 1.60291865e-02 -1.46262711e-02 6.63067913e-03 -1.57890841e-02 9.10969265e-03 5.41966315e-03 1.74628086e-02 -2.63106599e-02 -2.99752057e-02 1.43120261e-02 -2.75436584e-02 5.40632103e-03 -1.04972515e-02 5.24584763e-03 2.65584998e-02 -1.49920480e-02 1.30182244e-02 -4.17798106e-03 2.25147866e-02 4.41194559e-03 -1.75219942e-02 -6.43612957e-03 -2.51416676e-02 -2.15113349e-02 -1.53286215e-02 -1.41750202e-02 -1.44931227e-02 -2.64621601e-02 2.79276837e-02 2.04839669e-02 -2.49674078e-02 2.29445286e-02 -1.66443959e-02 1.77463517e-02 8.56971182e-03 1.05458470e-02 -1.51583436e-05 2.55865790e-02 -2.04702858e-02 1.42792771e-02 1.47092165e-02 4.63389931e-03 1.59027036e-02 -1.16686663e-02 1.68037880e-03 -4.90921177e-03 -1.09244809e-02 8.19965638e-03 2.22671926e-02 1.70111060e-02 3.73071968e-03 -1.32360496e-02 -3.71621898e-03 -2.51133051e-02 1.16352551e-02 2.03689728e-02 1.98844671e-02 -1.99023988e-02 9.62700136e-03 6.53280038e-03 4.27627377e-03 2.85016995e-06 1.41479354e-02 2.70188954e-02 -1.39297759e-02 3.07595897e-02 -4.12186142e-03 -2.71335244e-02 8.58399831e-03 -2.61199679e-02 -9.39635932e-03
-1.27069848e-02 -2.96552852e-02 2.31988840e-02 -2.73648538e-02 -1.33317942e-02 1.54879978e-02 1.86642539e-02 -9.92538407e-03 -1.26734897e-02 -1.37552265e-02 7.38745229e-03 2.03126967e-02 -7.82673620e-03 1.97552014e-02 -1.02971541e-02 -2.06140894e-02 3.17814248e-03 -1.95632456e-04 -7.90820550e-03 -7.08713243e-03 1.43925874e-02 1.08363293e-02 -2.81393854e-03 1.20458668e-02 1.90588776e-02 8.86617322e-03 -1.52325071e-02 4.41922806e-03 1.76955722e-02 -1.47938123e-02 -2.55177338e-02 1.83203798e-02 -2.42430456e-02 -2.60419771e-02 -1.52341006e-02 -2.81118210e-02 -2.51703635e-02 5.39127924e-03 2.04818249e-02 -1.76338516e-02 1.40692797e-02 2.31942721e-02 -2.03033797e-02 -1.11605609e-02 1.01138968e-02 2.48632990e-02 6.19618827e-03 1.17921252e-02 1.76364686e-02 1.82844838e-03 -5.29161235e-03 -1.57289691e-02 -1.03088003e-02 -1.70030782e-03 4.29526379e-04 -3.08231311e-03 1.65456552e-02 -2.58396994e-02 3.01001314e-02 3.15859802e-02 2.07762141e-02 -1.51301902e-02 -1.05048986e-02 2.36738790e-02 -1.54106710e-02 1.77356675e-02 8.72652698e-03 3.06729204e-03 1.19023370e-02 -4.54499945e-03 -2.51431577e-02 1.70859247e-02 -2.11622808e-02 -1.17334817e-02 -2.36493852e-02 -2.06892770e-02 1.66855454e-02 9.13941301e-03 8.31452478e-03 1.05000213e-02 7.21405633e-03 -8.44037626e-03 -1.50690945e-02 -1.81479380e-02 -5.33779245e-03 -1.36695686e-03 -1.28401043e-02 -2.33173016e-02 -5.56624727e-03 -2.44603567e-02 8.39760294e-04 -1.63017530e-02 -1.16287628e-02 -1.54177397e-02 -2.35403469e-03 1.06282616e-02 -1.94828864e-02 6.81127654e-03 3.56254471e-03 1.87154673e-02 2.20391359e-02 2.17729528e-02 7.29288091e-04 -2.41725519e-02 1.48744071e-02 5.50828176e-03 8.52642301e-03 6.64798869e-03 -5.20121120e-03 3.01971473e-03 1.54317366e-02 -5.56582259e-03 9.36621986e-03 -1.45582249e-02 1.31137185e-02 1.40095260e-02 2.06953175e-02 5.35665546e-03 3.98791162e-03 2.43123379e-02 3.42086726e-03 2.55006794e-02 1.97151341e-02 -2.33228114e-02 -4.13975632e-03 2.27634441e-02 -1.84127670e-02 -5.89359505e-03 9.82443709e-03 -8.51175468e-03 2.68209372e-02 -9.35831293e-03 9.26807709e-03 -2.20029224e-02 4.80645988e-03 2.86376141e-02 -2.49119978e-02 2.41650678e-02 1.09209754e-02 1.43924002e-02 1.45109743e-02 -2.56958138e-02 -1.30596282e-02 4.32480453e-03 -1.92162525e-02 4.92054410e-03 1.09499302e-02 -1.02266548e-02 -1.08811364e-03 1.85135771e-02 1.77667942e-02 1.84090771e-02 -9.21998639e-03 2.70682517e-02 -3.42544354e-03 1.31365713e-02 1.89251415e-02 2.29479130e-02 6.41484978e-03 -2.09516734e-02 1.61815574e-03 3.39493551e-03 4.10146452e-03 1.73744541e-02 1.39961727e-02 -1.19108781e-02 -1.73648279e-02 8.53063446e-03 1.24158841e-02 2.47461647e-02 7.12514902e-03 -1.71242263e-02 -2.82782372e-02 -1.42045813e-02 1.64398365e-02 -1.90557819e-02 -7.11577886e-04 1.22003602e-02 6.72529265e-03 2.00768672e-02 -8.86140764e-03 -7.34842895e-03 1.57191716e-02 2.22124829e-04 -5.82647976e-03 1.88830551e-02 -1.15768835e-02 2.19728127e-02 -1.37606524e-02 4.43819165e-03 1.03109505e-03 1.78979244e-02 -2.75651515e-02 -1.51074845e-02 8.42849724e-03 -1.61094423e-02 1.79488864e-02 -2.97634229e-02 9.31767747e-03 2.29449626e-02 -1.06791845e-02 1.89782791e-02 -1.19158328e-02 2.17763092e-02 1.18490858e-02 -5.72635327e-03 -8.72678705e-04 -1.52653893e-02 -2.10696459e-02 -5.07742912e-03 -2.82795392e-02 -2.48813275e-02 -2.07588542e-02 8.24725255e-03 1.39392521e-02 -6.22847304e-03 8.98310263e-03 -1.76236760e-02 3.04518752e-02 1.02938609e-02 1.60855241e-02 9.36802360e-04 4.88365814e-03 -1.59369633e-02 1.61444005e-02 6.35759346e-03 1.63762551e-02 2.66074706e-02 -6.98932726e-03 1.92483757e-02 -2.09580008e-02 -2.00228486e-02 1.93793774e-02 1.85495578e-02 7.17172725e-03 1.59396809e-02 -1.61038786e-02 -1.84425488e-02 -1.81287937e-02 8.92006047e-03 -1.44329353e-03 1.91769516e-03 -7.38054235e-03 8.40235408e-03 -1.17878811e-02 2.89279595e-03 -1.84646118e-02 1.03268726e-02 2.38713697e-02 -1.49090094e-02 1.70425884e-02 -1.19565884e-02 -2.65399888e-02 2.78451815e-02 -1.81707852e-02 -1.42703736e-02
-2.20432598e-02 -1.90081075e-02 4.73830756e-03 -1.36012798e-02 -1.99260097e-02 2.25051679e-02 2.26873513e-02 -2.00622948e-03 1.40895904e-03 -1.09822517e-02 2.92303530e-03 1.35347946e-03 -6.92990702e-03 4.12213197e-03 -4.49808547e-03 -1.01951603e-02 -9.12131928e-03 -4.96981572e-03 8.28553922e-03 3.42939608e-03 4.06943785e-04 -7.49175623e-03 1.27672004e-02 1.71705317e-02 3.13742878e-03 6.94188010e-03 -3.69545934e-03 2.50510499e-03 1.44829778e-02 -9.66929179e-03 -1.44863399e-02 9.92933381e-03 -1.84067432e-02 -1.79666765e-02 -7.42566539e-03 -7.06030475e-03 -8.93327873e-03 2.22783536e-02 9.27778985e-03 -1.29341967e-02 1.39964176e-02 -3.93005041e-03 -1.42136598e-02 -2.60174886e-04 1.76072102e-02 -2.84467940e-04 1.81480199e-02 1.52555155e-03 7.55359465e-03 -3.20379855e-03 -5.35470014e-03 -6.16913335e-03 2.71980488e-03 8.11147213e-04 -5.95927006e-03 -1.33081898e-02 3.04175890e-03 -1.96671430e-02 5.02360240e-03 1.76215768e-02 1.60450395e-02 -8.40636063e-03 -2.61021052e-02 5.66775538e-03 -3.25307716e-04 8.47566500e-03 7.18090683e-04 -6.20648405e-03 -8.65405705e-03 -1.20410314e-02 -1.49197709e-02 -1.57512072e-02 -9.04639252e-03 -1.89553518e-02 -5.60148712e-03 1.41369994e-03 6.43525054e-05 5.95715921e-03 1.70730185e-02 1.02387937e-02 2.62932340e-03 -1.96659043e-02 -4.43944242e-03 -1.16140023e-02 -1.05396779e-02 1.60465650e-02 9.73144267e-03 3.71374818e-03 -1.67400558e-02 -3.23332138e-02 -1.43215049e-03 -1.46894539e-02 1.27702923e-02 6.52880128e-03 -7.78005412e-03 6.77148998e-03 -2.29777116e-03 1.53934751e-02 1.37423119e-02 -4.20427369e-03 -3.68360372e-04 -3.15889367e-03 -7.12482259e-03 -1.20976986e-03 6.24469423e-04 2.44953949e-03 2.49441341e-02 7.03440839e-03 3.08084860e-03 1.00174667e-02 1.52243813e-02 -6.87531754e-03 6.35420904e-03 3.04333703e-03 1.75636522e-02 1.18242865e-02 6.89140987e-03 1.39429783e-02 4.30676795e-04 -9.56216536e-04 9.34844371e-03 1.85767412e-02 9.95447580e-03 -9.35436413e-03 -1.41992131e-02 1.79047976e-03 5.63258422e-04 -1.98669266e-02 1.35735068e-02 -3.54004046e-03 1.66331267e-03 -1.84166071e-03 1.93142053e-02 -7.04315258e-03 2.49141827e-03 1.97491497e-02 -7.10321637e-03 1.02342730e-02 1.26117747e-03 1.32805379e-02 1.15330257e-02 -2.19613165e-02 -1.26615819e-02 1.34566566e-02 7.57864304e-03 -4.62522544e-03 -9.81570780e-03 1.22787999e-02 -1.31639058e-03 1.57881225e-03 -1.18379975e-02 -1.03630368e-02 -1.19919525e-02 2.94446591e-02 -1.22739915e-02 1.08543423e-03 -4.37467219e-03 1.30106090e-02 -1.98206792e-04 -8.58453847e-03 -2.03925231e-03 3.76696535e-03 -5.44887222e-03 -1.04362592e-02 -2.01226267e-05 -1.17060635e-02 7.89881032e-03 -1.53794903e-02 1.26087610e-02 1.47081586e-02 4.85703861e-03 -2.25418657e-02 -1.78784151e-02 -1.16369268e-02 -1.88223622e-03 -1.56742558e-02 7.78356381e-03 -3.98532208e-03 1.34877034e-03 -4.18236188e-04 -7.81330839e-03 2.65061785e-03 -7.66800391e-03 -3.74786695e-03 -1.92427193e-03 1.99067243e-03 3.30123701e-03 1.11694233e-02 3.57054919e-03 1.03584556e-02 7.84697419e-04 6.79887971e-03 -8.58694315e-03 -1.82522256e-02 5.37485071e-03 -4.27920895e-04 7.40180304e-03 -2.30586771e-02 1.87957082e-02 1.14534022e-02 -1.39390314e-02 8.48444272e-03 5.97381871e-03 6.69042533e-03 -7.56743131e-03 8.86158738e-03 9.20659630e-04 2.38489383e-03 -4.31565521e-03 -4.59424872e-03 -7.35904230e-03 -7.75310490e-03 -2.02063486e-04 1.26903635e-02 1.89272780e-02 -6.62568957e-03 -2.59101205e-03 -2.96918359e-02 1.62096974e-02 5.77681605e-03 9.31424182e-03 -3.34588671e-03 -5.98526699e-03 -3.92557262e-03 1.83921717e-02 9.89597756e-03 1.61220657e-03 1.91912462e-04 -1.89975500e-02 9.09094792e-03 -1.60559341e-02 -2.46347906e-03 1.80984288e-02 5.47018088e-03 2.00755545e-03 -4.95193666e-03 -4.81451070e-03 -6.16331352e-03 -1.19992886e-02 8.16403050e-03 -1.84672768e-03 -3.76277813e-03 -2.30629779e-02 -2.51194928e-03 6.78515644e-04 1.45035814e-02 6.57261675e-03 -9.00838873e-04 2.15028562e-02 -4.18734830e-03 2.19722688e-02 -1.45962164e-02 -1.00322934e-02 1.99599396e-02 -8.78987368e-03 -1.20727755e-02
-1.74704846e-02 -9.12166107e-03 1.16879027e-02 -1.65573992e-02 -9.53520834e-03 3.94673832e-03 1.32636614e-02 -1.60556305e-02 -2.57524615e-03 4.59521404e-03 1.55934608e-02 4.99856798e-03 -1.29870642e-02 1.21630179e-02 -8.28890689e-03 3.18971556e-03 1.09381443e-02 -8.98528006e-03 5.31635946e-03 -2.60449667e-03 1.53425885e-02 2.82442896e-04 9.85702500e-03 6.62363833e-03 1.19721377e-02 -6.37784309e-04 -9.96647053e-04 -6.45844918e-03 2.03752387e-02 -1.07350275e-02 2.12486624e-03 -5.18793007e-03 -2.26097312e-02 -2.04332601e-02 -6.36885129e-03 -1.30310981e-02 -1.14170266e-02 -2.11364869e-03 1.39532415e-02 -1.20071294e-02 1.35008441e-02 -4.04545019e-04 -1.16795884e-03 -1.53897228e-04 6.64098281e-03 1.43269477e-02 1.70650426e-02 6.75293757e-03 1.40687954e-02 -7.72970356e-03 5.95296174e-03 1.79706817e-03 2.39975471e-03 -9.81626566e-03 -1.25377905e-02 -3.09082074e-03 1.13293184e-02 -7.17150699e-03 9.36550740e-03 1.99900549e-02 1.02953753e-02 -1.76314767e-02 -2.32514273e-03 1.60435755e-02 3.61081329e-03 -7.64440559e-03 7.15744914e-03 5.06726047e-03 -1.03539031e-04 -3.48160230e-03 -8.73762928e-03 2.89707677e-04 2.37545557e-03 2.92416965e-03 3.23569379e-03 -7.29186507e-03 1.34054357e-02 -2.64004222e-03 4.84555610e-04 1.51743051e-02 1.05191246e-02 -1.51736466e-02 -1.69238746e-02 -1.22608608e-02 -3.15549993e-03 1.95498089e-03 -1.54632307e-03 5.21052629e-03 -3.55656608e-03 -2.08543129e-02 3.81817669e-03 -3.81810078e-03 3.74114234e-03 1.29287150e-02 1.51195209e-02 1.07244849e-02 -1.14025059e-03 1.21287024e-03 1.46650076e-02 9.03070066e-03 -1.84661965e-03 1.64518855e-03 1.43024009e-02 -5.94499009e-03 1.40714161e-02 -7.52168801e-03 2.71587688e-02 5.87267987e-03 -5.87007636e-03 -7.30068702e-03 1.35454973e-02 4.75455401e-03 2.00765627e-03 -7.55449757e-04 9.06497240e-03 1.42260059e-03 3.88126448e-03 -5.71421534e-03 -4.09855321e-03 1.59601755e-02 3.35233752e-03 1.29052336e-04 5.56039112e-03 -8.47959053e-03 -1.23469392e-02 9.59005300e-03 -1.46078682e-02 1.77901913e-03 -1.83809211e-03 -7.12228427e-03 9.94428061e-03 -1.54037923e-02 1.66853741e-02 2.10674619e-03 4.25868342e-03 1.43846823e-02 -9.67883039e-03 -8.03843490e-04 1.66310612e-02 1.60910152e-02 2.24320069e-02 -9.56935249e-03 -1.53679131e-02 1.33905103e-02 8.40495154e-03 6.00831397e-03 -5.14657795e-03 4.16600262e-04 4.43912996e-03 1.16246915e-03 -4.00907313e-03 -1.13343792e-02 9.02149267e-03 1.92001611e-02 6.11741212e-04 2.97988928e-03 -2.93824147e-03 -4.97825444e-04 -7.82455597e-03 -8.68974999e-03 -1.30206160e-03 -5.07928012e-03 -9.00202058e-03 -1.26361083e-02 7.56121660e-03 -3.84258019e-04 2.43791030e-03 -1.39445476e-02 1.83608588e-02 1.35227488e-02 5.18792402e-03 -1.48747172e-02 -2.09917985e-02 -1.80665422e-02 -1.33830501e-04 1.02501526e-03 -1.13614807e-02 2.01509078e-03 -1.16385531e-03 -4.57473885e-04 1.28294192e-02 4.04601032e-03 -6.81678345e-03 2.22335197e-03 7.21441396e-03 5.38930064e-03 6.07014028e-03 6.37851935e-03 4.89723030e-03 1.93827017e-03 -2.60172691e-03 2.75211525e-03 -8.57360940e-03 -1.84313823e-02 4.38672537e-03 -8.96610599e-03 1.08876284e-02 -1.29860304e-02 1.00579364e-02 2.16019228e-02 5.38092048e-04 1.45688662e-02 8.06331448e-03 7.15315063e-03 -3.56297288e-03 2.60621589e-03 -6.63077412e-03 -1.02789234e-02 -1.85352806e-02 -1.11518139e-02 -2.26816293e-04 -1.05759660e-04 -1.34493876e-03 4.86577582e-03 2.23158542e-02 -1.91447381e-02 8.32288153e-03 -1.94677562e-02 1.18343895e-02 1.26304971e-02 1.02786422e-02 -1.41574023e-02 1.12869740e-02 9.93224792e-03 4.53281542e-03 3.92379425e-03 -5.22951502e-03 5.58529515e-03 -1.76515095e-02 1.99986398e-02 3.00402613e-03 -5.93704730e-03 3.59182799e-04 1.51079241e-02 1.22185396e-02 6.19268231e-03 -9.78922006e-04 -9.97537002e-03 -2.21992731e-02 1.29560772e-02 1.05224252e-02 3.69332754e-03 -1.75479036e-02 1.08410325e-02 5.93200000e-03 -5.41074807e-03 -5.88434888e-03 6.06045639e-03 7.02763908e-03 -1.47727234e-02 4.31308337e-03 -1.24969240e-02 -1.36280525e-02 2.10770536e-02 -1.45793464e-02 -3.76757281e-03
-7.01867556e-03 -1.58326048e-02 2.73222718e-02 -3.06005906e-02 -1.61478985e-02 2.38877907e-02 2.09664796e-02 -7.16845691e-03 -1.26410732e-02 -1.75836477e-02 1.73721556e-02 1.08351856e-02 -1.71633884e-02 -2.71792500e-03 3.76636651e-03 -1.89309586e-02 -2.95998558e-04 -6.14053011e-03 -6.12471299e-03 -5.56057552e-03 1.79183781e-02 4.35777288e-03 -1.13623142e-02 6.30454579e-03 2.03850567e-02 8.47022887e-03 -1.39210531e-02 3.40885646e-03 1.43566988e-02 -9.24829219e-04 -8.16479512e-03 1.24678640e-02 -1.97581146e-02 -2.04490647e-02 -2.06083376e-02 -2.37425230e-02 -4.14343644e-03 8.06863885e-03 5.46695804e-03 -3.51141742e-03 1.62692498e-02 1.75111573e-02 -1.35064507e-02 -1.13278721e-02 1.98649727e-02 2.10934002e-02 2.03187801e-02 1.70523417e-03 1.93084385e-02 -7.19334884e-03 -7.89797027e-03 -1.40777882e-02 -1.80390775e-02 1.93974015e-03 8.20675585e-03 -9.35557391e-03 2.15304364e-02 -1.68242976e-02 2.03681663e-02 1.61499642e-02 2.72744000e-02 -2.24405639e-02 -1.95457190e-02 3.11612934e-02 -1.81456748e-02 1.30696245e-03 2.17417702e-02 1.17130820e-02 2.28238553e-02 -2.06720978e-02 -1.49340648e-02 1.30072283e-02 -2.06403472e-02 -8.05550534e-03 -2.16624793e-02 -2.11741682e-02 2.33123032e-03 2.26228237e-02 1.80639680e-02 1.88402496e-02 1.06398165e-02 -2.64471630e-04 -2.16116719e-02 -1.61772221e-02 -1.66416336e-02 -2.07442604e-03 -9.05635674e-03 -8.50485172e-03 -1.43200774e-02 8.92977323e-03 1.33171743e-02 -1.90406311e-02 -3.55690904e-03 -2.19563339e-02 -1.75341871e-02 7.69398501e-03 -3.08875286e-04 2.08665747e-02 9.03714448e-03 1.82104446e-02 9.92743578e-03 1.21425018e-02 -2.75612180e-03 -2.06806771e-02 3.14573874e-03 1.83397979e-02 5.70650538e-03 8.12603068e-03 -2.71456339e-03 5.72384801e-04 1.75621640e-02 -1.75009575e-02 5.93973789e-03 -3.92871036e-04 1.70118138e-02 1.03820795e-02 1.59123652e-02 3.24918120e-03 4.33565350e-03 1.22273443e-02 1.46552753e-02 1.23979356e-02 9.80989821e-03 -2.39504278e-02 -1.81548428e-02 9.79552604e-03 -1.64847523e-02 -1.33803394e-02 1.98843461e-02 -6.06367225e-03 2.01491695e-02 -1.59614999e-02 5.45337377e-03 -1.43241547e-02 6.12369366e-03 1.60425734e-02 -1.40564153e-02 5.49120503e-03 7.10211461e-03 1.69491414e-02 5.43640554e-03 -9.27164406e-03 -1.40242586e-02 2.66542211e-02 -1.03805596e-02 8.07158556e-03 1.90261304e-02 9.94421192e-04 1.61069669e-02 2.40437631e-02 1.10231973e-02 -1.23617891e-03 -1.67649034e-02 3.14156548e-03 -2.69819493e-03 9.69797466e-03 1.37891131e-03 2.13013291e-02 5.63711487e-03 -1.45139936e-02 5.48027549e-03 6.53782394e-03 8.66952632e-03 2.17131968e-03 1.64850932e-02 -2.03237627e-02 -1.60468015e-04 1.80343091e-02 1.89366024e-02 2.62558088e-02 2.44743079e-02 -8.92060064e-03 -2.30409671e-02 -1.34007977e-02 1.69987138e-02 -2.83703320e-02 -1.55082932e-02 2.26546936e-02 -6.40464539e-04 1.46971392e-02 -5.49119664e-04 -1.87974758e-02 1.32392789e-03 2.79836298e-04 -1.72168966e-02 -1.25017751e-03 -1.34568056e-02 1.75144281e-02 -1.35639347e-02 3.30096227e-03 -2.36951586e-04 1.57152228e-02 -2.03758646e-02 -2.15584598e-02 9.47512500e-03 -2.54166499e-02 2.38976553e-02 -1.85738672e-02 1.31670181e-02 7.90940691e-03 -6.87249145e-03 1.10608339e-03 1.74255460e-03 1.96569934e-02 1.65256939e-03 -3.63484630e-03 -5.91433980e-03 -1.59642193e-02 -7.37512019e-03 -1.23176398e-02 -1.82728507e-02 -1.09451544e-02 -2.09207460e-02 2.20257770e-02 7.28323730e-03 -1.22625958e-02 4.46610572e-03 -1.45266503e-02 1.41701698e-02 6.05440186e-03 2.86067254e-03 1.40953232e-02 1.56163983e-02 -1.31704204e-04 1.81549564e-02 9.93700977e-03 4.15522698e-03 1.26313660e-02 -9.38984845e-03 2.02650502e-02 -1.14626139e-02 -1.11619327e-02 2.55093202e-02 1.97173599e-02 2.56520398e-02 3.47973639e-03 -9.08366963e-03 -1.09904830e-03 -1.37110073e-02 1.77026894e-02 1.42081967e-02 2.09881756e-02 -1.59213152e-02 6.65135495e-03 5.42121148e-03 1.26749566e-02 -1.37897292e-02 1.87015869e-02 9.10718087e-03 -1.67941209e-02 1.37901045e-02 -1.37542998e-02 -9.53639299e-03 1.93253998e-02 -1.24611671e-03 -9.40864533e-03
-1.91629548e-02 -2.16571689e-02 -1.92366075e-03 -4.17749863e-03 -1.82401482e-02 6.04161900e-03 1.32904761e-02 -9.80688445e-03 -1.41465776e-02 2.37047843e-05 8.05746671e-03 1.89027004e-03 6.64895354e-03 6.75827498e-03 -9.73849092e-03 -7.83736445e-03 -1.46627112e-03 3.03888344e-03 -2.82757892e-03 -9.95890121e-04 4.09480557e-03 -7.86779821e-03 9.17932577e-03 3.93913081e-03 -4.60735569e-03 1.67935807e-02 -8.52285791e-03 6.54611690e-03 6.89729699e-04 -2.34211399e-03 -3.67129035e-03 1.23864075e-03 -1.17600744e-03 -7.90029112e-03 -1.01399710e-02 2.35117110e-03 -1.27975829e-02 7.71802105e-03 8.19466449e-03 -7.94422906e-03 1.95571594e-02 1.14812832e-02 -1.62609294e-02 -9.45315603e-03 -1.24013133e-03 6.10758411e-03 -2.55115470e-03 1.16176251e-02 -5.63920708e-03 5.92646981e-03 1.32207731e-02 -1.11587541e-02 -1.34115582e-02 -6.90565025e-03 9.40490235e-03 4.27545840e-03 6.30489318e-04 -1.33931199e-02 2.18730867e-02 1.72096770e-02 1.42424041e-02 -2.23885607e-02 -6.82408968e-03 1.61376875e-02 -7.88039993e-03 -2.74663023e-03 2.41047633e-03 -3.57035105e-03 1.25124371e-02 -1.31282154e-02 -1.15445592e-02 6.35264860e-03 -1.18343430e-02 -1.96065637e-03 -4.18270798e-03 -4.62014694e-03 5.88364620e-03 -4.78499755e-03 2.13071946e-02 1.15042813e-02 -1.31422095e-03 -7.82247260e-03 -6.07505068e-03 3.60452151e-03 -3.17074382e-03 -1.75312664e-02 9.00874753e-03 5.00010420e-03 -1.46355880e-02 -2.47915126e-02 1.22407440e-03 -7.17125274e-03 6.33137440e-03 -6.75239181e-03 6.82002166e-03 4.54015378e-03 -1.69233885e-02 8.06046650e-03 1.54080242e-02 8.96031212e-04 8.09481554e-03 8.42181407e-03 1.24182608e-02 -3.84793570e-03 -2.42566736e-03 6.56745071e-03 2.59135365e-02 3.26584501e-04 6.18502358e-03 1.20828459e-02 -2.90811900e-03 -1.56717990e-02 -4.90514503e-04 -4.95457463e-03 -6.82245381e-03 -5.89329749e-03 -5.62483270e-04 1.64417475e-02 7.17359188e-04 9.12504457e-03 6.50114287e-03 9.97747853e-03 6.33170921e-03 -9.46394447e-03 2.87605543e-03 1.04870973e-03 1.08541828e-03 -1.19632203e-02 5.53065445e-03 -3.64466640e-03 1.08489562e-02 1.75548776e-04 5.41298417e-03 -1.84188574e-03 1.02286143e-02 2.79742153e-03 -1.14011401e-02 4.91865911e-03 9.78755299e-03 1.09049622e-02 2.33366620e-02 -1.64500822e-03 -1.05172554e-02 1.72608979e-02 4.72872332e-03 3.55652720e-03 9.02039930e-03 -1.66888442e-02 -5.43299923e-03 1.20450025e-02 -8.44896119e-03 -1.33769633e-02 -3.22605111e-03 1.52525716e-02 -6.59300433e-03 1.36550814e-02 -1.05561689e-02 1.82721857e-02 1.75975775e-03 -3.13603738e-03 1.09067070e-03 -1.31359454e-02 -6.81412080e-03 -8.00553244e-03 -1.40076848e-02 5.61376847e-03 -4.79202764e-03 -1.13619920e-02 4.93350858e-03 6.77208602e-03 1.10801859e-02 -1.21218972e-02 -1.53131299e-02 2.67388741e-03 2.56892317e-03 -1.68709345e-02 3.57609079e-03 4.59950324e-03 2.86882767e-03 -1.19948387e-03 2.43773265e-03 -6.96804561e-03 -8.66534188e-03 -8.40081647e-03 6.83555892e-03 -9.64793283e-03 -9.26740468e-03 1.22127077e-02 8.76091886e-03 1.33379479e-03 -6.78952551e-03 7.97772966e-03 -1.93234738e-02 -1.50623489e-02 1.67184754e-03 -9.43465682e-04 6.08721143e-03 -1.93006839e-04 6.54561957e-03 2.29375195e-02 -8.74562189e-03 2.15806300e-04 7.90448114e-03 1.46564785e-02 6.05406892e-03 -7.88635202e-03 -1.44602489e-02 6.48094108e-03 -2.23076288e-02 -1.27986604e-02 -9.47371591e-03 -1.98371354e-02 -1.72801968e-02 7.98542518e-03 5.36850188e-04 -1.62503440e-02 9.99308564e-03 -7.90267158e-03 1.03822015e-02 -4.04957973e-04 9.41607915e-03 -9.69292596e-04 -3.79740680e-03 -4.43554809e-03 6.72116270e-03 6.60156971e-03 1.18557271e-02 1.35995559e-02 -1.52342720e-02 1.53083550e-02 1.17710675e-03 -1.71651281e-02 -7.28460168e-03 1.69705674e-02 3.29713314e-03 8.66715331e-03 -7.40946503e-03 -1.95335839e-02 -1.96561124e-02 7.50935730e-03 9.10227094e-03 1.05114663e-02 6.19787816e-03 9.45415068e-03 -1.11820996e-02 2.87785404e-03 -2.67830939e-04 -4.17599035e-03 9.54100396e-03 -1.49869965e-02 1.36315951e-03 -4.64198366e-03 -1.56058073e-02 3.32164112e-03 -5.43562055e-04 -1.78010482e-02
1.68462342e-03 -2.40692194e-03 1.72986630e-02 -2.23884024e-02 -2.38638297e-02 3.40215233e-03 2.73059355e-03 -3.79600096e-03 1.54422771e-03 -1.20694805e-02 3.01333889e-03 2.37868167e-03 2.44196528e-03 6.89012138e-03 1.21288635e-04 8.98000071e-05 5.28322440e-03 4.82343789e-03 -3.48209054e-03 2.36042612e-03 -5.01519116e-03 -5.88222593e-03 3.70302983e-03 7.96989072e-03 -1.72285305e-03 8.72094277e-03 4.38254979e-03 -2.53345876e-04 6.88280817e-03 7.93795567e-03 -6.19884720e-03 -4.12201975e-03 -1.94062274e-02 -4.11374029e-03 3.11486656e-03 -8.43169692e-04 -6.53838972e-03 7.66928308e-03 2.14852821e-02 1.86814088e-03 -3.20229284e-03 1.84466112e-02 -5.75437909e-03 -1.14815542e-02 7.75114447e-03 9.95641295e-03 2.59495154e-03 2.93471152e-03 -5.90211013e-04 5.58759831e-03 7.39265140e-03 1.20263016e-04 -1.88971441e-02 1.61171670e-03 -4.21200134e-03 -3.77541245e-03 2.11593490e-02 -2.78080404e-02 2.17840467e-02 1.25563974e-02 1.48015833e-02 -1.36732310e-02 -6.22360827e-03 2.49088425e-02 -2.29521247e-04 3.15684476e-04 7.50022568e-03 -1.04322946e-02 6.10988587e-03 -2.02751737e-02 -5.02522895e-03 -1.31693967e-02 -2.41256040e-03 -2.09601596e-02 -1.26689789e-03 -1.16541684e-02 8.36281199e-03 -4.49071499e-03 2.13792864e-02 1.74144413e-02 1.59545410e-02 -6.35339646e-03 -3.25794029e-03 -2.86546216e-04 -4.23682667e-03 -9.77917761e-03 -7.92541448e-03 -1.72098726e-02 -1.59017984e-02 1.49989931e-03 1.10035855e-02 -1.32270129e-02 4.43229359e-03 4.63119289e-03 -8.53034481e-03 3.50965769e-03 -6.30530342e-03 2.62944028e-03 1.04141748e-03 1.82221527e-03 1.29784578e-02 8.06719903e-03 -7.48318573e-03 -1.46569246e-02 9.45953373e-03 3.95901455e-03 3.47461179e-03 7.60315685e-03 -1.55605562e-03 1.37347272e-02 9.85609274e-03 4.98542842e-03 1.16315782e-02 -5.13802189e-03 1.10732270e-02 4.03312780e-03 -5.51735004e-03 -3.88790527e-03 -1.86898536e-03 1.46167548e-02 -1.68588746e-03 1.45681314e-02 -2.56027561e-04 -1.67347733e-02 -8.23492417e-04 3.94343724e-03 -1.75105734e-03 6.33348944e-04 2.35335100e-02 3.04979971e-03 3.32419272e-03 -9.58190765e-03 -1.90111145e-03 -1.23235593e-02 -3.03743384e-03 4.84011322e-03 -5.92978066e-03 3.83499311e-03 4.91337851e-03 6.70339167e-03 1.79775897e-02 5.22793271e-03 -1.19056730e-02 1.27516091e-02 1.42401073e-03 -3.52174812e-03 -1.11124711e-02 -1.09213870e-02 5.42282220e-03 1.34344734e-02 1.20514594e-02 4.54556057e-03 -9.20650084e-03 2.02000104e-02 3.51022743e-03 2.01108009e-02 9.06464458e-03 1.02577811e-04 1.15665160e-02 -6.17275247e-04 1.24023287e-02 1.45653717e-03 1.32420436e-02 -2.00111023e-03 -7.09569897e-04 3.20337713e-03 -1.21922111e-02 9.81633458e-03 1.68717708e-02 6.40755612e-03 1.64637100e-02 -9.16657317e-03 -1.98007599e-02 2.74361344e-03 1.71559677e-02 -6.94428617e-03 7.92568922e-03 -5.64101338e-03 -5.59519418e-03 1.37976045e-02 -8.42594169e-03 -1.37987584e-02 -6.27487293e-03 6.63459441e-03 9.04102169e-04 9.24708042e-03 -1.53635780e-03 1.31536685e-02 1.06042149e-02 2.17414764e-03 -2.87226075e-03 -5.04059205e-03 -1.94726530e-02 -2.12822054e-02 -2.07529170e-04 -2.32898202e-02 1.81059521e-02 -7.77083449e-03 6.88590528e-03 1.49036068e-02 -1.03669381e-02 1.20278364e-02 -6.43836043e-04 5.53762447e-03 2.17911112e-03 -1.20981382e-02 -4.37278766e-03 -5.16023394e-03 -1.82210710e-02 -1.42520107e-02 -1.08471327e-02 -9.05416813e-03 -7.44508021e-03 1.71370599e-02 1.24778254e-02 -2.01094989e-02 1.22926524e-02 -1.02200387e-02 2.50577703e-02 9.53275897e-03 -4.24332125e-03 -7.87741039e-03 3.47571308e-03 1.47751821e-02 4.81064431e-03 3.70006915e-03 8.91675986e-03 1.22342762e-02 -6.40643667e-03 1.34790712e-03 -1.40530127e-03 -1.78925116e-02 1.50638204e-02 1.48912081e-02 1.76677704e-02 8.37706774e-03 1.91505731e-03 -9.97772906e-03 -4.94100386e-03 1.26647577e-02 -6.70848880e-03 -7.69131526e-04 3.09167337e-03 -4.82704723e-03 1.67279374e-02 9.13550239e-03 -8.52257293e-03 9.55733098e-03 1.33776739e-02 -3.21861077e-03 4.04128246e-03 -1.71825127e-03 -1.04884589e-02 2.05181725e-02 -1.49349747e-02 -2.95350770e-03
-6.73770858e-03 -1.48421712e-02 1.39789591e-02 -8.29073600e-03 -2.33623758e-02 1.81478001e-02 4.71326662e-03 -5.49262436e-03 -1.29252011e-02 -2.19103787e-02 9.52800550e-03 1.24470424e-02 1.29140904e-02 1.18408529e-02 -4.57323529e-03 -5.15659899e-03 -8.87993444e-03 1.26216114e-02 -2.35364609e-03 5.47010638e-03 4.67298785e-03 -5.79364086e-03 1.54525293e-02 -2.07884749e-03 1.84813782e-03 1.58498194e-02 -1.19494442e-02 9.01236199e-03 1.58860278e-03 -1.50957506e-03 -2.20781993e-02 -6.58173533e-03 -6.99695107e-03 -1.14263967e-02 -1.39221945e-03 2.95199221e-04 -4.62863967e-03 8.48700479e-03 2.00240910e-02 -1.05899367e-02 1.65659690e-03 6.12746226e-03 -5.85261872e-03 -1.40367011e-02 -5.72570134e-03 1.11523680e-02 1.77954137e-02 1.26731284e-02 1.22164572e-02 -1.48959113e-02 -1.58263429e-03 -1.97022804e-03 -4.53029526e-03 2.60010012e-03 2.78780027e-03 -1.76254380e-02 1.90288741e-02 -8.41019861e-03 1.30006606e-02 2.78226212e-02 2.27911584e-02 -2.06514578e-02 -5.08030551e-03 2.33095288e-02 7.37427222e-03 1.13838287e-02 6.56354532e-04 2.09139823e-03 2.49552703e-03 -1.18155230e-03 -4.52655880e-03 -1.47792725e-02 -4.40834276e-03 -1.96383353e-02 -1.93240065e-02 -2.54850648e-02 1.91645157e-02 1.62813403e-02 -4.47673956e-03 8.06918554e-03 1.56483881e-03 -7.24437740e-03 -1.17454201e-03 -1.16430270e-02 -9.02770367e-03 5.88103244e-03 7.05975399e-04 -7.52097648e-03 -1.01147760e-02 -5.98884886e-03 8.00030492e-03 -2.04407182e-02 -7.23423669e-03 -1.41736791e-02 2.11157883e-03 1.41750714e-02 -3.07896500e-03 1.15622208e-02 2.28162706e-02 -2.22201692e-03 3.87308770e-03 2.38447431e-02 -5.28779672e-03 -2.77341926e-03 1.84451602e-02 -9.82212136e-04 -1.04170199e-02 1.48873427e-03 -1.01306243e-02 7.46258162e-03 1.54010728e-02 -1.38808703e-02 -4.01947508e-03 -5.98816341e-03 1.44792227e-02 8.77751503e-03 7.17405044e-03 5.69895329e-03 8.19793902e-03 2.44044582e-03 9.26644262e-03 -8.17324035e-03 2.88356072e-03 -1.48919271e-02 2.53054267e-03 9.69725102e-03 -1.72647974e-03 -5.42197982e-03 2.11572722e-02 -1.09464508e-02 1.50337629e-02 -5.70632005e-03 -2.48435815e-03 -2.50285328e-03 3.20969685e-03 2.89736018e-02 -2.38475204e-02 9.11429804e-03 1.31012313e-02 -5.30101883e-04 1.70356855e-02 -1.09252324e-02 -6.04529819e-03 2.28183400e-02 4.46834415e-03 -2.56177248e-03 1.60630047e-02 -5.58573799e-03 3.64620122e-03 1.65195297e-02 1.04606524e-02 9.94636957e-03 -1.71410628e-02 1.36983516e-02 7.56197469e-03 1.17186047e-02 2.21348088e-03 1.87001079e-02 4.67029167e-03 2.54387688e-03 2.13578646e-03 6.92545064e-03 -3.85410967e-03 4.66690632e-03 -4.86632856e-03 -1.13412663e-02 -1.31208068e-02 -5.14336908e-03 1.61703415e-02 2.36845333e-02 2.34909877e-02 -5.66795794e-03 -2.67402909e-04 -8.78833793e-03 2.29448974e-02 -2.20646244e-02 8.89799651e-03 1.77208353e-02 1.01800880e-03 8.05465132e-03 1.54745637e-03 -1.90961100e-02 -1.01606408e-02 -7.28785014e-03 -4.84583154e-03 -2.52825348e-03 2.56907195e-03 3.71027319e-03 -2.25474522e-03 -4.55106748e-03 1.24923149e-02 2.77945917e-04 -1.16177900e-02 -1.85508665e-03 1.52073642e-02 -1.43827144e-02 2.19851080e-03 -8.98558646e-03 2.12044213e-02 3.60713294e-03 8.21879692e-03 1.45714870e-02 -3.87307210e-03 1.59435570e-02 -2.03328067e-03 -6.10717805e-03 -7.18067400e-03 -1.54941082e-02 -1.72703955e-02 -4.92479373e-03 -2.05533840e-02 -5.72667364e-03 -2.37730872e-02 2.68443790e-03 2.02647615e-02 -1.46088116e-02 2.45560892e-02 -5.55077754e-03 -1.61766089e-04 6.23612141e-05 3.82808293e-03 5.63831069e-03 4.68878075e-03 -1.63665600e-02 1.83546469e-02 2.17434540e-02 2.03803945e-02 2.35057417e-02 -5.23747224e-03 -6.69927755e-03 -2.34957840e-02 -1.34862782e-02 1.62220802e-02 7.88013171e-03 5.66923665e-03 2.26874948e-02 -1.31238848e-02 -1.15055190e-02 1.69472257e-03 1.37912184e-02 -8.72080307e-03 1.57088730e-02 -3.13256634e-03 2.95049464e-03 -4.82397713e-03 -6.77601248e-03 -7.30284862e-03 6.90427609e-03 1.41926203e-02 -5.66308992e-03 5.48566738e-03 -1.61943287e-02 -5.69394091e-03 1.58400200e-02 -3.07213428e-04 -1.65245053e-03
-2.03967616e-02 -2.31196005e-02 1.00125596e-02 -1.11323660e-02 -1.42194945e-02 1.16356695e-02 1.59222707e-02 -2.58996673e-02 -1.55341243e-02 -1.55936126e-02 2.38403957e-02 1.20191853e-02 -9.83593147e-03 2.11753063e-02 -1.37642995e-02 -5.10435365e-03 -1.13163907e-02 -8.68975185e-03 -9.23977699e-03 -3.62951611e-03 1.70640163e-02 1.01917032e-02 3.87130096e-03 2.01174128e-03 7.53301941e-03 1.77468751e-02 -1.38665745e-02 5.66376001e-03 1.32945441e-02 -1.17829978e-03 -3.80691653e-03 2.27514673e-02 -2.22385209e-02 -1.22550484e-02 -1.02977399e-02 -6.62063016e-03 -1.30264228e-02 1.87339839e-02 1.10850334e-02 -1.40582407e-02 1.69439390e-02 1.60263628e-02 -2.38379836e-02 -1.43562043e-02 2.02419441e-02 1.87334009e-02 7.48269539e-03 2.31808852e-02 2.25728396e-02 -4.18913085e-03 -1.30315442e-02 -4.09346400e-03 -1.57779697e-02 4.94793057e-04 1.26537471e-03 -4.45648376e-03 2.08670422e-02 -2.87727863e-02 1.45547614e-02 1.73655096e-02 3.22411545e-02 -2.32054964e-02 -1.88204572e-02 1.81245767e-02 -8.21457896e-03 1.09699955e-02 2.69727409e-03 2.96982448e-03 -5.05956064e-04 -1.62413567e-02 -2.20988020e-02 1.67397372e-02 -2.34300755e-02 -1.56957973e-02 -2.27071382e-02 -1.35638323e-02 1.20188072e-02 1.27522340e-02 2.30918489e-02 1.86589323e-02 1.69286765e-02 -1.09172249e-02 -1.56072294e-02 -1.11603932e-02 -1.49235558e-02 -3.93174170e-03 -8.22813064e-03 -1.63591392e-02 -1.57388970e-02 -1.69278514e-02 1.57165788e-02 -5.45846950e-03 -1.02646230e-02 -1.74010941e-03 -6.91011664e-05 1.64258946e-02 -1.37346406e-02 1.67785864e-02 2.19585057e-02 1.84912961e-02 1.55029269e-02 9.06529743e-03 6.34946581e-03 -2.07363144e-02 2.12761643e-03 6.67572347e-03 2.60657333e-02 1.53289894e-02 -6.92164758e-03 1.30101731e-02 1.89173333e-02 -2.06272304e-02 2.36375481e-02 -2.88341474e-03 7.61160580e-03 1.01569109e-02 4.64106584e-03 2.27008518e-02 1.40453903e-02 1.83202066e-02 5.82405925e-03 1.64780617e-02 2.17333436e-02 -8.27285554e-03 -1.92390438e-02 2.17124056e-02 -1.86361577e-02 -1.30404262e-02 1.92427412e-02 -1.18142506e-02 4.33331635e-03 -1.88255664e-02 9.80659854e-03 -1.93295516e-02 1.98731683e-02 1.70902759e-02 -2.00000871e-02 7.29666930e-03 1.11311739e-02 7.73887383e-03 7.05384603e-03 -1.16756521e-02 -1.84820574e-02 6.80353073e-03 -1.34338029e-02 1.10974070e-02 6.65741693e-03 -4.95443773e-03 1.65786557e-02 2.31219572e-03 1.87596008e-02 1.26302904e-02 -7.77821615e-03 1.60495471e-02 1.12526892e-02 5.86643722e-03 -2.57943338e-03 9.31023806e-03 1.27436416e-02 -1.58383492e-02 2.07957551e-02 1.37009891e-02 1.76681262e-02 -3.44117125e-03 -4.11997922e-03 -7.82285258e-03 -4.80529899e-03 1.29944161e-02 2.19592955e-02 2.21376903e-02 2.71203481e-02 -2.01459080e-02 -1.80113371e-02 -1.85865890e-02 1.90287586e-02 -3.93294310e-03 -1.97504722e-02 1.64217390e-02 2.14579835e-04 6.48758793e-03 8.32064950e-04 -1.13016916e-02 -3.95890139e-03 -8.65001930e-04 3.51104332e-04 -3.28291580e-03 -1.19733475e-02 9.80378594e-03 -9.16844886e-03 3.40807764e-03 6.10961928e-04 1.45539464e-02 -9.73549578e-03 -2.25824695e-02 1.81052461e-02 -8.58847797e-03 3.01417541e-02 -2.76535228e-02 2.74239294e-02 2.13549789e-02 -7.93294702e-03 -6.28410082e-04 -1.03268186e-02 1.50144529e-02 1.68976504e-02 -1.54302996e-02 3.19580664e-04 -5.66127757e-03 -1.51987262e-02 -2.64534019e-02 -2.83559076e-02 -9.51091666e-03 -1.94429364e-02 1.49716586e-02 1.87155809e-02 -2.49074027e-02 1.46627836e-02 -2.27113105e-02 2.44353097e-02 2.28271540e-02 2.27876399e-02 1.07277455e-02 1.96744669e-02 -1.37684424e-03 1.14680268e-02 1.70645248e-02 1.49459401e-02 2.38250699e-02 -6.97522843e-03 1.68103464e-02 -2.30075382e-02 -8.31456203e-03 2.34519877e-02 2.18020547e-02 3.28336819e-03 1.22201247e-02 -3.74715496e-03 -6.29322650e-03 -2.59980243e-02 1.97437070e-02 3.77602619e-03 1.67075035e-04 -2.35645729e-03 4.72595030e-03 6.44691382e-03 1.32407676e-02 2.22979905e-03 7.59131042e-03 1.40552316e-02 -7.67012266e-03 1.30863115e-02 -2.65763439e-02 -2.21265052e-02 5.74181089e-03 -5.19841397e-03 -6.13601413e-03
-1.96098741e-02 -1.23237604e-02 1.87804960e-02 -1.49638401e-02 -1.49543341e-02 1.25449831e-02 1.00320680e-02 -9.83845070e-03 -2.35933345e-02 -2.63418611e-02 1.38768051e-02 2.16191206e-02 -1.10987462e-02 1.06253400e-02 -2.08079051e-02 -9.92098078e-03 -6.48408150e-03 2.06940677e-02 -1.62804537e-02 -8.38682521e-03 1.70301255e-02 2.53991429e-02 -8.45941156e-03 2.41662227e-02 1.62073225e-02 1.66222826e-02 -1.65041592e-02 1.42553532e-02 6.47929683e-03 -1.46399280e-02 -1.33549320e-02 1.55877555e-02 -2.03677677e-02 -2.53193062e-02 -2.27145515e-02 -2.06778441e-02 -2.43840162e-02 1.30279446e-02 7.43342610e-03 -1.55858025e-02 1.67720132e-02 2.07542479e-02 -6.00286340e-03 -2.52274554e-02 2.58004665e-02 2.08883099e-02 2.13895924e-02 1.30286906e-02 2.35539265e-02 -8.64620972e-03 -1.27210328e-02 -1.43601056e-02 -2.12717652e-02 -1.21414568e-02 2.39659566e-02 8.37591290e-03 9.61574633e-03 -1.28190108e-02 2.83964518e-02 2.62971558e-02 1.16663957e-02 -1.26943868e-02 -1.40078384e-02 2.30371449e-02 -2.01942679e-02 6.92137750e-03 1.87168140e-02 1.01453140e-02 1.52373258e-02 -2.54275668e-02 -2.62979977e-02 2.53924821e-02 -2.80216299e-02 -1.49494661e-02 -2.27493681e-02 -1.41101172e-02 2.36089025e-02 1.29088247e-02 1.21060079e-02 1.71625093e-02 1.31361028e-02 -1.39490655e-02 -5.82806487e-03 -2.24498194e-02 -2.04007458e-02 -8.07751063e-03 -8.23289156e-03 -2.59623788e-02 -1.14035653e-02 -5.32977330e-03 1.91248488e-02 -1.14063397e-02 -5.06882882e-03 -1.42737012e-02 -1.25253582e-02 2.27537584e-02 -1.24263018e-02 6.98757637e-03 1.82867367e-02 1.50243677e-02 1.07054729e-02 1.82591807e-02 2.07486693e-02 -6.19780598e-03 1.12186885e-02 1.78479366e-02 2.54289955e-02 8.99487175e-03 -7.84830097e-03 8.18488467e-03 7.11352425e-03 -5.14276838e-03 6.80851797e-03 -4.29601502e-03 1.62990950e-02 3.73862800e-03 1.83744431e-02 2.60491557e-02 1.55420108e-02 1.72559079e-02 8.80192034e-03 1.42951254e-02 7.78284715e-03 -8.63332767e-03 -1.18375868e-02 2.65120342e-02 -1.04963416e-02 -2.51947120e-02 1.23687731e-02 -2.55707074e-02 2.28304900e-02 -2.76096873e-02 2.76343115e-02 -1.20413471e-02 1.75560769e-02 2.89476253e-02 -6.09594584e-03 1.93432607e-02 7.53666833e-03 2.52107158e-02 2.27645058e-02 -1.49532855e-02 -5.72743407e-03 2.54856832e-02 -6.53949007e-03 1.65693294e-02 1.83159951e-02 -1.59211049e-03 1.63510833e-02 1.88700035e-02 1.65024735e-02 2.24803276e-02 -9.79638472e-03 2.79747639e-02 1.41085954e-02 1.28706712e-02 2.70680785e-02 1.09874597e-02 6.82970136e-03 -1.99351143e-02 2.89542843e-02 2.41281539e-02 2.28977539e-02 4.97635175e-03 1.52622163e-02 -1.33438390e-02 -2.59215608e-02 1.53435292e-02 2.00978126e-02 1.91527419e-02 1.74335819e-02 -2.44909152e-02 -1.94787290e-02 -2.80582830e-02 1.30972052e-02 -6.90841349e-03 -1.32529717e-02 2.31759865e-02 1.91627182e-02 4.77298116e-03 -2.21289340e-02 -9.18906368e-03 1.93180814e-02 -1.25121502e-02 -2.02197172e-02 1.22903017e-02 -1.58318598e-02 1.87066402e-02 -1.55341951e-02 2.23339740e-02 1.51201356e-02 5.62572479e-03 -2.69926488e-02 -2.84823775e-02 2.23206542e-02 -1.00784544e-02 2.87807826e-02 -7.67725892e-03 1.68380532e-02 2.67800875e-02 -2.67561171e-02 1.87951513e-02 -1.99074727e-02 1.07971812e-02 6.13732217e-03 -5.85212931e-03 -1.04951654e-02 -1.00175636e-02 -1.99025851e-02 -1.49314143e-02 -1.04195038e-02 -1.08488994e-02 -9.63706523e-03 1.02371685e-02 1.50037380e-02 -1.29351802e-02 2.11029034e-02 -2.46369094e-02 2.91518755e-02 2.65122857e-02 9.85933747e-03 9.84074827e-03 2.26107966e-02 -1.29410680e-02 7.78880110e-03 8.45696777e-03 1.66389383e-02 1.33807594e-02 -2.71254368e-02 1.85767021e-02 -1.54495155e-02 -6.69821491e-03 2.53354944e-02 2.05989033e-02 2.11024825e-02 2.70039123e-02 -1.83108319e-02 -1.41074993e-02 -1.10941799e-02 1.69282667e-02 2.60834657e-02 7.66766770e-03 -7.98249897e-03 1.59144383e-02 5.81238000e-03 2.67465562e-02 -1.31937973e-02 7.01130973e-03 2.51875985e-02 -1.50007838e-02 1.80090591e-02 -2.55163983e-02 -1.19453473e-02 2.58020740e-02 -1.74369663e-02 -1.05683636e-02
-1.73465032e-02 -2.34383065e-02 2.36440077e-02 -7.33223837e-03 -2.67323740e-02 2.62041818e-02 5.67156402e-03 -2.81146299e-02 -5.46205649e-03 -8.66448320e-03 2.26969309e-02 1.66929886e-02 -1.70723777e-02 8.43939278e-03 1.44607492e-03 -3.93517362e-03 -5.27321966e-03 1.41090443e-02 9.04890534e-04 -2.36823899e-03 1.57911191e-03 1.17230592e-02 -1.09073543e-03 1.28276963e-02 8.97713937e-03 3.13511468e-03 -1.74818803e-02 1.43850863e-03 1.12190598e-03 -7.42449099e-03 -4.23879689e-03 1.71993431e-02 -7.65823107e-03 -9.48016532e-03 -1.22352503e-02 -6.32529566e-03 -8.19159765e-03 1.92527752e-02 1.89439524e-02 -2.65316404e-02 2.21775714e-02 1.39921559e-02 -5.67242410e-03 -1.96637586e-02 1.10743963e-03 6.10290328e-03 2.30432171e-02 8.28834251e-03 -1.46731595e-03 9.00205784e-03 -9.24095232e-03 -6.59887772e-03 -1.69997197e-02 5.14219236e-03 1.45617062e-02 -9.28564277e-03 2.94986796e-02 -2.14469042e-02 1.54875712e-02 3.04153562e-02 1.76711399e-02 -1.29404608e-02 -1.57535095e-02 5.90847246e-03 -3.61508387e-03 -5.50342863e-03 -1.16504147e-03 -4.33915108e-03 1.33764772e-02 -1.80310607e-02 -1.13238776e-02 1.23337433e-02 -5.10257715e-03 -4.76092752e-03 -2.09953748e-02 -7.03291036e-03 2.07272284e-02 2.37662736e-02 1.65439099e-02 1.48471352e-02 1.61890034e-02 -1.78224239e-02 -2.11138818e-02 -1.23005090e-02 -5.46077639e-03 1.13031687e-02 -1.36369346e-02 -6.53024705e-04 -1.49623016e-02 -1.24173360e-02 1.98546220e-02 -1.47060016e-02 5.99056482e-03 -1.05015468e-02 -1.04780141e-02 5.70853520e-03 -7.60605047e-03 1.24313878e-02 1.96945444e-02 9.46465880e-03 1.31781427e-02 1.39247961e-02 1.87437218e-02 -2.05384456e-02 1.57364253e-02 -3.78766214e-03 1.86363962e-02 -1.80420966e-03 -4.04378073e-03 1.44281546e-02 2.05404870e-02 -4.48801368e-03 6.54076319e-03 -1.14598423e-02 -7.55559886e-04 2.27455981e-02 1.79237705e-02 1.82567853e-02 2.26872861e-02 9.71822813e-03 1.65684253e-03 9.60474741e-03 -1.03424781e-03 -4.45502950e-03 -1.91765651e-02 1.20034991e-02 -9.80636664e-03 -7.63289351e-03 1.04622981e-02 -1.47071863e-02 1.68383755e-02 -1.54651552e-02 3.33426776e-03 -2.40904521e-02 1.68508273e-02 9.66802426e-03 -1.18677355e-02 2.49885786e-02 1.53660411e-02 2.17888243e-02 1.11786891e-02 -1.53319084e-03 -2.36016884e-02 1.66113302e-02 -3.08804854e-04 1.69301126e-02 4.86197090e-03 -1.61310751e-02 2.67448049e-05 4.34510922e-03 1.09863244e-02 2.07072916e-03 5.09827165e-03 1.21465875e-02 -5.26457513e-03 1.36523796e-02 -8.64150585e-04 1.40317832e-03 6.84257131e-03 -6.14104001e-03 -1.76328191e-04 -4.04458772e-03 4.86632483e-03 1.45932299e-03 -8.70786142e-03 -1.61281638e-02 3.84674245e-03 8.11140798e-03 1.77036710e-02 6.78490009e-03 1.20871291e-02 -1.70108136e-02 -1.30208470e-02 -2.70331055e-02 1.45323121e-03 -1.82942599e-02 -1.58880614e-02 9.08225216e-03 -8.03757273e-03 8.59031454e-03 2.34280759e-03 9.44748172e-04 6.13861624e-03 -2.75729573e-03 -8.99044517e-03 1.21353008e-02 -1.74207427e-02 1.57022290e-02 -1.22304345e-02 1.04752220e-02 -4.89581097e-03 7.46028032e-03 -2.21288800e-02 -1.51883429e-02 2.21320204e-02 -2.45801583e-02 2.41744947e-02 -1.81646068e-02 1.19618140e-02 1.16275251e-02 -4.33253031e-03 -1.60920623e-04 -9.99496970e-03 2.22386420e-02 4.03420534e-03 -1.95735134e-02 -1.26802810e-02 -6.93502976e-03 -2.82667279e-02 -1.20801209e-02 -1.31169157e-02 -2.15400569e-02 -2.31978726e-02 1.91044230e-02 2.04822086e-02 -2.22354475e-02 6.41640276e-03 -1.30471643e-02 3.09834648e-02 1.50864394e-02 6.73873210e-03 1.13144480e-02 1.83806457e-02 -7.19511881e-04 2.01286040e-02 6.24003727e-03 1.66885871e-02 1.26833599e-02 -1.74367502e-02 1.90135557e-02 -1.76489744e-02 -2.37218719e-02 2.10646372e-02 8.92238040e-03 2.36531068e-02 2.19183527e-02 -2.39074491e-02 -9.05239768e-03 -1.31563069e-02 3.44097568e-03 -2.14789785e-03 1.30734676e-02 -1.84615906e-02 1.18818888e-02 -1.22619597e-02 7.40830414e-03 3.40981968e-03 -1.06369343e-03 2.38026343e-02 -1.07608745e-02 1.71895623e-02 -2.51255371e-02 -5.12286462e-03 7.68801104e-03 -2.07563210e-02 -7.85718765e-03
-8.42836872e-03 -2.60674153e-02 1.43892411e-02 -1.13347201e-02 -2.09185220e-02 2.24542394e-02 1.12319570e-02 -5.77762723e-03 -2.14412976e-02 -1.32136764e-02 4.39547561e-03 2.37803217e-02 -1.85037293e-02 1.67911761e-02 -7.87205808e-03 -2.46836357e-02 -1.23698683e-02 4.21193568e-03 -1.61545929e-02 -9.12094081e-04 1.70814525e-02 1.38040921e-02 4.52788809e-05 1.27116209e-02 9.98922437e-03 1.90231912e-02 -2.10804231e-02 1.72071643e-02 2.16223355e-02 -1.84591953e-02 -6.69085653e-03 2.06233598e-02 -1.87889896e-02 -1.24705127e-02 -1.43069848e-02 -6.19159453e-03 -1.23998504e-02 1.70262400e-02 2.00812295e-02 -2.68812198e-02 1.53987082e-02 4.03989013e-03 -1.58565361e-02 -2.38576774e-02 1.72926821e-02 2.06881613e-02 2.07423642e-02 8.70805699e-03 1.71150714e-02 -1.18114827e-02 -8.08236841e-03 -2.07966231e-02 -1.84407383e-02 -2.16612909e-02 1.99625995e-02 -2.05097813e-03 2.36202329e-02 -1.29815787e-02 2.57056039e-02 7.68500241e-03 2.14005206e-02 -1.81916244e-02 -1.33900540e-02 2.15793345e-02 -2.18427107e-02 1.14956184e-03 1.17443949e-02 1.62338018e-02 1.85528416e-02 -1.40774511e-02 -6.48398977e-03 5.97410835e-03 -1.51377553e-02 -2.34561414e-02 -2.48191096e-02 -4.40521678e-03 3.37763294e-03 5.15134493e-03 1.73398182e-02 2.24309750e-02 1.59773082e-02 -2.28718594e-02 -5.88338869e-03 -9.46964044e-03 -2.68276334e-02 -1.58665539e-03 -9.95187089e-03 -1.71387512e-02 -2.80531086e-02 -3.85909481e-03 1.70496255e-02 -1.13609070e-02 -6.73254440e-03 -2.08282135e-02 -3.55329877e-03 1.29414238e-02 -1.79149713e-02 4.97467630e-03 2.77146138e-02 8.14358238e-03 1.73125491e-02 2.13978905e-02 7.17163039e-03 -1.22935222e-02 1.94220711e-02 2.28041485e-02 1.77451912e-02 2.17622705e-02 -2.05952823e-02 1.38126966e-02 1.10853417e-02 -4.59767878e-03 1.17973164e-02 -9.57924686e-03 1.12902531e-02 1.18247755e-02 5.96335204e-03 2.16696505e-02 1.24038970e-02 2.08153110e-02 2.01432537e-02 1.25068408e-02 3.47605906e-03 -2.53223907e-02 -1.22102760e-02 6.80941809e-03 -2.45751701e-02 -1.94311682e-02 1.52357109e-02 -2.46255845e-02 2.32843347e-02 -2.16156971e-02 8.76630004e-03 -1.53393215e-02 5.86391333e-03 1.31667675e-02 -2.23168768e-02 2.11693812e-02 8.47652927e-03 7.64654251e-03 4.61670710e-03 -3.73554369e-03 -1.97248161e-02 1.91698633e-02 -1.07813934e-02 9.29386634e-03 1.82295740e-02 5.01744309e-03 1.73579790e-02 6.72817742e-03 1.83740519e-02 7.82926846e-03 -4.65888297e-03 2.45622452e-02 1.68789644e-02 2.82188319e-02 1.94658190e-02 1.21975644e-02 1.46103278e-02 -1.46015715e-02 1.29955970e-02 -3.28868860e-04 1.57362260e-02 1.26324818e-02 -2.28953571e-03 -1.75085068e-02 -2.00346000e-02 2.85520661e-03 2.68393420e-02 2.07187925e-02 1.77897625e-02 -1.64688509e-02 -2.91870888e-02 -1.26283616e-02 1.78128928e-02 -2.44501457e-02 -4.72775055e-03 5.40003600e-03 1.42842578e-03 6.86637592e-03 -2.09090579e-02 -1.57126263e-02 5.70860226e-03 -2.63391319e-03 -1.52222551e-02 2.09622011e-02 -9.79229156e-03 4.08158265e-03 3.90107813e-03 2.85815471e-03 8.94345902e-03 2.03957707e-02 -2.81087197e-02 -6.26449566e-03 2.07287595e-02 -2.46123243e-02 2.41932850e-02 -7.62206363e-03 2.29158495e-02 8.82274751e-03 -1.44818546e-02 8.32946226e-03 -5.58795547e-03 1.98722817e-02 9.29313619e-03 -1.21943676e-03 -1.22377137e-03 -2.27846522e-02 -1.11314049e-02 -1.31909121e-02 -2.63632126e-02 -1.99410971e-02 -2.42462885e-02 1.47545291e-02 1.93938687e-02 -2.84183100e-02 2.28326470e-02 -9.17613413e-03 1.61327869e-02 1.82470772e-02 7.20615825e-03 7.45492615e-03 2.41677873e-02 -1.67822111e-02 2.42656749e-02 1.94537863e-02 1.59674194e-02 1.36820385e-02 -1.43359136e-02 2.23461241e-02 -2.20775697e-02 -6.87751919e-03 1.41246431e-02 1.61193665e-02 2.13393122e-02 1.51635408e-02 -1.84698291e-02 -2.16076430e-02 -1.70865301e-02 2.69780438e-02 5.83622279e-03 7.23271212e-03 -1.96788087e-02 6.63624983e-03 -8.20878893e-04 8.04949738e-03 -1.96612980e-02 2.22830363e-02 1.10869193e-02 -4.96385247e-03 2.11657602e-02 -6.35292893e-03 -2.00395379e-02 1.09892571e-02 -2.24852655e-02 -1.35731930e-02
-1.78756937e-02 -3.19964928e-03 8.22671782e-03 -1.79332457e-02 -2.09311116e-02 1.62279431e-03 1.79200601e-02 -2.36136932e-03 -1.67142153e-02 -9.42840800e-03 1.05117103e-02 1.27077857e-02 -2.25949287e-03 6.37526810e-03 -8.67273193e-03 -5.81859564e-03 -9.19772778e-03 7.55011686e-04 3.73037765e-03 -9.81103349e-03 5.95438248e-03 -9.43339244e-03 -5.97599940e-03 2.60430528e-03 4.49168123e-03 1.10417325e-02 -6.75815810e-03 7.16604991e-03 1.79460570e-02 -4.28334950e-03 -1.70557071e-02 1.53637882e-02 -1.24657368e-02 -2.40820404e-02 -1.61370672e-02 -1.75052881e-02 -1.79926101e-02 1.51599422e-02 7.14472868e-03 -2.06019748e-02 1.24059077e-02 1.64158102e-02 -2.39007510e-02 -1.14040142e-02 1.30966306e-02 1.53294241e-03 1.52909895e-02 -1.00392220e-03 5.75001026e-03 -1.79047827e-02 2.85446201e-03 -1.49038024e-02 3.19776055e-03 -4.46821051e-03 9.10398178e-03 8.83958564e-05 2.22674347e-02 -1.62062570e-02 2.21930221e-02 1.86189637e-02 3.19078714e-02 -1.99670121e-02 -4.73872013e-03 2.49982830e-02 3.24399443e-03 -3.86960525e-03 2.99493712e-03 -1.15665495e-02 2.00876687e-02 -6.85782498e-03 -2.09109252e-03 -1.20364046e-02 -1.27414789e-03 -1.07350722e-02 -1.54240830e-02 -7.67935254e-03 2.02594548e-02 1.65125933e-02 2.39592115e-03 1.94360930e-02 1.59982257e-02 -8.10141303e-03 -1.55538591e-02 -1.75798219e-02 -2.17635394e-03 1.24480566e-02 -1.68717466e-02 -3.83604644e-03 -3.35429725e-03 -1.86332571e-03 1.40337776e-02 -1.70569178e-02 8.16315133e-03 -1.86232552e-02 -8.42249673e-03 2.41837115e-03 6.97848992e-03 1.91711802e-02 4.22143983e-03 2.05347203e-02 1.14451246e-02 1.32618640e-02 -6.38377201e-03 -7.09780667e-04 1.85949001e-02 -6.20964263e-03 4.07713139e-03 -3.35741811e-03 6.25907443e-04 -5.35338186e-03 1.24435676e-02 -2.25337911e-02 4.60729934e-03 4.88002598e-03 1.10919969e-02 1.38506452e-02 2.44068075e-02 1.08532049e-03 1.78481899e-02 -9.82191530e-04 8.59087333e-03 1.07204542e-02 2.32371446e-02 -1.76005475e-02 2.12239247e-04 1.21258693e-02 -9.72925778e-03 4.83485358e-03 2.33326405e-02 -2.60190424e-02 -2.36670510e-03 -4.89095831e-03 8.16208217e-03 -1.97963286e-02 8.47529713e-03 1.80672389e-02 -1.48089714e-02 2.99595855e-03 1.16553539e-02 -8.17880791e-04 5.47914440e-03 -1.89130884e-02 -9.64037515e-03 1.43953338e-02 -1.38965417e-02 7.04732072e-03 -1.17368319e-04 -5.75043308e-03 9.77071095e-03 -2.03117984e-03 -6.41249493e-03 8.42148904e-04 -1.89896915e-02 -3.50406091e-03 -4.49146843e-03 2.80721509e-03 3.79659701e-03 2.09396314e-02 1.00705000e-02 -1.83027256e-02 1.33271068e-02 1.52738020e-02 2.42252694e-03 8.37310776e-03 1.53681263e-02 -1.18808756e-02 -1.61100377e-03 -8.85054469e-04 2.57673231e-03 1.58375986e-02 2.52234284e-02 -2.20620241e-02 -1.58087909e-02 -3.58452927e-03 1.90737713e-02 -2.66962089e-02 -1.86123105e-03 3.70467547e-03 1.27339493e-02 1.73955515e-03 4.16000281e-03 6.85767096e-04 3.26306745e-03 1.01585099e-02 1.73038768e-03 6.63641607e-03 -8.35489016e-03 1.44480739e-03 -8.16907641e-03 -1.29157668e-02 1.59229636e-02 1.39929177e-02 -2.50066556e-02 -1.98188033e-02 2.55107507e-02 -2.70124301e-02 1.23474533e-02 -1.13730477e-02 2.09619608e-02 1.30061023e-02 4.21403907e-03 8.43794178e-03 -1.44814225e-02 2.64919568e-02 4.51629236e-03 3.25788558e-03 -5.51849371e-03 -9.52485949e-03 -5.83858369e-03 -2.58553289e-02 -1.12337433e-02 -2.04623751e-02 -1.03806099e-02 6.04399713e-03 2.70174369e-02 -2.28040442e-02 2.67664064e-03 -1.06527861e-02 8.73253774e-03 1.74844323e-03 2.32487675e-02 -6.97490107e-03 8.12494755e-03 2.28825491e-03 1.62562206e-02 2.23479029e-02 1.12893265e-02 2.85918266e-02 -8.69806483e-03 1.53859062e-02 -5.76792285e-03 -5.60913095e-03 2.45784223e-02 1.01245136e-03 3.99497198e-03 9.19529423e-03 -3.96516727e-04 -1.96432415e-02 2.15918990e-03 2.65247244e-02 2.20240233e-03 1.53087052e-02 -1.70872658e-02 -5.57318097e-03 8.71021394e-03 4.37573530e-03 4.84120147e-03 1.41813327e-02 1.75218005e-02 -1.07285446e-02 1.69737004e-02 -1.28032323e-02 -2.06469614e-02 2.91736387e-02 -9.68386047e-03 -7.45992549e-03
-1.42226275e-02 -1.11717721e-02 1.97857004e-02 -1.71209760e-02 -2.00955495e-02 5.13309846e-03 1.35388421e-02 -1.20156296e-02 -5.11694979e-03 -1.40076561e-03 1.69971567e-02 1.62163675e-02 -1.19995130e-02 1.34572601e-02 -1.58915352e-02 -5.70133235e-03 1.05108297e-03 1.01308348e-02 3.79765104e-03 -1.78085349e-03 -1.03337876e-03 3.25208716e-03 -6.82827178e-03 1.20399985e-03 1.43559426e-02 6.61843270e-03 -1.05874315e-02 2.01127194e-02 6.02076063e-04 4.01932839e-03 -1.26933996e-02 -1.94474321e-03 -2.34224647e-02 -1.07123451e-02 -2.24276222e-02 -6.31156703e-03 -1.88170038e-02 2.26706378e-02 1.44897623e-03 -1.78971775e-02 8.39741901e-03 1.82254389e-02 -2.05577612e-02 -9.61249974e-03 1.12631368e-02 3.38251819e-03 1.36197805e-02 2.20178571e-02 1.04332073e-02 7.34836003e-03 -3.55026522e-03 -1.36990016e-02 -1.03655057e-02 -2.46699899e-03 -1.52478009e-04 -9.81473550e-03 2.73902453e-02 -1.03012528e-02 2.19506696e-02 1.29592242e-02 1.03524951e-02 -1.72323212e-02 -2.46628597e-02 2.68027894e-02 -1.16503092e-04 -5.95794665e-03 1.06478846e-02 4.45449073e-03 -4.97728726e-03 -3.84131155e-04 -1.80006642e-02 -3.03123798e-03 1.00130530e-03 -1.66034959e-02 -1.00783315e-02 -6.36562472e-03 1.38236431e-03 1.91921776e-04 4.08824533e-03 7.89508503e-03 -3.98686202e-03 -7.22785294e-03 -6.94800541e-03 -1.30599309e-02 2.03016400e-03 -8.08015466e-05 -8.45924020e-03 -1.68869011e-02 -1.53064346e-02 -2.34709084e-02 1.90944318e-02 -6.23966986e-03 5.23720821e-03 -8.32944084e-03 1.02332588e-02 1.02242306e-02 -1.17776785e-02 -6.22814870e-04 1.18296407e-02 4.68237698e-03 1.76980756e-02 2.00636294e-02 1.19867325e-02 -1.35000274e-02 1.63677130e-02 -7.15020392e-03 2.43619103e-02 -4.76244837e-03 2.08159490e-03 7.79284397e-03 8.83772387e-04 -1.05205709e-02 1.51286749e-02 -1.67263038e-02 2.10179593e-02 2.14953150e-04 1.16081936e-02 6.14839699e-03 1.04934694e-02 1.75105706e-02 3.61657538e-03 1.17073711e-02 -1.55636435e-03 -4.27504070e-03 -1.18576298e-02 -5.60498424e-03 -3.09946714e-03 -4.31006262e-03 1.33707337e-02 -1.16784098e-02 2.16630399e-02 -1.31735336e-02 7.28453370e-03 -1.05348881e-02 4.95299231e-03 1.47151351e-02 -1.44089935e-02 6.65946165e-03 2.72478489e-03 2.00912710e-02 1.01356236e-02 -1.46358106e-02 -9.23057552e-03 2.09142976e-02 7.50902761e-03 -9.03234002e-04 1.26673542e-02 -8.26021843e-03 1.32246157e-02 -3.77756474e-03 6.44631125e-03 6.05710829e-03 -1.43385120e-03 1.92627106e-02 -1.22857057e-02 5.55389188e-03 5.07216016e-03 1.11101782e-02 -3.57317552e-03 7.23740179e-03 -1.72905927e-03 -2.64437892e-03 3.93602205e-03 2.45374837e-03 -9.42690670e-03 3.86177283e-03 -1.34341896e-03 -1.53259002e-03 9.74386372e-03 1.31293815e-02 1.41893048e-02 -2.66264006e-02 -2.00705007e-02 -9.93160065e-03 2.49203551e-03 -2.29028668e-02 -1.09213432e-02 1.62723809e-02 -8.19104665e-04 4.54334961e-03 1.72587938e-03 -1.53379077e-02 6.53911103e-03 -9.07384045e-03 -1.11731226e-02 4.24846169e-03 -1.03976680e-02 -2.49163946e-03 1.18983164e-03 -4.42974409e-03 -5.47384610e-03 7.68165290e-03 -1.31598543e-02 -2.80121770e-02 4.00056568e-04 -1.23425489e-02 1.05319005e-02 -1.71727948e-02 1.23489825e-02 1.46139665e-02 -1.22410739e-02 -3.80712398e-03 -1.37780164e-03 2.58081388e-02 1.68404859e-02 3.41512519e-03 -7.81935174e-03 -1.79511271e-02 -1.98140834e-02 -8.96129943e-03 -2.32980796e-03 -1.37722427e-02 -1.91426799e-02 1.25173330e-02 1.41318666e-03 -1.58076156e-02 9.18555818e-03 -1.88880712e-02 1.24000860e-02 -5.19642467e-03 -4.55127563e-03 -7.27627333e-03 2.59857764e-03 -1.16056064e-02 2.03318093e-02 2.61576343e-02 1.66792199e-02 1.79391094e-02 -3.06622731e-03 1.82223378e-03 -7.26675894e-03 -1.05062043e-02 6.81052776e-03 1.57638751e-02 4.89089917e-03 3.34554655e-03 -1.37666818e-02 -1.24955876e-03 -2.01625675e-02 1.64473075e-02 9.63000301e-03 -4.25584009e-03 -4.60214535e-04 9.70739964e-03 -8.50593485e-03 9.11943614e-03 -1.17799658e-02 1.47267198e-02 2.11078040e-02 -1.51514988e-02 6.80839736e-03 -2.16867253e-02 -1.56645607e-02 2.23799907e-02 -2.78908969e-03 -1.82048604e-02
-5.30209905e-03 -2.76719052e-02 1.63131040e-02 -2.61367336e-02 -1.53526869e-02 7.47977337e-03 1.75766051e-02 -2.91856416e-02 -1.42276287e-02 -2.48768646e-02 2.44450755e-02 1.00279152e-02 -9.00110975e-03 1.08043775e-02 -4.46020719e-03 -2.80271587e-03 -1.89170856e-02 -1.12517653e-02 -2.04972103e-02 -1.19195627e-02 5.15404390e-03 -3.71144881e-04 -3.92603874e-03 -3.84940510e-03 1.79224473e-03 5.34501718e-03 -3.57682118e-03 1.36251608e-02 1.61992069e-02 -1.60692632e-02 -1.38599118e-02 6.28753658e-03 -1.30585730e-02 -1.80298220e-02 -8.14069621e-03 -1.62163619e-02 -1.22182798e-02 7.79616274e-03 1.79284494e-02 -2.47545354e-02 5.93354506e-03 1.57352984e-02 -2.06277538e-02 -1.97078232e-02 1.38399387e-02 1.66498907e-02 2.55876053e-02 5.37189050e-03 1.49464495e-02 -1.67621039e-02 -1.98149551e-02 -9.85998660e-03 -2.23236308e-02 4.52955347e-03 1.26545392e-02 1.44675765e-02 9.05963685e-03 -2.87923068e-02 1.69091709e-02 3.10453307e-02 2.56761014e-02 -2.45184153e-02 -2.88810004e-02 2.74583325e-02 8.88989656e-04 5.55459643e-03 -8.21676804e-04 2.04780558e-03 1.08955381e-03 -2.30959859e-02 -1.65970325e-02 -3.76447686e-03 -1.21782161e-02 -1.63905881e-02 -1.00190882e-02 -2.02236008e-02 2.40115374e-02 1.95373073e-02 1.73310004e-02 6.84812432e-03 1.86875965e-02 -1.49599873e-02 -1.79388188e-02 -2.42524352e-02 -1.40559226e-02 -8.75438377e-03 4.28745616e-03 -1.35733150e-02 -1.22509655e-02 -2.14799438e-02 2.28650458e-02 -1.79742426e-02 -3.74761014e-03 -1.12255532e-02 1.67661603e-03 8.66416842e-03 -1.24086598e-02 2.43990812e-02 1.46238124e-02 2.44971607e-02 1.75809916e-02 1.32533861e-02 2.37557795e-02 -1.22887883e-02 1.82322543e-02 1.01036718e-02 1.42688854e-02 6.36012107e-03 -5.94311999e-03 1.48478877e-02 2.35185660e-02 -2.29362939e-02 5.62588312e-03 -2.32476667e-02 1.49481259e-02 4.20438079e-03 1.28066605e-02 3.36067122e-03 6.19326439e-03 2.52527203e-02 1.48580950e-02 2.08546408e-02 4.44194442e-03 -6.43002195e-03 -1.46162109e-02 5.54657588e-03 -1.30070271e-02 -7.54830102e-03 9.32294689e-03 -2.05984730e-02 2.07809135e-02 -1.01303672e-02 2.22751498e-02 -2.61162594e-02 1.02677913e-02 3.00153699e-02 -2.27269642e-02 1.51986396e-02 8.64233077e-03 1.11619104e-02 1.03990445e-02 -2.02916600e-02 -7.53591722e-03 4.27425466e-03 -1.78750083e-02 2.04172768e-02 1.44364340e-02 -2.35042237e-02 1.39114279e-02 1.35959070e-02 1.00192921e-02 1.02860853e-02 -6.81251381e-03 1.62320491e-02 4.80221584e-03 1.86093953e-02 -2.12867069e-03 1.66911259e-02 8.10136925e-03 -1.00305425e-02 3.75634502e-03 1.72676761e-02 4.88709379e-03 6.68117078e-03 -7.97539484e-03 -1.77437253e-02 -1.09695941e-02 -3.88847804e-03 2.32747216e-02 6.93543442e-03 1.35822687e-02 -2.69345231e-02 -2.25228406e-02 -9.43183247e-03 1.01545658e-02 -1.67582780e-02 -1.67279132e-02 1.32101504e-02 -8.66293628e-03 1.75556522e-02 -5.28977672e-03 -5.27749956e-03 5.66230901e-03 -3.48573551e-03 1.34649788e-04 6.83317240e-03 -1.17303524e-02 7.46476930e-03 -1.19289514e-02 1.47450706e-02 4.46473394e-04 1.86865963e-03 -2.38138270e-02 -1.04900580e-02 2.51494534e-02 -5.11223869e-03 2.74938457e-02 -1.86636448e-02 2.51893252e-02 3.03506665e-02 -2.04671808e-02 2.15271562e-02 -1.47016812e-02 1.61374491e-02 6.47872221e-03 -8.74378160e-03 -1.55342156e-02 -1.14998287e-02 -2.12912001e-02 -8.91533028e-03 -1.80600211e-02 -1.41210910e-02 -6.43892586e-03 2.48079970e-02 1.71045959e-02 -9.67202429e-03 1.44274263e-02 -1.03196893e-02 2.54169796e-02 2.36226022e-02 1.78754143e-02 1.89396702e-02 2.39044484e-02 1.07625185e-03 5.25521673e-03 1.04420632e-02 3.52158630e-03 1.66571960e-02 -1.90936364e-02 1.62136983e-02 -2.17214618e-02 -8.23862199e-03 6.66638976e-03 1.38269290e-02 2.87758233e-03 2.64301207e-02 -2.53210273e-02 -2.11146623e-02 -2.96175629e-02 1.11778770e-02 7.46540166e-03 -8.40174383e-04 -1.20569086e-02 1.20759765e-02 -9.32640769e-03 1.80930197e-02 -1.94714554e-02 1.12254452e-02 2.67947800e-02 -1.07612731e-02 4.41849325e-03 -2.45201383e-02 -1.89483445e-02 1.86153371e-02 -1.55232204e-02 -2.19586585e-02
