-5.54932049e-03 2.71486165e-03 2.64214668e-02 -1.68727525e-02 -4.45271051e-03 7.17174774e-03 5.04265865e-03 -5.83770499e-03 -2.18046433e-03 -1.38509013e-02 9.23260860e-03 2.29716953e-02 1.13552054e-02 2.84824218e-03 1.04659505e-03 -4.46732296e-03 -9.54829250e-03 2.69634835e-02 1.44879159e-03 -9.46950819e-03 2.41001714e-02 -2.97354837e-03 -1.17014162e-02 1.59268193e-02 1.09735616e-02 1.66445374e-02 1.87979580e-03 1.06978389e-02 1.94600914e-02 1.89498253e-03 -2.17248425e-02 -1.04353635e-03 -2.11397056e-02 -1.01146307e-02 7.68185535e-04 -1.32652745e-02 -4.47063765e-04 1.59513522e-02 4.30982420e-03 1.76686945e-03 1.19278692e-02 9.72280558e-03 -1.30980480e-02 3.71354586e-03 1.35572134e-02 9.08384752e-03 9.60724521e-03 1.58489197e-02 5.66419913e-03 -3.68953007e-03 -7.29450257e-03 2.56411236e-04 -2.04930212e-02 -1.05857104e-02 1.60941184e-02 2.49568978e-03 1.60598792e-02 -7.07077794e-03 1.90316723e-03 2.08753813e-02 1.83893647e-02 -1.45537388e-02 -2.15055030e-02 5.36805624e-03 -7.93132931e-03 2.70739500e-03 6.89087156e-03 1.40732515e-03 1.26481187e-02 -9.72742029e-03 -1.74732488e-02 1.20789055e-02 1.85394485e-03 -1.59010403e-02 -4.32306388e-03 -1.35217644e-02 2.97914934e-03 1.59390271e-02 4.43650177e-03 1.82512328e-02 8.32936727e-03 1.53125515e-02 -2.76722386e-02 -2.30738223e-02 -2.46188100e-02 2.37727668e-02 -7.57656759e-03 -5.05087804e-03 -7.32136425e-03 4.01577726e-03 3.04301223e-03 -2.67302468e-02 -1.47783309e-02 8.47708725e-05 -1.39953466e-02 2.12568026e-02 7.97296315e-03 -9.04039131e-04 1.55217145e-02 4.65023005e-03 3.67569714e-03 1.49882603e-02 1.58811745e-03 -5.90763055e-03 1.52233439e-02 -3.67981079e-03 -3.69569723e-04 3.30513052e-04 -9.65612940e-03 -7.58715160e-03 9.39808041e-03 -1.75785124e-02 7.55487243e-03 -8.78357422e-03 1.86577365e-02 -3.97600466e-03 5.66750439e-03 -8.19241721e-03 2.19955612e-02 2.83462415e-03 8.28612968e-03 4.25933686e-04 2.12186873e-02 -2.30447557e-02 4.71819285e-03 -3.58721311e-03 -2.86838366e-03 2.30811886e-03 1.55715877e-02 -2.08460838e-02 1.19177988e-02 -1.22163920e-02 8.56063608e-03 -2.08155680e-02 1.61937773e-02 4.41809092e-03 -2.11049505e-02 1.18188206e-02 1.30146891e-02 1.27462344e-02 1.09383194e-02 -1.23612909e-02 3.84333311e-03 2.66531296e-02 -8.83266144e-03 1.91485863e-02 3.01450561e-03 1.66983679e-02 -2.74306512e-03 8.75362940e-03 5.54038631e-03 7.71010155e-03 -1.02116046e-02 5.12224389e-03 1.69375427e-02 1.81162395e-02 6.69117318e-03 3.42135155e-03 2.32541822e-02 -8.99754185e-03 9.78120416e-03 1.56141240e-02 2.22789198e-02 1.82476714e-02 1.30978320e-02 -1.36012044e-02 -1.12424167e-02 2.32456438e-02 3.14448401e-03 1.78530160e-02 6.63634157e-03 2.49338499e-03 -1.57149613e-03 -1.26950610e-02 2.16898043e-02 -2.14505214e-02 -1.68276653e-02 2.38619302e-03 8.06732196e-03 1.14546251e-02 2.43237312e-03 -6.06373791e-03 2.35484028e-03 -8.74439441e-03 -1.30537320e-02 1.36711653e-02 -6.68768818e-03 1.70960408e-02 5.56776067e-04 1.53030027e-02 8.67113285e-03 1.50006404e-02 -1.27015924e-02 -1.52570326e-02 2.00757012e-02 -1.56235695e-02 -9.88397165e-04 5.48133254e-03 1.04319165e-02 -2.00652561e-04 -4.06748673e-04 1.80462915e-02 -1.19103026e-02 8.97752121e-03 6.63922401e-03 4.26052022e-04 -1.12059787e-02 -6.02373108e-03 -3.52709484e-03 -6.31929236e-03 -1.25000421e-02 -1.20466819e-03 -2.49027330e-02 -5.73742262e-04 2.38360520e-02 -1.33673027e-02 2.06314381e-02 -2.81758606e-03 5.74763818e-03 1.26680909e-02 4.65284241e-03 1.03442604e-02 2.46626809e-02 -4.72170208e-03 -1.52078515e-03 2.24698037e-02 9.82291903e-03 2.03325022e-02 -5.88506041e-03 5.92638180e-03 -5.20210061e-03 -4.22502263e-03 1.02693560e-02 3.11513525e-03 2.29796469e-02 2.49312446e-03 3.71668977e-03 -4.61204955e-03 -1.10113965e-02 1.22783734e-02 7.68746599e-04 7.18456041e-03 -5.39975613e-03 4.19435930e-03 9.75525659e-03 -8.65734648e-03 1.75668008e-03 8.02712422e-03 1.66140720e-02 2.80913967e-03 1.61662325e-02 -6.00677391e-04 -2.25475505e-02 1.87604018e-02 3.62111279e-03 -9.52301640e-03
-1.22002438e-02 -1.90170538e-02 -2.79670377e-04 -1.45335933e-02 -2.64501362e-03 2.01107543e-02 8.46200064e-03 -6.94855722e-03 -1.28293224e-02 1.51529012e-03 1.67458914e-02 1.88557920e-03 -5.41982893e-03 -3.91607964e-03 3.27391294e-03 6.03241147e-03 -2.62178457e-03 -1.36114508e-02 1.04826074e-02 -8.70173331e-03 7.19754118e-03 -7.91571382e-03 1.76701113e-03 6.43636053e-03 9.75949038e-03 -8.44265427e-03 -1.80742871e-02 -9.59484605e-04 3.01834964e-03 2.63244007e-03 -3.43230879e-03 1.13543579e-02 -2.78128689e-04 -1.73814707e-02 -1.11380545e-02 -1.87702235e-02 -4.19686083e-03 1.91997401e-02 1.30110579e-02 -1.61855407e-02 1.27291782e-02 1.55919893e-02 -1.17268655e-02 -1.74631067e-02 -6.21536886e-03 6.91357581e-03 -1.51011033e-03 1.31618343e-02 5.12963440e-03 1.46473479e-02 3.79935140e-04 -1.18061795e-03 5.81623986e-03 -7.04325503e-03 4.37751599e-03 -1.49873337e-02 2.25831419e-02 -1.26176905e-02 1.02391355e-02 7.56289158e-03 1.54653108e-02 -1.64729860e-02 -1.98599435e-02 2.04143859e-03 1.27027584e-02 -1.71724125e-04 -7.99338799e-03 -3.95619730e-03 5.44026773e-03 -1.45919509e-02 -1.01579772e-02 -6.67544501e-03 -1.26897618e-02 -4.18214314e-03 -5.26892114e-03 -1.57167502e-02 1.25193363e-02 1.37464178e-03 5.07069379e-03 8.05023126e-03 6.70552021e-03 -1.42194750e-02 3.97503423e-03 -1.29625546e-02 -1.64686721e-02 -1.06108533e-02 -1.03926216e-03 7.91112334e-03 -1.08330678e-02 -2.92841606e-02 9.42424312e-03 4.52613179e-03 1.06252395e-02 -1.74142187e-04 2.82860454e-03 1.71497324e-03 3.65470070e-03 -6.66011591e-04 6.91155856e-03 7.22517399e-03 1.03851333e-02 1.02723185e-02 1.05548594e-02 -3.93260649e-04 -1.94456265e-03 1.05180927e-02 2.29698643e-02 6.95094047e-03 5.87083399e-03 8.85999575e-03 1.04424832e-02 -5.15061256e-04 9.17418022e-03 -1.11498460e-02 2.81280046e-03 -5.49876504e-03 -6.31278555e-04 1.12340534e-02 1.51774427e-02 1.23909465e-03 -3.99853149e-03 -2.70061009e-03 -7.31070177e-04 -4.95629385e-03 -1.11998050e-02 -9.56404861e-03 -1.89573283e-03 -4.37525334e-03 -2.63181631e-03 1.64012553e-03 2.46379897e-03 -1.38056148e-02 2.10329285e-03 -1.09485053e-02 1.99702755e-03 1.67119447e-02 -7.77752744e-03 9.79835633e-03 -5.89637412e-03 5.51808858e-03 7.69711286e-03 -1.38562275e-02 4.49689897e-03 6.30594604e-03 1.00529147e-02 -4.62780846e-03 -1.14391260e-02 -1.84910540e-02 1.70013547e-04 -5.47481561e-03 -2.87360162e-03 -1.32804969e-02 -2.58236309e-04 5.90311131e-03 -4.09285305e-03 -1.38273346e-03 1.07190851e-03 -1.95808848e-03 7.99604226e-03 8.49511195e-03 -3.37041891e-03 -5.72041050e-03 -5.54731674e-03 -5.74407680e-03 2.28723371e-03 -4.30437503e-03 -6.96830824e-03 -8.82045925e-03 1.88010316e-02 6.91590924e-03 6.52164640e-03 -2.47748271e-02 -7.83188734e-03 -1.77946445e-02 1.62708778e-02 -2.01456156e-02 -1.00909732e-04 -2.61317543e-03 -2.08282098e-02 -9.06312186e-03 3.26050853e-04 -3.38733196e-04 -7.53526809e-03 -3.62485764e-03 -1.74271269e-03 -1.51972771e-02 -3.34510696e-03 9.64295992e-04 5.20134997e-03 6.35403674e-03 6.04080502e-03 1.04590040e-02 -1.37074385e-02 -7.52678141e-03 1.22871238e-03 -2.79741664e-03 9.90756135e-03 -1.06112082e-02 1.43343583e-02 5.48835983e-03 -9.12776869e-03 1.26415947e-02 -1.06410980e-02 1.22209666e-02 3.79746314e-03 2.24121939e-03 -5.09391306e-03 5.52642345e-03 -5.15057647e-04 -1.20936763e-02 -4.31538705e-04 -2.15891842e-03 7.49839528e-04 1.00690769e-02 1.23496018e-02 -1.89348159e-03 1.14014745e-02 -1.65410712e-02 1.15010785e-02 -4.19722963e-03 -5.08560194e-03 1.00955172e-02 -6.57283189e-03 1.29668210e-02 -3.63328797e-03 1.40681565e-02 1.57278888e-02 8.49472731e-03 -3.64354462e-03 2.14944538e-02 -1.00251427e-02 -4.96622000e-04 -4.82373545e-03 -1.60335621e-03 6.22085948e-03 4.90587810e-03 -1.42793590e-02 -1.53443208e-02 -1.93132292e-02 2.08646227e-02 8.06246512e-03 6.47317292e-03 -1.39556341e-02 1.31363180e-02 1.76988845e-03 -5.18436544e-03 1.10882381e-02 1.30303726e-02 1.96526316e-03 -1.62951071e-02 2.17905007e-02 -1.26753561e-02 -1.77864097e-02 1.28028365e-02 -3.14617157e-03 -1.69747993e-02
-3.96761857e-03 2.16562096e-02 3.87481898e-02 -1.98227782e-02 1.80360656e-02 -1.24765262e-02 -1.20920101e-02 1.55125856e-02 -1.84273142e-02 -1.85550228e-02 5.88239124e-03 1.44249410e-03 -3.24871130e-02 3.34480107e-02 -2.78966706e-02 -2.89386753e-02 -2.98227612e-02 1.05207145e-01 -1.59155950e-02 -1.43327853e-02 5.34159727e-02 1.84757710e-02 -3.80161814e-02 2.18067188e-02 8.98285769e-03 7.10919313e-03 -4.91942428e-02 -1.44008975e-02 -2.17205398e-02 -1.24767452e-01 1.40818977e-03 1.12837059e-02 -3.37695181e-02 -1.40231354e-02 -9.04608592e-02 -3.61787565e-02 6.83842301e-02 3.48132476e-02 6.01431401e-03 -6.15849011e-02 -5.17527089e-02 -3.89331430e-02 2.43687872e-02 -6.62302133e-03 -5.04875220e-02 -3.23460065e-02 -5.04221991e-02 -8.13193396e-02 5.72046898e-02 -4.99987304e-02 -6.43398836e-02 -5.81193753e-02 -4.68510054e-02 -6.35377616e-02 3.85583565e-02 -1.34584066e-02 4.41516340e-02 -1.64638981e-02 5.77910920e-04 2.77567259e-03 -4.84749600e-02 -5.71593940e-02 -9.70694050e-03 6.46409690e-02 -6.64980635e-02 1.41314510e-02 5.92140406e-02 4.53278758e-02 3.59938629e-02 -1.86853986e-02 -5.42306453e-02 6.08624779e-02 -7.62136802e-02 -1.07006334e-01 -1.57355428e-01 -1.17322721e-01 1.03646979e-01 6.73315525e-02 4.69585136e-02 1.07217908e-01 3.14114541e-02 5.86179271e-03 3.77082527e-02 2.42542699e-02 1.10336784e-02 6.43751174e-02 -1.86579764e-01 1.12587307e-02 4.56671342e-02 1.73365310e-01 -4.44849432e-02 9.44191664e-02 1.27279256e-02 6.85176700e-02 6.82490841e-02 -1.14008702e-01 -3.35639971e-03 1.37520023e-02 5.85990138e-02 3.66196968e-02 -9.70195606e-03 4.31663804e-02 3.35367629e-03 3.36342305e-02 -9.63546336e-03 -3.46442871e-02 8.67144763e-02 -4.78836372e-02 4.14964221e-02 -3.07146180e-02 -1.97608653e-03 8.53753369e-03 2.70316303e-02 -9.69174039e-03 5.05578294e-02 2.00542845e-02 2.99835354e-02 2.39520557e-02 2.44322512e-02 1.43398913e-02 2.04357002e-02 7.00742602e-02 -2.55659465e-02 1.72657948e-02 -4.72668260e-02 2.39476413e-02 3.45765688e-02 -1.47994552e-02 -1.02485945e-04 -1.08101906e-03 4.30122688e-02 -2.36474425e-02 9.91791114e-03 -2.39224620e-02 -1.80857498e-02 3.58552001e-02 -3.61785069e-02 1.02321327e-01 1.34884447e-01 1.37567505e-01 -7.01249242e-02 -1.16793334e-01 -1.55204177e-01 3.48776504e-02 -3.53097841e-02 -2.88180076e-03 -2.69214772e-02 3.55277471e-02 -5.91968594e-04 1.78434595e-03 2.98820320e-03 -2.24819947e-02 -3.83393839e-02 -1.31821083e-02 1.89427733e-02 4.85871248e-02 5.82126118e-02 4.71891835e-02 6.22601546e-02 -6.25372157e-02 4.93464954e-02 7.61164650e-02 2.76897941e-02 9.65641588e-02 3.84831727e-02 -4.38835397e-02 -4.94385250e-02 5.88504709e-02 5.58132678e-02 3.57833952e-02 4.48525734e-02 4.74950932e-02 1.29730357e-02 -4.60524708e-02 3.30196470e-02 -1.35974735e-02 -5.55769447e-03 1.02940323e-02 9.42453444e-02 1.04025397e-02 6.32513221e-03 -4.28761169e-02 -8.67727492e-03 8.55685025e-03 -1.38820801e-02 7.19360961e-03 -5.57308644e-03 1.46022160e-02 -1.30183566e-02 -1.91488434e-02 1.91663150e-02 9.45588574e-03 -2.31673531e-02 1.15439864e-02 2.37109531e-02 -3.42209376e-02 8.09819996e-03 3.49586532e-02 5.00443988e-02 2.59382874e-02 -2.58352812e-02 2.51071826e-02 -1.58749968e-02 1.11708103e-03 -1.16980011e-02 -4.97070476e-02 -3.91375311e-02 9.08121560e-03 -8.49947333e-02 -1.95032489e-02 -6.21766001e-02 -3.12167518e-02 -3.48361470e-02 7.60203600e-02 1.85334533e-02 -1.69983953e-02 2.91221887e-02 2.41410583e-02 5.93508147e-02 3.20836380e-02 2.16074977e-02 2.90770568e-02 -1.52590475e-03 4.96053174e-02 1.40350476e-01 1.02189347e-01 1.15838729e-01 7.69152194e-02 -5.15976958e-02 9.18287635e-02 -9.63229090e-02 -9.76068005e-02 -1.86129883e-02 -2.99434047e-02 -3.92139740e-02 -2.91988458e-02 -5.30598462e-02 2.33480532e-04 8.04958865e-02 3.18242311e-02 4.13819738e-02 -4.61432189e-02 4.08066884e-02 2.08782079e-03 -9.90367308e-03 3.71756069e-02 -3.71184386e-02 -1.64000113e-02 6.61081299e-02 -1.22131065e-01 4.89857867e-02 -1.12205163e-01 -5.74872307e-02 4.52196449e-02 -1.73467189e-01 -4.42434028e-02
-1.17234048e-02 -1.58300549e-02 2.10048500e-02 -8.42455029e-03 -7.67625589e-03 1.88449267e-02 9.88822617e-03 -2.00080033e-02 -1.30075766e-02 -6.70986017e-03 1.32572483e-02 2.43421048e-02 -1.93692781e-02 1.85888000e-02 -1.11621711e-02 -5.59094176e-03 -9.82786715e-03 2.93420069e-03 -1.05026914e-02 -3.87953274e-04 1.19689405e-02 1.79486182e-02 -7.41162198e-03 1.25839021e-02 8.05590581e-03 6.28298894e-03 -1.76548474e-02 1.30305486e-02 9.49847698e-03 -2.06218008e-03 -9.15993284e-03 1.24372700e-02 -1.17113283e-02 -2.48022806e-02 -1.15157189e-02 -2.19040066e-02 -6.30077068e-03 9.93956905e-03 9.61664412e-03 -1.63928755e-02 1.50212878e-02 1.59313716e-02 -2.31331531e-02 -4.76676645e-03 9.27744433e-03 2.11046375e-02 2.47546528e-02 1.03725251e-02 1.76549945e-02 -4.13920818e-04 -5.23691531e-03 -1.58093572e-02 -3.16275097e-03 -4.48178360e-03 1.17079439e-02 2.34975596e-03 1.03566172e-02 -1.73773337e-02 2.62795296e-02 7.57111236e-03 1.00889262e-02 -1.95375066e-02 -8.78721382e-03 2.15977002e-02 -2.28309003e-03 1.61781348e-02 1.72862336e-02 4.23738640e-03 2.07051914e-03 -5.02678799e-03 -2.52155978e-02 -4.63023083e-03 -1.14503335e-02 -2.49395166e-02 -1.74524840e-02 -6.78780908e-03 2.06950903e-02 1.11116106e-02 4.59768111e-03 4.02180338e-03 4.07405663e-03 -2.45546643e-02 -1.95749383e-02 -1.68623291e-02 -1.47940470e-02 9.70835052e-03 -1.67629831e-02 -7.36990059e-03 -2.30246391e-02 -3.20148133e-02 2.37756427e-02 -1.70082878e-03 -7.53561081e-03 2.37249793e-03 -1.65555850e-02 9.18178167e-03 -1.95193049e-02 1.27045140e-02 1.36111798e-02 1.79161001e-02 8.40793829e-03 2.28599999e-02 4.89495276e-03 -2.13949736e-02 1.35453679e-02 2.09267586e-02 2.54456345e-02 1.42760742e-02 -1.17092319e-02 5.04802261e-03 1.49754342e-02 -9.67584830e-03 2.04993766e-02 -1.46188177e-02 2.23268457e-02 5.97168505e-03 1.47993462e-02 1.59575623e-02 1.69814304e-02 2.45615635e-02 4.03140159e-03 1.60910003e-02 1.59703735e-02 -1.61560662e-02 -8.40482884e-04 1.00652324e-02 -1.77907571e-02 -1.38562135e-02 2.43121181e-02 -1.01757217e-02 2.05047131e-02 -1.72801167e-02 2.16683354e-02 -1.96543485e-02 6.04830123e-03 2.37169210e-02 -1.00633157e-02 8.42493866e-03 8.27467255e-03 2.49793511e-02 1.70818642e-02 -2.41017248e-02 -2.09821872e-02 1.71301179e-02 7.06061488e-04 5.36133721e-03 -2.44973390e-03 -2.42056437e-02 2.06641317e-03 1.91672854e-02 1.85982473e-02 -3.77109880e-03 -6.35436503e-03 2.40682717e-02 -2.17489945e-03 1.07732639e-02 4.22579888e-03 1.93022974e-02 5.84852882e-03 -1.76819321e-02 2.03765258e-02 -4.48665349e-03 1.73611902e-02 -1.78050518e-03 1.28053185e-02 -1.94909964e-02 -4.35470603e-03 1.27684539e-02 2.79632062e-02 2.22570989e-02 1.44226383e-02 -2.31174324e-02 -2.71960292e-02 -1.13195544e-02 4.42553312e-03 -2.10492965e-02 -1.01535879e-02 1.61512084e-02 1.06677962e-02 1.48806944e-02 -1.61998123e-02 -1.07872691e-02 6.70570973e-03 -6.90616854e-03 -1.25207072e-02 8.49461742e-03 -1.57596990e-02 1.79072488e-02 -4.06775735e-06 3.87059001e-04 9.25959833e-03 3.61228921e-03 -1.47171458e-02 -2.90022884e-02 3.76759213e-03 -9.62545816e-03 2.20707748e-02 -7.57372892e-03 2.56756954e-02 2.42114440e-02 -1.93313118e-02 2.29321774e-02 -9.61086247e-03 2.79789399e-02 1.84287522e-02 -1.10096566e-03 -6.70163240e-03 -1.82541218e-02 -2.68494301e-02 -2.55344547e-02 -2.50141174e-02 -1.30148102e-02 -1.59400403e-02 9.98091046e-03 1.00393686e-02 -6.89476589e-03 8.96419678e-03 -3.09742745e-02 3.00398152e-02 1.04899360e-02 1.06160985e-02 -2.13021645e-03 -9.42976796e-04 -8.81185010e-03 1.54736685e-02 2.27673929e-02 4.11709631e-03 8.70559178e-03 -1.90541334e-02 1.12073664e-02 -4.76355990e-03 -1.33064985e-02 1.43747812e-03 2.53565367e-02 1.43956626e-02 1.98204126e-02 -2.08069347e-02 -6.03453629e-03 -2.44308226e-02 2.83505488e-02 -7.55460496e-06 -2.02578586e-03 -3.11090238e-03 5.18677989e-03 -7.78272469e-03 1.58211961e-02 -1.37331029e-02 2.21419819e-02 1.99634377e-02 -1.37587432e-02 1.93877947e-02 -2.59275846e-02 -1.75228268e-02 8.85174237e-03 -2.79082116e-02 -2.35846285e-02
-1.44273071e-02 -1.49780316e-02 6.02849759e-03 -6.96640508e-03 -1.21319545e-02 2.11951975e-02 2.40640324e-02 -8.61632079e-03 -1.18527273e-02 -2.47095432e-03 2.16829590e-03 1.90560278e-02 -1.49850799e-02 1.87971611e-02 -1.90512929e-03 8.48808268e-05 4.77975840e-03 1.91675201e-02 -1.88628980e-03 -5.88607648e-03 4.16763732e-03 1.42787909e-03 -8.66384711e-03 5.46863349e-03 2.31157430e-02 7.77775003e-03 -6.50853990e-03 2.19628252e-02 9.79857612e-03 -8.75261438e-04 -1.19326934e-02 7.48174079e-03 -1.49759063e-02 -2.81556183e-03 -6.40906580e-03 -5.02456538e-03 -1.94043051e-02 1.84128676e-02 1.79078784e-02 -5.71958162e-03 6.27537025e-03 1.31098274e-02 -1.68792680e-02 -1.27193630e-02 2.24451628e-02 6.99100643e-03 1.96021665e-02 4.90071997e-03 1.51482718e-02 -4.96894354e-04 -1.29494118e-04 -1.52981877e-02 -1.80690065e-02 -1.90038439e-02 1.62445977e-02 -2.60000443e-03 6.58703269e-03 -1.66990068e-02 2.41350960e-02 5.81039209e-03 1.00308564e-02 -1.02873174e-02 -2.64752172e-02 2.11386457e-02 -3.07570049e-03 -1.55621499e-03 -2.59927032e-03 -4.09948733e-03 3.76196788e-03 -6.98498823e-03 -1.81662068e-02 9.06188600e-03 -1.57295372e-02 -2.47419551e-02 -1.23096015e-02 -1.67928066e-03 7.80294836e-03 2.59829359e-03 2.33597364e-02 8.62658676e-03 1.36063742e-02 -1.89617518e-02 -6.72404096e-03 -1.80763528e-02 -1.47017762e-02 1.05652539e-02 -1.06422696e-02 -1.71621367e-02 -1.53847402e-02 -2.67731212e-02 7.08636362e-03 -2.13157330e-02 -3.98616353e-03 5.87885501e-04 6.46294747e-03 3.50551005e-03 -8.23383627e-04 6.75237877e-03 9.93200019e-03 2.10969280e-02 1.35586504e-03 8.16923752e-03 2.21192334e-02 -5.54333627e-03 1.75445992e-02 -1.77341164e-03 1.70328822e-02 8.92752130e-03 -6.35740301e-03 1.72359291e-02 2.08246987e-02 -8.96231085e-03 1.47444597e-02 -1.75009249e-03 1.58113409e-02 1.69295464e-02 6.60748268e-03 2.03408897e-02 7.03028822e-03 9.88127943e-03 2.27065594e-03 1.94295049e-02 1.16994120e-02 -9.88091249e-03 -1.52520519e-02 1.96555462e-02 -1.12035554e-02 -2.36716028e-02 2.18931399e-02 -6.15617633e-03 9.18268878e-03 -3.08498461e-03 1.65612902e-02 -1.04778837e-02 1.37338592e-02 1.54527556e-02 -2.01026630e-02 7.17513775e-03 1.35697350e-02 1.33662513e-02 3.01007070e-02 -1.92001946e-02 -1.92140099e-02 1.55178970e-02 -1.43413683e-02 8.36863910e-05 -7.33397494e-04 -4.57992405e-03 -3.19471676e-03 8.29098001e-03 1.70246977e-02 8.76985397e-03 -1.24553237e-02 1.64539758e-02 -3.36812227e-03 6.31340453e-03 1.49333375e-02 1.83516145e-02 7.14191049e-03 -3.08951858e-04 7.52614360e-05 1.79256368e-02 1.24029163e-02 1.35968719e-02 2.01605894e-02 -2.17168145e-02 -8.62678792e-03 1.07269594e-02 1.58480257e-02 2.15395894e-02 2.18841410e-03 -6.71143597e-03 -2.63668522e-02 -2.64225733e-02 2.24175639e-02 -1.27055040e-02 1.44294885e-04 2.96232873e-03 4.83830832e-03 1.86528284e-02 -1.39293410e-02 -1.29798697e-02 4.43069637e-03 -1.51812518e-02 -8.64793314e-04 -3.31377308e-03 1.61095944e-04 6.68950984e-03 2.04858766e-03 1.18746245e-02 -2.63130362e-03 2.15011034e-02 -4.33736201e-03 -7.98757467e-03 2.44929902e-02 -2.39470936e-02 1.05893072e-02 -6.03064708e-03 2.33242903e-02 1.20407166e-02 -1.59314054e-03 2.33379863e-02 -1.85834114e-02 2.41100155e-02 2.00038846e-03 -1.72718870e-03 2.12635286e-03 -8.53368174e-03 -1.01555036e-02 -2.26421952e-02 -2.39840019e-02 -9.01315641e-03 -1.25692096e-02 2.40055677e-02 1.69927850e-02 -1.89119764e-02 1.26025721e-03 -2.77153365e-02 2.49942653e-02 1.57512426e-02 2.27730963e-02 4.04739054e-03 1.11473976e-02 2.31845980e-03 1.67377908e-02 1.96319278e-02 1.88855808e-02 1.50936227e-02 -2.23557968e-02 7.03821192e-03 -6.09630137e-04 -4.22811601e-03 5.75189572e-03 9.74493474e-03 1.75849982e-02 9.67017747e-03 -7.34465057e-03 -1.34428206e-03 -1.66640375e-02 1.45449769e-02 9.28708259e-03 1.79885346e-02 -2.13659685e-02 5.21779247e-03 1.93019826e-02 2.03078263e-03 -1.13282818e-02 4.41606576e-03 1.87960323e-02 -1.77956074e-02 3.37612862e-03 -1.96855981e-03 -7.28929555e-03 6.55778404e-03 -5.08250017e-03 -2.46768203e-02
9.72132757e-03 -2.50431895e-03 -7.15615414e-03 -4.88610007e-03 -9.72213689e-03 -6.79141562e-03 1.07007809e-02 -4.70784493e-03 -1.24535407e-03 -1.15833920e-03 -7.41784414e-03 5.41517092e-03 1.06372433e-02 -1.00983484e-02 -8.18255078e-03 4.25329199e-03 1.08520370e-02 6.92436611e-03 -1.08749210e-03 1.12708053e-02 8.93866457e-03 6.78621745e-03 4.75339452e-03 -4.63924557e-03 -7.90701061e-03 2.51861126e-03 -5.44893183e-03 -8.81567132e-03 -4.76699369e-03 9.10458155e-03 1.08008375e-02 -4.09722328e-03 5.64520888e-04 -9.52928234e-03 -5.77678578e-03 -1.11989826e-02 3.27351619e-03 -2.72944802e-03 -9.29950271e-03 -7.35593308e-03 -6.48287358e-03 6.56470796e-03 -1.07698012e-02 5.37259225e-03 -4.85788158e-04 4.40969830e-03 -3.13740456e-03 -1.15143461e-02 -2.09847139e-03 6.91296346e-03 1.04148015e-02 1.26798339e-02 -8.68040789e-03 -3.23405722e-03 3.10480274e-04 7.51219923e-03 -6.52833562e-03 -1.13733020e-02 1.33688953e-02 1.38893332e-02 -4.78154933e-03 -5.93436649e-03 -2.05671205e-03 -2.78777140e-03 1.19502097e-02 6.53570751e-03 4.81958641e-03 1.02698582e-03 -8.01528245e-03 9.17525124e-03 7.33025791e-03 -7.32871611e-03 -5.84344799e-03 3.04465299e-03 1.38506703e-02 1.06923031e-02 7.58123770e-03 -9.84270312e-03 -1.17251687e-02 1.39612879e-04 1.03859715e-02 -1.03014912e-02 4.77430644e-03 3.04619607e-04 -3.88332852e-03 8.27922951e-03 7.86919240e-03 -4.23659477e-03 -8.50541797e-03 8.92482873e-04 -1.14398599e-02 2.29967316e-03 5.40849008e-03 5.87659469e-03 6.52551977e-03 -2.87109287e-03 1.01322914e-02 -1.10037997e-02 1.12673230e-02 -5.23187360e-03 -5.17787412e-03 -2.77593476e-03 7.74954073e-03 1.26804272e-02 6.32883841e-03 -1.32398287e-04 -2.55811866e-03 -1.11823417e-02 -1.08302796e-04 4.79889073e-04 6.06370438e-03 1.09777739e-02 1.45130150e-03 1.11852940e-02 -3.51950713e-03 1.00972340e-03 -9.07546259e-04 -3.51173873e-03 4.17430699e-03 -2.43313913e-03 9.81098413e-03 -1.19779678e-02 -4.53594560e-03 -2.76301405e-03 5.19412477e-03 1.02411807e-02 5.33637358e-04 1.40305585e-03 5.26650576e-04 1.46794261e-03 1.03850942e-02 4.19018278e-03 5.59148466e-05 -4.31823498e-03 7.14256801e-03 -1.15450732e-02 -8.48976709e-03 -1.83754438e-03 1.06442804e-02 1.31764077e-02 -8.60795286e-03 7.81260896e-03 4.24983539e-03 -9.61739477e-03 1.11156264e-02 -5.54438564e-04 9.12736286e-04 1.06350305e-02 -1.09062474e-02 -3.73138790e-03 4.81552444e-04 -8.06463882e-03 4.88304708e-04 8.62466078e-03 -1.40957041e-02 2.54043820e-03 -7.43504614e-03 9.22866818e-03 7.05142011e-05 8.85228906e-03 -5.00126649e-03 3.81891918e-03 5.19980071e-03 -1.66976582e-02 -2.90940912e-03 9.60215367e-03 -1.40721141e-03 -1.19137364e-02 3.62920249e-03 6.08218135e-03 9.23791900e-03 -1.37362415e-02 7.50591606e-03 -3.83311044e-03 -3.96215357e-03 9.82666761e-03 9.25886631e-03 8.77222791e-03 -5.23700425e-03 -1.73918484e-03 -6.77852659e-03 -8.43415130e-03 5.63314010e-04 1.62367281e-02 -4.94833151e-03 -1.24528250e-02 1.36490474e-02 -1.30051486e-02 4.46426711e-04 8.86426715e-04 -1.16009153e-02 2.78562610e-03 1.68845279e-03 -1.31412400e-02 -1.18610437e-03 7.98135996e-03 -7.95535930e-03 8.12146626e-03 -8.88844114e-03 -6.68768864e-03 5.70681086e-03 -4.92829306e-04 5.80889685e-03 -7.95295741e-03 -1.31721152e-02 6.82521565e-03 1.22433901e-02 -8.84287897e-03 -1.01171844e-02 -8.71189870e-04 -2.79976317e-04 -1.09642902e-02 9.72199999e-03 1.26932533e-02 1.78179506e-03 1.15478802e-02 -2.60047079e-03 4.28556325e-03 -3.83497402e-03 -1.18925003e-02 -7.41285877e-03 -1.59924198e-03 -8.25258065e-03 9.51469317e-03 9.72550130e-04 3.14800604e-03 4.96749859e-03 4.93651256e-04 3.47855181e-04 7.76763121e-03 -5.38642704e-03 -7.19734561e-03 3.27827106e-03 -9.65327397e-03 9.15861130e-03 9.82329808e-03 -3.61224031e-03 1.05623377e-03 -6.74978082e-06 1.36646139e-03 -6.00601779e-03 3.95564642e-03 -9.08760261e-03 9.18890815e-03 -6.86639594e-03 1.19476649e-03 5.05465129e-03 1.00837108e-02 2.91290181e-03 -4.48091247e-04 5.79580618e-03 -1.25133321e-02 8.70244391e-03 -1.15968175e-02 -1.70768704e-03 -1.02740088e-02
-4.80352668e-03 -2.59299502e-02 6.65933127e-03 -5.38398884e-03 -1.50111932e-02 1.24156186e-02 2.57547256e-02 -1.74040068e-02 -2.16715168e-02 -3.89123848e-03 2.13205311e-02 8.53001326e-03 -8.51861853e-03 1.62978154e-02 -2.21421700e-02 -5.89532824e-03 -2.16823053e-02 -2.47963890e-03 -1.49058597e-03 -1.20165944e-02 7.87204690e-03 2.40937080e-02 -8.14872235e-03 1.32881459e-02 1.07054273e-02 1.70124171e-03 -1.56091265e-02 3.91692948e-03 2.55968701e-02 -1.94496121e-02 -1.13888662e-02 1.62960142e-02 -1.73963457e-02 -1.83906592e-02 -1.74548104e-02 -1.51017513e-02 -7.72331841e-03 1.90611072e-02 1.76284779e-02 -2.03852970e-02 2.49545760e-02 2.00207415e-03 -1.48689868e-02 -1.49406428e-02 5.48901176e-03 1.62374452e-02 6.38900977e-03 2.12247651e-02 2.20298134e-02 -2.11976171e-02 -5.75868180e-03 -1.05513865e-02 -1.81937404e-02 3.34274117e-03 6.30548410e-03 1.58671178e-02 2.03159750e-02 -1.16583044e-02 8.69858172e-03 6.52142288e-03 2.05225032e-02 -1.66082270e-02 -8.75615329e-03 2.38025095e-02 -5.90785453e-03 2.32473724e-02 1.95821002e-02 1.14343297e-02 5.41192805e-03 -1.99769959e-02 -1.23688923e-02 2.23109405e-02 -1.02558099e-02 -4.77811415e-03 -1.87730358e-03 -1.76491830e-02 1.72154531e-02 2.41786391e-02 2.54665222e-02 2.36473307e-02 1.63315162e-02 -1.93049479e-02 -3.24559142e-03 -1.58786196e-02 -2.11012717e-02 8.14251695e-03 -6.94662856e-04 -1.13272462e-02 -8.83103441e-03 -5.68202930e-03 7.65368855e-03 -3.70500726e-04 -2.41782889e-03 -1.76942702e-02 -7.73294130e-03 1.27811618e-02 -1.92197505e-02 1.90619528e-02 6.18628133e-03 2.45371144e-02 1.94940157e-02 4.31939866e-03 6.93517132e-03 -1.84706356e-02 2.43444107e-02 9.51880123e-03 1.19724981e-02 1.46575235e-02 -8.50131735e-03 4.28048382e-03 4.59903805e-03 -1.69221461e-02 8.98154080e-03 -1.24699520e-02 3.45525984e-03 1.77251287e-02 3.37839150e-03 9.05734953e-03 1.36633320e-02 2.33825352e-02 1.09929992e-02 2.11246498e-02 1.23178111e-02 -2.51113065e-03 -1.03586596e-02 1.73388664e-02 -2.52552368e-02 -9.77808982e-03 2.52028983e-02 -1.29428683e-02 1.61171332e-02 -2.41756495e-02 2.69953106e-02 -2.28015482e-02 1.33047728e-02 8.10350012e-03 -2.36400850e-02 7.75411446e-03 1.89933088e-02 2.62958482e-02 1.22256717e-02 -8.07260443e-03 -2.03981958e-02 3.40174302e-03 -2.32254378e-02 1.93912780e-03 1.90051496e-02 -1.50118144e-02 2.26243977e-02 1.04113750e-03 7.03419978e-03 1.36424620e-02 -8.56070220e-03 2.27144845e-02 8.24358407e-03 2.10137349e-02 2.28898413e-02 1.56305488e-02 2.14207750e-02 -2.32448466e-02 2.00781655e-02 5.85336983e-03 6.30151015e-03 5.47293853e-03 1.58489831e-02 -1.62401870e-02 -1.16977431e-02 1.99708231e-02 9.14850365e-03 9.16026998e-03 1.12179825e-02 -9.10904165e-03 -1.82202496e-02 -2.62185261e-02 9.37291514e-03 -1.39461337e-02 -1.11406762e-02 2.17523593e-02 1.38013232e-02 4.43122350e-03 -1.54049145e-02 -2.22870447e-02 8.65327567e-03 -1.44015420e-02 -1.77268218e-02 1.65277254e-02 -4.21031564e-03 6.74547255e-03 -3.16305528e-03 2.18679477e-02 1.99929103e-02 3.43796075e-03 -2.36249026e-02 -2.35531926e-02 9.81122814e-03 -2.18025092e-02 2.24107485e-02 -2.59352606e-02 2.37919972e-03 1.78704243e-02 -1.20778000e-02 1.98875591e-02 -1.55040622e-02 1.35107953e-02 1.33107351e-02 -5.31538296e-03 -2.30931658e-02 -1.06704999e-02 -4.11890494e-03 -1.73707772e-02 -9.38876532e-03 -2.13329252e-02 -2.27020048e-02 9.89501830e-03 1.91554818e-02 -1.14945667e-02 2.18009874e-02 -1.37152663e-02 6.79362938e-03 2.41452754e-02 1.97854755e-03 4.94927028e-03 1.35605056e-02 -1.32890069e-03 1.25957280e-02 1.69723444e-02 7.63869146e-03 9.89709143e-03 -6.03229785e-03 6.67841593e-03 -6.14258228e-03 -1.10176951e-02 2.73363269e-03 6.79266080e-03 2.59805527e-02 1.53355589e-02 -9.23634134e-03 -4.51189466e-03 -1.96251255e-02 1.04885707e-02 3.26492172e-03 4.71174065e-03 -7.11038662e-03 1.23778824e-02 6.57250592e-03 7.93829747e-03 -1.60300992e-02 9.44613188e-04 1.31099923e-02 -4.00471315e-03 2.36843154e-02 -2.31064875e-02 -8.01999308e-03 3.16392584e-03 -2.65510231e-02 -1.77824087e-02
-1.61718088e-03 -3.87997134e-03 1.66358463e-02 -1.47501696e-02 -1.50531866e-02 1.09597845e-02 2.57883430e-03 -2.69900188e-02 -4.97766491e-03 -4.98565054e-03 1.36726107e-02 9.52009053e-04 -1.61273729e-05 1.54877072e-02 2.43735011e-03 -1.22477468e-02 -1.35537880e-02 1.13898306e-03 -1.53631801e-02 -1.41322399e-02 1.13248620e-02 1.59369851e-03 -4.91306745e-03 -3.90105229e-03 2.31346283e-02 8.57360475e-03 -1.22915599e-02 8.86682700e-03 5.03873872e-03 -1.73041865e-03 -2.20231619e-02 1.17533216e-02 -1.90112516e-02 -2.05552001e-02 -1.73531175e-02 -1.00402236e-02 -1.14985406e-02 1.49699114e-03 3.69362999e-03 -1.25854500e-02 1.88940112e-02 9.89677850e-03 -7.44765450e-04 -2.15444230e-02 5.07467939e-03 1.17991054e-02 6.28150394e-03 1.57610700e-02 1.76413171e-02 -1.30895793e-03 3.45194363e-04 -8.57921224e-03 -2.00831750e-03 -1.14762811e-02 6.68553635e-03 -8.40666890e-03 1.79822035e-02 -8.54773447e-03 1.48185007e-02 2.65989415e-02 2.18511615e-02 -2.02524103e-02 -1.89282373e-02 1.75939240e-02 -1.10852523e-02 -2.93759163e-03 -2.08375874e-04 1.46843437e-02 2.15665670e-03 -1.29664140e-02 -4.44590813e-03 6.53827377e-03 -1.34718418e-02 -2.34786049e-03 -2.89734895e-03 4.92068066e-04 1.60785243e-02 4.05940507e-03 1.72996502e-02 1.54571922e-03 1.00757293e-02 -1.64870713e-02 -3.77423852e-03 -1.21384347e-02 -3.06956097e-03 -8.00335221e-03 7.36686110e-04 -9.29903612e-03 -4.06948244e-03 -5.90205798e-03 4.55866521e-03 -7.08739087e-03 1.12780626e-03 -1.54394517e-02 -3.24839354e-03 1.95132922e-02 -2.11181510e-02 1.46028250e-02 1.96857145e-03 1.83942523e-02 1.34598266e-03 4.42299154e-03 7.94342067e-03 -1.02446033e-02 4.42807376e-03 5.97002544e-03 1.95723046e-02 1.65044554e-02 -1.09428763e-02 7.41586788e-03 1.69525146e-02 -9.43025923e-04 2.16273707e-03 -5.02870232e-03 1.34938478e-03 9.85667948e-03 4.84562526e-03 1.38623239e-02 1.88776571e-02 1.52047975e-02 1.30759021e-02 6.67074288e-04 -3.41226318e-04 -1.21189961e-02 2.67024036e-03 1.91926863e-02 -2.18474586e-02 -1.16122914e-02 2.02160180e-02 -2.25823722e-03 1.98570136e-02 -1.68095343e-02 1.00302678e-02 -9.24302265e-03 4.24709218e-03 1.40997469e-02 -5.79296798e-03 1.32908579e-02 5.89694502e-03 1.55165885e-02 3.76039837e-03 -8.37830640e-03 -1.90019924e-02 1.85557306e-02 -5.78502892e-03 1.62416939e-02 1.69469938e-02 9.93135851e-04 -7.85344804e-04 1.46310488e-02 4.91962885e-04 -4.70681302e-03 -1.34280529e-02 9.71897226e-03 -3.60612967e-03 1.88447637e-04 -2.46296730e-03 1.71049107e-02 1.05618136e-02 -5.89943142e-04 9.08881333e-03 -5.09933149e-03 5.44037949e-03 7.55004305e-03 1.23007530e-02 5.57099120e-04 2.96834088e-03 1.39807933e-03 1.60523914e-02 2.08698828e-02 1.84917618e-02 -1.22007774e-02 -1.05712730e-02 -1.01459278e-02 4.02963115e-03 -8.51398613e-03 -3.15082865e-03 3.54207354e-03 1.04270903e-02 2.03530919e-02 -1.81250833e-02 -1.48909418e-02 4.31337254e-03 1.70430797e-03 -6.87173381e-03 1.58735905e-02 -1.18068783e-02 1.54897466e-03 -2.21160287e-03 1.40626421e-02 6.62682531e-03 1.88840143e-02 -1.12682134e-02 -2.03424003e-02 5.10356063e-03 -2.37430781e-02 2.79671755e-02 -1.33121731e-02 1.63976122e-02 1.89056564e-02 -1.71683487e-02 1.21212853e-02 -1.59859601e-02 5.82098635e-03 5.87261608e-03 1.83851528e-03 -1.65768396e-02 -1.05207069e-02 -8.96306057e-03 -5.34460926e-03 -1.83910448e-02 -1.90441441e-02 -1.50256483e-02 1.17890527e-02 8.55870359e-03 -2.27317698e-02 2.06192043e-02 -1.26522006e-02 1.30555695e-02 1.34149110e-02 4.84300172e-03 1.76515542e-02 4.64558229e-03 -1.66077167e-02 1.54314265e-02 1.19864568e-02 1.60262845e-02 1.75024308e-02 -1.19916759e-02 5.73254889e-03 -4.13876912e-03 -4.36705491e-03 5.06899087e-03 7.69428583e-03 1.79499015e-02 5.14289038e-03 -3.04863439e-03 -1.70837697e-02 -6.42417278e-03 1.35546539e-03 9.47422069e-03 7.96919502e-03 -1.61679890e-02 1.10803405e-02 7.24494085e-03 2.21626670e-03 -1.32311136e-02 2.20790803e-02 1.77130420e-02 -1.24053089e-02 2.03728583e-02 -1.27634844e-02 -1.83388926e-02 2.23863199e-02 -1.13615179e-02 -1.83201246e-02
-2.34865062e-02 -1.12143653e-02 2.51508635e-02 -1.07881567e-02 -1.17554097e-02 1.35400333e-02 1.48254912e-02 -2.26088297e-02 -1.19682966e-07 -5.67442458e-03 1.95770692e-02 2.49641743e-02 -1.69767309e-02 1.07009979e-02 -5.61632216e-03 -2.34759087e-03 -1.12635437e-02 5.24236122e-03 -3.48276051e-04 -3.17230402e-03 1.62169877e-02 -6.81477226e-03 -9.78921447e-03 -3.57882911e-03 1.93773359e-02 1.24527561e-02 -1.49752460e-02 2.13952698e-02 6.43150462e-03 -3.08438647e-03 -3.74191161e-03 5.27982973e-03 -1.83878299e-02 -1.88343711e-02 -2.36877054e-02 -9.35523678e-03 -1.66859534e-02 1.16964318e-02 7.03258161e-03 -2.42437329e-02 2.49100709e-03 2.38121543e-02 -1.07459566e-02 -6.14510104e-03 2.21018065e-02 2.38087252e-02 1.28105935e-02 8.70766491e-03 8.15009139e-03 3.50598199e-03 -1.34391952e-02 -1.70268845e-02 -1.65455919e-02 -9.73251462e-03 7.20165577e-03 -1.35680912e-02 3.01335640e-02 -2.12170836e-02 1.42994728e-02 2.68875640e-02 3.28021012e-02 -1.65342893e-02 -2.46437099e-02 1.36152413e-02 7.21570104e-03 1.35220969e-02 -9.63608455e-03 -1.93798332e-04 1.14951953e-02 -6.96324138e-03 -9.30803362e-03 -3.90842557e-04 -1.55057972e-02 -2.14479286e-02 -1.88733432e-02 -3.77949025e-03 1.10995304e-02 1.04956133e-02 1.84454247e-02 4.36513871e-03 2.00795624e-02 -1.08343950e-02 -4.96661465e-04 -1.20078260e-02 -8.61310618e-05 -1.10832741e-02 8.10104795e-03 -2.01978218e-02 -2.59735010e-04 -6.48135366e-03 -3.95293254e-03 -2.33614445e-03 -1.16748903e-02 5.08212950e-03 -7.06003094e-03 8.16678535e-03 -1.26295239e-02 1.20624797e-02 1.00831259e-02 7.85821956e-03 1.64898448e-02 6.24008570e-03 8.59730877e-03 -1.67715158e-02 1.05365971e-02 2.41649919e-03 1.53361615e-02 1.34602198e-02 -8.93312506e-03 1.32734487e-02 9.58628766e-03 -2.28592772e-02 1.72558464e-02 -1.69254858e-02 1.64946355e-02 1.40188849e-02 1.32131549e-02 1.65927112e-02 1.95942968e-02 1.68932509e-02 9.22079722e-04 4.67772363e-03 2.52536274e-02 -1.97219830e-02 -2.39419795e-04 2.10656170e-02 -8.46886355e-03 -1.48521960e-02 2.10290179e-02 -1.46286283e-02 5.48343454e-03 -1.60593428e-02 2.60384995e-02 -1.80664826e-02 1.94370430e-02 1.21627748e-02 -8.11929628e-03 1.31760323e-02 1.56997796e-02 1.36623923e-02 2.27459799e-02 -1.80039182e-02 -1.21006826e-02 9.48924664e-03 -1.76448431e-02 1.77362636e-02 8.55286606e-03 -1.66706368e-02 1.73090231e-02 -6.48315006e-04 9.41367541e-03 -4.17741248e-03 -7.50123523e-03 2.41607167e-02 1.59166157e-02 2.65319683e-02 2.51198490e-03 1.76293887e-02 -4.33888636e-05 -1.77513901e-02 1.10127199e-02 -8.91099218e-03 1.24017140e-02 -7.59063987e-03 -2.72582285e-03 1.81209354e-03 -1.36818830e-03 1.06888674e-02 1.31383436e-02 2.67979838e-02 2.10379213e-02 -1.57779120e-02 -2.96604000e-02 -7.02589564e-03 1.64406523e-02 -1.89824421e-02 -1.30355339e-02 1.29340570e-02 1.32488867e-03 3.45612830e-03 -5.58442902e-03 -3.64238792e-03 -8.76832195e-03 -8.50814767e-03 -1.50399068e-02 5.63021470e-03 1.58875820e-03 3.20262578e-03 -3.24604823e-03 -6.04327722e-03 9.32914484e-03 3.22252605e-03 -1.64271016e-02 -9.74290166e-03 2.18084790e-02 -8.82450398e-03 2.79097799e-02 -2.75442265e-02 1.72461160e-02 1.04665374e-02 2.04048026e-03 1.59536104e-03 -1.88055690e-02 7.72551121e-03 3.20099760e-03 6.20894862e-05 1.15142530e-03 -2.14058794e-02 -2.69962568e-02 -2.10563298e-02 -2.57719774e-02 -2.33969986e-02 -1.22911790e-02 2.87331641e-02 6.96064625e-03 -6.69251615e-03 2.42231544e-02 -2.93636955e-02 1.73954424e-02 1.10845650e-02 2.43288800e-02 7.32884696e-03 1.12893814e-02 -1.67759461e-03 5.65243466e-03 1.41586168e-02 2.32228786e-02 1.81756821e-02 -7.46003445e-03 8.97363573e-03 -1.32743884e-02 -8.20974912e-03 7.11341389e-03 1.90964751e-02 3.02125164e-03 2.01843609e-03 -1.91264749e-02 -1.62041141e-03 -1.47810569e-02 1.18550779e-02 -6.30166661e-03 1.33470157e-02 -1.18663488e-02 7.22458120e-04 -6.73371414e-03 -2.17690202e-03 -8.34420137e-03 2.12854613e-02 2.84175426e-02 -1.55696524e-02 2.43316945e-02 -1.72162019e-02 -2.82092243e-02 2.91756596e-02 -1.68767516e-02 -8.90651438e-03
4.28738026e-03 -5.64479548e-03 -5.75961254e-04 -6.19254215e-03 -7.02362368e-03 2.34876003e-04 7.61401467e-03 -1.32760387e-02 -4.62058606e-03 2.98231118e-03 6.33488968e-03 -9.79978126e-03 7.60257104e-03 1.16050791e-03 5.38093911e-04 -1.08658057e-02 -9.07083391e-04 1.31909875e-03 -1.29729258e-02 -1.13432258e-02 8.35470203e-03 -2.40133842e-03 -1.11851813e-02 5.35194995e-03 1.06736394e-02 8.26058257e-03 -7.57399388e-03 -3.68060009e-03 5.22989174e-03 -1.17812655e-03 5.82624161e-05 3.00390669e-03 5.51257329e-03 -8.98048468e-03 3.19447974e-03 2.44731596e-03 -6.95028529e-03 -7.06204353e-03 5.65011334e-03 -7.17916992e-03 8.92948452e-03 -2.04382557e-03 5.09794662e-03 -9.48104914e-03 -5.91175072e-03 -1.06963981e-03 -1.49010122e-03 1.30442055e-02 -2.63238046e-03 -3.99455102e-03 -7.09463609e-03 -8.37966613e-03 -6.12146687e-03 3.76717839e-03 -9.72135179e-03 -1.01186121e-02 -6.02183072e-03 -1.39668840e-03 -1.55383977e-03 3.54771240e-04 1.23618217e-02 2.82472203e-04 -1.12947617e-02 -9.26717743e-03 7.51875574e-03 5.29779354e-03 4.50972049e-03 -7.13580288e-03 1.34951295e-02 -8.49918835e-03 4.02036915e-03 6.95734099e-03 4.89740912e-03 -7.68001832e-04 -2.38809315e-03 -1.28578236e-02 6.86041731e-03 1.31055154e-02 1.34136667e-02 -6.73287921e-03 -6.46478124e-03 -2.02081562e-03 8.89513455e-03 -2.15180288e-03 6.13861857e-03 9.94671136e-03 7.63578573e-03 -7.54306698e-03 -8.97923019e-03 -9.36180633e-03 1.17005063e-02 -7.95418117e-03 -1.07481843e-02 -5.84116159e-03 -1.08747967e-02 4.20822354e-04 -5.07712038e-03 1.19000627e-02 1.22620640e-02 6.94699166e-03 -1.78748067e-03 9.17977747e-03 -3.09696724e-03 -7.75001105e-03 1.02723967e-02 -4.07946948e-03 -7.62091810e-03 6.26699626e-03 3.54257785e-03 1.00485387e-03 1.09797735e-02 5.61576523e-03 -8.62492807e-03 -1.26558933e-02 -8.03311355e-03 -8.10123328e-03 -5.04794624e-03 -7.59970280e-04 -5.93450340e-03 -2.18212651e-03 1.23289023e-02 3.66836932e-04 5.45810908e-03 -1.05532976e-02 -3.06741009e-03 -7.51012657e-03 5.54893864e-03 -3.86770844e-05 -2.03352468e-03 7.02431751e-03 -2.09074584e-03 6.57191267e-04 4.04581754e-03 -8.80077016e-03 -8.99944175e-03 -7.52556184e-03 8.15394986e-03 1.01917225e-03 6.20008167e-03 -7.05961650e-03 -7.32835196e-03 2.14942091e-04 -6.91811147e-04 1.15907732e-02 5.08279121e-03 9.33644187e-04 2.31726444e-03 1.08649244e-03 -5.63408714e-04 -3.93823022e-03 1.30703617e-02 -6.87053986e-03 6.90900953e-03 8.54277611e-03 -4.11645789e-03 -7.39931641e-03 -4.82654152e-03 5.33601781e-03 -7.73536833e-03 -4.37154481e-03 9.19174287e-04 -4.80209058e-03 8.00203439e-03 -5.78851299e-03 8.73563113e-04 1.03750722e-02 6.07918017e-03 6.23324560e-03 -2.59909267e-03 4.95226495e-03 6.43033860e-03 8.87255464e-03 -9.84058250e-03 4.65685222e-03 4.32906020e-03 -7.61043467e-03 9.18436423e-03 -2.04964727e-03 9.57284961e-03 1.42967273e-02 4.00476484e-03 8.17466341e-03 -4.45580622e-03 -5.53895673e-03 -9.95129999e-03 -5.52321691e-03 -2.67531048e-03 9.07912292e-03 7.34582683e-03 4.62982687e-04 -6.32657669e-03 -5.68697462e-03 -7.40177231e-03 -4.50155378e-04 7.50491954e-03 -8.50831810e-03 -3.11089633e-03 9.44328087e-04 -7.42120622e-03 -1.81921478e-03 -7.91139714e-03 -2.42584897e-03 6.06148329e-04 -3.38437152e-04 3.21202888e-03 -4.50837007e-03 6.40929397e-03 -1.19178537e-02 -1.07783014e-02 -1.03784902e-02 -9.95571073e-03 -1.23508787e-02 -8.98791384e-03 3.72375571e-03 5.36975823e-03 -1.74174469e-03 -2.36928044e-03 1.02249887e-02 -6.97310874e-03 4.22170525e-03 1.27532408e-02 4.49629806e-05 1.09722614e-02 -1.12204207e-02 -1.00957733e-02 1.18478388e-02 2.22612685e-03 1.36875389e-02 -3.55872116e-03 1.67969882e-03 -6.44964445e-03 6.67927042e-03 -8.08662642e-03 1.24924788e-02 -1.59119605e-03 1.18932193e-02 5.19183930e-03 -7.89302215e-03 -5.69570949e-03 7.69669702e-03 -4.46764316e-04 1.16719753e-02 3.81187419e-03 4.01969021e-03 -9.79523640e-03 -2.08002311e-04 -1.83772389e-03 -5.64835034e-03 6.94944710e-03 -1.35205863e-02 -8.79375450e-03 -4.07652638e-04 9.30904597e-03 2.65248166e-03 -7.74918031e-03 -3.81386926e-04
-2.56688185e-02 -1.79354623e-02 1.25566497e-02 -9.91190132e-03 -1.90783832e-02 7.90503900e-03 2.67025325e-02 -1.51794506e-02 -5.24170557e-03 -1.79050062e-02 1.90288331e-02 1.44789312e-02 -1.74821168e-02 1.54067744e-02 -1.07476246e-02 -9.78199393e-03 3.83596780e-05 2.64795907e-02 -6.45343028e-03 -1.00265378e-02 2.30482593e-02 -9.12201882e-04 1.61068072e-03 1.55801391e-02 1.53464507e-02 1.01517141e-02 -1.26853772e-02 1.68999974e-02 2.42760666e-02 -2.48613232e-03 -2.02349629e-02 1.59705225e-02 -2.57861614e-02 -6.52328366e-03 -3.65720107e-03 -2.32745172e-03 -2.42882986e-02 5.14405081e-03 1.73934307e-02 -1.55584374e-02 1.21220946e-02 2.17597075e-02 -2.09326334e-02 -5.56509197e-03 1.99992489e-02 1.95181742e-02 5.19856485e-03 6.34290325e-03 1.65460464e-02 -6.87722210e-03 -1.32229284e-03 -8.27676430e-03 -2.22051870e-02 -1.00497911e-02 -1.75858964e-03 3.42472550e-03 2.72192415e-02 -6.69989223e-03 6.91450341e-03 2.80610379e-02 2.79070791e-02 -1.21918349e-02 -1.71437059e-02 1.88231394e-02 -1.89795122e-02 2.02006139e-02 2.16530468e-02 -3.72549240e-03 1.82461292e-02 -6.11793995e-03 -2.22327765e-02 1.58088543e-02 -1.39380619e-02 -2.45446172e-02 -5.59210731e-03 -1.42926471e-02 6.41491637e-03 2.43676119e-02 1.79494619e-02 1.61820203e-02 1.49032725e-02 -9.36479587e-03 -1.19546503e-02 -2.00904924e-02 -1.93933714e-02 6.77931029e-03 -3.40021378e-03 -2.44510919e-02 -3.55680543e-03 -8.30420665e-03 2.30883397e-02 -4.80502471e-03 -1.12491567e-02 -1.77361369e-02 -1.55653805e-02 8.01664498e-03 -1.47546157e-02 9.03642550e-03 1.82399489e-02 1.38992677e-02 1.70120094e-02 8.17056280e-03 2.00316049e-02 -1.99483871e-03 7.91634154e-03 4.83501889e-03 1.41501892e-02 3.21051688e-03 -1.13492306e-05 6.44108839e-03 9.07079782e-03 -5.41820237e-03 6.03904901e-03 -1.82180014e-02 8.35838355e-03 1.93728544e-02 1.69979203e-02 1.42274369e-02 3.23279924e-03 8.41094833e-03 1.45825390e-02 6.68232422e-03 2.49271169e-02 -8.56075156e-03 -1.62349548e-02 1.27991131e-02 -2.31735911e-02 -2.36774050e-02 1.56393945e-02 -8.32546316e-03 1.55799622e-02 -2.37167291e-02 4.34282422e-03 -9.87368543e-03 3.07881786e-03 7.62792304e-03 -1.69950295e-02 8.63608066e-03 7.22627621e-03 1.62394810e-02 1.17073702e-02 -2.55031977e-03 -1.69559438e-02 4.28002141e-03 -6.96354406e-03 7.78720668e-03 1.67254563e-02 -3.15028429e-03 7.64756138e-03 1.03420364e-02 6.26240217e-05 1.33470511e-02 -8.16577580e-03 2.54484825e-02 1.63609851e-02 1.81676652e-02 5.49514079e-03 2.53882464e-02 1.28533766e-02 -1.40653308e-02 1.66225024e-02 9.43080871e-04 2.20783018e-02 7.79689755e-03 1.94203537e-02 -7.16275815e-03 -5.82427206e-03 1.80613976e-02 1.80303734e-02 2.04822775e-02 2.68650074e-02 -9.22995806e-03 -5.43135731e-03 -9.86228324e-03 2.25575417e-02 -1.00942208e-02 -1.94883868e-02 1.98267633e-03 1.99613795e-02 2.20647082e-02 3.19514167e-03 -9.03599057e-03 8.70509446e-03 -1.77035369e-02 -6.30213553e-03 1.17309962e-03 -5.23487711e-03 1.45171667e-02 -1.67791173e-02 -1.91502529e-03 1.43179176e-02 1.54740000e-02 -1.35185989e-02 -2.53584925e-02 5.35302516e-03 -2.21332088e-02 1.55131388e-02 -1.23274866e-02 1.46197174e-02 8.34746938e-03 -2.01986749e-02 1.80847328e-02 -2.13851910e-02 2.52433456e-02 8.56791809e-03 -1.83013231e-02 -1.63294841e-02 -5.46536234e-04 -2.08685473e-02 -2.61019059e-02 -1.98064763e-02 -2.72550602e-02 -9.43253189e-03 2.27724109e-02 7.01686880e-03 -1.72141660e-02 3.36826406e-03 -2.84919832e-02 1.29196597e-02 7.06287147e-03 8.45169649e-03 1.51867662e-02 1.49723492e-03 -2.02087443e-02 2.35663522e-02 1.45462314e-02 1.50161507e-02 1.93122514e-02 -4.67236433e-03 2.23661680e-02 -1.84955429e-02 -4.21577971e-03 1.21955620e-02 2.94699520e-03 1.79374255e-02 6.43386086e-03 -6.88177859e-03 -1.47691555e-03 -7.83385336e-03 2.94077620e-02 -8.46017909e-04 1.22807687e-02 -8.06069560e-03 4.55209427e-03 4.07092739e-03 1.91911329e-02 -1.59802251e-02 7.82386772e-03 1.76787507e-02 -8.48370418e-03 8.95984750e-03 -9.15750582e-03 -1.99261885e-02 1.91332456e-02 -9.37525555e-03 -1.33264344e-02
-2.49083713e-02 -2.31589545e-02 6.66608708e-03 -2.79956236e-02 -1.81312095e-02 8.47575162e-03 1.90839116e-02 -1.18146231e-02 -2.26875525e-02 -1.82357915e-02 1.91454415e-03 2.30810307e-02 -3.56772193e-03 4.54010069e-03 -3.42450943e-03 -9.11645405e-03 -9.81854089e-03 2.53751036e-02 -5.59439743e-03 2.61154375e-03 3.53670958e-03 -2.83759180e-03 -1.07827624e-02 7.19147827e-03 9.08941124e-03 2.32762378e-02 -5.45453047e-03 3.16279288e-03 1.44643150e-02 -1.76925063e-02 -1.57925095e-02 2.52969284e-02 -1.61006451e-02 -2.03175936e-02 -2.40158215e-02 -1.91099290e-02 -2.59272493e-02 2.33804714e-02 2.56366767e-02 -1.86109170e-02 1.91844422e-02 7.09091593e-03 -1.58977546e-02 -1.52715528e-02 2.18334496e-02 2.47003641e-02 1.87860932e-02 2.10344605e-02 1.15170423e-02 -7.95275345e-03 -1.49540026e-02 -7.78665952e-03 -5.96916629e-03 -5.06206416e-03 1.81155675e-03 8.44005309e-03 1.56515688e-02 -1.10080754e-02 1.07102524e-02 9.05143656e-03 3.02778818e-02 -2.03439854e-02 -1.69191938e-02 2.45761834e-02 -9.89635382e-03 2.03290302e-02 6.80356380e-03 1.82410853e-03 9.48485173e-03 -2.21137926e-02 -2.49537490e-02 1.41874934e-02 -1.80702284e-02 -4.98206075e-03 -1.16776926e-02 -1.81684513e-02 1.91986002e-02 1.84702482e-02 1.90375540e-02 8.18005484e-03 1.98483802e-02 -4.00053943e-03 -1.69170871e-02 -2.42511276e-02 -1.32906009e-02 8.21472984e-03 -1.29761891e-02 -9.24182497e-03 -2.43460368e-02 -8.59882496e-03 5.76428045e-03 -1.82300769e-02 3.56176822e-03 -1.55666666e-02 1.35623978e-03 1.39925405e-02 -1.94376539e-02 1.49851292e-02 2.28304919e-02 1.03410361e-02 1.60348206e-03 1.17856581e-02 6.91627013e-03 -2.28065941e-02 3.05385352e-03 9.17540677e-03 4.43273876e-03 7.56189320e-03 -1.43916057e-02 1.05318073e-02 1.27281407e-02 -1.74037740e-03 2.18094606e-02 -1.14982082e-02 2.20337082e-02 4.98336321e-03 2.32318752e-02 1.30710267e-02 1.27808768e-02 1.08771706e-02 1.42095732e-02 6.43774029e-03 6.46911841e-03 -1.40145468e-02 -1.60699766e-02 1.54288262e-02 -6.96767587e-03 -2.34293863e-02 1.63218006e-02 -7.22889416e-03 2.60450765e-02 -3.82089941e-03 1.23892687e-02 -2.12590061e-02 1.17890653e-03 1.47442948e-02 -1.44622298e-02 1.50602767e-02 5.76416170e-03 2.14284752e-02 2.38242242e-02 -5.86843444e-03 -1.74195766e-02 2.64153611e-02 -1.37631763e-02 8.99469294e-03 1.71570797e-02 -7.76255177e-03 -1.20116433e-03 1.43365199e-02 2.43249559e-03 1.05619049e-02 -1.98473334e-02 2.43869722e-02 -1.52649335e-03 2.09188703e-02 2.15880387e-03 1.73999928e-02 1.41480081e-02 -1.24035496e-02 7.37590902e-03 4.51647211e-03 7.21661933e-03 1.15736611e-02 1.12665379e-02 -1.34673268e-02 -8.03646259e-03 2.17465544e-03 7.83237256e-03 1.43310027e-02 2.64669135e-02 -7.44118821e-03 -1.92979500e-02 -1.61537342e-02 2.58788187e-02 -2.54102871e-02 -1.05816396e-02 7.10334396e-03 2.06626747e-02 1.26448125e-02 -1.41440555e-02 -1.26419244e-02 7.00892601e-03 -1.72518175e-02 -1.41485240e-02 1.65673997e-02 -7.65544688e-03 1.25331301e-02 -1.80961918e-02 7.64770061e-03 5.64868376e-03 7.58047355e-03 -2.75675040e-02 -2.86195353e-02 7.07706623e-03 -6.99408166e-03 8.00517853e-03 -9.16782394e-03 2.79951133e-02 2.14761570e-02 -2.17967127e-02 3.65047087e-03 -1.47974091e-02 2.98981518e-02 1.31276511e-02 -8.78561113e-04 4.49694169e-04 -1.26350159e-02 -1.36264171e-02 -5.31213405e-03 -2.01724004e-02 -8.27994570e-03 -5.02545992e-03 2.22273692e-02 2.69028172e-02 -9.62623861e-03 1.26376813e-02 -2.78043970e-02 2.66175009e-02 9.85125266e-03 3.43945716e-03 9.16621357e-05 7.37636583e-03 -1.87901817e-02 2.35801339e-02 2.04540789e-02 2.16105171e-02 3.87420924e-03 -1.61128156e-02 1.92128550e-02 -2.39451695e-02 -1.76948793e-02 2.22557113e-02 1.76649392e-02 2.44189203e-02 2.98918132e-03 -7.95531459e-03 -6.75713224e-03 -3.24055515e-02 1.06420508e-02 2.11070627e-02 5.37182298e-03 -1.04953954e-02 2.24445146e-02 1.09164305e-02 7.70064350e-03 -1.54781248e-02 2.25613266e-02 8.67864396e-03 -7.00904988e-03 1.80699266e-02 -1.80235449e-02 -2.35265438e-02 1.65706463e-02 -1.12937586e-02 -9.78887081e-03
-1.33782458e-02 -9.12382733e-04 1.61526748e-03 -3.09381937e-03 9.04273521e-03 -1.77396100e-03 -6.67250389e-03 -3.65371699e-04 -8.04127846e-03 1.19179310e-02 2.54514301e-03 -3.32594430e-03 -8.10806360e-03 1.18971337e-02 -6.32701395e-03 6.51643286e-03 6.21666259e-04 6.28663087e-03 1.19888708e-02 1.26142064e-02 3.83791071e-03 1.58337713e-03 -1.87926868e-03 8.54562689e-03 1.08017065e-02 9.30185616e-03 -7.63318595e-03 -5.27328532e-03 2.59493454e-03 9.92990751e-03 -5.34777809e-03 -5.33540267e-03 -1.39493058e-02 -4.03880700e-03 -1.54850993e-03 3.74116935e-03 -4.94520785e-03 9.09163151e-03 1.23771708e-02 9.46527638e-04 2.20504287e-03 -4.08099731e-03 -5.98859694e-03 8.86574679e-04 3.10336379e-03 1.21818436e-02 -3.46352858e-03 8.08815751e-03 -4.41852305e-03 4.33312682e-03 9.93745588e-03 1.37807559e-02 8.69128946e-03 3.01747653e-03 5.10677509e-03 -2.80531775e-03 2.32406100e-03 -4.85861534e-03 -1.70769123e-03 1.85391642e-02 3.22810462e-04 -7.13965483e-03 2.29233620e-03 -5.70190884e-03 -4.38907929e-03 -2.31451029e-03 -1.23098288e-02 -8.67145415e-03 -3.09073715e-04 -6.13801787e-03 -5.52114192e-03 3.51691386e-03 -5.07973041e-03 3.28782061e-03 -1.17271123e-02 3.41604417e-03 9.76496376e-03 1.07427267e-02 5.32595022e-03 6.86075864e-03 1.18778581e-02 -1.58162601e-02 -8.12363345e-03 -2.48148735e-03 -1.06148678e-03 1.42180054e-02 -7.30924774e-03 -1.08480984e-02 1.05546117e-02 -2.26268428e-03 1.09412372e-02 -1.30930599e-02 1.24722254e-03 7.89861660e-03 1.90791523e-03 -4.51614847e-03 1.28609799e-02 -3.02584074e-03 4.84848721e-03 -4.71931696e-03 8.83300416e-03 -1.38009265e-02 -1.30346762e-02 1.11628184e-02 -1.71431631e-03 -1.25851939e-02 2.30326038e-03 3.56145506e-03 1.29625155e-02 6.55421335e-03 7.54720531e-03 -7.13468529e-03 1.21937301e-02 -7.68282264e-03 2.08136556e-03 -1.91298500e-03 1.19549204e-02 8.39995779e-03 1.22021362e-02 -4.09481721e-03 -1.34040518e-02 -1.97407883e-03 1.82104809e-03 -1.79447532e-02 2.55475141e-04 -1.47297801e-02 -3.73886852e-03 -2.69523705e-03 -6.84963743e-05 -1.28554264e-02 -3.24119232e-03 -6.06404152e-03 1.03632063e-02 2.50076852e-03 -3.42984055e-03 -2.10848241e-03 -8.30014423e-03 -9.80980881e-03 -1.39299007e-02 1.09329205e-02 1.06008472e-02 5.88976033e-03 4.36716992e-03 -2.59926100e-03 -2.17101350e-03 6.09208131e-03 6.39147311e-03 -1.16901612e-03 -1.52223501e-02 -1.48813982e-04 -2.56812316e-03 -1.32283503e-02 1.09149516e-02 5.84207056e-03 -6.74042897e-03 5.52875979e-04 -3.20090028e-03 3.88915744e-03 8.19877256e-04 -1.18902922e-02 -1.53877521e-02 -1.36095760e-02 -8.49037617e-03 -1.84724238e-02 -1.45756928e-02 -7.17756804e-03 -4.92941542e-03 -1.24485288e-02 8.31552688e-03 1.82848927e-02 5.81969880e-03 -5.24651771e-03 7.09212990e-03 -4.03769128e-03 1.03875296e-02 4.19533206e-03 -5.80599578e-03 -1.02571398e-03 -1.14686284e-02 -5.20380680e-04 1.59586128e-03 7.49760680e-03 -1.42465699e-02 -3.64232203e-03 -5.18876221e-03 2.50416156e-03 5.23129292e-03 -1.78091601e-03 1.52444625e-02 -2.64393492e-03 1.25384517e-03 1.17124561e-02 -1.45221306e-02 -1.17188804e-02 2.85657379e-03 3.99074471e-03 5.93491225e-03 8.28635297e-04 1.04085747e-02 -7.76943844e-03 2.53353594e-03 3.66230146e-03 3.01655172e-03 2.38701832e-02 1.37162050e-02 -5.77328610e-04 3.24945757e-03 -4.13637562e-03 2.63575464e-03 -1.06633874e-02 -1.62032414e-02 3.22740502e-03 -3.26587772e-03 2.27823015e-03 2.27155350e-02 1.75517448e-03 4.31238557e-04 -1.28548779e-02 1.09955575e-02 -6.89071743e-03 -3.05697741e-03 -4.05340514e-04 -1.40567194e-04 1.05540990e-03 -1.22048631e-02 1.89037547e-02 -2.05452112e-03 1.61167253e-02 -3.01526044e-03 1.08982408e-02 5.48320822e-04 7.74624664e-03 5.75048802e-03 6.35188632e-03 8.04540608e-03 4.47302824e-03 -5.23699448e-03 -9.91890859e-03 -2.58262828e-02 8.19828454e-03 7.39246048e-03 5.39247412e-03 -8.10387265e-03 -1.29576428e-02 -5.39116561e-04 -1.05652977e-02 6.70031691e-03 2.70638708e-03 1.67053435e-02 9.60766152e-03 1.17323699e-03 6.52604084e-03 -1.22387493e-02 1.07961735e-02 -1.50631070e-02 -1.02041392e-02
-3.18296067e-03 -2.52868002e-03 7.70002045e-03 5.18478965e-03 -6.13794010e-03 5.68861747e-03 1.84763246e-03 2.60262663e-04 3.55312158e-03 1.92922284e-03 1.10789593e-02 7.50925485e-03 2.43276154e-04 -4.49720072e-03 -8.09158850e-03 1.27241178e-03 1.18259378e-02 -9.44078993e-03 -1.91047066e-03 1.08920895e-02 -6.88964385e-04 3.42142739e-04 -3.14484304e-03 6.25520619e-03 3.67059401e-04 -3.46690509e-03 -1.63463759e-03 -7.01176189e-03 4.08721901e-03 -7.55493250e-03 4.25834348e-03 6.67231856e-03 -1.10999933e-02 -1.24772359e-02 -7.95181282e-03 8.33804160e-03 2.96551012e-03 9.32257436e-03 -3.36993206e-03 -1.49898406e-05 5.14902454e-03 3.36378533e-03 2.29102932e-03 -1.34976190e-02 -9.38137900e-03 -1.68020511e-03 5.64220548e-03 5.26803732e-03 1.01705035e-02 7.64079439e-03 1.23866415e-02 1.05106225e-02 -1.18160471e-02 9.25648306e-03 -1.22695444e-02 -6.19144831e-03 -7.50262942e-03 -5.36272244e-04 3.52185545e-03 2.84133758e-03 7.27578392e-03 -1.02581559e-02 3.04552796e-03 8.59287195e-03 8.36429279e-03 6.80832099e-03 4.76218091e-04 -1.37102306e-02 -8.58572684e-03 -9.36694909e-03 -4.56837052e-03 6.12296804e-04 -5.25611360e-03 5.13257086e-03 -8.50336719e-03 -7.21269567e-03 6.64132880e-03 3.59851005e-03 2.42744572e-03 8.57945159e-03 1.03449624e-03 1.12644292e-03 -2.86384230e-03 3.81611823e-03 6.81923528e-04 5.02910092e-03 3.82055901e-03 2.01758975e-03 8.88052862e-03 -7.65297003e-03 -1.37758057e-03 3.33534554e-03 1.14879347e-02 -6.87866285e-03 7.49959750e-03 5.19514270e-03 -5.06547419e-03 9.13149863e-03 -5.78986771e-07 -6.48503564e-03 8.30606464e-03 5.86900674e-03 1.10050885e-03 9.74141585e-04 -5.58271640e-05 2.98328744e-03 -5.46526746e-04 -7.61745265e-03 -1.03894314e-02 2.42195185e-03 7.27168238e-03 4.79192985e-03 8.47712066e-03 -5.33010997e-03 -3.85088590e-03 6.26664003e-03 1.31087517e-02 -8.03857204e-03 7.21161067e-03 7.97160249e-03 -1.20839104e-02 3.18479794e-03 -3.08887730e-03 -1.45065626e-02 -3.85976466e-03 7.92531390e-03 3.41906236e-03 -9.92751773e-03 1.41563192e-02 7.01818801e-03 5.28935064e-03 8.08126386e-03 -5.80603164e-03 -7.45044416e-03 1.02415122e-02 -1.24806911e-03 -1.71262380e-02 1.93464069e-03 4.57966700e-03 1.53538855e-02 8.99533648e-03 -1.24874646e-02 4.62095859e-03 1.87264904e-02 -2.14202539e-03 3.10013792e-03 7.15007773e-03 -1.49834761e-03 -7.30529660e-03 6.00618590e-03 7.79338973e-03 -6.79457560e-04 -8.15898646e-03 -4.36579081e-04 -4.81088646e-03 1.56085212e-02 5.70759922e-03 2.59774434e-03 1.78038410e-03 -1.16549814e-02 5.07193338e-03 9.41674691e-03 9.57848132e-03 -1.25681069e-02 -7.89269898e-03 9.16349050e-03 -3.69704328e-03 1.48376385e-02 1.03133619e-02 -5.95267816e-03 1.52055267e-02 5.05155511e-03 -1.40021872e-02 3.86716658e-03 -3.37736361e-04 8.42342153e-04 -3.87219526e-03 -5.28989919e-03 -1.30405026e-02 -1.01784151e-02 -4.23857104e-03 -2.83553917e-03 4.93644830e-03 5.51921222e-03 1.17798550e-02 -5.57853607e-03 8.61406617e-04 -6.77836733e-03 -8.09767097e-03 6.70639658e-03 7.84668792e-03 1.00561799e-02 2.54383450e-03 5.94879559e-04 1.26931714e-02 -1.29434271e-02 -2.25344812e-03 7.48173706e-03 1.07418774e-02 1.85790414e-03 -8.28340091e-03 1.43011827e-02 -1.51817477e-03 4.03351616e-03 -8.15860182e-03 3.53122037e-03 -3.46095825e-04 -7.24620372e-03 7.54994946e-03 2.18822993e-03 -4.21346136e-04 -1.06483391e-02 -7.70350546e-03 5.40561881e-03 2.14081891e-02 -1.70230295e-03 7.15364702e-03 -1.24207223e-02 -1.13428032e-04 -1.15623779e-03 -2.04456691e-03 -7.06017157e-03 -1.01517001e-02 8.29381682e-03 -1.03735989e-02 1.88555773e-02 3.86139867e-03 1.47703942e-02 -2.86121806e-03 1.24187395e-03 -1.70583942e-03 -8.89310846e-04 -8.75189342e-03 4.16899053e-03 -6.77706068e-03 -3.36562260e-03 7.89632089e-03 8.31749756e-03 -2.22263043e-03 6.77696755e-03 3.73336440e-03 -6.89729024e-03 -4.95390128e-03 -8.45388137e-03 -4.04077303e-03 -1.22754760e-02 2.25231005e-03 -7.78872333e-03 -8.74949910e-04 -1.24877570e-02 5.67678455e-03 -1.28099807e-02 5.09215053e-04 -3.89583828e-03 -1.58657022e-02 -8.18113983e-03
-1.81647930e-02 -8.88442714e-03 2.69499440e-02 -1.31196287e-02 -1.70959383e-02 2.74061114e-02 1.23498840e-02 -1.68323703e-02 -1.05648199e-02 -7.71822454e-03 1.48145063e-02 1.15588866e-02 -4.03922983e-03 7.97324290e-04 -1.44273543e-03 -1.21590002e-02 -9.99597460e-03 1.53375566e-02 -2.56057479e-03 -4.92135389e-03 3.24351254e-06 5.11699216e-03 -6.25517173e-03 1.90444961e-02 1.35257030e-02 4.55493992e-03 -1.30944327e-02 1.94422267e-02 2.77759531e-03 -1.54859489e-02 -1.36239175e-02 -1.87264045e-03 -1.75047144e-02 -1.82631891e-02 -7.86452927e-03 -1.95271168e-02 -9.35174804e-03 2.66731028e-02 5.04420185e-03 -1.52106984e-02 9.97222494e-03 4.51603904e-03 -9.02581681e-03 -8.81272368e-03 1.73387863e-02 7.46032107e-04 1.47142895e-02 2.29988550e-03 1.03924498e-02 2.32140091e-03 -1.52465291e-02 -1.74434036e-02 -1.05862329e-02 -1.10969143e-02 1.22844346e-03 -1.02230711e-02 2.69923210e-02 -1.64928362e-02 2.70983763e-02 3.57086547e-02 3.71166579e-02 -3.23158689e-02 -2.35272013e-02 2.86682080e-02 -3.57185025e-03 7.66708609e-03 6.53196359e-03 -4.67577903e-03 7.08966330e-03 -8.67787749e-03 -2.22196709e-02 1.08985126e-03 -3.59390816e-03 -7.05570122e-03 -1.09615317e-02 -2.03470755e-02 1.45258463e-03 2.08183154e-02 -3.37731536e-03 7.62603804e-03 2.24835873e-02 3.34332394e-03 -1.05704283e-02 4.69148654e-04 -9.68124601e-04 -1.79938972e-03 -2.20276043e-03 -2.20372602e-02 -1.22909620e-03 3.96152120e-03 -1.82520575e-03 -1.46188610e-03 3.74142244e-03 5.03489142e-03 -1.41665749e-02 1.51089523e-02 -9.32000671e-03 5.36094559e-03 4.96994192e-03 1.97877102e-02 1.36972927e-02 -3.20967915e-03 -2.10489053e-03 3.51552665e-03 1.17194271e-02 1.33396136e-02 9.76669230e-03 1.09315692e-02 -1.62697844e-02 1.49186249e-04 1.14349388e-02 4.12878161e-03 1.24387322e-02 -1.27805546e-02 2.04034224e-02 -1.46952132e-03 1.91224851e-02 1.15033388e-02 -1.13141001e-03 9.20240209e-03 1.11597404e-02 1.50874257e-03 9.33619309e-03 -2.04101522e-02 -2.42492696e-03 7.39266677e-03 -1.53931500e-02 -1.27697252e-02 6.87869731e-03 -1.98445972e-02 2.08676793e-02 -6.86997734e-03 1.30257488e-03 -1.33986613e-02 3.99346044e-03 1.32957632e-02 -1.07231392e-02 1.98333096e-02 4.27316828e-03 1.74852386e-02 1.48398969e-02 -2.06118822e-02 -2.56137121e-02 1.96066387e-02 9.52574832e-04 1.55113880e-02 6.71875617e-03 -1.20777879e-02 -7.27903040e-04 1.21428743e-02 6.46145921e-03 5.49489167e-03 -7.24345585e-03 5.53723844e-03 9.69759841e-03 1.55010186e-02 -5.99714182e-03 1.13962851e-02 1.15275625e-02 -2.64936616e-03 4.31249756e-03 -2.84027914e-03 2.01815069e-02 1.44616561e-02 6.09763491e-04 -1.43163959e-02 -1.92584191e-02 7.08988355e-03 2.24483237e-02 1.82451792e-02 2.56050471e-02 -1.78707018e-02 -1.13295699e-02 -1.93444621e-02 8.64169281e-03 -8.26998893e-03 -1.31123057e-02 1.21874064e-02 9.60687082e-03 1.69399660e-03 -1.23607554e-02 -8.42386670e-03 3.21257138e-03 -3.62429698e-03 3.50337778e-03 5.76587627e-03 9.50094371e-04 6.34690933e-03 -1.79455313e-03 1.02539193e-02 -3.75602837e-03 1.92264970e-02 -1.74214244e-02 -1.60181038e-02 8.67341179e-03 -1.92446969e-02 2.53493804e-02 -1.56839378e-02 1.95297170e-02 1.44378087e-02 -7.20388908e-03 9.83635802e-03 -6.85101654e-03 5.99281490e-03 2.70085060e-03 -1.32191302e-02 4.35313396e-03 -1.26604531e-02 -1.79661699e-02 -1.23381745e-02 -2.76122615e-02 -1.56029994e-02 -1.08044092e-02 5.49501553e-03 2.41365489e-02 -1.98920276e-02 1.49752889e-02 -2.05139387e-02 1.80644859e-02 1.18775377e-02 2.07784511e-02 3.02630896e-03 1.99361402e-03 -1.06530059e-02 2.05445159e-02 2.38904487e-02 1.41825564e-02 1.63900107e-02 -8.97190813e-03 2.21506171e-02 -3.31118610e-03 -7.12622795e-03 1.50791397e-02 9.92668699e-03 5.91324782e-03 2.08618902e-02 -1.22557313e-03 -1.22968322e-02 -2.17894539e-02 1.81258675e-02 6.60160184e-03 -4.43232449e-04 -3.97437339e-04 1.07617071e-02 -4.08746535e-03 1.74952615e-02 -1.74775589e-02 7.53239542e-03 1.78428534e-02 -1.57127418e-02 9.82339401e-03 -6.39353506e-03 -2.37427410e-02 2.38615647e-02 -7.63341365e-03 -2.42657792e-02
-1.51236150e-02 -2.62346230e-02 1.48313381e-02 -1.68705974e-02 -1.62216779e-02 2.08071992e-02 1.70517694e-02 -1.92425363e-02 -4.70114406e-03 2.82093580e-03 1.37204248e-02 9.93045699e-03 1.46733469e-03 -7.17082340e-03 -9.79280006e-03 -5.46216778e-03 4.33443580e-03 -6.57912530e-03 1.00411978e-02 -4.64353431e-03 1.30560584e-04 -2.83069536e-03 5.98650472e-03 -7.77055835e-03 -5.72993944e-04 1.36708585e-03 -3.44219478e-03 9.10181180e-03 -2.24844180e-03 -8.90339143e-04 -1.75155718e-02 1.43366344e-02 -2.44744532e-02 -1.76107362e-02 -2.28183419e-02 -2.07265280e-02 -1.03721581e-02 1.97959989e-02 2.13918518e-02 -2.39040311e-02 1.43267214e-02 1.07172802e-02 5.40926878e-04 -1.87287480e-02 1.42981466e-02 1.88149437e-02 1.00713382e-02 1.86661500e-02 -6.76931581e-03 8.25080927e-03 3.41045507e-03 5.84993046e-03 3.94959992e-04 5.31825377e-03 -1.22591350e-02 6.59549516e-03 9.32496600e-03 -2.64366921e-02 1.32835926e-02 1.98860951e-02 1.32399444e-02 -2.04961579e-02 -6.29189843e-03 3.58845876e-03 2.43536290e-03 1.23338646e-03 -3.81798483e-03 -2.10159365e-03 1.08938823e-02 -1.66161377e-02 -4.43544099e-03 -1.28750568e-02 -1.48803182e-02 -4.68551693e-03 -1.59357470e-02 -8.52015801e-03 -6.73786213e-04 -5.04115014e-04 4.24889894e-03 1.22272093e-02 4.50733118e-03 -8.25483445e-03 6.46882167e-04 -1.51781440e-02 -1.34614494e-03 -1.82916038e-02 -2.36065895e-03 8.09925795e-03 -2.98473705e-03 -2.69808304e-02 1.19267800e-03 -1.63450139e-03 1.38438214e-02 -3.45991505e-03 -8.14652012e-04 1.62476033e-03 -1.12736868e-02 1.66948810e-02 1.40005462e-02 1.96189377e-02 -1.63087144e-03 1.67553388e-02 1.85066797e-02 -1.59909520e-02 1.04203066e-02 -4.09754785e-03 7.84935895e-03 2.47938884e-03 3.54181649e-03 1.37968929e-02 5.74591744e-04 -8.62389524e-03 9.61715472e-04 4.16031666e-03 1.53428046e-02 5.56366798e-03 -6.01224089e-03 3.76579771e-03 8.10460653e-03 1.73202474e-02 -3.45309428e-03 5.97566785e-03 6.18506316e-03 -2.31935233e-02 -1.82323251e-03 5.17673232e-03 -1.40684322e-02 1.56296301e-03 1.82655044e-02 -4.31750529e-03 2.01433282e-02 2.95582321e-03 1.96057912e-02 -1.40934465e-02 5.59734507e-03 1.53555302e-02 -1.89767480e-02 8.99577420e-03 1.47698389e-03 1.26904743e-02 1.54713793e-02 -2.00841553e-03 -1.32869510e-03 2.02270895e-02 -1.13635836e-02 1.30515154e-02 -5.16453874e-04 -1.72188114e-02 6.32544653e-03 -6.40260242e-03 3.92264966e-03 6.78631058e-03 -5.90785965e-03 3.07058971e-02 6.14922680e-03 1.15053998e-02 -1.02220215e-02 -4.46385611e-03 8.30816291e-03 -1.25617823e-02 6.84376806e-03 -1.45664066e-02 -1.02862800e-02 -4.58279485e-03 6.68171633e-05 3.97457834e-03 5.99121023e-03 4.63745324e-03 8.56212061e-03 4.36080014e-03 1.69980414e-02 -2.78921705e-02 -8.58792290e-03 -2.43767127e-02 1.57437311e-03 -3.96666955e-03 1.46057608e-03 8.82311072e-03 -1.66153442e-02 -5.56020904e-03 -6.39464706e-03 -1.81006279e-03 7.32938014e-03 -8.39090906e-03 4.38623969e-03 -1.20482147e-02 -6.16556685e-03 -7.89831951e-03 -1.43121160e-03 -8.61096475e-03 -6.52932515e-03 -9.43784136e-03 -1.89611297e-02 -1.04362424e-02 8.56508780e-03 2.94494675e-04 1.09721776e-02 -1.36993090e-02 3.14543280e-03 2.11198032e-02 -2.81069940e-03 5.35499677e-03 -9.03889537e-03 5.54707041e-03 1.75696565e-03 -4.23996570e-03 -1.45748993e-02 -1.65087841e-02 -1.11426767e-02 8.36496241e-04 -6.88341167e-03 -1.46644181e-02 -2.70251930e-03 1.38310008e-02 1.63724273e-03 -1.14947129e-02 2.44466215e-03 -2.08801553e-02 2.47382298e-02 7.26921577e-03 -1.01475779e-03 9.46687255e-03 -3.76693206e-03 -3.31355375e-03 1.21379057e-02 2.34209336e-02 2.38794251e-03 1.56340469e-02 -3.71987117e-03 4.34689503e-03 -1.78405773e-02 -7.81500712e-03 1.98673154e-03 1.35037657e-02 3.88125610e-03 1.20907621e-02 -6.22966047e-03 -8.20266025e-04 -1.00626042e-02 1.41914971e-02 -3.05972295e-03 6.42291643e-03 -1.93127664e-03 1.55396992e-02 -1.22631555e-02 -7.27157108e-03 -7.65738869e-03 -4.44710953e-03 1.55122830e-02 -1.30177550e-02 1.10448280e-03 -1.79836396e-02 -1.98366307e-03 2.09291354e-02 -1.78703368e-02 -4.27255500e-03
-1.63510554e-02 -1.74281225e-02 5.63775608e-03 -5.55875944e-03 -2.90226322e-02 2.93165948e-02 1.28515372e-02 -1.97314620e-02 -1.31157069e-02 -1.77038833e-02 8.85836594e-03 1.98762789e-02 -2.06761248e-02 1.04781054e-02 -1.51393516e-02 -6.70825318e-03 -8.15093925e-04 -1.80516001e-02 4.92010778e-03 -1.07509922e-02 -6.78773737e-04 3.23056360e-04 8.31160042e-03 -3.13643413e-03 1.05420463e-02 1.97804980e-02 1.76543999e-03 8.15409236e-03 1.93636920e-02 -9.20546707e-03 -6.17520511e-03 1.41383056e-02 -3.03796912e-03 -1.91842169e-02 -2.47375686e-02 -1.33960992e-02 -1.33016240e-02 1.78085491e-02 2.50969641e-02 -2.22876035e-02 1.40781021e-02 2.16040085e-03 -1.81550384e-02 -4.59098211e-03 1.60432588e-02 2.47165039e-02 1.11718122e-02 1.68130230e-02 1.38483969e-02 -6.74856920e-03 -5.84724650e-04 -1.64415464e-02 -8.13650433e-03 -1.11528840e-02 -2.02996703e-03 -1.34270955e-02 1.36309359e-02 -1.05647417e-02 2.25822218e-02 2.84543037e-02 2.86889952e-02 -7.48960953e-03 -2.21363790e-02 1.43590318e-02 8.47118907e-03 9.02335066e-03 -9.87928826e-03 -1.54832890e-02 7.00821588e-03 -7.48682395e-03 -9.81935486e-03 7.25616980e-03 -1.97081361e-02 -2.33543944e-02 -3.16065992e-03 -1.46445101e-02 9.82533023e-03 1.90252643e-02 1.48125943e-02 8.36850703e-03 1.61838960e-02 -2.41940338e-02 -4.35862271e-03 2.71276309e-04 -8.50849133e-03 -1.55432697e-03 6.34830911e-04 -1.80109814e-02 -2.16628127e-02 -1.82621777e-02 4.60716477e-03 -1.68184899e-02 6.78217737e-03 -6.80080091e-04 1.07774530e-02 -2.35600094e-03 -1.07803177e-02 2.01386604e-02 1.03388522e-02 -1.62838749e-03 -2.55097798e-03 1.62028242e-02 1.76361809e-03 6.39741833e-04 2.09615659e-02 -5.17470296e-03 1.04259877e-02 -1.90976437e-03 -3.51986266e-04 1.11919316e-02 1.51422089e-02 -1.05624786e-02 1.15507180e-02 -1.64179411e-02 2.53036967e-03 2.20851917e-02 1.75737944e-02 8.88851378e-03 9.04484931e-03 5.72509179e-03 8.26447178e-03 8.28409847e-03 1.26967058e-02 -1.64670944e-02 -1.75473106e-03 1.85171012e-02 -1.15681784e-02 -1.82827283e-02 2.29814369e-02 -6.46011159e-03 2.15389114e-02 -2.05360875e-02 1.80668775e-02 -2.43415721e-02 3.47240618e-03 2.37454027e-02 -1.37929739e-02 1.94681883e-02 1.95162334e-02 1.24188568e-02 1.06846681e-02 -1.13803977e-02 -1.46573503e-02 9.69202723e-03 7.21438229e-03 7.11796666e-03 1.06181232e-02 -1.91791896e-02 -4.06554295e-03 1.09292641e-02 -1.12014152e-02 4.26888140e-03 9.16742161e-03 2.50539612e-02 9.97556187e-03 1.95157509e-02 1.29836015e-02 2.39288877e-03 1.17332824e-02 -3.64040490e-03 7.30388565e-03 -1.46163236e-02 8.90912081e-04 -1.42872538e-02 -1.03273429e-02 -8.32903199e-03 9.50857252e-03 -7.93659035e-03 1.28185563e-02 8.90922360e-03 1.21683143e-02 -1.71810500e-02 -1.96265727e-02 -1.15252370e-02 1.59850884e-02 -3.95853631e-03 -9.42774303e-03 8.58912989e-03 -8.70918296e-03 8.56513251e-03 -1.34015763e-02 2.83273665e-04 7.34775467e-03 5.13332011e-03 -2.74296920e-03 -6.89643901e-03 -2.94390414e-03 -1.93684280e-03 -7.93603621e-03 6.36520330e-03 7.66071677e-03 7.99292140e-03 -1.03050824e-02 -2.23059133e-02 2.14844290e-02 -2.10887305e-02 2.14931648e-02 -2.37004869e-02 9.90803074e-03 6.20505959e-03 -1.45601379e-02 -3.08874180e-03 -1.74625416e-03 1.43865924e-02 -6.15233742e-03 -7.16485176e-03 -7.61406915e-03 -6.80676522e-03 -9.77902953e-03 -1.95549745e-02 -8.57336819e-03 -2.19935216e-02 -1.88752953e-02 1.22768050e-02 1.29448511e-02 -2.23599039e-02 2.35569477e-03 -1.29538430e-02 7.10051879e-03 1.79590341e-02 6.79704966e-03 1.12167159e-02 1.44271357e-02 -1.37331719e-02 2.39353441e-02 1.83544476e-02 1.59541145e-02 2.16794573e-02 -5.19524282e-03 3.63605167e-03 -5.61638270e-03 -1.95097476e-02 2.18289308e-02 2.09604315e-02 9.49582085e-03 1.18759889e-02 -1.65554937e-02 -6.12033950e-03 -1.16245216e-02 2.43255626e-02 -6.18315348e-03 5.76390000e-03 -5.03068930e-03 1.45941274e-02 -2.11554840e-02 3.74401477e-03 5.30906534e-03 1.38932709e-02 2.19336543e-02 -9.20773670e-03 1.79192144e-02 -1.54361129e-02 -7.07333721e-03 2.07453948e-02 -1.61957480e-02 -1.01505183e-02
-1.11343320e-02 -1.41600799e-03 2.67153885e-02 -1.69656500e-02 -1.26121333e-02 1.29897036e-02 1.08524086e-02 -7.02413172e-03 -2.37644278e-03 -7.02874875e-03 1.15717873e-02 7.85407797e-03 -5.32968994e-03 -2.03628419e-03 -1.09506911e-03 7.04027945e-03 4.34599677e-03 -9.53274488e-04 -5.24973264e-04 1.75778303e-04 9.66904033e-03 -9.49272979e-03 2.07639439e-03 1.03325536e-02 -3.60484538e-03 2.06166357e-02 -4.42627235e-04 2.61425693e-03 2.76731257e-03 -8.35521240e-03 -3.23040714e-03 7.21512875e-03 -1.56651083e-02 -9.97164287e-03 -1.78570729e-02 -1.49581870e-02 -1.68176703e-02 1.55023364e-02 4.31109639e-03 -1.44587290e-02 1.89874619e-02 1.74105633e-03 -5.45379566e-03 -1.06860569e-03 1.56087242e-03 1.87994558e-02 1.57398880e-02 1.30409524e-02 4.54406999e-03 3.68250301e-03 1.07897707e-04 -2.26906332e-06 3.44632496e-03 -2.07266863e-03 5.46753360e-03 -5.62819012e-04 2.27321591e-03 -9.74874757e-03 2.44866759e-02 4.10407642e-03 2.00008415e-02 -2.84765312e-03 -1.89080741e-02 1.12307258e-02 1.00384466e-02 6.40440732e-03 1.77842416e-02 -8.53841007e-03 3.95751279e-03 -8.89944099e-03 -1.08269462e-02 2.56762607e-03 -1.29289636e-02 -3.72597529e-03 -6.95042731e-03 -1.27122309e-02 1.28842732e-02 5.31769637e-03 4.05996060e-03 7.26469886e-03 2.36306526e-03 -9.34095937e-04 -7.43825920e-04 4.19358927e-04 -4.61679138e-03 8.67894944e-03 -2.88929423e-05 -6.13088720e-03 -7.56031182e-03 2.67206784e-03 8.43691546e-03 -1.24485334e-02 6.52366970e-03 -4.46510408e-03 -1.90135965e-03 1.36350151e-02 4.33523115e-03 1.35844368e-02 1.78668275e-02 1.87872201e-02 -5.73492795e-03 -6.22184365e-04 1.52329053e-03 -6.67649694e-03 2.27300357e-02 6.69935206e-03 7.90186692e-03 8.92991666e-03 -1.95543822e-02 4.76291279e-05 1.16261067e-02 -6.32869313e-03 8.06880929e-03 -6.86220126e-03 -4.48684383e-04 1.99799845e-03 2.89367302e-03 -1.08035840e-02 3.06177954e-03 -8.94020020e-04 1.05572874e-02 -9.22047254e-03 1.98608469e-02 -2.24864967e-02 1.24195386e-02 1.76275196e-03 -1.12354318e-02 -1.06205391e-02 1.45921409e-02 -1.66552030e-02 5.16011380e-03 -8.84363800e-03 4.29678382e-03 -1.08362259e-02 8.35548714e-03 1.51553992e-02 -1.56074474e-02 6.86291559e-03 1.27873402e-02 -2.31299619e-03 1.18616289e-02 -1.30993519e-02 -9.98441782e-03 2.01778747e-02 5.43035939e-03 1.45393955e-02 1.22179771e-02 7.49165565e-03 -5.86744025e-03 1.33505305e-02 9.86637920e-03 -3.87776620e-03 -9.48956149e-05 -5.64814638e-03 -4.23155987e-04 8.10442027e-03 6.62662741e-03 1.81544502e-03 7.85038900e-03 -1.85104515e-02 -4.37608454e-03 5.73878875e-03 9.43325181e-03 9.16473288e-03 2.01824098e-03 -1.11006908e-02 -1.69275682e-02 -3.25892540e-03 1.46758035e-02 1.51799591e-02 1.05537996e-02 -9.08036064e-03 -1.46296266e-02 -1.80322714e-02 9.53518599e-03 -9.72350407e-03 8.10855627e-03 3.89249693e-03 1.12035722e-02 5.72053529e-03 -4.85415803e-03 -8.39314330e-03 5.53793367e-03 8.39900132e-03 -9.19430237e-03 -9.79727134e-04 -1.18235694e-02 -7.26715103e-03 3.29285557e-03 3.46447760e-03 -6.59439620e-03 1.40030524e-02 -1.73642430e-02 -9.22478363e-03 2.05455348e-02 -1.78139061e-02 5.55579958e-04 1.96912978e-03 2.70751435e-02 5.89662057e-04 -7.48450682e-03 9.22462810e-03 7.51449494e-03 2.59513059e-03 6.79104030e-03 -3.62567161e-03 -1.32185942e-03 1.94109906e-03 -1.25869056e-02 -2.29715351e-02 -2.10998226e-02 -3.49443662e-03 -2.15180572e-02 2.01095216e-04 1.87209323e-02 -6.19756198e-03 3.04916967e-03 -1.15029030e-02 2.42916890e-03 1.71175078e-02 1.11554544e-02 1.14610353e-02 -1.51133328e-03 -1.61147974e-02 3.86542035e-03 1.56861451e-02 1.02187106e-02 2.22936589e-02 -1.40980016e-02 -5.53404354e-03 -6.67129410e-03 -3.19001498e-03 1.06178867e-02 5.97565854e-03 1.32854115e-02 5.36784204e-03 -1.23033216e-02 3.03671649e-03 -4.51784581e-03 7.18502281e-03 -1.25811733e-02 1.72240976e-02 -1.94822755e-02 4.00858582e-04 1.21315075e-02 -7.49258557e-03 -3.75187420e-03 -9.12026269e-04 1.08470917e-02 5.19124651e-03 6.25358941e-03 -1.84586011e-02 -1.16359526e-02 2.42438801e-02 -1.69165228e-02 -1.09639987e-02
-2.68488117e-02 -8.03927705e-03 1.42073426e-02 -2.13955287e-02 -8.59271362e-03 2.09965073e-02 8.57090484e-03 -2.30986327e-02 -5.81254531e-03 -1.23413689e-02 1.44040743e-02 2.76060775e-02 -7.40587071e-04 2.07697619e-02 -4.50426387e-03 -2.06677318e-02 -3.14684864e-03 2.19340287e-02 -1.93180069e-02 -9.91615281e-03 7.33608101e-03 1.00132218e-02 -1.08980704e-02 1.51359746e-02 2.07258966e-02 6.65396918e-03 -1.10746864e-02 1.06110917e-02 1.83344986e-02 -6.27072528e-03 -1.15521625e-02 1.41390134e-02 -8.81615933e-03 -2.17504334e-02 -1.23247383e-02 -6.29655411e-03 -2.41444893e-02 9.49509442e-03 2.48721708e-02 -2.07446273e-02 2.32307687e-02 1.53240114e-02 -2.08965950e-02 -9.17058624e-03 2.27761827e-02 2.45732572e-02 1.75616089e-02 1.65087637e-02 2.05765031e-02 1.29567471e-03 -1.45379193e-02 -2.64914706e-03 -3.17836343e-03 -1.95811763e-02 4.97126160e-03 1.66714657e-04 9.23301466e-03 -2.01266911e-02 1.69398710e-02 2.02096570e-02 7.68641150e-03 -2.92494688e-02 -1.75120197e-02 1.64367184e-02 -8.74430127e-03 1.65076684e-02 2.41341740e-02 9.59416013e-03 3.45919398e-03 -1.71118733e-02 -2.59448458e-02 1.57211181e-02 -1.40074510e-02 -6.74235262e-03 -1.07584540e-02 -6.74689608e-03 3.15828202e-03 2.26848517e-02 2.08394658e-02 4.82188491e-03 1.75988283e-02 -4.92422841e-03 -2.21041162e-02 -1.56024871e-02 -2.03318130e-02 1.34430788e-02 -2.03426671e-03 -2.49896757e-02 -2.04022024e-02 -6.96708029e-03 1.41187506e-02 -2.26943865e-02 -1.72165339e-03 -9.97233670e-03 -1.75634287e-02 5.56326797e-03 -1.93847045e-02 6.75398624e-03 2.15174388e-02 2.28503067e-02 3.98846623e-03 1.01363659e-02 1.40680680e-02 -6.97099231e-03 1.53200161e-02 1.00095989e-02 2.17161980e-02 2.22817697e-02 -1.35814343e-02 1.69651315e-03 2.11648066e-02 -1.91922784e-02 6.51143491e-03 -3.37730022e-03 3.91990785e-03 3.78630008e-03 2.16376130e-02 1.85113531e-02 2.28531081e-02 8.30867700e-03 2.12079585e-02 3.34828952e-03 1.24828387e-02 -1.46773551e-02 -7.02889496e-03 2.23230757e-02 -1.33156348e-02 -2.39847358e-02 1.94936674e-02 -4.20967583e-03 2.11261809e-02 -2.42797974e-02 1.84909813e-02 -2.37778425e-02 3.09185963e-03 2.76474152e-02 -1.87256131e-02 1.02106715e-02 1.55635774e-02 1.86177008e-02 1.23912152e-02 -1.30294263e-02 -2.02247873e-02 1.83354821e-02 -1.86975412e-02 7.60621717e-03 1.79203060e-02 -1.34730814e-02 1.48009909e-02 2.04733424e-02 1.84091497e-02 5.94503945e-03 -2.01195646e-02 1.22337947e-02 1.28699252e-02 2.74495929e-02 9.48862929e-04 2.26671603e-02 1.68714281e-02 -1.99686699e-02 2.02473048e-02 -1.51276879e-03 1.32401136e-03 1.32746035e-02 1.51163535e-02 -1.18568139e-02 -8.89669172e-03 1.65008400e-02 2.57995669e-02 1.44181531e-02 1.02152349e-02 -2.01075487e-02 -1.78422425e-02 -1.64482743e-02 1.41723379e-02 -1.80170536e-02 2.19943654e-03 1.05331503e-02 1.86454616e-02 -1.44808192e-03 -1.49336010e-02 -2.06555184e-02 8.40784423e-03 3.08817928e-03 -6.87297608e-04 3.58802121e-04 -3.75015754e-03 3.13934055e-03 4.66341292e-03 5.55456092e-04 1.16299503e-02 2.03868188e-02 -2.24002339e-02 -2.82659829e-02 9.19887982e-03 -2.62026433e-02 2.13691611e-02 -1.01465704e-02 2.35797632e-02 1.24404561e-02 -8.75102356e-03 1.53456582e-02 -5.19919209e-04 2.79738437e-02 -1.47358223e-03 -1.86281558e-02 6.64103602e-04 -8.18332657e-03 -1.99918170e-02 -2.66951807e-02 -6.75687660e-03 -1.61197763e-02 -1.82055067e-02 2.51625311e-02 7.86008686e-03 -9.88191832e-03 4.36646678e-03 -1.60053894e-02 1.11730872e-02 1.32521456e-02 8.08286015e-03 4.86248318e-04 1.54924439e-02 -1.57086714e-03 1.17847780e-02 1.60272736e-02 1.49607928e-02 1.94493588e-02 -8.72865226e-03 1.95769891e-02 -3.52977309e-03 -8.12899135e-03 1.10405236e-02 4.32840595e-03 2.03615781e-02 1.76521353e-02 -1.81113984e-02 -9.77723580e-03 -1.58135500e-02 1.75005607e-02 7.38108577e-03 1.33483252e-02 -2.58903001e-02 6.55970490e-03 -4.39807260e-03 1.59328096e-02 -9.97964013e-03 1.86130647e-02 9.60077439e-03 -1.94054544e-02 2.45197956e-02 -2.89525045e-03 -5.51342405e-03 1.73072461e-02 -4.30097571e-03 -1.69922225e-02
-2.95099933e-02 -1.51983509e-02 2.68223993e-02 -1.18956678e-02 -8.56700633e-03 3.07299495e-02 2.53389496e-02 -2.45916247e-02 -2.60568988e-02 -1.02640213e-02 1.94453504e-02 6.86958060e-03 -1.07954228e-02 1.91736463e-02 -2.57045515e-02 -7.75922555e-03 -2.01736577e-02 1.59023628e-02 -2.67115850e-02 -1.00323930e-02 7.95583613e-03 1.73500162e-02 -5.48089575e-03 5.56407031e-03 2.47057937e-02 1.13600129e-02 -1.70537718e-02 2.66474616e-02 1.08315730e-02 -2.58944947e-02 -1.67596098e-02 1.21307699e-02 -2.59512067e-02 -7.12431362e-03 -1.43696610e-02 -5.92624024e-03 -1.61802843e-02 1.86770726e-02 1.97120644e-02 -2.03008987e-02 7.51435710e-03 2.25593485e-02 -1.02201467e-02 -2.33998820e-02 8.74479022e-03 2.45523043e-02 2.49836445e-02 2.06318367e-02 2.57781725e-02 -1.17053334e-02 -4.09755716e-03 -2.50022076e-02 -7.76995206e-03 -2.60768067e-02 1.42763807e-02 7.37922452e-03 1.84535664e-02 -2.76122093e-02 1.85561478e-02 1.86945051e-02 1.08298697e-02 -1.29128303e-02 -2.31165793e-02 7.25944433e-03 -1.48395924e-02 4.96332999e-03 2.71859877e-02 2.08243262e-02 2.31460053e-02 -8.51425622e-03 -6.90703094e-03 2.14913450e-02 -6.85274042e-03 -2.31506098e-02 -1.58730336e-02 -7.81929120e-03 6.73275813e-03 1.83993503e-02 1.63833424e-02 1.71861351e-02 1.12786870e-02 -2.64798310e-02 -1.25934007e-02 -1.66438017e-02 -9.82838217e-03 5.29434718e-03 -1.70628186e-02 -6.70854747e-03 -1.69208851e-02 -1.64219122e-02 2.17289254e-02 -2.57822722e-02 -9.11485031e-03 -2.03763135e-02 -2.73428373e-02 9.72429663e-03 -1.33220563e-02 1.64462384e-02 6.68362807e-03 6.88112760e-03 2.52682362e-02 7.72360945e-03 1.09524224e-02 -2.48499271e-02 2.67417599e-02 2.26863176e-02 9.38724447e-03 1.48985246e-02 -8.27385858e-03 1.08053610e-02 1.86564103e-02 -1.17343441e-02 1.71738155e-02 -2.25220788e-02 9.13810264e-03 1.81731321e-02 2.16703936e-02 2.05011088e-02 5.05901547e-03 1.51430573e-02 8.57032556e-03 1.33610610e-02 1.07246321e-02 -2.42793057e-02 -1.24346027e-02 4.97041363e-03 -1.99930053e-02 -4.45107371e-03 8.29861593e-03 -2.74260603e-02 2.62781419e-02 -1.09632276e-02 1.25840390e-02 -1.52900703e-02 6.63301302e-03 8.70961417e-03 -7.98135530e-03 2.84595229e-02 6.53257780e-03 2.98022572e-02 1.35295130e-02 -2.53041070e-02 -2.07153931e-02 1.29469885e-02 -2.06566546e-02 1.14488816e-02 1.40535291e-02 -1.52375903e-02 1.31860944e-02 1.32372137e-02 5.20161912e-03 7.46401818e-03 -6.50093518e-03 2.48650070e-02 1.37057183e-02 2.08609980e-02 1.10442415e-02 2.69853901e-02 1.09735867e-02 -1.56567637e-02 2.47829091e-02 1.91559978e-02 6.03529159e-03 1.26989810e-02 1.46174422e-02 -1.09446505e-02 -1.07307518e-02 2.34515760e-02 2.89185308e-02 1.56324971e-02 1.33842761e-02 -1.88642256e-02 -2.88862791e-02 -1.16645237e-02 1.24353291e-02 -2.89218519e-02 -1.12704132e-02 2.56258342e-02 7.53721036e-03 8.49250238e-03 -1.96171608e-02 -2.36316286e-02 3.61244753e-03 -1.63151454e-02 -9.67953727e-03 3.93243134e-03 -1.74358040e-02 8.37997161e-03 -1.32194338e-02 2.07723044e-02 2.34823693e-02 1.22345220e-02 -1.87289286e-02 -2.74925344e-02 1.87879857e-02 -1.36009455e-02 2.41243206e-02 -2.85407342e-02 2.17335541e-02 2.35010237e-02 -1.33780688e-02 1.01981070e-02 -4.03251732e-03 9.36822873e-03 2.72103827e-02 -1.17734075e-02 -2.45058741e-02 -2.57432312e-02 -8.88007414e-03 -9.36571509e-03 -2.51198988e-02 -1.26264114e-02 -2.38955822e-02 1.40335876e-02 2.00528223e-02 -1.85713395e-02 6.15961524e-03 -2.31336541e-02 1.17349839e-02 5.77962352e-03 1.24455094e-02 9.05250106e-03 1.14216553e-02 -5.29918028e-03 2.34124959e-02 2.43522283e-02 9.80158895e-03 1.72186773e-02 -1.80569291e-02 1.05435429e-02 -1.05669340e-02 -5.88895893e-03 2.58138683e-02 6.06886763e-03 2.56855413e-02 2.66296193e-02 -2.21881829e-02 -2.30041426e-02 -9.20076296e-03 8.44473392e-03 5.82783064e-03 1.30747734e-02 -2.11279821e-02 4.88142297e-03 2.00908445e-02 1.08204680e-02 -2.04905495e-02 2.86413077e-02 2.11454723e-02 -2.33691819e-02 2.68696658e-02 -1.25552956e-02 -2.35959440e-02 1.26137119e-02 -2.55783498e-02 -2.24736612e-02
-1.37710106e-02 -1.61713995e-02 2.17114901e-03 -1.27073498e-02 -1.26591949e-02 8.08738079e-03 2.59162486e-02 -9.46284644e-03 -1.43282833e-02 -3.77741712e-03 9.55168251e-03 1.19175101e-02 3.31916101e-03 4.97532915e-03 -7.00300932e-03 -1.73215605e-02 7.69216008e-03 4.60728258e-03 8.46199167e-04 -1.03134206e-02 9.18086711e-03 -8.92620243e-04 -2.53627240e-03 1.87813435e-02 1.15568610e-02 1.41688781e-02 -9.27908253e-03 4.52944450e-03 1.85074918e-02 -1.90530363e-02 -7.24454876e-03 2.22977586e-02 -1.67784654e-02 -2.45688446e-02 -2.21579131e-02 -1.05223572e-02 -4.72558243e-03 2.14661192e-02 1.92296356e-02 -2.16734894e-02 9.64725576e-03 1.73754133e-02 -1.57783795e-02 -3.07753473e-03 3.85019276e-03 1.16104428e-02 1.80861633e-02 1.20169884e-02 1.13872427e-03 5.54704899e-03 -3.81278177e-03 -1.17951687e-02 -1.59466863e-02 -1.37965241e-03 1.34947454e-03 -1.15184661e-03 1.73783712e-02 -2.65152529e-02 2.51198877e-02 6.41044602e-03 9.23438370e-03 -1.00957211e-02 -1.98269133e-02 1.11979488e-02 -7.00430293e-03 3.32157104e-03 -6.31030052e-05 -3.44141806e-03 1.78464856e-02 1.43833796e-03 -1.03050685e-02 4.61320020e-03 -2.06125006e-02 -1.86566487e-02 -1.77752487e-02 -6.47563545e-04 8.57430976e-03 9.11009870e-03 6.66901469e-03 2.13731453e-02 2.39500380e-03 -1.00219408e-02 -2.16637868e-02 -1.56855695e-02 -1.69339068e-02 -6.04411773e-03 6.02585170e-03 -1.69071052e-02 -2.09772848e-02 -2.26405077e-02 1.81058738e-02 -1.14320768e-02 2.89016287e-03 -7.38807069e-03 -8.07508081e-03 1.66071877e-02 -1.09859300e-03 8.62514973e-03 1.99520960e-02 1.05850715e-02 1.50342723e-02 9.92528070e-03 1.75799858e-02 -1.11637702e-02 5.67155611e-03 -3.67944915e-04 2.89953947e-02 8.31922051e-03 -1.60418376e-02 5.74032962e-03 1.52562940e-02 -9.24677122e-03 1.49422772e-02 -1.27877174e-02 6.28728326e-03 1.90330017e-02 2.08952017e-02 1.60291940e-02 5.85892145e-03 2.02647410e-02 1.45660201e-03 1.00401500e-02 1.95883997e-02 -2.15839595e-02 -1.15197850e-02 -3.44063062e-03 -1.26463538e-02 -4.05119639e-03 1.31996125e-02 -2.14215601e-03 1.36151398e-02 -1.49176205e-02 3.65309743e-03 -5.74242929e-03 1.37986653e-02 2.45600417e-02 -1.69316884e-02 2.23638173e-02 4.87504713e-03 1.67577695e-02 2.23395489e-02 -3.13255470e-04 -1.43381087e-02 7.28254998e-03 1.00882712e-03 -3.43743642e-03 3.98538122e-03 -4.79606958e-03 -9.67413303e-04 2.47558346e-04 5.31864818e-03 4.84964476e-05 -1.26419275e-03 9.74389631e-03 6.70901453e-03 1.57171674e-02 -8.85161385e-03 4.90763132e-03 1.12879397e-02 -7.95992371e-03 2.93294201e-03 4.39154543e-03 5.14131319e-03 9.17773973e-03 -2.57824967e-03 -4.38990624e-04 7.64425262e-04 -5.78343403e-03 1.71607938e-02 1.91203635e-02 1.68951321e-02 -9.30845365e-03 -1.97787005e-02 -1.34657817e-02 9.56246722e-03 -2.49818303e-02 6.02666708e-03 1.64517760e-02 9.27215908e-03 7.07520265e-03 -9.16107837e-03 -8.85619409e-03 1.07004745e-02 -5.23870671e-03 2.64954637e-03 2.94001470e-03 -1.58007126e-02 -6.40108669e-03 -7.25048641e-03 8.81146174e-03 1.28931673e-02 8.53450445e-04 -8.46779719e-03 -8.81863944e-03 2.09344411e-03 -1.13217132e-02 2.76403464e-02 -3.95907788e-03 2.22825836e-02 1.68844536e-02 -8.02608393e-03 5.25595341e-03 -1.08850431e-02 2.89000701e-02 8.39504588e-04 -2.34000720e-04 -5.72540972e-04 -1.12019619e-02 -4.14086459e-03 -1.33078225e-04 -1.12933302e-02 -1.35124018e-02 -1.83413569e-02 1.28638567e-02 5.49444696e-03 -1.53636811e-02 1.69735271e-02 -1.12989955e-02 1.30136106e-02 1.09524615e-02 1.92397702e-02 1.39424382e-02 3.63709428e-03 -2.43170024e-03 4.85180691e-03 1.42543465e-02 5.45890117e-03 1.02201966e-03 -2.16006450e-02 1.24316476e-02 -1.17803207e-02 -3.78046418e-03 2.33974471e-03 1.25615858e-03 6.27959846e-03 1.55748799e-02 -1.54182985e-02 -2.15264037e-02 -1.88500471e-02 1.51351886e-02 1.20195346e-02 1.34874145e-02 -2.82780733e-03 -3.83350439e-03 -1.51189626e-03 1.37360469e-02 -1.66871604e-02 8.12486932e-03 2.11228356e-02 -6.76693581e-03 1.58201531e-02 -2.39270609e-02 -1.46462163e-02 1.69647597e-02 -1.28091276e-02 -3.04010534e-03
-1.88796949e-02 -2.19407622e-02 2.74550263e-02 -2.77888048e-02 -2.22148765e-02 1.44033218e-02 2.90749501e-02 -8.78671743e-03 -2.86317663e-03 -1.92475319e-02 2.09543947e-02 2.47019920e-02 -7.87599571e-03 1.94803048e-02 -7.40994792e-03 -1.39184734e-02 -1.68549288e-02 4.74558817e-03 -1.31941854e-03 -9.40501690e-03 1.09166726e-02 1.58305420e-03 -1.54162738e-02 2.47247275e-02 8.44821241e-03 2.22523585e-02 -1.83043014e-02 2.20110212e-02 6.97781984e-03 -1.87201388e-02 -4.88443347e-03 4.36625024e-03 -2.52657048e-02 -2.35843845e-02 -1.28886802e-02 -1.66007821e-02 -1.51066966e-02 4.51342389e-03 1.61882862e-02 -1.27232932e-02 2.66617853e-02 1.57456994e-02 -6.57555228e-03 -1.17603280e-02 7.95184448e-03 1.22428983e-02 1.41847767e-02 1.00576142e-02 2.12530531e-02 -2.16146912e-02 -1.29310088e-02 -1.86686832e-02 -1.65389646e-02 -1.38216745e-02 1.71443950e-02 1.54397683e-02 2.36888323e-02 -2.82224659e-02 1.91867407e-02 2.44678836e-02 2.96144765e-02 -2.10404862e-02 -8.50228872e-03 5.65427728e-03 -1.42991580e-02 5.48923435e-03 8.46983865e-03 1.05039147e-03 1.50422286e-02 -1.32965306e-02 -2.12142263e-02 -1.92305376e-03 -4.83786967e-03 -1.51395341e-02 -2.56598033e-02 -2.46029813e-02 1.24989254e-02 6.27480168e-03 6.31999923e-03 2.37564538e-02 5.98488934e-03 -8.54702108e-03 -1.95633695e-02 -1.20597221e-02 -9.32318438e-03 9.57585312e-03 -2.44041216e-02 -8.69350974e-03 -1.18640587e-02 -1.76039711e-03 1.93104241e-02 -1.59144662e-02 3.57486401e-03 -1.51468860e-02 -1.84419174e-02 8.59073270e-03 -1.99826602e-02 1.59434695e-02 2.65463647e-02 5.49817365e-03 1.89113263e-02 2.50343997e-02 2.00599283e-02 -1.35384621e-02 2.81332862e-02 4.56570415e-03 1.04717501e-02 2.01960020e-02 -1.29754446e-03 1.42053450e-02 1.95995513e-02 -2.20243745e-02 1.02471150e-02 -1.95138305e-02 2.06026640e-02 6.66533643e-03 2.24685501e-02 1.37032708e-02 1.51269939e-02 2.05203239e-02 1.68452226e-02 2.13881396e-02 2.43553054e-02 -2.32702661e-02 -1.35475947e-02 1.63001567e-02 -9.58891679e-03 -3.91787710e-03 2.41340268e-02 -6.99551823e-03 8.58669449e-03 -1.64624900e-02 2.17176769e-02 -4.23261616e-03 1.71706546e-02 1.52660292e-02 -1.05677946e-02 9.85525362e-03 1.80401243e-02 2.59132516e-02 2.98406947e-02 -1.19651053e-02 -7.25537306e-03 1.19615626e-02 -2.25377008e-02 1.73113402e-02 9.62082297e-03 5.22542512e-03 -8.92747135e-04 7.84971751e-03 1.66492760e-02 1.62871182e-03 -7.78473774e-03 6.80078287e-03 1.89674068e-02 1.52817136e-02 5.32688759e-03 2.19264328e-02 1.74244735e-02 -1.93327889e-02 5.76456776e-03 7.23038102e-03 7.07335863e-03 1.48007749e-02 1.00017786e-02 -4.53619286e-03 -1.19941700e-02 2.07798947e-02 1.02996798e-02 6.14803238e-03 2.14719996e-02 -6.16279431e-03 -1.73697434e-02 -1.82129666e-02 1.51564181e-02 -1.61421057e-02 -1.87424924e-02 1.48964813e-02 1.58928875e-02 1.46870399e-02 -1.54145258e-02 -2.88563967e-02 1.63867027e-02 -9.17859748e-03 -2.46029510e-03 3.06928786e-03 -1.16544710e-02 5.99571876e-03 6.32578856e-04 -4.75793902e-04 1.52785247e-02 4.03630128e-03 -1.52693801e-02 -1.26204761e-02 9.25706979e-03 -5.56072686e-03 1.62080284e-02 -7.06082257e-03 2.12089121e-02 2.40755249e-02 -1.34479664e-02 3.02171125e-03 -2.19884291e-02 8.76952428e-03 5.56917628e-03 -2.09750943e-02 3.33698886e-03 -1.01397140e-02 -1.77486800e-02 -2.40155868e-02 -1.59171913e-02 -1.98621005e-02 -2.57013701e-02 2.63378117e-02 2.90112849e-02 -2.59467401e-02 4.98233968e-03 -1.56910121e-02 1.36236157e-02 9.22348723e-03 2.26130728e-02 3.73629737e-03 2.01322101e-02 -5.00119617e-03 1.75991710e-02 2.00645104e-02 2.62311026e-02 2.91485135e-02 -1.67582817e-02 2.03471631e-03 -6.73682010e-03 -2.33694632e-02 2.10901443e-02 6.21743686e-03 6.20884448e-03 1.12262554e-02 -2.19966993e-02 -2.35726330e-02 -2.55345348e-02 1.08123720e-02 5.21995174e-03 2.60453001e-02 -6.21250691e-03 2.19599921e-02 2.00141780e-02 1.07344920e-02 -1.64595917e-02 2.13829391e-02 2.33982392e-02 -3.61048174e-03 1.72873735e-02 -7.75117287e-03 -2.14674808e-02 2.02407409e-02 -2.52508409e-02 -2.72286381e-03
-1.73652917e-02 -5.22565935e-03 1.99279655e-02 -8.83584935e-03 -4.41460498e-03 1.33374594e-02 2.53078900e-03 -6.47968613e-03 7.68701872e-03 -7.71504035e-03 1.24125453e-02 1.26996180e-02 -6.24207966e-03 -2.24823761e-03 2.78941379e-03 -1.64813995e-02 1.23183513e-02 -2.80634617e-04 -8.31131823e-03 5.41617023e-03 4.17039404e-03 -5.71556669e-03 -4.42370540e-03 -3.23418155e-03 1.51176229e-02 1.75081193e-02 -4.76759300e-03 -5.13686612e-03 1.01781888e-02 1.05584622e-03 -2.55309045e-04 1.91221992e-03 -2.24771537e-02 -1.17072109e-02 2.39365338e-03 -1.07288295e-02 2.69451295e-03 1.39903743e-02 1.04747424e-02 -2.26477301e-03 7.31174694e-03 2.69887212e-04 -3.79510596e-03 1.02199074e-02 1.04838342e-03 1.41029460e-02 2.92228023e-03 -2.25580949e-03 1.71941500e-02 -1.17570022e-02 -1.00278044e-02 -1.31554045e-02 -1.11078825e-02 -1.39648700e-02 1.22465678e-02 1.10367790e-03 1.60205737e-02 -3.15997913e-03 1.10227847e-02 1.53446812e-02 1.44047663e-02 -6.96825003e-03 -1.75182652e-02 4.77412809e-03 -9.20528173e-03 3.76554183e-03 1.75937712e-02 -8.31927755e-04 2.04721484e-02 -1.86975095e-02 -7.42954714e-03 -1.02007727e-03 -1.03619590e-03 -1.92106534e-02 -1.34244896e-02 -2.27934290e-02 5.08212578e-03 1.37213031e-02 1.19701969e-02 2.47558840e-02 -1.36707371e-04 9.64676216e-03 -3.40114348e-03 1.24768354e-03 -3.39971040e-03 -1.05664344e-03 -8.29399377e-03 -2.78409279e-04 -1.71889067e-02 -1.71968201e-03 1.39480401e-02 4.72577085e-04 3.37918126e-03 1.81518961e-03 -1.61198229e-02 1.24470354e-03 -8.91948864e-03 2.30298334e-04 7.09439255e-03 1.06949955e-02 8.30076542e-03 1.64716616e-02 2.53989943e-03 1.21300554e-05 1.99582465e-02 1.54867545e-02 -2.67949398e-03 -2.19789892e-03 -1.38016501e-02 7.76444608e-03 1.71645582e-02 -4.61482024e-03 1.07903136e-02 -3.76417837e-03 1.78121477e-02 6.78705471e-03 1.38397850e-02 -1.04834801e-02 7.43743265e-03 2.14128895e-03 -8.73010233e-03 8.23754072e-03 2.21298318e-02 -1.26221897e-02 -2.14744173e-03 1.16824340e-02 -3.89921875e-03 4.19450598e-03 2.32778564e-02 -3.67944967e-03 -2.05073692e-03 -1.10223256e-02 4.90498450e-03 -3.09716025e-03 8.81263334e-03 1.58826765e-02 -1.51627278e-02 4.29946557e-03 1.85828768e-02 1.40495459e-02 -3.04551004e-03 -8.21615197e-03 -1.22426292e-02 2.44714003e-02 -2.75045889e-03 1.18446490e-02 -2.40607606e-03 4.86737955e-03 3.11504758e-04 3.75674572e-03 1.15666362e-02 5.58418222e-03 1.38019293e-03 -5.94904413e-03 1.16596203e-02 5.54784434e-03 1.17206676e-02 1.54413683e-02 2.05752370e-03 -1.37363235e-02 8.26331205e-04 3.13192606e-03 1.32786587e-03 6.08946197e-03 8.67474917e-03 -2.49784230e-03 1.53495336e-03 3.95838311e-03 6.86501013e-03 6.86107017e-03 1.44173822e-03 -1.91984847e-02 -7.83071679e-04 -7.25271413e-03 1.25182290e-02 -2.43799258e-02 -8.90758354e-03 1.60657661e-03 1.45616988e-02 3.49484663e-03 4.98704519e-03 -3.01496970e-04 -2.79605924e-03 7.28541939e-03 -6.82989089e-03 9.66142118e-03 2.86109140e-03 -5.61450142e-03 1.69913971e-03 -1.06475232e-02 7.88735878e-03 1.31117329e-02 -2.09728312e-02 -1.27326427e-02 2.72491928e-02 -1.12426616e-02 4.45709145e-03 -1.10882903e-02 2.30567083e-02 4.05848987e-04 -1.22341141e-02 -3.73158813e-03 -9.73206479e-03 2.39408910e-02 1.26154786e-02 -7.75706209e-03 1.20668225e-02 -2.13685958e-03 -9.95175727e-03 -1.44853704e-02 -1.21128885e-02 -1.44682836e-03 -1.01510528e-02 -4.46163770e-03 1.98068097e-02 -1.01069864e-02 4.89243446e-03 3.14067292e-04 2.84726382e-03 9.51679796e-03 1.32567687e-02 -6.13884022e-03 1.28489910e-02 -1.50641790e-02 -4.62034391e-03 1.13101508e-02 6.96946960e-03 2.42409389e-02 -1.24924472e-02 -7.44820898e-03 -2.45103817e-02 -5.97764319e-03 6.55340217e-03 1.33600330e-03 1.58152133e-02 -1.29320531e-03 7.68803351e-04 -1.13033187e-02 -3.10289543e-05 1.14815887e-02 -3.01663647e-04 -3.67135182e-03 -1.18004123e-03 -1.47375336e-03 3.78445978e-03 -1.23581681e-02 -7.74469634e-04 -1.67965947e-03 1.51659856e-02 1.87044870e-03 2.64928900e-02 -1.96875678e-03 -2.30658129e-02 8.64966121e-03 -9.99638578e-04 -1.84720114e-03
-1.70136336e-02 -1.03145391e-02 1.00295972e-02 3.47578758e-03 -1.04495129e-02 1.13925934e-02 8.21966387e-04 2.51566339e-03 2.02720240e-03 -4.86105355e-03 -1.39471516e-03 6.13007229e-04 -3.84056126e-04 -6.47627795e-03 -1.04047395e-02 -4.50779777e-03 1.54126892e-02 1.44991213e-02 2.30317656e-03 1.03558591e-02 1.24590220e-02 -9.57290828e-03 -5.45680407e-04 4.27580671e-03 1.06604230e-02 -8.41337629e-03 3.86854378e-03 3.55433277e-03 1.39061995e-02 7.46180955e-03 -7.83468783e-03 1.17450226e-02 -6.85402844e-03 -1.89041123e-02 -1.46828964e-02 -6.86865719e-03 -4.30107908e-03 8.32368340e-03 2.32295189e-02 3.45164863e-03 1.31618720e-03 -4.70180856e-03 1.58866215e-03 -3.67732765e-03 -4.60732449e-03 -1.24476687e-03 5.28920908e-03 7.79517787e-03 1.18345506e-02 -5.69584593e-03 4.51050611e-04 9.19220838e-05 3.68725695e-03 -1.25103043e-02 2.00886931e-03 -8.52762349e-03 -2.05380740e-04 -1.72232985e-02 4.28276043e-03 4.22921730e-03 3.42554366e-03 -9.88185592e-03 1.83405369e-04 4.56356583e-03 1.27095431e-02 -8.01789633e-04 8.05755705e-03 6.97318604e-03 8.45006853e-03 5.65188797e-03 -1.37693761e-02 1.00798171e-03 -4.03541420e-03 -2.80422298e-03 3.39352828e-03 -1.51278451e-02 4.41449229e-03 -3.67506850e-03 9.94575117e-03 -5.37858438e-03 1.44446464e-02 -1.94195453e-02 -1.19317500e-02 -1.42470421e-02 -2.71832407e-03 2.67881248e-03 1.21858530e-02 9.32965369e-04 -1.14416126e-02 -8.87038000e-03 1.41962869e-02 -1.54876581e-03 1.35440929e-02 1.36349667e-02 1.03038261e-02 5.05196070e-03 -5.35163423e-03 5.28691150e-03 1.76177379e-02 9.25560389e-03 -4.77490854e-03 2.34838715e-03 -5.70462737e-03 -1.40325939e-02 1.35954665e-02 -4.81702900e-03 3.20899556e-03 7.96041079e-03 1.09263761e-02 -6.01424428e-04 2.88640009e-03 1.95853732e-04 -5.50288800e-03 -1.91976340e-03 3.03897163e-04 9.96235572e-03 5.55396592e-03 -3.07320105e-03 -7.43896226e-06 -8.88668059e-04 -8.97697057e-04 1.15763014e-02 -5.19143138e-03 -1.53115019e-02 -1.10758953e-02 -3.96230724e-03 -1.59644650e-03 -1.11950366e-02 -6.28474460e-04 4.05523600e-03 3.21513228e-03 -3.00318963e-04 -2.69582658e-03 -5.13628079e-03 2.01375689e-03 2.01335158e-02 -2.10538153e-02 -1.12575910e-03 -8.58897064e-03 1.53820273e-02 1.19486405e-02 -2.48916284e-03 7.63854571e-03 1.58435013e-02 -3.62763577e-03 -5.25185233e-03 2.76634400e-03 2.86807842e-03 -2.23630620e-03 7.96359219e-03 4.90339333e-03 -1.32823000e-02 9.14236810e-03 1.85550619e-02 8.97712132e-04 2.06214674e-02 -1.38432970e-02 2.01385710e-02 1.49430311e-03 7.11302273e-03 6.19105436e-03 -1.61506776e-02 -3.34234210e-03 -2.97980779e-03 -1.01980288e-02 5.92943281e-03 1.35433702e-02 -1.41038401e-02 6.01473078e-03 -2.12908257e-03 1.35674616e-02 -4.06815391e-03 -4.36009187e-03 -1.84832457e-02 1.75866485e-02 -5.59220742e-03 -7.17719458e-03 7.57136941e-03 3.30696977e-03 -5.18385321e-03 -9.71996505e-03 6.97554089e-03 1.61810196e-03 1.49361407e-02 -5.71287842e-03 -1.21296300e-02 -2.66431976e-04 -1.09958157e-04 -4.61868523e-03 2.98508583e-03 7.33971503e-03 1.21445814e-02 -7.79183814e-03 -1.76520906e-02 1.51139926e-02 -1.78912617e-02 1.44008547e-03 3.16081732e-03 1.76389795e-02 2.40338291e-03 7.49017997e-03 -1.72479959e-05 -3.58968391e-03 2.54185647e-02 1.19953537e-02 2.25632288e-03 2.88702478e-03 -3.56754288e-03 -3.45365005e-03 -9.04611964e-03 -1.69097148e-02 -1.18081458e-02 -1.14324922e-02 1.67581090e-03 1.43739302e-02 -1.19547965e-02 8.77926312e-03 -2.15949249e-02 9.65629332e-03 5.79631329e-03 -1.10234127e-04 -1.12181911e-02 -8.26517213e-03 3.15169757e-03 7.12282676e-03 1.09968530e-02 4.35341557e-04 1.08804442e-02 -8.68064538e-03 1.54520217e-02 -8.43741640e-04 -8.97793006e-03 -2.45500542e-03 3.28070391e-03 1.61784105e-02 -6.13298733e-03 -9.05258395e-03 3.66742257e-03 -1.08649852e-02 2.20679268e-02 -1.32721392e-02 -3.32215172e-03 -2.86614010e-03 9.79930349e-03 -8.27519572e-04 -7.80669414e-03 -8.93374719e-03 3.12094716e-03 -3.32693197e-03 -1.72022060e-02 1.27948020e-02 5.35457768e-03 4.22459422e-03 8.95151682e-03 -1.38850231e-02 -1.17829712e-02
-8.30832683e-03 -2.61419863e-02 1.46635836e-02 -2.29925141e-02 -2.24322807e-02 1.27631249e-02 1.94136482e-02 -2.89157312e-02 -1.85898412e-02 -2.46000849e-02 1.90811360e-03 1.14812562e-02 -6.44018501e-03 1.30261714e-02 -1.33814448e-02 -6.45286683e-03 -1.53244138e-02 1.69421006e-02 -2.45890161e-03 -2.45335337e-04 2.02966947e-03 1.75386071e-02 -2.87343794e-03 1.93801224e-02 9.73035768e-03 1.89257003e-02 -1.70498881e-02 1.40092545e-03 8.21377710e-03 -1.38048027e-02 -1.70279518e-02 1.63568947e-02 -2.00477354e-02 -1.76292937e-02 -1.41860023e-02 -2.05579475e-02 -2.57946998e-02 1.10616814e-02 2.25540511e-02 -2.38272101e-02 8.47527385e-03 1.73626859e-02 -5.76809328e-03 -1.20585598e-02 2.46610213e-02 7.93895125e-03 2.55782548e-02 6.62008487e-03 2.03903168e-02 -1.47927832e-02 -1.07014431e-02 -1.06766028e-02 1.19097775e-03 -2.03891397e-02 1.39072565e-02 -6.43443607e-04 2.07006764e-02 -1.16672739e-02 2.89705992e-02 1.10874120e-02 1.69388987e-02 -2.24823430e-02 -2.44615208e-02 1.46876294e-02 -4.38441988e-03 7.96850771e-04 -4.10358468e-03 -3.48568941e-03 1.25948330e-02 -3.00922478e-03 -2.63853595e-02 1.82514098e-02 -1.90890264e-02 -1.15256216e-02 -8.94266274e-03 -2.14218926e-02 7.63317244e-03 1.98901799e-02 1.31221917e-02 1.36992317e-02 8.88903253e-03 -1.17783314e-02 -8.50390550e-03 -3.80271161e-03 -7.53494771e-03 8.26159492e-03 -1.50478296e-02 -2.23244587e-03 -1.34463077e-02 -3.16105820e-02 2.52945535e-02 -1.78439114e-02 -1.72762871e-02 -1.36984587e-02 -8.71064374e-04 1.70838088e-02 -1.67794377e-02 1.55205652e-02 1.27762612e-02 1.18359812e-02 1.45896263e-02 6.57400675e-03 1.43994251e-03 -1.05484603e-02 1.55958608e-02 1.62959602e-02 1.98817011e-02 2.36900263e-02 -9.91906319e-03 8.86289123e-03 2.10257829e-03 -1.72304679e-02 2.17729155e-02 -2.90135155e-03 2.11672820e-02 2.17475649e-02 7.12442258e-03 9.59881209e-03 1.46093853e-02 7.69574940e-03 3.68831307e-03 1.46262096e-02 2.11370122e-02 -2.09823940e-02 -9.12597869e-03 2.22306456e-02 -1.16777141e-02 -1.91045329e-02 2.34828051e-03 -2.64440551e-02 1.61917731e-02 -1.69596858e-02 5.43115288e-03 -2.34938767e-02 1.16374688e-02 1.31364055e-02 -5.24094375e-03 9.28723998e-03 2.33159475e-02 1.76567137e-02 1.42921098e-02 -1.51526472e-02 -8.28597602e-03 1.49558960e-02 -1.67915970e-02 1.50755644e-02 1.36338435e-02 -1.22060943e-02 1.02288704e-02 1.73140783e-02 1.31170778e-02 8.01106170e-03 -2.16900487e-04 1.48140304e-02 7.17224320e-03 1.75693501e-02 9.71715432e-03 1.65562369e-02 8.73040501e-03 -1.39555745e-02 1.88328288e-02 1.16777001e-02 4.27638181e-03 1.10281603e-02 1.55111505e-02 -1.53483488e-02 1.01274473e-03 1.78758930e-02 1.99662372e-02 1.21932179e-02 2.00835150e-02 -1.16741657e-02 -2.09472924e-02 -1.57446973e-02 1.88674051e-02 -2.71670166e-02 -4.66726953e-03 2.29032729e-02 1.06871407e-02 2.10871408e-03 -1.49158956e-02 -4.10898123e-03 4.03131964e-03 -1.85934585e-02 -1.21908784e-02 1.49350930e-02 -1.16644651e-02 2.15628892e-02 -9.12406947e-03 1.82629132e-03 8.84202681e-03 -7.02449237e-04 -5.53690782e-03 -1.93633325e-02 1.44794881e-02 -5.74673992e-03 2.94930264e-02 -9.56478156e-03 1.46303400e-02 2.37449966e-02 -1.49856014e-02 1.86435003e-02 -6.60280092e-03 2.16659717e-02 9.41965170e-03 -7.41375284e-03 -6.80679269e-03 -1.24238525e-02 -2.53344905e-02 -1.01410644e-02 -1.69460867e-02 -2.34528612e-02 -9.54161119e-03 2.62935925e-02 2.09143236e-02 -2.31601112e-02 2.00165343e-02 -9.67446994e-03 1.80376153e-02 8.01530492e-04 1.44663649e-02 8.84875003e-03 8.99718702e-03 -1.85035653e-02 8.78362730e-03 2.62253881e-02 2.31179222e-03 9.40507371e-03 -4.96725598e-03 2.51648333e-02 -1.86743774e-02 -5.19534620e-03 1.18718026e-02 1.77338347e-02 2.12058984e-02 8.48491117e-03 -2.62770336e-02 -1.44736217e-02 -2.87115779e-02 1.24759115e-02 1.18651958e-02 -1.18472881e-03 -2.64862347e-02 7.88810104e-03 8.15076381e-03 4.44323383e-03 -2.12801322e-02 2.15334110e-02 2.62971409e-02 -2.80648042e-02 1.37092881e-02 -2.12596264e-02 -1.59765948e-02 1.01088649e-02 -2.71674134e-02 -2.66718697e-02
