-1.75138395e-02 -2.11321167e-03 1.41983833e-02 -1.99131295e-02 -6.83506392e-03 1.42486552e-02 2.68258434e-02 -1.64456444e-03 -3.48639232e-03 -7.26174703e-03 9.93148983e-03 5.74011821e-03 -1.03488937e-02 5.18981693e-03 -1.47531545e-02 -1.73531305e-02 -3.54966358e-03 5.84124122e-03 1.69134431e-03 -7.58657185e-03 -1.98082603e-03 8.22074711e-03 -3.50683648e-03 1.44748921e-02 -2.75325705e-03 1.65828019e-02 -1.44993477e-02 9.56237502e-03 3.76345823e-03 -1.30163794e-02 -1.16355466e-02 3.91855463e-03 -2.00239941e-02 -2.54347809e-02 -3.85638792e-04 -3.39434785e-03 -6.31318660e-03 5.06704068e-03 2.90414914e-02 -1.65000297e-02 1.08443871e-02 1.94666665e-02 -7.12052127e-03 -1.80988479e-03 7.20808457e-04 5.82906231e-03 7.20075564e-03 1.86771210e-02 1.36513021e-02 -1.43145053e-02 -2.24305037e-03 -6.95091300e-03 -1.53164277e-02 5.11298003e-03 1.41746001e-02 6.83920877e-03 2.07713526e-02 -1.81924328e-02 1.52799096e-02 2.23051552e-02 2.54162755e-02 -9.10602976e-03 -2.07999144e-02 1.71589311e-02 -2.94859009e-03 -4.00534738e-03 1.85820786e-03 -1.18225859e-02 3.85895162e-03 -1.71841048e-02 -1.04835704e-02 -1.26325767e-02 -6.14821166e-03 -1.62614286e-02 -1.27263563e-02 -2.38849428e-02 5.25927451e-03 1.80115402e-02 5.72814839e-03 2.50103734e-02 1.20139318e-02 5.91801899e-03 -1.18780846e-03 2.02462915e-03 8.20884539e-04 2.78950762e-03 -1.52579835e-02 -1.59664638e-02 1.84005010e-03 4.13423264e-03 7.02681066e-03 -1.68915931e-02 5.66013856e-03 4.63628862e-03 -7.06989958e-04 5.56292338e-03 -2.13185931e-03 8.69435351e-03 1.23561248e-02 1.23511311e-02 9.84359998e-03 -5.90844953e-04 8.63367040e-03 -1.31136458e-02 7.95760565e-03 1.30402865e-02 -4.70429379e-03 7.39329727e-03 -1.64641086e-02 -2.64835358e-03 1.23234997e-02 -4.76000737e-03 1.35999396e-02 4.34540864e-03 -1.60071254e-03 1.69951643e-03 2.15062723e-02 1.19541036e-02 2.24458538e-02 4.76692896e-03 -1.73113367e-03 7.26950960e-03 1.46217849e-02 -5.79471281e-03 -3.51765635e-03 1.00889588e-02 -1.88265350e-02 -9.45796631e-03 5.28114196e-03 -2.10751127e-02 -1.81132322e-03 -1.39772082e-02 1.03482581e-03 -1.10387569e-02 1.34828640e-02 2.06820518e-02 -1.86494086e-02 2.18038969e-02 2.08583381e-02 9.38528497e-03 6.36640331e-03 -1.50405318e-02 -1.58250015e-02 2.32428685e-02 4.03551618e-03 -4.69847955e-03 -2.51922873e-03 1.58154100e-04 1.05631864e-02 1.92820728e-02 1.40403248e-02 -8.03313870e-03 -5.75179874e-04 -6.36164611e-03 6.75844401e-03 1.01375058e-02 5.93969738e-03 2.25700866e-02 3.29791475e-03 -2.77319015e-03 -6.56576303e-04 -2.17727944e-03 1.36324130e-02 6.76660798e-03 9.59500670e-03 -3.86428041e-03 -1.33771813e-02 1.12473611e-02 1.16751119e-02 1.09607596e-02 2.48186830e-02 -6.71450282e-03 -3.91517766e-03 -5.31074638e-03 1.91956218e-02 -7.66083086e-03 -6.03968138e-03 5.56479814e-03 -4.76330426e-03 1.48596186e-02 8.56862124e-03 2.11984525e-03 -1.20997960e-02 2.95504637e-04 -4.92972089e-03 -3.72634293e-03 1.43450010e-03 3.07599269e-03 -4.24595596e-03 -1.65971136e-03 -1.14887895e-03 7.32560223e-03 -1.27680991e-02 -9.08123795e-03 2.67754048e-02 -2.03068629e-02 1.59776695e-02 -1.02817863e-02 2.53094994e-02 3.37728765e-03 -1.02508711e-02 1.42699964e-02 -1.39701068e-02 1.88956074e-02 1.26775242e-02 2.68512871e-03 4.50517004e-03 -1.51649155e-02 -1.87325273e-02 -1.94037296e-02 -1.23885479e-02 -1.10283187e-02 -1.50809335e-02 1.45930620e-02 5.15049091e-03 -2.13894453e-02 1.55537026e-02 -1.71562086e-03 8.25233478e-03 1.41627155e-02 1.98372584e-02 1.20155122e-02 2.73165642e-03 -1.31961908e-02 -9.48818692e-04 8.26523639e-03 2.00233404e-02 1.61107350e-02 -1.48769086e-02 1.27605638e-02 -4.25041746e-03 -1.42633496e-02 1.47349034e-02 2.28708261e-03 7.90453609e-03 6.99061994e-03 -4.24406957e-03 -1.83008555e-02 -4.67413384e-03 2.88804136e-02 -1.50095194e-03 3.73025867e-03 -1.82816200e-02 -6.50971150e-03 5.87066775e-03 1.07230218e-02 9.09572560e-03 6.62503811e-03 9.38394107e-03 1.34458707e-03 1.96492299e-02 -1.86188221e-02 -2.11054031e-02 5.61780669e-03 -1.82838924e-02 -2.53537223e-06
-5.63059840e-03 -3.50335683e-03 1.76614970e-02 -1.72833465e-02 -7.02182995e-03 2.61310730e-02 2.68883873e-02 -7.35109719e-03 -1.31665012e-02 -4.79246676e-03 8.96853954e-03 1.53033878e-03 -1.50056835e-02 1.71467159e-02 5.67303365e-03 -1.11054936e-02 -2.79162708e-03 1.08067188e-02 7.44818803e-03 -7.51487445e-03 -4.81529481e-04 -7.82760512e-03 2.45703908e-04 3.29092774e-03 1.46410556e-03 9.99544282e-03 -8.56909528e-03 4.90681618e-04 1.39958048e-02 -7.34948274e-03 -1.37782935e-02 3.91430175e-03 -2.18581352e-02 -3.48377158e-03 -9.68523044e-03 -1.00383041e-02 -3.57136573e-03 2.56084022e-03 2.22687796e-02 -2.06926931e-02 1.45090353e-02 5.13619371e-03 -1.07463002e-02 -1.23129971e-02 1.65108331e-02 1.10101411e-02 1.29690310e-02 9.93953645e-03 4.21390496e-03 -1.27995219e-02 -5.59253246e-03 -9.41603724e-03 -1.57772172e-02 -1.41078560e-02 1.12782670e-02 8.28676112e-03 2.19984427e-02 -2.25267131e-02 2.35850811e-02 9.24337003e-03 1.80752352e-02 -2.29270738e-02 -7.52849691e-03 2.55101826e-02 4.59677633e-03 1.39669571e-02 -1.85415102e-03 6.37797732e-03 1.60228983e-02 -6.06587762e-03 -2.18066778e-02 5.78841008e-03 1.27583137e-03 -6.03873236e-03 -4.29946417e-03 -3.92749859e-03 1.00884391e-02 7.21199624e-03 5.94693143e-03 2.04276517e-02 4.68077650e-03 -2.31819861e-02 -1.71581563e-03 -1.30395191e-02 -1.84614100e-02 1.68444905e-02 -7.25072809e-03 -1.87404640e-02 -5.22859674e-03 -1.55389477e-02 1.67887732e-02 -1.46672241e-02 1.39949756e-04 -8.77350662e-03 1.04541203e-03 1.99517775e-02 -9.46013816e-03 4.98576462e-03 8.56959820e-03 -3.36003746e-03 5.21310791e-03 1.75261199e-02 4.08571417e-04 2.82331905e-03 -1.56604336e-03 -6.46657171e-03 5.53270802e-03 6.76249852e-03 -1.57641363e-03 -7.36945076e-04 5.58441039e-03 -1.10184848e-02 9.14101489e-03 4.04932769e-03 -1.59326778e-03 -3.59651120e-03 1.48700364e-02 1.83124654e-02 1.35784941e-02 2.10309438e-02 8.47763754e-03 1.68176237e-02 1.25938831e-02 -1.95674337e-02 -1.67129636e-02 6.74961554e-03 7.11924004e-05 -1.35801714e-02 1.11383265e-02 -2.48560496e-03 2.88947718e-04 -1.48933567e-02 2.00565699e-02 -4.76420950e-03 4.92851995e-03 2.27072998e-03 -1.79755129e-02 3.46350978e-04 1.85345230e-03 1.34936888e-02 9.57577769e-03 -1.46739772e-02 -1.77095160e-02 8.09064787e-03 -6.47415873e-03 -5.59517648e-03 8.46256875e-03 -9.58452374e-03 4.40258533e-03 5.90167288e-03 -5.34303114e-03 4.84154886e-03 -5.59039926e-03 9.79109388e-03 2.56748375e-04 1.91632677e-02 -3.57533083e-03 3.88984568e-03 -7.04010855e-03 5.23761846e-03 1.67141426e-02 4.58569964e-03 2.79117376e-03 -6.39423588e-03 8.80133919e-03 -4.38826578e-03 -3.87105253e-03 -7.97847006e-03 1.13237174e-02 1.70677193e-02 2.42217816e-02 -1.00843422e-02 -5.28318528e-03 -9.61240940e-03 8.18668306e-03 -1.19207064e-02 -6.91295648e-03 5.88777894e-03 -2.30109482e-03 5.49122877e-03 4.14946728e-04 -2.09786510e-03 -1.04154395e-02 -5.39354933e-03 -1.11920033e-02 -3.34661035e-03 -8.50124285e-04 1.05148992e-02 1.05218170e-02 -3.89731722e-03 1.45180346e-02 -2.10661558e-03 -1.07069872e-02 -1.03336796e-02 2.38640029e-02 -9.70447529e-03 2.31201835e-02 -2.71589756e-02 2.09219642e-02 2.72079911e-02 -6.32651802e-03 1.04402555e-02 3.36802378e-03 2.30282755e-03 1.27371820e-02 2.68172147e-03 -7.26892846e-03 3.46487621e-03 -1.98219363e-02 -1.14868674e-02 -1.91902053e-02 -2.27453224e-02 -1.51561135e-02 1.79637019e-02 2.39355639e-02 -2.30854540e-03 -2.17564986e-03 -2.76785530e-02 5.88835264e-03 2.17904730e-04 -2.99070816e-04 -5.90093259e-04 7.92096835e-03 -2.09328113e-03 1.78628266e-02 2.22402755e-02 1.04683610e-02 1.66224688e-02 -1.99049786e-02 2.20119357e-02 -1.23774474e-02 -1.79938395e-02 1.44201443e-02 3.01155238e-03 -1.11969991e-03 2.11285595e-02 -7.53190042e-03 -1.17174247e-02 -2.06284747e-02 1.02076773e-02 9.78174619e-03 6.06983528e-03 6.52656949e-04 1.49556659e-02 8.83666240e-03 1.30125303e-02 -4.31959005e-03 1.53302802e-02 1.99030489e-02 -7.57565768e-03 2.99447612e-03 -1.62163489e-02 -2.19533425e-02 8.58618971e-03 -1.57709327e-02 -8.70160386e-03
2.58158017e-02 4.89568487e-02 -2.47674547e-02 2.73756906e-02 6.33534789e-02 -6.66408837e-02 -4.72343564e-02 5.54750748e-02 -2.70871189e-03 4.99907881e-02 -2.86804233e-02 -3.59475948e-02 -2.78173480e-02 2.74202134e-02 -1.40464287e-02 4.46231198e-03 5.06239478e-03 -6.30972013e-02 2.43479293e-02 5.27551100e-02 -5.41969500e-02 -4.10607383e-02 2.01217309e-02 -4.09977213e-02 2.32756906e-03 -3.83037701e-02 1.70303020e-03 2.08467878e-02 2.95755337e-03 1.90370213e-02 4.22399417e-02 1.18193608e-02 1.00944061e-02 -3.08125443e-03 -2.85024550e-02 -1.93263926e-02 -2.12512561e-03 -2.05340912e-03 -5.64546930e-03 -6.57909666e-04 -2.74814498e-02 -1.11300340e-02 1.78351849e-02 -5.59463724e-03 8.62814486e-03 -2.80717015e-02 -2.62703821e-02 -2.56585348e-02 -6.03755265e-02 5.04138656e-02 5.37951924e-02 5.62213026e-02 3.40010412e-02 7.03412220e-02 -7.17713917e-03 7.87905753e-02 -4.47201803e-02 4.09290232e-02 -3.55833508e-02 -2.92591993e-02 -2.43328400e-02 4.83106114e-02 4.02709059e-02 -5.57079390e-02 -2.12668069e-03 -2.73364391e-02 4.73642610e-02 3.90135609e-02 -1.88686233e-02 2.86319479e-02 3.35684381e-02 3.45408656e-02 -1.38959676e-01 -7.46055916e-02 -1.40499189e-01 -9.36451778e-02 1.37097806e-01 4.15027477e-02 1.25622153e-01 6.51233494e-02 -3.95382047e-02 1.10802671e-03 1.55859590e-02 2.88564283e-02 2.39246767e-02 -2.02624351e-02 -1.49527844e-02 2.03562099e-02 -3.74870189e-02 -1.73593108e-02 9.45337117e-02 1.62292905e-02 -1.46466168e-03 -4.59175184e-03 1.86525192e-02 -3.56822014e-02 -2.76843682e-02 6.50762673e-03 -2.66095307e-02 -7.81825650e-03 1.96676087e-02 -9.84699698e-04 5.25472537e-02 -1.50956800e-02 -4.94285896e-02 3.27862846e-03 2.07303036e-02 1.42472796e-02 1.24659929e-02 7.48973899e-03 -2.13409122e-02 3.42693292e-02 -1.64415035e-03 -4.78717610e-02 -4.46208986e-03 -4.02163016e-03 -5.02564497e-02 3.06773912e-02 -2.44868696e-02 -4.21710359e-03 -7.06838351e-03 1.32263759e-02 -1.71141941e-02 5.80581510e-03 -2.60044523e-02 8.22346658e-03 1.03644896e-02 -9.34021641e-03 1.64980423e-02 -4.64250939e-03 6.13350272e-02 -1.71366986e-02 2.32507177e-02 -1.69369485e-02 -3.53308453e-04 9.33077838e-03 -8.26509763e-03 8.71000215e-02 8.58674422e-02 1.68278337e-01 7.15133175e-02 -4.78392653e-02 -1.03951328e-01 1.00384215e-02 1.08870827e-02 -5.65386843e-04 2.43711192e-03 -5.45920730e-02 5.73966466e-03 -4.29567099e-02 2.00585034e-02 3.92555222e-02 2.34466624e-02 -4.58836183e-02 -4.82865050e-02 3.71066126e-04 -4.05014120e-02 -2.64207199e-02 -2.65094843e-02 1.38310539e-02 9.82292090e-03 3.06127407e-02 -6.06918707e-03 5.40100522e-02 2.96855308e-02 -8.81532952e-03 -2.45646611e-02 2.25917660e-02 5.77291148e-03 1.43208141e-02 2.72547863e-02 -3.47532406e-02 -2.83909459e-02 -2.71865912e-02 2.00580689e-03 -7.11344881e-03 2.80229561e-03 -2.05874369e-02 4.14254032e-02 -3.84863280e-03 -1.62271422e-03 5.05044237e-02 7.08069932e-03 4.78787627e-03 2.38407031e-02 -1.38574429e-02 3.85279767e-02 -2.59905327e-02 -3.27077173e-02 6.62310340e-04 -5.84559329e-02 -4.56765816e-02 1.76618667e-03 -1.97260957e-02 -1.66455138e-04 -1.37244808e-02 -4.22032513e-02 -1.79596730e-02 8.34518299e-03 -1.75237153e-02 1.70623194e-02 -2.77086068e-03 2.38021407e-02 -4.88852672e-02 -6.10117763e-02 -2.00912282e-02 -2.01175008e-02 5.87835796e-02 -5.49863689e-02 -9.38968267e-03 -2.80364137e-02 -4.42948602e-02 -1.26262503e-02 5.17403632e-02 1.53927854e-03 -2.06327215e-02 -3.10957786e-02 2.70071905e-02 -1.10475952e-02 -3.06909140e-02 -3.08683719e-02 4.79513556e-02 -3.80659141e-02 -3.47744091e-03 8.37160125e-02 2.06955746e-02 1.06663048e-01 2.24729963e-02 -1.71988457e-01 1.54209584e-01 -1.57920755e-02 -4.86724488e-02 -2.13966519e-02 1.04316790e-03 -2.26126481e-02 -9.47552733e-03 -4.14009701e-04 -4.90379985e-04 -7.09599489e-03 -1.38203790e-02 4.48167585e-02 -2.71617272e-03 5.01312595e-03 2.18017977e-02 -5.49636558e-02 4.62483652e-02 -3.55811827e-02 -2.07058731e-02 8.08804110e-03 -2.58199666e-02 -2.17774231e-02 -2.81079169e-02 -3.98850674e-03 -1.79995988e-02 -5.92776164e-02 -6.75898269e-02
-1.55458478e-02 -2.03184616e-02 2.45786589e-02 -2.49657016e-02 -1.68101061e-02 2.24593263e-02 2.14397740e-02 -2.61396877e-02 -9.12668556e-03 -2.42235623e-02 1.12811020e-02 1.88713316e-02 -2.01929566e-02 6.12297142e-03 -2.18540281e-02 -1.53804580e-02 -1.12558505e-03 1.34132139e-03 -1.34608224e-02 -1.17245922e-02 2.00171042e-02 1.23495292e-02 -1.33506292e-02 -4.07698425e-03 4.88877762e-03 1.64176859e-02 -2.24230532e-02 1.65141188e-02 1.31783150e-02 -1.85210984e-02 -3.22143734e-03 1.74998734e-02 -9.27488133e-03 -2.22820602e-02 -2.33244803e-02 -7.90284853e-03 -8.40554759e-03 1.82027780e-02 1.29839182e-02 -2.61789765e-02 2.49624364e-02 2.54901871e-02 -2.52368711e-02 -2.33912170e-02 1.08929174e-02 1.23675754e-02 7.30851572e-03 8.97212513e-03 9.78256110e-03 -3.09273019e-03 -6.90867752e-03 -7.42398063e-03 -1.47578502e-02 -1.20153250e-02 -2.52584298e-03 3.66307143e-03 2.66606547e-02 -2.67984606e-02 2.82448232e-02 2.43474543e-02 2.37274114e-02 -8.20968952e-03 -2.30844244e-02 1.80207118e-02 -5.91218332e-03 7.00114854e-03 1.62835494e-02 -5.30180242e-03 1.97901148e-02 -2.39061881e-02 -1.86014082e-03 -1.13003451e-04 -3.10611702e-03 -1.80771016e-02 -3.53816897e-03 -3.53887794e-03 9.85516328e-03 2.54109362e-03 2.08440386e-02 1.38655873e-02 5.26904268e-03 -1.16515029e-02 -2.16183104e-02 -1.24066807e-02 -5.44077856e-03 -1.22417891e-02 9.45706794e-04 -1.02908099e-02 -4.51303832e-03 -1.94016695e-02 1.55053977e-02 -6.97219465e-03 -2.79166107e-03 -1.52374641e-03 5.28699392e-03 1.68422330e-02 -1.20520387e-02 1.92007199e-02 1.93467662e-02 1.31421129e-03 2.40324046e-02 6.11090614e-03 1.67012345e-02 -2.44044587e-02 1.57492049e-02 2.17315797e-02 1.44888721e-02 1.44982403e-02 -8.77708290e-03 2.04821583e-02 1.32270688e-02 -1.58415735e-02 1.03650149e-02 -2.11118851e-02 2.11137217e-02 1.32129574e-02 1.00579755e-02 2.52657626e-02 2.40801312e-02 7.50250742e-03 2.18137801e-02 7.85047654e-03 1.86190754e-02 -1.32568609e-02 -9.32194944e-03 1.00439433e-02 -5.04919002e-03 -8.14407878e-03 6.07128441e-03 -2.28918460e-03 2.80740224e-02 -1.54507132e-02 1.36780227e-02 -2.32821126e-02 1.25803417e-02 2.31006294e-02 -6.30883453e-03 1.07033337e-02 2.25202949e-03 1.37054613e-02 2.32188441e-02 -1.24011906e-02 -1.94645505e-02 2.69437358e-02 -2.71406001e-03 5.01548033e-03 6.95997663e-03 -2.26269998e-02 -8.55761580e-04 1.95313841e-02 -3.72356875e-03 1.60093922e-02 -3.16999084e-03 1.19760167e-02 1.18825175e-02 1.03808120e-02 2.06963252e-02 2.47681211e-03 1.26224281e-02 -3.16257100e-03 4.39353706e-03 1.05544589e-02 3.27238883e-03 -1.74642238e-03 -4.38833347e-04 -4.28485312e-03 -2.88593164e-03 6.09783456e-03 2.80520078e-02 2.44099963e-02 1.98906660e-02 -1.37172574e-02 -3.02565023e-02 -1.82033349e-02 8.66276585e-03 -2.60986052e-02 -1.29873157e-02 1.83000769e-02 4.05972544e-03 4.06062137e-03 -1.69884730e-02 -1.74147505e-02 1.07887546e-02 -3.17653874e-03 -3.61145358e-03 6.99796481e-03 -8.53543694e-04 1.97178479e-02 3.40282521e-03 1.45747168e-02 6.88127335e-03 2.89611099e-03 -5.74256759e-03 -2.50868425e-02 9.36874002e-03 -5.37310354e-03 7.68557424e-03 -2.07950640e-02 1.32127656e-02 2.59306915e-02 -1.97573821e-03 1.27648731e-04 -1.60783082e-02 1.44512225e-02 1.90291572e-02 -1.30265458e-02 2.16054861e-04 -1.35539407e-02 -1.00258589e-02 -2.25559343e-02 -1.45126386e-02 -1.21054547e-02 -1.40172532e-02 2.55467203e-02 1.75318047e-02 -2.94072367e-03 2.29327027e-02 -1.60523914e-02 1.03715491e-02 2.03728396e-02 1.21939136e-03 -5.25215000e-06 1.29690543e-02 -1.90089177e-02 2.54667774e-02 2.26980355e-02 9.80204903e-03 2.14517042e-02 -1.56049728e-02 8.32305290e-03 -1.23973759e-02 -4.39880928e-03 9.12354235e-03 2.46433355e-02 3.73643613e-03 2.06399243e-02 -1.18003283e-02 -1.00661889e-02 -1.27731683e-02 9.24601033e-03 -1.26449740e-03 1.12123471e-02 -3.09543894e-03 9.90870874e-03 -1.30416977e-03 1.67044867e-02 -1.73384156e-02 1.11846086e-02 1.79100931e-02 -2.66020931e-02 3.64021678e-03 -2.69524213e-02 -1.04239825e-02 8.45734682e-03 -8.53618514e-03 -2.29546390e-02
-1.27147222e-02 -1.53739853e-02 6.93845423e-03 -1.91998016e-02 -1.16920359e-02 1.08283674e-02 2.37629153e-02 -7.46181794e-03 -1.08679701e-02 -1.33014051e-02 1.61657035e-02 1.77171826e-02 -1.69586577e-02 1.15766497e-02 -8.40530451e-03 -4.43186099e-03 2.19957277e-04 5.55981277e-03 -1.52265290e-02 -9.69260465e-03 2.04268601e-02 6.59106765e-03 -1.07184248e-02 6.29654294e-03 2.07125191e-02 7.85450265e-03 -5.82577242e-03 7.91979395e-03 1.47649944e-02 -1.01730868e-03 -1.63804945e-02 1.18260197e-02 -1.54429544e-02 -2.56481636e-02 -2.49151196e-02 -2.00075768e-02 -8.54372699e-03 8.06573406e-03 1.77607797e-02 -2.08051410e-02 2.50300206e-02 1.77007727e-02 -8.19918141e-03 -5.27920248e-03 9.34010744e-03 1.93523206e-02 9.94941499e-03 3.18018836e-03 8.69234186e-03 -1.35299601e-02 -1.07566314e-02 1.64787009e-04 -9.13691986e-03 -1.74894594e-02 7.13298051e-03 1.51053816e-02 1.81701146e-02 -1.50981843e-02 2.56618410e-02 1.45264454e-02 2.20148209e-02 -1.85334627e-02 -2.62288339e-02 1.37883723e-02 -1.13524552e-02 8.64748005e-03 1.48441382e-02 1.22197578e-02 6.50749571e-05 -1.20603824e-02 -1.47029338e-02 1.52551848e-02 -1.31653668e-02 -2.17116550e-02 -8.98179132e-03 -4.19684639e-03 2.36525740e-02 2.16931999e-02 2.23943610e-02 5.51164290e-03 4.94631566e-03 -1.70297716e-02 -1.91518664e-02 -2.22321716e-03 -1.15294391e-02 -7.90654495e-03 -2.03971826e-02 -2.51542870e-02 -5.96961891e-03 -1.94388460e-02 4.20130230e-03 -1.02668197e-03 -1.64958760e-02 9.52349394e-04 8.93750403e-04 1.69581417e-02 -6.79305615e-03 5.28246164e-03 2.27149352e-02 1.21442955e-02 1.14559885e-02 1.70307048e-02 1.45930964e-02 -1.21064121e-02 1.12835374e-02 1.28981909e-02 1.48457149e-02 2.21769251e-02 -9.25294962e-03 1.49197960e-02 1.63609553e-02 -1.59268025e-02 1.36353178e-02 -2.03894172e-02 2.33796742e-02 2.04035398e-02 1.40562952e-02 1.41722010e-02 9.76427644e-03 9.96381417e-03 1.81431454e-02 1.09193698e-02 2.48084939e-03 -1.71226896e-02 -1.75904986e-02 1.00029930e-02 -9.82672442e-03 -5.55444462e-03 1.22931832e-02 -1.55033302e-02 1.66170634e-02 -3.36296204e-03 4.19786852e-03 -1.83810443e-02 1.00272782e-02 2.79739015e-02 -1.01985354e-02 1.79491583e-02 1.73676498e-02 1.07751647e-02 2.07541008e-02 -2.04277039e-02 -7.70864915e-03 6.74820086e-03 -1.25976764e-02 1.19977947e-02 1.73894297e-02 -1.21148322e-02 1.15138693e-02 6.14684168e-03 1.94611009e-02 3.72151402e-03 -9.37096868e-03 2.28142310e-02 1.43115362e-02 1.52751962e-02 8.99609271e-03 2.14295946e-02 2.14678068e-02 -1.85641013e-02 1.89180207e-02 -1.95641350e-03 2.17571203e-03 4.47865017e-03 1.39081450e-02 -8.01266730e-03 -1.96784940e-02 -2.11766339e-04 2.27924846e-02 6.58780988e-03 2.18860097e-02 -1.64043978e-02 -1.38184717e-02 -1.87325925e-02 2.19442658e-02 -1.95933636e-02 -4.52399999e-03 1.98939592e-02 5.83820324e-03 4.77641076e-03 -1.33023355e-02 -1.11472076e-02 1.20684355e-02 -1.04140108e-02 -1.31615531e-02 8.54740385e-03 -2.28489470e-02 9.85663268e-04 -1.11957164e-02 1.67178605e-02 1.39181837e-02 3.82098439e-03 -6.10329118e-03 -8.57351348e-03 1.73139870e-02 -1.36064216e-02 8.82503670e-03 -2.68134251e-02 2.39167530e-02 2.19458342e-02 -1.46178268e-02 1.14530856e-02 -1.83737557e-02 2.33483315e-02 1.10294651e-02 -2.16655098e-02 -2.08771043e-02 -1.45877143e-02 -2.62058508e-02 -2.41060089e-02 -1.89701598e-02 -2.69651636e-02 -1.94218569e-02 2.96069514e-02 2.31057461e-02 -1.59267969e-02 3.83510208e-03 -1.70098525e-02 2.36441940e-02 1.18128890e-02 4.62239701e-03 5.35411574e-03 2.18590405e-02 -7.34864362e-03 2.59497818e-02 2.75994390e-02 2.16163211e-02 1.31782489e-02 -1.95886958e-02 1.96087640e-02 -2.06776913e-02 -1.63549650e-02 2.56707463e-02 3.97877814e-03 1.61377490e-02 2.32552160e-02 -1.82724819e-02 -2.52767205e-02 -1.19314799e-02 2.89441217e-02 1.48099987e-02 8.92368611e-03 -6.08504331e-03 2.30051856e-02 -8.23959522e-03 7.02233345e-04 -1.12062991e-02 9.30784270e-03 1.65447127e-02 -2.47639511e-02 1.34482468e-02 -2.56743357e-02 -1.02855666e-02 1.80353709e-02 -1.85133200e-02 -5.71238808e-03
-6.77795056e-03 7.24542839e-03 2.35989550e-03 -1.20893903e-02 -1.28594507e-02 -7.57939089e-03 8.92970338e-03 -6.96977775e-04 3.66128152e-05 9.06348228e-03 -6.90648221e-06 3.53337917e-03 4.38503502e-03 -7.37984991e-03 8.08405876e-03 -1.08981282e-02 -7.99450465e-03 7.64656952e-03 -5.62730059e-03 -1.17249768e-02 8.90963804e-03 1.22316806e-02 1.22164981e-02 8.07216950e-03 -4.09451080e-04 1.39001571e-02 -2.60507077e-04 1.04042301e-02 -6.28254795e-03 -9.91985295e-03 1.19669805e-03 5.71816182e-03 -1.12532759e-02 -1.50094209e-02 -1.21032838e-02 4.72546602e-03 -1.00894067e-02 -5.25022065e-03 5.32948528e-04 -1.52507722e-02 8.98338482e-03 1.25967618e-02 4.30274755e-03 6.75511640e-03 -2.58628675e-03 2.69421167e-03 8.40141322e-04 -1.07177962e-02 -9.78561770e-03 4.70336480e-03 9.42184962e-03 -2.44997063e-04 -9.07693151e-03 7.82773923e-03 1.33477198e-03 -5.37052145e-03 -3.13167111e-03 -1.45731512e-02 1.04711224e-04 2.76475516e-03 1.03990333e-02 -1.75836775e-02 -1.07733151e-02 8.20172578e-03 -5.98832790e-04 -3.49840475e-03 6.59526931e-03 7.98543543e-03 5.55382250e-03 4.13622288e-03 -1.65009883e-03 2.52333761e-04 -5.82510326e-03 1.23651512e-03 5.69258723e-03 6.20990852e-03 -2.86530214e-03 3.93907353e-03 1.14104524e-02 2.62876321e-03 6.79441867e-03 4.59670834e-03 -3.17452312e-03 -9.94632114e-03 -1.32935690e-02 2.70379032e-03 1.10654428e-03 -1.35688446e-02 3.39945941e-03 -1.28752701e-02 -7.66832521e-03 -1.53242480e-02 -5.80913341e-03 -1.17287575e-03 1.10366791e-02 -2.00053444e-03 3.59596079e-03 -1.84571918e-03 7.98254914e-04 3.88933672e-03 5.24495076e-03 4.38754505e-04 1.00742532e-02 -7.15169869e-03 1.11950794e-02 1.12762759e-02 -7.46615417e-03 7.94192404e-03 -1.94596895e-03 -5.35571271e-05 9.28148068e-03 -9.97791253e-03 9.14290361e-03 1.08727738e-02 1.03281182e-03 -1.14081390e-02 1.49792517e-02 1.80773204e-03 4.13262132e-05 6.16176473e-03 2.20494368e-03 9.56115220e-03 -2.56664702e-03 -3.13139986e-03 -9.08517279e-03 1.19024217e-02 -1.77298440e-03 -7.30032939e-03 1.27720172e-02 -7.51228491e-03 -7.28509808e-03 -2.67188554e-03 5.69735095e-03 3.34310881e-03 9.69117507e-03 -4.78597498e-03 4.43151454e-03 1.21096103e-02 1.34527395e-02 6.68118801e-03 -8.15928914e-03 5.54770976e-03 -9.50006396e-03 -7.16061052e-03 -1.85231853e-03 -9.22495965e-03 -4.70235525e-03 5.03307069e-03 3.25182243e-03 -8.32828786e-03 1.24964332e-02 1.33842966e-02 2.82737863e-04 1.20958723e-02 -8.89541116e-03 6.63305633e-03 1.00342454e-02 7.86157791e-03 1.02567542e-02 1.83925545e-03 1.05129145e-02 -6.04251819e-03 -7.28895701e-03 7.24869408e-03 -7.11066416e-03 3.76033690e-03 -7.56136607e-03 -4.37776884e-03 7.64734577e-03 2.90757068e-03 3.37294699e-03 -8.42396345e-04 -1.83410512e-03 -4.41782875e-03 8.94797221e-03 -1.34932967e-02 -1.68164130e-04 -8.47522635e-03 -5.23762603e-04 1.32505009e-02 -8.95577017e-03 -3.18135414e-03 1.06851279e-04 6.42020581e-03 -4.91652777e-03 5.54151135e-03 -7.26397266e-04 9.18778707e-04 -1.10841384e-02 1.06102368e-03 -2.11575441e-03 -1.19161920e-03 -1.41598089e-02 -1.09742414e-02 1.44807631e-02 -1.23126758e-02 9.47317295e-03 -4.14708117e-03 2.27393466e-03 1.12008359e-02 -7.82964099e-03 -8.32150411e-03 -1.37411372e-03 6.16742438e-03 2.65162275e-03 2.30645324e-04 -1.00517469e-02 -5.43986633e-03 2.93789804e-03 5.46523416e-03 -1.27449166e-02 -8.37218668e-03 -9.26869176e-03 2.37938686e-04 4.22269892e-04 -1.00604165e-02 8.61561578e-03 3.11512407e-03 1.25568612e-02 -9.38944344e-04 4.66441445e-04 9.43394192e-03 1.27453757e-02 2.88261869e-03 -1.89298671e-03 9.68191947e-04 1.44138408e-03 -4.78124060e-03 -9.11402330e-03 1.83612853e-03 -8.57421290e-03 5.21554565e-03 1.12212179e-02 6.00671163e-03 2.86677084e-03 -6.14727964e-04 -9.59542207e-03 5.86708263e-03 -9.61229205e-04 6.81503816e-03 1.24752000e-02 5.93869854e-03 1.44028018e-04 -1.08431363e-02 9.07719042e-03 6.81906240e-04 -7.34867062e-03 -5.34269866e-03 -2.14012666e-03 -6.67059282e-03 -7.48558855e-03 -1.40207857e-02 -1.06365634e-02 1.43328763e-03 -7.71698589e-03 6.83064479e-03
-1.46661364e-02 -2.39764974e-02 9.84876044e-03 -4.39218245e-03 -5.61387558e-03 1.36384759e-02 2.72915363e-02 -1.17683616e-02 -1.19172055e-02 -1.86663568e-02 1.71095394e-02 2.50544548e-02 -1.15910312e-02 3.42143048e-03 -1.02453381e-02 -5.48591837e-03 -2.04491466e-02 -7.10987806e-05 -2.34761816e-02 -1.10689104e-02 1.11870263e-02 1.10089034e-02 -1.55635606e-02 2.21914425e-03 2.02985629e-02 3.28452792e-03 -1.23164495e-02 4.23538918e-03 2.46664099e-02 -1.55769121e-02 -2.10897960e-02 5.97572699e-03 -1.04783457e-02 -2.42521465e-02 -1.07584111e-02 -1.55345192e-02 -2.20496524e-02 8.44624639e-03 1.82476137e-02 -2.18967628e-02 8.58066697e-03 8.32962804e-03 -2.41464116e-02 -2.47821882e-02 2.58343555e-02 1.78358071e-02 2.13594045e-02 3.79835092e-03 1.70901548e-02 -9.52183036e-04 -1.75889134e-02 -2.09838841e-02 -1.52018378e-02 -1.10665252e-02 2.41049752e-03 9.07365605e-03 2.82713566e-02 -1.19585413e-02 2.45346222e-02 4.65905899e-03 2.68102717e-02 -4.39525302e-03 -7.00244727e-03 6.92253327e-03 -1.57314129e-02 2.03514267e-02 7.49784894e-03 4.30180738e-03 1.58129428e-02 -1.09703122e-02 -1.87438186e-02 1.45352036e-02 -3.34476843e-03 -1.33070154e-02 -5.91633003e-03 -3.20193009e-03 2.67162151e-03 8.65770224e-03 2.50500273e-02 1.05751064e-02 1.37922717e-02 -1.55342603e-02 -1.61051508e-02 -1.57859400e-02 -1.42936474e-02 1.20675936e-02 -1.85311902e-02 -1.27939600e-02 -1.98795926e-02 -1.82866678e-02 1.11353192e-02 -9.49706323e-03 -7.38817127e-03 -1.93748642e-02 -2.61808536e-03 6.18938543e-03 -4.76591103e-03 1.06899748e-02 3.79801448e-03 2.96367612e-03 1.58608109e-02 1.29455663e-02 1.10067753e-02 -1.08827036e-02 2.24287380e-02 1.39243407e-02 1.54128326e-02 2.10925061e-02 -1.28883477e-02 1.66748576e-02 9.34173074e-03 -1.97140109e-02 2.63475925e-02 -1.26709901e-02 1.99913271e-02 1.22324070e-02 5.86655643e-03 4.93518915e-03 6.02422561e-03 7.42740743e-03 1.56180654e-02 1.60737541e-02 1.82415247e-02 -4.51451773e-03 -2.24532634e-02 1.33382864e-02 -1.82503313e-02 -9.98384692e-03 2.26932094e-02 -1.71541329e-02 1.30157871e-02 -2.09478159e-02 1.98860113e-02 -2.12362781e-02 1.71621721e-02 9.80832521e-03 -4.20915149e-03 1.27640264e-02 2.15697344e-02 1.89353190e-02 1.38349459e-02 -1.58574246e-02 -2.19419487e-02 8.20525456e-03 -1.33563895e-02 7.24579627e-03 2.28866450e-02 -5.38587617e-03 7.56604224e-03 6.53988821e-03 2.20323764e-02 4.84508742e-03 -5.33994427e-03 1.28522255e-02 1.66348107e-02 9.36360471e-03 2.46866010e-02 2.34773010e-02 9.85549483e-03 -1.68635584e-02 1.86617929e-03 1.86158456e-02 1.81411940e-03 4.48440481e-03 9.98828094e-03 -2.00737603e-02 -1.91498958e-02 6.28737267e-03 2.16116514e-02 9.55428556e-03 9.88245383e-03 -2.79215686e-02 -2.26813238e-02 -2.01063063e-02 2.03742366e-02 -1.79433729e-02 -1.92389619e-02 6.52371440e-03 1.86960697e-02 1.68360323e-02 -2.47898642e-02 -1.01576699e-03 6.14574412e-03 -1.69522502e-02 -2.28167940e-02 2.38799285e-02 -1.64291484e-03 2.40872242e-02 -2.42291987e-02 2.09859572e-02 1.70788951e-02 7.05955410e-03 -1.95556972e-02 -4.52451827e-03 5.64048951e-03 -2.03328393e-02 2.09376942e-02 -8.10692552e-03 2.20828857e-02 2.01048814e-02 -2.80788285e-03 3.47220059e-03 -6.16127439e-03 1.11461859e-02 2.36025993e-02 -1.13660693e-02 -3.44835781e-03 -1.74474996e-02 -2.41960604e-02 -5.83841559e-03 -1.01312464e-02 -2.46809889e-02 -2.22824048e-02 1.76034253e-02 2.43369322e-02 -2.55220011e-02 2.06584595e-02 -2.52740216e-02 1.01860715e-02 1.51449554e-02 1.85568463e-02 9.32942238e-03 3.61309596e-03 -1.61768049e-02 6.30430738e-03 2.44519990e-02 2.19935700e-02 8.87505896e-03 -2.54691411e-02 1.67453140e-02 -5.65083232e-03 -7.89503194e-03 1.81274004e-02 5.00357989e-03 9.74179991e-03 2.42078174e-02 -1.12138139e-02 -2.42685545e-02 -1.89930890e-02 1.90520426e-03 1.56621821e-02 9.26219206e-03 -1.22774206e-02 1.11449817e-02 1.92692056e-02 1.91036556e-02 -1.89569884e-03 1.07674375e-02 1.62857454e-02 -7.82284979e-03 1.81835983e-02 -1.99467074e-02 -2.19857804e-02 7.41662597e-03 -2.64562964e-02 -4.30131750e-03
-1.70381870e-02 -1.93080883e-02 2.14584172e-02 -1.90639705e-03 -2.54148655e-02 1.40544921e-02 2.37737931e-02 -1.33863427e-02 -1.45494901e-02 -1.35273039e-02 1.71621554e-02 1.75064132e-02 -1.81875192e-02 5.13981446e-04 -1.11921523e-02 -3.25524225e-03 -1.49523448e-02 -5.23019116e-03 -5.85472910e-03 -3.94650688e-03 1.79713480e-02 -6.26690360e-03 -8.53149104e-04 1.16912683e-03 3.80999874e-04 1.91288870e-02 -1.85527597e-02 4.12791455e-03 1.50253195e-02 -1.99130569e-02 -2.62200786e-03 6.34914404e-03 -2.56609265e-02 -1.94299333e-02 -6.45288732e-03 -1.59643479e-02 -1.75262149e-02 5.79685485e-03 2.31602453e-02 -1.68315284e-02 3.78126698e-03 1.07040454e-03 -1.64371915e-02 -2.63106776e-03 -4.31902212e-04 2.31281295e-03 8.42399988e-03 1.09012891e-02 8.54631793e-03 4.67116991e-03 -1.59108061e-02 -6.34864031e-04 -1.21820187e-02 -6.50107441e-03 5.37506724e-03 1.19261527e-02 6.00778684e-03 -7.92622287e-03 1.95714571e-02 2.61168946e-02 2.63141803e-02 -2.07630657e-02 -2.60444451e-02 1.09543558e-02 -4.70003020e-03 5.34241088e-03 -1.85131957e-03 1.04686413e-02 8.62740353e-03 -5.30428602e-04 -1.11458451e-02 -8.23936705e-03 -2.14809068e-02 -9.75055527e-03 -1.75580475e-02 -1.91949401e-02 7.45757297e-03 5.46919741e-03 1.86396725e-02 1.75734311e-02 1.72404051e-02 -1.26734218e-02 -2.67165038e-03 -5.89352194e-03 -1.49246240e-02 1.14125684e-02 -1.06171696e-02 -5.20510785e-03 -1.69528741e-02 -1.55679341e-02 1.00001441e-02 -1.06443129e-02 6.70698425e-03 5.75328059e-03 -2.22433358e-03 -7.98059860e-04 -1.73003450e-02 -1.00923331e-04 1.24011701e-02 5.74240740e-03 6.83804089e-03 1.07652424e-02 2.80148420e-03 1.37211406e-03 1.83193274e-02 1.49320513e-02 2.05151495e-02 7.73789780e-03 -1.24384286e-02 -3.42220999e-03 1.37087461e-02 -1.19019859e-02 -1.70077081e-03 -1.62253976e-02 -3.77675926e-04 5.08111715e-03 8.04327137e-04 6.03823503e-03 2.06038430e-02 5.94559079e-03 1.32930493e-02 1.78200677e-02 7.45369960e-03 -5.20756422e-03 -6.08573109e-03 3.92255420e-03 -4.25095716e-03 -5.46689099e-03 3.69609101e-03 -1.42685687e-02 7.25393835e-03 -9.24980777e-05 2.01027803e-02 2.45549396e-04 3.71436332e-03 4.25454648e-03 -1.17428629e-02 5.39442617e-03 2.16953065e-02 1.57874115e-02 2.37746816e-02 -2.31139734e-02 -3.52309365e-03 1.03569648e-03 6.04524463e-03 1.59526896e-02 -6.39015529e-03 -1.33506572e-02 1.12354504e-02 1.67952720e-02 3.34353768e-03 1.30307870e-02 7.13926647e-03 1.94251444e-02 2.14017322e-03 7.77718145e-03 5.26612019e-03 7.91249052e-03 3.37018725e-03 -1.12198023e-02 9.27930698e-03 3.98998195e-03 -1.45502179e-03 -3.35538457e-03 -9.47183277e-03 -1.38283661e-02 7.78596441e-04 9.03815962e-03 1.40349148e-02 1.72731874e-03 2.36769523e-02 -8.28754622e-03 -5.82790095e-03 -1.97439250e-02 4.96470416e-03 -2.30950657e-02 -1.60779711e-02 -8.44879076e-04 1.06217600e-02 -3.92399589e-03 1.70604826e-03 -6.10293401e-03 -9.28138103e-03 7.93459840e-05 -9.43861995e-03 3.81355290e-03 3.81342764e-03 1.13195169e-03 5.09365695e-03 1.32727548e-02 -6.41180668e-03 1.38407853e-02 -1.28783640e-02 -2.30989717e-02 1.46603342e-02 -9.45765618e-03 6.64513698e-03 -2.19670087e-02 1.86163057e-02 6.52590161e-03 -1.89271271e-02 2.46097636e-03 1.68087985e-03 9.86209698e-03 1.32419271e-02 4.36197361e-03 -3.82723100e-03 -1.62597559e-02 -2.09561829e-02 -1.30173378e-03 -2.41656601e-02 -1.60798319e-02 -3.11218464e-04 1.95837468e-02 2.55077519e-03 -1.68832559e-02 8.09885561e-03 -1.65043101e-02 1.61341261e-02 1.58429723e-02 7.36311870e-03 -1.16950064e-03 1.77508015e-02 -8.54457729e-03 1.58281308e-02 2.81005562e-03 7.33316271e-03 9.90304537e-03 -1.26239751e-02 6.31823298e-03 -1.92011688e-02 -8.87488760e-03 1.77331064e-02 5.08782733e-03 1.25725260e-02 1.07862568e-02 -4.48279054e-04 -1.85769014e-02 -2.58973539e-02 1.96664128e-02 4.59049363e-03 4.91692638e-03 -1.10811759e-02 -4.55719046e-03 7.12790433e-03 7.58873578e-03 -1.15481680e-02 9.58513375e-03 2.32730433e-02 -2.45130919e-02 1.59466956e-02 -1.13096116e-02 -6.92210300e-03 8.24529305e-03 -2.56983638e-02 -1.06230164e-02
-1.75350755e-02 -2.90289856e-02 2.37512123e-02 -2.22717673e-02 -2.35689692e-02 2.61665229e-02 5.16305258e-03 -2.91055646e-02 -9.07292403e-03 -1.86500475e-02 4.64257365e-03 5.90954954e-03 -6.25362294e-03 1.83077790e-02 -3.31696519e-03 -1.11035453e-02 -5.85053349e-03 1.81799661e-02 -1.88189093e-03 5.06930379e-03 1.50436361e-03 1.75189711e-02 4.07892745e-03 -2.14605778e-03 1.12012476e-02 1.03513300e-02 -3.62908933e-03 8.95710010e-03 1.65273044e-02 -1.65202226e-02 -1.85687691e-02 1.27406502e-02 -1.93186160e-02 -2.40575299e-02 -5.44965314e-03 -1.24164997e-02 -1.92834586e-02 2.03564968e-02 5.67453122e-03 -1.48830377e-02 2.22518817e-02 2.32869200e-02 -1.70534309e-02 -4.96217376e-03 4.03094105e-03 1.32766385e-02 9.29468311e-03 1.44082634e-02 1.24786394e-02 1.95702794e-03 -1.39075248e-02 -5.83750708e-03 -1.79017857e-02 -2.11365465e-02 1.02788601e-02 1.10085038e-02 1.57309677e-02 -1.81861110e-02 1.51087027e-02 2.96797603e-02 3.12835313e-02 -2.29219720e-02 -9.38010402e-03 2.66010091e-02 3.31585435e-03 1.12630678e-02 5.14931418e-03 -2.88013299e-03 1.29472493e-04 -1.50196170e-02 -8.60720593e-03 -1.70474383e-03 -1.07749123e-02 -1.51732787e-02 -2.20198091e-03 -1.68437399e-02 1.61475944e-03 7.99288414e-03 1.35238413e-02 1.98083539e-02 1.07916892e-02 -1.38175795e-02 -1.90793872e-02 -1.70622133e-02 -2.67785862e-02 -7.31947413e-03 -1.56154800e-02 -1.62895285e-02 -1.08350646e-02 -1.09870974e-02 1.82178640e-03 -9.23220627e-03 -2.98129185e-03 -1.57938525e-02 4.90029575e-03 1.16827711e-02 -2.00210940e-02 3.50437826e-03 1.06629049e-02 1.22165857e-02 1.65451020e-02 9.70768463e-03 7.14740902e-03 -2.28368826e-02 2.24613026e-02 1.22919092e-02 1.38872424e-02 3.36805172e-03 2.78762745e-04 7.35275028e-03 1.69918966e-02 -2.18647327e-02 4.47621383e-03 2.99440185e-03 1.38935409e-02 1.06083537e-02 1.82544794e-02 8.03659763e-03 1.70919094e-02 1.95149407e-02 5.30368369e-03 1.77943949e-02 2.93855276e-03 -1.01533169e-02 -1.21929143e-02 9.59369820e-03 -1.25362761e-02 -9.90370382e-03 2.29809415e-02 -1.45158628e-02 6.59950450e-03 -1.27315493e-02 9.27003101e-03 -1.53268501e-02 1.29247708e-02 2.57337429e-02 -6.22056285e-03 1.64656416e-02 2.53903437e-02 1.02003496e-02 2.72540543e-02 -4.20704531e-03 -6.17993623e-03 1.73431523e-02 2.86588771e-03 1.75823700e-02 1.52675351e-02 5.43049257e-03 1.79770514e-02 4.90903854e-03 1.20685725e-02 5.24597522e-03 -1.81399714e-02 2.01073829e-02 8.17336049e-03 2.09625661e-02 1.83290709e-02 4.90202662e-03 1.56139620e-02 -1.11625269e-02 1.45893462e-03 3.88821866e-03 1.30123016e-03 -2.86084530e-03 1.52403666e-02 -8.93216021e-03 -1.16513772e-02 -4.98436484e-03 7.77690159e-03 1.03850439e-02 9.77586303e-03 -1.06782001e-02 -8.72721616e-03 -1.72135755e-02 1.78741477e-02 -2.39015017e-02 -5.78827271e-03 9.16600227e-03 9.49309580e-03 8.61394592e-03 -7.30289798e-03 -1.26143573e-02 -5.49484836e-03 -2.54318863e-03 1.33235287e-03 1.15584647e-02 7.00141100e-05 9.91330016e-03 4.14702110e-03 -4.98460326e-03 4.67129797e-03 9.26699582e-03 -1.66566502e-02 -1.14920633e-02 1.03247287e-02 -1.28050875e-02 9.74249095e-03 -6.59007439e-03 2.56712288e-02 8.90144333e-03 -2.67420243e-03 1.09453723e-02 -1.65361464e-02 7.04146922e-03 8.28624330e-03 -7.02774571e-03 1.75820710e-03 -1.56317186e-02 -2.09365934e-02 -1.67900547e-02 -9.58676077e-03 -5.72397420e-03 -1.82155427e-02 2.45954562e-02 1.03236046e-02 -1.18104359e-02 5.85393235e-03 -1.77900419e-02 1.35931782e-02 2.33542430e-03 4.45161946e-03 1.14620978e-03 2.24064980e-02 -1.44501831e-02 1.53126847e-02 2.56033186e-02 1.04799382e-02 2.24868692e-02 -1.36159705e-02 6.82638073e-03 -8.50972906e-03 -2.11133007e-02 1.03400480e-02 1.95354242e-02 2.02385206e-02 1.27614113e-02 -8.80422629e-03 -2.45538540e-02 -2.16843802e-02 1.35544194e-02 6.53828913e-03 2.00193785e-02 -1.53765567e-02 1.55460965e-02 -2.85973679e-03 1.84534080e-02 3.21605569e-03 6.72862073e-03 2.35843118e-02 -2.00253651e-02 1.85036398e-02 -9.02631413e-03 -1.56432111e-02 2.27726903e-02 -1.30939409e-02 -4.71292529e-03
-1.23174880e-02 -2.68943282e-03 1.29001134e-03 -3.80681199e-03 1.13769481e-02 1.06670624e-02 8.27895198e-03 -1.14002358e-02 -2.88041960e-03 -3.24899238e-03 5.21457149e-03 1.33429160e-02 -1.89654948e-03 -3.21640121e-03 -6.25059847e-03 4.58861748e-03 -3.83904763e-03 9.80790937e-04 3.12852301e-03 -4.00064746e-03 -1.02231624e-02 -3.99093988e-04 1.38825933e-02 -9.72087868e-03 1.99412019e-03 6.06482523e-03 -2.65943655e-03 9.49481223e-03 1.86665799e-03 1.03554819e-02 -1.41184544e-02 7.05209887e-03 2.53814459e-03 -3.82292061e-03 2.18950841e-03 4.38625365e-03 -1.00881960e-02 -1.94310129e-03 7.80017348e-03 -1.31080803e-02 -2.86647002e-03 1.10837666e-03 -4.19902662e-03 2.81120720e-03 -1.50215265e-03 -5.40570030e-03 2.92188348e-03 7.64730200e-03 -3.99386231e-03 -5.84478676e-03 -3.68041708e-03 6.63387589e-03 -1.12664131e-02 -5.71677985e-04 -1.07526977e-03 3.08811385e-03 -8.96811113e-03 -1.40200360e-02 6.08629920e-03 -4.92902752e-03 3.69930407e-03 -5.55179035e-03 -4.18826268e-04 -8.91447533e-03 5.26604243e-03 -7.33837672e-03 1.17367944e-02 -1.19717931e-02 -3.39760911e-03 -3.35561484e-03 3.36133433e-03 -1.53308315e-02 7.22012715e-03 -7.28551066e-03 4.53291880e-03 -5.49660437e-03 -7.47819291e-03 -8.46427679e-03 1.29456329e-03 8.65444727e-03 1.78041589e-03 8.38865293e-04 3.59594647e-04 -1.17652409e-03 6.39956212e-03 5.68532338e-03 4.98465914e-03 -9.04056709e-03 -1.10653350e-02 -1.40872961e-02 1.14850868e-02 -1.39546543e-02 3.98813235e-03 4.47134022e-03 -6.90878741e-03 5.66619448e-03 -1.15821999e-03 3.43923015e-03 -1.02626253e-03 -8.28460045e-03 7.31339166e-03 -1.06624523e-02 -6.50658784e-03 -1.30736572e-03 1.30893886e-02 -2.36498378e-03 -7.31747132e-03 -6.91979937e-03 -2.55048648e-03 -9.31964349e-03 -3.30330840e-05 -5.54612372e-03 9.75964870e-03 -9.43376776e-03 1.31605817e-02 -1.21244807e-02 -9.60316788e-03 1.07081300e-02 5.91156725e-03 2.66734604e-03 -1.72466110e-03 2.78039253e-03 4.68749646e-03 -5.01218950e-03 1.51597767e-03 -8.70165788e-03 1.09838452e-02 1.06306896e-02 -3.38535523e-03 -8.50071292e-03 -2.00761948e-03 7.61658093e-03 2.01523001e-03 -3.65130417e-03 -7.60607282e-03 7.40165636e-03 -5.84922032e-03 8.69577099e-03 2.77225464e-03 -5.92832034e-03 1.33139817e-02 -3.01101315e-03 5.86594734e-03 9.73812211e-03 -3.14812851e-03 -5.45387622e-03 -2.47453805e-03 -7.29079219e-03 2.52065575e-03 7.89628737e-03 -9.69420560e-03 -2.87521235e-03 1.47566025e-03 -7.12497951e-03 -1.67592976e-03 4.92453529e-03 6.61298353e-03 4.45466256e-03 2.57473998e-03 2.66947830e-03 2.02413276e-03 5.70586324e-03 -4.14167624e-03 -9.19221609e-04 3.39581957e-03 -8.00736994e-03 -4.96924622e-03 6.14083791e-03 7.25498283e-03 -7.07493816e-03 -1.30149990e-03 -4.87362035e-03 9.50119644e-03 -1.10700056e-02 -2.83896201e-03 7.08489818e-03 1.02050044e-02 -1.01957470e-02 -3.93019803e-03 -5.95488446e-03 1.16350520e-02 -8.66113976e-03 -1.32745821e-02 -3.52303893e-03 9.82170925e-03 8.94534029e-03 -4.70772991e-03 1.03309015e-02 3.90703371e-03 1.50648353e-04 8.61221738e-03 3.02261137e-03 -1.45868247e-03 -1.01594143e-02 1.14157191e-02 7.05078652e-04 1.18452944e-02 -8.56382679e-03 -1.99320284e-03 -7.71539286e-03 1.39484496e-03 -5.28717134e-03 -1.79311936e-03 1.15908473e-03 4.00601141e-03 1.14895739e-02 -2.40184017e-03 -7.98117090e-03 8.71572120e-04 2.07778858e-03 -5.44066634e-03 3.33294994e-03 9.31629818e-03 3.70772369e-03 9.57530551e-03 3.12193646e-03 8.19699187e-03 -2.92655872e-03 3.80896218e-03 1.03356584e-03 4.07521473e-03 -3.49518587e-03 -4.71420906e-04 1.01325372e-02 -3.36950854e-03 -2.67623109e-03 9.86576825e-03 -8.16611387e-03 -1.00347688e-02 -1.45601074e-03 5.91447297e-03 -4.00798721e-03 -1.88847841e-03 1.38958887e-04 1.34214701e-03 -3.67798842e-03 1.07959593e-02 -2.41685868e-03 5.94602944e-03 4.51215403e-03 -7.17181992e-03 1.07671199e-02 -9.08272993e-03 -3.46501754e-03 1.17644167e-03 -1.28760068e-02 -3.74028052e-04 -5.47257550e-05 1.41255530e-02 3.27585009e-03 3.54536739e-03 -1.23352986e-02 -5.83306071e-04 7.72001047e-04 2.88823340e-03 -5.89254545e-03
-6.61520055e-03 -2.67847795e-02 2.80989110e-02 -1.65707748e-02 -2.71790978e-02 9.30318236e-03 2.71015074e-02 -1.92593150e-02 -2.04209574e-02 -6.69478578e-03 1.69637948e-02 2.01285835e-02 -1.55295571e-02 8.70688166e-03 -2.56156782e-03 -4.71082237e-03 -1.17328241e-02 -2.40368210e-03 -2.17964910e-02 -1.77543443e-02 4.49817348e-03 5.71796787e-04 -1.63424183e-02 1.19113252e-02 2.25115176e-02 2.03579795e-02 -8.36836454e-03 1.38833001e-02 7.28640147e-03 -2.15730201e-02 -1.96306258e-02 1.17137348e-02 -1.18955411e-02 -1.24164168e-02 -1.52920680e-02 -7.09460769e-03 -1.02764573e-02 2.42398530e-02 2.22286489e-02 -7.34298956e-03 2.25898363e-02 2.20641121e-02 -5.25677530e-03 -2.29448024e-02 2.42053866e-02 1.01990635e-02 9.18998476e-03 2.01244168e-02 1.80717073e-02 -2.41193026e-02 -9.89331678e-03 -1.40217980e-02 -1.01986360e-02 -1.64560396e-02 2.17954367e-02 3.30937840e-03 3.03285643e-02 -1.97053682e-02 1.65596418e-02 1.50325354e-02 2.56521255e-02 -2.81594675e-02 -1.51658598e-02 2.71711256e-02 -1.69332884e-02 2.09558308e-02 1.31948981e-02 1.29939923e-02 2.73810923e-02 -2.08605956e-02 -8.26398563e-03 1.32644894e-02 -1.20616369e-02 -2.36541331e-02 -1.83228776e-02 -1.55328801e-02 1.23381587e-02 1.56387184e-02 5.24608605e-03 1.87258981e-02 5.77469962e-03 2.00688001e-03 -1.94895249e-02 -9.77837946e-03 -1.34583768e-02 2.91861384e-03 -3.20582441e-03 -1.62327439e-02 -2.85199992e-02 -2.07988396e-02 2.21717488e-02 -2.11717393e-02 3.08180717e-03 -7.59449461e-03 7.27176375e-04 4.34336113e-03 -7.92313460e-03 8.68061371e-03 2.75342707e-02 8.00723117e-03 2.87284050e-03 1.94804780e-02 9.10212845e-03 -9.87670012e-03 1.40737519e-02 6.74784090e-03 1.17562525e-02 1.42098591e-02 -1.15387514e-02 1.40947159e-02 2.36647669e-02 -8.87923688e-03 1.68693047e-02 -8.70667677e-03 2.23944727e-02 1.25958882e-02 2.11052336e-02 8.62858258e-03 1.87702067e-02 2.36946549e-02 2.77196430e-03 2.10935008e-02 1.31607074e-02 -1.94796063e-02 -2.24383119e-02 1.79479010e-02 -2.59145983e-02 -1.22279981e-02 2.42156573e-02 -2.84614637e-02 1.80523619e-02 -6.68558385e-03 2.03100573e-02 -8.51225015e-03 1.36995213e-02 1.85191687e-02 -1.04381209e-02 1.71165727e-02 5.60997752e-03 5.32012759e-03 3.72250308e-03 -4.84198006e-03 -3.67749995e-03 1.25627369e-02 -1.73095390e-02 3.74137005e-03 1.41967069e-02 -5.13105653e-03 2.06284672e-02 1.28976759e-02 1.31001659e-02 1.20013091e-03 -1.77584849e-02 1.56765170e-02 -8.87879345e-04 1.02169374e-02 1.03965746e-02 2.79840659e-02 1.74311623e-02 -7.66479596e-03 2.80034188e-02 1.41361589e-02 1.73776597e-02 8.19992088e-03 -2.03480362e-03 -6.08338322e-03 -1.73319262e-02 2.16230582e-02 2.41569690e-02 7.85227679e-03 1.24630285e-02 -2.76068486e-02 -2.37267036e-02 -5.37750218e-03 1.66276451e-02 -2.00112388e-02 -1.36544891e-02 1.99528262e-02 1.38426181e-02 5.76402433e-03 -1.03368042e-02 -1.49950106e-02 6.32152893e-03 -1.81703491e-03 -1.27347056e-02 1.76183134e-02 -2.20416412e-02 1.21591501e-02 1.93271809e-03 9.04811919e-03 -1.52385642e-03 2.06243284e-02 -2.40646563e-02 -2.21766774e-02 1.04883667e-02 -7.02436082e-03 1.56043563e-02 -2.56490428e-02 1.86439753e-02 7.85304513e-03 1.29598647e-03 2.10680608e-02 -1.55291252e-03 1.07645001e-02 9.40748584e-03 -2.75116676e-04 -9.57909599e-03 -1.30181918e-02 -7.91614410e-03 -1.77773684e-02 -1.46662612e-02 -2.53130775e-02 -2.10424718e-02 2.34613847e-02 2.09749397e-02 -7.64250616e-03 2.71788072e-02 -1.70180649e-02 2.44071428e-02 2.18750630e-02 4.64838138e-03 1.88186094e-02 1.34636583e-02 6.09497773e-04 7.82324467e-03 2.76775379e-02 2.02159751e-02 1.14320237e-02 -8.83904006e-03 1.98128801e-02 -2.49292217e-02 -2.93491185e-02 9.15297959e-03 2.32520606e-02 2.37530395e-02 2.57383306e-02 -2.43865326e-02 -8.34495388e-03 -5.87965036e-03 9.97600146e-03 5.90717047e-03 1.35101909e-02 -1.83898080e-02 2.34271884e-02 5.14206756e-03 1.08871078e-02 -2.10743267e-02 2.99851634e-02 1.74938850e-02 -2.47236826e-02 8.21237173e-03 -2.32987534e-02 -2.59385053e-02 1.08155757e-02 -8.11295956e-03 -2.54959669e-02
-2.43997797e-02 -2.99335644e-02 2.29016114e-02 -2.40999591e-02 -1.10522257e-02 2.77879108e-02 2.85249334e-02 -2.00665500e-02 -1.76994503e-03 -1.82039421e-02 2.52810437e-02 1.42558860e-02 -7.62105640e-03 5.32486942e-03 -2.12114817e-03 -5.17775584e-03 -3.04249325e-03 -3.89493373e-03 -1.83997117e-02 -1.24782994e-02 1.86732728e-02 7.94996042e-03 -1.91015122e-03 8.87818355e-03 1.26181226e-02 2.32127067e-02 -6.59840601e-03 1.68253668e-02 6.94080163e-03 -1.58816371e-02 -1.91377308e-02 3.55780777e-03 -1.29758632e-02 -2.49815434e-02 -2.73343939e-02 -1.39637133e-02 -2.71950457e-02 2.61974838e-02 1.60247851e-02 -7.19490275e-03 1.79664213e-02 1.05422102e-02 -1.48577420e-02 -6.37084106e-03 3.50823067e-03 4.92719701e-03 1.50694139e-02 2.59529762e-02 2.25338228e-02 -1.83092430e-02 -1.75044173e-03 -1.03754327e-02 -2.12687086e-02 -1.13309082e-02 2.13964703e-03 1.12815690e-03 1.17702633e-02 -2.47232746e-02 1.28197400e-02 2.70408448e-02 2.36019567e-02 -2.23420542e-02 -1.50362505e-02 2.71984842e-02 -7.09773367e-03 1.28350807e-02 1.77972373e-02 8.51098076e-03 1.90059878e-02 -1.24591952e-02 -2.59631947e-02 -7.62031181e-04 -2.38781534e-02 -6.96305092e-03 -2.09619850e-02 -2.47544721e-02 9.39622242e-03 2.14981176e-02 2.19761841e-02 1.10680955e-02 2.37199143e-02 -1.43851666e-02 -1.53791914e-02 -1.70489345e-02 -2.22070813e-02 7.54120527e-03 -1.87927559e-02 -2.05026511e-02 -1.03202211e-02 -2.40056459e-02 4.14792681e-03 -3.44104669e-03 3.64350330e-04 -4.06268315e-04 2.02636514e-03 1.16933575e-02 -7.02060107e-03 1.55291762e-02 2.38813013e-02 5.91853214e-03 1.16831996e-02 7.48621393e-03 2.28482988e-02 -1.08449189e-02 8.73405207e-03 8.59560352e-03 2.49813460e-02 2.33052745e-02 -6.90015871e-03 3.14080622e-03 2.03119647e-02 -9.16303229e-03 2.18609367e-02 -1.96417514e-02 1.75389163e-02 3.45486775e-03 1.80730503e-02 1.99432625e-03 1.87898483e-02 2.16941740e-02 2.38515297e-03 1.44403866e-02 1.66097451e-02 -1.18131302e-02 -2.90405564e-03 2.72281538e-03 -3.78045137e-03 -8.92166793e-03 1.63720790e-02 -2.44484432e-02 8.13187193e-03 -1.15578193e-02 2.72654705e-02 -8.44462868e-03 2.39513703e-02 1.86323207e-02 -2.62776148e-02 2.32315417e-02 1.27372760e-02 1.50460424e-02 1.62230674e-02 -1.78362969e-02 -1.29252048e-02 1.79416537e-02 -2.10752767e-02 2.00436693e-02 2.04854216e-02 -2.37264540e-02 9.63913463e-03 -7.14081216e-06 5.82354143e-03 2.02990025e-02 -1.33580584e-02 9.47990920e-03 -9.34355485e-04 2.43482795e-02 6.12345571e-03 2.47865506e-02 1.46819865e-02 -1.32429227e-02 6.62994571e-03 4.06724634e-03 1.85524393e-03 1.30638396e-02 -3.35801189e-04 1.18381099e-03 -1.57875065e-02 5.74914389e-04 2.77196709e-02 9.09225456e-03 2.51660272e-02 -1.02180662e-02 -2.18477659e-02 -1.91126503e-02 1.63645446e-02 -2.35842224e-02 7.14855967e-04 1.02793230e-02 -8.11250694e-03 1.25292912e-02 -1.34320026e-02 -7.97976460e-03 -3.53389326e-03 -1.80087257e-02 -2.20357385e-02 1.16646150e-02 -1.14507210e-02 1.01296091e-02 -1.76090673e-02 9.64377914e-03 -2.58322479e-03 9.30526108e-03 -1.47695225e-02 -1.58735942e-02 1.17130773e-02 -4.55201557e-03 2.33248603e-02 -1.08718397e-02 2.68145688e-02 2.15734839e-02 -6.66651828e-03 1.64116398e-02 -8.54577869e-03 6.40218984e-03 2.23444644e-02 -1.30774612e-02 -1.14363234e-03 -2.19311900e-02 -2.92013101e-02 -1.17196115e-02 -1.07538272e-02 -2.12422721e-02 -2.25608889e-02 1.80163048e-02 2.04577483e-02 -1.56010622e-02 1.74919739e-02 -1.34041701e-02 9.17152502e-03 1.19295521e-02 3.29352845e-03 2.08890587e-02 2.08358262e-02 -1.10593084e-02 6.56513637e-03 1.68910120e-02 1.35183018e-02 1.23159215e-02 -7.66864885e-03 2.10752524e-02 -1.05355605e-02 -4.13043378e-03 1.98006053e-02 1.77747197e-02 1.92730874e-02 2.34865658e-02 -2.46226173e-02 -3.98703525e-03 -1.24138948e-02 2.61821169e-02 6.02976745e-03 9.87006351e-03 -4.47257794e-03 1.05050812e-02 -8.90406407e-03 1.84064973e-02 -1.46765523e-02 4.46081255e-03 2.48520691e-02 -2.70388387e-02 2.03560963e-02 -1.55801931e-02 -2.26530209e-02 1.80221647e-02 -1.49454102e-02 -2.74251830e-02
-1.76654197e-02 -5.57078049e-03 5.92480320e-03 -3.83513491e-03 -1.67535823e-02 2.39912253e-02 1.97269469e-02 -2.65029203e-02 -1.89682022e-02 -5.48866531e-03 9.75620467e-03 2.12923680e-02 4.42936318e-03 -3.89148737e-03 1.88122480e-03 3.35772580e-04 9.82373115e-03 9.43018962e-03 -7.10605003e-04 3.52267618e-03 1.39516955e-02 -4.80814790e-03 1.49432663e-03 4.07214556e-03 1.63263902e-02 -9.09007620e-04 -1.74785741e-02 -4.35426664e-05 1.22311839e-03 1.57804694e-03 -6.32069353e-03 1.12995403e-02 -1.53943133e-02 -7.32338242e-03 -7.03856116e-03 -4.53453395e-04 -2.67568547e-02 1.39701394e-02 2.18861829e-02 -9.57013946e-03 2.15199180e-02 5.21994487e-04 -2.32581459e-02 -4.18249052e-03 1.44606158e-02 6.31024269e-03 8.90480634e-03 -1.66820909e-03 1.33436304e-02 1.33343861e-02 3.69795220e-04 -9.22035612e-03 5.84588572e-03 -1.18142869e-02 9.70914774e-03 -9.41227283e-03 1.77626442e-02 -6.66220579e-03 1.54193258e-02 8.89408309e-03 1.51293324e-02 -2.56024599e-02 -2.44392455e-02 4.66323039e-03 1.18463496e-02 -9.41671524e-03 1.70475978e-03 3.19371978e-03 7.08760601e-03 -8.89217015e-03 -7.34574208e-03 -3.65262944e-03 -3.51568544e-03 -2.05404889e-02 -1.06172599e-02 -1.19960606e-02 7.54774781e-03 1.87334372e-03 2.22186800e-02 -1.79305533e-03 1.32835461e-02 -5.49485115e-03 -1.96010768e-02 -1.55775538e-02 -6.86452491e-03 9.51986294e-03 -1.15288189e-03 -6.93300623e-04 -4.73244535e-03 -2.84561794e-02 7.19062565e-03 5.20837086e-04 2.87826871e-03 -3.92213510e-03 -4.81085619e-03 1.35827297e-02 -4.24311322e-04 1.51558286e-02 1.04778968e-02 -1.64086896e-03 5.55085344e-03 -6.67301519e-03 -1.79712393e-03 -8.69700965e-03 -3.70398536e-03 1.10197356e-02 1.97245404e-02 1.08733878e-03 -4.80675884e-03 2.01774482e-03 -9.30504000e-04 4.86717280e-03 2.88143847e-03 -8.03193729e-03 1.05247227e-02 -5.74026536e-03 6.49956893e-03 1.59571914e-03 1.20303305e-02 6.20365608e-03 5.12976293e-03 5.22729424e-05 1.04956217e-02 -1.35019999e-02 -1.29781254e-02 2.03442178e-03 -1.42632388e-02 -1.77041721e-02 4.88726888e-03 -1.55751053e-02 1.06058223e-03 -1.35480231e-02 2.22050790e-02 -1.60214771e-02 1.47750136e-02 2.22713426e-02 -7.46455556e-03 5.38932439e-03 1.97427478e-02 5.34319924e-03 2.01657023e-02 -2.11813189e-02 5.10855927e-04 1.69695355e-02 -1.17139043e-02 6.83067646e-03 -2.18318682e-03 1.14247398e-02 -1.59986829e-03 -4.05736919e-03 -1.70971488e-03 1.00281909e-02 1.59563404e-03 2.95986906e-02 4.65230783e-03 3.67463217e-03 9.70798824e-03 -1.66261615e-03 9.30894911e-03 -2.44525634e-03 1.12609996e-03 -1.13453614e-02 1.92585925e-03 -1.91817863e-03 -1.65299571e-03 2.58809212e-03 -4.41164570e-03 4.19581169e-03 2.12378032e-03 6.65110245e-04 2.15021018e-02 -6.53911801e-03 -2.55342610e-02 -1.27498414e-02 1.54628688e-02 -5.63355256e-03 -8.33023060e-03 8.98720324e-03 -9.49712005e-03 1.42081548e-03 8.02800059e-04 -2.47478834e-04 -9.38272104e-03 4.84989304e-03 4.11838526e-03 6.61494303e-03 -3.33996164e-03 3.57931387e-03 -2.97151928e-05 3.29449237e-03 -9.42788273e-03 8.75042286e-03 -3.12690740e-03 -1.29728317e-02 1.44895269e-02 -1.05759148e-02 1.46905445e-02 -5.46409562e-03 7.09614530e-03 4.67914483e-03 3.67699680e-03 -2.77121970e-03 4.20683203e-03 1.39676910e-02 -2.81003793e-03 -2.70740897e-03 -2.35271803e-03 -1.27369268e-02 -1.23270126e-02 -2.13754158e-02 -1.78420302e-02 -1.28276674e-02 -1.00379102e-02 1.20934183e-02 9.72305774e-04 -6.27284450e-03 -4.92613297e-03 -2.33560540e-02 1.63158402e-02 -4.55815485e-03 -4.59820544e-03 -3.26667144e-03 4.24194057e-03 6.02430850e-03 1.31642045e-02 7.00145774e-03 8.66481382e-03 1.01282904e-02 -5.97096223e-04 1.69502292e-02 -7.08888751e-03 -4.34748735e-03 4.67337715e-03 1.25400843e-02 2.14184541e-02 1.35167129e-02 -1.87293869e-02 -1.58405788e-02 -2.48248130e-02 -2.95928586e-03 3.12531227e-03 -8.87593534e-03 -2.30904073e-02 5.75548643e-03 1.61396409e-03 1.22066902e-03 2.96057755e-04 -2.54085893e-03 2.23538913e-02 -1.71123091e-02 4.73606726e-03 -1.57925040e-02 -1.92113668e-02 1.74399391e-02 -2.00129654e-02 -1.97391529e-02
-1.03712045e-02 -2.02754550e-02 2.49420851e-03 -1.71606429e-02 -2.97235325e-03 6.46037515e-03 9.76986811e-03 -7.39069097e-03 -5.29317791e-03 5.37608238e-03 -3.32082901e-03 5.40709309e-03 2.96868011e-03 7.34522380e-03 -1.28879985e-02 -4.86923009e-03 1.15456339e-02 4.81264247e-03 6.66188449e-03 1.63953414e-03 5.88852027e-03 -5.68361441e-03 1.08837001e-02 1.09946243e-02 -2.91408412e-03 -4.74977220e-04 -1.02684852e-02 7.06252595e-03 1.38036516e-02 -1.32964728e-02 -1.45405717e-02 1.15934750e-02 -2.66193110e-03 -1.14962291e-02 -6.73615932e-03 1.69636600e-03 -3.56986513e-03 -1.07333146e-03 1.90290418e-02 -2.91591580e-03 9.70202032e-03 -3.32268118e-03 -6.49037611e-05 -6.80278568e-03 8.34748242e-03 6.06095186e-03 1.22053195e-02 1.54630775e-02 -1.34321942e-03 5.47235087e-03 -1.85924792e-03 -6.50728820e-04 3.10131512e-03 -4.51924559e-03 -3.97062022e-03 -6.29499741e-03 1.99706927e-02 -1.21274721e-02 1.54215249e-03 3.88902030e-03 1.26748532e-02 -2.09679566e-02 -6.26224466e-03 6.61327038e-03 -4.59390460e-03 4.81746951e-03 8.69826227e-03 7.47513212e-03 7.50112580e-03 -2.97667226e-03 -4.27343836e-03 -7.08410423e-03 -9.34526790e-03 6.94100512e-04 3.98304081e-03 2.21223780e-03 1.01416977e-02 -2.69977306e-03 1.72611810e-02 -5.73310629e-03 1.24248979e-03 -1.14963949e-02 2.61831377e-03 7.20015669e-04 -9.19475593e-03 1.44630726e-02 -1.08839972e-02 -1.20943747e-02 -8.26602150e-03 -7.15505937e-03 1.59171578e-02 -6.15406828e-03 1.42451636e-02 8.92159250e-03 1.38955899e-02 1.13065599e-03 8.17547645e-03 -5.38138300e-03 2.42039891e-06 -5.37452324e-05 8.49499088e-03 1.76865666e-03 1.28333997e-02 -1.99275184e-03 8.77426565e-03 -4.56262473e-03 1.58955122e-03 -7.02753570e-03 1.99524569e-03 -1.08068353e-02 1.96226360e-03 -1.42006204e-03 3.95323196e-03 1.03316791e-02 1.07936412e-02 1.00780418e-02 1.75294615e-02 9.10171540e-04 7.59029901e-03 -3.05011612e-03 -2.18545366e-03 5.24454424e-03 -9.50850153e-05 -8.44088849e-03 6.49160380e-03 6.14120206e-03 1.79783383e-03 -1.68710761e-02 1.24832542e-04 2.26869411e-03 1.17774133e-03 4.17825626e-03 4.52327804e-04 2.54230713e-03 -6.60254387e-03 3.05837928e-03 -1.27901928e-03 1.76286753e-02 1.08579081e-02 2.30132905e-03 7.82463979e-03 -6.35500019e-03 -3.22156679e-03 1.76639762e-02 7.72276847e-03 7.58689223e-03 4.45796829e-03 -1.04081025e-02 3.22737033e-03 2.62095523e-03 8.92457366e-03 -5.24111185e-03 8.43564328e-03 2.10225396e-02 2.47624237e-03 5.32296312e-04 -9.45888180e-03 1.28300302e-02 3.47203389e-03 1.49475830e-03 7.29117449e-03 -7.46355159e-03 1.15543464e-02 -9.07207094e-03 4.61666705e-03 -1.09410025e-02 -8.75325128e-03 -4.15978767e-03 7.89264310e-03 1.65398773e-02 3.97114269e-03 -9.49219987e-03 -1.42395142e-02 -1.11781452e-02 1.88679844e-02 -6.35427888e-03 3.00547830e-03 7.33238971e-03 7.46564148e-03 1.16023375e-02 -2.33563408e-03 -2.85281567e-03 -3.10688489e-03 -6.82272483e-03 -7.27490848e-03 -4.92132781e-03 -5.45720861e-04 -4.48136963e-03 -6.81786379e-03 -7.53172208e-03 -1.04003418e-02 6.23859372e-03 -1.65354107e-02 -1.12828687e-02 1.89995728e-02 -2.83375289e-03 1.83853693e-02 1.29641950e-04 5.08541882e-04 -5.61181398e-04 -9.55247693e-03 1.11131435e-02 -1.06339827e-02 1.04668131e-02 -2.98823114e-03 -3.71521688e-03 3.16360267e-03 -8.13171919e-03 1.25752843e-03 -1.16126728e-03 1.20832723e-04 -8.92938580e-03 -3.86704924e-03 1.56997722e-02 2.09291968e-02 -3.37442663e-03 -9.52937262e-05 -1.36145558e-02 1.49639491e-02 -4.37906012e-03 9.80199035e-03 -4.14536521e-03 -8.92003253e-03 7.35319033e-03 8.49513058e-03 4.11662739e-03 1.62957776e-02 1.45634701e-02 -1.58408117e-02 6.13984000e-03 -1.08592492e-03 -8.07007775e-03 -6.47777785e-03 1.54533163e-02 1.17816133e-02 1.51080303e-02 -1.88836281e-03 -1.51817845e-02 -1.86008494e-02 5.39061893e-03 4.92188323e-04 9.81735624e-03 -4.01102426e-03 3.18191154e-03 -3.69104382e-04 9.70852189e-03 -1.56483741e-03 5.22372173e-03 1.35171544e-02 -2.23746727e-04 1.69303436e-02 -1.04467589e-02 -8.82881694e-04 -5.45851421e-04 -2.21843794e-02 -5.32710750e-04
-2.26801671e-02 -2.54534800e-02 1.89746600e-02 -2.89634820e-02 -6.32982375e-03 1.88399795e-02 1.82428826e-02 -2.35019475e-02 -4.47230227e-03 -4.94409399e-03 5.17421402e-03 3.16437939e-03 -5.48402919e-03 1.12793138e-02 -1.93464868e-02 -1.93008278e-02 -1.35930059e-02 1.47808194e-02 -1.52254561e-02 -1.56463534e-02 2.35317256e-02 1.86978094e-02 -3.44040897e-03 1.15134362e-02 9.48849414e-03 1.20951757e-02 -1.88988131e-02 8.81531369e-03 2.45259667e-04 -1.38579067e-02 -2.27260422e-02 2.20773183e-03 -2.48501692e-02 -1.39294192e-02 -1.29452525e-02 -7.68462010e-03 -1.06038125e-02 4.14602971e-03 9.66116786e-03 -2.47406680e-03 8.73419084e-03 -6.66534121e-04 -1.46491090e-02 -1.87451672e-02 6.81607379e-03 3.37551860e-03 2.31797975e-02 6.95373584e-03 7.82351196e-03 7.94719730e-04 1.80240744e-03 -2.13708989e-02 -2.00129282e-02 2.11914768e-03 1.24476310e-02 1.15969488e-02 1.47294328e-02 -2.64771711e-02 2.85514854e-02 3.04363165e-02 3.57955098e-02 -2.57602651e-02 -1.18285986e-02 7.79729150e-03 8.12922604e-04 1.18122324e-02 2.03657635e-02 -1.27428316e-03 1.98332802e-03 -1.16452221e-02 -1.22392867e-02 1.32527091e-02 -1.89887546e-02 -7.04409648e-03 -4.13148385e-03 -2.42238445e-03 2.06905901e-02 1.12848282e-02 9.33050585e-04 1.54808080e-02 9.86469351e-03 2.57480866e-03 -1.34343402e-02 -1.16603996e-03 -4.17128904e-03 3.47243506e-03 -1.96290761e-02 -4.84667579e-03 -1.91852916e-02 1.36744548e-02 2.47213757e-03 -3.17364652e-03 -2.02892744e-03 4.30230779e-04 -8.12924292e-04 1.80863272e-02 -1.05434833e-02 9.39018745e-03 3.58826248e-03 1.59293897e-02 9.33742709e-03 1.18254451e-02 1.00128204e-02 -1.49293104e-02 2.38908874e-03 2.05640192e-03 9.87840910e-03 1.98212694e-02 -1.08289821e-02 8.76445230e-03 2.23602392e-02 -1.97307393e-02 1.22926822e-02 -1.30336806e-02 1.99264218e-03 9.20354482e-03 1.94312036e-02 1.81928016e-02 9.47389938e-03 1.14003429e-02 1.24196510e-03 1.18091069e-02 7.86756165e-03 -2.40510870e-02 2.15824554e-03 1.27784815e-03 -1.31539125e-02 -1.26186768e-02 1.76715497e-02 -1.09003903e-02 9.01984109e-04 -1.57594290e-02 6.60639838e-04 -1.38295870e-02 1.74543150e-02 1.36823794e-02 -1.50002828e-02 1.83904618e-02 1.70317516e-02 2.20918469e-02 2.16173343e-02 -6.58739405e-03 -2.43379362e-02 2.78482679e-02 -3.33620864e-03 6.90670498e-03 6.44941581e-03 2.33118422e-03 1.94776878e-02 3.04280838e-05 -1.49505225e-03 1.48398029e-02 -2.03596614e-02 4.52695275e-03 1.12510268e-02 1.42435245e-02 6.14352990e-03 6.51755044e-03 1.50699923e-02 -1.24119013e-03 1.83508743e-03 -2.74338224e-03 1.66568570e-02 2.20659841e-03 -8.87442366e-05 -5.36642689e-03 -7.89354031e-04 1.53944420e-03 5.52741950e-03 2.40796730e-02 1.07422229e-02 -7.57379271e-03 -4.17901389e-03 -3.16414912e-03 2.66113821e-02 -2.29799822e-02 -1.79838743e-02 1.49138961e-02 -4.03534388e-03 4.37112106e-03 -1.02534867e-03 -2.53513665e-03 1.92120939e-03 -5.31730056e-03 -1.55505529e-02 1.07082892e-02 -1.48755582e-02 9.92198009e-03 4.07857494e-03 1.24280797e-02 1.65512552e-03 2.06047799e-02 -5.25544304e-03 -2.74464842e-02 1.88775901e-02 -1.60978828e-02 2.08188538e-02 -1.41199538e-02 2.71885581e-02 1.47851221e-02 -9.69014131e-03 5.63262403e-03 -1.61322430e-02 1.16372947e-02 1.66982692e-02 -1.58124436e-02 -7.23617943e-03 -6.22375030e-03 -2.42110826e-02 -1.03998063e-02 -2.17125136e-02 -2.27609184e-02 -9.87000018e-03 1.60600094e-03 2.64490191e-02 -2.66980585e-02 1.10705569e-02 -2.06801891e-02 1.78683095e-03 1.20923975e-02 2.09794473e-02 1.38627216e-02 2.47752643e-03 -4.03736113e-03 7.19067315e-03 1.28000630e-02 6.25977106e-03 1.92571934e-02 -9.34193842e-03 1.13421250e-02 -2.59783696e-02 -1.83499251e-02 1.66529715e-02 1.48620270e-03 1.94624793e-02 1.97126456e-02 -2.18837784e-04 -6.06569089e-03 -1.37770465e-02 2.08392683e-02 6.79067941e-03 6.49184501e-03 -1.94491465e-02 -1.30297802e-03 2.58741807e-03 -4.06104559e-03 -9.57044307e-03 1.76661033e-02 2.67539024e-02 -1.66511275e-02 1.94184780e-02 -3.90968332e-03 -2.19682846e-02 1.49317719e-02 -1.57078281e-02 -1.08791348e-02
-7.58488255e-04 2.18153466e-03 1.28898481e-02 -2.18022950e-02 -1.44243799e-02 4.30276291e-03 1.76046193e-02 -8.21622927e-03 -6.75732968e-03 -7.89853930e-03 5.11772640e-04 1.49037484e-02 -1.34162614e-02 1.61194068e-03 2.41149217e-04 -8.31544492e-03 1.79562923e-02 -3.49427992e-03 2.05187034e-03 1.20358663e-02 1.12683524e-03 -5.98946121e-03 6.23450335e-03 -1.47438403e-02 1.47916293e-02 -4.69236542e-03 5.42780664e-03 1.78774726e-02 8.38957541e-03 -1.11847455e-02 -8.86368286e-03 1.26725743e-02 -6.10526977e-03 -1.23411482e-02 -9.80189443e-03 -2.07519177e-02 -1.21451290e-02 1.78301446e-02 2.13790480e-02 -1.94253605e-02 1.51501074e-02 7.02880556e-03 -3.18684150e-03 -2.18833308e-03 2.49701831e-03 1.71484053e-02 -9.28421679e-04 7.88861699e-03 -9.68365092e-03 1.26372501e-02 -6.27875514e-03 1.23717089e-03 7.59225432e-03 6.95142848e-03 -5.12887724e-03 -8.86067189e-03 2.01042052e-02 -1.42244035e-02 9.10652895e-03 1.49902031e-02 8.69857520e-03 -6.64149364e-03 -2.18641274e-02 4.02066624e-03 3.81203252e-03 -1.05079543e-02 -1.21998815e-02 -1.16953216e-02 -2.41116318e-03 3.08244838e-03 3.21025657e-03 -7.85525329e-03 2.97158957e-03 -1.06657678e-02 -7.78239174e-03 2.19998672e-03 1.52080338e-02 -2.98870075e-03 1.90053303e-02 -1.81765028e-03 1.24553042e-02 -6.40784204e-03 -9.73331742e-03 -1.04017917e-03 -2.61673960e-03 -5.68175456e-03 -9.90619231e-03 1.93037745e-03 -1.15505268e-03 -2.59841643e-02 -8.51513061e-04 -7.25871837e-03 -3.40669835e-03 1.65149253e-02 6.32935716e-03 -8.30663834e-03 -7.90373015e-04 5.85119147e-03 3.01882671e-03 2.65732617e-03 -8.45150370e-03 8.68531130e-03 1.29411835e-02 -1.41020883e-02 -7.17327232e-03 1.80705497e-03 6.27560960e-03 9.23628733e-03 9.44012683e-03 -9.58571304e-03 1.21386219e-02 -4.64265654e-03 1.06037743e-02 6.22042862e-04 8.95642303e-03 5.73541131e-03 5.06286277e-03 1.21268556e-02 -6.05405821e-03 1.04983030e-02 1.18923755e-02 1.45370560e-02 4.52451903e-04 -1.56535171e-02 -3.99377849e-03 6.64841803e-03 2.15912028e-03 -1.42913759e-02 1.76541861e-02 2.56735599e-03 7.67986709e-03 -4.43396159e-03 1.83357578e-02 -1.46161653e-02 -9.26395599e-03 2.34539974e-02 -9.90165677e-03 -5.21675264e-03 1.56128574e-02 -1.90995459e-03 1.88729204e-02 -2.29018950e-03 -1.19084828e-02 1.56533830e-02 1.19035942e-02 -1.00231506e-02 -9.98748001e-03 -1.07861282e-02 4.62837005e-03 8.13049916e-03 3.80064896e-03 -1.25832018e-02 1.58627275e-02 6.91031944e-03 -4.71938634e-04 1.14905825e-02 2.86914292e-03 2.65357015e-03 7.01022474e-03 6.92555495e-03 -1.40435738e-03 -5.34148794e-03 -1.41442111e-02 -5.98516129e-03 -1.23259909e-02 6.07274706e-03 4.19360772e-03 2.94941617e-03 -1.94201735e-03 1.59897599e-02 6.52652141e-03 -1.85125787e-02 -1.82774868e-02 -6.13118429e-03 7.90488999e-03 -8.87921453e-03 -2.74764374e-03 1.01776207e-02 -3.86928930e-03 -9.69668105e-03 -1.89286703e-03 -7.14309793e-03 -7.76374433e-03 1.03841769e-02 -4.00852831e-03 6.11225422e-03 5.57806529e-03 7.46975653e-04 1.30205071e-02 9.35786590e-03 -5.69862360e-03 -1.09534594e-03 -1.47056319e-02 -8.39144178e-03 -3.32571130e-04 -2.63989670e-03 9.58914496e-03 -2.46466883e-03 2.04647629e-04 1.71748251e-02 -3.64017463e-03 -1.17216734e-02 1.46918418e-03 7.30467541e-03 -5.39861899e-03 -6.68333098e-03 2.09236587e-03 -9.33699496e-03 -1.62718333e-02 2.13706426e-05 -2.08091643e-02 -1.76504701e-02 -1.79481488e-02 1.29665863e-02 -5.70340781e-04 -1.04410835e-02 1.86644997e-02 -1.75168123e-02 1.79292727e-02 2.60024215e-03 -9.31552891e-03 5.13748638e-03 8.99888296e-03 -3.95606272e-03 5.19991573e-03 1.32061196e-02 -3.60297179e-03 1.66567396e-02 -1.19689824e-02 1.05522084e-03 -1.17857978e-02 -2.00339798e-02 9.94135719e-03 1.18699856e-02 1.46198710e-02 1.39044914e-02 1.93938147e-03 -6.13305299e-03 -9.99256596e-03 4.45966236e-03 4.75836266e-03 -2.88312510e-03 1.06188664e-02 9.22751334e-03 6.79963548e-03 2.50173081e-03 -6.08780887e-03 -4.47886391e-03 7.41180591e-03 -6.46228949e-03 2.05420274e-02 -6.37679547e-03 3.44278570e-03 1.96078699e-02 -4.26593423e-03 -1.04847271e-02
-2.09127199e-02 -2.20721737e-02 4.66837035e-03 -9.54625849e-03 -2.45815851e-02 2.23118323e-03 2.14673635e-02 -2.52072653e-03 1.13420945e-03 -8.18919484e-03 1.23048602e-02 2.06241570e-02 -1.08256536e-02 9.40806046e-03 8.27538036e-03 -4.08710772e-03 -1.97905861e-03 1.01395324e-02 -5.17857261e-04 1.05451997e-02 -1.72560336e-03 -4.94087907e-03 -9.49591491e-03 9.22935491e-04 4.37889947e-03 3.54819559e-03 -8.56391899e-03 1.48040149e-02 7.34210899e-03 -1.31340921e-02 1.87293906e-03 8.57636239e-03 -1.67476274e-02 -1.31543558e-02 -4.58289357e-03 -2.16258410e-02 -6.25131372e-03 -1.61905051e-03 1.65125616e-02 -1.69327129e-02 1.13226594e-02 -2.75252666e-03 -2.77820230e-03 -5.91037609e-03 1.08998669e-02 1.34736812e-02 1.04604503e-02 1.26321940e-02 1.26933577e-02 -5.36273466e-03 -4.44981223e-03 2.47627543e-03 -1.10647902e-02 1.38974302e-02 1.18502816e-02 2.92922882e-03 2.31712330e-02 -2.62321588e-02 1.89102478e-02 1.60268694e-02 4.71981522e-03 -1.40767246e-02 -2.71042772e-02 4.18964401e-03 -2.10264558e-03 -4.16778307e-03 5.49265230e-03 -1.54299391e-02 -1.36115786e-03 -9.18665156e-03 -7.03549106e-03 -1.09471306e-02 -5.09616407e-03 1.82275879e-04 -7.50301918e-03 -1.44182341e-02 1.83077820e-03 1.63767021e-02 1.09207155e-02 7.17617571e-03 1.68740619e-02 -8.50349385e-03 2.62222881e-03 -1.68289244e-02 -6.79056067e-03 -6.73734490e-03 3.45226121e-03 -1.24884248e-02 -8.01484752e-03 -4.64354083e-03 -2.57830159e-03 -4.07532696e-03 1.28094694e-02 8.64091516e-03 -4.46147099e-03 -7.31428945e-03 -1.57519523e-03 5.08571463e-03 1.27274999e-02 -3.94966593e-03 8.67008511e-03 7.20534753e-03 -4.67636576e-03 -1.29992906e-02 -2.45522289e-03 1.08703673e-02 1.77186169e-02 -1.07318554e-02 -2.95174192e-03 -4.34451131e-03 1.64671857e-02 -6.72657369e-03 1.93662271e-02 -4.85159270e-03 2.19283137e-03 9.69017390e-03 1.52176404e-02 1.42730866e-02 1.15789063e-02 -3.82492272e-03 1.19149582e-02 1.14994077e-02 1.40369507e-02 -2.33453326e-03 -1.15524726e-02 3.73454741e-03 -8.34517181e-03 -8.31800979e-03 7.68178562e-03 -1.27223171e-02 1.61181130e-02 -4.96295886e-03 1.29195936e-02 -1.39630716e-02 5.52038196e-03 2.90835206e-03 -1.70971956e-02 1.09763080e-02 -2.46727373e-03 1.32572288e-02 8.09764955e-03 -1.46433087e-02 -5.17519098e-03 5.53690130e-03 -9.29868221e-03 1.53252697e-02 -8.49141739e-03 -1.72131974e-03 -3.41877015e-03 -1.54336356e-03 5.39994473e-03 1.09197600e-02 -8.18414986e-03 1.52578251e-02 1.04417754e-02 1.76792815e-02 1.24272574e-02 -3.29647656e-03 1.07250242e-02 2.91778403e-03 1.11325448e-02 5.77865634e-03 4.78680013e-03 -2.75304588e-03 3.75945028e-03 -8.99811648e-03 9.11613740e-03 -2.31139525e-03 1.71775967e-02 1.08680548e-02 3.09086463e-04 -1.28435539e-02 -1.66633762e-02 -8.84385780e-04 9.36723594e-03 -5.94191533e-03 -5.08004380e-03 1.54474480e-02 -1.12990718e-02 -1.99594302e-03 9.74073634e-03 -1.19895646e-02 1.14927236e-02 1.12298913e-02 -1.01161702e-03 2.69422983e-03 6.82712765e-03 1.59188528e-02 1.05345314e-02 -2.15847860e-03 -8.64420377e-04 -5.21971798e-03 2.48855399e-03 -1.48475021e-02 1.43859750e-02 -2.20608301e-02 2.41924785e-02 -1.88386831e-02 1.89046818e-03 1.67179536e-02 -1.34584606e-02 4.27123654e-04 -1.08503969e-02 1.87244434e-02 8.92352033e-03 -9.91579704e-03 -1.06916204e-02 -1.29368678e-02 -8.66451766e-03 -1.71449259e-02 -2.07744688e-02 -2.28721183e-02 -7.92793091e-03 1.44763514e-02 1.19105419e-02 1.93617458e-03 1.34625435e-02 -1.93369426e-02 1.11938445e-02 -7.37667596e-03 -2.16347096e-03 -1.22541795e-02 1.36333518e-02 -4.22358327e-03 1.00698434e-02 1.34549337e-02 1.49550913e-02 9.56100225e-03 -1.87919438e-02 1.41423000e-02 -1.85980909e-02 -1.06670773e-02 9.04870033e-03 -1.30041048e-03 -2.01885425e-03 1.85642242e-02 -3.97566473e-03 -9.99497343e-03 -1.20885381e-02 3.66432150e-03 4.41653002e-03 -6.58499636e-03 -2.75651831e-03 5.63107990e-03 -7.86655582e-03 6.73356792e-03 -5.11918077e-03 3.86000448e-03 2.20913527e-04 1.45846081e-03 1.43163214e-02 -6.89987140e-03 -1.49946380e-02 1.12659121e-02 -1.52156800e-02 -2.23724060e-02
-1.08769815e-02 -1.90982055e-02 2.10963599e-02 -1.03831785e-02 -1.21377157e-02 4.59813001e-03 1.66667011e-02 -9.09550209e-03 6.49606436e-03 -7.95849226e-03 -1.69759023e-03 2.52345181e-03 1.08712735e-02 -8.13924521e-03 5.27661340e-03 -8.89745634e-03 1.30857952e-04 7.87629373e-03 1.09017408e-02 1.10631008e-02 5.42035268e-04 -1.01316534e-02 3.09115718e-03 -2.39294744e-03 -2.03741249e-03 6.37102220e-03 -2.19760439e-03 -6.61936263e-03 8.30679480e-03 6.01762580e-03 -2.67393957e-03 9.86638200e-03 -2.22211145e-02 -1.16754938e-02 -1.31406179e-02 -2.09613647e-02 3.79819050e-03 2.18273997e-02 7.81048974e-03 -1.35026444e-02 6.46195607e-03 6.67167408e-03 -1.14359707e-02 5.05561847e-03 -2.02165591e-03 1.93549711e-02 1.12246098e-02 1.90203928e-03 3.03040119e-03 -6.20608591e-03 -1.11109321e-03 7.21091218e-03 3.69230262e-03 -1.26729365e-02 3.77890072e-03 -1.84423570e-02 2.40673069e-02 -2.20431369e-02 2.25617681e-02 1.63110979e-02 1.43556073e-02 -1.43601047e-02 -1.54167805e-02 1.65122394e-02 -3.41660576e-03 -2.30511581e-03 5.42843202e-03 -1.33572947e-02 1.17328316e-02 -1.61627959e-02 -8.51694960e-03 -1.48068108e-02 -9.57209704e-05 -1.78622175e-02 -1.60174556e-02 -1.49095319e-02 5.46909217e-03 1.96393393e-02 5.47410501e-03 1.98733099e-02 1.32636568e-02 -5.72546385e-03 -1.79574266e-02 -1.29789151e-02 -1.04846237e-02 -7.86438212e-03 -9.25178290e-04 -3.86360662e-05 1.56513925e-04 8.31804983e-03 1.44773712e-02 -2.02730726e-02 -8.41213018e-03 8.62060639e-04 -5.32751018e-03 5.81711112e-03 1.49307947e-03 7.87569117e-03 2.40110816e-03 1.04304021e-02 3.12093273e-03 6.04614569e-03 -1.08489199e-02 -9.18787718e-03 1.26091915e-03 -9.04119574e-04 4.75161616e-03 5.27151767e-03 -1.01041431e-02 1.02258101e-03 6.07428048e-03 -9.09895729e-03 7.54692266e-03 -5.12062432e-03 1.16329221e-02 1.49365598e-02 1.84315238e-02 2.42407434e-03 2.26583630e-02 -5.24033839e-03 4.04795073e-03 2.89435009e-03 -1.05122512e-03 -2.08474584e-02 -6.28787093e-03 -3.88270780e-03 -1.38778621e-02 -1.32807968e-02 2.16650087e-02 -1.60400495e-02 6.00513816e-03 -4.95032966e-03 7.36752199e-03 -2.53385119e-03 2.21575499e-02 5.67290327e-03 -1.76304877e-02 1.07903983e-02 9.09080822e-03 1.77672449e-02 3.96324275e-03 -1.51008321e-02 -8.59364308e-03 1.14261918e-02 -6.91407453e-03 1.10642528e-02 4.51309653e-03 -1.49723631e-03 -4.06810432e-04 1.19596850e-02 -3.01487069e-03 -8.10727756e-03 5.50721306e-03 1.88165915e-03 -4.13253692e-05 2.28154715e-02 1.29651139e-02 2.21952237e-02 4.90049785e-03 -8.87484383e-03 1.08674103e-02 7.83368759e-03 1.07570807e-03 5.24120592e-03 -6.54176623e-03 6.30748924e-03 -7.94353709e-03 7.93245062e-03 1.67995729e-02 1.96768641e-02 1.63882058e-02 -5.48905181e-03 -7.71903805e-03 -1.09479362e-02 7.36926636e-03 -2.35677008e-02 -1.30426288e-02 3.22563457e-03 2.78362446e-03 -5.47418371e-03 8.08130298e-03 -5.07326983e-03 -3.44783184e-04 1.42697850e-02 -1.20404977e-02 -6.01656595e-03 3.75712244e-03 6.70704013e-03 1.44774355e-02 4.45221458e-03 9.98026412e-03 -4.09216760e-03 -1.06579587e-02 -2.23802645e-02 9.74290725e-03 -1.50754414e-02 1.71162691e-02 -1.49112486e-03 1.45534286e-02 6.66200975e-03 -6.51649013e-03 7.24123744e-03 -1.33879092e-02 6.15231553e-03 1.30888750e-03 4.90469392e-03 -7.51661323e-03 -1.45891551e-02 -1.58985413e-03 -2.13410705e-02 -2.50100810e-02 -6.00790186e-03 -2.68109925e-02 1.66253783e-02 5.65229775e-03 -1.78091712e-02 9.62453242e-03 -1.88674796e-02 1.33667225e-02 -2.56086467e-04 1.84277855e-02 -2.09768978e-03 1.01117033e-03 -3.56791401e-03 2.28552948e-04 2.72395313e-02 4.38160449e-03 2.72439718e-02 -1.31207574e-02 -3.30131094e-04 -2.51366366e-02 -1.29611269e-02 2.46648975e-02 1.66891590e-02 2.32282318e-02 2.15671817e-03 -8.70615896e-03 -8.56728200e-03 -1.84630398e-02 1.86259151e-02 -2.01018690e-03 7.17549585e-03 -7.70620583e-03 5.84901404e-03 -4.01784852e-03 -1.34078171e-02 -4.49060317e-04 -1.65540725e-03 2.23052744e-02 -1.34887062e-02 2.30187476e-02 -2.64557288e-03 -2.04543136e-02 1.00232409e-02 -5.23636118e-04 -1.75687242e-02
-8.80916137e-03 -1.23210400e-02 2.07068715e-02 -1.95930749e-02 -2.53294595e-02 3.01899444e-02 1.57200247e-02 -2.27672234e-02 -1.02483639e-02 -5.03060641e-03 2.52628196e-02 1.11027649e-02 -1.17341913e-02 9.73639078e-03 -5.57022111e-04 -7.45173916e-03 2.95468583e-03 -1.39745446e-02 7.75018591e-04 3.59926187e-03 3.41217127e-03 1.19680166e-02 -1.11075407e-02 6.59387140e-03 2.46350486e-02 1.19830240e-02 -4.90253931e-03 1.79764070e-02 1.98654160e-02 -1.56343244e-02 -1.34761026e-02 4.58718743e-03 -1.13121038e-02 -2.02477034e-02 -1.37645686e-02 -1.21941660e-02 -2.61705909e-02 2.63546035e-02 1.18587194e-02 -1.14053460e-02 2.38327980e-02 2.31817514e-02 -2.50628795e-02 -1.62545312e-02 2.54781265e-02 2.13909857e-02 1.35108214e-02 2.10195687e-02 5.51541708e-03 -5.50790830e-03 4.11321223e-03 -8.56636278e-03 -1.93409063e-02 1.41357211e-03 7.00111361e-03 1.36432536e-02 1.97553150e-02 -1.83319319e-02 9.04960278e-03 1.19137531e-02 1.77765470e-02 -6.10306626e-03 -1.19262356e-02 1.30127436e-02 -1.37554118e-02 1.68095715e-02 1.94941573e-02 9.14663821e-03 2.95984163e-03 -2.21173763e-02 -1.36020556e-02 3.38987389e-04 -1.12530766e-02 -2.39574648e-02 -1.53669696e-02 -2.26267707e-02 1.73958279e-02 2.47215871e-02 1.10932253e-02 6.08860003e-03 2.47942340e-02 -1.90942902e-02 -6.36194041e-03 -7.66755408e-03 -8.63857754e-03 -1.54119097e-02 -7.67746416e-04 -4.18915786e-03 -2.11398490e-02 -9.65695828e-03 1.59209650e-02 -1.22431004e-02 -1.16447397e-02 -7.16190425e-06 3.60320788e-03 1.56981945e-02 -1.83063690e-02 1.11289229e-03 1.79174934e-02 2.26643346e-02 4.02642088e-03 2.14971211e-02 1.63296517e-02 -1.33353043e-02 3.00399656e-03 1.84898563e-02 2.58011092e-02 1.68774351e-02 -1.79651659e-02 2.19000354e-02 1.95955560e-02 -2.19461359e-02 2.91830115e-03 -9.43299010e-03 6.77984068e-03 9.29994509e-03 1.08217169e-02 1.87712535e-02 6.27183449e-03 1.37767410e-02 3.43212136e-03 1.19100697e-02 2.22092681e-02 -2.37066802e-02 -8.43326561e-03 2.04935037e-02 -4.39663464e-03 -1.79930292e-02 7.64413690e-03 -2.15254426e-02 1.93276498e-02 -1.72262397e-02 1.60797127e-02 -2.00575814e-02 1.40028947e-03 2.61728764e-02 -1.80111732e-02 1.20786186e-02 2.52723675e-02 2.52418984e-02 6.97890576e-03 -1.59048345e-02 -2.42147483e-02 2.05887631e-02 -1.84590369e-02 2.01369692e-02 2.25991337e-03 -2.10552569e-02 -2.63760798e-03 -2.02239724e-03 1.68803819e-02 1.29846449e-03 -9.76292416e-03 1.32370098e-02 1.43558476e-02 8.87082424e-03 3.78766090e-05 6.94698235e-03 1.79707892e-02 1.29536039e-03 1.75190605e-02 9.13645420e-03 3.50675453e-03 1.80713716e-03 1.17631247e-02 1.20123797e-04 -9.89286136e-03 1.62780639e-02 2.00253688e-02 1.16470493e-02 1.44359656e-02 -3.09533980e-02 -1.44917164e-02 -1.13436989e-02 1.93434600e-02 -1.00513864e-02 -1.08221555e-02 9.80433542e-03 -1.14606479e-02 2.60474836e-03 -2.41291896e-03 -1.54957585e-02 5.51515864e-03 -3.17224913e-05 -4.61649802e-03 1.40923215e-02 -1.76009245e-03 1.44971320e-02 -4.32666484e-03 2.50980374e-03 5.14277490e-04 1.77475438e-02 -7.89506827e-03 -1.97430663e-02 9.60826408e-03 -2.11070776e-02 2.57249959e-02 -2.16880646e-02 1.31145101e-02 2.33940445e-02 -3.89901781e-03 1.84899736e-02 -5.14234835e-03 2.33344696e-02 1.82194952e-02 -1.63773969e-02 -2.11167708e-03 -1.63326394e-02 -2.60826610e-02 -1.50052961e-02 -2.69019753e-02 -8.50114319e-03 -6.16014190e-03 2.71720812e-02 2.05559190e-02 -1.68326329e-02 1.80118922e-02 -1.14240777e-02 1.26630692e-02 2.62309541e-03 1.13745946e-02 1.81913432e-02 1.23646185e-02 3.57789872e-03 1.75085515e-02 1.30213229e-02 2.34813057e-02 2.29451619e-02 -7.96878804e-03 2.59800237e-02 -1.20151872e-02 -1.43375052e-02 1.08510675e-02 5.65436343e-03 1.33550877e-03 8.95661395e-03 -2.11022403e-02 -6.50301389e-03 -2.10923571e-02 9.08039790e-03 1.36325769e-02 2.09039357e-02 -7.69504253e-03 1.53555162e-02 -6.21784106e-03 -1.41577073e-03 4.22198372e-03 5.53834625e-03 4.54603974e-03 -2.19052695e-02 5.95528772e-03 -1.75802931e-02 -2.69171335e-02 1.31805353e-02 -3.95277282e-03 -1.99066456e-02
-2.77230795e-02 -1.82059128e-02 9.90352966e-03 -2.69944053e-02 -2.65368205e-02 1.36171645e-02 2.74192188e-02 -1.84526015e-02 -1.39574120e-02 -5.90065494e-03 5.73264156e-03 2.27599759e-02 -1.90600175e-02 2.66972277e-02 -1.89701580e-02 -6.34594820e-03 -1.23569984e-02 1.69643797e-02 -6.62056170e-03 -3.53532447e-03 1.72558241e-02 1.12283751e-02 -1.06948689e-02 1.01908669e-02 1.51523007e-02 7.85615202e-03 -1.69306453e-02 1.78928003e-02 2.54926533e-02 -1.03262849e-02 -1.76597890e-02 1.54541014e-02 -2.38148198e-02 -1.97255481e-02 -8.39286763e-03 -2.58769765e-02 -2.87099928e-02 1.28490590e-02 5.57435257e-03 -2.71170214e-02 1.84666179e-02 1.48893399e-02 -1.87243856e-02 -8.96330271e-03 1.62853673e-02 2.69008335e-02 2.70807426e-02 1.37979239e-02 1.83160678e-02 -7.57593708e-03 -4.75221593e-03 -1.28104938e-02 -1.70841273e-02 -1.06550427e-02 2.03531329e-02 4.24664840e-03 2.40109097e-02 -1.00126294e-02 2.48750225e-02 1.88381318e-02 2.91744675e-02 -9.43845510e-03 -1.85955390e-02 2.92835403e-02 -1.44643318e-02 1.92885064e-02 2.05144994e-02 6.98463153e-03 2.81139184e-02 -1.87673215e-02 -2.50272416e-02 6.08393410e-03 -2.77328789e-02 -1.02026947e-02 -1.74302366e-02 -2.29783524e-02 1.74901262e-02 2.69689187e-02 1.15609271e-02 9.37776268e-03 2.93771531e-02 -7.05909077e-03 -6.37606252e-03 -2.08826642e-02 -9.77862626e-03 -9.38476808e-03 -5.56290708e-03 -1.44637767e-02 -8.84853117e-03 -2.20626430e-03 1.16991447e-02 -9.18457843e-03 -2.49508582e-02 -1.17374258e-02 -5.90699771e-03 2.13786699e-02 -2.11273078e-02 2.19307952e-02 1.15061579e-02 1.72963887e-02 1.58157162e-02 9.27517377e-03 1.88965723e-02 -2.62427144e-02 2.61099860e-02 9.32965241e-03 1.91501509e-02 1.18686948e-02 -2.59361770e-02 2.31711753e-02 1.22090746e-02 -9.71946586e-03 2.82109566e-02 -2.24752594e-02 1.20837046e-02 1.61718931e-02 7.55757652e-03 1.61489192e-02 1.53534049e-02 1.20277852e-02 8.25794227e-03 1.62976384e-02 9.42876935e-03 -2.12118793e-02 -2.71169711e-02 4.09500068e-03 -2.77469512e-02 -1.14897871e-02 1.87241081e-02 -8.11220706e-03 2.50823516e-02 -1.31157376e-02 5.33122895e-03 -2.60253139e-02 2.25949679e-02 1.21753598e-02 -6.55843969e-03 7.96790328e-03 1.24160191e-02 2.64237262e-02 2.49437615e-02 -1.59007646e-02 -2.31623854e-02 6.13127183e-03 -1.47510897e-02 1.84381530e-02 4.44095209e-03 -2.22940948e-02 2.70426217e-02 8.05618893e-03 1.40373427e-02 1.06477002e-02 -1.61413737e-02 2.08143126e-02 1.63375251e-02 1.77371614e-02 1.73170101e-02 1.52116856e-02 8.34481791e-03 -2.42138915e-02 2.49358304e-02 2.20640153e-02 1.72073673e-02 2.69065388e-02 1.63621772e-02 -2.46535428e-02 -1.73135512e-02 2.73913145e-02 1.75121184e-02 9.62877274e-03 2.16105804e-02 -7.90291838e-03 -1.92340538e-02 -6.13568677e-03 2.43356042e-02 -2.02974081e-02 -1.34764127e-02 9.53273382e-03 2.18489300e-02 8.56630318e-03 -1.06779262e-02 -1.77520029e-02 2.80695665e-03 -5.46746189e-03 -1.45106791e-02 2.52733938e-02 -1.01047168e-02 2.64144521e-02 -1.04715778e-02 2.13680733e-02 1.22631658e-02 2.53409687e-02 -2.21277438e-02 -2.89033670e-02 2.59914473e-02 -2.70094536e-02 1.58156827e-02 -1.00047849e-02 2.63796225e-02 1.36818495e-02 -2.15729270e-02 2.19544061e-02 -7.11475220e-03 2.64859498e-02 2.31359806e-02 -1.19428607e-02 -1.76571384e-02 -9.24621802e-03 -2.05802340e-02 -1.19410967e-02 -1.08228382e-02 -1.86892208e-02 -1.08592259e-02 8.42403993e-03 1.17654158e-02 -2.54397038e-02 2.43249554e-02 -2.42780838e-02 1.58887915e-02 1.56278852e-02 9.83737037e-03 1.51638025e-02 1.01474877e-02 -1.17166229e-02 1.03995809e-02 6.06738357e-03 5.79605158e-03 1.21141626e-02 -6.28335774e-03 6.55110460e-03 -1.09020229e-02 -1.17314896e-02 1.85100138e-02 2.42184494e-02 1.75095722e-02 1.63090657e-02 -2.34570876e-02 -1.18152685e-02 -2.77432259e-02 1.33763086e-02 2.63407435e-02 2.20920611e-02 -2.05155369e-02 1.63229909e-02 -1.52139307e-03 5.83132217e-03 -2.71330271e-02 2.55203098e-02 9.95896757e-03 -2.09836289e-02 9.46820434e-03 -2.34910659e-02 -1.88737828e-02 2.68611591e-02 -2.56452654e-02 -8.45284201e-03
-2.28069425e-02 -2.18620487e-02 9.38072335e-03 -1.06354645e-02 -2.50411145e-02 2.21599601e-02 2.08635572e-02 -1.67944934e-02 -1.38694113e-02 -1.89645067e-02 2.01751217e-02 1.49175124e-02 -1.70095768e-02 1.83700044e-02 -1.91863496e-02 -1.46988649e-02 -1.32136513e-03 6.14727521e-03 -5.36015665e-04 3.87964421e-04 1.02681248e-02 7.06183957e-03 -1.33493706e-03 8.96946061e-03 2.02884320e-02 -1.77905022e-04 -1.13174180e-02 7.11075217e-03 2.06421949e-02 -7.46451132e-03 -1.87151432e-02 1.59803294e-02 -6.12103613e-03 -1.28473686e-02 -6.24940777e-03 -1.60587654e-02 -1.90371256e-02 6.41738810e-03 2.63508409e-03 -1.73137635e-02 9.42950230e-03 5.93451597e-03 -1.72397327e-02 -1.52534796e-02 2.88965739e-03 3.63023835e-03 1.00723503e-03 1.69999693e-02 -2.98681814e-04 -1.18879583e-02 -1.01336474e-02 -7.64435390e-03 -4.34362516e-03 -1.43851889e-02 1.66892279e-02 -2.56229774e-04 1.54745923e-02 -1.01885442e-02 1.23148961e-02 2.77301520e-02 2.77082548e-02 -1.20300660e-02 -9.86831263e-03 1.95292588e-02 -6.04176195e-03 6.05842052e-03 6.30702358e-03 -5.84118208e-03 3.70039721e-03 -2.31058635e-02 -1.11151990e-02 9.81813110e-03 -1.96698047e-02 -5.24384389e-03 -1.63821205e-02 -2.35575121e-02 4.30285279e-03 7.53903203e-03 2.51844134e-02 1.03683500e-02 1.74919143e-03 -2.33515017e-02 -2.00789538e-03 -1.04937563e-02 -1.08363768e-02 -1.00893853e-02 5.60771627e-03 -2.18258072e-02 -2.06111334e-02 -1.15966303e-02 8.58679879e-03 -1.15979253e-03 -4.89641353e-03 -1.20899249e-02 -9.58132744e-03 4.97261062e-03 -2.29032878e-02 1.66201161e-03 9.58537031e-03 1.20936874e-02 8.48162454e-03 1.90037452e-02 9.40684415e-03 -7.51556596e-03 3.74860247e-03 9.78542306e-03 1.57949869e-02 1.18378205e-02 -1.31139280e-02 1.95546430e-02 1.08735096e-02 -7.03784032e-03 9.60521214e-03 -1.97628625e-02 1.61547828e-02 2.11867709e-02 -1.17409637e-03 5.42779919e-03 5.39859710e-03 1.17109166e-02 1.06669115e-02 2.14984734e-03 1.80155807e-03 -8.98178946e-03 -2.12631710e-02 1.51754329e-02 -1.74910463e-02 -3.73730552e-03 1.65564958e-02 -2.30099577e-02 1.45117454e-02 -2.24973392e-02 2.32357383e-02 -1.23790270e-02 1.41576324e-02 1.97777841e-02 -1.27513204e-02 2.80510308e-03 2.42708288e-02 2.01700032e-02 5.19519160e-03 -2.98274588e-03 -1.22325439e-02 1.20885437e-02 -1.32603785e-02 1.30001141e-03 9.08991508e-03 -1.61335990e-02 3.93459108e-03 1.27851041e-02 -6.80421386e-03 1.59682799e-02 -1.31253870e-02 2.60655843e-02 1.29872868e-02 4.29537799e-03 2.90506915e-03 7.91498087e-03 -1.81371532e-03 -1.74336471e-02 9.83960112e-04 8.20481684e-03 4.61549312e-03 3.21234833e-03 5.84357418e-03 -5.40659763e-03 2.44840770e-03 9.14931588e-04 2.52417997e-02 7.44420569e-03 1.70707162e-02 -1.94074195e-02 -1.83622148e-02 -2.45822109e-02 8.04340933e-03 -5.28471172e-03 -1.01003032e-02 1.48302373e-02 6.29188726e-05 7.90278148e-03 8.60220171e-04 -2.81138998e-03 -7.25489750e-04 -4.31472622e-03 -5.56046609e-03 1.45550016e-02 -1.44512039e-02 -3.44936340e-03 4.12132358e-03 1.43599138e-02 -4.70071100e-03 9.55189113e-03 -1.28483763e-02 -1.91217680e-02 1.27816843e-02 -1.95453204e-02 2.46064775e-02 -2.87732147e-02 2.64423359e-02 1.04266610e-02 -5.36694657e-03 5.46827354e-03 3.37721687e-03 1.77708305e-02 -4.84857103e-03 -7.43973861e-03 -1.95823573e-02 -1.03998687e-02 -1.51353795e-02 -4.33824304e-03 -9.35415830e-03 -6.56501949e-03 -1.13720745e-02 1.63638480e-02 1.08105130e-02 -8.88438616e-03 1.55608105e-02 -2.59451624e-02 3.15103084e-02 1.70628782e-02 8.48419778e-03 1.94007671e-03 3.39911901e-03 -1.04775978e-02 2.29937565e-02 2.11762488e-02 1.26975868e-03 1.75835211e-02 -1.93685554e-02 2.12981347e-02 -7.12172035e-03 -2.31153029e-03 1.65004693e-02 1.75790600e-02 2.24465597e-02 2.41245758e-02 -2.01072861e-02 -4.40582493e-03 -2.04761773e-02 2.18168199e-02 1.69001091e-02 -2.15148181e-03 -1.14345439e-02 5.23243658e-03 -1.02705939e-03 1.95238125e-02 -2.61914730e-03 1.58396736e-02 5.82902785e-03 -7.80836167e-03 2.00030208e-02 -2.26682648e-02 -1.57323573e-02 1.06862253e-02 -1.39234606e-02 -2.05763914e-02
-8.81778356e-03 -2.02103909e-02 2.23790333e-02 -1.66340955e-02 -2.65293065e-02 1.51924044e-02 2.58103609e-02 -2.04967726e-02 -1.37412203e-02 -2.62956694e-02 1.30664110e-02 9.43072792e-03 -1.99151002e-02 8.40186886e-03 -2.04887837e-02 -7.79889477e-03 -9.60550737e-03 5.93403354e-03 -7.13400217e-03 -1.63348336e-02 9.39570647e-03 1.47605911e-02 -6.88515091e-03 2.04697554e-03 8.44915770e-03 8.74648057e-03 -1.86787248e-02 1.33805005e-02 7.30953831e-03 -1.81969516e-02 -8.76731426e-03 3.09205521e-03 -9.09648929e-03 -2.39710622e-02 -1.37654915e-02 -6.67200983e-03 -2.64800545e-02 2.27575600e-02 1.60591174e-02 -2.61099190e-02 8.45948700e-03 8.46878067e-03 -5.08142309e-03 -2.64599803e-03 4.79083555e-03 1.21118939e-02 2.35994644e-02 1.61479171e-02 2.04487499e-02 -6.53748028e-03 -1.80870797e-02 -1.38801541e-02 -1.48152914e-02 -2.10770741e-02 1.48467626e-02 1.70430392e-02 2.21744739e-02 -2.28006411e-02 1.57695934e-02 1.80731658e-02 2.33294666e-02 -2.13505030e-02 -2.81522591e-02 1.90692339e-02 -9.96389333e-03 1.49967996e-02 1.90635417e-02 1.64801627e-02 2.61328556e-02 -2.59035248e-02 -1.45852482e-02 -1.27315626e-03 -2.08842047e-02 -9.89997108e-03 -3.28943133e-03 -9.23975650e-03 1.02079874e-02 2.80198734e-02 2.46117376e-02 8.38958099e-03 2.11842991e-02 -2.02711113e-03 -2.13674158e-02 -1.39909843e-02 -1.34639004e-02 -5.59720490e-03 -9.42697376e-03 -1.77981071e-02 -2.84156594e-02 -3.08892434e-03 5.95954107e-03 -4.26587136e-03 4.74764151e-04 -1.15552852e-02 -2.41797091e-03 1.56464763e-02 -1.79561563e-02 1.75759923e-02 1.01576885e-02 2.37304326e-02 1.14414394e-02 2.20579058e-02 1.20637706e-02 -5.27949631e-03 2.10600626e-02 1.19450558e-02 1.57107543e-02 1.41324382e-02 -3.65914102e-03 2.30961945e-02 1.81522854e-02 -1.57470014e-02 2.62164250e-02 -1.62851196e-02 1.20725324e-02 1.61486939e-02 1.88625902e-02 4.38098563e-03 2.22341325e-02 2.03625299e-03 1.36719188e-02 7.01195979e-03 1.21294390e-02 -1.42346593e-02 -1.13835307e-02 1.85904354e-02 -1.39810797e-02 -8.94364715e-03 2.11271588e-02 -6.68611703e-03 2.23294850e-02 -7.27909384e-03 3.97442048e-03 -6.91060908e-03 1.66289899e-02 2.89676283e-02 -2.61006169e-02 1.89056788e-02 2.11215056e-02 1.19203450e-02 2.31362619e-02 -1.35978432e-02 -7.80853396e-03 1.11984778e-02 -3.59832146e-03 1.96844842e-02 1.66300852e-02 -1.42197954e-02 8.12197756e-03 9.25067160e-03 5.05124126e-03 1.13778427e-04 -1.98903829e-02 2.57515581e-03 1.14646954e-02 7.99543224e-03 1.03997905e-02 1.87144708e-02 1.54780932e-02 -1.16799045e-02 1.49384122e-02 1.10946679e-02 1.21541601e-02 -3.12091247e-03 1.00171128e-02 -5.84729295e-03 -5.40800020e-03 1.17172739e-02 1.28129441e-02 1.56070823e-02 5.29417489e-03 -2.34645344e-02 -1.22175068e-02 -1.95292626e-02 7.18245236e-03 -2.66496707e-02 -9.38760582e-03 2.29460225e-02 1.29011087e-03 1.39073581e-02 -6.99973200e-03 -1.17862783e-02 1.36435078e-02 -2.85012391e-03 -1.25004258e-02 7.55114574e-03 -1.62332617e-02 1.08193152e-03 3.42476694e-03 5.12569724e-03 -8.43715272e-04 1.86258629e-02 -1.99634563e-02 -2.01745238e-02 5.29485568e-03 -1.27285728e-02 9.51585267e-03 -2.58448813e-02 1.51392473e-02 1.56725049e-02 -1.39625147e-02 4.64702537e-03 -1.75190903e-02 1.87538806e-02 1.95684731e-02 -1.49925416e-02 -1.07443230e-02 -2.62699146e-02 -2.67601777e-02 -2.26154737e-02 -1.77814364e-02 -1.28901247e-02 -2.64607538e-02 2.13219579e-02 9.05432366e-03 -1.03369234e-02 2.28111204e-02 -2.67176554e-02 1.07188029e-02 1.79433636e-02 1.01318629e-02 1.00649055e-02 8.42596311e-03 -1.61706712e-02 2.32521035e-02 2.49824729e-02 2.02893000e-02 1.92936268e-02 -8.65216274e-03 6.77409815e-03 -1.46133099e-02 -1.86229683e-02 5.97139122e-03 2.61290260e-02 1.40953502e-02 8.16870946e-03 -1.65784862e-02 -2.45966818e-02 -1.12418225e-02 2.21862253e-02 2.48081516e-04 1.46540888e-02 -2.15380136e-02 6.93557877e-03 -1.15478868e-02 5.05044963e-03 -1.13368444e-02 1.86169483e-02 1.04912752e-02 -4.54106228e-03 2.57923361e-02 -1.70777012e-02 -2.05197167e-02 1.33452136e-02 -5.67257358e-03 -2.07620095e-02
-1.85574684e-02 -9.48161725e-03 1.54633904e-02 -1.88099295e-02 -2.17590183e-02 1.96347013e-02 2.25785747e-02 -3.37654375e-03 4.27461113e-04 -7.34000001e-03 4.14172327e-03 1.65418852e-02 1.03604868e-02 1.12952366e-02 -2.54685362e-03 -6.71914220e-03 2.02465523e-03 1.49129368e-02 -8.25645984e-04 -3.37629532e-03 5.02220774e-03 9.79076885e-03 -3.97472316e-03 1.25871468e-02 -4.52620536e-03 2.13925708e-02 -1.81644894e-02 -5.53269312e-03 1.09787462e-02 -3.16889235e-03 -1.27545130e-02 5.61375078e-03 -9.78796743e-03 -4.05448582e-03 -1.50413681e-02 -1.12221669e-02 -7.81147927e-03 2.98644090e-03 5.22463536e-03 -1.64868347e-02 4.98460839e-03 1.11001506e-02 -2.27727722e-02 6.13677374e-04 -6.81818521e-04 5.39491465e-03 2.12219823e-02 1.62398499e-02 1.72070116e-02 -1.31150847e-02 -1.92811829e-04 -3.10897501e-03 2.36604991e-03 -3.95103078e-03 4.64150542e-03 -1.20085860e-02 2.14627646e-02 -9.50380508e-03 2.08956953e-02 1.09479818e-02 1.51434159e-02 -1.33850453e-02 -2.82573905e-02 3.84359621e-03 -1.21363122e-02 -6.19888352e-03 -3.48601403e-04 -3.76197812e-03 1.52347740e-02 -2.13442836e-02 -6.80756988e-03 -1.38678551e-02 -1.30578596e-02 -2.52363626e-02 -1.60802063e-02 -1.37994522e-02 2.77202413e-03 5.95120015e-03 1.24323685e-02 1.88554060e-02 1.47445351e-02 8.38898215e-03 -3.03929485e-03 1.40173244e-03 -1.99972894e-02 -8.41868762e-03 -1.58846378e-02 -3.31107364e-03 -2.88687227e-03 -1.15009546e-02 -1.33966410e-03 -1.68569870e-02 -6.87767891e-03 5.06317616e-03 -1.45341903e-02 7.30456144e-04 9.15781653e-04 2.00280249e-02 1.26638066e-03 2.12334865e-03 1.57095399e-02 9.80996247e-03 -3.16802831e-03 2.96077435e-03 1.66775752e-02 1.44147892e-02 -7.67860608e-03 1.04207275e-02 -1.63723733e-02 8.90688598e-03 7.86318351e-03 -1.18041625e-02 6.46596251e-04 -6.97662169e-03 -4.36828850e-04 -6.71224669e-03 5.66769484e-03 6.12764969e-04 2.25334149e-02 -1.21074801e-04 1.57863635e-03 4.94297314e-03 1.99802164e-02 -9.58373118e-03 -1.86166470e-03 9.84596461e-03 -2.17259880e-02 2.06653774e-03 1.44524043e-02 -1.77119952e-02 8.47860146e-03 -2.10090429e-02 1.18700210e-02 -1.68254394e-02 2.00271104e-02 2.40562595e-02 -1.54451095e-02 1.21429833e-02 1.43354954e-02 1.36730867e-02 9.53718834e-03 -2.18950268e-02 -8.51630885e-03 1.70714222e-02 -7.32205017e-03 -3.46556376e-03 3.18069174e-03 3.27166542e-03 4.21723304e-03 -1.21201703e-03 1.95739605e-03 -3.91807966e-03 2.24234280e-03 1.60496938e-03 1.32938428e-02 4.44267225e-03 1.07031176e-02 1.60430763e-02 2.07015537e-02 -1.18675921e-02 -1.19437568e-03 7.14951241e-03 1.51209794e-02 -7.67588755e-03 9.80182644e-03 -9.42770299e-03 -1.77307744e-02 7.82762188e-03 1.16738081e-02 9.07349121e-03 2.20803581e-02 -1.79919489e-02 -4.70596086e-03 -1.48115102e-02 2.63071582e-02 -6.01876620e-03 -1.26405712e-02 9.38036293e-03 -6.85573835e-03 1.16371308e-02 -2.76503386e-03 -3.45697068e-03 9.82318190e-04 3.99364159e-03 -1.10397926e-02 -6.17977278e-03 -1.24579975e-02 9.38660186e-03 -5.42070111e-03 4.00837418e-03 3.21089104e-03 8.59272853e-03 -1.82587542e-02 -1.14778504e-02 2.78739762e-02 -2.69299038e-02 8.91404561e-05 -1.51884500e-02 1.50274197e-02 1.67612582e-02 -7.12390756e-03 3.06488224e-03 -1.50491102e-02 2.03588121e-02 1.55730138e-03 -3.91011871e-03 4.93523339e-03 -1.15572922e-02 -3.31625901e-03 -2.00934727e-02 -2.42536459e-02 -6.04805630e-03 -2.26025637e-02 1.38195008e-02 1.63327847e-02 -2.71619502e-02 1.97859406e-02 -7.13335350e-03 5.22788148e-03 1.61247477e-02 7.36965239e-03 7.57890195e-03 1.20976707e-02 1.63209205e-03 2.02324390e-02 1.13101853e-02 8.05396307e-03 1.78038217e-02 6.22127391e-03 3.87683255e-03 -2.48856749e-02 -1.04070529e-02 1.53851314e-02 4.56965622e-03 1.94405820e-02 3.33680259e-03 3.26989731e-03 -3.09499796e-04 -9.43488255e-03 2.36245487e-02 3.10048019e-03 5.14702918e-03 -1.60900634e-02 -4.85408958e-03 7.26788538e-03 9.83186439e-03 -7.95305800e-03 1.98813640e-02 6.02146890e-03 -7.92724174e-03 1.61296204e-02 2.36190134e-03 -2.43912414e-02 6.78697182e-03 -1.95376612e-02 -1.02905103e-03
-7.07998779e-03 -1.09245153e-02 9.22460947e-03 -9.26856417e-03 -2.22618561e-02 1.62202306e-02 2.12512091e-02 -1.65044107e-02 -1.29059348e-02 -1.71334241e-02 2.20060442e-02 1.20485518e-02 -3.70846502e-03 -2.64755078e-03 -5.55215520e-04 -1.20205022e-02 8.91879015e-03 -6.47009490e-03 -5.50059509e-03 3.45598697e-03 -4.61321976e-03 9.61387809e-03 -6.71554916e-03 -1.12863752e-04 1.94242094e-02 1.42388949e-02 -1.04912883e-02 1.71154849e-02 1.11155650e-02 -7.54534453e-03 -6.85489923e-03 1.89617102e-03 -6.88630110e-03 -6.52797613e-03 -5.95614361e-03 -1.53185381e-02 -2.40689386e-02 1.29481098e-02 2.00277548e-02 -5.21522621e-03 -1.12311318e-05 1.79432854e-02 -7.84193538e-03 -2.31830068e-02 1.40943388e-02 7.54326442e-03 2.24039368e-02 7.86217686e-04 1.57086346e-02 -1.08205026e-03 -3.45116179e-03 -4.63411771e-03 4.02847817e-03 -1.06840115e-02 1.74365088e-03 -7.41998013e-03 1.75875146e-02 -1.55475466e-02 2.95226574e-02 2.64425036e-02 9.93778557e-03 -2.78257467e-02 -2.18882281e-02 2.42518522e-02 9.19125695e-03 8.53708573e-03 -5.73398406e-03 5.54745784e-03 1.38060171e-02 -2.23188773e-02 -7.21467892e-03 5.95481135e-04 -2.01310031e-03 -5.37757156e-03 1.80047587e-03 -2.22745854e-02 1.18889464e-02 4.74603893e-03 1.59135703e-02 -2.64609745e-03 7.16473907e-03 -8.25440604e-03 -7.53950281e-03 -7.22159678e-03 -1.95299927e-02 -1.33236637e-02 7.35859713e-03 -1.55867136e-03 -2.06442289e-02 -1.43925743e-02 1.43895354e-02 7.10250065e-03 7.27130624e-04 4.16720333e-03 -2.75431038e-03 -2.22221250e-03 -6.22750400e-03 1.85043011e-02 1.76357552e-02 -2.24111573e-04 1.38327247e-02 6.67786284e-04 1.86949316e-02 -6.60951948e-03 4.62271366e-03 1.33013194e-02 1.95383597e-02 1.83859859e-02 -9.80817061e-03 9.56535526e-03 9.04186256e-03 -5.57699241e-03 2.25582253e-02 -5.76764578e-03 2.13800278e-03 -1.35918939e-03 1.97007717e-03 2.10393723e-02 1.32373022e-02 1.00832954e-02 -1.65635487e-03 1.78727005e-02 1.71911828e-02 -1.01020662e-02 -1.11472802e-02 7.40609132e-03 -9.49157216e-03 -2.33015232e-03 2.54632346e-02 -8.11943226e-03 1.55857466e-02 -1.13458987e-02 7.68102612e-03 -9.29418113e-03 6.88165007e-03 1.16712525e-02 -6.69516949e-03 7.71970954e-03 1.38291856e-02 2.76499800e-02 1.73350982e-02 -1.66736785e-02 -1.86180007e-02 1.54790143e-02 -6.38784794e-03 1.55910116e-03 8.38075206e-03 -5.76448580e-03 5.50619373e-03 9.98445414e-03 1.64520970e-04 9.62928776e-03 -1.33244705e-03 1.06134117e-02 7.30874389e-03 2.25537922e-02 -9.14537627e-03 6.55285036e-03 -5.06190909e-03 -9.87095013e-03 1.50074176e-02 -1.00161405e-02 -6.58002589e-03 5.81019034e-04 -1.02632996e-02 3.70404846e-03 2.22880207e-03 -9.89266671e-03 1.01482617e-02 1.97070744e-02 2.49961000e-02 -2.53967661e-02 -1.30642559e-02 -1.28836054e-02 1.08452728e-02 -3.67646385e-03 -1.66455936e-03 1.38536766e-02 -1.13425800e-03 1.16161006e-02 -9.17442888e-03 -9.72011112e-05 -6.66557765e-03 9.58065223e-03 -4.70831152e-03 2.77480157e-03 -8.98233056e-03 -5.84193971e-03 -4.86408360e-03 1.35413483e-02 -1.85704918e-03 6.27562357e-03 -2.15762947e-02 -8.58150609e-03 1.84139814e-02 -2.07185633e-02 1.56594310e-02 -2.28496417e-02 2.89631798e-03 1.13417422e-02 4.65075998e-03 1.50048409e-05 -9.18945204e-03 1.09520871e-02 1.70010906e-02 -3.70209455e-03 -3.25895869e-03 4.52406908e-04 -2.99873259e-02 -1.00436443e-02 -9.05746222e-03 -1.46498894e-02 -1.04850801e-02 7.11260270e-03 6.68083038e-03 -2.16966048e-02 1.86166598e-03 -1.29117854e-02 1.67388115e-02 5.90694277e-03 1.73492711e-02 9.47986450e-03 6.34136330e-03 1.40366971e-03 4.02954826e-03 1.47588551e-02 7.99159985e-04 1.39411865e-02 -1.77682154e-02 1.46141406e-02 -9.22126323e-03 -1.83753055e-02 4.03402233e-03 2.25800481e-02 2.24394612e-02 1.57705054e-03 -1.53047992e-02 -1.31595007e-03 -2.99708229e-02 1.33466581e-03 -2.77524441e-03 1.42478663e-02 -2.25587748e-02 3.98797076e-03 -5.90125518e-03 1.52085172e-02 6.05153013e-03 5.94047550e-03 2.27526724e-02 -7.40602566e-03 5.77836810e-03 -3.15168570e-03 -5.60321193e-03 2.38639135e-02 -2.60226615e-02 -1.95150916e-02
-8.22708383e-03 -1.60280857e-02 1.19070346e-02 -1.43684885e-02 -9.31662042e-03 1.22311199e-02 1.78991705e-02 -1.91603191e-02 -2.43180543e-02 -1.93176065e-02 6.59689400e-03 7.76892994e-03 -1.06560243e-02 2.19601654e-02 -2.30145436e-02 -1.94301885e-02 -1.54599175e-02 -1.88187417e-02 -2.67509813e-03 -1.96875408e-02 2.22353153e-02 1.24077266e-02 -1.36507340e-02 -7.66346138e-03 1.40679199e-02 3.03724199e-03 -2.25811731e-03 9.66223050e-03 1.95950586e-02 -1.66311432e-02 -1.07836267e-02 2.10092515e-02 -8.36406276e-03 -2.47609951e-02 -2.48744823e-02 -2.46875733e-02 -1.45941162e-02 2.02631690e-02 8.53502471e-03 -1.22133549e-02 1.47261471e-02 2.62372829e-02 -1.18231168e-02 -9.66522470e-03 8.66118912e-03 2.56291796e-02 8.91463924e-03 4.54413565e-03 1.69980265e-02 -1.13040553e-02 -1.26400320e-02 -2.02032421e-02 -1.45589914e-02 -5.64554520e-03 1.09845586e-02 9.41205956e-03 2.87824422e-02 -2.63593569e-02 1.10304737e-02 1.89485718e-02 1.79183781e-02 -2.47810390e-02 -1.74209420e-02 2.79259291e-02 -1.65133812e-02 7.07763899e-03 4.30626096e-03 3.28471418e-03 -1.11462199e-04 -1.66887827e-02 -1.51032582e-02 -8.10826488e-04 -1.85404178e-02 -5.04171709e-03 -2.29620393e-02 -2.52371058e-02 2.24882793e-02 2.42111813e-02 2.88290903e-02 5.60580613e-03 9.87510569e-03 -1.47948740e-02 -2.10057534e-02 -2.24644188e-02 -2.19070334e-02 -2.58435234e-02 -5.02704689e-03 -1.79012697e-02 -2.37526353e-02 -1.43376766e-02 2.22865306e-02 9.70184803e-04 -1.80764531e-03 -4.37919423e-03 4.21403581e-03 1.75624974e-02 -2.04484835e-02 1.76863521e-02 4.03523678e-03 5.44526009e-03 1.66876300e-03 2.97286771e-02 1.39907012e-02 -2.48149764e-02 1.10272802e-02 2.26721875e-02 1.75076574e-02 2.81231105e-03 -8.44371878e-03 1.22339313e-03 1.04438607e-02 -1.50496280e-02 5.70775056e-03 -2.30976902e-02 1.09322071e-02 2.50397529e-02 5.67354541e-03 8.77421629e-03 2.27395743e-02 1.28468461e-02 1.72574539e-02 8.04653112e-03 1.89688150e-02 -2.43149456e-02 -1.63865532e-03 6.47510448e-03 -1.93021521e-02 -1.92139912e-02 2.74954848e-02 -1.44668436e-02 1.64004806e-02 -2.40983646e-02 1.30492244e-02 -2.12952681e-02 1.01736523e-02 1.94496736e-02 -2.53165085e-02 2.74038929e-02 2.05943882e-02 1.11776534e-02 2.78199259e-02 -2.21938416e-02 -8.57924391e-03 4.19915002e-03 -1.48820998e-02 2.24303380e-02 1.32421376e-02 -2.03858297e-02 1.41982967e-03 4.34986223e-03 1.01578813e-02 9.46915615e-03 -5.72410971e-03 2.96235681e-02 1.64662059e-02 2.28444468e-02 1.65535025e-02 1.90183837e-02 9.20510199e-03 -1.77173857e-02 1.46903889e-02 1.76689941e-02 -4.17980459e-03 4.82083531e-03 -8.11904110e-03 -1.22303301e-02 6.73930117e-05 8.84211622e-03 2.44920719e-02 2.33407356e-02 1.53762139e-02 -1.16564650e-02 -2.33254544e-02 -2.19915248e-02 1.30701782e-02 -1.98972896e-02 -2.85289891e-04 1.77200790e-02 -8.41809902e-03 1.46602243e-02 -1.81269404e-02 -1.67498346e-02 1.35533242e-02 -1.88884437e-02 -1.55801568e-02 1.86371896e-02 -9.53877345e-03 1.03432592e-02 -1.55666526e-02 1.85601022e-02 -7.81825162e-04 8.39290395e-03 -1.00707281e-02 -1.16455499e-02 4.74752579e-03 -6.15496142e-03 2.94471420e-02 -2.06747185e-02 2.00449731e-02 1.95617191e-02 -1.56799413e-03 7.04857579e-04 -3.39521235e-03 7.73643563e-03 6.51829701e-04 -7.52233295e-03 -2.03845091e-02 -4.29431675e-03 -1.68320183e-02 -1.11987181e-02 -8.83527007e-03 -7.83786923e-03 -1.46767618e-02 7.25021493e-03 6.03564596e-03 -2.64992230e-02 1.01691224e-02 -1.93231851e-02 1.80491097e-02 1.29519682e-02 1.02953333e-02 1.71689633e-02 9.56792291e-03 -4.06443811e-04 1.46657750e-02 1.20642846e-02 2.28852406e-02 2.16135476e-02 -7.95314647e-03 8.35473835e-03 -8.49607214e-03 -2.25879997e-02 1.16839195e-02 2.11095065e-02 1.58032589e-02 6.61485502e-03 -2.05118041e-02 -2.19849385e-02 -1.28341913e-02 2.43802462e-02 -1.22829471e-04 8.13539419e-03 -2.01201905e-02 2.03649011e-02 -9.77999903e-03 2.03107614e-02 -6.26043230e-03 1.47506176e-02 1.57218259e-02 -2.57243663e-02 1.72477923e-02 -2.08728872e-02 -5.91897033e-03 8.02069716e-03 -1.18766036e-02 -2.93031856e-02
