-1.97087433e-02 -1.29261715e-02 9.45352111e-03 -1.02152191e-02 -1.88056417e-02 1.41880624e-02 2.36378238e-02 -1.70001183e-02 -2.57931097e-04 -8.86950642e-03 9.30642802e-03 2.22700536e-02 -4.82296478e-03 1.45182470e-02 -1.76431215e-03 -4.18285932e-03 7.40251830e-03 -7.47248484e-03 1.13690086e-02 8.10106343e-04 -4.33088699e-03 -7.48315011e-04 -6.32662605e-03 1.59658007e-02 1.70976315e-02 2.03994066e-02 -1.93956494e-02 9.79640521e-03 2.05567759e-02 9.81436018e-03 -1.38692325e-02 1.63517166e-02 -2.44565569e-02 -1.04050888e-02 -1.33474050e-02 -1.07075581e-02 -1.92673858e-02 2.49101315e-02 2.35271920e-02 -1.51520651e-02 2.23203395e-02 1.69633888e-02 -2.05352753e-02 -1.29386568e-02 -8.01206217e-04 1.64424591e-02 6.49340916e-03 1.73152909e-02 8.26818403e-03 -8.88491701e-03 -4.50814096e-03 -9.68558155e-03 2.09191305e-04 -4.87967441e-03 1.01031186e-02 -1.69610959e-02 1.64079648e-02 -2.76648849e-02 9.79006104e-03 1.38366939e-02 2.98078414e-02 -2.33771671e-02 -2.89370138e-02 4.09362838e-03 -1.23817921e-02 -2.21427809e-03 -4.45678178e-03 -7.35103618e-04 -2.26471387e-03 -4.53706319e-03 -1.38341282e-02 8.91122688e-03 -4.25011525e-03 -1.47882383e-02 -1.27100002e-03 -1.69103835e-02 -9.95181501e-04 2.65953988e-02 -1.15225135e-04 6.49147108e-03 1.77344284e-03 8.46479926e-03 7.99677218e-04 -1.91251952e-02 -6.75315736e-03 -3.69253499e-03 -1.03457412e-02 -1.40092634e-02 -1.70117412e-02 2.50363653e-03 -2.30717263e-03 -2.30499892e-03 -8.96152400e-04 -1.26902461e-02 -5.32138068e-03 1.60001181e-02 -1.43299336e-02 2.02004369e-02 1.89934187e-02 1.26943151e-02 5.95945539e-03 4.69073094e-03 8.33110046e-03 -1.14034638e-02 2.06557419e-02 1.43053103e-02 -8.99198093e-03 9.96350590e-03 -1.99851003e-02 7.92843010e-03 8.51460919e-03 -4.29128017e-03 -4.56030502e-05 -6.30184542e-03 3.41669493e-03 1.24021647e-02 2.30107177e-02 -1.41427841e-03 1.67843625e-02 1.50096498e-03 1.42434286e-02 5.72751369e-03 -1.26194509e-05 -1.78396739e-02 6.87684910e-03 6.45243889e-03 -1.77664440e-02 3.07019521e-03 2.08356921e-02 -2.60459948e-02 1.16754267e-02 -1.70864705e-02 2.19327444e-03 -1.45151252e-02 1.74389742e-02 1.65347271e-02 -2.08947267e-02 4.02900716e-03 1.26869436e-02 1.87432636e-02 1.27932308e-02 -9.33636166e-03 -3.18800798e-03 1.29066044e-02 -2.96345213e-03 1.28792441e-02 1.26423342e-02 -5.18517755e-03 6.03442267e-03 6.76028011e-03 -6.86744368e-03 -4.07675328e-03 -9.48044565e-03 -6.13830518e-03 2.39984482e-03 2.14776024e-02 -4.35835449e-03 1.44721093e-02 6.71326835e-03 -4.79455851e-03 -3.28448950e-03 7.01519800e-03 4.93631279e-03 -3.82628571e-03 7.79898488e-04 2.93247378e-03 3.18162318e-04 1.06761493e-02 1.07093072e-02 1.27382576e-02 2.76775453e-02 -2.28213109e-02 -7.43229734e-03 -2.04094574e-02 2.35774107e-02 -2.57002618e-02 -1.35651380e-02 4.93588159e-03 1.09908246e-02 6.43457752e-03 6.30798051e-03 -3.86238284e-03 2.43862905e-03 -5.95781254e-03 -9.89225414e-03 8.52392800e-03 -3.53348209e-04 -8.83309543e-03 6.81987451e-03 -1.51630971e-04 -3.47646861e-03 -7.09203118e-03 -2.23594401e-02 -8.81125871e-03 1.32480711e-02 -1.08136423e-02 2.24901140e-02 -2.50413306e-02 1.87116750e-02 7.61396438e-03 -1.56491890e-03 8.29373021e-04 2.82228109e-03 1.48197375e-02 1.96059868e-02 -5.88432793e-03 -6.18470227e-03 -1.54856974e-02 -1.02666151e-02 -1.63862761e-02 -1.83527470e-02 -8.76994524e-03 -2.77260710e-02 1.73197482e-02 1.95943564e-02 -2.62449123e-02 2.08511055e-02 -2.75610085e-03 7.31266057e-03 1.04137985e-02 1.64894443e-02 1.40206357e-02 9.24301427e-03 1.75636029e-03 1.07270554e-02 2.80261282e-02 1.31471688e-03 2.07272545e-02 3.81252076e-03 1.37827536e-02 -1.78649165e-02 -6.61602058e-03 2.07308996e-02 -2.62888731e-04 2.55464241e-02 1.99373793e-02 -5.65872528e-04 -2.68693664e-03 -1.36330277e-02 1.21077662e-02 -3.17700580e-03 1.33894319e-02 -5.66039002e-03 1.67427864e-02 -2.04486120e-03 -1.09893065e-02 7.14902673e-03 9.25834291e-03 1.49632096e-02 -2.06945874e-02 2.58817263e-02 -8.40779580e-03 -2.03904137e-02 1.27449557e-02 -1.17279226e-02 -7.97492173e-03
-9.79445223e-03 -6.36165123e-03 6.58496469e-03 -2.45863535e-02 -8.82729609e-03 1.08668357e-02 1.27882576e-02 -1.82315875e-02 -8.29220377e-03 -4.05326439e-03 2.15227213e-02 2.52462253e-02 -4.17184830e-03 1.04571495e-03 -1.39287775e-02 -1.45694260e-02 3.91761307e-03 -7.16256816e-03 -9.96047165e-03 -1.11373356e-02 3.11263907e-03 4.19910345e-03 1.00554982e-02 1.03245722e-02 1.07029015e-02 1.48517145e-02 -2.06426512e-02 4.92944475e-03 1.83702111e-02 -4.82877763e-03 -1.82022881e-02 1.91361178e-02 -2.35377084e-02 -3.68248951e-03 -9.64374095e-03 -1.63803343e-02 -1.41463382e-02 4.27201716e-03 9.08008311e-03 -1.97067223e-02 1.03414012e-02 8.71163048e-03 -1.19497031e-02 -2.17097513e-02 3.42813227e-03 9.57254786e-03 1.26465354e-02 5.74819557e-03 7.11885747e-03 -2.46054539e-03 -6.69551874e-03 -1.93570787e-03 -1.20279277e-02 -4.56182752e-03 1.37813641e-02 5.11532067e-04 2.24617478e-02 -1.09792920e-02 2.62673199e-02 8.04737955e-03 2.57046930e-02 -2.34578550e-02 -2.92403214e-02 6.39200723e-03 -1.13338847e-02 1.65221337e-02 5.38928248e-03 9.23927594e-03 1.22683113e-02 -1.89108532e-02 -6.82573952e-03 -9.50298645e-03 -4.52720979e-03 -2.03517843e-02 -6.06464176e-03 -4.59433626e-03 1.47007881e-02 1.81320794e-02 1.96990836e-02 8.31189193e-03 1.82522405e-02 -1.41450847e-02 -3.14896926e-03 -1.72856916e-02 -1.86250899e-02 -3.71643039e-03 -5.80489961e-03 -4.78705391e-03 -8.67901463e-03 -2.76639052e-02 4.56226896e-03 3.48021975e-03 9.03779455e-03 2.12882133e-03 -3.54256365e-03 2.98419996e-04 2.25682836e-03 1.85795445e-02 9.74750891e-03 1.99237391e-02 1.42972609e-02 1.49799604e-02 1.53285582e-02 -1.63231778e-03 8.40872154e-03 1.00313798e-02 7.36351125e-03 6.24579703e-03 -2.18653097e-03 4.22908645e-03 7.53921922e-03 -1.33139379e-02 1.28181586e-02 -1.63606405e-02 1.86472312e-02 2.03144550e-02 1.75850242e-02 1.48736313e-02 1.08475368e-02 2.33286601e-02 2.09870543e-02 1.25873256e-02 1.88188385e-02 -1.71332415e-02 -1.64686702e-02 -1.69041497e-03 -2.31899600e-02 -1.51029918e-02 6.39309781e-03 -1.65466145e-02 1.74186323e-02 -9.51005146e-03 1.85524300e-02 -1.73702333e-02 1.98276509e-02 2.81941295e-02 -9.41973366e-03 1.69710591e-02 2.35981625e-02 8.16959143e-03 9.18905158e-03 -2.47004665e-02 -2.02033632e-02 2.26287991e-02 7.90282735e-04 1.12910485e-02 2.42377818e-03 -5.93291037e-03 -4.34308685e-03 4.56337817e-03 1.35072041e-02 8.64001398e-04 -3.02004372e-03 2.73082834e-02 -1.90419657e-03 5.67358686e-03 8.64656456e-03 1.70369148e-02 1.61183458e-02 -1.60760824e-02 -1.51762308e-03 7.28984782e-03 6.07642869e-04 7.03447033e-03 2.08468409e-03 -8.16544984e-03 -7.56621826e-03 8.82804301e-03 9.92802717e-03 2.53972653e-02 1.47099197e-02 -1.86633021e-02 -2.25261059e-02 -2.27606408e-02 7.01698801e-03 -1.71802808e-02 -1.83774612e-03 2.11713351e-02 1.56888422e-02 1.22098755e-02 -3.03818402e-03 5.83107991e-04 -1.08291637e-02 4.02716454e-03 -8.75599217e-03 -6.86772109e-04 5.63543872e-04 5.17526548e-03 -2.35482142e-03 1.44068291e-02 9.57967993e-03 5.67382574e-03 -1.62283946e-02 -6.00977987e-03 1.83769166e-02 -2.35243943e-02 1.38297826e-02 -6.70208875e-03 2.47899033e-02 6.20769477e-03 -7.56627042e-03 3.40265362e-03 5.41893183e-04 1.81205552e-02 6.66493597e-03 -3.04252171e-04 -1.66506879e-02 -1.89250633e-02 -2.80069672e-02 -1.85261145e-02 -2.44296938e-02 -2.48080622e-02 -1.40771791e-02 1.83044467e-02 1.81895904e-02 -2.15869714e-02 1.12160034e-02 -1.48819834e-02 1.70966238e-02 5.66000631e-03 4.32955753e-03 7.84648675e-03 1.15231024e-02 -4.24574548e-03 1.00728422e-02 2.46089119e-02 1.97031088e-02 3.02225957e-03 -1.29225887e-02 1.53103936e-02 -8.98185838e-03 -4.20819130e-03 1.49971526e-02 1.27660809e-02 4.66773054e-03 1.20860450e-02 -3.19517241e-03 -1.66201629e-02 -1.44818248e-02 2.29664650e-02 -2.50940886e-03 -4.94968845e-03 -1.72124486e-02 -5.05397795e-04 1.09903878e-02 1.18041942e-02 -1.13395695e-02 1.01000834e-02 2.06632521e-02 -1.35148093e-02 1.32290535e-02 -1.01076094e-02 -1.94505956e-02 1.73248574e-02 -2.92809960e-03 -1.15010925e-02
-4.19375896e-02 -3.78460102e-02 7.54184090e-03 -2.81551369e-02 -4.68727462e-02 5.50287738e-02 6.20912723e-02 -4.49059345e-02 -3.30417184e-03 4.34596352e-02 -6.99928850e-02 -2.16399450e-02 2.61158496e-03 7.38440081e-03 1.95408184e-02 4.23297286e-03 1.04158059e-01 -3.67667228e-01 1.19432345e-01 6.10397160e-02 -1.64591685e-01 -1.95522383e-02 -5.90599030e-02 -1.49899185e-01 9.02030617e-03 2.31767930e-02 -3.33570540e-02 1.15148593e-02 5.24908081e-02 4.64367261e-03 -8.98804422e-03 -1.98602863e-02 5.69851790e-03 -1.27735338e-03 4.87520434e-02 1.18201422e-02 -4.19396684e-02 -2.44387472e-03 7.40055228e-03 4.88128094e-03 9.81294923e-03 2.28208583e-03 -2.81381514e-02 1.02377366e-02 -2.41034627e-02 1.61575247e-02 1.61699690e-02 -6.56186789e-02 -8.36382508e-02 8.04750174e-02 4.99562360e-02 8.08013082e-02 5.29652275e-02 7.02089518e-02 -5.41372113e-02 2.75997162e-01 -6.04932755e-02 4.43328656e-02 -2.43566036e-02 -2.42703967e-02 -7.86876492e-03 7.79746771e-02 2.51492690e-02 -7.82035515e-02 -4.84758057e-02 6.41178433e-03 4.28116098e-02 5.86965382e-02 1.70245077e-02 -1.11880135e-02 -5.54262474e-02 4.68938574e-02 -7.44948536e-02 -4.92439009e-02 -1.32721350e-01 -7.37434849e-02 1.28984213e-01 -2.91064876e-04 1.28236771e-01 7.67714977e-02 4.81311977e-02 -7.13619664e-02 -5.54537661e-02 -4.77140620e-02 -5.55400103e-02 -8.74810964e-02 7.64158294e-02 -3.71538438e-02 6.11033700e-02 9.20078717e-03 -6.33182153e-02 5.93485050e-02 5.60271367e-03 3.80198322e-02 1.67638380e-02 -6.21233582e-02 1.45229800e-02 -1.86247984e-03 -1.63393538e-03 1.83902087e-03 -2.10825242e-02 4.19690907e-02 -2.42668707e-02 -6.30093664e-02 1.74164623e-02 4.77562472e-03 -2.26210598e-02 6.97218925e-02 -3.25732529e-02 1.15049817e-03 3.09886001e-02 -1.04974089e-02 8.46995041e-03 -1.37172295e-02 -4.08971757e-02 3.18491943e-02 2.26522833e-02 3.33089605e-02 1.27462456e-02 1.85882451e-03 -8.20701476e-03 2.52026636e-02 -5.60688674e-02 1.29013015e-02 -1.71402097e-02 -1.05919605e-02 4.06770259e-02 4.44790497e-02 1.54777151e-02 -8.91907664e-04 1.33315936e-01 -1.18612656e-02 3.46129537e-02 -1.21665820e-02 3.72340307e-02 1.36104804e-02 -3.00431773e-02 6.51274100e-02 1.26549870e-01 2.37859026e-01 8.70750844e-03 -1.09847300e-01 -1.49918094e-01 1.07675288e-02 -4.00116779e-02 3.19959298e-02 6.88050836e-02 -1.31288975e-01 6.84997663e-02 4.43297848e-02 5.34653515e-02 6.14076480e-02 -5.74916787e-03 8.15180019e-02 5.56626096e-02 -4.31848923e-03 8.98238458e-03 -1.17547493e-02 -1.38363456e-02 1.12510892e-02 8.72802082e-03 2.32808348e-02 3.83771509e-02 5.11850081e-02 1.62084103e-02 -1.21836625e-02 -4.99590263e-02 2.38986909e-02 1.00978753e-02 -1.15495650e-02 -1.23178056e-02 -2.35308409e-02 -3.88954356e-02 1.86914261e-02 -3.49658658e-03 -3.94206116e-04 1.40882656e-02 -2.94015370e-02 -1.37344256e-01 -1.61932539e-02 -7.48654036e-03 2.36268565e-02 5.42917810e-02 -3.01729497e-02 4.57511581e-02 -2.19726451e-02 5.40707484e-02 -5.44193350e-02 -5.99502064e-02 1.43518660e-03 -7.51234517e-02 -5.96686453e-02 -6.38217758e-03 -4.63157631e-02 6.05512504e-03 2.25200895e-02 2.61019599e-02 -8.35388154e-03 -3.15394141e-02 5.76098217e-03 -1.31901763e-02 9.22086928e-03 4.90814401e-03 -2.53474507e-02 -6.82150796e-02 -3.75189297e-02 -3.35031748e-02 5.00301942e-02 -9.21769887e-02 -3.93139664e-03 -4.13441658e-03 -5.17991430e-04 -5.01856441e-03 8.87666866e-02 6.21214509e-03 8.98419414e-03 1.07809789e-02 -1.53154442e-02 2.68367138e-02 -7.34204240e-03 -8.70030723e-04 1.31747602e-02 4.12723282e-03 2.13481914e-02 7.65135586e-02 -4.44251113e-02 5.06329350e-02 -3.64258438e-02 -2.95988582e-02 1.36767358e-01 2.19283514e-02 -1.14789931e-02 -3.96631984e-03 -5.59915677e-02 -4.84068878e-03 -9.78876092e-03 7.19111040e-02 3.02582905e-02 -2.55461000e-02 1.46927284e-02 5.87483793e-02 -5.52150644e-02 5.24735935e-02 9.14167985e-03 -1.67438999e-01 6.66939542e-02 -5.05949296e-02 -4.09340821e-02 -5.59272319e-02 4.67296280e-02 -4.23128381e-02 4.91732173e-02 4.03444357e-02 -5.85569032e-02 2.84103956e-02 -3.50557454e-02
-1.76231340e-02 -2.58943234e-02 2.34210230e-02 -1.45298503e-02 -2.60663144e-02 1.87930036e-02 2.73789242e-02 -2.07740013e-02 -1.72783174e-02 -1.38419038e-02 9.75122862e-03 1.14329653e-02 -2.40289588e-02 1.62224472e-02 -2.11359747e-02 -1.38232540e-02 -1.30421296e-02 1.96916168e-03 -1.24189248e-02 -1.83497071e-02 5.39105292e-03 1.02693867e-02 -1.32058430e-02 1.22708175e-02 1.90181565e-02 1.44786835e-02 -1.37804626e-02 2.51298193e-02 1.61041990e-02 -1.02755511e-02 -7.04412023e-03 5.71792293e-03 -1.52004389e-02 -4.75994218e-03 -1.69316307e-02 -2.41908170e-02 -3.01223248e-02 2.13964526e-02 1.10699506e-02 -2.27591954e-02 2.43901778e-02 8.64505209e-03 -1.04937842e-02 -1.50638372e-02 1.73653029e-02 6.34792726e-03 4.46774019e-03 5.96103445e-03 2.09628721e-03 -1.29452664e-02 -5.21335518e-04 -4.92162164e-03 -1.38354022e-02 -7.20321806e-03 -2.18777824e-03 1.13784587e-02 2.68745422e-02 -2.23245192e-02 1.70361605e-02 1.29915792e-02 1.55011080e-02 -1.90099068e-02 -2.21554730e-02 3.08574177e-02 -2.73586717e-03 6.02024607e-03 1.16238173e-03 1.04935877e-02 1.50217647e-02 -1.18629187e-02 -9.54641495e-03 1.46726239e-02 -1.48982657e-02 -7.49950623e-03 -8.90572555e-03 -1.54027184e-02 1.30436746e-02 1.88678168e-02 2.62497365e-02 4.14441247e-03 4.27454850e-03 -1.49344802e-02 -2.59868545e-03 -1.23164151e-02 -8.52138922e-03 -1.13541363e-02 -6.13197545e-03 -2.22146157e-02 -1.69477332e-02 -1.26811536e-02 1.89707316e-02 1.41801126e-03 2.35794127e-04 1.38174684e-04 -3.84025945e-04 3.74780851e-03 -1.46121683e-03 3.96724278e-03 3.15016671e-03 9.42019187e-03 9.14122257e-03 1.73123591e-02 1.27727352e-02 -2.97043519e-03 9.04182065e-03 1.33282421e-02 2.83439346e-02 3.84367560e-03 -7.05245789e-03 6.83229696e-03 7.18990434e-03 -1.79138258e-02 1.67598166e-02 -2.05625594e-02 5.91709372e-03 1.25317927e-02 1.39804045e-02 1.67057887e-02 1.11685507e-02 2.20015701e-02 1.26591465e-02 2.01898348e-03 2.27173064e-02 -1.07262833e-02 -1.15029914e-02 1.12156160e-02 -8.52396246e-03 -3.11935111e-03 8.71528313e-03 -6.53456524e-03 2.56754793e-02 -2.04117279e-02 9.90149938e-03 -1.95281338e-02 6.80569978e-03 2.22556852e-02 -2.58406457e-02 2.63112914e-02 2.12665852e-02 2.45422982e-02 2.43382975e-02 -4.63064015e-03 -6.48383889e-03 2.42455304e-02 -4.48122201e-03 1.77915096e-02 2.07154248e-02 -2.79162060e-02 1.79343764e-02 6.09587645e-03 5.14974166e-03 3.35038523e-03 -1.17434235e-02 1.65675413e-02 7.85741769e-03 1.71369929e-02 1.48341730e-02 4.12563095e-03 4.09280462e-03 -1.80613641e-02 1.27518680e-02 1.78098679e-02 2.48467643e-03 8.52558855e-03 2.49356963e-03 -1.80952568e-02 -9.99078806e-03 8.74487776e-03 5.86668355e-03 9.54068918e-03 7.75590958e-03 -1.04387058e-02 -2.55327541e-02 -2.33772863e-02 2.12209430e-02 -2.52317749e-02 -1.65613592e-02 2.66666594e-03 -5.97571908e-03 6.83219451e-03 -1.42475255e-02 -8.02664459e-03 2.31283484e-03 -9.80501994e-03 -1.68042034e-02 5.17991465e-03 -1.32637667e-02 1.41637437e-02 -5.54169621e-03 1.33248465e-02 -9.09549277e-03 1.48362468e-03 -1.50052337e-02 -1.60177425e-02 4.51421598e-03 -1.16416253e-02 1.25247575e-02 -9.48245544e-03 2.41139736e-02 1.89997498e-02 -4.96980781e-03 9.76751372e-03 -1.56080378e-02 2.00951565e-02 9.07917507e-03 -1.60712246e-02 -8.08496552e-04 -1.14616416e-02 -2.44831834e-02 -7.14963721e-03 -1.67750772e-02 -1.78592540e-02 -1.75091606e-02 1.31737189e-02 1.96185429e-02 -1.56587940e-02 1.48531534e-02 -1.94121245e-02 2.90081371e-02 1.78221855e-02 7.99081009e-03 1.13526564e-02 2.33118031e-02 -3.65019747e-04 1.26678245e-02 9.22624115e-03 1.44793391e-02 1.88603532e-02 -2.10721307e-02 7.59273814e-03 -1.02881650e-02 -8.09026416e-03 1.68018322e-02 1.87304132e-02 2.06365623e-02 2.27903500e-02 -2.29367781e-02 -1.65091157e-02 -1.29459687e-02 2.50151716e-02 1.72696542e-02 9.02031083e-03 -2.36362256e-02 1.64698623e-02 -1.06586777e-02 1.83398947e-02 -8.72129481e-03 2.17678268e-02 1.22956410e-02 -1.62676740e-02 8.55386350e-03 -6.82458142e-03 -6.15441240e-03 2.77264845e-02 -2.57593915e-02 -1.78560968e-02
-1.82775371e-02 -8.83736368e-03 2.66449526e-02 -2.64206678e-02 -2.05337629e-02 2.46034209e-02 2.93996558e-02 -2.11697891e-02 -1.20721729e-02 -8.12011026e-03 6.99751684e-03 7.12545868e-03 -2.43923757e-02 5.21691050e-03 -6.87972782e-03 -2.24829353e-02 -1.29899029e-02 -8.27152748e-03 -1.93992369e-02 -1.54460138e-02 1.99250970e-02 -1.38011866e-03 -1.40888337e-02 8.81184358e-03 2.00590827e-02 2.14673113e-02 -1.52914906e-02 6.62531843e-03 4.59205033e-03 -1.52036361e-02 -1.02223568e-02 6.28934288e-03 -2.35191286e-02 -1.49188014e-02 -6.92274328e-03 -7.69570656e-03 -2.63896286e-02 2.42623165e-02 2.39495616e-02 -2.80929785e-02 1.32218506e-02 2.09679566e-02 -1.82390790e-02 -4.92270896e-03 5.30670164e-03 2.11451259e-02 2.28951890e-02 5.09373331e-03 1.61679350e-02 -9.35390964e-03 -1.15997521e-02 -6.73563452e-04 -1.09958658e-02 -3.52817541e-03 2.67157750e-03 1.39292777e-02 2.75915489e-02 -2.86780652e-02 2.65007336e-02 2.15699393e-02 3.22867818e-02 -2.75989976e-02 -1.26629490e-02 1.56690758e-02 1.47834804e-03 8.94458778e-03 6.04266720e-03 1.14170536e-02 3.48217064e-03 -6.27965294e-03 -1.52641190e-02 6.76329341e-03 -6.28763158e-03 -1.73542369e-02 -1.99928526e-02 -6.49023149e-03 2.23614853e-02 1.44275185e-02 1.73842181e-02 2.24529263e-02 8.44109710e-03 -1.37783913e-02 -1.55558754e-02 -2.21203230e-02 -1.65610947e-02 -1.21316053e-02 3.61877406e-04 -2.22367290e-02 -1.11595066e-02 -7.73364585e-03 1.23494491e-02 -6.42819609e-03 4.60281083e-03 -5.49077475e-03 2.26851017e-03 1.16775706e-02 -1.70521419e-02 1.75417475e-02 2.53103934e-02 2.00599227e-02 2.14951020e-02 1.47644272e-02 7.22982036e-03 -7.99785089e-03 1.18231373e-02 2.06839014e-02 1.54434126e-02 2.31769215e-02 -1.65093783e-02 8.92724004e-03 4.48249048e-03 -2.28577219e-02 6.37848163e-03 -1.04822749e-02 2.45850496e-02 1.87217873e-02 1.64496060e-02 1.87718011e-02 1.05543202e-02 9.32640024e-03 4.03453968e-03 1.76368728e-02 1.09855784e-02 -1.90173462e-02 -2.09479257e-02 1.39482692e-02 -1.80806126e-02 -2.51136534e-02 2.30221469e-02 -1.38126230e-02 2.01324392e-02 -8.52607191e-03 1.34036299e-02 -2.39316188e-02 1.28562255e-02 2.12119687e-02 -5.64833172e-03 1.04773641e-02 2.10950319e-02 1.16818585e-02 1.60313230e-02 -4.69989050e-03 -2.40118746e-02 2.02926733e-02 -1.73867941e-02 2.21522227e-02 1.14076026e-02 -1.98837351e-02 -9.22036532e-04 1.01341093e-02 1.06926160e-02 6.71240175e-03 -1.59082208e-02 1.72411799e-02 1.66833890e-03 2.11079568e-02 4.50710580e-03 6.57328172e-03 1.00237411e-02 -2.41184607e-02 2.95299338e-03 5.08692255e-03 1.10292593e-02 4.47909255e-03 1.26922049e-03 -1.66410040e-02 -3.83944280e-04 1.49861984e-02 7.50153139e-03 1.96801890e-02 5.67234401e-03 -1.12690534e-02 -2.98880618e-02 -2.57386137e-02 1.57825332e-02 -2.33431626e-02 -1.43619895e-03 1.72122531e-02 -1.09024942e-02 9.26781259e-03 1.35743234e-04 -6.95279986e-03 1.61303766e-02 -1.19244093e-02 -6.39193086e-03 -1.09510170e-03 -9.81390197e-03 7.79648032e-03 -1.40195070e-02 1.05735995e-02 -3.61629808e-03 9.90595669e-03 -1.72162876e-02 -2.79026516e-02 2.81526037e-02 -1.90318208e-02 1.16668288e-02 -2.31778864e-02 1.03898430e-02 9.74516943e-03 -9.46926046e-03 1.39401210e-02 -1.62753873e-02 2.45620385e-02 2.05423832e-02 -1.91098533e-03 8.71700700e-04 -1.51571063e-02 -2.81056575e-02 -8.62029660e-03 -2.44567730e-02 -2.75554601e-02 -2.85963360e-02 1.70548577e-02 2.18201559e-02 -5.92416525e-03 7.77659379e-03 -2.47757118e-02 6.92800991e-03 4.58705192e-03 2.57758722e-02 2.07247883e-02 2.64533684e-02 -8.24959762e-03 1.01996111e-02 2.06669811e-02 2.46231221e-02 2.51642298e-02 -1.55783584e-02 2.21892186e-02 -2.78833546e-02 -1.72402263e-02 1.42442668e-02 1.10146571e-02 5.15103992e-03 4.34931135e-03 -2.30376367e-02 -1.55141000e-02 -2.66987197e-02 2.61653773e-02 9.92768165e-03 6.64239144e-03 -2.16420610e-02 2.33814623e-02 5.79232769e-03 -1.26441184e-03 -2.82976381e-03 2.11431086e-02 6.72278181e-03 -7.98758585e-03 9.17909481e-03 -1.69710666e-02 -1.14378110e-02 1.81558635e-02 -1.50805712e-02 -2.19211690e-02
7.99941365e-03 3.62373400e-03 -8.59340280e-03 8.76167323e-03 -1.28034642e-02 1.00241546e-02 9.07675829e-03 -4.34782682e-03 -3.71854194e-03 2.41310988e-03 -5.73176099e-03 -7.66410120e-03 -1.70792104e-03 5.82792377e-03 2.33815843e-03 -8.50179605e-03 -1.45484018e-03 9.09237843e-03 7.62845948e-03 8.61570146e-03 6.87429099e-04 -4.93505551e-03 5.24093304e-03 -3.89200472e-03 -1.04029384e-03 2.08798680e-04 -7.62087351e-04 2.33796518e-03 -1.33138523e-03 -6.06988603e-03 5.87828038e-03 -2.66321586e-04 -9.92577872e-04 -4.45264945e-04 8.86001042e-04 -9.66583565e-03 -9.85500868e-04 -5.07436962e-05 -5.25486609e-03 4.11303062e-03 7.63792731e-03 1.53883803e-03 -8.92861467e-03 8.02552619e-04 7.00650597e-03 4.51140432e-03 7.04308273e-04 -9.77043342e-03 -9.71611962e-03 1.17181789e-03 5.78372134e-03 -1.04964711e-03 -6.37596613e-03 -6.39320165e-03 -9.97156184e-03 -4.38595191e-03 -4.13416279e-03 2.88321264e-03 6.72041252e-03 1.64606366e-02 -2.85585481e-03 -3.98194214e-04 -3.68344062e-03 4.90975427e-03 1.20421341e-02 -3.88005213e-03 -7.13212276e-03 -7.02971499e-03 -2.38553551e-03 -1.00752888e-02 7.54179619e-03 -9.91183333e-03 -1.00952070e-02 -5.11617213e-03 -4.20732750e-03 5.60176792e-03 -9.66209732e-03 1.07102655e-02 -9.40554775e-03 3.98561126e-03 1.12485196e-02 8.05549603e-03 8.15114565e-03 -4.71478608e-03 4.96526575e-03 -8.02913494e-03 5.66822884e-04 1.42787874e-04 -9.77373216e-03 1.08571583e-03 -7.92703684e-03 -9.19825688e-04 -3.97313852e-03 -9.07467213e-03 -5.94013138e-03 -8.74883309e-03 -1.88845885e-03 1.23891784e-02 9.51115973e-03 -1.21880118e-02 -4.52475296e-03 -6.05649082e-03 6.64039701e-03 5.02296071e-03 1.23157436e-02 4.29810910e-03 1.16025014e-02 -5.11373673e-03 7.82808010e-03 8.25649034e-03 1.68700214e-03 -7.92192761e-03 1.75818335e-03 -8.56421189e-04 1.01546841e-02 -4.41296538e-03 -8.04505777e-03 1.12818284e-02 1.46716309e-03 -1.30702974e-04 6.40671514e-03 -3.26948566e-03 -8.56781844e-03 -5.09857852e-03 -4.00382886e-03 -1.58715947e-03 3.65416752e-03 -1.09198019e-02 5.93311759e-03 -7.99496286e-03 -4.18037223e-03 4.22337465e-03 1.25947278e-02 -2.30392162e-03 8.31555482e-03 4.58317529e-03 -3.37718264e-03 8.42707045e-03 -1.76294532e-03 1.13458848e-02 -2.31010836e-05 -8.90387967e-03 -4.87852190e-03 1.56309502e-03 9.54991952e-03 1.02646658e-02 5.47533529e-03 1.18052578e-02 4.78404993e-03 6.09441334e-03 4.62713558e-03 -8.73717666e-03 -8.65287893e-03 -2.77933502e-03 1.21147535e-03 -8.45680013e-03 8.91721901e-03 -6.63480395e-03 6.90063741e-03 6.11871947e-03 9.00844764e-03 1.03249308e-02 5.45465155e-03 -7.76272733e-03 1.68245041e-03 1.06230266e-02 -2.83154729e-03 8.77154525e-03 8.23532604e-03 -3.47665325e-03 -6.86839689e-03 3.41833453e-03 -1.60600320e-02 5.02444198e-03 6.91301841e-03 -8.34845752e-03 -2.28933385e-03 -7.43594905e-03 1.54257775e-03 -9.08317976e-03 -2.18655611e-03 4.56823921e-03 -4.16342728e-03 8.45970958e-03 5.39119821e-03 7.41957314e-03 3.84675432e-03 8.14207736e-03 3.72468494e-03 2.66269781e-03 1.32870639e-03 2.11939262e-03 -4.10792138e-03 4.71368876e-05 5.82045177e-03 -2.69198953e-03 -4.34825011e-03 5.04467404e-04 2.60038447e-04 -1.53881602e-03 7.18321512e-03 -5.43206744e-03 1.65926048e-03 -3.42324702e-03 1.92540127e-03 -9.54069430e-04 -4.66473633e-03 -1.20696239e-02 -1.38034774e-02 5.15541388e-03 -1.39577994e-02 5.76667208e-03 -5.39848441e-03 6.25325553e-03 -5.57397353e-03 -1.36876116e-02 -8.32142495e-03 -8.36413819e-03 2.05542470e-04 9.46971774e-03 1.35838902e-02 9.04256757e-03 -9.98309162e-03 8.14918429e-03 -5.96358906e-03 4.61457204e-03 8.91572889e-03 -5.12257731e-03 -5.20448014e-03 -3.88111454e-03 -8.87851603e-03 -9.66711249e-03 5.82348788e-03 6.35358738e-03 8.02669954e-03 2.91866087e-03 -8.42526741e-03 1.00646606e-02 -8.55337456e-03 2.86492542e-03 -5.01268031e-03 -9.72642470e-03 1.77529757e-03 1.54884183e-03 3.23324907e-03 -8.96813534e-03 3.29513848e-03 -1.15238186e-02 7.73430383e-03 -9.94959567e-03 9.42401215e-03 -1.16517004e-02 9.55429301e-03 3.14922363e-04 -9.08257253e-03 -1.63242240e-02
-2.21982300e-02 -2.40586791e-02 1.95552446e-02 -8.46977625e-03 -1.06953029e-02 2.16099322e-02 2.63861679e-02 -1.20001212e-02 -2.21871659e-02 -2.56864093e-02 1.54520124e-02 2.44805589e-02 -7.26844789e-03 2.47715730e-02 -1.19390953e-02 -2.16502044e-02 -2.07605697e-02 -2.49175597e-02 -1.76937804e-02 -1.52833778e-02 3.01565742e-03 3.02789244e-03 -2.24245656e-02 -1.21355301e-03 2.60100998e-02 6.36263611e-03 -1.37939993e-02 1.00944554e-02 2.16965135e-02 -1.91884600e-02 -7.16059050e-03 1.49189951e-02 -1.04361298e-02 -1.77523475e-02 -9.13656503e-03 -1.85858384e-02 -9.28787142e-03 1.49508156e-02 5.71877742e-03 -5.52980090e-03 1.21292640e-02 1.12094926e-02 -1.59553513e-02 -1.37516633e-02 2.53164005e-02 1.92451868e-02 8.87802709e-03 2.47199256e-02 5.42614469e-03 -6.80731330e-03 -2.40808576e-02 -6.21739076e-03 -3.46899615e-03 -1.61957461e-03 1.04300734e-02 2.30536554e-02 1.80137083e-02 -2.78225150e-02 7.74485990e-03 1.87918581e-02 8.07557441e-03 -1.78736076e-02 -1.19909169e-02 2.11198516e-02 -1.86500400e-02 5.66751510e-03 1.53453844e-02 2.31029391e-02 7.51727261e-03 -1.16918655e-02 -1.64872017e-02 5.49482647e-03 -2.01880820e-02 -4.27387469e-03 -5.24457963e-03 -2.59136911e-02 1.06740082e-02 1.83129571e-02 1.17430659e-02 2.66982950e-02 3.04285786e-03 -2.15986874e-02 -5.74013032e-03 -1.29880272e-02 -2.36714128e-02 4.20091860e-03 -3.52284685e-03 -2.86000594e-03 -1.40934577e-02 -9.15589929e-03 1.45883765e-02 -2.19918098e-02 -5.60311368e-03 -1.33011658e-02 -1.44005669e-02 2.04272810e-02 -4.38712258e-03 2.14054678e-02 9.14963428e-03 2.01076996e-02 2.05467045e-02 9.57669877e-03 9.53404978e-03 -8.20305850e-03 1.63891595e-02 2.08819751e-02 6.42544264e-03 4.06578043e-03 -1.39382873e-02 2.53187232e-02 6.48295600e-03 -2.47084368e-02 5.33241592e-03 -8.59693717e-03 5.57166524e-03 6.93883421e-03 1.44060301e-02 2.66452115e-02 1.06834341e-02 9.55394562e-03 1.23427138e-02 1.22131994e-02 1.04465485e-02 -1.36154471e-02 -6.19419664e-03 9.07396991e-03 -2.00022850e-02 -1.95002630e-02 1.73495803e-02 -1.26274684e-02 6.14020880e-03 -2.02491283e-02 1.33807017e-02 -1.90574583e-02 6.73380215e-03 1.69101432e-02 -1.70749482e-02 1.77455284e-02 1.89065989e-02 1.98995192e-02 7.20642321e-03 -1.81574319e-02 -6.50389306e-03 2.69258004e-02 -2.40046140e-02 2.13177353e-02 3.99152189e-03 -1.57242361e-02 5.22469915e-03 2.54033832e-03 1.62480474e-02 1.58217140e-02 -2.11804286e-02 1.30026005e-02 1.75758488e-02 3.66053241e-03 1.11289229e-02 1.51366955e-02 9.60896630e-03 -1.76765621e-02 2.22241171e-02 2.17921305e-02 4.07458167e-04 5.93588362e-03 5.61653113e-04 -8.93360283e-03 -1.25208786e-02 1.41165666e-02 2.29619872e-02 5.93586266e-03 2.68710479e-02 -2.90042777e-02 -7.39358040e-03 -1.60777476e-02 1.15442676e-02 -1.12438351e-02 -3.10135470e-03 2.20951792e-02 1.43937767e-03 1.72933545e-02 -1.93569846e-02 -1.86367333e-02 2.24725120e-02 -1.98469032e-02 -2.27676649e-02 1.00852149e-02 -1.19312778e-02 5.67932008e-03 -9.46641620e-03 1.48503613e-02 1.04451170e-02 9.75943077e-03 -2.32230090e-02 -3.06041315e-02 9.55631491e-03 -6.11184724e-03 2.76970379e-02 -7.41833262e-03 9.00527462e-03 1.01997964e-02 -1.65901370e-02 2.11737268e-02 -1.88145060e-02 4.25916910e-03 2.14432292e-02 -1.41901327e-02 -1.75781008e-02 -2.28686053e-02 -6.64947834e-03 -7.78195215e-03 -2.42191069e-02 -2.42588855e-02 -1.86365768e-02 1.13998083e-02 1.35706337e-02 -1.45806056e-02 3.47573846e-03 -2.94963643e-02 2.73505021e-02 2.69324072e-02 5.26741846e-03 1.79144815e-02 1.66387670e-02 -1.51855284e-02 2.08375882e-02 1.08651062e-02 4.06456972e-03 2.20969450e-02 -1.54062714e-02 2.83683632e-02 -2.28577200e-02 -2.03549936e-02 1.50639378e-02 1.30959833e-02 1.06283333e-02 1.22386245e-02 -1.58341080e-02 -1.69649459e-02 -2.02223212e-02 2.39589177e-02 1.48790265e-02 5.50569221e-03 -1.51012959e-02 4.41076234e-03 1.62120890e-02 2.51892731e-02 -2.22763997e-02 1.07581047e-02 2.30687205e-02 -7.12538185e-03 1.14314454e-02 -7.06273550e-03 -8.96369107e-03 4.50594164e-03 -9.95546952e-03 -8.27195123e-03
-2.72736256e-03 -6.01113029e-03 1.25802848e-02 -2.20437441e-02 -1.85511876e-02 1.73794143e-02 9.75294132e-03 -4.98137902e-03 -1.51666785e-02 -1.18754506e-02 1.73761211e-02 1.79815143e-02 -5.79235563e-03 -1.22020952e-03 -1.33910514e-02 -1.87791474e-02 -1.24916825e-02 -1.10307066e-02 -1.14596616e-02 3.27210315e-03 -4.81501222e-03 3.83126177e-03 4.91106370e-03 -4.53297934e-03 2.94278329e-03 1.05826408e-02 -1.15292156e-02 6.20037317e-03 1.81622114e-02 -1.22168232e-02 -1.28909722e-02 6.00561034e-03 -1.76329035e-02 -6.76765526e-03 -1.50522990e-02 -1.70431323e-02 -5.40470611e-03 1.74847874e-03 4.48302319e-03 -1.39533880e-03 3.58713791e-03 9.46563855e-03 -1.91729178e-03 -1.63515739e-03 1.52076464e-02 5.02652954e-03 7.46840797e-03 3.68990377e-03 6.01338455e-03 1.26690499e-03 -1.56378206e-02 -1.34486323e-02 4.38779127e-03 -1.03530595e-02 1.56406518e-02 1.39766820e-02 1.66712813e-02 -8.79100338e-03 2.54372526e-02 7.72749539e-03 6.45809108e-03 -1.31100789e-02 -2.52687242e-02 2.25231815e-02 -2.15221290e-03 1.32609084e-02 7.51239655e-04 7.60352332e-03 7.21550733e-03 -8.51379149e-03 -1.01029715e-02 -2.37561436e-03 -6.92482200e-03 -1.30829504e-02 -8.84648506e-03 -3.33922659e-03 1.55343069e-02 6.35961164e-03 1.58756450e-02 8.11396167e-03 1.45800284e-03 -1.15683314e-03 4.44150355e-05 1.58648344e-03 -8.79490655e-03 -5.61637618e-03 -3.95456795e-04 -9.53098293e-03 -1.47492427e-03 -1.14714140e-02 -3.41303297e-03 -1.24028474e-02 -7.42356107e-03 -1.60890166e-02 -6.66093919e-03 1.10329818e-02 -1.46118961e-02 2.76140939e-03 8.00232776e-03 1.77422073e-02 8.78225267e-03 -3.51638673e-03 -1.63018808e-03 -5.27074141e-03 -1.54392386e-03 1.22950273e-02 2.49282327e-02 -2.45391950e-03 2.69974908e-03 -3.17957439e-03 1.65964644e-02 -9.78655927e-03 9.07819346e-03 -1.10932356e-02 7.64178298e-03 5.88773051e-03 1.25857368e-02 1.41285090e-02 2.36471696e-03 7.26831844e-03 1.62548739e-02 1.84002016e-02 1.77604258e-02 -2.04960704e-02 1.27382475e-04 -7.57682137e-04 -1.91896427e-02 -2.12255102e-02 1.61174331e-02 -1.64333228e-02 5.54516539e-03 -7.51091458e-04 4.52311616e-03 -1.37289073e-02 1.08332383e-02 2.49224417e-02 -2.27604881e-02 2.03279667e-02 7.02298759e-03 1.10887997e-02 1.20183080e-02 -2.37333942e-02 -1.45686781e-02 5.31388959e-03 -1.72251817e-02 1.92603320e-02 -2.50290940e-03 1.81530020e-03 7.63798133e-03 -8.68824020e-04 -2.29205796e-03 -3.83499824e-03 -1.29105635e-02 4.59370390e-03 1.24631627e-02 1.26342857e-02 1.16534764e-02 1.16359564e-02 4.46573086e-03 -3.67840461e-04 -2.49474938e-03 1.47675648e-02 1.63655763e-03 -7.50441616e-03 4.07457678e-03 -2.64101289e-03 -1.24040935e-02 1.14932219e-02 2.63341591e-02 7.52328010e-03 2.24672351e-03 -1.04741529e-02 -1.45131378e-02 -2.44916175e-02 1.72220916e-02 -1.28281284e-02 4.50382987e-03 1.66582577e-02 5.43913851e-03 -2.58115958e-03 -1.45927621e-02 -1.36617024e-03 -7.90766731e-04 -1.47789950e-03 -8.34045280e-03 1.17349261e-02 -5.40568214e-03 -3.08066234e-03 -6.16767490e-03 7.99381640e-04 -1.96724432e-03 1.81925744e-02 -7.61830062e-03 -1.82396024e-02 5.44005213e-03 -6.49319123e-03 9.26453061e-03 -1.91197768e-02 1.78597122e-03 1.33751007e-02 -1.95596926e-02 1.71296846e-03 1.14706799e-03 3.06196162e-03 1.48214819e-02 -8.05668649e-04 -1.56259350e-02 -1.08037135e-02 -1.11161005e-02 -2.47575413e-03 -5.16088214e-03 -2.24351306e-02 -1.22741098e-03 2.71237977e-02 1.80573165e-02 -7.39272730e-03 -1.39579875e-03 -1.19036343e-02 1.92243550e-02 -3.13992798e-03 4.83979797e-03 -3.14478506e-03 1.15779117e-02 -1.17257016e-03 2.11033076e-02 1.98758915e-02 6.81219203e-03 2.18104105e-02 -2.21878681e-02 9.09101870e-03 -9.05198697e-03 -1.35586346e-02 2.03266367e-02 3.76608828e-03 7.02883583e-03 3.50526930e-03 -4.37825080e-03 -1.94260459e-02 -2.62948293e-02 2.60287593e-03 7.48755690e-03 1.22078406e-02 -1.66788511e-02 -2.84712296e-04 -1.09508121e-02 3.92258912e-03 -6.02638535e-03 -2.25059642e-03 2.69573095e-04 -4.10893792e-03 1.76527333e-02 -5.20560751e-03 -4.71724244e-03 7.19463127e-03 -2.41954364e-02 -1.85337327e-02
-1.03203477e-02 -2.26088967e-02 1.85666643e-02 -8.46789312e-03 -2.55270749e-02 7.43188523e-03 1.39987208e-02 -9.72127635e-03 -2.48587374e-02 -3.49775609e-03 1.18657071e-02 1.11116292e-02 -6.16880646e-03 5.00060525e-03 -1.88485347e-02 -1.88692822e-03 -1.64329913e-02 1.83260459e-02 -1.45796984e-02 -1.09894865e-03 2.04064250e-02 2.09353752e-02 -1.19310971e-02 1.98120326e-02 1.17906937e-02 1.67430025e-02 -2.04485245e-02 4.71158512e-03 2.57745176e-03 -1.73358507e-02 -2.02857703e-02 1.09632118e-02 -2.04500612e-02 -1.67111196e-02 -1.38893174e-02 -4.52301931e-03 -1.87952071e-02 1.12385470e-02 2.87517030e-02 -4.98799374e-03 1.53085198e-02 1.96449235e-02 -1.62734911e-02 -1.52875176e-02 2.10279692e-02 1.95653494e-02 2.26336773e-02 1.02991555e-02 5.02024963e-03 4.39981872e-04 -2.15644371e-02 -6.74429303e-03 -8.71998351e-03 -2.42215842e-02 -1.33032750e-04 1.46123488e-02 2.37810332e-02 -7.32830586e-03 2.22838353e-02 1.71661042e-02 1.16229765e-02 -2.00600829e-02 -6.83451397e-03 2.34508608e-02 -1.44200737e-03 4.79819719e-03 1.35674579e-02 -6.80425204e-03 1.47049529e-02 -1.50638074e-02 -1.64925400e-02 -5.04628336e-03 -1.73538756e-02 -2.47394554e-02 -5.06830215e-03 -1.99039746e-02 1.86766442e-02 6.27578003e-03 2.07801703e-02 1.88534707e-02 1.85769461e-02 -1.04621413e-05 -1.96500793e-02 -2.81282403e-02 -1.89276990e-02 5.32991579e-03 -8.44859052e-03 -1.31038912e-02 -1.33779701e-02 -6.57681283e-03 7.01454515e-03 -1.05394386e-02 3.17288376e-03 -1.12675158e-02 -9.69032478e-03 7.84281734e-03 -1.01968609e-02 9.26627964e-03 2.44299993e-02 8.43601394e-03 1.99712776e-02 2.30624620e-02 4.42496920e-03 -2.71362253e-03 2.09726188e-02 -1.65190909e-03 1.25161447e-02 4.13179537e-03 -9.38210357e-03 1.18601322e-02 1.90146714e-02 -1.27494074e-02 1.09126493e-02 -1.75099671e-02 1.40645960e-02 9.01650824e-03 2.23046672e-02 1.76439118e-02 7.82212336e-03 2.15066560e-02 9.08602728e-04 1.13640642e-02 1.96973328e-02 -2.24330667e-02 -8.92208144e-03 2.14898456e-02 -2.07396690e-02 -1.40377469e-02 7.41262781e-03 -1.69863366e-02 5.91352489e-03 -5.22917043e-03 8.13235715e-03 -4.47056349e-03 9.63248592e-03 1.97642203e-02 -2.67671701e-02 7.64029287e-03 1.79998893e-02 1.99120175e-02 2.19384991e-02 -1.63671207e-02 -1.45554598e-02 5.89690637e-03 -2.74256920e-03 4.51381598e-03 -9.55687428e-04 -5.55435801e-03 5.76207973e-03 7.75521994e-03 3.33780376e-03 1.17371809e-02 -9.39081889e-03 1.45938732e-02 -1.28411176e-03 1.81559306e-02 1.16227614e-02 7.12946383e-03 3.57856811e-03 -1.49050774e-02 1.71252582e-02 4.01871139e-03 1.79888271e-02 9.31007508e-03 1.53391212e-02 -1.86658595e-02 -1.87997930e-02 3.39137274e-03 9.88160074e-03 9.21569858e-03 1.14830751e-02 -3.79757350e-03 -1.46848308e-02 -1.73188671e-02 1.39578711e-02 -1.07931616e-02 -2.17993371e-02 1.13066332e-02 3.37383035e-03 1.91504434e-02 -1.70312431e-02 -1.73156261e-02 1.87142007e-02 -1.79990977e-02 6.57615718e-04 7.84000568e-03 -1.65630970e-02 9.23072919e-03 -1.08632259e-02 8.41402635e-03 1.79571081e-02 2.10842509e-02 -1.77381430e-02 -1.56922918e-02 1.92819294e-02 -1.14571154e-02 1.37110129e-02 -1.39790652e-02 2.16076449e-02 5.31729031e-03 -2.08244752e-02 1.88893303e-02 -2.21032482e-02 1.30971577e-02 2.01184824e-02 6.23116386e-04 -1.82992630e-02 -2.26801317e-02 -2.00132318e-02 -2.46934071e-02 -1.38096726e-02 -8.32583231e-04 -4.40634042e-03 2.36699544e-03 6.38407096e-03 -1.89134739e-02 1.11834472e-02 -4.23406716e-03 2.47073248e-02 1.00816460e-02 5.19921258e-03 -2.88219634e-03 2.03133207e-02 -1.54398913e-02 1.70832593e-02 2.15825289e-02 1.39873242e-02 2.37530228e-02 -7.91317609e-04 4.19758260e-03 -2.17193794e-02 -1.28114326e-02 8.07743613e-03 1.89492311e-02 1.23043107e-02 2.59508733e-02 -1.91285163e-02 -1.69971399e-02 -1.99528481e-03 9.03961249e-03 -2.24454910e-03 1.83750149e-02 -1.41546512e-02 1.53968930e-02 1.19469203e-02 1.77424606e-02 1.35291554e-03 2.00461391e-02 9.16814525e-03 -2.15806924e-02 2.50268709e-02 -1.26581909e-02 -1.23799443e-02 2.51695588e-02 -1.00862049e-02 -1.40244626e-02
-4.91065020e-03 -1.82207618e-02 5.86121168e-04 -1.68741830e-02 -1.10611077e-02 6.32480578e-03 -3.04339174e-03 -1.76270660e-02 -3.54915345e-03 5.59143582e-03 6.95617916e-03 3.30591225e-03 1.43493817e-03 2.86058313e-03 -1.41510963e-02 -5.36430534e-03 -6.36707759e-03 5.44880808e-04 1.07921921e-02 6.68602763e-03 1.50865484e-02 -5.27896453e-04 -3.57606914e-03 1.04705663e-02 9.24662687e-03 -4.56310995e-03 -4.16044408e-04 8.41428246e-03 1.49856079e-02 3.00637702e-03 4.51269932e-03 5.63165033e-03 -9.79964435e-03 -2.62030796e-03 -7.74325384e-03 1.53719832e-03 -1.59286545e-03 1.78990327e-02 1.48495315e-02 -1.72754955e-02 1.10946875e-02 1.59162916e-02 -9.78753064e-03 -4.79560345e-03 8.43049493e-03 1.05258096e-02 1.49653032e-02 4.02958924e-03 -1.15766306e-03 4.78706695e-03 -1.19659025e-03 -6.71196543e-03 -4.74643288e-03 -8.33404344e-03 7.04821525e-03 -3.42760095e-03 1.80928037e-02 -1.86573230e-02 1.91612504e-02 2.00306508e-03 1.10425819e-02 -2.34428648e-04 -1.23448465e-02 -1.08816626e-03 3.73544637e-03 -5.03662787e-03 -1.10390102e-02 6.17305050e-04 4.02768934e-03 8.25883914e-03 -1.25371255e-02 -8.96937493e-03 -8.24862393e-04 -1.22812456e-02 -1.18044140e-02 -8.25376529e-03 9.60303843e-03 -4.09481255e-03 1.41980816e-02 -6.68915175e-03 1.43850558e-02 4.69975965e-03 5.30266995e-03 -1.52901076e-02 5.64813009e-03 5.79616346e-04 -1.10876122e-02 2.30546808e-03 -9.83135216e-03 -1.58734322e-02 -8.70562997e-03 -8.96628015e-03 1.21522360e-02 -5.16380835e-03 -9.18675680e-03 1.09132929e-02 -1.20724253e-02 -1.21184147e-03 1.85144078e-02 1.18655451e-02 -7.09841214e-03 -7.22886808e-03 1.36429230e-02 5.39409136e-03 1.29958941e-02 9.83558036e-03 4.61042393e-03 -6.52891293e-04 -7.15162093e-03 9.10865725e-04 1.25156334e-02 -1.59728155e-02 1.21202441e-02 -1.38164626e-03 8.20597541e-03 3.00519809e-04 -4.48452868e-03 1.47415185e-02 6.12256909e-03 2.23863311e-03 -7.63873802e-03 1.08429687e-02 9.34988726e-04 -2.57337815e-03 6.37619523e-03 1.08281234e-02 -9.58106015e-03 -1.67037416e-02 1.82756763e-02 -1.36567708e-02 1.67370327e-02 -9.96871199e-03 -4.19713976e-03 2.44806497e-03 -7.08059222e-03 1.33576225e-02 3.50718782e-03 7.60360062e-03 5.42960921e-03 8.08133557e-03 7.44584249e-03 -1.17761130e-02 -1.04706557e-02 -1.36667490e-03 1.34497450e-03 1.56515907e-03 9.82428808e-03 -6.64528133e-03 5.25891955e-04 1.29154157e-02 2.47747661e-03 -1.09943850e-02 -2.94427387e-03 -1.57882855e-03 8.93269479e-03 -4.66109766e-03 3.13146017e-03 5.60071645e-03 -9.41330101e-03 -4.96034464e-03 -2.93232501e-03 3.64202145e-03 -1.10213580e-02 7.89223332e-03 -6.01981906e-03 -9.92967095e-03 -6.86682668e-03 -9.16029047e-03 1.34728635e-02 1.41572002e-02 -3.77297890e-03 -1.55245066e-02 -1.92478932e-02 -9.73631255e-03 1.44112334e-02 3.14527657e-03 -1.00787412e-02 1.35006029e-02 1.10269319e-02 2.20757924e-04 -2.90203607e-03 -6.01274427e-03 5.01860026e-03 7.52918748e-03 -4.44400171e-03 1.33384718e-02 -9.76523757e-03 2.96765519e-03 1.86640152e-03 8.92404839e-03 -9.29649267e-03 1.18068783e-02 3.25581734e-03 -4.70150122e-03 9.09128506e-03 -8.16955604e-03 2.07533594e-02 -1.42039228e-02 1.12182945e-02 -1.79793045e-03 5.62567776e-03 1.05843786e-02 6.48903893e-03 6.51738606e-03 -1.52336527e-03 -3.43680778e-03 -1.04842922e-02 -1.05961282e-02 2.25491566e-03 5.43663325e-03 -5.97360358e-03 2.85465387e-03 -1.34786591e-02 1.33983502e-02 7.05517130e-03 -8.12488701e-03 1.30526042e-02 -2.16258597e-02 -3.62936687e-03 -9.11191106e-04 2.82607717e-03 2.79121660e-03 -7.61982519e-03 -5.46960207e-03 -5.94588090e-03 1.27072176e-02 2.95550236e-03 1.74674578e-02 -8.30642693e-03 3.78358574e-03 -1.55338719e-02 -1.41261891e-02 6.74307765e-03 -3.43169225e-03 -7.33843166e-03 1.44064948e-02 -1.41895777e-02 2.13899330e-04 -1.49947423e-02 2.96396622e-03 1.27724884e-02 8.05317517e-03 -9.73952468e-03 3.31007550e-03 7.38045992e-03 -7.13881198e-03 7.81141175e-03 -5.93101606e-03 5.62614645e-04 -1.49070341e-02 9.13531706e-03 -8.19962844e-03 -5.08047349e-04 -2.45300820e-03 -1.88797694e-02 -1.05263689e-03
-1.28632365e-02 -1.88631434e-02 1.59625690e-02 -1.96477287e-02 -6.41195290e-03 2.49757804e-02 9.37275961e-03 -1.04050580e-02 -2.29173172e-02 -2.06584316e-02 2.26691943e-02 6.93392288e-03 -1.50942216e-02 1.89008936e-02 -1.10378778e-02 -7.95739889e-03 -1.42647000e-02 8.72608367e-03 -9.38104838e-03 1.72583188e-03 1.29300458e-02 1.06733143e-02 -4.83333971e-03 1.47156343e-02 7.79365329e-03 6.62386231e-03 -1.90937761e-02 7.67565845e-03 7.98970833e-03 -8.42649490e-03 -2.32912749e-02 1.18736150e-02 -2.26084199e-02 -3.76048661e-03 -2.43203659e-02 -9.89354309e-03 -2.64831763e-02 1.41127324e-02 2.04056501e-02 -6.44813897e-03 2.72779744e-02 2.34862845e-02 -1.28186867e-02 -1.66615583e-02 1.90301449e-03 1.30095026e-02 1.40827326e-02 3.22128413e-03 1.48802921e-02 -1.56340059e-02 -4.36743395e-03 -3.80933611e-03 -9.04715993e-03 -6.58043008e-03 8.35324079e-03 4.07383894e-04 2.68588495e-02 -2.11598296e-02 1.47515461e-02 2.79817395e-02 2.09005922e-02 -1.38584115e-02 -2.82484386e-02 2.01045051e-02 -1.00026708e-02 -6.85564999e-04 9.29274596e-03 -7.39187375e-03 4.13302379e-03 -8.50615744e-03 -1.49846235e-02 6.45996816e-03 -2.13655876e-03 -1.76132116e-02 -1.52847683e-02 -8.32778960e-03 1.29299033e-02 1.91807449e-02 2.06773169e-02 4.49189777e-03 5.06095914e-03 -9.61214956e-03 -1.30496379e-02 -2.51246355e-02 -1.14734387e-02 -6.96610520e-03 -7.49910949e-03 -1.93253439e-02 -1.48437098e-02 8.35116371e-04 1.69798881e-02 -9.52884089e-03 -2.68317526e-03 -3.37362202e-04 -1.55325551e-02 2.46670451e-02 -2.22992580e-02 7.46314786e-03 5.89003135e-03 2.19139270e-02 1.80461481e-02 2.36552581e-02 8.45373201e-04 -2.08066143e-02 1.25589026e-02 1.16159320e-02 9.39493999e-03 1.77538432e-02 -1.53462887e-02 2.05058767e-03 4.42461669e-03 -5.39906044e-03 1.79609619e-02 -2.07997076e-02 1.01042381e-02 9.60489921e-03 2.62692813e-02 8.04201141e-03 1.86299775e-02 1.01885879e-02 2.21753549e-02 1.95305434e-03 2.11730488e-02 -9.03311186e-03 -5.91492327e-03 1.27175003e-02 -9.04462300e-03 -6.62112981e-03 2.88139358e-02 -8.52483790e-03 2.11054441e-02 -1.88046042e-02 3.60366935e-03 -2.68665291e-02 1.56156989e-02 1.52493259e-02 -2.39274036e-02 1.54104466e-02 3.09923850e-03 2.00114567e-02 4.31162305e-03 -4.79896273e-03 -2.37869881e-02 2.01952979e-02 -6.37063431e-03 1.24742351e-02 1.09835928e-02 -6.22779317e-03 1.35593545e-02 1.91831887e-02 1.18162027e-02 4.79042949e-03 -2.00846717e-02 1.10932980e-02 9.73497611e-03 2.77650766e-02 9.78755299e-03 1.65834725e-02 2.01118737e-02 -8.80028307e-03 2.29779016e-02 1.37768649e-02 1.10572698e-02 3.50098941e-03 8.80320650e-03 -1.93702094e-02 -2.04042811e-02 1.64070670e-02 5.70095936e-03 1.86203308e-02 2.39312761e-02 -2.69528348e-02 -1.50060067e-02 -2.43552476e-02 6.28026575e-03 -6.20838720e-03 -6.89225132e-03 5.47403609e-03 -8.08586553e-03 2.19082497e-02 -3.68769839e-03 -1.06894337e-02 1.42137157e-02 -1.35212298e-03 1.15907111e-04 1.11829471e-02 -6.34344621e-03 2.93826405e-03 -1.18921958e-02 1.95165481e-02 -1.67759287e-03 -9.01745632e-04 -1.51113225e-02 -7.42271403e-03 2.53227092e-02 -1.87261868e-02 2.14047190e-02 -1.21754976e-02 2.79006120e-02 2.24511288e-02 -2.16142330e-02 1.13198282e-02 -7.06880121e-03 9.87166818e-03 1.50300050e-02 -1.51973730e-03 -5.86847123e-03 -2.20880639e-02 -2.43575219e-02 -2.16074362e-02 -8.43393710e-03 -8.24605674e-03 -1.89871602e-02 1.66657139e-02 1.55154048e-02 -1.04063097e-02 1.65226981e-02 -1.99752338e-02 4.86503961e-03 9.58565157e-03 2.68901847e-02 1.37302736e-02 1.66627951e-02 -1.83307473e-02 8.61457270e-03 9.34739877e-03 1.05983876e-02 1.46443853e-02 -1.94123778e-02 5.89836109e-03 -1.02410559e-02 -7.04772305e-03 1.98314097e-02 1.35146175e-02 6.14084257e-03 7.71087315e-03 -1.97964963e-02 -2.14329194e-02 -1.70535054e-02 6.50764303e-03 1.80985350e-02 9.64413490e-03 -1.12507958e-02 1.46609694e-02 1.00564407e-02 1.75177343e-02 -1.12943267e-02 1.67491529e-02 2.05139201e-02 -8.18980113e-03 1.51033644e-02 -7.99872540e-03 -2.46369820e-02 2.61095129e-02 -2.14066841e-02 -1.18834833e-02
-6.41030213e-03 -2.29273271e-02 1.87297445e-02 -1.98216643e-02 -2.66807657e-02 1.39656896e-02 2.49042213e-02 -2.71378197e-02 -1.65555701e-02 -1.98291596e-02 6.60223048e-03 2.33041383e-02 -1.63568333e-02 1.25876982e-02 -1.64270829e-02 -1.39523353e-02 -1.90968588e-02 -6.30862080e-04 -1.50795337e-02 -1.10100245e-03 9.56736133e-03 2.05704682e-02 -9.42273252e-03 3.57016944e-03 1.26345130e-02 1.02376305e-02 -1.67849325e-02 8.58428515e-03 1.00415535e-02 -1.39123881e-02 -1.50625324e-02 2.09387988e-02 -7.91347492e-03 -1.47320563e-02 -2.81008128e-02 -2.49323584e-02 -1.99677311e-02 8.25627334e-03 2.18199473e-02 -2.51789987e-02 2.05909256e-02 1.54264681e-02 -2.57460158e-02 -1.47574432e-02 1.18615469e-02 1.72878988e-02 2.22498029e-02 1.72047801e-02 1.19972983e-02 -3.21707898e-03 -1.45488670e-02 -2.06065755e-02 -7.54449377e-03 2.36072880e-03 5.45339426e-03 -3.63942538e-03 2.30431836e-02 -1.80947408e-02 2.64359936e-02 1.38249295e-02 2.02725343e-02 -1.39880329e-02 -8.86157807e-03 1.45448921e-02 -1.38526447e-02 7.28379935e-04 2.30839290e-02 -4.77685826e-03 1.37648955e-02 -2.04621498e-02 -6.18368713e-03 6.48095924e-03 -8.64654686e-03 -6.97420351e-03 -1.48755349e-02 -1.16876233e-02 7.24313455e-03 2.32370161e-02 5.24511468e-03 6.22279150e-03 2.42383480e-02 -2.07887553e-02 -1.06437402e-02 -2.11261772e-02 -1.01608718e-02 -1.28479665e-02 -1.99261475e-02 -2.02642530e-02 -1.28306588e-02 -2.18179561e-02 1.53581128e-02 -2.28512213e-02 -7.12005235e-03 -9.86955781e-03 -4.35878523e-03 1.56767424e-02 -1.04042608e-02 1.12143289e-02 4.55600675e-03 1.44708743e-02 6.69473270e-03 1.37676531e-02 2.09372677e-02 -1.98320840e-02 8.97074118e-03 1.16335405e-02 1.21488608e-02 1.71772968e-02 -1.67902280e-02 2.29729954e-02 2.52848119e-02 -2.80169328e-03 2.48712040e-02 -1.86935086e-02 3.64571344e-03 1.84594952e-02 2.07749335e-03 1.78555269e-02 1.61752570e-02 1.99237913e-02 9.79941804e-03 1.20574608e-02 9.75917745e-03 -2.10034251e-02 -8.95360194e-04 2.31741350e-02 -3.31194024e-03 -1.19115906e-02 2.47543603e-02 -1.02033177e-02 1.56269148e-02 -2.49313992e-02 2.42202021e-02 -2.21425779e-02 1.76718794e-02 9.83486604e-03 -2.31551714e-02 4.52373782e-03 1.75687876e-02 2.64803693e-02 2.21924968e-02 -2.00465750e-02 -5.20332204e-03 1.37255136e-02 -5.25061181e-03 2.35557463e-03 2.05348469e-02 -8.98673665e-03 1.86934117e-02 3.94896371e-03 -1.62858213e-03 9.84312501e-03 -1.43876001e-02 2.83805560e-02 1.34569323e-02 1.45279653e-02 7.82788079e-03 5.67836873e-03 1.40833799e-02 -1.15848957e-02 2.13775877e-03 1.90523434e-02 6.62088441e-03 1.67058278e-02 -3.63619090e-03 -1.95826162e-02 -6.36561541e-03 1.40630743e-02 2.67942641e-02 2.55997125e-02 2.60843113e-02 -3.07571553e-02 -2.63417661e-02 -1.35028725e-02 2.14543436e-02 -2.71701757e-02 -5.87319396e-03 1.76408663e-02 4.98526264e-03 1.72542669e-02 -1.81599371e-02 -1.74052007e-02 1.08152218e-02 -4.74836025e-03 -2.89851846e-03 1.97942741e-02 -1.13296985e-04 8.72385968e-03 -9.85507295e-03 1.91941392e-02 1.67541988e-02 1.97270121e-02 -2.48761605e-02 -2.15640217e-02 1.42518478e-02 -1.49775539e-02 2.95445360e-02 -2.14335509e-02 1.69874672e-02 7.33744819e-03 -1.15477787e-02 1.76132992e-02 -1.32886888e-02 9.81228054e-03 2.32072547e-02 -1.25078047e-02 -2.30226796e-02 -2.36876905e-02 -3.07179242e-02 -4.60670050e-03 -2.26252917e-02 -1.00953486e-02 -1.95683390e-02 1.99594833e-02 1.38558708e-02 -2.56341808e-02 1.44844484e-02 -2.99423710e-02 2.29706280e-02 5.24071511e-03 2.32923925e-02 1.80651937e-02 2.21708268e-02 -1.82287917e-02 2.48091500e-02 1.81835536e-02 1.37924049e-02 4.12846496e-03 -1.68933924e-02 5.38983708e-03 -1.32330218e-02 -1.33644491e-02 7.48487189e-03 4.48247511e-03 5.88897197e-03 6.07972266e-03 -2.81456346e-03 -8.73611122e-03 -2.12459620e-02 7.39252986e-03 1.55550186e-02 1.81706827e-02 -5.02784317e-03 1.61768403e-02 -1.53261079e-02 8.87535606e-03 -1.61008090e-02 9.06577986e-03 2.07311679e-02 -2.58716308e-02 1.15251215e-02 -4.77004889e-03 -8.43357481e-03 2.83885207e-02 -1.41553339e-02 -1.63726564e-02
-3.04066646e-03 -2.14983989e-02 2.76794098e-03 -2.10608952e-02 -1.05854897e-02 1.37701090e-02 4.04201215e-03 -1.24968840e-02 -5.62560279e-03 -1.28297908e-02 4.74426750e-04 -1.73158792e-03 -1.88894495e-02 -3.03187524e-03 6.52974984e-03 4.31763474e-03 -6.80177240e-03 -1.88917597e-03 -5.87280001e-03 -1.18617192e-02 8.33360292e-03 7.29409931e-03 1.07791240e-03 -3.60564864e-03 1.04992818e-02 -3.95593094e-03 -1.39793241e-02 1.64642129e-02 6.80448255e-03 1.52758264e-03 -4.36014729e-03 8.77331570e-03 -1.10656703e-02 -1.40694026e-02 -2.13394985e-02 -1.18638752e-02 -1.49367861e-02 1.12440791e-02 1.12278499e-02 -2.07148418e-02 3.76220024e-03 -2.18442734e-03 -1.67515632e-02 -1.24494787e-02 8.84641055e-03 5.35909459e-03 1.14858754e-04 1.65168270e-02 6.40193978e-03 2.38642562e-03 4.92356392e-03 3.61102819e-03 -6.35795249e-03 2.74669472e-03 -1.06126145e-02 -2.45122099e-03 1.28599638e-02 -9.09350440e-03 2.07793601e-02 1.24093834e-02 9.11331736e-03 -8.55273753e-03 -1.15189906e-02 7.98084587e-03 8.17662571e-03 -9.43236228e-04 -1.00977696e-03 7.67242489e-03 7.21828127e-03 -2.22176011e-03 -7.11400667e-03 -3.00145196e-03 -5.75469900e-03 -2.19108202e-02 3.56876128e-03 -6.34500850e-03 1.43006407e-02 8.28679278e-03 4.98434389e-03 1.69921499e-02 1.60056353e-02 -8.97330791e-03 1.38879940e-03 -1.02273468e-02 -1.30652115e-02 2.42953049e-03 1.05638634e-02 7.85292871e-03 -1.36028053e-02 -3.13594118e-02 1.15429610e-02 -8.17783363e-03 -3.65192583e-03 -1.07859122e-02 -6.70969766e-03 5.21384785e-03 -1.25914277e-03 1.63979474e-02 6.04508072e-03 -2.00964021e-03 1.72149166e-02 8.38851556e-03 -4.17356146e-03 -8.14018771e-03 1.48013448e-02 7.63461879e-03 4.57846140e-03 6.03920827e-03 -5.55936154e-03 -7.89138838e-04 2.98410025e-03 -1.45991027e-04 1.61053762e-02 -5.67070022e-03 1.97889972e-02 1.10083343e-02 3.44497454e-03 -3.05840303e-03 1.91964005e-04 4.96497843e-03 1.20226769e-02 8.26915726e-03 3.55593674e-03 -1.58327930e-02 -8.75611964e-04 -2.34614592e-03 4.68695507e-04 9.72171722e-04 1.74875576e-02 -7.07532698e-03 5.11972699e-04 9.93016642e-04 1.34793641e-02 -2.21196339e-02 6.78694202e-03 1.21313659e-02 -9.02786013e-03 1.28335450e-02 9.55200475e-03 2.48193145e-02 1.33422185e-02 -1.02819931e-02 -5.01211314e-03 1.98621862e-02 5.43276139e-04 5.15897572e-03 5.57290914e-04 -4.60939296e-03 4.98043746e-03 6.24988275e-03 1.04341004e-02 1.12058707e-02 6.73421985e-03 2.42944863e-02 2.70437158e-04 1.54310698e-02 -5.67626860e-03 2.81580607e-03 -5.81064867e-03 5.54136466e-03 2.70121172e-03 4.14760225e-03 8.94331839e-03 4.91731241e-03 6.89273933e-03 -5.63769601e-03 1.22496411e-02 2.70103780e-03 2.31886469e-03 6.46937825e-03 1.11702783e-02 -1.80162583e-02 -1.90981701e-02 -6.67381287e-03 1.18564104e-03 -1.96821298e-02 9.75112803e-03 1.52642112e-02 7.11169792e-04 1.80314798e-02 6.47258898e-03 4.57125669e-03 -8.57896544e-03 -4.03480045e-03 8.02363828e-03 1.15314042e-02 4.35085222e-03 4.23677312e-03 -7.54700834e-03 -8.23506247e-03 -1.55699986e-03 6.83562085e-03 -2.19311044e-02 -1.95661001e-02 1.10929897e-02 -6.07797643e-03 1.89086702e-02 -1.04489485e-02 1.99255385e-02 1.16021009e-02 1.93387107e-03 2.83062016e-03 -2.16229842e-03 1.53413694e-02 1.18872076e-02 -2.15764460e-03 -7.34047545e-03 -4.72425623e-03 -2.67167129e-02 -3.15406383e-03 -2.00954620e-02 -6.73339283e-03 -2.42670402e-02 4.54627071e-03 1.12848934e-02 -4.89883078e-03 5.57579892e-03 -2.84207892e-02 2.84886304e-02 1.34850834e-02 -3.57846962e-03 -6.76564872e-04 1.92950910e-03 -4.31993930e-03 1.67187732e-02 2.41001025e-02 7.49374880e-03 1.47667676e-02 -1.33891702e-02 1.20488135e-02 -2.81038578e-03 -3.47794802e-03 -1.35858695e-03 4.29259427e-03 1.92738138e-02 -1.45942776e-03 -3.82845476e-03 -6.85694115e-03 -1.07388468e-02 6.76893324e-05 2.73791514e-03 -9.59315163e-04 -2.79536005e-03 -1.04078150e-03 -6.87950943e-03 2.08412670e-03 -1.02800922e-02 1.09649720e-02 4.03593946e-03 -1.26338936e-02 1.17764226e-03 -1.03827156e-02 3.16749909e-04 5.61788911e-04 -5.55662066e-03 -2.05745399e-02
-4.95009031e-03 -2.22439114e-02 8.03330261e-03 -1.03351586e-02 -8.63942970e-03 1.68792233e-02 4.32222569e-03 -1.62610486e-02 -1.73937883e-02 -1.46329608e-02 1.89195666e-02 1.39898462e-02 1.18573873e-04 -5.00644930e-03 -1.53483301e-02 3.47041851e-03 2.52821343e-03 -2.12889705e-02 -1.07626664e-02 7.33511476e-03 3.38490540e-03 1.06201088e-02 -8.98178387e-03 3.17602674e-03 1.80179384e-02 1.86820496e-02 -1.20957401e-02 1.28705371e-02 -1.31966989e-03 -7.63790170e-03 -1.60659943e-02 1.85382366e-02 -1.41247343e-02 -1.97850596e-02 -7.84342084e-03 -3.90305812e-03 -4.78596520e-03 1.15225408e-02 1.87291950e-02 -1.04106907e-02 1.11384399e-03 1.82476323e-02 -1.25909550e-02 -2.07692832e-02 2.06721593e-02 2.28025187e-02 7.24527100e-03 1.33134089e-02 8.76036100e-03 8.88976641e-03 8.56978726e-03 7.20025459e-03 -8.46979395e-03 -1.39721739e-03 6.03134649e-05 -8.54676403e-03 1.85785163e-02 -1.75667293e-02 1.12214331e-02 9.39607807e-03 2.27309298e-02 -1.23686297e-02 -2.39735134e-02 2.39981413e-02 -3.00615188e-03 -3.68630071e-03 4.35119309e-03 7.81214004e-03 5.74591663e-03 4.62877611e-03 -2.19137669e-02 -1.51320931e-03 -6.42761867e-03 -3.40163102e-03 -6.95149414e-03 -2.30599404e-03 -2.44632829e-03 8.94380920e-03 1.34547679e-02 1.31751355e-02 1.49165019e-02 -2.36225147e-02 2.75722682e-03 -6.66775741e-03 -4.72208066e-03 3.02015152e-03 -1.00793317e-02 -7.26407208e-03 -3.83652630e-03 -2.97619384e-02 1.17645478e-02 -8.68273713e-03 1.83544680e-03 -3.20803447e-05 -1.25066435e-03 -6.33724732e-03 -1.77870002e-02 1.17401946e-02 1.81357227e-02 1.85537376e-02 -6.46575179e-04 5.29161934e-03 1.01666898e-02 7.62424199e-04 3.84865707e-04 -1.62421190e-03 6.69732504e-03 -4.15242743e-03 -4.00166353e-03 -1.14286505e-03 4.61222557e-03 -1.04241092e-02 5.29315835e-03 -1.29052124e-03 8.35588481e-03 1.24614052e-02 1.23109203e-02 1.43255275e-02 1.49455424e-02 1.78834535e-02 8.11268482e-03 3.10529699e-03 1.20521046e-03 -2.19154917e-02 -1.37809617e-02 9.01115593e-03 -8.90146941e-03 -1.73354447e-02 9.20796674e-03 -1.93528645e-02 7.75831426e-03 -1.46076716e-02 9.09646880e-03 -1.95417237e-02 2.60391069e-04 1.58654191e-02 -1.70782693e-02 1.72293689e-02 1.55713288e-02 2.15400998e-02 1.41478144e-02 -1.20921833e-02 -1.35092456e-02 1.06725898e-02 -2.16584071e-03 1.13337114e-02 -3.38709238e-03 -4.32589743e-03 1.43314083e-03 -3.41404579e-03 -5.16293943e-03 2.80138804e-03 1.62335066e-03 6.89982064e-03 4.37356997e-03 -9.26559325e-04 -1.27233919e-02 1.64920557e-02 2.71006953e-03 -1.87016488e-03 6.89055957e-03 -2.52171216e-04 2.91894493e-03 6.07955409e-03 -1.42223220e-02 1.02208313e-02 -6.07689004e-03 -1.05305593e-02 1.70873776e-02 1.90712120e-02 4.72660409e-03 -1.58166289e-02 -1.42858168e-02 -3.68995592e-04 8.88105854e-03 -3.85856023e-03 -1.32935913e-02 1.25772832e-03 1.06181940e-02 7.81813264e-03 6.21537073e-03 -9.35492385e-03 -1.26025919e-02 -3.66607960e-03 4.38479520e-03 3.35704046e-03 -1.93827657e-03 -1.90913212e-03 1.03408354e-04 -9.50147025e-03 -6.36284938e-03 7.32900761e-03 -1.84699204e-02 -2.49405187e-02 6.91240188e-03 -1.93276443e-02 1.23931132e-02 -2.42723469e-02 1.24046169e-02 9.75856092e-03 -1.28964391e-02 1.49315316e-02 -6.77362783e-03 2.41110586e-02 -2.64110253e-03 7.12853391e-03 -1.10030826e-02 -1.68337412e-02 -1.91766024e-02 -1.13115162e-02 -2.14150865e-02 -1.74429342e-02 -1.74893644e-02 9.40046646e-03 5.05104428e-03 1.53923943e-03 1.00246202e-02 -2.01295298e-02 3.06078582e-03 -2.13728636e-03 6.43710233e-03 -9.48736072e-03 -1.23690313e-03 -7.63633614e-03 9.18684155e-03 1.73683483e-02 1.35791227e-02 8.46829824e-03 -2.21773405e-02 4.26228018e-03 -8.62146844e-04 -1.99369714e-02 -1.51987397e-03 1.53013263e-02 3.06026475e-03 7.59897614e-03 -1.32894618e-02 -1.59079377e-02 -2.59764027e-02 1.79290399e-02 -7.94471067e-04 4.01437655e-03 1.53729110e-03 1.25260896e-03 5.30461594e-03 2.08411249e-03 -5.96400723e-03 5.42379508e-04 1.80291161e-02 -1.16013298e-02 2.39965208e-02 -1.34429093e-02 -2.56177527e-03 1.82741545e-02 -2.72731204e-03 -2.19590403e-02
-2.85899788e-02 -1.18544390e-02 9.50940326e-03 -1.03325751e-02 -7.37124821e-03 1.68166254e-02 1.26953991e-02 -1.52752176e-02 -1.25404317e-02 -2.12073792e-02 2.14113165e-02 8.22209381e-03 -1.02016693e-02 -2.32354761e-03 1.04284030e-03 -3.04246834e-03 -1.81525815e-02 -2.59932689e-03 -1.75948199e-02 2.61927140e-03 2.22099256e-02 -2.64110113e-03 4.35125735e-03 2.10901126e-02 2.04961374e-02 1.89731102e-02 -1.47152822e-02 2.18064375e-02 1.34386998e-02 5.64374321e-04 -1.45734893e-02 2.06834618e-02 -2.91502327e-02 -2.82849483e-02 -5.16391639e-03 -1.47828981e-02 -1.89890936e-02 1.73343010e-02 2.49515958e-02 -2.26351563e-02 1.69818271e-02 2.41496600e-02 -2.82212123e-02 -2.22680566e-04 2.01805234e-02 1.16819199e-02 1.38419112e-02 1.58783272e-02 1.60603002e-02 -1.09649403e-02 -6.36126148e-03 -2.46856865e-02 -1.65289789e-02 -2.08711792e-02 1.80916116e-02 -1.26286957e-03 8.70828982e-03 -7.50759663e-03 3.13245393e-02 1.35947242e-02 3.05618942e-02 -1.00766867e-02 -2.87300274e-02 2.56217439e-02 -1.16376365e-02 1.84198264e-02 1.73546467e-02 8.34916066e-03 9.19223856e-03 -2.77607217e-02 -1.61292832e-02 1.68722440e-02 -1.44778285e-02 -2.68036202e-02 -2.25478299e-02 -8.49737413e-03 1.83116607e-02 1.98508445e-02 6.80139172e-04 2.37823166e-02 1.16617763e-02 5.79422759e-03 -2.67732721e-02 -2.62249615e-02 -2.58091521e-02 1.08047761e-02 -2.31405552e-02 -1.88912712e-02 -2.28876825e-02 9.99897532e-03 1.20711429e-02 -1.34306736e-02 -3.65148648e-03 -5.80844563e-03 -1.95060335e-02 3.30345728e-03 -1.35657042e-02 1.58493109e-02 2.59085428e-02 9.68047045e-03 1.46685366e-03 1.16798878e-02 6.17215410e-05 -9.92889050e-03 2.73532718e-02 5.02741151e-03 7.52039487e-03 1.43796429e-02 -2.03962121e-02 2.08429270e-03 7.55256368e-03 -1.97817963e-02 7.09819188e-03 -1.38939628e-02 6.01744885e-03 2.10109795e-03 2.40080114e-02 2.31523387e-04 2.58946754e-02 2.05319095e-02 1.25353867e-02 1.03277229e-02 2.26918701e-02 -9.09077656e-03 -1.92139689e-02 1.58008505e-02 -8.92714318e-03 -1.71495136e-02 1.81262381e-02 -2.35172510e-02 8.29500891e-03 -1.14631811e-02 1.69392582e-02 -9.32220928e-03 1.70533210e-02 2.87075881e-02 -1.96957309e-02 2.01452058e-02 2.09032986e-02 3.20873829e-03 3.34155397e-03 -2.74285991e-02 -2.02736240e-02 2.96224989e-02 -5.81973558e-03 1.17789321e-02 1.74224898e-02 2.92222202e-03 6.71801111e-03 1.67187247e-02 2.14755367e-02 9.08245915e-04 -8.94015562e-03 2.03116518e-03 1.94829553e-02 2.76791193e-02 1.30823106e-02 2.02059001e-02 1.83630008e-02 -2.12305710e-02 2.47409102e-02 1.28325168e-02 4.12272103e-03 1.02229444e-02 1.21478299e-02 -7.80368503e-03 -2.02346575e-02 2.26396285e-02 2.35895417e-03 2.65503787e-02 2.51476839e-02 -1.23875486e-02 -9.58632864e-03 -2.45489888e-02 2.25823652e-02 -9.18252766e-03 -1.08763017e-02 1.70157515e-02 -5.70804579e-03 1.60920923e-03 -8.57291464e-03 -6.56441459e-03 -4.69476823e-03 8.29109282e-04 -5.12369256e-03 1.18642207e-02 -9.30883177e-03 8.58829450e-03 4.18618741e-03 1.27531318e-02 1.29620107e-02 1.23107620e-02 -2.67414581e-02 -1.16631025e-02 3.10368240e-02 -1.24666216e-02 9.29766893e-03 -1.54047636e-02 2.30555721e-02 1.76651590e-02 -2.05457751e-02 1.05689447e-02 -1.23119922e-02 8.25096574e-03 1.89872552e-02 -1.81037560e-02 6.52851490e-03 -2.08671689e-02 -8.30121804e-03 -2.18252689e-02 -2.72094402e-02 -8.32685456e-03 -7.04920478e-03 1.12527022e-02 2.69360635e-02 -2.49878298e-02 2.15793606e-02 -1.10342428e-02 1.61820091e-02 2.36572213e-02 2.23636255e-02 1.71402339e-02 9.10629146e-03 6.36254321e-04 1.61213223e-02 2.41839141e-02 1.13947047e-02 2.07706057e-02 -9.90624446e-03 9.01073124e-03 -8.89586657e-03 -7.47335982e-03 2.10205168e-02 2.29482874e-02 2.61033140e-02 7.95446895e-03 -1.99200381e-02 -2.03059465e-02 -5.37830265e-03 1.19866915e-02 1.20636383e-02 1.62657686e-02 -1.52736120e-02 2.57459749e-03 -5.31567086e-04 2.35376740e-03 -1.23229790e-02 1.37889236e-02 1.61131620e-02 -1.44330924e-03 1.29914535e-02 -7.65813794e-03 -9.52304900e-03 1.64701492e-02 -8.02318740e-04 -7.20254378e-03
2.91265984e-04 -1.95862018e-02 2.10896265e-02 -2.36221310e-02 -7.49480585e-03 1.30356066e-02 2.24818140e-02 -1.46029703e-02 -1.70936249e-02 -1.16081713e-02 3.71163478e-03 -5.10792481e-04 -1.37950154e-02 1.20164538e-02 2.15706229e-03 -5.99810807e-03 -2.90864869e-03 -3.66213411e-04 -9.63505637e-03 7.00909272e-03 7.62781268e-03 -1.14109311e-02 8.00310913e-03 2.62204488e-03 1.64493099e-02 1.76995788e-02 3.52767529e-03 5.60322590e-03 1.71790496e-02 -7.02192588e-03 7.49948449e-05 2.01842356e-02 -1.68033945e-03 -5.08023892e-03 -1.39779141e-02 -2.64102663e-03 -2.76641082e-03 5.45477308e-03 1.31407352e-02 -1.56363584e-02 1.37032373e-02 1.60660511e-05 -4.38825600e-03 -1.06263654e-02 1.71820410e-02 2.32308824e-03 1.31034898e-02 -1.16648304e-03 5.20567119e-04 5.93472738e-03 1.01627456e-02 -9.55460873e-03 3.99208907e-03 -5.98370144e-03 -2.02869042e-03 -4.02118638e-03 1.52585423e-03 -2.00715140e-02 8.98707751e-03 1.20706968e-02 1.96308363e-02 -2.16114540e-02 -5.21596847e-03 1.07363155e-02 -3.33730574e-03 -1.00197047e-02 -9.91676096e-03 -4.75511188e-03 3.27463355e-03 -5.15686395e-03 2.70007062e-03 4.91095614e-03 -2.00774311e-03 -1.77263767e-02 1.45859283e-03 -1.74446460e-02 1.66231394e-02 4.14559152e-04 2.81416182e-03 1.07784057e-02 1.35460412e-02 -1.08996388e-02 -8.01415183e-03 -1.20433951e-02 -3.38651054e-03 -1.21906155e-03 7.12094305e-04 4.64128982e-03 -3.40264663e-03 -1.40652135e-02 -3.94806004e-04 8.65650177e-03 -1.57114491e-03 8.50048009e-03 -6.15600916e-03 8.06344487e-03 -3.55258095e-03 1.55423312e-02 1.82037316e-02 2.28695775e-04 1.16804114e-03 7.42957368e-03 2.70505523e-04 -1.10899974e-02 -1.84083160e-03 -8.03222694e-03 1.62759107e-02 1.07084066e-02 -9.38333198e-03 7.67454831e-03 1.21872798e-02 -2.44642398e-03 1.58090536e-02 -1.37013281e-02 -5.55937935e-04 1.25107793e-02 8.74982495e-03 1.22614801e-02 -5.34818321e-03 -1.87058889e-04 -2.76821107e-03 1.60025135e-02 1.33883255e-02 -1.29884882e-02 -1.21810632e-02 1.37325060e-02 -1.28134368e-02 -1.10007953e-02 3.53873498e-03 7.26659258e-04 1.22755896e-02 2.48622848e-03 2.07364094e-02 -5.18016471e-03 -6.28758688e-03 1.69546045e-02 -6.53079990e-03 1.75394751e-02 7.44518545e-03 8.62688664e-03 1.70246996e-02 -1.93459224e-02 1.47265487e-03 5.74306585e-03 3.23602720e-03 2.64074188e-04 4.11978504e-03 -2.27694195e-02 -6.12607168e-04 -8.41838960e-03 -1.01287998e-02 5.02346829e-03 1.11144595e-02 2.25903522e-02 4.20885067e-03 2.24446282e-02 9.86832846e-03 9.53829940e-03 2.38785241e-03 5.51586645e-03 1.02088396e-02 -6.07615570e-03 -4.08855919e-03 -1.04672005e-02 -3.20766075e-03 -2.20533251e-03 7.34838098e-03 -6.40176889e-03 1.53774433e-02 -3.10428138e-03 6.26951363e-03 -2.56677810e-02 -1.39810471e-02 -7.16994237e-03 -9.42488667e-04 -6.10095216e-03 -9.67412721e-03 1.67774316e-02 -2.41502956e-03 9.87542607e-03 5.64494869e-03 2.66672997e-03 -1.36245666e-02 1.00533804e-03 1.15099491e-03 -2.75565730e-03 -1.06502115e-03 1.88850763e-03 -4.23098943e-04 -6.40632492e-03 -4.17800480e-03 1.10191097e-02 1.51946791e-03 -2.63052285e-02 2.31381357e-02 -2.14556977e-02 1.39155090e-02 -7.09890854e-03 1.67335533e-02 2.50323722e-03 8.71315133e-03 -5.90014318e-03 7.54428981e-03 2.44413670e-02 5.04063966e-04 -7.39072356e-03 -7.34748971e-03 -1.31634937e-03 -1.49262594e-02 -1.84069742e-02 -1.77730024e-02 -1.67954993e-02 -1.66216753e-02 2.05550753e-02 1.85312741e-02 -1.47446413e-02 -4.12549172e-03 -1.28483549e-02 1.94919687e-02 2.88095116e-03 9.56304895e-04 -2.80626584e-03 1.79887917e-02 2.27023789e-04 1.21880742e-02 2.42677331e-02 1.32817766e-02 2.80235242e-03 -1.32918777e-02 2.17524264e-02 -1.13289049e-02 -1.42174121e-02 -3.15310899e-03 4.51262528e-03 -1.02471432e-03 7.41350173e-04 -1.65856015e-02 -1.70030037e-03 -1.60078350e-02 1.95801090e-02 1.38073592e-02 -1.07989553e-02 -2.05412954e-02 1.61961224e-02 -2.76432047e-03 1.88879063e-03 1.33664056e-03 -2.49731215e-03 2.03214977e-02 -1.42731695e-02 8.21252819e-03 -1.83037091e-02 8.54115526e-04 1.78621418e-03 -3.29374522e-03 -1.14251359e-03
-9.16088372e-03 -9.80866025e-05 -2.72455974e-03 -2.10942756e-02 -1.18617387e-02 4.07975912e-03 2.01831106e-02 -9.80447419e-03 -6.93411333e-03 -8.17859638e-03 -9.80166835e-04 1.88311450e-02 -7.50986021e-03 1.43432617e-02 2.14712205e-03 2.15362269e-03 -1.06153097e-02 6.35788776e-03 -2.72060023e-03 9.00285877e-03 9.05829761e-03 9.06001963e-03 1.14164501e-02 1.11251874e-02 -2.39968835e-03 1.79642662e-02 -1.27789471e-02 1.97450854e-02 1.33646699e-02 -1.40342722e-02 -9.84011777e-03 -6.42138533e-04 -1.24572627e-02 -5.01838792e-03 -1.13033236e-03 3.39112710e-04 -1.98326167e-02 6.97340118e-03 4.67042904e-03 -8.72320868e-03 1.46910343e-02 -3.50286020e-03 1.80012011e-03 -1.72908939e-02 1.39867794e-02 1.27717759e-02 5.91792585e-03 1.78532712e-02 5.36843250e-03 -1.27219707e-02 1.86176621e-03 -4.46682191e-03 -1.30969658e-02 2.45857704e-03 1.17520941e-02 -5.62254945e-03 8.24009161e-03 -8.80512223e-03 4.59121494e-03 7.36086350e-03 7.36187212e-03 -1.00195697e-02 -1.82702970e-02 6.26468705e-03 1.29461242e-03 1.85289513e-03 3.96834081e-03 -1.43303303e-02 9.84766055e-03 -1.49061740e-03 1.51488464e-03 -9.01944470e-03 -8.32316279e-03 -2.04720851e-02 -1.71244964e-02 3.33856879e-04 1.37963155e-02 4.34246799e-03 3.69921234e-03 1.62938684e-02 6.30793441e-03 -1.79703049e-02 -1.00695966e-02 -1.50522357e-02 2.70931609e-03 -8.69292114e-03 6.46933564e-04 -1.09042157e-03 -1.27335161e-03 -2.66369595e-03 1.80962123e-03 -1.38727855e-02 -5.93030825e-03 -8.65348242e-03 -4.15578065e-03 -1.24855468e-03 -1.07511505e-02 5.81286661e-03 -8.92549870e-04 8.72834865e-03 -2.81924591e-03 7.19053904e-03 -3.04255891e-03 -1.69956926e-02 -3.50191054e-04 5.19903563e-03 1.11072594e-02 -3.58522171e-03 -4.09898721e-03 1.03367101e-02 2.97651743e-03 -1.46293815e-03 9.60725453e-03 -9.74321924e-03 1.48045514e-02 9.11354669e-04 1.34007214e-02 8.98807868e-03 1.79711636e-02 -3.65043455e-03 5.63890673e-03 1.37614999e-02 -3.20423581e-03 -6.03928976e-03 -1.52665824e-02 5.16341592e-04 -3.65688861e-03 3.64414440e-03 6.25958480e-03 -1.75965787e-03 -1.65627757e-03 -1.32555375e-02 2.12751906e-02 -2.17686612e-02 -9.81097128e-06 8.13952554e-03 -1.23861874e-03 8.32838414e-04 1.73029434e-02 1.91566329e-02 2.48580519e-03 -1.80680621e-02 -7.17930915e-03 4.51508909e-04 -2.11349642e-03 7.14285811e-03 1.55225932e-03 -1.09973457e-02 1.11449026e-02 6.56210538e-03 8.60312488e-03 4.48208535e-03 3.21821449e-03 7.27694016e-03 2.85857054e-03 1.62796713e-02 1.13632130e-02 1.16618921e-03 2.68387259e-03 -1.29470043e-02 -1.04412399e-02 9.85166524e-03 -2.50492664e-03 -4.42410260e-03 7.38923950e-03 -8.82662274e-03 -9.65492427e-03 -4.15875157e-03 8.10804870e-03 5.72214974e-03 8.25746357e-03 -1.50453495e-02 -1.21041397e-02 -1.79822615e-03 2.00531185e-02 -1.75316948e-02 -1.31907174e-02 -3.08172568e-03 -4.80606046e-04 -5.17477607e-03 -5.30138193e-03 -9.28314123e-03 4.03917482e-04 6.22871239e-03 -1.16988029e-02 1.13735264e-02 -1.61017179e-02 -4.92659397e-03 -1.03528630e-02 -4.83404938e-03 1.05308108e-02 1.14249289e-02 -1.33559639e-02 -2.14960035e-02 1.36424182e-02 -2.28388030e-02 2.57882960e-02 -9.45676677e-03 5.30913286e-03 8.30422039e-04 1.79879949e-03 8.77059530e-03 9.44392197e-03 2.17890516e-02 5.46836155e-03 -2.15239023e-04 3.18656466e-03 1.90122658e-03 -1.89826116e-02 -1.43949157e-02 -1.27493897e-02 -1.84148811e-02 -1.00839194e-02 1.89220943e-02 9.90262907e-03 -1.47305913e-02 8.41141562e-04 -1.99174546e-02 4.65821614e-03 1.27930951e-03 -1.86481501e-03 -1.04887281e-02 1.52174830e-02 -9.42824502e-03 6.10410748e-03 8.33474658e-03 -2.56002904e-03 2.35886429e-03 -1.34873400e-02 1.54855447e-02 -1.52523513e-03 -7.81441294e-03 -5.25953539e-04 2.07604258e-03 5.03024925e-03 1.65326595e-02 -1.04685808e-02 -1.41420269e-05 -6.21756352e-03 1.27320495e-02 6.26199320e-03 -1.19746476e-03 -9.04654618e-03 8.62694345e-03 -4.70337458e-03 -7.27944821e-03 1.12869004e-02 1.48651041e-02 4.67189774e-03 -1.34877963e-02 2.29041063e-04 -1.97969414e-02 -6.64923209e-05 2.27301009e-03 -7.78127741e-03 -1.40627362e-02
-2.29667798e-02 -7.56385736e-04 2.74506249e-02 -2.38515697e-02 -1.91708393e-02 1.21410806e-02 2.41626538e-02 -2.02869419e-02 3.28412250e-04 -1.28849214e-02 2.00857166e-02 9.23501980e-03 1.04874661e-02 -8.84888880e-03 -7.75559864e-04 -1.20519437e-02 7.66516151e-03 -7.22066732e-04 6.95507834e-03 -3.36117996e-03 4.40721726e-03 -9.65413079e-03 -5.04041649e-03 -2.34124297e-03 9.75921657e-03 6.94380561e-03 -1.70996599e-02 5.49567339e-04 3.71879642e-03 4.99262381e-03 -2.42112782e-02 8.17915797e-03 -1.30135231e-02 -2.46972255e-02 -7.02408655e-03 -5.80317667e-03 -4.10407595e-03 2.02149432e-02 2.88798939e-02 -5.60153741e-04 4.58959537e-03 1.24619331e-03 -2.06467863e-02 -1.00825215e-02 1.21792173e-02 5.83632290e-03 1.19602997e-02 1.92704815e-02 1.14958268e-02 -1.80034507e-02 -1.22140488e-02 -3.35404114e-03 -6.64632022e-03 -1.50035061e-02 1.17824152e-02 -3.71357636e-03 1.87591817e-02 -1.85269918e-02 1.43507505e-02 1.52669288e-02 3.01672984e-02 -2.23415866e-02 -4.51557711e-03 7.38034630e-03 -8.35571717e-03 -2.73069739e-03 9.19222366e-04 -1.23621123e-02 -2.34868098e-03 -2.89779017e-03 -2.32379828e-02 7.82948639e-03 3.95261543e-03 -6.68737758e-03 -1.84057802e-02 -4.34535323e-03 7.42032938e-03 2.42028516e-02 1.34012233e-02 1.45905996e-02 3.25246737e-03 -7.96761643e-03 -1.89966857e-02 2.36899592e-03 -2.46243528e-03 -3.84364073e-04 -7.14071002e-03 -1.64606366e-02 -2.51923129e-03 -7.99157936e-03 5.22323651e-03 -1.59585662e-02 -1.38881225e-02 7.28923245e-04 6.19594986e-03 1.30257327e-02 -9.29277297e-03 3.71872424e-03 1.27269337e-02 -2.22886866e-03 1.01927165e-02 2.45854780e-02 7.37088965e-03 -3.52682103e-03 1.45851038e-02 1.07515398e-02 -1.16763208e-02 2.64670956e-03 -1.32293059e-02 5.37717529e-03 1.83850136e-02 -1.51424680e-03 -1.82335352e-04 -8.31079669e-03 9.09394585e-03 -4.50751651e-03 1.85717996e-02 -8.69388692e-03 9.68207326e-03 9.60083492e-03 -3.48709919e-03 -5.40722068e-03 1.17872730e-02 -1.89486742e-02 -9.73048713e-03 1.71251316e-02 -3.28232511e-03 -1.06280074e-02 2.35048365e-02 -1.21910935e-02 1.32533889e-02 -1.12691168e-02 9.23381466e-03 -1.88722815e-02 1.93722975e-02 2.60980688e-02 -8.49931687e-03 9.92064923e-03 1.78195648e-02 1.48731461e-02 1.82366148e-02 -2.41484493e-02 -1.17752803e-02 2.64825784e-02 6.33072690e-04 1.10213580e-02 3.54596018e-03 3.37134325e-03 -6.37734029e-03 1.06683411e-02 7.77601777e-03 -1.46037957e-03 -9.87954438e-03 -1.13599119e-03 5.36463829e-03 2.25441661e-02 1.83203444e-02 2.14873105e-02 1.03882663e-02 -1.48958415e-02 9.21316969e-04 1.13607040e-02 1.49762230e-02 -9.53847542e-03 -2.82295281e-03 -1.36764459e-02 -1.09537961e-02 -2.26008194e-03 1.09948544e-02 2.21353546e-02 9.11847781e-03 -4.03262442e-03 -2.16032267e-02 -4.60300315e-03 1.29314894e-02 -1.52629605e-02 -4.46474971e-03 1.43456145e-03 7.06990669e-03 -7.33739417e-03 9.14748199e-03 -3.19223665e-03 8.00012145e-03 8.95822886e-03 1.91618036e-03 8.08605552e-03 4.33072634e-03 -5.01231756e-03 8.25597718e-03 9.69986431e-03 -2.87316018e-03 5.00741415e-03 -2.32330989e-02 -2.14033574e-02 2.47584060e-02 -2.51809806e-02 8.61632172e-03 -8.90129129e-04 1.24330968e-02 -1.10087707e-03 -1.33484621e-02 1.06521575e-02 -7.98469130e-03 1.15948264e-02 1.78548228e-02 8.75263195e-03 5.93964069e-04 9.88449901e-04 -1.15121743e-02 -1.43320616e-02 -1.88865960e-02 3.95585364e-03 -1.06963404e-02 1.64520759e-02 2.50161737e-02 -8.82654451e-03 2.01574098e-02 -2.08913386e-02 6.42566802e-03 7.00486219e-03 2.88686296e-03 3.64362006e-03 8.62387195e-03 -1.64613593e-03 6.22225506e-03 9.37565602e-03 2.50942889e-03 5.47754765e-03 -1.92898058e-03 -7.02482834e-03 -1.65939797e-02 -1.82079375e-02 1.14935702e-02 1.19700767e-02 8.81370623e-03 5.19190542e-03 -7.21882703e-03 1.52856868e-03 3.08477483e-03 1.79510955e-02 2.08871718e-03 1.03683947e-02 -7.17363181e-03 1.50436694e-02 -3.76953918e-04 -1.34306366e-03 -7.02726189e-03 1.10988859e-02 7.25531578e-03 -6.28001383e-03 2.04465892e-02 -9.71979275e-03 -1.19815366e-02 2.44352724e-02 -1.47283319e-02 -5.84479538e-04
-7.21954601e-03 -2.18216386e-02 2.29089782e-02 -1.34061789e-02 -9.83439106e-03 2.81329472e-02 6.04111655e-03 -1.04201157e-02 -6.19099941e-03 -9.95747000e-03 7.34765548e-03 2.65048407e-02 -1.87541395e-02 2.71732477e-03 -8.89594853e-03 -1.36436624e-02 -1.52363454e-03 -7.09349383e-03 -1.66207403e-02 -4.70769638e-03 4.22662403e-03 7.19921384e-03 -1.13006588e-02 3.61634651e-03 6.52967859e-03 4.47585713e-03 -1.89870596e-02 2.69736978e-03 1.70123782e-02 -6.87788799e-03 -2.13756841e-02 9.34970472e-03 -2.61918157e-02 -1.38905579e-02 -1.00340554e-02 -6.21159328e-03 -1.75477061e-02 4.11896501e-03 2.43731197e-02 -2.17029452e-02 2.20377482e-02 1.95447467e-02 -1.08337346e-02 -2.31892988e-02 1.82110108e-02 1.53834084e-02 5.72935585e-03 2.51742955e-02 1.27659272e-02 -2.12708162e-03 -1.65819917e-02 -1.74760837e-02 -7.33149657e-03 -1.46499872e-02 1.08487932e-02 -1.75455492e-03 7.85637181e-03 -2.75277738e-02 2.99181491e-02 2.23037601e-02 1.23229232e-02 -6.92647370e-03 -1.18877478e-02 2.31324714e-02 -1.81625951e-02 -2.15091533e-03 4.46612667e-03 9.97213088e-03 1.29300244e-02 -4.69531305e-03 -1.59300156e-02 1.09647298e-02 -1.97156072e-02 -4.94636176e-03 -2.04920843e-02 -6.56879274e-03 4.64656390e-03 2.49412339e-02 1.25944186e-02 1.45126153e-02 1.49769466e-02 -2.41364874e-02 -1.67267919e-02 -2.57170610e-02 -1.85422786e-02 -2.95779109e-03 -2.32390035e-02 -2.44051218e-02 -2.46329997e-02 -8.61908402e-03 4.18839889e-04 -4.70867567e-03 -1.50776841e-02 -4.23926162e-03 -2.37507652e-03 1.43534942e-02 -1.24189779e-02 2.12082602e-02 2.37390902e-02 1.40077481e-02 1.57459006e-02 9.44487285e-03 1.76723208e-02 -1.89069174e-02 1.93871241e-02 2.65104696e-03 2.60531195e-02 1.33682480e-02 -1.14095882e-02 4.73606866e-03 2.25648060e-02 -1.15338499e-02 1.33881355e-02 -5.50422911e-03 2.40984373e-03 1.50538106e-02 8.29105638e-03 3.81538272e-03 9.53893084e-03 2.03494430e-02 6.52656844e-03 1.51654659e-02 2.17765700e-02 -1.91691089e-02 -4.94876970e-03 1.48182334e-02 -1.53227467e-02 -9.30918660e-03 1.65760461e-02 -1.40157798e-02 2.04940215e-02 -1.67351644e-02 4.89837630e-03 -8.48832540e-03 1.30745498e-02 2.46543158e-02 -1.20829707e-02 3.02899163e-03 7.70132476e-03 1.94236692e-02 2.56146565e-02 -4.07509552e-03 -1.98930036e-02 1.56820379e-02 -9.25409258e-04 9.83751472e-03 -1.46714051e-03 -5.30213397e-03 9.18162894e-03 1.75750535e-02 9.21113230e-03 1.03023658e-02 -2.07320135e-02 2.19667275e-02 8.17241985e-03 2.09675878e-02 3.29340738e-03 2.36646067e-02 9.80756339e-03 -1.00609167e-02 2.05000732e-02 1.86093722e-03 5.96253760e-03 -1.10880448e-03 5.41042536e-03 -4.99219075e-03 -1.81105603e-02 8.63555353e-04 2.56871656e-02 4.42329887e-03 2.57118586e-02 -2.75886208e-02 -1.79015081e-02 -5.58779202e-03 2.78436821e-02 -1.52437380e-02 -1.65361073e-02 2.28508678e-03 3.37009458e-03 1.47092319e-03 1.14479533e-03 -9.86147020e-03 1.60557237e-02 -1.31379990e-02 -1.73585769e-02 2.56030215e-03 -1.75527856e-03 7.06161489e-04 -3.30274925e-03 1.84473004e-02 1.09731937e-02 1.48374168e-02 -1.07923094e-02 -1.29511533e-02 6.66663842e-03 -4.57753986e-03 1.84837244e-02 -2.27530971e-02 1.83142237e-02 2.19783019e-02 -1.70030538e-02 1.08767091e-03 -1.31553598e-02 2.32070740e-02 2.22847145e-02 -6.86639175e-03 -2.00925628e-03 -1.31287184e-02 -2.04319842e-02 -9.13769659e-03 -2.58773044e-02 -2.02583689e-02 -8.16507451e-03 2.38341559e-02 5.77320857e-03 -2.19928622e-02 2.73018871e-02 -9.50454082e-03 3.07637528e-02 8.75013601e-03 1.16335405e-02 1.66109987e-02 1.16633708e-02 -4.39344905e-03 2.24031452e-02 9.28538758e-03 1.08623849e-02 1.64596979e-02 -2.41709035e-02 2.51785778e-02 -2.57198960e-02 -2.28654463e-02 1.29483305e-02 2.00532153e-02 1.02633573e-02 1.72155425e-02 -1.95382778e-02 -2.42753699e-02 -1.40845338e-02 2.09293291e-02 1.79945584e-02 4.46438696e-03 -1.58757251e-02 4.22477163e-03 4.45604138e-03 4.79427027e-03 -1.60617474e-02 1.25455400e-02 1.07360864e-02 -2.13436875e-02 8.52844771e-03 -7.75838690e-03 -2.75920033e-02 8.44497140e-03 -2.62907259e-02 -1.74538344e-02
-1.17450487e-02 -1.67965963e-02 1.29527440e-02 -1.06194308e-02 -7.64300395e-03 2.36002672e-02 2.40435563e-02 -1.84128825e-02 -4.23998013e-03 -2.90726777e-02 9.26878583e-03 1.88960545e-02 -2.49635093e-02 2.15936545e-02 -1.42734414e-02 -7.52717303e-03 -1.69865191e-02 9.18867812e-03 -2.60460526e-02 -1.86250340e-02 2.28800457e-02 5.66377072e-03 -1.26825953e-02 1.09517071e-02 1.74969435e-02 2.58948095e-02 -5.37545467e-03 7.38903554e-03 2.66630072e-02 -1.70341991e-02 -2.27050502e-02 9.25685093e-03 -1.58789791e-02 -2.46878657e-02 -1.44417910e-02 -2.45755315e-02 -1.86030138e-02 2.37650294e-02 2.14949083e-02 -2.01106202e-02 2.26687323e-02 6.82121748e-03 -2.50747539e-02 -2.34620590e-02 2.49184761e-02 2.47394256e-02 2.81968322e-02 1.87341776e-02 9.88443661e-03 -9.81711317e-03 -2.77532730e-02 -1.08744903e-02 -1.71929896e-02 -6.94224192e-03 2.13483293e-02 5.92044787e-03 2.68239640e-02 -9.91379377e-03 1.39937280e-02 1.50653953e-02 2.11125687e-02 -1.61764454e-02 -2.31523626e-02 1.60111226e-02 -2.04923525e-02 4.18673735e-03 7.76143139e-03 1.73398517e-02 1.85745973e-02 -8.36797431e-03 -1.87352635e-02 3.17197759e-03 -4.50836867e-03 -1.00140823e-02 -2.52904277e-02 -2.37863939e-02 1.10408720e-02 1.30205415e-02 5.64425346e-03 1.28189893e-02 2.55812630e-02 -2.96469126e-03 -1.35808662e-02 -2.73924544e-02 -1.23413485e-02 1.70362648e-03 -2.72960626e-02 -2.93909423e-02 -1.58943441e-02 -7.47746369e-03 2.62981672e-02 -8.38007033e-03 -2.70379055e-02 -5.35130361e-03 -2.25391723e-02 2.93806791e-02 -1.00620175e-02 2.63476074e-02 2.35071480e-02 2.24829353e-02 6.40268344e-03 2.90754847e-02 3.31639941e-03 -9.75342933e-03 2.92325169e-02 4.34119627e-03 1.44331399e-02 5.01858676e-03 -2.41578035e-02 2.56022438e-02 1.46432146e-02 -2.79526673e-02 1.88586880e-02 -1.84077471e-02 1.11140357e-02 1.99801326e-02 1.85152441e-02 1.13212187e-02 1.86095573e-02 1.58724990e-02 8.26290902e-03 1.56231895e-02 2.76856553e-02 -2.49791984e-02 -1.83006469e-02 2.73716561e-02 -1.38323391e-02 -2.32255608e-02 1.26458155e-02 -1.25832567e-02 2.23872364e-02 -5.27612492e-03 6.56460412e-03 -1.88236814e-02 1.30566908e-02 2.40257382e-02 -8.51205830e-03 2.00233236e-02 1.00392466e-02 1.98946744e-02 2.41842065e-02 -6.41797017e-03 -2.60418616e-02 2.76806913e-02 -6.68565184e-03 6.98746461e-03 2.16914434e-02 -1.11294882e-02 2.35475115e-02 1.16368663e-02 2.41654292e-02 3.99689749e-03 -2.05803886e-02 2.77651623e-02 2.20368318e-02 1.95131358e-02 1.27760218e-02 1.07608195e-02 6.76643010e-03 -2.85907947e-02 1.07678464e-02 1.12094171e-02 2.15058178e-02 1.31892506e-02 1.74837615e-02 -2.28634235e-02 -1.44515857e-02 1.28175048e-02 2.07750462e-02 2.31230669e-02 2.44965870e-02 -2.17771921e-02 -6.31654868e-03 -1.77893676e-02 1.69463903e-02 -2.02061646e-02 -7.17089605e-03 1.74222123e-02 5.75758703e-03 6.14736229e-03 -9.96069703e-03 -1.79277062e-02 1.80998389e-02 -1.87466647e-02 -4.30894969e-03 9.20368452e-03 -1.25811314e-02 4.37765382e-03 -1.19831003e-02 1.95199866e-02 1.15576303e-02 1.27967661e-02 -2.70831790e-02 -1.00966068e-02 8.24721716e-03 -1.85890831e-02 1.99862011e-02 -1.18316729e-02 1.58527102e-02 9.04577598e-03 -2.37903539e-02 2.54219752e-02 -2.27549504e-02 2.75959782e-02 9.02882498e-03 -1.66781638e-02 -3.94343864e-03 -2.48986781e-02 -2.40466502e-02 -1.41645269e-02 -8.30229651e-03 -2.30386220e-02 -1.84643939e-02 1.42181814e-02 8.78148805e-03 -5.84880030e-03 1.70539245e-02 -9.50762723e-03 2.05364525e-02 9.91630834e-03 1.52417459e-02 4.38076025e-03 1.15364473e-02 -1.83851924e-02 2.36282796e-02 2.66724136e-02 1.92919020e-02 1.99425425e-02 -1.61253531e-02 2.84204390e-02 -2.74080168e-02 -2.36178692e-02 2.23659873e-02 5.15392283e-03 1.24581195e-02 2.07593311e-02 -1.55724119e-02 -1.44407870e-02 -7.35904789e-03 2.28083078e-02 9.72929131e-03 1.60784684e-02 -1.49196051e-02 2.23103836e-02 -8.36038217e-03 1.08423466e-02 -1.07887769e-02 2.16348954e-02 2.77123526e-02 -1.42405955e-02 6.95036538e-03 -5.60174091e-03 -1.57283451e-02 2.86220443e-02 -2.41444651e-02 -1.97332110e-02
-2.20513251e-02 -3.04474682e-02 2.51982752e-02 -7.39672780e-03 -8.88940878e-03 2.30119992e-02 1.98672898e-02 -2.47384347e-02 -2.23337431e-02 -3.89336981e-03 9.13603231e-03 1.65586993e-02 -1.62569825e-02 1.20635564e-02 -1.82475708e-03 -2.54848204e-03 -7.79427076e-03 -5.34969242e-03 3.05018597e-03 -1.41241690e-02 4.25702007e-03 1.19594124e-03 7.23210210e-03 -5.37745049e-03 4.58739139e-03 3.52042669e-04 -2.10663248e-02 1.59800518e-02 2.12048832e-02 -7.71001633e-03 -9.84908827e-03 1.91479996e-02 -7.91102648e-03 -2.11869236e-02 -1.17537947e-02 -2.13487018e-02 -1.26110828e-02 1.69560872e-02 1.30562782e-02 -2.06764694e-02 2.44771317e-02 1.97237916e-02 -2.14313827e-02 -1.86648648e-02 2.06016824e-02 2.08958201e-02 6.32823352e-03 2.17477232e-02 1.37904193e-02 -9.54266451e-03 -3.40949185e-03 1.81066350e-03 -1.39859943e-02 -4.74791788e-03 1.04202116e-02 1.00995647e-02 2.02640444e-02 -2.60557346e-02 1.27103059e-02 1.55686624e-02 1.51734892e-02 -2.81472802e-02 -2.56548487e-02 1.87766366e-02 -6.56905584e-03 -6.92133734e-04 1.23688383e-02 1.00274608e-02 -3.17116501e-03 -1.73197575e-02 -4.36617667e-03 2.34251772e-03 -1.70208476e-02 -1.05348332e-02 -1.51861580e-02 -6.41116127e-03 8.52836203e-03 8.29807576e-03 1.61258671e-02 2.22739559e-02 2.08833981e-02 -9.26082581e-03 1.47758215e-03 -4.41740034e-03 -4.58174152e-03 7.12031312e-03 -1.33743836e-02 -1.64951906e-02 -2.50018463e-02 -2.67666299e-02 1.51370047e-02 -5.44277905e-03 -8.78645340e-04 1.84325338e-03 5.46078663e-03 1.18866591e-02 -9.48374253e-03 1.14396205e-02 2.40689740e-02 1.84726287e-02 4.77780774e-03 2.08493285e-02 1.43319881e-02 -1.36829233e-02 8.68905429e-03 -5.40145789e-04 2.13525016e-02 4.94494045e-04 -1.96425915e-02 1.23944841e-02 1.75320376e-02 -2.24795546e-02 1.77537985e-02 -7.56539125e-03 1.92881320e-02 9.75208299e-04 6.17295969e-03 1.00993505e-02 1.33042848e-02 2.18364112e-02 6.29842281e-04 2.20034290e-02 1.59219466e-02 -3.45790363e-03 1.41356650e-04 1.12543255e-02 -1.96840195e-03 -1.06954342e-02 8.19890946e-03 -8.44614394e-03 5.56252617e-03 -1.68452226e-02 2.21110322e-02 -2.18534749e-02 6.53785979e-03 1.83249414e-02 -2.48176977e-02 1.57768617e-03 1.56707969e-02 1.71100590e-02 2.29272433e-02 -1.19485520e-02 -8.53050686e-03 4.49736277e-03 -3.57597880e-03 1.24109695e-02 6.34207204e-03 -1.69494953e-02 1.13481246e-02 1.59971323e-02 1.00184428e-02 4.56773632e-05 2.56296596e-03 2.40528677e-02 5.94353583e-03 1.31334765e-02 -2.07676739e-03 1.46599328e-02 5.52061596e-04 -1.66906938e-02 7.10899523e-03 2.05925990e-05 1.31732505e-02 1.10141002e-02 -1.08540049e-02 -7.50494795e-03 5.92789240e-03 1.06312577e-02 2.18957663e-02 1.10621974e-02 1.99688617e-02 -2.18851920e-02 -2.99615003e-02 -1.40793100e-02 1.56784430e-02 -1.44167067e-02 -1.65166352e-02 1.79945922e-03 -1.21390130e-02 1.28601049e-03 -1.34606631e-02 -1.24450130e-02 -5.10157319e-04 7.60402111e-03 -1.68696996e-02 -2.72711157e-03 -1.38100451e-02 1.95000619e-02 4.64230834e-05 7.62427738e-03 -1.17355399e-02 -4.31937166e-03 -2.37669423e-02 -2.12653950e-02 1.97053775e-02 -1.50641622e-02 1.84400100e-02 -1.26100183e-02 1.17652100e-02 2.31268164e-02 -1.31845046e-02 2.37013563e-03 -5.01602003e-03 2.27072053e-02 1.40938247e-02 -5.35496569e-04 -1.24548376e-02 -1.28378822e-02 -1.35935107e-02 -2.47447030e-03 -1.90813877e-02 -2.22743750e-02 -1.48486951e-02 2.57236902e-02 1.53069347e-02 -9.52404458e-03 2.35608742e-02 -2.83397399e-02 1.78628769e-02 -2.65733572e-03 7.71072274e-03 3.90704721e-03 1.00738043e-02 -9.88095347e-03 9.26710758e-03 2.90521923e-02 1.56470649e-02 2.00312883e-02 -2.23108530e-02 1.53020639e-02 -2.06083730e-02 -4.37297998e-03 1.71107333e-02 1.06823165e-02 2.18641385e-02 1.38796344e-02 -5.49975829e-03 -1.38543341e-02 -1.41075039e-02 7.21932901e-03 9.03010194e-04 5.93088940e-03 -1.24256918e-02 7.76376994e-03 5.33878291e-03 1.90738365e-02 4.18127235e-03 1.36553189e-02 6.55233162e-03 -1.21691860e-02 1.54221999e-02 -4.37247893e-03 -1.73931941e-02 1.95863657e-02 -4.65442985e-03 -2.23067403e-02
-2.09726579e-02 -2.82310843e-02 1.62742045e-02 -1.60008743e-02 -1.84957311e-02 1.55835235e-02 1.83304474e-02 -1.80681366e-02 -7.36202020e-03 -2.04693172e-02 2.42087208e-02 1.13321226e-02 -6.83374424e-03 1.65044870e-02 -1.19017996e-02 -2.15770267e-02 -8.39477964e-03 3.77268973e-03 -2.00452618e-02 -1.92015208e-02 1.36224367e-02 1.87727977e-02 -1.18793473e-02 8.70701764e-03 3.75839090e-03 1.48308491e-02 -1.96696036e-02 9.16661322e-03 2.32500453e-02 -2.40814610e-04 -2.32217126e-02 1.53821101e-03 -2.15899441e-02 -8.24905094e-03 -2.32314449e-02 -2.04106588e-02 -1.03131495e-02 7.85912946e-03 2.58587636e-02 -2.54863296e-02 1.41898440e-02 1.16377557e-02 -2.41171606e-02 -1.75496209e-02 8.37757066e-03 2.20035724e-02 2.08515115e-02 5.97931119e-03 2.05796752e-02 -2.36178078e-02 -9.28300142e-04 -2.01537777e-02 -1.52962720e-02 -2.19787918e-02 1.33016864e-02 -6.24941010e-03 2.41883583e-02 -1.91243254e-02 2.66358443e-02 1.53034255e-02 3.18788439e-02 -2.18121149e-02 -1.27449995e-02 1.94533784e-02 -1.42132211e-02 1.26943160e-02 3.94073408e-03 1.68412607e-02 2.07795650e-02 -1.26988487e-02 -8.76359176e-03 1.25606209e-02 -2.93729990e-03 -2.29987483e-02 -8.32635257e-03 -5.80400042e-03 4.87363338e-03 1.00478018e-02 2.27167271e-02 1.91482995e-02 9.63487383e-03 -2.97584245e-03 -2.38047633e-02 -1.45181483e-02 -1.52604254e-02 9.64492268e-04 -2.48723328e-02 -2.55440809e-02 -2.27184035e-02 5.98421181e-03 6.77262386e-03 -1.52337207e-02 -1.49387242e-02 -1.38629526e-02 -7.69292889e-03 2.14487240e-02 -1.62712876e-02 1.86703969e-02 1.43143442e-02 1.37113426e-02 1.49675393e-02 1.19422050e-02 8.32159724e-03 -3.61406547e-03 4.83887270e-03 1.79446395e-02 1.65943448e-02 1.82996169e-02 -1.10175665e-02 1.87432300e-03 1.86537523e-02 -2.70339530e-02 9.09419451e-03 -1.95809621e-02 1.99537892e-02 9.72533599e-03 1.30047547e-02 1.73536204e-02 4.35848301e-03 4.26520780e-03 1.84819065e-02 1.33937169e-02 1.45797562e-02 -1.97376199e-02 -6.65573403e-03 7.41984090e-03 -2.23248787e-02 -1.00274356e-02 2.37562396e-02 -8.38066638e-03 5.08606806e-03 -2.45422050e-02 1.80540476e-02 -2.36510560e-02 1.28460461e-02 2.40376946e-02 -2.87659299e-02 1.13755697e-02 1.28836576e-02 2.60388590e-02 1.55301047e-02 -2.42585689e-02 -2.17375793e-02 1.42599214e-02 -8.06008279e-03 1.63409263e-02 2.14508548e-02 -3.28265101e-04 2.05644853e-02 2.07713954e-02 4.51040640e-03 8.95143673e-03 -1.85403991e-02 7.02398224e-03 2.21211999e-03 3.02751213e-02 1.41512472e-02 9.84444190e-03 2.06704102e-02 -2.54231002e-02 2.25150120e-02 1.06554013e-02 3.11229634e-03 5.99865476e-03 1.86949559e-02 -2.59518833e-03 -1.54312346e-02 2.89687887e-03 1.09643387e-02 7.12933810e-03 9.42291133e-03 -1.55784152e-02 -1.29959770e-02 -1.26549471e-02 2.92980839e-02 -2.10121032e-02 -1.52064143e-02 2.35413071e-02 4.34514694e-03 1.31295882e-02 -6.43737195e-03 -7.13274255e-03 1.78218470e-03 -1.67281888e-02 -3.29199666e-03 1.87532362e-02 -1.86946169e-02 4.88225790e-03 -1.08104739e-02 1.01516126e-02 1.47901541e-02 9.04055778e-03 -2.31145769e-02 -1.04150958e-02 6.90149469e-03 -6.70840777e-03 2.51105949e-02 -1.78651027e-02 7.83285033e-03 9.76482872e-03 -1.83749609e-02 1.65891331e-02 -5.81861567e-03 2.02248096e-02 2.01445762e-02 -6.18115626e-03 -2.04404686e-02 -9.24634375e-03 -1.48684764e-02 -1.80286337e-02 -1.87744368e-02 -2.44022496e-02 -2.76642740e-02 2.71274373e-02 1.47391371e-02 -1.96823459e-02 2.31615044e-02 -9.53719672e-03 8.26022495e-03 1.50792282e-02 4.15296620e-03 1.81506760e-02 1.26186069e-02 -8.95190518e-03 9.71854292e-03 8.63282382e-03 1.56910121e-02 2.07220074e-02 -1.18207885e-02 1.79825518e-02 -1.06128305e-02 -1.24879237e-02 6.49722479e-03 1.00865830e-02 1.98141467e-02 2.15621311e-02 -5.11491997e-03 -3.40362685e-03 -1.26290349e-02 2.15474274e-02 4.36432194e-03 1.73353255e-02 -2.77184788e-02 1.68491565e-02 -6.78091822e-03 5.41091803e-03 -1.33808013e-02 8.73821601e-03 2.71264352e-02 -5.20754838e-03 2.92840749e-02 -1.50674824e-02 -1.63154807e-02 6.36444520e-03 -2.16857474e-02 -2.49392856e-02
-2.12242380e-02 -1.82466283e-02 1.79409012e-02 -1.85177866e-02 -9.38335527e-03 1.26199014e-02 1.10789342e-02 -1.07950270e-02 -1.42916217e-02 -1.80950593e-02 1.34952758e-02 1.01367235e-02 2.63823150e-03 2.00755941e-03 -2.86217825e-03 -1.65392924e-02 8.55292194e-03 6.10509980e-03 -5.53987408e-03 -2.24634213e-03 -2.37269001e-03 1.02627836e-02 4.11973131e-04 1.42394183e-02 1.83791369e-02 1.23706982e-02 -2.95219244e-03 2.20575044e-03 -5.70471631e-04 -7.08306069e-03 -1.33187352e-02 3.24562215e-03 -9.25148372e-03 -1.87326018e-02 -2.27018120e-03 -2.44922354e-03 -1.73211005e-02 2.21796073e-02 1.71592142e-02 -1.44024948e-02 1.04590170e-02 1.04116537e-02 -2.10245978e-02 -5.46742883e-03 5.99644519e-03 2.29898784e-02 2.04280973e-03 1.36180790e-02 3.22720897e-03 5.10385667e-04 -8.35785829e-03 -1.07195927e-02 1.12018408e-03 -1.43577959e-02 2.21849699e-03 -8.67890939e-03 2.36210264e-02 -2.30370834e-02 2.80108284e-02 1.99117083e-02 2.77638994e-02 -1.63739715e-02 -2.81116851e-02 2.35649496e-02 -1.13653783e-02 3.50863673e-03 1.30283330e-02 -2.18579359e-03 2.06107181e-02 -1.27332974e-02 -6.56142505e-03 -4.48195357e-03 -8.48173723e-03 -2.45075990e-02 -9.82359704e-03 -3.19849164e-03 7.39846239e-03 4.60819341e-03 3.75986286e-03 8.65085516e-03 1.15466164e-02 -2.71438574e-03 -1.94933228e-02 -2.56548217e-03 -2.05773059e-02 4.87337494e-03 -1.91679485e-02 -3.07960203e-04 -1.67928007e-03 -4.81434306e-03 1.79636888e-02 -1.80528760e-02 7.22184917e-03 -1.58825554e-02 -1.41003588e-02 2.02272134e-03 -7.51540903e-03 8.64289701e-03 1.55221391e-02 1.06245512e-02 9.35195666e-03 5.57484152e-03 5.82164200e-03 -1.01847025e-02 1.60310138e-02 7.35521270e-03 1.66726997e-03 1.09293219e-02 -1.96350887e-02 -5.59199043e-03 1.30155012e-02 -5.26456814e-03 1.28612556e-02 -1.04435757e-02 1.23554999e-02 -2.70133652e-03 8.77122767e-03 -8.89131054e-03 1.97153613e-02 -1.30261644e-03 5.63315535e-03 2.80828145e-03 6.21032948e-03 -1.32584563e-02 -1.36077767e-02 1.11095030e-02 -2.30546240e-02 -4.14012978e-03 1.31619805e-02 -2.28382219e-02 -5.64844580e-03 -1.92422885e-02 -6.39627222e-03 -1.08757606e-02 1.22840060e-02 2.52881572e-02 -7.20037986e-03 6.04412286e-03 2.30003577e-02 5.15678758e-03 2.28765421e-02 -2.12996528e-02 -1.24372756e-02 1.97653938e-02 -9.33449541e-04 8.01068544e-03 1.17847295e-02 -7.60634290e-03 6.70398446e-03 1.33209387e-02 9.70459450e-03 -2.23369570e-03 5.31733203e-05 1.50153888e-02 2.89991032e-03 5.73946489e-03 4.87322919e-03 1.28835747e-02 3.40431323e-03 -1.59873700e-04 1.90825611e-02 1.36695837e-03 2.11945386e-03 6.73062634e-03 -3.52794072e-04 -6.45238254e-03 2.55346554e-03 8.81195161e-03 1.98729094e-02 5.80619555e-03 7.67144002e-03 -1.64290704e-02 -2.41381954e-03 -1.29008666e-02 1.12898462e-02 -1.96454432e-02 -1.44953113e-02 -1.10765919e-03 1.29969111e-02 9.14054364e-03 -7.03668129e-03 -1.07560391e-02 3.08036106e-04 1.93378306e-03 9.11436044e-03 9.11702029e-03 -1.71420705e-02 -3.69926402e-03 7.50852167e-04 -7.78731471e-03 1.47313839e-02 9.49957781e-03 -1.26369251e-02 -3.31119937e-03 2.06850823e-02 -2.88597271e-02 1.63460914e-02 -4.44808416e-03 1.81115288e-02 1.38382893e-02 -1.41319605e-02 1.12679144e-02 -9.22764093e-03 7.61955883e-03 1.26972487e-02 -3.01155262e-03 -6.11026422e-04 -1.87286790e-02 6.19092141e-04 -9.69772507e-03 -1.34014618e-02 -9.76650976e-03 -8.82056728e-03 1.69309862e-02 1.18313320e-02 -2.36975215e-02 6.77708583e-03 -1.37428651e-02 7.99950305e-03 2.09430121e-02 2.43358756e-03 5.14604244e-03 3.95426899e-03 5.98439132e-04 2.41786474e-03 1.96459498e-02 6.59148861e-03 5.69481961e-03 -6.66435156e-03 7.80478446e-03 -2.66831014e-02 -2.14132257e-02 1.30465915e-02 1.37896752e-02 1.31436521e-02 1.45281348e-02 -8.52881372e-03 -5.20454021e-03 -8.21723137e-03 1.30818533e-02 6.87374777e-05 8.51611607e-03 -1.98787190e-02 7.41747627e-03 1.03660300e-02 1.17851165e-03 -6.48520747e-03 1.83089506e-02 2.57150158e-02 -1.83391608e-02 2.13349778e-02 -1.68537926e-02 -2.37282775e-02 2.47422066e-02 -5.03007649e-03 -1.39902132e-02
-1.45503664e-02 -1.65287349e-02 8.20958870e-04 -4.93180798e-03 -2.70259567e-02 1.70378201e-02 2.11601313e-02 -1.37129016e-02 -2.07294635e-02 -1.51303643e-02 4.37439186e-03 1.59201492e-02 -9.70442966e-03 6.68877689e-03 -5.92525303e-03 -4.08615684e-03 1.45416101e-03 9.23810527e-03 3.73544567e-03 -1.89349361e-04 2.33741780e-03 3.08975764e-03 -1.10941418e-02 -7.28427083e-04 1.62728701e-03 4.16457653e-03 -1.94527898e-02 3.07283225e-03 1.73596088e-02 -7.28485594e-03 -1.70976948e-02 5.69830509e-03 -1.59179959e-02 -9.26879141e-03 -7.76294107e-03 -2.35203877e-02 -2.32113022e-02 1.00442450e-02 2.30801590e-02 -1.02084633e-02 5.88703901e-03 1.91500206e-02 4.81866708e-04 -1.47043159e-02 8.01001862e-03 1.36882672e-02 6.62264135e-03 1.83671415e-02 1.79646015e-02 -7.39918882e-03 2.94640614e-03 -3.58834560e-03 3.29261599e-03 1.03877354e-02 1.28223998e-02 -8.37246608e-03 1.03840167e-02 -7.36752711e-03 3.03431246e-02 1.58389658e-02 6.68884628e-03 -1.12491194e-02 -1.04701659e-02 2.12804675e-02 -2.52098427e-03 4.91418410e-03 -1.16064295e-03 3.58386268e-03 5.66529483e-03 -4.87579824e-03 -1.61592159e-02 -7.04573048e-03 -9.18274000e-03 -1.83848217e-02 -8.70579667e-03 -2.15549078e-02 5.61389420e-03 2.28260774e-02 7.14691030e-03 1.64153352e-02 1.53901242e-02 -1.21308211e-02 -4.58019786e-03 -6.69577438e-03 -1.87647268e-02 1.36812450e-02 -8.94691981e-03 -1.89543236e-02 -1.67781282e-02 -3.31171341e-02 1.35788471e-02 -1.24747725e-03 -1.14588172e-03 7.07872258e-03 -2.21443479e-03 1.02602616e-02 -2.98842974e-03 9.55016818e-03 1.08017288e-02 1.75282322e-02 3.84044996e-03 3.57315969e-03 -1.44867424e-03 -2.38000718e-03 4.24975203e-03 7.29716523e-03 9.98829864e-03 1.08030913e-02 -1.63813084e-02 2.51753023e-03 1.14126755e-02 -2.63968459e-03 3.12518980e-03 -6.49524736e-04 1.48091046e-02 1.78732332e-02 1.20258769e-02 1.32166538e-02 1.53328879e-02 6.18386175e-03 1.53250732e-02 8.25999863e-03 1.34731028e-02 -9.66122281e-03 3.48362396e-03 -4.59530344e-03 -9.66357440e-03 -3.46394395e-03 8.24324880e-03 -2.35006791e-02 2.78173899e-03 -3.89325852e-03 6.22883497e-04 -1.61629338e-02 1.48021141e-02 2.30987985e-02 -2.95861508e-03 1.34878315e-03 1.94551311e-02 7.13428529e-03 5.65119786e-03 -1.30492514e-02 -3.88524821e-03 2.37865262e-02 -1.40979365e-02 1.08525474e-02 1.07099088e-02 -1.61912537e-03 9.91106872e-03 3.37748346e-03 9.91191994e-03 7.94182438e-03 -5.95514313e-04 1.16720237e-02 5.91858570e-03 2.23826375e-02 -1.78718858e-03 -2.27348693e-03 -1.53449411e-03 -4.88593895e-03 -1.04107000e-02 1.43494306e-03 8.77014454e-03 -9.50150564e-03 5.23252552e-03 1.03424685e-02 -6.80986140e-03 -6.77307649e-03 2.52593756e-02 1.94509663e-02 1.10962922e-02 -1.40032852e-02 -9.44183674e-03 -5.56769129e-03 2.96905148e-03 -2.23291218e-02 1.29611068e-03 5.71408821e-03 -1.09302383e-02 2.10664701e-02 6.56290585e-03 -1.08790798e-02 -6.33644499e-03 -7.37582427e-03 -1.50115751e-02 -8.86219367e-03 8.22529197e-03 1.65754557e-02 -1.89852947e-03 5.23966271e-03 -7.35902088e-03 1.55902514e-03 -2.24633254e-02 -1.43994931e-02 1.61684845e-02 -1.43922465e-02 2.46443767e-02 -1.13305589e-02 1.14312274e-02 1.16710635e-02 -1.07324841e-02 1.42036388e-02 -1.45059098e-02 2.18676012e-02 1.88368298e-02 5.77157456e-03 -7.19102612e-03 -1.67753287e-02 -2.10275110e-02 -1.12819606e-02 -1.76795647e-02 -2.22919546e-02 -1.85740292e-02 2.82434020e-02 1.38976444e-02 -1.81414820e-02 -1.92604528e-03 -3.27575207e-02 1.84820835e-02 5.47589548e-03 1.28847756e-03 7.37462519e-03 1.50142023e-02 3.71402239e-05 2.19267933e-03 1.17093641e-02 1.95841901e-02 1.29387639e-02 -2.61423644e-04 6.57183165e-03 -1.47527037e-02 -2.10663527e-02 9.11066309e-03 7.41898781e-03 7.28800800e-03 5.32056857e-03 -1.12200426e-02 -7.26057123e-03 -7.86911603e-03 -6.79482752e-03 2.08978634e-03 1.34896273e-02 -5.44427382e-03 1.91406757e-02 -1.21547817e-03 1.46042798e-02 -1.17714955e-02 1.57194249e-02 5.94266923e-03 -1.94259714e-02 9.59493592e-03 -2.09378563e-02 -2.14532437e-03 1.02134803e-02 -2.50241887e-02 -2.47512404e-02
-2.19218787e-02 -1.30581316e-02 8.39830097e-03 -1.91998668e-02 -1.62224118e-02 1.16793951e-02 1.57455727e-02 -2.06286907e-02 -1.44228414e-02 -1.72063205e-02 1.01814773e-02 3.28568206e-03 -2.85046245e-03 5.84160397e-03 -5.09215379e-03 -8.77463166e-03 1.69211428e-03 -4.91312938e-03 -1.86375417e-02 -1.97932962e-02 4.80601238e-03 1.46816773e-02 -6.26063440e-03 1.29580498e-02 1.98050421e-02 1.43575557e-02 -9.76438541e-03 8.04907177e-03 3.95542476e-03 -2.28423439e-02 -2.22430825e-02 1.10154869e-02 -1.35608986e-02 -2.70661525e-02 -1.51037425e-02 -4.63354494e-03 -9.51492414e-03 2.63670404e-02 2.13834289e-02 -1.63819436e-02 1.82290766e-02 2.42748614e-02 -2.05837339e-02 -1.63670890e-02 2.56032329e-02 7.14856433e-03 4.04064171e-03 1.91487148e-02 1.59572382e-02 -1.52257225e-03 -1.65399909e-02 -2.07702983e-02 -1.89543776e-02 6.80307113e-03 1.67033188e-02 9.35391616e-03 1.85133033e-02 -1.87561680e-02 3.14126499e-02 1.81753468e-02 1.21988617e-02 -1.38871083e-02 -2.40136869e-02 1.27477748e-02 -2.06930842e-02 8.35204218e-03 1.44778322e-02 1.14538902e-02 2.13615242e-02 -1.47382477e-02 -8.95749032e-03 1.28169861e-02 -1.30038578e-02 -1.36165805e-02 -2.39177793e-02 -3.84876295e-03 9.96979140e-03 1.54741164e-02 2.88849380e-02 1.64484996e-02 1.30144730e-02 -2.77963784e-02 -4.68984153e-03 -1.40775982e-02 -2.30817366e-02 -1.46527812e-02 -9.44649708e-03 -2.38723867e-03 -2.49030627e-02 -3.00723314e-02 1.68203507e-02 -1.76999327e-02 -1.38980225e-02 -1.27263712e-02 -6.00420590e-03 1.80814154e-02 -3.22172372e-03 6.16568234e-03 1.37962168e-02 2.20228862e-02 1.58199146e-02 1.40314382e-02 2.36940775e-02 -2.32731067e-02 6.50306558e-03 1.43564530e-02 2.72969585e-02 1.22735733e-02 -6.12431671e-03 1.55774755e-02 3.18594114e-03 -8.53331573e-03 2.26073153e-02 -2.33770534e-02 1.14752874e-02 1.81505755e-02 1.39009533e-02 1.18482392e-02 1.75038464e-02 2.42543463e-02 2.27192007e-02 1.90917011e-02 1.87887270e-02 -1.14394762e-02 -1.94808263e-02 1.18345721e-02 -2.12042201e-02 -2.11253967e-02 7.36425538e-03 -7.03698676e-03 2.53043901e-02 -2.05662437e-02 2.57760137e-02 -8.88415612e-03 9.09845158e-03 2.90080830e-02 -8.83881282e-03 1.63036734e-02 1.16355401e-02 2.86356695e-02 2.22099535e-02 -3.70033435e-03 -1.33697214e-02 7.52186682e-03 -9.53964307e-04 1.54176047e-02 -1.51783193e-03 -2.71213874e-02 3.90673382e-03 1.14176851e-02 1.93005614e-02 1.27435513e-02 -1.27591025e-02 1.62420794e-02 -2.22044042e-03 2.11371128e-02 1.27014983e-03 9.88692697e-03 1.78020932e-02 -8.11530836e-03 1.58686899e-02 -7.74844317e-04 -1.49574294e-03 -3.13735986e-03 1.32021075e-02 -2.96333339e-03 -5.28946007e-03 7.76022673e-03 1.30273532e-02 5.37889125e-03 2.74718106e-02 -1.59580335e-02 -2.41394509e-02 -2.07598396e-02 2.69942377e-02 -1.93866137e-02 -1.19081903e-02 9.83219221e-03 2.95814616e-03 1.23576950e-02 -3.82556207e-03 -2.19031535e-02 6.88758865e-03 -5.53584518e-03 5.33209066e-04 1.42628569e-02 -1.93219669e-02 1.27249043e-02 2.13518087e-03 3.23242880e-03 -3.88915441e-03 8.76744650e-03 -2.17914004e-02 -2.51965038e-02 4.67537204e-03 -2.34891381e-02 2.88965274e-02 -1.93602853e-02 8.50880053e-03 2.83054393e-02 -5.81120141e-04 2.25158948e-02 9.54299234e-04 1.10549349e-02 2.29773391e-02 -2.05877535e-02 -5.35943080e-03 -8.91066063e-03 -1.29673816e-02 -1.84582900e-02 -1.00102564e-02 -2.68702656e-02 -1.85996480e-02 2.57524904e-02 6.85148779e-03 -2.19452567e-02 2.63129584e-02 -1.96011495e-02 1.73148010e-02 1.21825542e-02 1.19581614e-02 1.59661565e-02 1.07165202e-02 -1.02249337e-02 8.36580992e-03 8.91946536e-03 1.48556381e-02 1.37035456e-02 -6.48584496e-03 1.37351807e-02 -2.16825977e-02 -5.13031473e-03 1.71156209e-02 6.30247314e-03 2.65995902e-03 1.68305077e-02 -2.09547859e-02 -1.38148926e-02 -3.23211774e-02 1.62613466e-02 3.21611506e-03 -2.82894098e-03 -1.75858531e-02 2.06300877e-02 -1.34344092e-02 8.65846220e-03 -7.34106684e-03 5.61932893e-03 2.43108552e-02 -2.62258016e-02 1.66386925e-02 -5.29566593e-03 -1.82665754e-02 1.83265246e-02 -1.30844442e-02 -2.59543508e-02
