-8.78578518e-03 -2.29220837e-02 1.56495403e-02 -1.04484102e-02 -1.60948560e-02 1.06458217e-02 1.78086292e-02 -2.02032607e-02 -2.04162858e-03 -1.65473260e-02 1.60472076e-02 5.44199767e-03 -7.33647076e-03 2.92499294e-03 6.47223461e-03 -1.62426885e-02 9.74293798e-03 5.80298947e-03 9.10847262e-03 1.10859247e-02 1.34858387e-02 -8.44374858e-03 -1.54290523e-03 -2.77548051e-03 1.34962816e-02 7.40175543e-04 -1.45898890e-02 8.44446383e-03 -1.16432947e-03 -2.23274459e-03 -7.66290977e-05 2.40173831e-04 -2.01455839e-02 -4.74842684e-03 -5.37348120e-03 -1.28950104e-02 -1.69315375e-02 9.13087558e-03 2.40209363e-02 -6.02669595e-03 4.13541775e-03 -3.90418828e-03 -1.01889661e-02 -7.59990280e-03 -4.97260643e-03 1.20091513e-02 2.06768699e-02 -3.18239862e-03 4.83694393e-03 -1.27074607e-02 -1.17535004e-02 -6.70772372e-03 -1.19656837e-02 -1.12382304e-02 1.11572593e-02 1.50772661e-03 2.36568432e-02 -2.24735234e-02 1.10319834e-02 1.83984786e-02 2.05519181e-02 -7.81852379e-03 -8.52367934e-03 8.71181767e-03 -4.48828982e-03 1.51343038e-02 2.00026631e-02 -1.23740397e-02 1.21160795e-03 -5.97619545e-03 -1.60206072e-02 6.36030640e-03 2.29219045e-03 -1.14593133e-02 -6.43947581e-03 -1.83344111e-02 -1.90612557e-03 8.05602875e-03 2.35795160e-03 2.37344392e-02 6.31843507e-03 5.54749602e-03 -2.71826895e-04 1.40942319e-03 -1.84334796e-02 3.08659347e-03 -2.82326154e-03 1.15654338e-03 -1.43477498e-02 -3.53788631e-03 3.83149949e-03 -7.89666810e-05 -2.02751462e-03 -1.49557190e-02 -5.10170776e-03 1.17588351e-02 2.54654535e-03 5.52344602e-03 5.04531804e-03 9.77560785e-03 9.79011878e-03 1.38723645e-02 -5.48966508e-03 -9.81369894e-03 2.02566925e-02 6.77253818e-03 1.11095067e-02 1.94409420e-03 -1.86652690e-02 1.15165003e-02 3.79483309e-03 -1.45094143e-02 -2.91053997e-03 -2.29376392e-03 1.06014078e-02 2.90263351e-03 1.83913540e-02 8.37433338e-03 2.22201422e-02 1.11110592e-02 4.97251051e-03 1.33937784e-02 1.29182730e-02 -4.68806596e-03 -1.41517939e-02 1.59225091e-02 8.10617697e-04 -7.21727358e-03 1.76581591e-02 -1.98906008e-02 -8.57527193e-04 -2.38574781e-02 -2.98711192e-03 -1.28264958e-03 9.29326750e-03 8.60987231e-03 -2.43634805e-02 -2.28690536e-04 2.19408181e-02 2.99833599e-04 1.75186265e-02 -1.72907859e-02 -6.84789009e-03 2.42415257e-02 -1.49605935e-02 8.00766051e-03 7.91906193e-03 8.87508690e-03 1.52125852e-02 1.78906519e-03 -5.62390080e-03 -8.96870252e-03 -1.56210996e-02 -1.03594153e-03 1.40524143e-02 2.27642879e-02 8.12573731e-03 1.70088839e-02 1.44438986e-02 -1.05899144e-02 1.75871048e-02 1.39218941e-02 -2.27571916e-04 -1.13233505e-02 1.42357303e-02 -1.09106617e-03 -1.62335467e-02 -6.16646744e-03 3.00570694e-03 1.77003294e-02 4.47776588e-03 -9.78977513e-03 -8.46603699e-03 -1.46742249e-02 1.60223115e-02 -2.29415353e-02 -5.92365721e-03 1.66399628e-02 1.23740081e-02 -3.98000376e-03 4.43653669e-03 -7.62313604e-03 1.35593640e-03 6.77394215e-03 4.48777247e-03 2.43976642e-03 -3.20688378e-05 5.88382967e-03 -7.61984242e-03 -7.74212135e-03 3.96212609e-03 1.51249897e-02 -2.23149303e-02 -5.28943725e-03 8.91297404e-03 -2.72883736e-02 1.91529896e-02 -7.92304706e-03 2.72824280e-02 1.41794560e-02 -7.80556351e-03 1.18034733e-02 -1.21677108e-02 2.11015213e-02 1.61902420e-02 -1.13224527e-02 -2.99521862e-03 -1.35830352e-02 -2.05061282e-03 -1.29785929e-02 -6.32258644e-03 2.13006744e-03 -7.50327716e-03 -5.09354461e-04 9.84983519e-03 -1.55744944e-02 1.28716817e-02 -3.38499551e-03 -3.32230073e-03 9.70055256e-03 9.24251135e-03 2.78692041e-03 1.08346129e-02 4.53872979e-03 5.32404287e-03 1.55071681e-02 1.44922035e-02 2.00169198e-02 -1.60627849e-02 1.15147270e-02 -2.29537077e-02 -1.84872709e-02 7.40514323e-03 -3.45730386e-03 1.14439698e-02 5.14818646e-04 -1.39818452e-02 -9.74199362e-03 -1.70315697e-03 2.05408279e-02 6.56867493e-03 1.37671633e-02 -2.02159230e-02 1.49868689e-02 1.48745300e-02 -1.24338623e-02 5.10688126e-03 1.73149295e-02 2.07324624e-02 -2.05111522e-02 1.10331392e-02 -1.76493600e-02 -1.52232368e-02 1.64428893e-02 -6.88457349e-03 -5.96615812e-03
-2.18741945e-03 -1.85628328e-02 8.01361445e-03 -5.66516491e-03 -3.08175618e-03 5.46375941e-03 2.19563991e-02 -7.46335322e-03 -1.32123940e-02 3.64962337e-03 4.28774022e-03 1.86486486e-02 2.47415528e-03 1.26456106e-02 2.42946437e-03 3.23426444e-03 -1.00041470e-02 5.43293077e-03 -2.79788091e-03 -7.21452758e-03 1.38178067e-02 1.42918313e-02 8.71727127e-04 4.30971663e-03 1.76695772e-02 4.37738979e-03 -2.50646449e-03 -2.47523934e-03 1.43110184e-02 -4.21811268e-03 1.83883251e-03 2.03052778e-02 -1.89439522e-03 -1.04680331e-02 -1.77177750e-02 -1.19392090e-02 -2.37277672e-02 4.88096382e-04 2.40752380e-03 -2.18892507e-02 -2.03737454e-03 -2.46055308e-03 -3.48164910e-03 -9.65193752e-03 1.42637072e-02 1.61425487e-04 9.85047966e-03 1.72378849e-02 1.34038767e-02 -9.58654564e-03 -1.38172107e-02 -6.76801102e-03 5.62308636e-03 -1.71808957e-03 -8.89925752e-03 6.87917601e-03 3.23449215e-03 -8.93208571e-03 1.12090409e-02 2.65725870e-02 1.09968754e-02 -9.10866447e-03 -2.69045103e-02 1.62285939e-02 -6.74272003e-03 5.33423107e-03 1.39212813e-02 -3.89727601e-03 -2.04658858e-03 -5.51693328e-03 -1.28027136e-02 -7.39697879e-03 -5.87290199e-03 -4.93796682e-03 -1.08289141e-02 -1.32734673e-02 -1.97248603e-03 -5.74158039e-04 3.60835023e-04 7.69425416e-03 8.45791399e-03 -1.79790508e-03 -1.49130262e-02 -1.71519108e-02 7.32324319e-04 -8.70355871e-03 -6.37799175e-03 -1.15900021e-02 -1.67798735e-02 -1.69282667e-02 1.95588991e-02 -6.08414039e-03 1.11770658e-02 -2.67338892e-03 -9.58485063e-03 1.70363430e-02 4.97507025e-03 7.15097971e-03 7.09516043e-03 -4.89682611e-03 1.57020371e-02 2.01140437e-02 1.31980553e-02 -9.87533014e-03 1.64391454e-02 5.72556071e-03 2.01413203e-02 1.05254594e-02 2.02707155e-03 7.79280264e-04 1.49051566e-02 -9.22215544e-03 3.28455470e-03 4.23074327e-03 7.47512793e-03 6.58565387e-03 2.53287586e-03 1.47674326e-02 3.06825619e-03 6.11881679e-03 1.59350168e-02 4.75696800e-03 1.32530986e-03 -4.54558432e-03 -7.14041106e-03 5.27302874e-03 -2.66741263e-03 -1.47272134e-02 1.94696970e-02 -6.58632722e-04 -1.83559128e-03 -3.17012821e-03 2.03171782e-02 -1.70340855e-02 1.07876398e-02 1.96145102e-02 -6.23008411e-04 8.48378707e-03 9.50860791e-03 1.48737952e-02 1.36294272e-02 -1.22086918e-02 -2.32100603e-03 1.83514692e-02 -1.43452063e-02 1.15043288e-02 7.36697111e-03 4.17892850e-04 1.29292477e-02 3.82285519e-03 -3.78048024e-03 -1.63899560e-03 -2.33638845e-03 1.13891261e-02 2.34222156e-03 5.45700034e-03 -6.40914170e-03 7.50983600e-03 1.25913257e-02 6.16741646e-03 1.41517166e-02 9.14442074e-03 -2.22582882e-03 9.31187440e-03 -2.88537797e-03 -9.87158529e-03 5.37780215e-06 1.40270626e-03 8.63027107e-03 8.33882857e-03 9.56642500e-04 -1.42093552e-02 -2.29651239e-02 -1.82282794e-02 2.32175761e-03 -1.97774526e-02 3.30592319e-03 1.93036590e-02 1.56208593e-03 1.16413990e-02 -1.35553600e-02 -7.00304192e-03 -1.10613657e-02 -1.16075994e-02 -5.02208620e-03 4.14924463e-03 1.83816755e-03 2.95412936e-03 -6.02523703e-03 3.77429975e-03 -2.39860383e-03 -6.16420666e-03 -1.92174371e-02 -2.48022843e-02 8.33805278e-03 -1.67201627e-02 9.94282961e-03 -1.90658476e-02 2.06109732e-02 3.72017594e-03 -1.39209321e-02 -1.19595067e-03 -1.45681184e-02 3.43489856e-03 1.20232636e-02 8.95137433e-03 -4.40705940e-03 5.87951392e-04 -8.48722644e-03 -9.14890319e-03 -2.09701732e-02 -2.28849128e-02 -2.17794860e-03 2.40416974e-02 2.19669333e-03 -2.38161860e-03 -2.02228455e-03 -2.81058177e-02 1.36528695e-02 1.28387567e-02 1.59998909e-02 5.74376807e-03 8.13367311e-03 -5.86300995e-03 3.35462717e-03 2.20841747e-02 3.45815485e-03 1.54816201e-02 -5.52410167e-03 1.39494566e-02 -1.56513285e-02 7.90787570e-04 1.00973174e-02 8.04106332e-03 7.84947351e-03 -2.35484098e-03 -5.91138937e-03 3.00821941e-03 -3.05369888e-02 9.29445960e-03 -4.73211636e-04 8.96993652e-03 -1.70421954e-02 1.50748398e-02 -2.29826619e-04 1.04470458e-02 4.01401939e-03 1.59781240e-02 1.75005123e-02 -1.36980871e-02 1.25683770e-02 1.25578232e-03 -1.33172814e-02 1.59485415e-02 -5.14783338e-03 -8.48756079e-03
2.81448327e-02 1.17161172e-02 -3.94873805e-02 2.40083020e-02 3.07882279e-02 -1.38549702e-02 -4.08580378e-02 1.51097504e-02 -9.13035125e-04 6.38185963e-02 -5.77270091e-02 -1.67712327e-02 -3.36274989e-02 2.15883018e-03 -7.74912443e-03 3.81088704e-02 -4.58396086e-03 -6.11581244e-02 2.68350970e-02 1.86276566e-02 -3.94527763e-02 -1.90250315e-02 -1.10567454e-02 -4.38320041e-02 1.00060990e-02 -4.75057252e-02 1.85537450e-02 3.68972495e-02 7.57585838e-03 -4.42076800e-03 4.37136069e-02 2.66376790e-03 1.88033227e-02 -1.14685704e-03 -6.67399913e-02 -1.91791058e-02 3.39651131e-03 1.28773265e-02 9.52897244e-05 -1.19161168e-02 -4.32641469e-02 -4.82122526e-02 4.43834513e-02 -3.16956341e-02 5.71735837e-02 -5.74248694e-02 -4.12241817e-02 1.87272877e-02 -4.42831889e-02 2.91480310e-02 4.51537482e-02 1.80749912e-02 1.79246776e-02 4.84580882e-02 1.73825398e-02 1.87468193e-02 -3.46692279e-02 2.47182399e-02 -2.73116417e-02 -3.47565822e-02 4.04930441e-03 1.94428358e-02 3.71337458e-02 -2.49055307e-02 1.76035482e-02 -3.87795009e-02 -2.87381541e-02 7.67741771e-03 -3.77887525e-02 3.60253640e-02 1.73789170e-02 1.35428952e-02 -3.41557115e-02 -2.40578931e-02 -5.45974225e-02 -2.02271380e-02 3.91295031e-02 1.29584232e-02 6.48504496e-02 1.63075868e-02 -4.36687283e-03 -6.20087050e-03 2.95792986e-02 -1.36915315e-02 2.57515050e-02 4.27495539e-02 -7.27303475e-02 1.07037425e-02 2.40512490e-02 6.27530366e-02 1.75638031e-02 5.41022420e-02 2.88586337e-02 4.54985686e-02 4.20784876e-02 -6.33900687e-02 -2.95261722e-02 -1.29147135e-02 -6.66120499e-02 -5.60519397e-02 1.35888597e-02 -1.42054660e-02 3.34936343e-02 -1.16863204e-02 -7.44325742e-02 -4.48623337e-02 1.86853688e-02 -3.75506431e-02 5.62046692e-02 -1.12802889e-02 -9.43487808e-02 5.76982945e-02 5.65587683e-03 -4.62040827e-02 -6.01946823e-02 1.17054759e-02 -5.76129556e-02 5.22837304e-02 -3.43767628e-02 3.12742107e-02 -2.13232972e-02 1.47784343e-02 -6.16024397e-02 3.18406299e-02 -9.42031667e-03 -2.24347431e-02 2.26898510e-02 2.37791799e-02 -8.39526486e-03 -1.94135904e-02 7.41926581e-02 -1.99140944e-02 5.72616830e-02 -1.93329100e-02 -2.76272055e-02 4.93775960e-03 -1.21414354e-02 1.05052553e-01 9.04639587e-02 1.78625554e-01 2.39288248e-02 -7.30940849e-02 -8.33762437e-02 1.45643763e-02 4.02756222e-02 -9.25274193e-03 3.08664865e-03 1.30605269e-02 -1.24161663e-02 -4.09517735e-02 -9.47319623e-03 3.76089439e-02 1.90454330e-02 -8.68652016e-02 -3.66182774e-02 -4.99131298e-03 -4.35861126e-02 -2.55133025e-02 -2.11149082e-02 1.17229866e-02 -2.69158483e-02 -1.46916090e-03 -2.38476507e-02 4.16879840e-02 -8.57329369e-03 -3.54746729e-03 -6.79933233e-03 -9.56210215e-03 1.58522557e-02 -1.35572394e-03 1.80626288e-02 -1.81436036e-02 3.39578930e-03 -2.83385646e-02 4.02684003e-04 -4.96472185e-03 9.82106291e-03 -3.21956240e-02 1.00497477e-01 -4.51687127e-02 4.63113841e-03 4.50700074e-02 -8.07081960e-05 1.90824326e-02 3.04131340e-02 -1.78110525e-02 6.00675568e-02 -4.53352407e-02 -3.22510339e-02 -1.45005519e-02 -6.71455041e-02 -6.39671609e-02 -1.05294781e-02 -4.60559390e-02 1.13035263e-02 -1.45375701e-02 1.40470089e-02 -5.57838753e-02 4.18249145e-02 3.28260958e-02 1.66888218e-02 -2.67766993e-02 3.81981134e-02 -3.12907957e-02 -7.63833150e-02 4.51951101e-03 -1.71837285e-02 7.61695281e-02 -8.04487392e-02 -9.42920567e-04 -2.90368088e-02 -1.07647711e-02 -6.85143005e-03 3.33670974e-02 -2.90837865e-02 6.50884071e-03 -3.72870937e-02 4.20134440e-02 -2.19539162e-02 -4.17897664e-02 -4.78813872e-02 3.86936553e-02 -4.06125411e-02 2.97686011e-02 1.36263013e-01 9.29935351e-02 1.44867912e-01 6.64433986e-02 -1.57354102e-01 1.48421228e-01 -8.63527358e-02 -9.41082910e-02 -4.83961888e-02 1.12534091e-01 -3.87965925e-02 -2.09840829e-03 -6.16727322e-02 -4.19396758e-02 -2.76568048e-02 -2.66310032e-02 6.86970353e-02 -6.74947724e-02 7.59322420e-02 -1.16279880e-02 5.69486665e-03 4.82624099e-02 -3.71303223e-02 -5.12142815e-02 6.61765337e-02 -1.20058328e-01 4.02756557e-02 -1.60845056e-01 -5.20533100e-02 6.66871294e-02 -1.29428267e-01 -1.48056164e-01
-1.61254015e-02 -2.59065405e-02 1.16480570e-02 -2.21714992e-02 -2.31324993e-02 1.73345599e-02 7.03661842e-03 -2.85059940e-02 -2.51806993e-03 -1.29009485e-02 2.32052784e-02 2.44724508e-02 -1.92741528e-02 1.74438562e-02 -2.02603219e-03 -2.38574818e-02 4.95767780e-03 -1.90590546e-02 -4.66537429e-03 -1.12415431e-02 1.24302628e-02 -2.26971717e-03 5.47004398e-03 1.01191225e-02 1.46287698e-02 6.16150349e-03 -1.27872229e-02 9.83139034e-03 2.35817265e-02 -2.40950584e-02 -2.15872843e-03 2.52350941e-02 -2.72424836e-02 -2.23121736e-02 -1.09749530e-02 -6.43053139e-03 -2.21017543e-02 2.53386460e-02 1.09626567e-02 -8.42779130e-03 2.81465054e-03 5.63551392e-03 -4.14142618e-03 -2.69806106e-02 1.14913397e-02 8.80419090e-03 1.29792020e-02 5.81267755e-03 2.24821419e-02 -4.87207249e-03 -1.04409056e-02 -1.12825111e-02 -8.94124061e-03 -1.27318557e-02 4.27664770e-03 1.40092922e-02 2.26015039e-02 -2.58098524e-02 2.25567184e-02 2.51202527e-02 8.47783126e-03 -1.04020145e-02 -1.12274569e-02 1.45724965e-02 -4.94625373e-03 -1.25779840e-03 9.09813680e-03 -6.38546562e-03 1.42205681e-03 -7.58122886e-03 -1.70920715e-02 1.45034436e-02 -1.54456664e-02 -8.65208730e-03 -3.02187377e-03 -1.17069455e-02 5.95358014e-03 1.82932764e-02 2.71304641e-02 2.42736265e-02 2.22093947e-02 -4.45861882e-03 -1.72117613e-02 -3.60029913e-03 -7.33969826e-03 -2.36583073e-02 -1.03129260e-02 -2.23607607e-02 -1.81540642e-02 -3.06225475e-02 1.99070871e-02 -2.14814525e-02 5.87266963e-03 -4.39443538e-04 -1.55950757e-02 4.86437744e-03 -6.88096043e-03 3.86499590e-03 1.11143198e-02 2.30850466e-02 1.03400797e-02 2.73506977e-02 5.75775746e-03 -1.42161520e-02 1.60005838e-02 1.62535571e-02 1.04930429e-02 -4.12881695e-04 -9.41639487e-03 1.85752288e-02 1.66405545e-04 -7.84919318e-03 3.83709976e-03 -4.57703369e-03 1.42505011e-02 2.21968777e-02 -1.89938510e-04 1.87948963e-03 1.69669301e-03 5.21979947e-03 5.93852205e-03 1.48184132e-02 1.75163262e-02 -1.59151349e-02 -9.76231694e-03 1.18435093e-03 -1.48365106e-02 -1.32406820e-02 2.00901609e-02 -2.32261196e-02 2.14891639e-02 -1.77988112e-02 1.18182125e-02 -2.05431972e-02 2.50264420e-03 1.00904545e-02 -1.69496611e-02 2.59549692e-02 1.66790243e-02 1.73760522e-02 2.56846342e-02 -1.57050379e-02 -1.23383775e-02 4.02107183e-03 -1.89966634e-02 -2.55357096e-04 8.05808976e-03 -2.76782829e-02 9.07589495e-03 2.78039114e-03 1.44882603e-02 -1.31801271e-03 3.78972455e-03 2.34601311e-02 1.56548657e-02 2.21138261e-02 1.65028498e-02 8.73452239e-03 9.22105834e-03 2.25570076e-03 3.93121736e-03 7.44853285e-04 -2.73675588e-03 5.95495163e-04 -7.57081318e-04 -1.92118436e-02 -1.44971209e-02 4.56013391e-03 1.68329403e-02 1.35409161e-02 2.54866984e-02 -1.42967869e-02 -2.61852853e-02 -9.75594949e-03 1.53299486e-02 -1.98651012e-02 -8.58725887e-03 7.27142952e-03 -5.43371402e-03 1.55542949e-02 -9.23321862e-03 -2.21563727e-02 7.17249932e-03 1.68951822e-03 -1.19531481e-02 1.71201080e-02 -1.46164699e-02 2.23995093e-03 -1.27089433e-02 8.40955880e-03 -6.34118565e-04 4.99977311e-03 -1.44118303e-02 -2.50053182e-02 2.39603799e-02 -1.51923876e-02 8.95228051e-03 -1.49763683e-02 1.36238961e-02 2.92842537e-02 -2.19383184e-02 1.41652778e-03 -1.65680107e-02 1.34949032e-02 1.22361109e-02 -7.18861399e-03 -2.30834298e-02 -1.60573665e-02 -1.89359244e-02 -5.02432138e-03 -2.59521287e-02 -2.60249563e-02 -1.36030316e-02 2.88535394e-02 1.29657788e-02 -2.91003217e-03 3.22491466e-03 -1.82634518e-02 1.71971712e-02 2.37421487e-02 1.55509273e-02 1.17730992e-02 1.17986067e-03 9.63533530e-04 1.40433032e-02 5.26334811e-03 7.90516753e-03 2.57776771e-02 -2.20128708e-02 2.36506164e-02 -8.27297848e-03 -1.29541457e-02 2.20428407e-02 2.40490884e-02 1.74777769e-02 1.46576846e-02 -5.28612174e-03 -1.12371333e-02 -1.54627943e-02 1.58386230e-02 2.08905935e-02 1.16423694e-02 -8.33563134e-03 2.22888552e-02 -6.72274968e-03 7.67010171e-03 8.15873500e-04 1.59662664e-02 2.59469040e-02 -2.35494468e-02 2.67836936e-02 -2.13403925e-02 -7.25201890e-03 6.28494052e-03 -2.47864984e-02 -1.28943799e-02
-1.58486832e-02 -1.86286177e-02 1.58553869e-02 -2.53803339e-02 -2.92991847e-02 2.84941271e-02 7.50823366e-03 -1.68371871e-02 -5.23555977e-03 -2.22059395e-02 1.97836999e-02 6.59768609e-03 -1.20562296e-02 -3.70936090e-04 -6.72434806e-04 -1.78892724e-02 -1.39078097e-02 -4.96853469e-03 -1.94300748e-02 -1.52129792e-02 2.56045200e-02 1.98918413e-02 -1.03399018e-02 1.58337876e-02 1.98103450e-02 5.82723180e-03 -1.44851571e-02 1.09811043e-02 2.20359024e-02 -1.79112889e-02 -1.13764443e-02 1.76950134e-02 -1.35176694e-02 -2.15525888e-02 -2.20120847e-02 -7.37659726e-03 -2.32788343e-02 2.03008987e-02 1.92875527e-02 -2.43265890e-02 2.32928786e-02 1.22436173e-02 -5.69743011e-03 -1.07939411e-02 1.67108495e-02 1.27482601e-02 6.07330631e-03 1.35900564e-02 2.04441622e-02 -1.70428809e-02 -1.28011005e-02 -1.22342631e-02 -1.78475715e-02 -1.64364278e-02 -8.10234866e-04 -4.85813944e-03 2.86187343e-02 -2.39815321e-02 1.99517943e-02 1.41531937e-02 2.23752931e-02 -1.58457588e-02 -1.97468493e-02 2.21765470e-02 -1.45023623e-02 2.07658429e-02 -4.65205158e-05 -5.56974439e-03 1.90826338e-02 -1.95712261e-02 -1.54134324e-02 1.62844062e-02 -1.79403964e-02 -1.10622831e-02 -1.09430933e-02 -8.00486933e-03 1.63323227e-02 1.74682997e-02 2.09447443e-02 1.21383378e-02 2.48560607e-02 -1.70334075e-02 -1.57836247e-02 -1.60131007e-02 -2.59287376e-02 5.76205784e-03 -8.31809361e-03 -2.23463550e-02 -4.52488894e-03 -2.50275675e-02 1.28870308e-02 -3.72798578e-03 -1.17406575e-02 -9.20328032e-03 1.99266104e-03 2.01825313e-02 -1.14059607e-02 2.48326994e-02 1.69040244e-02 2.30357181e-02 3.52613139e-03 4.07820707e-03 1.39974738e-02 -1.58981010e-02 3.61902639e-03 -3.97856784e-04 1.29453084e-02 2.00740825e-02 -2.87401211e-03 1.77402645e-02 6.21817634e-03 -1.59138236e-02 1.06841307e-02 -8.42677616e-03 1.73070244e-02 1.52216218e-02 4.59318794e-03 7.48082437e-03 2.03121677e-02 1.65164433e-02 8.19556415e-03 8.62644799e-03 1.89906992e-02 -9.97296907e-03 -5.48020331e-03 1.81611646e-02 -1.65853836e-02 -2.26069111e-02 1.36693921e-02 -2.23752894e-02 1.76379308e-02 -2.16066763e-02 7.73435412e-03 -1.54527677e-02 1.96432578e-03 2.03280300e-02 -1.41597334e-02 2.27856953e-02 3.02229635e-03 9.11270082e-03 1.39220320e-02 -1.24800140e-02 -7.63268536e-03 2.70536244e-02 -4.72993497e-03 1.95145719e-02 5.89020131e-03 -1.04264468e-02 -5.39423316e-04 1.52288321e-02 2.99698091e-03 1.86409336e-02 -4.30086773e-04 1.29137272e-02 2.63834978e-03 2.54634414e-02 3.74860386e-03 8.16458836e-03 9.67949722e-03 -1.61347017e-02 1.07647227e-02 3.68052832e-04 3.49117420e-03 5.94155025e-03 3.63923749e-03 -1.30362101e-02 -9.95096285e-03 1.21145574e-02 1.44110844e-02 1.19912690e-02 2.10308861e-02 -2.17085816e-02 -1.13841621e-02 -2.60213893e-02 2.17255335e-02 -1.09561346e-02 -1.21003119e-02 1.71164386e-02 8.04500934e-03 9.45127662e-03 -6.93503162e-03 -6.52860384e-03 -1.96127268e-03 -1.49369594e-02 -1.43267475e-02 1.59349514e-03 -1.93552412e-02 8.71374458e-03 -1.42371678e-03 1.89654399e-02 4.56495769e-03 1.51383607e-02 -1.57754384e-02 -7.47089880e-03 4.82356548e-03 -2.10362859e-02 2.78330632e-02 -2.57390607e-02 9.22462624e-03 8.85283947e-03 2.43276052e-04 2.16198768e-02 -4.48873360e-03 1.36698950e-02 5.91884076e-04 -6.90599298e-03 -1.25972899e-02 -2.40113324e-04 -1.77085400e-02 -1.79476831e-02 -2.72681247e-02 -7.77934073e-03 -2.46704742e-02 2.69024391e-02 6.39371201e-03 -1.53118279e-02 2.33281795e-02 -2.47606300e-02 5.46385534e-03 4.63899318e-03 7.48601789e-03 -2.52466300e-03 4.61340137e-03 -1.32387131e-02 2.47683953e-02 2.09474973e-02 2.08517630e-02 1.17641762e-02 -2.64609065e-02 1.82531439e-02 -2.60536224e-02 -1.16712665e-02 6.22696429e-03 1.83078870e-02 2.40623336e-02 1.14482893e-02 -1.28743369e-02 -1.43248765e-02 -1.07798968e-02 2.09422614e-02 1.63249671e-02 2.01864094e-02 -1.75301395e-02 1.31470310e-02 1.01441136e-02 1.17348451e-02 -2.03274060e-02 5.64353634e-03 2.41814926e-02 -2.71882378e-02 2.32744366e-02 -1.24408081e-02 -1.13618392e-02 2.19765510e-02 -1.72925778e-02 -1.35563370e-02
-3.54820234e-03 -1.13292970e-02 7.25689530e-03 -1.68670807e-02 -1.02898348e-02 6.70114160e-03 1.29843615e-02 -1.75385289e-02 1.23684644e-03 -1.64472626e-03 2.59316899e-03 -3.90502205e-03 1.47950684e-03 1.39588732e-02 -9.02483705e-03 6.49741245e-03 -7.92815723e-03 -8.07539374e-03 -7.56195514e-03 -3.17013799e-03 -3.63043626e-03 -5.89922210e-03 -6.40183408e-03 5.80503279e-03 -8.19596648e-03 4.07095253e-03 -1.21252630e-02 1.18166599e-02 1.19350953e-02 1.13562318e-02 -2.76420009e-03 -2.33583478e-03 -3.56151164e-03 1.65775209e-03 -7.36430893e-03 5.18076727e-03 6.86773006e-03 1.53230829e-02 1.60128009e-02 -1.41820479e-02 -2.26864405e-03 -1.76132401e-03 1.55547983e-03 9.62272100e-03 3.65588441e-03 1.01134432e-02 2.67121103e-03 -8.36028345e-03 3.75821441e-03 -1.66047190e-03 -8.92889779e-03 -2.97459099e-03 8.89671873e-03 -1.29317343e-02 1.23750726e-02 6.33606454e-03 7.03039672e-03 -1.56391170e-02 1.24201672e-02 2.43092026e-03 8.31429288e-03 -9.16009396e-03 -5.13122743e-03 -1.75961573e-03 7.58522190e-03 9.07252426e-04 4.88802046e-03 1.02464585e-02 1.20851481e-02 6.02268847e-03 -4.52195294e-03 1.08934818e-02 9.83031001e-03 -4.04100493e-03 3.84814036e-03 3.75716877e-03 -5.87915711e-04 2.42896774e-03 9.73201822e-03 8.28804541e-03 3.95272067e-03 -1.22300908e-02 -1.45416353e-02 5.13728149e-03 -8.89011368e-04 -8.79759062e-03 -1.24326535e-02 7.88781419e-03 7.22455466e-03 -1.14006074e-02 8.86133872e-03 -6.01285743e-03 7.93483108e-03 2.99773272e-03 2.58753123e-03 -4.96143301e-04 1.60685484e-03 5.18309744e-03 1.36547200e-02 5.77869825e-03 7.32731889e-04 -1.34912820e-03 1.21356780e-02 -4.67636768e-04 -7.62366457e-03 -8.62968992e-03 1.49494512e-02 2.34044576e-03 -4.42058640e-03 8.17051064e-03 1.02067750e-03 9.03048902e-04 3.66576319e-03 -6.33685268e-04 1.09443637e-02 2.68333312e-03 1.01836259e-02 1.47440899e-02 9.88769680e-05 5.43631567e-03 8.57423898e-03 -2.05007754e-03 2.20355461e-03 -1.19604925e-02 2.19797227e-03 5.36782062e-03 -1.15729077e-02 -4.65129828e-03 9.25179850e-03 4.86685801e-03 9.02168453e-03 4.95803216e-03 -2.31219782e-03 -4.06382460e-05 6.03421498e-03 -5.15171466e-03 2.29614927e-03 1.47366300e-02 7.32230116e-03 1.42609875e-03 5.40360715e-03 2.72951950e-03 -1.03708054e-03 6.24690345e-03 -7.16465060e-03 3.77133302e-03 2.93264864e-03 -4.94554127e-03 -9.10927448e-03 -8.84160108e-04 1.25280683e-04 -7.80273369e-03 -5.78580517e-03 9.58892750e-04 4.27293032e-03 -3.61387921e-03 1.01309856e-02 -6.13978552e-03 1.46736866e-02 -7.99796358e-03 4.56116488e-03 4.96926671e-03 1.34451259e-02 -8.08861945e-03 1.11687125e-03 7.83018861e-03 -9.20737162e-03 1.38759790e-02 1.37816323e-02 -2.00842833e-03 1.56618115e-02 -1.05738239e-02 -2.92763673e-03 4.17767465e-03 1.14814853e-02 -8.79629236e-03 9.37560387e-03 1.25650810e-02 8.51692911e-03 6.08030707e-04 5.95062040e-03 1.01163434e-02 -7.21168704e-03 -4.07499168e-03 -2.46975804e-03 -7.14457734e-03 -9.36305057e-03 1.16072940e-02 1.22310184e-02 -7.50781270e-03 5.32344449e-03 -7.82515679e-04 -1.29389300e-04 -6.00842712e-03 5.81134902e-03 -3.54191591e-03 3.89899570e-03 -1.18390787e-02 -4.47300915e-03 -5.69374859e-03 6.28147088e-03 2.94903922e-03 -1.04559315e-02 1.19766705e-02 6.03726832e-04 2.84780137e-04 -1.25611369e-02 -6.00506784e-04 -1.39967492e-02 -8.96170735e-03 -1.42387738e-02 -2.18179426e-03 -1.07586309e-02 1.31468065e-02 1.41843641e-02 6.46954030e-03 -3.07268277e-03 -7.77305989e-03 7.50001520e-03 -9.99576040e-03 -9.10992175e-03 2.42876029e-03 2.23856838e-03 3.72722652e-03 7.72433681e-03 4.23249742e-03 6.93476619e-03 9.76150949e-03 1.59990462e-03 6.97558885e-03 -8.90584197e-03 -4.74378187e-03 1.20682996e-02 6.25049090e-03 1.15184225e-02 8.67050234e-03 -1.01137040e-02 -1.36236949e-02 -1.82933919e-02 2.99260323e-03 -1.68237614e-03 1.15929078e-02 -8.85917689e-04 -1.00210719e-02 3.11374129e-03 4.26226575e-03 -8.67961347e-03 7.02395290e-03 -3.60489171e-03 6.51544309e-04 -6.79442799e-03 5.16524864e-03 -1.04684969e-02 -1.24740368e-03 -1.60359498e-02 -1.12528922e-02
-7.61034107e-03 -2.36406513e-02 1.61595643e-02 -2.07312498e-02 -2.60823984e-02 1.87141038e-02 2.11947281e-02 -9.28947516e-03 -1.22694289e-02 -2.47582253e-02 2.53995005e-02 2.44628899e-02 -1.22771813e-02 8.09541624e-03 -3.01195984e-03 -1.14871496e-02 -3.07524833e-03 -3.80076910e-03 -1.17445486e-02 -5.10781398e-03 9.24526900e-03 8.24497826e-03 -6.69906940e-03 2.09445646e-03 1.85239371e-02 6.18631393e-03 -1.94101166e-02 2.52616983e-02 5.22810081e-03 -4.57103364e-03 -1.62441302e-02 2.14016624e-02 -6.26985962e-03 -2.19064858e-02 -3.76387406e-03 -1.19515695e-02 -8.64654686e-03 7.50553375e-03 8.89676716e-03 -2.62655597e-02 1.46435937e-02 2.03768723e-02 -7.90139567e-03 -4.74981172e-03 1.41697396e-02 7.02113705e-03 2.56822128e-02 2.00754572e-02 5.24302153e-03 -3.36986268e-04 -2.29911841e-02 -1.70973390e-02 -1.50798531e-02 -8.99900403e-03 1.75231006e-02 1.65291596e-02 2.07034480e-02 -7.58169312e-03 1.72993205e-02 2.26706192e-02 2.44025290e-02 -2.29958277e-02 -7.03689223e-03 1.08060166e-02 -2.81815534e-03 5.50219417e-03 1.56955346e-02 1.67415831e-02 2.03511305e-02 -9.78094246e-03 -9.72930063e-03 1.10860623e-03 -1.16183236e-02 -1.73495524e-02 -5.68905100e-03 -9.84962843e-03 1.78483576e-02 2.52089743e-02 9.68553778e-03 9.53862630e-03 1.57977119e-02 -1.54623939e-02 -2.38062423e-02 -1.85590226e-03 -1.23064965e-02 -4.20056656e-03 -2.15853453e-02 -7.81169801e-04 -3.01321084e-03 -7.09309615e-03 1.22068655e-02 -1.73517242e-02 -8.61749612e-03 -1.80931166e-02 -1.05463564e-02 1.43932253e-02 -1.32102855e-02 8.07465706e-03 1.86406858e-02 3.12673207e-03 1.34587614e-02 8.98138527e-03 6.33508107e-03 -9.37591773e-03 1.12320045e-02 2.06439570e-02 5.43654989e-03 1.87378619e-02 -2.17529349e-02 6.71512401e-03 2.29538977e-02 -2.06233244e-02 4.19705547e-03 -1.34692146e-02 1.76157355e-02 6.77054934e-03 1.47901513e-02 1.49710691e-02 9.59673338e-03 1.96731929e-02 5.14012342e-03 2.48910766e-02 1.54183283e-02 -1.16043091e-02 -6.72876369e-03 8.05096887e-03 -1.52020259e-02 -1.94522850e-02 8.15387163e-03 -1.89552475e-02 1.57537311e-02 -1.54210115e-02 1.88448932e-02 -1.55057088e-02 7.12240674e-03 9.20185447e-03 -6.63806917e-03 1.06034940e-02 3.63661884e-03 1.00527387e-02 1.91659275e-02 -1.89404227e-02 -1.50667382e-02 1.70304235e-02 -1.87426973e-02 9.15932003e-03 2.23798342e-02 -5.46172168e-03 1.56731158e-02 3.10842739e-03 8.83217715e-03 1.22665791e-02 -5.28904190e-03 2.03059893e-02 4.76875156e-03 2.18255613e-02 1.92619096e-02 1.18071958e-02 1.67889036e-02 -6.54726848e-03 1.11124991e-03 2.23983638e-02 7.65256723e-03 1.25313504e-02 1.97029188e-02 -1.05832787e-02 -1.14437733e-02 1.09430766e-04 3.73319490e-03 7.61799188e-03 1.16519602e-02 -2.63122376e-02 -2.52370629e-02 -1.78519730e-02 1.38811814e-02 -2.04653684e-02 -1.40982941e-02 1.24813886e-02 1.39206955e-02 5.91639802e-03 -2.05193087e-02 -8.13074596e-03 1.06803477e-02 -1.69016584e-03 -1.83436442e-02 1.22019947e-02 -6.27605757e-03 4.61357040e-03 -1.05800629e-02 1.34685254e-02 1.32004302e-02 7.70723494e-03 -5.84529806e-03 -4.84224362e-03 7.51236221e-03 -1.07548172e-02 2.09396780e-02 -4.18865774e-03 1.42260790e-02 2.65447143e-02 -1.25964442e-02 1.42002553e-02 -2.17599818e-03 1.99585296e-02 1.93776302e-02 -2.09170002e-02 -1.20014502e-02 -1.45961531e-03 -1.06408680e-02 -2.41282377e-02 -1.74915157e-02 -1.72015149e-02 -1.72176585e-02 1.62341893e-02 1.57572646e-02 -2.30132900e-02 9.76448879e-03 -1.87554732e-02 2.52493601e-02 1.19857443e-02 1.56644043e-02 3.78283719e-03 5.72065078e-03 -5.54874213e-03 2.17928924e-02 2.51032822e-02 1.29393041e-02 2.44572666e-03 -1.22981016e-02 3.55650065e-03 -2.46555707e-03 -2.23805439e-02 1.89516712e-02 8.17727391e-03 1.83993950e-02 1.93621777e-02 -2.37431768e-02 -1.93413123e-02 -1.83409974e-02 -2.15750901e-04 2.11991221e-02 2.27094218e-02 -1.32202208e-02 4.89577930e-03 1.15603311e-02 2.43887380e-02 -7.99954403e-03 9.84701421e-03 1.94614418e-02 -2.13388670e-02 2.32332032e-02 -8.90534371e-03 -1.73772834e-02 1.37648825e-02 -2.20613629e-02 -1.30681852e-02
-9.79041401e-03 -8.93862452e-03 1.65282805e-02 -2.45901085e-02 -2.19374243e-02 1.34136295e-02 2.09323093e-02 -2.52293218e-02 -1.06529472e-02 -1.92895031e-03 -1.20213209e-03 1.95179302e-02 -1.64096076e-02 1.78748127e-02 -2.03573587e-03 -5.57994936e-04 1.54735346e-03 2.52224389e-03 -1.24719478e-02 -7.75406661e-04 1.97859257e-02 1.02591477e-02 1.54846476e-03 -1.64814782e-03 1.92037951e-02 1.81836057e-02 -1.87891237e-02 1.63121503e-02 1.29069237e-03 -4.48694278e-04 -3.27209476e-03 1.68566294e-02 -7.77214905e-03 -3.39549477e-03 -9.29449964e-03 -2.14711726e-02 -1.62786543e-02 1.27517832e-02 2.02131625e-02 -2.14346722e-02 2.39297263e-02 1.74053106e-02 -1.93157196e-02 -1.89782283e-03 6.26394292e-03 9.95163247e-03 2.99153570e-03 1.32136485e-02 1.79584790e-02 -1.47831306e-04 -4.44875052e-03 -1.51683278e-02 -9.28956550e-03 -5.26331365e-03 4.56972513e-03 1.79625233e-03 5.91569021e-03 -1.30424332e-02 2.21743323e-02 2.47214194e-02 7.09791342e-03 -1.90187041e-02 -4.08078684e-03 1.16357598e-02 -1.57985687e-02 5.74035663e-03 -1.32872327e-03 -3.72365932e-03 -2.47235148e-04 -9.63695999e-03 -1.36976019e-02 1.22227590e-03 -9.06565320e-03 3.74148367e-04 -9.03242640e-03 8.13772145e-04 7.17721181e-04 8.59008171e-03 1.88548360e-02 7.82154908e-04 1.02154436e-02 -2.16659624e-02 -1.62720997e-02 -1.97417550e-02 -1.26874419e-02 -5.47398068e-03 1.64859055e-03 -6.39322354e-03 -1.74328834e-02 -2.57013589e-02 1.26010133e-02 -1.61334835e-02 2.13513663e-03 -2.77097151e-03 1.45597279e-03 1.22748418e-02 -9.84533690e-03 -7.73342792e-04 1.44666596e-03 -6.76880358e-04 1.74938794e-02 -1.92503748e-03 2.01151241e-02 -4.46441770e-03 1.35283191e-02 1.38987936e-02 2.12443881e-02 4.81157377e-03 -8.39779899e-03 1.62725821e-02 1.89947318e-02 2.03784695e-03 1.10020172e-02 -1.75584145e-02 8.29454884e-03 2.09231097e-02 1.89946275e-02 -1.85012538e-03 2.02638675e-02 1.18107889e-02 6.99772919e-03 1.14146480e-02 5.24794776e-03 -1.71107315e-02 -6.16346532e-03 6.30033144e-04 -1.67928971e-02 -9.23097786e-03 5.55584393e-03 -1.16167534e-02 9.24693514e-03 -2.19162330e-02 1.08238636e-02 -2.30621304e-02 1.62869301e-02 2.38010194e-02 -1.03743402e-02 1.08590163e-02 4.93544852e-03 2.03049388e-02 1.03431381e-02 -1.52064161e-02 -1.40471393e-02 1.00556724e-02 -1.49961002e-02 1.03546111e-02 1.16936080e-02 -4.69197426e-03 1.19663086e-02 1.67852044e-02 1.62278507e-02 6.88166451e-03 -3.89117142e-03 2.00737324e-02 1.58355627e-02 1.00340191e-02 7.34728808e-03 5.84053481e-03 1.94873959e-02 -3.02278320e-03 3.05146072e-03 9.41148680e-03 8.29667598e-03 3.92575283e-03 7.69477803e-03 2.84531736e-03 -3.15348292e-03 1.21504683e-02 1.42592620e-02 2.04376299e-02 2.17056461e-02 -1.49448048e-02 -1.88266896e-02 -1.51019124e-02 -1.47297556e-04 -1.56623609e-02 -1.37941157e-02 -1.95935136e-03 3.16329394e-03 1.21565647e-02 3.00940638e-03 -6.59755571e-03 4.46764380e-03 -6.04582194e-04 -1.39954535e-03 5.66728122e-04 -8.57010111e-03 9.80150793e-03 7.71912048e-03 3.87570728e-03 1.05859367e-02 1.24661662e-02 -2.44568475e-02 -2.04997119e-02 8.79825465e-03 -4.59434418e-03 2.20093261e-02 -2.10900437e-02 9.55073908e-03 1.12721575e-02 -1.54230725e-02 1.93285570e-02 -3.95304710e-03 1.23276496e-02 -1.54113991e-03 -6.07111864e-03 -1.85920838e-02 -9.89687536e-03 -9.57118999e-03 -1.30136432e-02 -1.74321346e-02 -1.80465002e-02 -1.59115624e-02 6.72303652e-03 2.35228539e-02 -1.70825999e-02 1.25571841e-03 -1.06878588e-02 9.21604875e-03 9.05384123e-03 4.82047908e-03 1.04023507e-02 1.21651972e-02 -1.54842027e-02 1.55937811e-02 8.07489920e-03 1.69316418e-02 2.45845551e-03 -6.74357638e-03 1.99595140e-03 -5.82687184e-03 -1.27325219e-03 4.65904875e-03 1.43870777e-02 7.63793505e-05 1.10243103e-02 -2.50744075e-03 -7.73675158e-04 -1.00824963e-02 1.97458938e-02 5.94818918e-03 1.25328349e-02 -1.85026489e-02 8.88790749e-03 4.63264389e-03 1.14130219e-02 4.06747591e-03 -5.29811543e-04 1.87702440e-02 -1.46839386e-02 1.88009329e-02 -7.24422804e-04 -6.38765283e-03 1.33309308e-02 -2.52987854e-02 -1.85659342e-02
-2.45521739e-02 -2.10276432e-02 2.25882661e-02 -1.03257401e-02 -8.63377098e-03 7.38544622e-03 1.28814559e-02 -2.04355586e-02 -2.01325919e-02 -1.20601067e-02 1.45620704e-02 1.06633045e-02 -1.28534017e-02 7.55590573e-03 -1.98331270e-02 -1.51831135e-02 -1.23226987e-02 1.58969983e-02 -1.66199971e-02 4.81860805e-03 8.06389842e-03 8.75569135e-03 3.61807528e-03 -4.65450296e-03 6.07250584e-03 2.04437766e-02 -1.26072140e-02 1.59789603e-02 6.38835540e-04 -3.26370425e-03 -9.49685089e-03 1.61814336e-02 -1.59587078e-02 -4.16443311e-03 -1.94867160e-02 -9.57561564e-03 -1.20898876e-02 2.45925337e-02 1.94047727e-02 -2.37895437e-02 2.95215356e-03 1.98557824e-02 -6.71984162e-03 -7.95729645e-03 6.80485694e-03 2.38476917e-02 8.37710593e-03 1.15622897e-02 1.39949890e-02 4.52548685e-03 3.63582792e-03 -9.66893137e-03 -1.64551996e-02 3.47124529e-04 -5.74826309e-03 3.92782921e-03 3.18067819e-02 -2.05696039e-02 2.63531748e-02 9.94929392e-03 1.60733201e-02 -2.11971160e-02 -2.53176298e-02 2.06781924e-02 -4.14396543e-03 6.44176593e-03 1.16270967e-03 -1.00114346e-02 1.03285629e-02 -1.64539218e-02 -6.23914413e-03 -7.15212058e-03 -2.19264142e-02 -9.97281913e-03 -2.33139116e-02 -1.59957353e-02 8.80905427e-03 8.89589451e-03 1.85395237e-02 1.34474114e-02 1.55204628e-02 -1.80974100e-02 -2.05990430e-02 -1.32165067e-02 -1.94629596e-03 -4.02446045e-03 -4.68823314e-03 -1.79410502e-02 -2.26173531e-02 -9.50318109e-03 7.71634188e-03 -1.47921313e-02 -1.09642521e-02 -1.30953658e-02 -4.43015527e-03 2.55637593e-03 -1.28671033e-02 2.29811929e-02 8.85701738e-03 5.83535433e-03 -2.76072358e-04 2.22710278e-02 2.09590793e-03 -9.16647259e-03 1.98244583e-02 1.28663832e-03 1.64175744e-03 8.83042254e-03 -1.42466258e-02 2.11891644e-02 2.12659799e-02 -2.50075199e-02 1.13866189e-02 -8.14832840e-03 3.81716876e-03 4.44829417e-03 1.29620098e-02 1.00789452e-02 1.98181309e-02 2.26367898e-02 1.83175113e-02 2.00203639e-02 1.80648994e-02 -1.68158710e-02 -9.41628963e-03 2.02573128e-02 -2.15575919e-02 -1.70109477e-02 8.63220450e-03 -2.50791851e-02 1.23051852e-02 -1.65283456e-02 8.05953052e-03 -8.07902589e-03 5.76833868e-03 2.32752375e-02 -1.67476498e-02 2.38518547e-02 2.60487515e-02 2.54955832e-02 8.14406388e-03 -6.95469696e-03 -2.24468503e-02 2.36366726e-02 -8.43119528e-03 1.73513517e-02 7.42035965e-03 -6.65985141e-03 1.06094722e-02 2.61727767e-03 5.08182170e-03 1.26239816e-02 -1.77524053e-03 1.22128073e-02 1.10232951e-02 2.45494209e-02 1.63518544e-02 2.07325704e-02 -3.59387312e-04 -1.09976567e-02 1.54492371e-02 -2.36389833e-03 1.48201128e-02 -8.73472169e-03 5.29536512e-03 -4.44163103e-03 1.06915308e-03 1.20237898e-02 1.04198754e-02 5.32195903e-03 2.62770634e-02 -1.37644336e-02 -1.93443615e-02 -7.37386756e-03 6.72206376e-03 -4.53217560e-03 -1.45730618e-02 1.62405130e-02 9.13877785e-03 -1.01511413e-03 -7.33034266e-03 -1.33283716e-02 1.52326766e-02 -1.22792358e-02 -5.42605389e-03 3.39260302e-03 -1.69777945e-02 1.03225159e-02 1.53587188e-03 1.69892628e-02 -2.09157914e-03 1.66225228e-02 -1.96663737e-02 -8.30190443e-03 6.52904343e-03 -5.22958394e-03 7.43371015e-03 -9.08428058e-03 1.72770042e-02 9.72985104e-03 -5.51731000e-03 1.59119982e-02 -1.03167947e-02 1.02054402e-02 1.79929584e-02 -4.34261560e-03 4.25799843e-03 -1.21964011e-02 -2.04624329e-02 -1.03377774e-02 -2.02569179e-02 -9.31062456e-03 -1.08383698e-02 1.90267339e-02 5.53928362e-03 -1.04752164e-02 2.32063551e-02 -2.28430573e-02 2.14497093e-02 9.04684328e-03 2.06389967e-02 5.06829191e-03 2.23746132e-02 -6.21325709e-03 9.44015384e-03 6.18474185e-03 1.11469077e-02 1.97061896e-02 -7.94760068e-04 8.52914341e-03 -9.49275773e-03 -1.58589575e-02 3.22223757e-03 2.48599164e-02 5.81269665e-03 3.90383997e-03 -1.44758949e-03 -3.31203314e-03 -1.53528452e-02 2.62631215e-02 1.21479649e-02 1.84462275e-02 -2.13703769e-03 1.31676281e-02 -2.74503254e-03 5.64689795e-03 -1.28976200e-02 6.56531146e-03 6.25934964e-03 -5.71917417e-03 2.90594418e-02 -1.76511109e-02 -4.99775354e-03 1.13724004e-02 -9.02148057e-03 -2.12548114e-02
-1.24941152e-02 -9.77433752e-03 -4.79761558e-03 -4.42262134e-03 2.33666319e-03 4.82048141e-03 6.62181806e-03 -1.04276817e-02 4.69651120e-03 1.10411439e-02 2.76578753e-03 7.69692613e-03 2.88439705e-03 -4.79350938e-03 -1.07218011e-03 5.42778755e-03 -7.97428656e-03 -8.67516641e-03 -7.43021083e-04 -8.53315741e-03 -2.26772693e-03 -5.68050472e-03 -9.53742769e-04 -3.58241354e-03 1.15743820e-02 -9.43277776e-03 -4.97868750e-03 -9.64023639e-03 8.65376368e-03 8.87670089e-03 -1.01060709e-02 -1.66262489e-05 3.72446142e-03 -4.37100651e-03 -9.51778144e-03 6.08413480e-03 -2.50401278e-03 -7.30118342e-03 2.08574813e-03 2.39350460e-03 8.62120476e-04 -4.25491668e-03 3.32267000e-03 -8.99583567e-03 -5.26889926e-03 -6.01655664e-03 6.82258466e-03 -1.14860218e-02 6.36991626e-03 1.23347435e-02 -2.90289568e-03 -1.80193537e-03 -2.85043288e-03 2.81190360e-03 2.92334729e-03 2.95021851e-03 7.74283148e-03 4.69002081e-03 1.51068410e-02 -3.57489893e-03 1.06437923e-02 -1.32197374e-02 -1.10678533e-02 8.91469046e-03 7.67100649e-03 -2.50534550e-03 5.51171182e-03 8.20441078e-03 1.35120377e-02 5.05188387e-03 -1.48133328e-02 -1.22511704e-02 -1.04223536e-02 -6.87990105e-03 8.63475725e-03 -8.23569298e-03 -4.64171171e-03 1.15625253e-02 4.67456365e-03 -6.30166708e-03 7.27973739e-03 -1.40559962e-02 6.24769414e-03 -1.03805249e-03 -8.80724657e-03 8.63170344e-03 -6.20448682e-03 -1.33406185e-03 -6.07674243e-03 -6.66429987e-03 1.78659533e-03 -3.63174011e-03 5.38504403e-03 -9.31786373e-03 6.43865857e-03 -3.21239000e-03 -7.74928078e-04 5.08003309e-03 1.24579333e-02 5.61318407e-03 -4.26332030e-04 1.05534121e-02 9.60543565e-03 -2.70240917e-03 4.04046103e-03 -2.55276496e-03 -7.89381657e-03 6.39198581e-03 6.37843972e-03 2.23755650e-03 2.57843197e-03 -1.14624789e-02 -6.61694491e-03 -5.82111534e-03 -7.12738652e-03 -2.21520616e-03 2.03516358e-03 9.68285557e-03 6.60881028e-03 -9.82020050e-03 -8.75468552e-03 7.33327027e-03 1.54321129e-03 5.89125277e-03 1.18710846e-02 5.00296336e-03 4.45248513e-03 -7.83047581e-04 -9.18715913e-03 -1.20720053e-02 -6.17032684e-03 5.22211893e-03 -9.54775978e-03 7.67143676e-03 -4.75011580e-03 9.97402612e-03 8.50290433e-03 1.16158649e-02 -3.95496888e-03 -9.07676015e-03 -1.24637969e-03 1.55441661e-03 1.03750052e-02 5.41713787e-04 1.07784467e-02 2.99685565e-03 -1.39842173e-02 -3.53549863e-03 -3.30698589e-04 8.96733312e-04 2.63620564e-03 -9.95595846e-03 9.79205314e-03 1.21488040e-02 -5.17772185e-03 1.25447838e-02 -3.38300481e-03 -7.68466666e-03 -8.48526615e-05 6.36832276e-03 8.61153565e-03 4.21992969e-04 7.21984636e-03 -1.90411301e-04 1.27161329e-03 9.37416870e-03 -5.39295003e-03 -7.59004708e-03 1.12100062e-03 3.13658908e-04 1.28401518e-02 -7.26952916e-03 1.13713648e-03 6.69966778e-03 -1.36452774e-03 -8.23207851e-03 -9.57890134e-03 -1.13277156e-02 5.81704453e-03 -6.18084520e-03 3.21354554e-03 1.07848132e-02 -2.18165759e-03 5.41332038e-03 5.92636270e-03 -8.33105296e-04 -4.97338641e-03 -5.52349165e-03 -7.91463908e-03 -1.38034916e-03 -4.09197481e-03 4.17192263e-04 -5.26571972e-03 1.10603403e-02 -4.70102672e-03 9.14407428e-03 1.39166717e-03 2.16106488e-03 -8.90430063e-03 7.13435141e-03 -1.18502555e-02 -9.50722769e-03 4.99533582e-03 -1.05136621e-03 4.49317787e-03 -1.95243990e-03 8.94225575e-03 1.05457371e-02 -1.23556368e-02 4.67974180e-03 -2.53128307e-03 -8.16457625e-03 -1.00246342e-02 -7.41063431e-03 -7.15419883e-03 -8.17739498e-03 1.16654504e-02 -6.80508371e-03 8.64029583e-03 -8.33017635e-04 2.28056638e-03 -4.77710506e-03 3.03546991e-03 -5.98250935e-03 -9.85600054e-03 1.44058438e-02 -1.08948406e-02 -6.51047425e-03 -1.09685902e-02 -6.21193927e-03 -5.06885955e-03 -1.07070813e-02 -1.22282049e-03 1.12400223e-02 1.17430231e-03 -7.08226673e-03 -2.81160552e-04 -5.72005380e-03 2.27809092e-03 9.37559269e-03 8.28404538e-03 -1.20253954e-02 7.45906448e-03 9.53645632e-03 -2.21347134e-03 3.51043302e-04 -2.70070066e-03 -8.18981137e-03 9.22869425e-04 -1.07956934e-03 -8.87053274e-03 -1.01211760e-02 -3.69409472e-03 -1.01622334e-03 -1.25083597e-02 9.20808595e-03
-1.97206270e-02 -2.68264972e-02 1.36106983e-02 -2.96769720e-02 -2.34659314e-02 1.12808514e-02 1.05337882e-02 -1.21956011e-02 -2.24316642e-02 -2.16800850e-02 1.21895149e-02 2.96238549e-02 1.70080957e-03 1.63573883e-02 -4.31092037e-03 -5.15002292e-03 -2.31503672e-03 5.87716885e-03 -2.11990476e-02 2.83540785e-03 8.13900214e-03 2.91764899e-03 -1.48663074e-02 7.25096697e-03 2.48348825e-02 1.03810448e-02 -5.68075571e-03 1.06143709e-02 1.66788623e-02 -6.49484061e-03 -2.62491554e-02 1.98245309e-02 -2.24720929e-02 -1.66595224e-02 -1.85874104e-02 -1.44154159e-02 -8.09830986e-03 2.09311601e-02 1.78919267e-02 -2.44297162e-02 2.51879152e-02 2.35662945e-02 -2.06859130e-02 -3.11089476e-04 7.16262497e-03 1.45161012e-02 2.55808868e-02 1.93861369e-02 9.82408505e-03 -1.12408353e-03 -8.11485294e-03 -1.33390119e-02 -2.09583044e-02 -1.88423041e-02 1.30524924e-02 4.20797197e-03 2.39865389e-02 -3.05722151e-02 1.02466140e-02 2.70561632e-02 1.15191750e-02 -1.71827767e-02 -2.14225724e-02 2.78920401e-02 -6.26807706e-03 1.15255145e-02 9.09309310e-04 1.20414747e-02 2.70005614e-02 -1.95890572e-02 -2.04955880e-02 1.12748882e-02 -1.71577819e-02 -1.93551388e-02 -7.04604620e-03 -1.04042459e-02 1.18962750e-02 2.63916869e-02 2.37430111e-02 1.88765954e-02 1.88647751e-02 -1.54991774e-02 -1.27289239e-02 -2.19693966e-02 -1.69403125e-02 9.04636271e-03 -1.09568043e-02 -1.33356825e-02 -2.75068171e-02 -2.03526020e-02 1.75078232e-02 -1.79228652e-02 -1.59048773e-02 -1.41482959e-02 -8.10767990e-03 8.73869471e-03 -1.86863784e-02 1.10312095e-02 1.91513188e-02 1.50876585e-02 9.81413014e-03 1.35739781e-02 1.98688507e-02 -6.20132079e-03 2.61404868e-02 1.56118842e-02 1.80909096e-03 2.26003099e-02 -1.26724178e-02 1.40226511e-02 1.83042493e-02 -9.74616967e-03 1.86942089e-02 -1.86793022e-02 8.26102402e-03 1.37705691e-02 1.54435113e-02 2.15217397e-02 6.17085956e-03 7.21308123e-03 1.93266235e-02 1.14031397e-02 1.36001501e-02 -2.22419798e-02 -1.64425317e-02 2.11885627e-02 -7.04127457e-03 -8.65710899e-03 1.96780004e-02 -8.29248689e-03 3.34930955e-03 -5.21905161e-03 1.92220919e-02 -5.60218282e-03 1.13493372e-02 9.68249422e-03 -8.32965132e-03 1.00103347e-02 5.81838097e-03 1.88672002e-02 1.97861716e-02 -6.11298485e-03 -5.50882285e-03 1.10978661e-02 -2.08359933e-03 1.78754535e-02 -1.20192068e-03 -2.89218710e-03 1.76607929e-02 1.69672854e-02 8.52518901e-03 -2.70865415e-03 -6.12374488e-03 1.08725540e-02 -1.52308517e-03 2.83491947e-02 1.86074935e-02 2.04563774e-02 1.10677658e-02 -1.59687530e-02 2.62349546e-02 1.20404763e-02 1.74936540e-02 1.42122256e-02 -2.63530388e-03 -1.31141180e-02 -7.93465786e-03 1.42227840e-02 2.58522574e-02 1.88601241e-02 2.07893215e-02 -1.22538367e-02 -2.21612602e-02 -1.45881465e-02 1.21418834e-02 -1.66676752e-02 -7.14441715e-03 1.32136932e-02 -6.02325518e-03 1.67153422e-02 -1.31365918e-02 -7.48989452e-03 -3.99639318e-03 -1.29832877e-02 -1.54968249e-02 -3.13403248e-03 -1.96405202e-02 1.58525500e-02 -3.30485217e-03 1.07617816e-02 1.50551053e-03 6.31928211e-03 -6.82992442e-03 -2.20246166e-02 1.32031608e-02 -2.65043005e-02 2.37165261e-02 -6.96869381e-03 2.19817273e-02 1.65029000e-02 -9.01660603e-03 3.32383509e-03 -2.10214928e-02 1.80313084e-02 1.52592892e-02 3.16078030e-03 2.10602116e-03 -1.03176609e-02 -8.51872098e-03 -2.22209506e-02 -1.75639242e-02 -2.36114077e-02 -1.35882813e-02 5.11623546e-03 2.12554391e-02 -2.85868235e-02 1.01996008e-02 -1.15359165e-02 3.46777146e-03 8.96365102e-03 2.24751141e-02 1.20421415e-02 2.42651720e-02 -6.07664790e-03 9.23409872e-03 2.81689577e-02 2.06663013e-02 1.42370965e-02 -1.91151490e-03 1.98225416e-02 -5.09346230e-03 -2.31637489e-02 1.18033523e-02 2.43608784e-02 2.41124947e-02 2.24612057e-02 -1.52773550e-02 -1.22897718e-02 -2.03936957e-02 1.68567915e-02 1.95085984e-02 9.40347090e-03 -2.41035018e-02 1.83462445e-02 -1.08632063e-02 3.14037921e-03 -8.82949680e-03 7.28381053e-03 6.71718875e-03 -1.90178044e-02 1.28624011e-02 -1.62174515e-02 -9.81272850e-03 2.06624083e-02 -8.52280855e-03 -9.54443309e-03
-9.44123510e-03 -2.65035443e-02 2.77276170e-02 -6.19562762e-03 -1.00912051e-02 1.98289920e-02 2.01477297e-02 -2.97860652e-02 -3.87519319e-03 -2.64333040e-02 1.04923090e-02 7.47036235e-03 -3.35065462e-03 7.91852828e-03 -2.49344436e-03 -5.46825677e-03 -1.09819742e-02 -2.64110160e-03 -1.76030174e-02 -6.51960028e-03 4.90101799e-03 9.01143346e-03 2.40106438e-03 1.91599242e-02 2.36102622e-02 8.40239786e-03 -1.56747438e-02 1.28585408e-02 2.14482378e-02 -1.83782149e-02 -8.14070459e-03 6.57917652e-03 -1.19321318e-02 -1.69259440e-02 -1.89382937e-02 -2.24565435e-02 -2.89459880e-02 9.42157581e-03 2.54173111e-02 -1.75321028e-02 1.88062284e-02 2.22609341e-02 -2.12081298e-02 -1.06002670e-02 5.96099207e-03 3.57181183e-03 2.27227062e-02 9.48399678e-03 1.85136870e-02 -1.68360546e-02 -2.21383478e-03 -5.34751033e-03 -1.24495765e-02 -9.15814098e-03 6.70877751e-03 1.46694062e-02 2.26138011e-02 -1.03512388e-02 1.66077949e-02 8.94537661e-03 2.72469427e-02 -2.52357908e-02 -2.45142784e-02 1.51015576e-02 -2.17745006e-02 1.32907722e-02 3.67651042e-03 1.67562719e-02 1.79630518e-02 -1.42500196e-02 -1.48027819e-02 1.77321844e-02 -2.27125380e-02 -1.67439394e-02 -3.47884116e-03 -1.62978005e-02 1.39539531e-02 1.85340624e-02 3.45520000e-03 2.31531337e-02 1.43061094e-02 -1.27939903e-03 -8.93403869e-03 -1.53315095e-02 -9.92779527e-03 4.40088194e-03 -1.58049762e-02 -2.03477070e-02 -2.85857599e-02 -1.30820740e-02 1.56894065e-02 -1.96227767e-02 2.37153983e-03 -9.02563427e-03 -1.98991746e-02 6.47176569e-03 -2.36115605e-02 1.97505746e-02 4.77034040e-03 9.71317571e-03 4.89735138e-03 1.70758143e-02 1.40285147e-02 -1.55169340e-02 2.19706651e-02 9.63862427e-03 2.10378096e-02 2.28878558e-02 -1.54162124e-02 1.18594868e-02 3.62622272e-03 -1.97254289e-02 1.50344931e-02 -2.08168179e-02 1.52872019e-02 1.36080058e-02 9.18046851e-03 2.19295770e-02 1.54536841e-02 1.81601401e-02 2.36285869e-02 2.25657802e-02 6.26783166e-03 -2.27156468e-02 -1.16828596e-02 1.50591582e-02 -1.29325539e-02 -8.18503089e-03 6.77189697e-03 -2.58861147e-02 1.38153462e-02 -1.44509692e-02 6.42350968e-03 -7.86686596e-03 7.74247153e-03 2.75026243e-02 -5.11442451e-03 2.34656576e-02 1.56149529e-02 1.08849285e-02 5.22579579e-03 -2.61314213e-02 -2.19746213e-02 7.20554218e-03 -1.06754834e-02 2.03040075e-02 6.51439838e-03 -1.12906191e-02 1.65762622e-02 9.39972699e-03 6.87624095e-03 1.56244570e-02 -1.42233456e-02 9.48107429e-03 1.80207267e-02 1.29491491e-02 6.40766276e-03 2.20355522e-02 1.91836972e-02 -1.10435607e-02 1.41098285e-02 8.63739476e-03 2.17505097e-02 1.38019770e-02 -4.79017245e-03 -2.19826307e-03 -9.87452338e-04 -2.10591825e-03 1.56671070e-02 1.76049452e-02 2.05910821e-02 -2.99277417e-02 -1.80794373e-02 -1.76279098e-02 2.55177822e-02 -1.04856808e-02 -3.35939322e-03 1.00788763e-02 1.41685074e-02 7.34128244e-03 -1.89875402e-02 -1.12825911e-02 1.04363114e-02 -2.07816274e-03 -1.50329415e-02 6.76947879e-03 -2.46617175e-03 1.86997913e-02 -1.23396497e-02 1.44868735e-02 4.30439925e-03 1.15215722e-02 -2.77876500e-02 -3.02031804e-02 1.49360877e-02 -1.57099534e-02 2.88987216e-02 -2.55704354e-02 1.85326692e-02 2.65817642e-02 -1.25841354e-03 1.20240711e-02 -1.83731560e-02 1.25919925e-02 2.59699789e-03 -2.91772216e-04 -6.44438108e-03 -1.22206733e-02 -1.91932879e-02 -1.57909468e-02 -2.83421259e-02 -1.25722913e-02 -2.67205220e-02 2.34083813e-02 2.58677155e-02 -1.75804812e-02 2.62529999e-02 -2.42954195e-02 8.25743377e-03 1.86338294e-02 2.53243539e-02 6.74565323e-03 9.88700986e-03 -1.95727171e-03 2.25640628e-02 1.27073890e-02 9.65978485e-03 2.22181864e-02 -1.71358939e-02 2.16125268e-02 -2.23824736e-02 -1.19671402e-02 1.68775786e-02 8.30917899e-03 1.33308517e-02 1.95273552e-02 -2.60925069e-02 -2.28272635e-03 -2.71635186e-02 8.46497063e-03 5.62828267e-03 1.42831197e-02 -2.61138231e-02 2.05301959e-02 4.02482552e-03 6.71549374e-03 -5.13393106e-03 1.46043701e-02 2.04543099e-02 -1.34423543e-02 2.63044406e-02 -2.49713659e-02 -2.56756358e-02 9.20760073e-03 -1.49072511e-02 -2.22677551e-02
-5.63498726e-03 -1.64408199e-02 1.94340087e-02 -1.37311863e-02 -2.48233080e-02 1.94577705e-02 4.62292461e-03 -2.57720444e-02 -1.97094735e-02 2.66006566e-04 8.55562184e-03 7.61675695e-03 3.67067405e-04 1.28255095e-02 2.14870990e-04 -1.66333336e-02 -1.02602066e-02 8.24979693e-03 -4.18888824e-03 -8.73102620e-03 1.79213360e-02 -5.26167802e-04 5.68978861e-03 5.31477435e-03 1.71213932e-02 6.22147694e-03 -1.23950364e-02 1.09717604e-02 1.11332517e-02 -1.33833252e-02 -3.58555559e-03 -1.77960523e-04 -2.32492248e-03 -1.22379996e-02 -1.52054699e-02 -1.97781865e-02 -1.62210874e-02 1.06453039e-02 8.10718862e-04 -1.16302064e-02 1.89598906e-03 1.74196828e-02 -3.42412409e-03 -1.52637418e-02 9.33336094e-03 1.63099226e-02 1.46283600e-02 1.79695264e-02 8.83591082e-03 1.05997548e-03 -7.86049571e-03 -1.26806218e-02 -1.54596437e-02 3.48505308e-03 -8.43778532e-03 -3.77291045e-03 2.33551785e-02 -2.34995093e-02 1.49799036e-02 6.02778047e-03 8.38041585e-03 -1.25774881e-02 -2.20839102e-02 4.92083794e-03 4.69634263e-03 1.07206265e-02 -7.64389057e-03 -1.18294368e-02 3.28888698e-03 -5.88407042e-03 -2.67270822e-02 1.67746097e-03 -1.20303035e-02 -2.70268274e-03 -1.57071128e-02 1.62432494e-03 1.77817307e-02 5.55153657e-03 1.73897333e-02 1.11338785e-02 1.73406582e-02 -8.87796935e-03 -1.94323938e-02 -1.52378390e-03 -1.92162348e-03 -2.00438825e-03 1.29458783e-02 -1.64226238e-02 -2.98152491e-03 -1.43318092e-02 1.11358250e-02 -8.82600155e-03 2.37457850e-03 -2.82859406e-03 -6.60820631e-03 -2.83587188e-03 -1.50649967e-02 1.35160126e-02 7.72073725e-03 5.18665509e-03 1.76249463e-02 1.20678917e-02 1.59296971e-02 -8.04725569e-03 1.82581376e-02 1.02260495e-02 2.24696193e-02 1.73023064e-02 -1.69948693e-02 6.72937511e-03 4.17442899e-03 -9.89694148e-03 1.23249376e-02 -1.30355880e-02 5.80543000e-03 4.60634381e-03 1.49716502e-02 1.63822584e-02 2.16684677e-03 1.51063688e-02 1.29802804e-02 1.40183736e-02 1.11945253e-02 -4.25849063e-03 -1.00006089e-02 1.60462372e-02 -9.45386384e-03 -1.04132229e-02 1.27112372e-02 -1.67371016e-02 1.91309918e-02 -6.98729709e-04 1.86458975e-02 -2.10217796e-02 3.10800853e-03 2.41185259e-02 -1.57189239e-02 7.62652932e-03 1.56935006e-02 7.89900590e-03 1.24456855e-02 -6.32853294e-03 -2.16162987e-02 8.86846427e-03 -1.35397976e-02 1.29753193e-02 3.86185711e-03 -8.39212537e-03 5.22689102e-03 1.18934084e-02 -7.20394368e-04 3.32631567e-03 -6.87297760e-03 1.09704277e-02 -2.33028579e-04 1.78399459e-02 7.41156191e-03 2.08113750e-04 6.93049608e-03 -1.15990452e-02 -6.84625562e-03 6.23569032e-03 3.35399224e-03 -1.60337519e-02 3.18403472e-03 5.69269480e-03 1.20626809e-03 6.61298120e-03 9.49057937e-03 5.90000491e-05 1.61700714e-02 -1.26643199e-02 -1.78899653e-02 -1.82995312e-02 4.29209555e-03 -1.87339820e-02 2.03949912e-03 1.27552366e-02 -4.72124713e-03 4.92961891e-03 7.52959959e-03 -5.72143868e-03 -1.24538597e-02 4.96804342e-03 7.57025881e-03 -3.40295926e-04 -1.58814304e-02 -7.62011856e-03 -1.33600691e-03 -7.99624808e-03 -1.27730360e-02 -1.08786277e-03 -1.05925119e-02 -2.08387394e-02 1.92209724e-02 -1.71301942e-02 2.78020892e-02 -1.67053919e-02 5.96460747e-03 1.69850383e-02 -3.60434339e-03 1.18138110e-02 -4.85589588e-03 1.94013957e-03 9.97183099e-03 7.28836004e-03 7.20543973e-03 3.60641838e-03 -2.31717713e-02 -5.80612756e-03 -6.33887155e-03 -2.48357318e-02 -1.34510659e-02 6.57830806e-03 7.52549665e-03 -3.59444879e-03 6.95678266e-03 -1.78567637e-02 7.50068342e-03 4.09354316e-03 2.05785502e-03 -5.85292792e-03 1.35715436e-02 -3.90414847e-03 6.84849638e-03 2.01140270e-02 1.57187395e-02 1.42060928e-02 -1.87298395e-02 1.42190540e-02 -9.21402499e-03 -1.80560327e-03 9.39998589e-03 1.84251331e-02 7.01739918e-03 1.77180115e-02 -8.45254213e-03 -1.92748420e-02 -1.52700236e-02 -2.04491778e-03 2.22195568e-03 7.93551747e-03 -7.00918864e-03 1.34951575e-02 6.42992463e-03 7.77637307e-03 8.88789166e-03 3.45121883e-03 1.05080251e-02 -9.09036305e-03 7.21653050e-04 -1.19308373e-02 -6.62216730e-03 1.13201216e-02 -4.69419593e-03 -6.31945115e-03
-9.57428571e-03 2.41314387e-03 1.36405174e-02 -8.41805153e-03 -4.98004863e-03 6.81895297e-03 2.21966766e-03 1.38985622e-03 -1.04033994e-02 -1.48286838e-02 -1.88929751e-03 -1.29058352e-03 1.02923606e-02 -9.20813903e-03 6.26751746e-04 -6.79750461e-03 -8.77059344e-03 1.44968601e-02 4.29368997e-03 -2.90516275e-03 -5.76345762e-03 5.82524249e-03 6.64409576e-03 1.39971310e-02 5.22876950e-03 9.06713679e-03 -3.78105137e-03 1.02554960e-02 1.67958308e-02 -1.21761076e-02 1.58194941e-03 1.50274541e-02 -7.68628111e-03 9.52817907e-04 -8.04277416e-03 -1.71754137e-02 -8.58218595e-03 5.18591283e-03 1.87433418e-02 1.51029660e-03 -2.75411131e-03 1.09492789e-03 -6.23705285e-03 4.67070797e-03 9.99666099e-03 1.81907080e-02 1.22435996e-03 8.22729710e-03 3.23813269e-03 5.87338442e-03 -4.48360248e-03 1.25502693e-02 -5.26752183e-03 -3.35390703e-03 4.25864849e-03 -5.42089436e-03 -3.04721203e-03 -1.61897987e-02 1.13698402e-02 1.34213979e-03 1.40206441e-02 -1.53353000e-02 -2.16140691e-02 8.37395247e-03 1.36929136e-02 -1.10586337e-03 3.60557553e-03 -6.53141923e-03 9.76272300e-03 -1.66192316e-02 2.45169067e-04 -5.88221755e-03 7.88349099e-03 -1.75505795e-03 -5.83086023e-03 -7.62104103e-03 -2.72323890e-03 6.45369571e-03 2.79954076e-03 5.14068361e-03 6.32091239e-03 -3.68896010e-03 3.53529281e-03 -1.70854875e-03 -4.41484246e-03 7.76436320e-03 -5.86053031e-03 5.86148491e-03 -1.81959458e-02 -1.93408076e-02 1.65968644e-03 -1.45244384e-02 -6.02078100e-04 3.99870193e-03 -2.48098583e-03 1.00847166e-02 -1.11901737e-03 7.35826930e-03 6.04565442e-03 6.79556513e-03 -2.08164402e-03 1.00306524e-02 8.93859565e-03 -1.15412213e-02 1.54140843e-02 -3.28889000e-03 2.50481237e-02 1.26414848e-02 5.32967690e-03 5.70513355e-03 8.92389566e-03 6.74435031e-03 2.16215593e-03 9.31898691e-03 7.51222577e-03 -7.34288199e-03 3.10697011e-03 -3.09863390e-04 9.54575930e-03 1.68649647e-02 -4.27230075e-03 -8.28437135e-03 1.54058915e-02 -1.05245747e-02 6.25820598e-03 -3.95898661e-03 -1.32031711e-02 -5.02521452e-03 -2.23664753e-03 -1.31597901e-02 1.62804630e-02 -1.05186291e-02 1.43003259e-02 -9.34943371e-03 9.18678008e-03 -1.73729239e-03 -1.34518025e-02 1.19705056e-03 3.63536179e-03 -3.03837820e-03 4.37614834e-03 -1.77900027e-03 5.94572444e-03 -5.02726901e-03 1.92318216e-03 -7.86132086e-03 -1.22390576e-02 -8.08730908e-03 1.95685308e-03 8.80046468e-03 -4.76063089e-03 5.95403183e-03 2.20776536e-03 2.21074349e-03 -7.00083468e-03 4.39458620e-03 -2.32620188e-03 8.63786601e-03 7.30066234e-03 8.83887708e-03 -1.06968349e-02 5.96767385e-03 -1.08030606e-02 -1.75798610e-02 -9.87206399e-03 1.32946728e-03 -1.32013031e-03 -1.27986623e-02 3.38716269e-03 1.09265540e-02 1.85245462e-02 -1.33626731e-02 9.83619248e-04 -1.09117003e-02 2.11743405e-03 -1.50416242e-02 1.23264443e-03 -6.49721071e-04 -4.02185274e-03 -9.56270099e-03 1.89483259e-03 -6.96694665e-03 -6.55125408e-03 4.60023712e-03 -7.06521422e-03 -8.83412641e-03 3.94446170e-03 1.05919410e-02 -3.50655569e-03 6.28514169e-03 6.30310131e-03 -6.43506972e-03 7.88836158e-04 -2.35449127e-03 1.01067899e-02 -9.37138312e-03 2.04724679e-03 -1.49411522e-02 1.65151134e-02 1.78771038e-02 -4.12028283e-03 -2.93399021e-03 -6.02151547e-03 1.48079861e-02 2.33208039e-03 8.48655216e-03 -2.28916193e-04 6.24372158e-03 -2.03548418e-03 -1.41259907e-02 -1.00904023e-02 -1.87104978e-02 -6.76409435e-03 1.40053108e-02 -2.05125939e-03 3.23999062e-04 -1.53338816e-03 -5.21204248e-03 1.80675741e-02 7.65022449e-03 9.13907401e-03 -5.01725404e-03 -3.01202736e-03 3.84224695e-03 5.13083674e-03 1.26585551e-03 4.33972245e-03 1.20827518e-02 -7.22714048e-03 1.71618257e-02 -1.00193108e-02 5.89643884e-03 2.99787178e-04 1.35305151e-02 -1.42186077e-03 5.67509094e-03 -2.49920413e-03 -1.45884219e-03 -1.60589423e-02 4.36443975e-03 -6.86343154e-03 -3.76678980e-03 -4.96190274e-04 8.88275541e-03 -5.57485456e-03 8.43518320e-03 8.02240218e-04 -6.66244049e-03 -3.65571911e-03 2.61381245e-03 4.15416714e-03 -1.23870205e-02 -1.13819474e-02 6.38187485e-05 -1.57279465e-02 -6.10527722e-03
-2.66768914e-02 -2.82478202e-02 1.05112297e-02 -1.81762874e-02 -1.38015021e-02 2.88795847e-02 1.67698525e-02 -2.65766308e-02 -1.49440235e-02 -5.03829913e-03 1.00633679e-02 1.09848697e-02 3.92886437e-03 -5.96619328e-04 -9.72439069e-03 -1.46404877e-02 -1.42186768e-02 7.49575952e-03 -1.47062819e-02 -5.94397448e-03 1.30143343e-02 1.36839608e-02 -1.26818260e-02 1.65785123e-02 6.21199422e-03 1.52198086e-02 1.70194730e-03 6.42665057e-03 1.38149774e-02 -1.30727906e-02 -1.74233019e-02 1.30874722e-03 -1.48308044e-02 -2.77580670e-03 -4.14374750e-03 -2.10016896e-03 -3.04171233e-03 1.88727640e-02 8.80129635e-03 -4.33011539e-03 6.12875074e-03 1.41577404e-02 -3.54851433e-03 -4.48484719e-03 6.41543185e-03 1.57800186e-02 2.75170500e-03 1.83581691e-02 1.26255127e-02 -3.64061852e-04 -1.37407379e-02 -9.27165616e-03 -7.03631714e-03 -4.79349913e-03 7.71955820e-03 -3.84468748e-03 2.74224225e-02 -2.20140200e-02 2.05603559e-02 1.23207802e-02 3.19373645e-02 -1.10895950e-02 -2.38694903e-02 2.31262147e-02 -7.49919377e-03 2.15546833e-03 5.48710441e-03 1.20249540e-02 2.09525246e-02 -2.04443224e-02 -1.83501355e-02 8.12460948e-03 -2.07782071e-02 -1.51241431e-02 -9.32136551e-03 -2.25495808e-02 1.38846524e-02 2.10018437e-02 1.07344449e-03 1.25879627e-02 9.85011086e-03 -6.58156024e-03 -5.26967086e-03 -3.80551768e-03 -7.36374827e-03 1.27042811e-02 -3.99634056e-03 -8.88988003e-03 -4.87120450e-03 8.64090864e-03 4.14141919e-04 -1.77587494e-02 -1.67521033e-02 -8.89601279e-03 -9.02359746e-03 9.21898987e-03 -4.98717278e-03 2.09782049e-02 2.11897809e-02 1.77610088e-02 3.25849606e-03 3.77573259e-03 1.15883360e-02 -3.12147167e-05 1.98759623e-02 9.15407669e-03 2.29074713e-03 -2.49364413e-03 -1.83959100e-02 1.53053133e-02 1.28815649e-02 -1.62852164e-02 4.67909034e-03 5.85898291e-03 4.27176710e-03 7.98121374e-03 1.57177839e-02 7.74720078e-03 1.17977645e-04 1.71620362e-02 1.76087823e-02 1.77851114e-02 1.81288905e-02 -6.04610564e-03 -5.69545384e-03 3.30185634e-03 -1.69318635e-02 -1.03196222e-02 1.85600272e-03 -2.36457982e-03 8.16326030e-03 -2.32015811e-02 1.61306057e-02 -1.78374834e-02 -2.21225224e-03 1.66943651e-02 -1.29808486e-02 2.25385949e-02 8.07513017e-03 2.24888492e-02 5.67238219e-03 -4.97060688e-03 -1.36294812e-02 2.32745265e-03 -1.05881300e-04 1.82441492e-02 6.32600533e-03 -8.86060123e-04 1.30936028e-02 8.19440465e-03 1.49075640e-02 8.98142287e-04 -1.72526799e-02 1.91569272e-02 1.20349298e-03 1.63682053e-04 -3.22707021e-03 2.06104619e-03 1.90017803e-03 -1.72204580e-02 1.95930507e-02 1.07542574e-02 1.16049377e-02 8.09949171e-03 6.59408653e-03 -1.82581134e-02 -4.05920111e-03 -7.19695254e-06 1.33104436e-02 1.43559277e-02 1.65892411e-02 -2.14907899e-02 -6.10679435e-03 -1.78748108e-02 3.08478880e-03 -7.14744255e-03 -1.56631451e-02 -3.06644779e-06 1.39388372e-04 1.42876916e-02 -8.50451365e-03 -1.00080925e-03 1.79691426e-03 3.85671016e-03 -1.66070089e-02 -2.11202609e-03 -1.36129810e-02 1.44776208e-02 9.74201073e-04 8.76756199e-03 1.25654551e-04 1.30840512e-02 -1.45206936e-02 -2.85848323e-02 1.01358397e-02 -1.49603002e-02 9.22997389e-03 -1.70998201e-02 6.57476531e-03 8.54128320e-03 -1.25068696e-02 -8.86243710e-04 -4.52668406e-03 1.58746615e-02 1.17582139e-02 -1.25640891e-02 -3.73459538e-03 -5.66690741e-03 -9.86574497e-03 -1.09025110e-02 -2.06265915e-02 -8.42270441e-03 -8.45465250e-03 1.40486052e-02 6.29727356e-03 -1.13834562e-02 1.57973561e-02 -1.55902179e-02 -1.72100670e-04 1.65864974e-02 1.43908141e-02 1.40382620e-02 5.90653392e-03 -1.83581673e-02 2.10425556e-02 1.74122136e-02 1.33932466e-02 9.16437339e-03 -1.06422799e-02 1.45301484e-02 -3.49147548e-03 -1.69887058e-02 1.20903496e-02 1.02381315e-02 1.75772682e-02 2.99526239e-03 -1.29515193e-02 -1.87671278e-02 -5.48114814e-03 1.23666516e-02 1.12505518e-02 1.07529219e-02 -1.56186083e-02 9.31237917e-03 -2.75124941e-04 1.21756066e-02 -3.50032281e-03 1.77651327e-02 3.27937049e-03 -2.22978424e-02 1.27910068e-02 -5.94413839e-03 -1.64497066e-02 6.72907801e-03 -7.03576626e-03 -1.60178244e-02
-1.52804926e-02 -1.47945695e-02 1.56776514e-02 -4.32338100e-03 -2.08468214e-02 6.60802983e-03 8.92848428e-03 -7.82699138e-03 7.77462556e-04 -5.08419471e-04 -5.73233515e-03 1.85846128e-02 -1.49683906e-02 -7.60139572e-03 -9.47883353e-03 -5.89077594e-03 7.02356221e-03 -2.32394808e-03 -5.87956561e-03 1.72264432e-03 5.62424771e-03 5.97650930e-03 8.78127757e-03 -8.61406326e-03 1.51430666e-02 -2.66141584e-03 -5.15066553e-03 1.12495394e-02 2.37326953e-03 4.18375665e-03 -1.30281225e-02 -1.27053296e-04 -5.16471639e-03 -9.19783860e-03 -2.68200319e-03 -6.15214230e-03 -2.15572305e-02 1.80140492e-02 1.34529015e-02 -1.10123148e-02 8.90046731e-03 4.20427835e-03 -1.81979183e-02 1.44497852e-03 6.27990160e-03 2.62088538e-03 6.23459602e-03 1.70798581e-02 -3.95404268e-03 -4.90405736e-03 -6.20000937e-04 6.59930447e-05 3.72802676e-03 1.61127117e-03 -1.35918660e-02 1.69083232e-03 7.15454621e-03 -3.70760728e-03 5.36502153e-03 1.63588654e-02 7.60701206e-03 -1.51122045e-02 -6.05205772e-03 1.51931811e-02 6.91045728e-03 -7.86178559e-03 2.30151205e-03 -1.92576845e-03 -2.80754594e-03 -1.48791075e-02 6.87186699e-03 -1.73026975e-02 -1.69696361e-02 -1.35273943e-02 -5.91214001e-03 4.64451080e-03 9.40399803e-03 5.08934911e-03 2.07843184e-02 1.33881113e-02 1.45071633e-02 -2.19463427e-02 5.79015119e-04 -8.51115771e-03 4.42647235e-03 -1.02755055e-02 -4.03103651e-03 -2.07549499e-04 -1.21916085e-02 -2.68562650e-03 8.53981543e-03 1.05777662e-03 6.01957273e-03 5.65330684e-03 3.37389484e-03 -3.36622237e-03 -1.29141780e-02 -5.22774644e-03 1.23873809e-02 -6.02081884e-03 -3.07581690e-03 1.62066799e-02 1.10998033e-02 -3.67875677e-03 -1.55279471e-03 6.55379193e-03 6.63909782e-03 -7.62910396e-03 1.17594231e-04 1.11985288e-03 3.38971335e-03 9.31124575e-03 1.48937609e-02 7.42256315e-03 1.14393029e-02 -4.65330621e-03 -1.44625793e-03 1.62028801e-02 5.97020146e-03 9.12214909e-03 -4.86803148e-03 1.21396920e-02 7.18306098e-03 -2.03341455e-03 -2.79113208e-03 1.44355251e-02 -1.42065836e-02 -4.84453188e-03 -1.33883569e-03 -2.51122448e-03 7.25874817e-03 -1.77766513e-02 8.34508520e-03 -5.10117831e-03 -6.49440289e-03 1.30499452e-02 -5.66056930e-04 -4.22034471e-04 1.22195315e-02 1.71766076e-02 2.07597893e-02 5.98630402e-03 1.13073818e-03 5.64753637e-03 1.03853294e-03 8.82235356e-03 -7.01655168e-03 -7.98927899e-03 -3.77676857e-04 -6.75537111e-03 -1.14227375e-02 6.29069516e-03 -5.99220302e-03 2.17600465e-02 -1.00922817e-02 5.72459865e-03 6.80564810e-03 6.38876623e-03 -5.07139973e-03 1.27114793e-02 -7.58975325e-03 2.67238752e-03 -1.03263557e-02 -1.35754328e-02 -1.10682044e-02 -3.57836904e-03 3.63959232e-03 -1.72589847e-03 2.09828783e-02 4.05539246e-03 1.68616865e-02 -9.88841709e-03 -5.96457394e-03 -1.56187201e-02 -1.87215104e-03 -1.01498165e-03 2.19714502e-03 3.86572932e-03 -7.55413482e-03 -1.02116808e-03 9.12737660e-03 -1.36033827e-02 -8.44848715e-03 1.55637758e-02 -1.41871220e-03 -2.86006159e-03 3.53934825e-03 -4.62742569e-03 7.60797365e-03 -8.71642120e-03 -5.83448820e-03 6.45592995e-03 -1.15305884e-02 -4.21204604e-03 -1.47017767e-03 -2.58770725e-03 1.13909775e-02 -1.74270291e-02 -1.80914043e-03 -1.15633325e-03 7.04204012e-03 4.58028400e-03 2.51891254e-03 9.77420527e-03 -8.94626323e-03 -2.32198602e-03 6.57521375e-03 -8.84369761e-03 -1.94925703e-02 3.48378439e-03 4.37010051e-04 -1.01357214e-02 -8.94666836e-03 4.75335371e-04 9.38910805e-03 3.92154697e-03 8.39869771e-03 -2.66184621e-02 2.27400977e-02 -5.60847158e-03 -1.58587261e-03 -5.07321116e-03 -9.44320485e-03 2.26490782e-03 -2.05818377e-03 -4.01907368e-04 1.51172886e-02 1.30260102e-02 4.17931331e-03 1.15257427e-02 4.10138676e-03 -1.51023604e-02 -6.32521231e-03 8.57046526e-03 -1.43882574e-03 1.06481537e-02 -2.54919200e-04 3.25836055e-03 -6.41013635e-03 2.89900857e-03 4.15887043e-04 -8.77890829e-03 -8.51313863e-03 -5.71332825e-03 -1.51018659e-02 8.80166888e-03 1.13120796e-02 1.10219195e-02 -2.56476807e-04 -1.31367408e-02 1.44883459e-02 -1.40571557e-02 -2.12767813e-02 1.66010633e-02 1.53668143e-03 -1.67952012e-02
-9.95995197e-03 -6.90453220e-03 1.46644274e-02 -8.17591324e-03 -1.68912560e-02 2.69307196e-02 5.10633038e-03 -2.84088515e-02 -9.30696819e-03 -1.70266442e-02 1.47128571e-02 6.54321909e-03 -2.07918929e-05 9.13895573e-03 -2.37753871e-03 -1.08719897e-02 5.94670465e-03 -1.80337718e-03 5.74616157e-03 -7.62221450e-03 4.02205018e-03 -7.88134057e-03 -1.06574520e-02 -1.22750434e-03 -5.34805411e-04 1.67762712e-02 -3.51861934e-03 1.74421463e-02 2.83711147e-03 -8.18110537e-04 -6.17242046e-03 1.15627041e-02 -1.25369169e-02 -1.26145678e-02 -2.38599814e-02 -2.12542322e-02 -2.32661217e-02 7.19130086e-03 9.77465604e-03 -2.02624444e-02 -4.17278614e-03 1.80524327e-02 -9.15556774e-03 -2.10753921e-02 1.81190167e-02 1.73086561e-02 1.35113616e-02 7.28635490e-03 1.54622868e-02 -4.93989140e-03 1.04506304e-02 -1.16074793e-02 -1.61004290e-02 6.56212727e-03 5.39153768e-03 -1.46546699e-02 8.03980418e-03 -1.05530154e-02 2.74349544e-02 1.03954645e-02 2.32572127e-02 -1.29866144e-02 -1.70694590e-02 2.87255589e-02 1.04619293e-02 1.02844667e-02 6.68291189e-03 8.90177209e-04 -4.18076944e-03 -2.43752692e-02 -1.49812242e-02 7.59684108e-03 8.22326867e-04 -5.01071336e-03 -1.80227645e-02 -1.80811416e-02 -2.48237653e-03 2.13441327e-02 2.17926055e-02 1.40555613e-02 8.81229993e-03 -8.02261848e-03 -8.57164524e-03 -1.59517936e-02 -4.99164360e-03 -1.65983327e-02 1.17161346e-03 2.87431665e-03 -7.83164240e-03 -1.12221567e-02 -4.76059271e-03 -2.72270269e-03 -3.05759627e-03 5.09375660e-03 6.13357266e-03 1.27369072e-02 -1.98515803e-02 -3.61681194e-03 2.07024869e-02 4.17219056e-03 1.09280217e-02 2.22656615e-02 1.04615232e-03 -9.13092808e-04 1.50995729e-02 -2.62774783e-03 1.73021015e-02 1.10028470e-02 -1.48139326e-02 -1.53644918e-03 1.63492449e-02 -1.55079756e-02 2.03352515e-02 -2.02795421e-03 6.21725433e-03 -5.01842937e-03 6.71969820e-03 8.71554390e-03 2.01487429e-02 -3.08360392e-03 1.11253641e-03 -2.66116951e-03 -3.97841400e-03 -1.04609411e-04 -6.58044545e-03 -2.81928078e-04 -9.31218080e-03 -1.36525026e-02 6.75970223e-03 -8.62501189e-03 1.77883226e-02 2.17294949e-03 1.20933978e-02 -1.42915752e-02 -3.30184633e-03 2.13045403e-02 -1.62618402e-02 9.83687863e-03 1.17236888e-02 1.92126594e-02 1.51259387e-02 -9.77375731e-03 -1.60259195e-02 2.10100859e-02 -8.83418322e-03 1.33700250e-02 1.37043120e-02 -1.49271730e-02 1.25234518e-02 4.33829147e-03 -3.02992738e-03 9.00141895e-03 1.06167635e-02 2.06225011e-02 8.58595502e-03 -2.19374942e-03 3.49373627e-03 1.44556100e-02 5.65923192e-03 -5.62650058e-03 5.78032853e-03 5.41691727e-04 9.64041334e-03 -1.25848847e-02 -9.39626899e-03 -4.27554268e-03 6.67168805e-03 9.57430154e-03 2.28453390e-02 4.18291707e-03 1.98935457e-02 -2.43039522e-02 -2.64998488e-02 -1.56927537e-02 5.40735840e-04 -5.87590970e-03 -1.69353765e-02 1.71993747e-02 1.43094221e-03 2.93889944e-03 8.35873373e-03 -1.48749765e-04 4.75557940e-03 1.96925667e-03 -1.03725018e-02 1.30851055e-02 -6.14263723e-03 7.49557698e-03 -2.80294404e-03 1.53841488e-02 1.27490913e-03 8.80420324e-04 -1.04583288e-02 -1.44477608e-02 2.13468596e-02 -2.49328483e-02 2.31183618e-02 -1.80920549e-02 2.21436266e-02 1.97667200e-02 -4.08449862e-03 -5.99628175e-03 -1.58945527e-02 9.22387990e-04 1.61682814e-02 -1.47524085e-02 -1.15567939e-02 -6.30057650e-04 -1.01688653e-02 -7.03580212e-03 -2.50717793e-02 -1.28111253e-02 -1.16993617e-02 2.78370678e-02 2.26607490e-02 1.15086627e-03 2.13281624e-02 -2.48907004e-02 1.46467248e-02 7.36514712e-03 9.45176277e-03 -7.65816588e-03 1.03099374e-02 -4.66541434e-03 1.31780859e-02 1.03867818e-02 6.62612868e-03 3.04502109e-03 -8.18019640e-03 9.83977877e-03 -2.57393229e-03 -2.95977620e-03 -1.22579315e-03 2.82424106e-03 1.78362161e-03 1.33554619e-02 -2.89740413e-03 -1.30208135e-02 -1.87290739e-02 1.34790335e-02 -9.05642658e-03 1.11487941e-04 1.06743467e-03 1.67441159e-03 -1.24877235e-02 1.46016832e-02 2.57855718e-04 8.64937715e-03 1.25621557e-02 -1.51560754e-02 2.03994326e-02 -2.23503131e-02 -1.18901869e-02 6.70136837e-03 -1.76855493e-02 -1.63925886e-02
-2.54237838e-02 -1.02398396e-02 1.57484021e-02 -2.76262797e-02 -1.00651216e-02 2.35733278e-02 2.49529388e-02 -1.64883491e-02 -7.05589354e-03 -2.00965293e-02 1.73373092e-02 9.34635848e-03 -8.93342216e-03 -3.81851732e-03 -3.76796001e-03 6.42476557e-03 2.55505531e-03 -4.53648670e-03 -8.33039824e-03 1.50076477e-04 -1.10317278e-03 -1.39024751e-02 -4.41624643e-03 8.88445228e-03 1.59829836e-02 1.54696396e-02 -1.33951567e-02 5.42578939e-03 1.68755800e-02 2.97345803e-03 -1.97690679e-03 1.28004206e-02 -9.75724589e-03 -1.39374901e-02 -1.47648137e-02 -2.24720147e-02 -1.86655880e-03 2.22756690e-03 1.30588617e-02 -2.20097043e-02 2.10512523e-02 1.03169645e-03 -2.00563408e-02 -7.07651861e-03 5.18451398e-03 1.96349714e-02 1.76692214e-02 1.01716369e-02 -5.68815088e-03 7.24883610e-03 1.34605845e-03 -1.43065760e-02 3.53567605e-03 7.21798465e-03 2.21726857e-03 -3.40459542e-03 2.68533714e-02 -1.74341947e-02 1.79991592e-02 1.25579108e-02 2.00170316e-02 -6.02196483e-03 -1.01924324e-02 1.74569823e-02 -1.04522752e-02 2.96167703e-03 -9.20028717e-04 -1.26626147e-02 -4.14108945e-04 2.79208005e-04 -1.47122638e-02 -7.24245189e-03 -2.76148948e-03 -1.56026632e-02 -1.37819378e-02 -1.03255431e-03 1.11308703e-02 1.08857928e-02 9.79396515e-03 1.98195800e-02 6.19931752e-03 -7.69836595e-03 4.85314149e-03 -6.67673210e-03 -1.13440128e-02 -4.99492418e-03 6.12342672e-04 -9.05738678e-03 -1.46171683e-02 6.61984924e-03 1.69548523e-02 -8.06439947e-03 9.32247471e-03 3.01539386e-03 -8.55553336e-03 1.08924219e-02 -9.16973222e-03 6.41029282e-03 5.28615853e-03 5.21898223e-03 -2.06531794e-03 1.97297409e-02 -6.57874206e-03 -1.29660675e-02 1.90291964e-02 1.19646629e-02 -4.24135197e-03 2.07956019e-03 -4.06286586e-03 1.91538490e-03 2.00025383e-02 -1.60160828e-02 3.01150745e-03 1.22003574e-02 1.97194256e-02 1.12549607e-02 7.92864617e-03 -6.81537623e-03 1.39410384e-02 1.23513183e-02 -6.10574475e-03 1.12570301e-02 4.13883303e-04 -2.28743572e-02 6.59906724e-03 1.24601452e-02 3.60147888e-03 -9.93208122e-03 2.43666600e-02 -2.24617198e-02 1.16978036e-02 -5.08251507e-03 1.25600593e-02 -8.13114084e-03 2.14316193e-02 9.48860124e-03 -6.54580211e-03 3.76379653e-03 2.27163825e-02 7.29950005e-03 9.23890248e-03 -2.14801868e-03 -1.60654616e-02 2.36328766e-02 -1.10780261e-02 1.53138256e-02 -8.43106769e-03 7.85195176e-03 1.44943902e-02 -3.20449914e-03 -6.29834412e-03 8.48916546e-03 -1.17222341e-02 -8.45215470e-03 1.08312943e-03 2.09416766e-02 1.34037705e-02 2.93310825e-03 1.62944738e-02 3.41411540e-03 -1.37264258e-03 -9.05728154e-03 -6.98890723e-03 9.62871779e-03 -5.96289709e-03 6.55023567e-03 -3.88804532e-04 4.40417929e-03 1.88970640e-02 1.37115521e-02 2.60095634e-02 -1.77141801e-02 -1.64702237e-02 -1.52320415e-02 1.48355393e-02 -7.92104192e-03 -1.01004867e-02 9.30720195e-03 -1.75850140e-03 1.09326150e-02 8.12068582e-03 -9.21986531e-04 -9.48797539e-03 8.76936945e-04 -5.59316063e-03 -2.27161543e-03 -1.45190991e-02 -8.67731590e-03 -2.46401108e-03 7.63996411e-03 1.22868242e-02 -9.18498356e-03 -1.63688902e-02 -1.69918779e-02 6.76599471e-03 -1.34224929e-02 2.12146412e-03 -1.75291076e-02 1.88943855e-02 2.31575444e-02 -5.16672665e-03 1.22518511e-02 -1.52192321e-02 2.75904383e-03 1.04705365e-02 -3.45279719e-03 6.53675478e-03 3.41422227e-03 1.41694167e-04 -1.07040526e-02 -8.13679118e-03 -2.70851748e-03 -1.85429510e-02 3.87274870e-03 2.29849163e-02 -1.27135320e-02 1.82388350e-02 -1.07519487e-02 9.68552660e-03 2.06598104e-03 1.44220991e-02 -6.20383210e-03 1.38399424e-03 -1.54799130e-02 1.57035403e-02 2.80126967e-02 3.59919458e-03 6.83017122e-03 -6.70860801e-03 9.21844877e-03 -2.04598438e-02 -1.86408572e-02 1.35511430e-02 6.28882274e-03 1.12617956e-02 7.04026967e-03 -9.76984855e-03 -1.51681686e-02 -8.29484686e-03 1.36745470e-02 -6.80177100e-03 1.35519570e-02 -1.73457880e-02 -3.44495336e-03 6.76331529e-03 3.83064593e-03 -6.53886190e-03 2.85576959e-03 2.00729091e-02 -1.54405609e-02 2.62544733e-02 -1.96272507e-02 -1.61729101e-02 2.06261799e-02 1.19369803e-03 -1.00174202e-02
-6.52065873e-03 -2.06245687e-02 1.49616981e-02 -2.42233053e-02 -9.18666460e-03 1.12308403e-02 1.96752287e-02 -1.94275379e-02 -1.44655108e-02 -1.50654800e-02 2.42234245e-02 3.07221687e-03 -2.12338800e-03 -1.90582895e-03 4.42365272e-04 -1.25125796e-03 -6.68804767e-03 -2.07432080e-02 -1.73773952e-02 -1.24238431e-02 1.55399414e-02 -1.45827001e-03 -2.54482613e-03 3.33677535e-03 1.30081335e-02 9.57633276e-03 -1.94055755e-02 1.24452133e-02 1.90600399e-02 -1.99012347e-02 -1.99736804e-02 3.44763207e-03 -2.53099166e-02 -2.41544265e-02 -1.56145748e-02 -6.57594763e-03 -1.04835294e-02 2.60730349e-02 2.16302592e-02 -6.13230141e-03 2.05075387e-02 2.33250521e-02 -8.12489539e-03 -1.79914329e-02 1.34976795e-02 5.57945669e-03 1.79676879e-02 2.00522840e-02 2.23655086e-02 3.54265678e-03 3.41457804e-03 -1.74463391e-02 -4.15296480e-03 3.89804039e-03 1.61883440e-02 1.75154873e-03 1.08257094e-02 -1.74735375e-02 2.18110606e-02 8.05792212e-03 1.49208987e-02 -1.77315138e-02 -2.09153779e-02 1.55920507e-02 -1.72024556e-02 1.60094332e-02 1.54994903e-02 6.62119407e-03 6.43178727e-03 -1.88349038e-02 -1.63937863e-02 1.54185565e-02 -1.51253883e-02 -1.03051905e-02 -8.92422919e-04 -1.17615080e-02 6.56853849e-03 1.25502227e-02 7.12893484e-03 2.36281529e-02 6.67191518e-04 -5.35117509e-03 5.64691145e-04 -1.26002301e-02 -1.46804620e-02 -7.37253018e-03 3.27305926e-04 -1.64692663e-02 -1.19120982e-02 -2.80967820e-02 8.39388929e-03 -1.74843743e-02 1.94746826e-03 1.05724647e-03 -1.37017621e-02 9.78701655e-03 -2.15066448e-02 1.81064066e-02 8.55637807e-03 7.88072683e-03 1.23463357e-02 9.99514107e-03 8.95007979e-03 -6.72102394e-03 2.26937998e-02 1.04833245e-02 5.16673923e-03 8.19926988e-03 -3.50614428e-03 1.64868440e-02 1.32515626e-02 -2.51839589e-03 1.55263897e-02 -1.09902825e-02 3.45520023e-03 2.08756607e-02 1.90611370e-03 7.09423237e-03 2.44198972e-03 1.16716670e-02 2.18615960e-02 2.09048465e-02 2.06545033e-02 -1.43224457e-02 -1.45334164e-02 1.94991082e-02 -2.57130992e-03 -1.37724010e-02 2.26288401e-02 -2.37679612e-02 6.30857842e-03 -5.05462615e-03 4.02442738e-03 -1.45511301e-02 4.77695884e-03 1.99466199e-02 -1.71459187e-02 7.12491479e-03 1.82945281e-02 1.12199597e-02 2.36866362e-02 -1.24782473e-02 -2.46575335e-03 1.12264752e-02 -4.63643391e-03 1.93179026e-02 4.97732472e-05 -2.58303452e-02 1.04608014e-02 6.41862629e-03 5.81746502e-03 -2.06982158e-03 3.30686290e-03 3.01334448e-02 1.17176725e-02 2.14491338e-02 9.32245702e-03 2.21384596e-02 -2.27178936e-03 -1.93530601e-02 1.63987484e-02 -5.57006337e-03 1.61072593e-02 -7.68863037e-03 -7.63525488e-03 -1.78242680e-02 -7.11846817e-03 -2.20145355e-03 2.40493082e-02 2.52682287e-02 3.67776235e-03 -2.98582166e-02 -2.17975881e-02 -1.64866410e-02 9.75158159e-03 -1.91579107e-02 -1.66818351e-02 9.44106188e-03 1.13754615e-03 5.19906403e-03 -1.41867185e-02 -2.36480292e-02 1.18951732e-02 -1.05404938e-02 -1.53563200e-02 1.32479155e-02 -1.90869290e-02 1.27981259e-02 -7.56654714e-04 -6.84122861e-05 -1.27213565e-03 1.58638861e-02 -1.74988564e-02 -9.21056233e-03 1.52862407e-02 -2.33488511e-02 8.13128147e-03 -1.87629163e-02 1.25425430e-02 7.35019473e-03 -7.98776001e-03 8.39644950e-03 -9.07893758e-03 2.05912460e-02 1.62352622e-02 -8.37736484e-03 -1.41779333e-02 -1.82251483e-02 -1.80208720e-02 -2.56408323e-02 -1.08180195e-02 -9.33002308e-03 -3.98671301e-03 1.24083934e-02 2.47493256e-02 -2.25202199e-02 6.18475489e-03 -1.09978504e-02 2.34424863e-02 7.54327327e-03 3.25715425e-03 1.25082424e-02 1.20394379e-02 -2.38085701e-03 4.36379295e-03 8.62737000e-03 1.67443026e-02 2.03677528e-02 -8.50148685e-03 8.60055070e-03 -8.87414999e-03 -1.39141828e-02 1.62889361e-02 3.76531621e-03 2.22349614e-02 2.46894211e-02 -2.53604688e-02 -7.73214735e-03 -2.64056586e-02 8.24992079e-03 1.58671141e-02 9.62869637e-03 -4.11259755e-03 1.71737261e-02 -3.50641250e-03 9.03554633e-03 2.31400668e-03 1.03578633e-02 3.39992484e-03 -1.03425058e-02 1.12362048e-02 -1.16009554e-02 -2.42865998e-02 2.61027683e-02 -2.24932022e-02 -2.31486969e-02
-2.63327640e-02 -1.15778893e-02 2.44670063e-02 -1.48690473e-02 -2.96608377e-02 2.02235468e-02 7.80609623e-03 -2.45390423e-02 -4.05279174e-03 -2.77877860e-02 1.81159172e-02 2.53464449e-02 -5.13125490e-03 8.12718086e-03 -8.45228508e-03 -7.19317654e-03 -7.38120079e-03 5.76079916e-03 -1.67922303e-02 -2.72623003e-02 2.05787327e-02 1.26651926e-02 -1.59590766e-02 2.17990857e-02 2.34642699e-02 2.17866916e-02 -1.97813474e-02 1.46992439e-02 5.18937130e-03 -4.54004155e-03 -1.20621826e-02 1.15683218e-02 -1.98988914e-02 -2.05494910e-02 -1.46529479e-02 -2.43585855e-02 -2.11858880e-02 2.23999005e-02 2.30071507e-02 -2.01382153e-02 2.72422489e-02 7.59608904e-03 -1.13172373e-02 -8.02729093e-03 1.73188280e-02 7.48055847e-03 1.02235833e-02 9.82064381e-03 1.95434913e-02 -2.87528727e-02 -8.09070654e-03 -2.10832730e-02 -1.32230343e-02 -2.98607536e-02 2.28042435e-02 2.36881711e-03 1.16086770e-02 -1.13278572e-02 2.41317861e-02 2.75332686e-02 1.64889619e-02 -1.46408835e-02 -1.67120323e-02 2.33851355e-02 -1.68957673e-02 7.16825249e-03 1.97868980e-02 1.45877171e-02 1.29985455e-02 -2.32050568e-02 -1.14689432e-02 1.33580556e-02 -6.62842160e-03 -2.06142757e-02 -2.71572061e-02 -1.25474557e-02 5.12868678e-03 1.06363269e-02 7.05929659e-03 1.62778683e-02 2.21484266e-02 -3.16989957e-03 -8.51961877e-03 -9.46370699e-03 -1.78178288e-02 -8.52147117e-04 -1.14564905e-02 -1.12257060e-02 -1.52114145e-02 -1.16444714e-02 5.76669537e-03 -2.49606725e-02 -2.26234663e-02 -2.42492650e-02 -1.56039512e-02 1.59069169e-02 -4.36061295e-03 2.13032179e-02 1.30905360e-02 1.25643387e-02 5.80351939e-03 2.83493027e-02 2.07455456e-02 -8.19498394e-03 1.10612214e-02 2.13173348e-02 2.54926551e-02 2.17262805e-02 -8.83863121e-03 2.37717722e-02 2.65170801e-02 -6.96909009e-03 5.93138859e-03 -3.29836016e-03 1.55939292e-02 1.50001952e-02 5.70227765e-03 1.94254220e-02 2.52457410e-02 1.18571920e-02 2.27504894e-02 2.36538686e-02 9.64250043e-03 -9.44968872e-03 -1.13961473e-02 2.17010044e-02 -1.06840599e-02 -7.48030469e-03 1.00193508e-02 -2.11788528e-02 2.67486926e-02 -1.97846852e-02 1.36303604e-02 -2.00838484e-02 9.05869622e-03 2.40705870e-02 -2.32538115e-02 2.03988366e-02 2.47577261e-02 2.69406736e-02 1.48254260e-02 -7.62452884e-03 -1.98763106e-02 1.09439418e-02 -5.33923367e-03 5.70239080e-03 1.58754531e-02 -1.20094158e-02 5.32992277e-03 1.96570661e-02 1.95790995e-02 8.10739584e-03 -2.48810519e-02 5.76233258e-03 2.10210904e-02 1.97920911e-02 2.48477664e-02 1.14840437e-02 2.55198628e-02 -1.64198317e-02 1.77226067e-02 1.70885995e-02 1.90981608e-02 1.11575983e-02 2.10393891e-02 -2.10375823e-02 -1.26499776e-02 1.71323363e-02 1.63415056e-02 1.01546356e-02 2.68128105e-02 -2.65212916e-02 -9.78874974e-03 -1.74709205e-02 2.48817336e-02 -1.73995607e-02 -1.07754311e-02 2.08939835e-02 4.65491787e-03 4.35550557e-03 -1.95487086e-02 -1.64815933e-02 2.32102834e-02 -1.33233322e-02 -1.92860067e-02 1.77916475e-02 -2.56578419e-02 1.61151141e-02 -2.36556418e-02 9.56393685e-03 8.27823859e-03 4.71086334e-03 -2.26371363e-02 -2.25933958e-02 1.58603303e-02 -2.30241027e-02 2.47174464e-02 -6.97270921e-03 1.60462800e-02 2.22624261e-02 -9.37938690e-03 1.29585611e-02 -4.22358885e-03 1.32269319e-02 1.35320742e-02 -1.68934446e-02 -3.37975007e-03 -1.62457544e-02 -1.91672705e-02 -1.01334555e-02 -2.16529835e-02 -1.72089711e-02 -1.56913511e-02 2.24969443e-02 2.91822199e-02 -2.36114766e-02 1.42851155e-02 -1.64392516e-02 1.33235268e-02 1.44089870e-02 2.93472223e-02 2.46503353e-02 2.13719625e-02 -2.71085426e-02 2.15470865e-02 7.44866766e-03 7.61185866e-03 1.38827320e-02 -9.50841606e-03 2.25738939e-02 -9.02369991e-03 -1.88482646e-02 5.81538351e-03 1.23005882e-02 5.64629864e-03 2.64953151e-02 -2.69602407e-02 -2.57465150e-02 -1.91142764e-02 1.47078522e-02 2.64561530e-02 9.71955340e-03 -1.97389219e-02 2.49092095e-02 -6.25104178e-03 1.62733030e-02 -1.18070636e-02 2.56927852e-02 1.99945047e-02 -1.93860475e-02 2.06102859e-02 -1.56578012e-02 -2.08808873e-02 2.02861633e-02 -1.86346490e-02 -1.63634475e-02
-5.77611849e-03 -2.65105478e-02 1.21934265e-02 -2.36061700e-02 -7.76648615e-03 2.38600429e-02 2.54896656e-02 -2.84470301e-02 -7.97501113e-03 -2.69227638e-03 1.05302697e-02 1.63401328e-02 -8.08661338e-03 4.39577270e-03 -2.03669649e-02 -1.85803249e-02 6.28601760e-03 -8.92977603e-03 -1.11379474e-02 3.11200647e-03 1.91953452e-03 -8.43834365e-04 -6.31660828e-03 1.42561505e-02 1.73498187e-02 1.93279013e-02 -1.11983903e-02 2.39860509e-02 2.45907567e-02 -1.09515376e-02 -6.12019422e-03 1.44012617e-02 -5.21376962e-03 -7.18058040e-03 -1.36235086e-02 -1.73325483e-02 -1.20670786e-02 1.23676248e-02 2.23771166e-02 -1.89336352e-02 8.20610020e-03 5.36883622e-03 -1.11288596e-02 -1.49554545e-02 5.51107759e-03 1.06143598e-02 3.31035978e-03 1.68259759e-02 1.13239978e-02 -3.04174284e-03 -7.43497023e-03 -1.06577361e-02 -6.43889047e-03 -8.31715576e-03 1.00314273e-02 7.26752100e-04 2.45766733e-02 -2.04118863e-02 7.71306129e-03 2.36876570e-02 1.15969134e-02 -1.85978450e-02 -1.36242304e-02 1.52979316e-02 -1.17046200e-02 1.79801900e-02 -7.97306094e-03 -1.09203369e-03 1.60230778e-03 -1.57886259e-02 -6.35114964e-03 1.22130532e-02 -9.86009371e-03 -2.44232174e-02 -1.00368038e-02 -1.13976467e-02 1.65308733e-02 2.40623150e-02 9.52880364e-03 2.00167857e-02 2.21476872e-02 -1.36195319e-02 -3.51684005e-03 -2.26601716e-02 -2.19107885e-02 3.25699570e-03 -1.06991129e-02 -1.23767555e-02 -4.80642589e-03 -1.77439004e-02 1.36660272e-02 -6.88710017e-03 6.57814508e-03 -9.93872993e-03 -3.84728564e-03 1.11298272e-02 -2.28065178e-02 1.12821087e-02 2.42371354e-02 5.13572991e-03 5.54408878e-03 6.08397974e-03 2.14246232e-02 -1.23872450e-02 1.18667092e-02 1.96228940e-02 2.21504271e-02 1.46627435e-02 -7.97582231e-03 1.64002199e-02 1.33449668e-02 -2.05653124e-02 4.32377541e-03 -5.09272330e-03 1.79759588e-03 6.02891156e-03 1.68840848e-02 1.10535147e-02 6.61326386e-03 3.53683927e-03 1.64847188e-02 5.76600246e-03 1.91899445e-02 -2.03542132e-02 -1.51578048e-02 1.11093195e-02 -1.41518498e-02 -6.70647714e-03 8.86023790e-03 -1.75868198e-02 8.09769984e-03 -5.66086732e-03 2.46941168e-02 -1.84794124e-02 -7.50382373e-04 6.37032324e-03 -1.99981742e-02 9.20143165e-03 1.99009087e-02 1.05434060e-02 2.79509965e-02 -1.18883969e-02 -1.88875813e-02 2.60317419e-02 -4.52393247e-03 7.10181426e-03 6.05375133e-03 -2.59622652e-02 1.20341927e-02 1.19225429e-02 -2.76751118e-03 9.78411455e-03 -4.86517930e-03 8.84557422e-03 -3.16156005e-03 2.00176481e-02 1.74988452e-02 1.41382227e-02 -2.29423516e-03 1.68639445e-03 4.05411934e-03 -6.28620759e-03 6.58972934e-03 5.28349541e-03 7.17124576e-03 -2.37404509e-03 -1.51523221e-02 -2.86303088e-03 2.33930964e-02 1.21153444e-02 1.05006685e-02 -2.41511483e-02 -1.22959632e-02 -2.07360554e-02 2.24050675e-02 -9.39513743e-03 -1.14981420e-02 2.26190742e-02 -2.51597795e-03 -1.56351342e-03 -1.07758855e-02 -1.57947820e-02 2.36520590e-03 -1.56925377e-02 -4.79013339e-04 5.97024197e-03 -7.18559092e-03 1.56474169e-02 -7.49285193e-03 1.10722026e-02 4.96403920e-03 1.07411910e-02 -1.25222523e-02 -1.69986244e-02 1.96507834e-02 -1.02593303e-02 1.97954215e-02 -2.79579666e-02 1.76008530e-02 2.06209458e-02 -1.02853933e-02 7.77020585e-04 1.19558512e-03 1.91352088e-02 6.63004816e-03 -9.59412567e-03 -4.47584735e-03 -9.84589569e-03 -2.32616849e-02 -7.09768897e-03 -2.02874057e-02 -9.86559037e-03 -1.54259857e-02 8.89777672e-03 1.28359655e-02 -1.29179386e-02 1.69653539e-02 -2.99957246e-02 1.22177498e-02 1.37571981e-02 2.09919326e-02 1.58567727e-02 4.38337389e-04 -1.67486593e-02 1.71139129e-02 1.09214224e-02 3.93266184e-03 1.86575297e-02 -2.03302409e-02 2.71585491e-02 -2.04606131e-02 -2.45868340e-02 1.29116867e-02 1.93336364e-02 1.98847130e-02 8.00076686e-03 -1.04570631e-02 -5.02156746e-03 -2.11387016e-02 2.00886987e-02 1.89180300e-02 9.48024262e-03 -1.49582820e-02 4.89383331e-03 -2.16968870e-03 1.25237517e-02 3.27625009e-03 1.07400119e-02 1.68823991e-02 -1.65768526e-02 2.61218734e-02 -7.35185528e-03 -2.36454662e-02 4.84662456e-03 -1.43598383e-02 -2.81623639e-02
-1.82344597e-02 -1.00915646e-02 2.55037434e-02 -1.43063255e-02 -1.62780639e-02 1.52938338e-02 8.38131830e-03 -1.49223888e-02 -1.74050145e-02 -2.70599350e-02 1.57535970e-02 1.22517077e-02 -2.19425466e-02 4.66064038e-03 -3.55208432e-03 -2.44656745e-02 2.04844004e-03 1.09779965e-02 -1.42934211e-02 -1.64313596e-02 1.16323270e-02 1.54001708e-03 -7.14812474e-03 8.59966874e-03 2.40664966e-02 2.23309230e-02 -2.01575551e-02 2.25386396e-02 6.53394498e-03 -6.41469983e-03 -2.29129400e-02 1.45350220e-02 -2.21763737e-02 -1.08643277e-02 -2.17476413e-02 -1.36533761e-02 -5.31124696e-03 2.31018849e-02 1.02596553e-02 -1.27664655e-02 1.39811458e-02 1.64802223e-02 -2.29022671e-02 -1.22094462e-02 3.91101651e-03 1.34426001e-02 2.11832877e-02 8.73565208e-03 2.13656425e-02 -9.48068686e-03 -3.82487546e-03 -2.05757394e-02 -2.60586049e-02 -1.70775168e-02 1.14517706e-02 1.60101857e-02 1.85374618e-02 -1.73943155e-02 1.05348853e-02 1.04709445e-02 2.43579131e-02 -1.45598268e-02 -9.05109290e-03 2.46607233e-02 -2.19916608e-02 2.14119162e-02 1.61278732e-02 2.75250874e-03 6.24250760e-03 -2.81671155e-02 -5.55967214e-03 1.44736059e-02 -2.29036454e-02 -2.55562644e-02 -1.63120180e-02 -7.60977902e-03 2.18363889e-02 2.62230597e-02 1.12851616e-03 6.61169179e-03 2.74667498e-02 -9.35958233e-03 -8.00045580e-03 -1.50640346e-02 -2.24465355e-02 1.37515785e-02 -1.65629927e-02 -7.96118565e-03 -2.60259733e-02 -1.02868378e-02 5.62399672e-03 -1.20323384e-02 -4.23631119e-03 -1.14789298e-02 6.21442276e-04 3.59059358e-03 -2.30721068e-02 4.04736213e-03 1.86397042e-02 1.47059411e-02 4.76034620e-04 1.16766943e-02 1.19146407e-02 -5.46386465e-03 2.19508763e-02 4.74064006e-03 1.83737669e-02 2.16077175e-02 -7.14178756e-03 3.34930164e-03 1.14272898e-02 -2.10264139e-02 2.56412253e-02 -1.23768831e-02 1.98279172e-02 4.75608511e-03 4.08959435e-03 4.51458106e-03 2.63986867e-02 1.49857337e-02 6.34897035e-03 2.09903028e-02 3.95873515e-03 -2.08546873e-02 -9.32588335e-03 2.99177296e-03 -2.32201423e-02 -6.43759593e-03 2.39070505e-02 -9.27857496e-03 6.19418174e-03 -2.36395877e-02 1.98547319e-02 -4.03840980e-03 2.14770604e-02 2.20986400e-02 -9.87000763e-03 1.46440668e-02 5.67903277e-03 4.68730507e-03 1.85529087e-02 -6.33519469e-03 -1.14405397e-02 1.43859563e-02 -3.71593772e-03 1.80505607e-02 6.79759134e-04 -1.76141039e-02 1.78311598e-02 1.97602622e-02 8.02603643e-03 4.84557869e-03 -1.54144363e-02 1.63509995e-02 -8.71661701e-04 9.87074338e-03 2.02219337e-02 1.78585872e-02 1.47843165e-02 -1.63515378e-02 8.22503399e-03 3.37416190e-03 6.54549943e-03 1.65630113e-02 1.33191170e-02 -1.14862602e-02 -1.43137434e-02 1.93392504e-02 1.84037350e-02 2.08006315e-02 2.35211160e-02 -2.75607165e-02 -2.78989598e-02 -1.08636161e-02 1.60891060e-02 -5.85746113e-03 -1.66386794e-02 1.51254544e-02 4.66934405e-03 1.92301031e-02 -6.59648376e-03 -2.11116876e-02 1.30938217e-02 -3.56378756e-03 -8.83076526e-03 1.56576175e-03 -1.20858224e-02 1.28673082e-02 -7.67991412e-04 7.14463601e-03 5.23879658e-03 5.00377407e-03 -2.65379492e-02 -2.75979266e-02 2.40904503e-02 -1.75975580e-02 2.10607946e-02 -1.73707418e-02 7.69218104e-03 2.03937665e-02 -4.91084589e-04 2.12104041e-02 -1.86856650e-02 1.56554971e-02 2.23408118e-02 -1.67558938e-02 -7.40899472e-03 -1.75681766e-02 -9.35447682e-03 -2.63137054e-02 -2.77024303e-02 -1.43778389e-02 -1.60195231e-02 1.74832661e-02 1.29482700e-02 -1.26465159e-02 1.01995766e-02 -1.10830534e-02 2.19536945e-03 8.82744789e-03 8.23643338e-03 4.66406904e-03 1.15517974e-02 -2.05716118e-02 2.49186121e-02 1.41835799e-02 4.58584307e-03 1.21320570e-02 -1.91018526e-02 2.51989737e-02 -2.68001631e-02 -1.48374001e-02 2.66893432e-02 9.16867144e-03 2.43457034e-02 4.16396372e-03 -2.20130682e-02 -4.85366769e-03 -9.90110263e-03 1.83712617e-02 3.17367562e-03 1.46747269e-02 -1.29962899e-02 5.88209508e-03 1.26606990e-02 8.67838040e-04 -7.71688344e-03 2.66109090e-02 8.32090806e-03 -1.11925351e-02 2.14764029e-02 -2.04056073e-02 -8.32217466e-03 9.86954197e-03 -3.59048345e-03 -5.41518442e-03
-1.24162612e-02 -1.67746991e-02 1.70777496e-02 -1.78522654e-02 -1.10678347e-02 1.10247815e-02 2.39273980e-02 -1.79036427e-03 -3.31435050e-03 -1.75138321e-02 -1.86626185e-05 2.03644820e-02 1.20318532e-02 -1.50131155e-03 -1.06584691e-02 -1.17122263e-05 1.00410180e-02 6.50962163e-03 4.24016919e-03 6.45096740e-03 1.23512407e-03 9.41555295e-03 -7.47694774e-03 9.80523136e-03 1.31766703e-02 1.59598724e-03 1.18815817e-03 -4.79711313e-03 1.13436589e-02 1.21656694e-02 -7.00986199e-03 1.85464742e-04 -1.18993605e-02 -2.27094628e-02 -7.20268209e-03 -1.51834963e-02 -2.84553203e-03 2.17204392e-02 1.49886589e-02 -1.66623183e-02 3.08677345e-03 4.21241485e-03 -9.08744801e-03 -1.05678737e-02 6.35588076e-03 1.70775093e-02 2.33023651e-02 8.43506586e-03 5.50876418e-03 -5.93951950e-03 -4.78580361e-03 -3.97958793e-03 -1.71163045e-02 5.73905604e-03 -3.43502685e-03 -9.75055061e-03 6.68835174e-03 -2.03433745e-02 7.03544356e-03 6.16029510e-03 1.73721090e-02 -1.66223329e-02 -1.88526995e-02 4.36283322e-03 9.54845280e-04 -6.34386111e-03 1.38061931e-02 -1.55492239e-02 1.42686460e-02 -1.93211623e-02 -1.75709054e-02 -1.41135044e-02 -1.48814889e-02 -5.03154704e-03 2.42353650e-04 -5.86530985e-03 3.22622643e-03 6.86428091e-03 3.00534000e-03 1.14934091e-02 1.92522611e-02 -6.73591346e-03 1.43693865e-03 -2.16837320e-03 -1.65387068e-03 1.52164968e-02 -8.74365866e-03 -1.53825444e-03 -2.15248819e-02 -5.48433140e-03 1.84738897e-02 -2.13659648e-02 -5.72893396e-03 -1.42091175e-03 3.99921229e-03 1.84804071e-02 2.39820848e-03 4.86892322e-03 2.27543898e-02 -2.23840913e-03 9.42732487e-03 8.84713139e-03 3.48109193e-03 -1.85405817e-02 1.58003531e-02 1.02442447e-02 9.98123735e-03 1.35741765e-02 9.73109709e-05 -6.99940324e-03 -9.07085778e-05 -4.46144259e-03 -5.04011149e-03 1.06823537e-02 1.11174891e-02 1.59404275e-03 1.26326806e-03 -1.03247883e-02 6.57432480e-03 -6.18381007e-03 1.32956672e-02 -8.69585387e-03 1.28630344e-02 -1.92768518e-02 -2.65840604e-03 1.76809058e-02 -1.01950113e-02 8.84368364e-03 1.60102863e-02 -1.46659631e-02 -2.09447066e-03 -1.24556199e-02 8.11892096e-05 -2.34348653e-03 1.32904509e-02 2.05946825e-02 -1.21575631e-02 1.71999857e-02 5.39941713e-03 8.18653312e-03 2.20617969e-02 -1.04884850e-02 -1.92911103e-02 2.44860407e-02 -1.69343520e-02 4.72596474e-03 -6.32371870e-04 -3.52907460e-03 1.03361113e-02 1.00357048e-02 -3.00593302e-03 -3.79970670e-03 -1.36256190e-02 1.36552500e-02 5.94973424e-03 2.04519983e-02 -4.63893730e-03 6.42961636e-03 1.57924127e-02 -1.93043463e-02 4.11177578e-04 1.17721390e-02 -3.86598776e-03 1.06220515e-02 -6.23574946e-03 -5.72203752e-03 -6.65532099e-03 1.27248550e-02 8.36405065e-03 9.28555336e-03 1.83180999e-02 -2.45216973e-02 -1.78133603e-02 -1.31217414e-03 1.40249087e-02 -8.19693599e-03 -6.65596128e-03 -4.77411039e-03 -5.76005317e-03 -5.50666731e-03 -7.71576632e-03 -7.87728839e-03 -3.82391387e-03 7.73608964e-03 -3.46197025e-03 -3.82891740e-03 -8.80250707e-03 -4.60268464e-04 -6.20910898e-03 -1.76957599e-03 3.57627450e-03 1.32836234e-02 -1.81915183e-02 -4.14835801e-03 2.33677700e-02 -9.38567985e-03 3.57410754e-04 -2.23454777e-02 1.80541370e-02 1.70001779e-02 5.02356328e-03 7.00743962e-03 -1.18700629e-02 2.16828175e-02 -2.76863156e-03 9.41960327e-03 7.34898867e-03 -2.09306721e-02 -1.50016537e-02 -1.04395403e-02 -2.36795377e-02 -1.18006384e-02 -1.06315380e-02 9.47767217e-03 2.60762051e-02 -1.79523844e-02 1.33421523e-02 -2.09408253e-02 4.68245242e-03 7.77239213e-03 1.28921075e-02 -7.28457840e-03 2.17326991e-02 2.72766757e-03 1.42304311e-02 1.18549382e-02 1.61699299e-02 8.18383787e-03 4.75639431e-03 2.02589133e-03 -2.48369686e-02 -2.00454481e-02 1.33762443e-02 1.74254435e-03 2.36015841e-02 2.29018535e-02 5.06420014e-03 -7.02737644e-03 -6.62247417e-03 2.95523629e-02 -5.11025824e-03 -2.06405763e-03 -1.55035406e-02 1.43394722e-02 1.45131527e-02 4.13909834e-03 5.58436336e-03 2.04565227e-02 9.30427946e-03 -3.58547340e-03 1.63750071e-02 -1.56104816e-02 -2.64104642e-02 5.61567396e-03 -9.55939777e-06 -1.66814327e-02
-7.88141228e-03 -2.76644919e-02 3.77567206e-03 -2.71365978e-02 -2.61927042e-02 2.18361057e-02 1.24154640e-02 -1.33609194e-02 -7.15318229e-03 -3.72724584e-03 6.05207961e-03 3.46481171e-03 -1.19350292e-02 -3.25828936e-04 -1.57036632e-02 7.82181567e-04 6.58481056e-03 4.36001224e-03 -7.33466353e-03 -5.96723240e-03 1.83639582e-02 3.98022123e-03 6.03705237e-04 -4.92273085e-03 8.73696804e-03 1.94655042e-02 -2.09448189e-02 2.05302425e-03 1.71824638e-02 6.39496793e-05 -5.74774994e-03 7.58701563e-03 -1.05845220e-02 -2.19421517e-02 -1.35112181e-02 -2.54434980e-02 -1.07288891e-02 2.55800150e-02 2.18780767e-02 -1.40872309e-02 5.85885020e-03 1.30873267e-02 -8.20751954e-03 -4.18527797e-03 2.30771918e-02 2.57354211e-02 1.82922296e-02 1.12263439e-02 1.10232532e-02 -6.51639747e-03 -1.11539196e-02 -1.36945853e-02 -9.42786504e-03 -2.22891150e-03 1.14876386e-02 -4.79248352e-03 2.99264044e-02 -1.84452105e-02 1.87789481e-02 2.49348208e-02 1.94472298e-02 -6.22087717e-03 -2.67868266e-02 1.86255928e-02 -9.87880863e-04 -6.85413182e-03 -5.06334705e-03 4.93650464e-03 1.23924101e-02 -3.74452700e-03 -2.22503114e-02 -8.83462932e-03 -6.60313014e-03 -1.45431487e-02 -1.61839630e-02 -1.04288361e-03 2.36664573e-03 1.84574686e-02 6.39681052e-03 7.09610479e-03 -1.22811995e-03 -4.87261498e-03 -7.83974421e-04 -6.94928691e-04 -1.87045839e-02 1.38886739e-03 -5.29336883e-03 -1.84641182e-02 -1.50055550e-02 -1.56140970e-02 1.54005215e-02 1.15613351e-04 6.71843439e-03 -3.74621875e-03 -8.83757044e-03 4.14185552e-03 -1.43214390e-02 -1.48336898e-04 2.23005246e-02 1.26659218e-02 6.43557632e-06 2.36046943e-03 1.03376089e-02 -4.58102580e-03 1.35988360e-02 1.93244573e-02 5.61199803e-03 1.18364720e-02 -1.77399153e-04 1.04293926e-02 1.23888319e-02 -9.22763627e-03 1.45415431e-02 -9.72638000e-03 -5.33033453e-05 1.16706938e-02 1.80270784e-02 6.01895154e-03 9.87151545e-03 3.12175159e-03 5.21418406e-03 8.73440783e-03 4.11583157e-03 -1.21236956e-02 -2.70959083e-03 1.59047940e-03 -1.13659967e-02 -1.60786079e-03 1.20787155e-02 -1.59849729e-02 1.71559993e-02 -2.31661648e-02 4.80088312e-03 -8.11729208e-03 -3.74891539e-03 1.63115226e-02 -2.20835172e-02 1.90816633e-02 1.47508336e-02 2.44031493e-02 1.52628617e-02 -3.76971345e-03 -1.75335687e-02 1.72446053e-02 5.59730642e-03 2.81907059e-03 5.81893185e-03 -6.35710312e-03 9.77693405e-03 1.48653984e-02 7.37782754e-03 7.57871754e-03 7.41201080e-03 1.36927329e-02 5.84820239e-03 2.04701219e-02 -8.57147388e-03 1.50819058e-02 -4.82062809e-03 -6.36341167e-04 6.42614812e-03 9.81514528e-03 3.59903113e-03 5.48188388e-03 2.43577291e-04 -2.57928437e-03 3.08308727e-03 -8.43327492e-03 1.54629005e-02 2.10644002e-03 1.42903160e-02 -3.12866159e-02 -7.87147880e-03 -2.13819146e-02 1.88872572e-02 -2.33519939e-03 -8.91173782e-04 1.57958902e-02 3.00665223e-03 1.41304526e-02 2.79707671e-03 -4.91332402e-03 8.60497355e-03 1.50754885e-03 2.80714431e-03 5.05737262e-03 4.59807599e-03 -4.50951606e-03 -8.36787838e-03 1.39615489e-02 -3.15298536e-03 8.00738856e-03 -1.56501569e-02 -6.64731022e-03 2.62905490e-02 -1.36460448e-02 1.87198240e-02 -1.00176074e-02 1.60843711e-02 7.56989792e-03 -1.11504076e-02 1.47977415e-02 4.55916114e-03 2.47455034e-02 1.38601111e-02 -1.34588517e-02 -5.82933007e-03 -1.84334107e-02 -1.92605909e-02 -4.09790082e-03 -2.27882694e-02 -8.15375987e-03 -1.89576652e-02 6.63042162e-03 1.15728853e-02 -4.18742374e-03 2.15750597e-02 -2.01759990e-02 2.85044387e-02 1.98154263e-02 1.21458340e-02 7.08975364e-03 1.68433581e-02 -6.98745158e-03 3.90777551e-03 9.91625339e-03 2.33476665e-02 1.02841472e-02 -1.77374016e-02 2.57113334e-02 -1.72882304e-02 -1.43756168e-02 1.40850730e-02 2.48243175e-02 1.34815089e-02 2.19904184e-02 -8.52623116e-03 -4.18597134e-03 -2.05579251e-02 2.19246466e-02 1.62324067e-02 6.95572759e-04 -1.75684039e-02 -2.87012593e-03 5.11939754e-04 9.97556932e-03 6.73365939e-05 3.55018210e-03 6.42375322e-03 -1.17116496e-02 1.98348202e-02 -8.37956462e-03 -1.45112900e-02 2.30579935e-02 -2.41199117e-02 -9.07430518e-03
-7.33698998e-03 -3.05274110e-02 2.42557544e-02 -7.69027136e-03 -2.76035238e-02 2.24372149e-02 9.11511108e-03 -1.37758441e-02 -8.68665986e-03 -7.59690907e-03 1.99776124e-02 1.63879506e-02 -1.44428259e-03 1.14761125e-02 -1.12752747e-02 -1.25970105e-02 -1.11457566e-03 3.46057955e-03 -5.26682101e-03 8.47878036e-05 1.24291368e-02 1.19402949e-02 -1.87399928e-02 1.30149638e-02 1.91393010e-02 1.56475734e-02 -1.01496838e-02 6.41116826e-03 2.40624472e-02 -2.34375205e-02 -4.73250775e-03 3.26778856e-03 -2.21499112e-02 -1.90767664e-02 -1.91400908e-02 -8.18007812e-03 -1.90907400e-02 2.63801888e-02 1.93905253e-02 -6.45715045e-03 5.21457521e-03 8.60889163e-03 -1.61945205e-02 -5.03072934e-03 4.53916378e-03 9.93056409e-03 6.10586582e-03 2.22626328e-02 4.29775612e-03 -1.55519294e-02 -1.59220397e-02 -2.48220633e-03 -1.71194170e-02 -1.70896370e-02 -2.93589453e-03 3.79607384e-03 2.65051890e-02 -1.52126160e-02 2.30825506e-02 1.28751006e-02 1.93327833e-02 -8.60680640e-03 -1.51087120e-02 2.10191235e-02 2.72519467e-03 6.04297221e-03 1.12658588e-03 2.90941517e-03 6.66650012e-04 -2.07638107e-02 -1.11515922e-02 9.92041733e-03 -2.28692386e-02 -3.89828719e-03 -2.27295943e-02 -2.37142015e-02 2.15426311e-02 6.77803671e-03 1.98825654e-02 1.50558585e-02 3.71625903e-03 -2.41460595e-02 -1.48404650e-02 -2.55216639e-02 -1.69778373e-02 -1.97083270e-03 -1.49806147e-03 -1.87835786e-02 -2.32422929e-02 -1.49411485e-02 1.64241772e-02 -2.30049212e-02 -5.49420947e-03 -1.63381696e-02 -1.42147057e-02 2.34228726e-02 -7.44219916e-03 1.66061837e-02 9.43313912e-03 2.53293701e-02 1.97442505e-03 2.02183127e-02 1.72632206e-02 -2.51396187e-02 1.84211209e-02 1.82211604e-02 2.59914212e-02 2.38317121e-02 -2.39357278e-02 4.96154372e-03 4.02446231e-03 -1.45823844e-02 2.30674203e-02 -1.04198521e-02 7.13219447e-03 5.34855761e-03 1.53224710e-02 1.23653654e-02 1.06198154e-02 6.28243154e-03 1.44060617e-02 1.58837382e-02 2.45650932e-02 -9.44681931e-03 -8.01998563e-03 2.28353497e-02 -2.00793501e-02 -1.67265336e-03 2.22606696e-02 -2.20143329e-02 1.28585435e-02 -1.45479888e-02 1.18089076e-02 -7.38260942e-03 8.63243639e-03 1.55026764e-02 -8.66679009e-03 2.13036705e-02 4.72396007e-03 1.86055265e-02 7.13173999e-03 -1.54857915e-02 -7.01122452e-03 9.62881837e-03 -1.22797620e-02 7.83603825e-03 1.10025909e-02 -1.64105445e-02 4.92090918e-03 1.91034060e-02 2.39919964e-03 1.90914273e-02 -9.66372062e-03 9.62760672e-03 -1.67349493e-03 2.11700201e-02 3.86924134e-03 3.24683590e-03 5.91958035e-03 -4.28737514e-03 1.90611389e-02 1.75875705e-02 -2.38217809e-03 -1.22288021e-03 6.04741462e-03 -5.31549007e-03 -1.29639786e-02 8.69461743e-04 1.80267859e-02 2.64802743e-02 1.83908883e-02 -1.65409911e-02 -1.36196576e-02 -1.20514454e-02 1.04218153e-02 -1.74959693e-02 -1.16685294e-02 1.59376804e-02 6.36753568e-04 3.71665601e-03 -2.01675277e-02 -2.21508965e-02 -1.09617109e-03 -5.14312927e-03 -1.78196393e-02 1.50530727e-03 -2.35683122e-03 2.36500595e-02 -1.54448841e-02 1.60898045e-02 4.34106402e-03 1.09670986e-03 -1.36239314e-02 -1.07237408e-02 3.97407031e-03 -1.87073350e-02 2.14683842e-02 -1.59388129e-02 1.15938960e-02 2.88651045e-02 -1.94281861e-02 1.90605491e-03 9.17557627e-04 7.19107315e-03 1.83167942e-02 -2.18826886e-02 -1.06324535e-03 -2.00707596e-02 -2.97478475e-02 -1.73276365e-02 -1.86838210e-02 -1.92297753e-02 -2.38755811e-02 3.01379543e-02 2.30287015e-02 -1.35003394e-02 9.51720495e-03 -2.97411513e-02 1.65436976e-02 1.14465766e-02 1.17105749e-02 1.57903004e-02 9.16516222e-03 -2.03151200e-02 1.35427341e-02 2.69777887e-02 2.02336032e-02 2.43762694e-02 -3.73276160e-03 2.09678095e-02 -2.30563059e-02 -1.06598698e-02 6.67542778e-03 1.23055801e-02 5.47531666e-03 5.71443932e-03 -1.25650261e-02 -2.56318096e-02 -9.24663525e-03 1.03020808e-02 1.76259466e-02 1.21756662e-02 -1.41674243e-02 2.01780740e-02 -8.42185225e-03 1.86176617e-02 1.75322266e-03 1.62766818e-02 2.32013874e-02 -1.60764456e-02 1.44668575e-02 -1.39461700e-02 -2.35173255e-02 1.93775147e-02 -2.15115808e-02 -5.83649566e-03
