-1.78508665e-02 -2.01588776e-02 6.91679912e-03 -2.34665480e-02 -1.02800298e-02 2.08978504e-02 2.20132526e-02 -1.99396051e-02 -5.22135757e-03 -1.87166482e-02 8.44534673e-03 1.69061553e-02 9.64651071e-03 -8.84319004e-03 1.72380719e-03 -9.40000173e-03 1.19519662e-02 2.06406526e-02 -8.53118859e-03 2.17146357e-03 1.70952491e-02 -1.21948496e-03 -9.85757355e-03 1.66270533e-03 8.39776918e-03 8.62598792e-03 -1.49332816e-02 1.16046192e-02 -3.48148099e-03 -1.06506282e-02 -1.16870049e-02 5.83470846e-03 -1.50204105e-02 -1.88100506e-02 -1.22623285e-02 -1.90453995e-02 -1.69040393e-02 4.34760097e-03 2.58840378e-02 -1.37263564e-02 7.10240973e-04 8.89896881e-03 -1.43496981e-02 4.71024727e-03 1.51424790e-02 1.55179333e-02 3.52403289e-03 -4.86838326e-05 1.16476661e-03 -1.37124229e-02 -1.03887515e-02 7.93415494e-03 -1.35710090e-02 -1.52504281e-03 8.55392404e-03 5.98058919e-04 8.76564346e-03 -4.00522910e-03 1.48594351e-02 1.15371644e-02 2.08982620e-02 -2.59470660e-02 -2.74548791e-02 1.90611891e-02 6.16726698e-03 1.65929962e-02 7.16421381e-03 7.03346869e-03 5.84702427e-03 2.12920783e-03 -1.48328887e-02 -1.05430884e-02 5.54649159e-03 -1.98141467e-02 -1.83385483e-03 -5.78314206e-03 9.01242529e-05 2.21905322e-03 -3.35153728e-03 1.48796020e-02 5.40449470e-03 -6.31488673e-03 1.21578528e-03 -1.34544270e-02 1.24177395e-03 3.12560890e-03 -1.28005240e-02 -1.78676806e-02 -1.52019616e-02 -7.80580379e-03 1.84331797e-02 -1.24676367e-02 5.47166541e-03 9.37999430e-05 -1.18820006e-02 7.77813466e-03 -1.06167970e-02 1.23947011e-02 3.24424147e-03 1.78007758e-03 1.46221049e-04 4.42344556e-03 2.42384383e-03 -8.68625753e-03 8.12096708e-03 8.71740654e-03 -7.29944697e-03 1.88432075e-03 -1.37564288e-02 1.31225763e-02 5.76567138e-03 -1.57416295e-02 1.05556846e-03 1.01914145e-02 1.18836351e-02 9.76199657e-03 1.59865338e-02 8.54372140e-03 1.43366149e-02 -2.00860202e-03 -4.37160442e-03 -6.22037842e-05 1.97332427e-02 -2.26663221e-02 -1.02033205e-02 3.98638425e-03 -1.26781901e-02 6.65325904e-03 1.06444722e-02 -2.06383169e-02 1.67731103e-03 -7.05184182e-03 1.40971569e-02 2.15110194e-04 5.77497203e-03 2.12529376e-02 -1.51386447e-02 5.82540734e-03 1.02157018e-03 1.51190336e-03 1.32119944e-02 -8.49516504e-03 -2.94179423e-03 7.23493285e-03 -1.27240820e-02 1.88969374e-02 2.74041621e-03 1.32205039e-02 2.98244553e-03 1.43878171e-02 -6.53934199e-04 2.13028910e-03 2.44692457e-03 8.37451499e-03 1.24678137e-02 2.59320904e-03 4.57721646e-04 5.07583050e-03 1.86554678e-02 -1.68212242e-02 -2.09640339e-03 2.36521312e-03 1.48304319e-02 3.78601300e-03 -2.98272236e-04 -1.02820750e-02 -1.52964760e-02 -7.48936785e-04 5.23039419e-03 1.38434274e-02 2.25604102e-02 -7.50636728e-03 -1.51924361e-02 -2.04388704e-02 1.20637733e-02 -2.18673944e-02 -7.22877169e-03 1.73305236e-02 1.14147970e-02 -3.67967179e-03 1.31909514e-03 3.32928007e-03 5.23529539e-04 1.28987862e-03 -9.79489554e-03 2.03820667e-03 -2.13438901e-03 -8.35435651e-03 8.91314261e-03 1.14513831e-02 1.49815241e-02 1.49762267e-02 -1.14541901e-02 -1.13093527e-02 2.33950913e-02 -1.63501929e-02 -6.75629592e-04 -1.65800806e-02 2.59960387e-02 1.74962617e-02 -3.60947452e-03 -6.93756202e-03 -1.10542355e-02 9.91514302e-04 1.61676537e-02 7.50920596e-03 8.84960312e-03 -8.14694259e-03 -1.56356562e-02 -2.40620915e-02 -5.32346871e-03 -9.79259983e-03 -1.03718610e-02 1.85192470e-02 2.13999022e-02 -1.56514328e-02 9.29637253e-03 -7.36651244e-04 7.39050331e-04 1.79802869e-02 1.99296884e-02 9.83572099e-03 1.93212423e-02 -3.77966021e-03 1.23607209e-02 7.89929368e-03 1.52888410e-02 5.45610208e-03 -4.59336769e-03 1.57728195e-02 -2.87995930e-03 -2.45632492e-02 1.38021624e-02 1.09746009e-02 8.06188304e-03 1.88137703e-02 -2.50013079e-03 -9.92158335e-03 -1.17503777e-02 1.59655288e-02 -9.50520486e-03 1.32780774e-02 -6.43238658e-03 -3.58488946e-03 4.97294031e-03 1.00262295e-02 -4.64485120e-03 -2.93990038e-03 9.82091483e-03 -1.18013611e-02 1.64192449e-02 -2.43632752e-03 -1.05928378e-02 5.83237270e-03 -1.55891478e-02 -9.37457662e-03
-1.56683195e-02 -1.29689062e-02 1.47356244e-03 -6.71824906e-03 -9.00050800e-04 1.80112924e-02 1.80987045e-02 -1.36168525e-02 -2.33252812e-03 1.85186835e-03 4.56040679e-03 1.57171618e-02 5.72080491e-03 1.30315823e-02 1.73188723e-03 -6.75820932e-03 1.75086840e-04 2.93355063e-03 9.64874052e-04 6.94152899e-03 -8.91327218e-04 5.06999623e-03 -6.25567557e-03 -4.76709148e-03 4.57012560e-03 5.98886702e-03 5.19180612e-04 1.63493957e-02 4.93437983e-03 -1.51767144e-02 -8.06901231e-03 3.81700671e-03 -1.07479421e-03 -1.71708222e-02 -1.72529705e-02 -1.10915573e-02 -1.71735268e-02 1.45885292e-02 1.83687601e-02 -2.00419165e-02 4.38293070e-03 9.01479367e-03 2.77908202e-05 -8.62838142e-03 1.03151181e-03 5.71032846e-03 4.13774140e-03 1.37721486e-02 -1.86616136e-03 -5.22505399e-03 -9.78430919e-03 -7.55765149e-03 7.54810963e-03 2.48928880e-03 -5.25037711e-03 -1.50180943e-02 1.23543078e-02 -2.19367072e-02 1.25477929e-02 1.20784706e-02 1.62224807e-02 -7.60785071e-03 -1.24038020e-02 4.20122594e-03 1.28456177e-02 7.52187194e-03 3.17049818e-03 -1.23730078e-02 1.57300849e-02 -3.82556207e-03 6.74194249e-04 -3.85317905e-03 6.29993575e-03 -7.26102851e-04 -1.37664229e-02 -3.04634706e-03 7.55107962e-03 1.32579906e-02 2.45131226e-03 9.98182502e-03 9.70676262e-03 -1.81955900e-02 -4.73063719e-03 -1.82808805e-02 -6.28931681e-03 -4.03119717e-03 -1.26341647e-02 -1.30690234e-02 -1.01779252e-02 -1.02774147e-02 2.71547609e-03 5.34669124e-03 1.59844588e-02 2.17873533e-03 7.84798805e-03 -4.95970994e-03 -2.18124688e-03 6.76557608e-03 1.61493141e-02 1.05322814e-02 8.48483574e-03 1.97031945e-02 -8.03579856e-03 7.41381664e-03 -5.87187335e-03 -1.03343092e-02 1.69097316e-02 8.27836897e-03 1.32958277e-03 -1.09058982e-02 1.22604296e-02 2.59997835e-03 7.62124080e-03 2.98465975e-03 -3.61420354e-03 -1.51313818e-03 8.27280339e-03 -6.65176054e-03 1.43665643e-02 1.51872830e-02 7.53446342e-03 1.54357245e-02 9.82132182e-03 -1.53666614e-02 -5.02453838e-03 8.98128655e-03 -1.55719155e-02 -1.45761864e-02 1.20242145e-02 4.11193585e-03 2.73729837e-03 7.94315129e-05 1.35827418e-02 -1.58172729e-03 1.28524974e-02 2.48360261e-02 -1.55434590e-02 5.49302110e-03 1.33057032e-02 3.22002103e-03 1.56894419e-02 -2.05249479e-03 -1.44926179e-03 1.03407977e-02 -5.17373253e-03 -4.50209621e-03 7.41164340e-03 -1.25986999e-02 3.60457506e-03 -8.09803419e-03 -2.84145027e-03 -4.84497566e-03 2.45296420e-03 2.24044584e-02 -1.45867663e-02 4.69110161e-03 -9.00424179e-03 1.34757650e-03 -3.76657373e-03 -2.07764516e-03 6.87517924e-03 1.30345859e-03 -3.93785955e-03 -9.27096885e-03 -1.32371699e-02 4.74667962e-04 1.05433559e-04 9.23730526e-03 -3.81152116e-04 1.81601774e-02 5.39667485e-03 -1.78580638e-02 -8.74374248e-03 -1.89883299e-02 5.17723989e-03 -1.84925348e-02 9.45818424e-03 1.38050904e-02 9.51235555e-03 -8.24796327e-04 2.20033550e-03 2.98042339e-03 4.89077065e-03 -7.44648511e-03 -3.33664496e-03 2.56015826e-03 3.39000183e-03 -5.75190177e-03 1.11631462e-02 -1.07894177e-02 -5.10011858e-04 7.41768396e-03 -1.17791174e-02 -6.56856503e-03 1.10396324e-02 -9.00104921e-03 1.38902860e-02 -1.06175868e-02 1.99728813e-02 1.16493125e-02 1.03540327e-02 5.51017793e-03 3.25349765e-03 1.76517311e-02 1.24423690e-02 -5.78457303e-03 1.03274928e-02 2.86740856e-03 -1.25157163e-02 -1.88445356e-02 -3.90775595e-03 -6.13626093e-03 -5.73360035e-03 1.02987979e-02 2.12297048e-02 -5.72545640e-03 -8.24698363e-04 -2.07978841e-02 2.62931995e-02 -4.40155389e-03 -1.69650686e-03 -4.09255316e-03 -1.48821506e-03 1.18620237e-02 -4.50957008e-03 5.89227770e-03 1.14026023e-02 4.24781535e-03 -1.06188410e-03 8.03645886e-03 2.24634912e-03 -8.28755740e-03 -1.15842209e-03 1.50318025e-02 6.16515893e-03 1.39990766e-02 5.22374362e-03 3.38701252e-03 -1.67151336e-02 1.31530100e-02 7.27127912e-03 3.92880989e-03 -1.58495810e-02 6.36595348e-03 6.86377799e-03 -4.23177611e-03 -8.76161736e-03 2.27502373e-04 -6.76768832e-04 1.95440440e-03 3.20084393e-03 -1.01697845e-02 -1.68979838e-02 -1.81614640e-04 -1.43318931e-02 -4.31217300e-03
5.05447201e-03 9.75090358e-03 1.77128543e-03 -3.83036037e-04 1.00822439e-02 -7.85540603e-03 -9.04196408e-03 1.39287896e-02 1.46353394e-02 -8.11792351e-03 -2.28675269e-02 -8.07936396e-03 -1.83680002e-02 -1.29664326e-02 1.02035161e-02 1.93300713e-02 3.04709449e-02 -7.86652118e-02 5.15981689e-02 4.78312448e-02 -6.87373057e-02 -7.76979402e-02 1.98634509e-02 -3.04905716e-02 2.25402657e-02 -1.19779631e-02 -1.85314361e-02 6.63036481e-03 7.36374175e-04 -8.11306685e-02 1.72801432e-03 3.74268694e-03 -1.10344980e-02 -1.80396270e-02 -3.99749577e-02 -2.10708398e-02 -1.26706818e-02 3.76023874e-02 -3.33003001e-03 -5.46013638e-02 -2.24247295e-02 1.29518611e-02 3.86466878e-03 3.41368793e-03 -3.36961336e-02 -2.28617731e-02 -2.40276437e-02 -2.11232211e-02 -1.41087249e-02 -5.61297126e-03 3.09512112e-02 9.45783965e-03 -1.33252833e-02 4.73321229e-03 -1.11953104e-02 -1.97268352e-02 -4.03070711e-02 4.25315909e-02 -4.60340902e-02 -1.86925363e-02 -4.82792519e-02 6.53100088e-02 2.98915915e-02 -5.49390763e-02 2.57508960e-02 -4.47693579e-02 6.70047253e-02 2.11442467e-02 -2.64537074e-02 4.21169885e-02 5.36065027e-02 1.13883866e-02 -1.90855920e-01 -1.32622451e-01 -1.64701432e-01 -1.44638762e-01 2.01127157e-01 9.58179086e-02 1.83042467e-01 1.37676567e-01 -7.03737587e-02 1.36510119e-01 3.46545614e-02 4.80309948e-02 5.26239723e-02 5.91969602e-02 -7.68002644e-02 5.51089309e-02 2.71443147e-02 1.00586921e-01 1.82712730e-02 5.64152338e-02 -2.26140656e-02 1.31844115e-02 4.23852764e-02 -4.74085361e-02 -2.29584221e-02 -2.01211753e-03 -2.90895835e-03 -2.87491195e-02 -1.08326636e-02 2.95711085e-02 5.61435521e-02 1.55884828e-02 -3.19183394e-02 8.24685302e-03 -2.24125348e-02 2.87688877e-02 -1.77147135e-03 1.21037681e-02 3.68471234e-03 3.10223680e-02 2.01157667e-02 -2.28724424e-02 1.13315061e-02 -1.54766822e-02 -7.69030442e-03 3.48005816e-02 1.84310004e-02 -3.96936852e-03 -2.55887280e-03 6.51254971e-03 -1.19952997e-02 7.46832928e-03 7.78222131e-03 -3.07829678e-02 1.29228923e-03 2.79698428e-02 2.05453523e-02 -4.00876589e-02 1.18317224e-01 -4.49996479e-02 8.19707215e-02 -4.67313342e-02 4.69120815e-02 2.74510346e-02 -2.98914071e-02 6.64035007e-02 8.13645720e-02 1.48863867e-01 -7.51135824e-03 -7.87181258e-02 -1.04659989e-01 1.81922205e-02 -1.22815901e-02 2.04254873e-03 4.55298368e-03 -6.74817245e-03 5.04271546e-03 -1.36503149e-02 9.08288453e-03 1.19374441e-02 2.93151796e-04 -1.96776446e-02 6.58912165e-03 1.09421676e-02 2.18073750e-04 3.65971844e-03 5.01821889e-03 -1.03474725e-02 6.02575857e-03 2.51550786e-02 9.82465409e-03 1.51533941e-02 -6.43643737e-03 1.02561701e-03 -2.75366120e-02 2.52845604e-02 3.49186808e-02 8.45874473e-03 1.94940325e-02 -1.04028927e-02 1.86273840e-03 -3.54157314e-02 3.93699063e-03 -9.87012126e-03 5.42624705e-02 -5.45597114e-02 6.75379485e-02 -3.91272120e-02 2.59716120e-02 5.46588190e-02 -2.60163713e-02 3.37826535e-02 2.95376964e-02 -4.13413048e-02 3.77852023e-02 -3.53779271e-02 -3.62412296e-02 -1.38543528e-02 -4.61397544e-02 -2.67160144e-02 -3.23036127e-02 -4.89611365e-02 3.11782602e-02 -2.08026282e-02 1.95428394e-02 -3.02382372e-02 1.95864923e-02 1.56231001e-02 3.75774428e-02 -1.67726707e-02 2.50253938e-02 -5.13375476e-02 -4.23063710e-02 7.03275297e-03 1.01392800e-02 4.33794744e-02 -2.10708827e-02 3.21616023e-03 -1.13327280e-02 -5.16364425e-02 -1.75348762e-02 5.50192483e-02 3.43709392e-03 -1.71437562e-02 -5.80943524e-05 3.37899849e-02 -1.09719755e-02 9.31224134e-03 1.76248941e-04 3.94638488e-03 -8.35463312e-03 -1.66898649e-02 5.44400029e-02 2.37306096e-02 9.75346938e-02 2.29429062e-02 -2.11136788e-01 1.71991169e-01 -2.91482285e-02 -5.87735064e-02 2.42659952e-02 3.63738388e-02 3.72617282e-02 4.52250391e-02 -5.36173098e-02 -6.21704422e-02 7.98091292e-03 3.06754317e-02 1.78522877e-02 -1.95938684e-02 4.01133597e-02 -7.31327478e-03 -3.60102952e-02 3.27925012e-02 -4.23315354e-03 -2.26175971e-02 -1.27263069e-02 -9.67504270e-03 -1.17100810e-03 -2.43861675e-02 -1.41175268e-02 -5.93527826e-03 -5.40902391e-02 -2.46850867e-02
-2.65899152e-02 -1.24045182e-02 9.37996618e-03 -4.99563431e-03 -2.59787273e-02 1.42756719e-02 1.17857726e-02 -1.53686125e-02 -9.52938385e-03 -3.46480194e-03 3.89882061e-03 1.29335318e-02 -2.41816845e-02 1.25193279e-02 -8.62030871e-03 -2.34051999e-02 -9.58581004e-05 -8.93574674e-03 -1.82235651e-02 -1.26567436e-02 2.40122154e-03 -3.01041378e-04 -8.00368376e-03 3.83586274e-03 6.02687197e-03 5.89097571e-03 -1.20547581e-02 1.36307571e-02 1.73749086e-02 -1.29754720e-02 -1.00055030e-02 2.04139296e-02 -1.18443351e-02 -1.04766730e-02 -1.37568628e-02 -1.70404799e-02 -2.02813670e-02 4.75654751e-03 1.64540261e-02 -1.57775581e-02 5.69336489e-03 2.35953219e-02 -1.49478884e-02 -2.55995300e-02 1.84606630e-02 1.79575775e-02 1.41364532e-02 2.08809432e-02 8.23172275e-03 -8.28698836e-03 -1.38402870e-02 -9.64569859e-03 -1.30550051e-02 -1.13014202e-03 -2.75972765e-03 1.08353598e-02 1.06844502e-02 -1.90123729e-02 2.08101217e-02 9.33186803e-03 2.09191348e-02 -2.53902208e-02 -2.35486943e-02 1.44618507e-02 -1.47669120e-02 8.02149065e-03 1.23347575e-02 -1.95670640e-03 1.33594461e-02 -3.54149868e-03 -1.77227501e-02 -6.24320284e-03 -3.39925732e-03 -1.02748359e-02 -1.96264461e-02 -2.11592689e-02 6.85114460e-03 2.15853993e-02 4.60511027e-03 8.68418626e-03 3.56433564e-03 -2.06927042e-02 -1.39883033e-03 -1.11517580e-02 -2.98386510e-03 -2.92095728e-03 -2.56258936e-04 -6.15072437e-03 -1.19218202e-02 -2.00256854e-02 1.24106240e-02 -1.10248215e-02 -4.34261805e-04 -1.23419249e-02 -1.51291052e-02 1.62385758e-02 -1.92533422e-03 1.79136544e-02 4.66990471e-03 1.73819927e-03 1.36552816e-02 2.46270094e-02 2.29179524e-02 -5.38814859e-03 1.19216824e-02 4.47600987e-03 1.38359591e-02 1.76847577e-02 -1.66477845e-03 5.89974318e-03 1.17150759e-02 -5.90505032e-03 1.38317384e-02 -4.13486175e-03 1.31310094e-02 4.83003445e-03 3.24357231e-03 1.05228182e-02 2.39489763e-03 4.38532559e-03 9.20753088e-03 6.23168657e-03 1.69394482e-02 -1.32878842e-02 -5.12959110e-03 1.36723686e-02 -1.96878202e-02 -1.50216036e-02 2.39305049e-02 -1.38710132e-02 2.40464807e-02 -1.85514204e-02 2.32105087e-02 -1.37568377e-02 2.07872167e-02 2.84881070e-02 -2.46938411e-02 1.66443605e-02 1.58980098e-02 2.88730394e-02 3.02265417e-02 -2.25000586e-02 -2.16311570e-02 1.20971026e-02 -7.09176203e-03 9.30017233e-03 3.38844303e-03 -2.67778076e-02 4.36798576e-03 1.01607861e-02 4.58360789e-03 5.81087777e-03 1.37736346e-03 2.73587741e-02 1.76274322e-03 1.41047994e-02 -4.67971480e-03 2.09574886e-02 5.47811482e-03 -1.22832023e-02 1.38317272e-02 1.60644781e-02 -6.85404812e-04 -5.33701759e-03 1.51040591e-02 -2.29830691e-03 -8.05909373e-03 -6.96975039e-03 1.44368177e-02 3.92515818e-03 6.79815700e-03 -1.81050319e-02 -2.74990983e-02 -1.05402898e-02 2.95747002e-03 -1.02108503e-02 -1.90691184e-02 1.81440562e-02 -1.13662938e-02 4.32262896e-03 2.93518719e-03 -7.27399194e-04 -3.41422064e-03 -1.76803563e-02 -1.78890433e-02 1.39796035e-02 -2.06956733e-03 1.30904093e-02 -6.57072058e-03 5.68579417e-03 1.24767339e-02 5.49860112e-03 -1.65939312e-02 -1.75614208e-02 9.06959362e-03 -1.75400507e-02 1.57043636e-02 -2.76760496e-02 2.71582343e-02 8.82378407e-03 -2.03499645e-02 2.16447599e-02 -1.91208106e-02 2.68210620e-02 7.14518270e-03 -1.70477107e-02 -7.92089291e-03 -1.00279870e-02 -1.03140520e-02 -3.56025551e-03 -2.15466898e-02 -1.71716269e-02 -7.95494299e-03 2.18019336e-02 2.64695380e-02 -1.37381796e-02 2.00037770e-02 -1.51173100e-02 2.15897374e-02 1.86161958e-02 3.78862198e-04 1.96360778e-02 5.32855556e-05 1.78274570e-03 3.09601007e-03 2.73079406e-02 6.70803245e-03 6.64360402e-03 -1.28222117e-02 2.82180309e-02 -2.13444103e-02 -1.12550380e-02 8.47376511e-03 2.31819246e-02 1.74491219e-02 1.22740883e-02 -5.06367581e-03 -1.31373983e-02 -1.49389831e-02 8.12438596e-03 4.42725327e-03 1.63565483e-02 -1.70543101e-02 1.91314891e-02 -1.27752579e-03 1.47249894e-02 -6.73758006e-03 1.42762670e-02 1.57744568e-02 -8.93688109e-03 1.41529655e-02 -1.94296148e-02 -1.30056962e-02 7.73105398e-03 -2.19363589e-02 -2.15047598e-02
-9.22955200e-03 -2.09024977e-02 1.90193504e-02 -2.29170062e-02 -1.47590702e-02 1.11831501e-02 2.55378429e-02 -2.64935531e-02 -1.07920021e-02 -1.08072255e-02 2.37897523e-02 6.72008982e-03 -1.14827342e-02 9.44803841e-03 -1.07204011e-02 -1.31400675e-02 -3.98500217e-03 -7.37896189e-04 -1.91991143e-02 -2.77556153e-03 2.31683999e-03 1.54691152e-02 -1.54050915e-02 8.46092030e-03 1.58507731e-02 2.25849357e-02 -1.50357848e-02 1.38336048e-02 3.72123346e-03 -2.04183478e-02 -2.46827304e-02 1.10845165e-02 -2.01143865e-02 -2.69530690e-03 -5.41609386e-03 -9.78106912e-03 -2.80182213e-02 2.06308924e-02 1.65389199e-02 -2.37185154e-02 3.52158817e-03 1.35601871e-03 -4.68032993e-03 -1.30490288e-02 2.25896239e-02 1.39552169e-02 2.32152678e-02 1.04641449e-02 1.57750659e-02 3.95317236e-03 -1.02086151e-02 -9.75881983e-03 2.87262723e-04 -1.11835422e-02 1.40487682e-02 6.15514442e-03 2.28144582e-02 -1.16191953e-02 1.23061026e-02 1.94364600e-02 2.78545003e-02 -1.92000829e-02 -8.23757891e-03 2.65052319e-02 -1.37689477e-02 1.87339485e-02 8.77451908e-04 1.70872523e-03 1.89791378e-02 -6.79841824e-03 -1.92331467e-02 1.67169981e-02 -8.12131353e-03 -2.45525911e-02 -2.11457834e-02 -1.21109346e-02 4.79263533e-03 2.96792109e-03 2.64151450e-02 7.68288132e-03 6.74523320e-03 -2.66849101e-02 -2.17982698e-02 -2.32898239e-02 -2.18714289e-02 2.90140929e-03 -6.26783073e-03 -1.39180594e-03 -9.47804283e-03 -1.34343058e-02 2.45578936e-03 -2.19720006e-02 6.44692825e-03 3.05309216e-03 -4.23086528e-03 2.19249371e-02 -2.07970105e-02 1.09042218e-02 1.87968798e-02 2.23036278e-02 6.28021453e-03 7.08866399e-03 1.09993191e-02 -1.09765437e-02 5.82398707e-03 6.44444907e-03 6.35251729e-03 -3.58197780e-04 -5.01287030e-03 -1.14752189e-03 1.09823572e-03 -1.63593683e-02 6.93160633e-04 -5.41826431e-03 2.09176950e-02 2.09758636e-02 8.54120683e-03 1.81775894e-02 5.94353909e-03 2.22379677e-02 1.69225931e-02 1.35847460e-02 3.06550926e-03 -1.99215468e-02 -1.61604062e-02 1.72245558e-02 -1.13728587e-02 -1.52616510e-02 1.36731667e-02 -1.00411009e-02 8.88939295e-03 -9.61629301e-03 1.30332839e-02 -9.30805318e-03 1.57295261e-02 1.76091734e-02 -2.77128723e-03 1.10273873e-02 2.53765080e-02 8.00222345e-03 1.25151621e-02 -1.16763953e-02 -1.34339659e-02 1.72790904e-02 -1.59167703e-02 5.08275302e-03 -3.54110001e-04 3.72134178e-04 6.54158648e-03 1.72879454e-02 1.52134942e-02 2.32140627e-03 -5.33355540e-03 2.22345144e-02 1.34002725e-02 7.13948812e-03 1.84834655e-02 1.69125199e-02 -1.02958526e-03 -1.44792972e-02 1.97436251e-02 -6.33080071e-03 1.75658371e-02 1.31009975e-02 9.95980483e-03 -9.63378698e-03 -1.93117782e-02 8.40433314e-03 1.81029867e-02 7.30957603e-03 2.49159448e-02 -1.50998393e-02 -2.86606941e-02 -1.43023990e-02 2.13085636e-02 -1.90048181e-02 -4.30488773e-03 1.03068110e-02 1.14183733e-02 2.71609495e-03 -1.94299184e-02 -1.73006579e-02 1.72093492e-02 -2.17185798e-03 -1.69045404e-02 7.92539027e-03 -3.26539809e-03 1.27036683e-02 5.51074184e-03 1.73032843e-02 -4.95306076e-03 7.17416732e-03 -3.85599094e-03 -1.11654568e-02 2.33813860e-02 -9.33663175e-03 2.53078211e-02 -2.30629798e-02 2.67224200e-02 5.58015751e-03 4.99921007e-05 1.86748393e-02 6.57211931e-04 4.02050558e-03 1.54129807e-02 -1.83465984e-02 -1.38460584e-02 -1.80913955e-02 -8.85826256e-03 -2.60346588e-02 -1.16699664e-02 -2.06940994e-02 -5.34522301e-03 1.82165280e-02 2.36287247e-02 -8.16961378e-03 1.73366722e-02 -3.20727900e-02 1.33040138e-02 2.78394646e-03 8.24187975e-03 1.57507006e-02 -6.79622986e-04 -1.22229587e-02 1.24369944e-02 1.86635721e-02 1.19007258e-02 1.42294979e-02 -8.68976954e-03 1.65341645e-02 -1.40747773e-02 -1.87710430e-02 3.39784659e-03 6.78426214e-03 1.64840911e-02 1.54377809e-02 -1.69056188e-02 -2.90518301e-03 -9.36096255e-03 1.13385124e-02 1.52651845e-02 2.73231138e-03 -1.60571635e-02 1.14827100e-02 6.53945189e-03 1.78353873e-03 -9.47747659e-03 2.17174888e-02 5.98100061e-03 -6.87237456e-03 2.36970317e-02 -2.62058955e-02 -3.83549370e-03 1.10627143e-02 -2.60120574e-02 -4.54273168e-03
7.25978380e-03 1.19946683e-02 2.53891037e-03 -9.96960700e-03 3.84826725e-03 1.01948874e-02 6.16802555e-03 7.33068958e-03 1.31184608e-03 1.33566456e-02 -9.68768075e-03 -1.05724614e-02 7.07490835e-03 7.17380457e-03 -3.33685486e-04 -3.78911314e-03 1.50941461e-02 1.01355566e-02 9.31944407e-04 8.64632675e-05 -1.24937277e-02 -3.62958387e-03 -4.05858178e-03 -1.00592216e-02 2.76318751e-03 5.18966420e-03 -4.39683301e-03 2.68361904e-03 -6.69036433e-03 1.17492117e-02 -1.39231235e-03 6.50244253e-03 2.78655626e-03 1.26956310e-02 7.09139393e-04 -8.91174749e-03 9.97654162e-03 -2.78899795e-03 9.01329238e-03 -9.58286785e-03 9.31559224e-03 -8.83728825e-03 2.71572173e-03 8.84563755e-03 3.17473523e-03 5.48531814e-03 9.34750121e-03 6.52747275e-03 -5.24348905e-03 -4.91920300e-03 6.00737473e-03 -5.07396273e-03 -1.08464598e-03 1.33468602e-02 1.14379972e-02 -2.78563076e-03 1.03158941e-02 -5.58545638e-04 2.17870879e-03 -5.47648920e-03 -3.79914301e-03 -2.94108293e-03 -4.04579984e-03 -6.14606543e-03 -3.02825752e-03 5.27430978e-03 6.71161385e-03 8.41887295e-03 -6.33030292e-03 2.86994339e-03 -3.54836672e-03 5.06693264e-03 -1.27641670e-03 4.81692189e-03 1.05739273e-02 4.66686767e-03 -4.53724293e-03 1.03567746e-02 -2.29599909e-03 -1.22761345e-02 2.17168010e-03 1.11207250e-03 -8.05834774e-03 -2.17688247e-03 -9.78015270e-03 3.63456924e-03 -1.04547422e-02 -1.15800062e-02 6.14211941e-03 -5.99927176e-03 5.53713937e-04 5.28343301e-03 8.20886996e-03 -8.92436248e-04 -3.28147493e-04 -1.30661186e-02 8.79629701e-03 -7.61986958e-05 -7.47163733e-03 9.70683806e-03 7.41833029e-03 6.80674007e-03 5.36456145e-03 9.31874570e-03 -4.92907362e-03 -1.27142798e-02 1.08552324e-02 3.29401897e-04 3.13286087e-03 -5.91060473e-03 6.48009079e-03 1.21082887e-02 -2.26634415e-03 2.74204928e-03 -1.05922762e-02 -1.02063129e-02 -1.21948663e-02 -7.60214217e-03 -9.29942168e-03 9.29701142e-03 -5.49853686e-03 -8.59428942e-03 -3.49288341e-03 -6.39616465e-03 1.36881424e-02 -7.64397252e-03 1.74848642e-03 6.08638208e-03 1.69306062e-03 1.17174201e-02 3.64807039e-03 1.14009403e-04 -1.03759272e-02 -1.06196366e-02 -2.80992640e-03 1.04500521e-02 -1.05311405e-02 -9.29513481e-03 7.46267335e-03 -8.48672539e-03 9.41029657e-03 -1.80055737e-03 -5.24375401e-03 -6.82617072e-03 -8.99515301e-03 -1.36403856e-03 -4.53179498e-04 9.70909558e-03 1.04953293e-02 -2.07979186e-03 -1.21048195e-02 -4.85324953e-03 1.08381710e-03 2.05959799e-03 -4.29474935e-03 -1.67205662e-03 -9.80514009e-03 9.88794863e-03 -2.37751240e-03 -5.87792788e-03 -9.04001109e-03 -8.00285954e-03 -6.34188205e-03 -3.42563889e-03 4.06910339e-03 -4.29650815e-03 -6.96796086e-03 -7.67926173e-03 6.17442979e-03 7.45601719e-03 -5.15633076e-03 -7.40608014e-03 1.16320774e-02 -6.72760536e-04 -1.00900866e-02 3.42817768e-03 1.97565695e-03 5.62253175e-03 -1.18108410e-02 1.04486067e-02 9.81752644e-04 -8.17044266e-03 2.10495651e-04 4.63347678e-04 5.08151774e-04 -3.50538990e-03 9.43810306e-03 4.20063222e-03 -2.04881490e-03 6.51586941e-03 -1.18417582e-02 -1.31450770e-02 -4.16340493e-03 -1.00408634e-03 -1.90951198e-03 8.95609241e-03 2.50531128e-03 5.52457897e-03 1.01843216e-02 1.45298545e-03 -9.55060124e-03 3.72161111e-03 -7.07434141e-04 -3.97790037e-03 9.87546286e-04 -5.46916097e-04 -1.08059645e-02 6.11537974e-03 -2.73609324e-03 -5.04644937e-04 -4.46271244e-03 -5.94042754e-03 5.48159610e-03 3.67432856e-03 5.78097627e-03 -6.66570198e-03 1.11542689e-02 -8.57283454e-03 -4.54520155e-03 -6.75296132e-03 -7.65509252e-03 1.05068658e-03 5.66768460e-03 -2.78975209e-03 -9.77699831e-03 2.11367384e-03 8.75333510e-03 -8.52639508e-03 1.89294107e-03 -4.60147019e-03 -9.80078708e-03 4.14691307e-03 -1.15797240e-02 -1.11854309e-02 -3.10651259e-03 -4.14863136e-03 6.38029212e-03 -8.06883443e-03 -1.08274333e-02 8.86843633e-03 1.45611470e-03 8.76690168e-03 -7.67604308e-03 -9.27072018e-03 -7.50402547e-03 3.85897141e-03 -5.81239955e-03 1.18165463e-02 -2.47472106e-03 2.57599074e-03 -1.17157015e-03 8.57072067e-04 5.28845051e-03 -8.94145574e-03 -2.31553172e-03 -2.26067868e-03
-2.59445235e-02 -7.62605201e-03 1.50406891e-02 -1.84260700e-02 -2.33614575e-02 1.18102394e-02 9.06225014e-03 -2.76327599e-02 -9.63461678e-03 -1.71768107e-02 2.39178576e-02 6.17911015e-03 -2.00983640e-02 2.09071133e-02 -2.00901777e-02 -2.64092605e-03 -2.46464908e-02 2.95807794e-03 -9.17758886e-03 -6.26282301e-03 2.18031276e-02 9.21337120e-03 -8.08301196e-03 8.60593840e-03 2.35788915e-02 1.49007700e-02 -5.19266631e-03 8.66501499e-03 2.05526911e-02 -1.64219383e-02 -9.93320718e-03 2.01467350e-02 -1.88065358e-02 -1.96071584e-02 -1.02513973e-02 -1.71042699e-02 -2.07744613e-02 8.40241462e-03 1.34068429e-02 -6.68732962e-03 4.76857601e-03 1.37255723e-02 -2.28853170e-02 -1.97996553e-02 8.51539336e-03 2.66416464e-02 4.17661807e-03 1.61181018e-02 1.41059719e-02 -1.29949655e-02 -1.64189767e-02 -1.34226233e-02 -8.16642400e-03 -5.82585111e-03 2.65116291e-03 1.47830043e-02 5.80742303e-03 -1.19673945e-02 1.15975644e-02 1.92513708e-02 1.17125586e-02 -1.43008120e-02 -1.55829424e-02 9.36788693e-03 -8.92728847e-03 8.90178420e-03 -1.25716859e-03 2.28892509e-02 7.50560872e-03 -4.89587197e-03 -1.97828449e-02 2.17430405e-02 -3.40029807e-03 -1.90545283e-02 -4.46168892e-03 -1.63257960e-02 3.13096726e-03 1.64011959e-02 1.42152496e-02 2.51569580e-02 2.57422845e-03 -1.53639512e-02 -1.59724560e-02 -1.90722644e-02 -1.82094816e-02 -1.79499073e-03 -1.00105978e-03 -1.96713340e-02 -2.51020561e-03 -7.70768151e-03 5.54711418e-03 -1.12755205e-02 -4.65958100e-03 -3.15725664e-03 -5.52149815e-03 1.49660623e-02 -1.62088517e-02 1.71384122e-02 1.80741493e-02 2.35628970e-02 1.94271766e-02 1.58536248e-02 1.51981208e-02 -2.28667483e-02 1.35485567e-02 1.63121838e-02 2.73369644e-02 3.54151707e-03 -2.21700110e-02 1.36816911e-02 1.54769346e-02 -2.33364049e-02 1.55543033e-02 -2.18753200e-02 1.97958183e-02 1.85722765e-02 5.88077679e-03 2.10029762e-02 3.44596431e-03 2.31396705e-02 2.41449587e-02 7.51735596e-03 4.96105477e-03 -2.13296693e-02 -1.60170868e-02 1.16393724e-02 -2.31468119e-02 -1.91614553e-02 4.26738476e-03 -1.66822746e-02 1.62833147e-02 -1.43995453e-02 2.10144725e-02 -1.57854427e-02 9.91758239e-03 2.27478780e-02 -1.85130518e-02 5.39257890e-03 1.92565173e-02 5.00849634e-03 2.42873505e-02 -1.98047645e-02 -4.79588425e-03 2.56212056e-02 -2.51757982e-03 1.90779772e-02 6.48371875e-03 -2.26510335e-02 2.39067059e-02 1.54005848e-02 4.05065110e-03 4.68321517e-03 -1.13890637e-02 8.58032890e-03 1.25692524e-02 8.64832848e-03 9.79716517e-03 4.68192250e-03 2.15032827e-02 -1.11562274e-02 1.54646430e-02 1.22680012e-02 1.73288081e-02 2.15554312e-02 1.51652619e-02 -2.01264173e-02 -1.19915027e-02 5.16018132e-03 5.34873269e-03 1.36662852e-02 1.22100478e-02 -2.50726696e-02 -1.26292184e-02 -1.58634242e-02 1.18093109e-02 -1.19932257e-02 -1.19276186e-02 1.57936732e-03 2.05589104e-02 2.03472301e-02 -1.38017880e-02 -2.02676579e-02 6.12086244e-03 -1.65961366e-02 -1.64761525e-02 2.10335664e-02 -1.54324370e-02 1.64565407e-02 -6.79968682e-04 1.26305772e-02 2.23500356e-02 4.35714796e-03 -1.70016047e-02 -2.25404017e-02 8.02934729e-03 -2.47371774e-02 1.61364544e-02 -1.20299980e-02 2.42784731e-02 2.57405154e-02 -1.13170929e-02 1.28144212e-02 -1.60054248e-02 1.59390233e-02 5.88071998e-03 -1.47861307e-02 -2.55523995e-02 -1.55266444e-03 -1.45554543e-02 -7.53354467e-03 -1.41581744e-02 -2.74270307e-02 -1.12689342e-02 1.57752037e-02 1.39531242e-02 -1.26516614e-02 1.29018733e-02 -2.34089047e-02 1.53124938e-02 6.00101054e-03 6.38298457e-03 2.34224666e-02 1.38062621e-02 -2.10905671e-02 9.18499287e-03 1.64701678e-02 2.89676781e-03 1.81863662e-02 -4.92411945e-03 2.37693843e-02 -1.76330954e-02 -7.01139215e-03 2.08343323e-02 1.17692975e-02 2.22193692e-02 2.47024242e-02 -1.61050726e-02 -1.72804315e-02 -1.48618370e-02 5.80289448e-03 1.85748446e-03 6.46261172e-03 -2.72744591e-03 1.70917194e-02 2.46364460e-03 1.95642449e-02 -1.49084274e-02 2.30426434e-02 2.16395129e-02 -2.48722862e-02 1.72858983e-02 -1.98274385e-02 -1.35824550e-02 2.29794960e-02 -2.21576802e-02 -1.01598306e-02
-1.91927478e-02 -1.31219923e-02 6.19573193e-03 -7.62104429e-03 -8.04941915e-03 1.48850884e-02 3.44641577e-03 -8.19988723e-04 -1.53796617e-02 -1.44258691e-02 3.32577014e-03 2.14282852e-02 -1.74348871e-03 2.64733541e-03 -1.69080850e-02 3.80978035e-03 -9.61983297e-03 -1.64954516e-03 6.67888392e-03 -4.25206078e-03 3.59708257e-03 1.66168138e-02 7.27448147e-04 -2.09191185e-03 3.83684924e-03 9.57221258e-03 -5.90427779e-03 2.53172615e-03 1.23149836e-02 -3.58937518e-03 -7.45804003e-03 7.74747285e-04 -3.75993433e-03 -1.77928563e-02 -2.13360190e-02 -5.33738965e-03 -2.08562929e-02 1.80032244e-03 1.49766160e-02 -1.26325022e-02 1.97596923e-02 1.18547073e-02 -1.56979333e-03 -1.63761135e-02 -9.87028005e-04 1.96266752e-02 2.13552546e-02 1.42130777e-02 1.57943778e-02 -5.25386725e-03 -1.71180610e-02 5.73233189e-03 -6.60489500e-03 3.41724185e-03 -1.04722846e-03 2.54828297e-03 1.33622512e-02 -4.02073283e-03 1.31168803e-02 8.25318508e-03 2.49847844e-02 -2.97410646e-03 -1.97808761e-02 6.62395125e-03 2.70974380e-03 3.68674961e-03 1.10317450e-02 5.50094806e-03 1.45569276e-02 -2.61166925e-03 -8.38175416e-03 6.46773027e-03 -6.44442812e-03 -3.78823630e-03 -1.29307574e-02 -1.10757835e-02 1.37000568e-02 7.22237211e-03 2.91607971e-03 1.07142963e-02 1.97898317e-02 -1.61815863e-02 1.16850541e-03 -1.47970850e-02 -1.04937991e-02 -7.25218980e-03 -2.00330769e-03 -9.06066853e-04 -9.95883346e-03 -4.05695196e-03 8.59091710e-03 -1.87619850e-02 -8.41779262e-03 -1.39406295e-02 5.96205145e-03 1.69125590e-02 -1.76596586e-02 1.58252995e-02 1.29780471e-02 2.06335145e-03 1.84605066e-02 -2.08008848e-03 4.73259628e-04 -1.38132246e-02 8.43469333e-03 1.46419713e-02 1.63239930e-02 6.32166630e-03 2.43402785e-03 1.19345477e-02 1.40962508e-02 -1.86922010e-02 1.72569081e-02 1.25873659e-03 1.34153515e-02 7.29012210e-03 1.44313294e-02 5.87826129e-03 -1.46712165e-03 2.21106168e-02 -1.71872205e-04 5.30003011e-03 1.39323715e-02 -1.28610162e-02 -1.67224500e-02 1.30382804e-02 -4.32219775e-03 1.05392188e-03 1.62564907e-02 -1.84848923e-02 1.52102076e-02 -3.30574531e-03 1.09961713e-02 -6.90269005e-03 1.32663008e-02 2.14267652e-02 -1.26211224e-02 4.84566262e-04 -1.37269439e-03 3.52852768e-03 1.15281707e-02 -3.51261442e-05 -7.12771574e-03 1.77796222e-02 -1.32273417e-02 -3.21054994e-03 1.49850938e-02 -8.66488740e-03 6.04560501e-06 1.49989584e-02 1.27575295e-02 1.58605934e-03 -5.02985343e-03 1.61615927e-02 -5.13016991e-03 -3.07608891e-04 -5.69006242e-03 1.37060424e-02 1.11657511e-02 -8.66945251e-04 -1.71594741e-03 -8.10466241e-03 1.77079570e-02 3.37250996e-03 6.66622864e-03 -2.47469940e-03 -3.00156744e-03 1.57960113e-02 5.61321620e-03 2.29035653e-02 1.06578749e-02 -1.97104327e-02 -1.58846639e-02 -3.17607867e-03 7.51378527e-03 -1.62476413e-02 3.05101648e-03 1.69929750e-02 8.03254638e-03 1.64226536e-02 -3.53300292e-03 7.90844904e-04 8.56925547e-03 -1.55776469e-02 -7.71989767e-03 2.73485947e-03 -1.67817548e-02 7.06925150e-03 2.41629640e-03 -2.96014338e-03 7.76904356e-03 4.52470733e-04 -2.39103623e-02 -2.34577730e-02 1.83731038e-02 -1.16953570e-02 9.40330047e-03 -1.45562470e-03 -5.80253720e-04 1.58709828e-02 -6.75059156e-03 1.18908603e-02 4.04246151e-03 9.32420604e-03 1.50491984e-03 4.82001668e-03 1.25076156e-03 -3.48446169e-03 -2.10549589e-02 -8.01967829e-03 -2.40405910e-02 -1.94937624e-02 -1.45074204e-02 2.04228926e-02 1.58062261e-02 -1.94198377e-02 1.31940311e-02 -2.25301199e-02 1.97885018e-02 1.02394521e-02 3.13724828e-04 -7.25036534e-03 -3.43811861e-03 -2.16036569e-03 7.07103265e-03 2.19791885e-02 6.15072949e-03 1.20334548e-03 -2.76176794e-03 9.97648295e-03 -1.64684921e-03 -8.00739042e-03 5.37577225e-03 1.01584895e-02 5.79777779e-03 4.63510150e-05 -2.02368312e-02 -1.62006039e-02 -6.65643392e-03 2.13213637e-02 4.19502193e-03 2.51143333e-03 -4.12689894e-03 6.98131230e-03 4.97470610e-03 5.72854374e-03 -5.22041041e-03 1.70484409e-02 1.71586741e-02 -8.00251088e-04 2.17340309e-02 -1.88254733e-02 -1.16294157e-02 3.67316697e-03 -2.17113160e-02 -7.06491945e-03
-1.71659719e-02 -1.07556172e-02 1.62628032e-02 -2.01930758e-02 -6.73016114e-03 2.18273550e-02 7.73516437e-03 -1.36706475e-02 -2.11899579e-02 -1.90549456e-02 2.00534500e-02 2.24305671e-02 -1.31410388e-02 4.70953528e-03 2.06434471e-03 -1.77053791e-02 -4.58777911e-04 1.05881263e-02 -5.81566384e-03 -1.25312656e-02 1.47769907e-02 3.36534320e-03 5.23880729e-03 -2.07562931e-03 5.69278607e-03 3.84012493e-03 -2.77586689e-04 1.54337958e-02 5.86550450e-03 -2.88083404e-03 -2.28087008e-02 -6.45323715e-04 -2.15162449e-02 -3.58702801e-03 -6.84422161e-03 -4.07974329e-03 -2.36231778e-02 2.21507549e-02 1.73682291e-02 -2.44995132e-02 1.70220609e-03 6.41457923e-03 -1.93504393e-02 -8.23667366e-03 1.72363371e-02 1.03078755e-02 1.59581788e-02 2.17408706e-02 1.40082156e-02 -9.88323055e-03 7.97977950e-03 -1.11570535e-03 -1.64479960e-03 -2.99311825e-03 -2.09547207e-03 -1.24319298e-02 2.70630810e-02 -1.82863511e-02 1.23471431e-02 1.83449164e-02 1.28652081e-02 -1.58153810e-02 -2.70345546e-02 1.20392954e-02 6.23536808e-03 1.57517996e-02 6.88110804e-03 -1.65625953e-03 1.66547205e-02 -1.31298266e-02 -1.05742104e-02 -5.36069879e-03 -1.51925124e-02 -2.45033912e-02 -3.65656009e-03 -6.01063250e-03 3.99547862e-03 8.21200479e-03 3.53934057e-03 3.54286842e-03 3.21808062e-03 -8.44502356e-03 6.22081221e-04 -4.91399970e-03 -9.59457457e-03 -6.48233108e-03 -1.49562694e-02 -1.02282455e-02 -2.35632695e-02 -3.99098406e-03 9.15246643e-03 -4.54721460e-03 -9.06652026e-03 -1.17794834e-02 -5.43230167e-03 6.56175194e-03 -1.79910455e-02 1.25330426e-02 9.46900714e-03 1.01723727e-02 8.70172493e-03 1.84856635e-02 1.58034393e-03 -9.05449688e-03 2.22743042e-02 1.06118880e-02 1.69142969e-02 9.98682808e-03 -8.65358021e-03 1.63887367e-02 6.07096776e-03 -1.48064410e-02 1.21318679e-02 3.32562835e-03 1.25524327e-02 -2.85884365e-03 6.60765404e-03 -3.78515804e-03 1.39875077e-02 5.06573869e-03 1.82657931e-02 3.79896443e-03 1.81780960e-02 -1.28872516e-02 4.07224661e-03 3.48168379e-03 -2.00532414e-02 -4.22760006e-03 1.40544735e-02 -7.70768849e-03 1.44652743e-02 -1.79064646e-02 6.93875540e-04 -5.47893578e-03 4.72521968e-03 2.24641245e-02 -1.75342113e-02 1.80723015e-02 1.86145082e-02 2.67143417e-02 1.33591341e-02 -3.12359049e-03 -2.21368391e-02 1.88955702e-02 -1.30667002e-04 9.61920619e-03 3.95633886e-03 -4.77009482e-04 6.01163041e-03 2.06009075e-02 1.64886545e-02 6.22762367e-03 -8.14930256e-03 1.74582526e-02 -6.24059094e-03 5.12433331e-03 3.49233369e-03 1.80172697e-02 1.11427763e-02 -1.59696806e-02 1.42517556e-02 5.33156912e-04 1.27946055e-02 -8.03394709e-03 -3.83302686e-03 -6.18334813e-03 -5.11119748e-03 7.65441742e-04 2.15863176e-02 1.30782090e-02 1.54889021e-02 -2.23407447e-02 -2.53418256e-02 -7.86376279e-03 9.05525219e-03 -6.36779796e-03 -2.60324945e-04 1.30818523e-02 -2.31527747e-03 1.52803352e-02 -3.26950545e-03 -4.50023543e-03 5.13638882e-03 3.04913567e-03 6.42566523e-03 5.52773336e-03 1.06022337e-04 -3.28467228e-03 -3.75364092e-03 -5.48819965e-03 9.87610780e-03 7.35655101e-03 -1.11367339e-02 -3.00979372e-02 5.05724177e-03 -6.94116671e-03 1.74299199e-02 -1.48503073e-02 2.39666607e-02 2.72024702e-02 1.89611514e-03 -1.43329171e-03 -6.22296473e-03 2.02573277e-02 5.48049808e-03 -1.76094063e-02 -1.33664897e-02 -6.69719127e-04 -1.23592485e-02 -1.87968053e-02 -6.82380609e-03 -2.46118307e-02 -1.74135156e-02 6.52657496e-03 1.02812247e-02 -2.31247079e-02 2.35397406e-02 -2.18457468e-02 1.26511361e-02 1.61705688e-02 2.72316858e-03 1.18356738e-02 3.84749845e-03 -1.33373970e-02 8.11366271e-03 5.31800790e-03 1.23235667e-02 2.32221000e-02 -1.81438774e-02 2.47990433e-03 -1.32904556e-02 -1.07851801e-02 2.44333725e-02 1.21431118e-02 1.01903977e-03 5.34547120e-03 -7.89177418e-03 -9.89705790e-03 -2.84149591e-02 2.32740305e-02 4.53058025e-03 -3.16893728e-03 -1.32617997e-02 1.75403636e-02 -1.76747120e-03 1.75166856e-02 -3.86786880e-03 1.28498236e-02 1.33620268e-02 -1.94364209e-02 2.72169244e-02 -6.05951948e-03 -1.50336232e-02 2.48769615e-02 -1.30808596e-02 -2.30872817e-02
1.19175771e-02 -3.70229152e-03 -2.38693203e-03 -8.57187808e-03 7.19940895e-03 8.02289043e-03 1.59546826e-03 -8.40555690e-03 7.31855631e-03 -3.68178915e-03 -5.93686523e-03 4.11387580e-03 7.27279205e-03 -2.66285613e-03 -3.61166056e-03 9.76673327e-03 1.16916830e-02 1.29501214e-02 7.06761796e-03 2.14202539e-03 -2.37751729e-03 -1.22866537e-02 8.63913540e-03 5.88825950e-03 -6.61133602e-03 -2.24703900e-03 1.37083989e-03 -7.03696068e-03 -5.52132202e-04 -2.64781946e-03 6.61072508e-03 4.65463335e-03 8.57460033e-03 -1.13387993e-02 -2.29166052e-03 5.84357651e-03 -7.23902788e-03 -4.34169732e-03 1.31684057e-02 4.16930940e-04 -2.53510801e-03 -2.23706570e-03 3.58820101e-03 1.36093479e-02 -1.02826804e-02 2.39163497e-03 9.66399536e-03 3.80857661e-03 7.74806831e-03 -7.55513203e-04 -8.75549391e-03 -5.65812364e-03 3.63954902e-03 -9.95488092e-03 -1.19652750e-03 -1.16708421e-03 4.47858096e-04 4.43292409e-03 2.55308300e-03 -4.11585876e-04 -8.21961439e-05 -7.65640894e-03 1.07478686e-02 4.82654991e-03 1.15403570e-02 7.36190565e-03 2.64633633e-03 -4.79099061e-03 1.62183726e-03 1.75911002e-03 7.88531266e-03 1.83938153e-03 1.01558920e-02 1.71903253e-03 -5.71416132e-03 -8.80930398e-04 -7.07532791e-03 -7.77926389e-03 -3.14328354e-04 3.14892316e-03 1.02420524e-02 -5.70139568e-03 -5.11857215e-03 2.68972549e-03 1.06523978e-02 7.36322859e-03 -1.67024543e-03 8.69526062e-03 1.88061444e-03 1.49828522e-03 -4.98542236e-03 9.65172518e-03 -7.77930021e-04 4.90434282e-03 7.87809119e-03 -1.02694668e-02 -4.77296719e-03 1.45794102e-03 7.85757322e-03 1.14075989e-02 3.49935330e-03 1.04763722e-02 -3.71171953e-03 1.33136353e-02 -4.78000008e-03 6.15366455e-03 5.44997817e-03 -5.72407106e-03 8.82350281e-03 -2.71847681e-03 -3.06824077e-04 -9.86966398e-03 -1.30451620e-02 1.27635123e-02 -3.89072136e-03 -9.55606345e-03 1.24866469e-02 6.34180196e-03 8.62760935e-03 -4.96750604e-03 -7.70723680e-03 8.33457988e-03 1.06581040e-02 3.00077186e-03 1.25652002e-02 -1.24891028e-02 3.73201002e-03 5.69414673e-03 -1.79993908e-03 7.32208276e-03 -1.13271289e-02 -1.09856681e-03 2.75430339e-03 -2.73695542e-03 -3.72674456e-03 -4.69715055e-03 -6.16072910e-03 -1.19482195e-02 -1.10992091e-02 -3.37138353e-03 -7.76691688e-03 3.40619031e-03 -8.37155909e-04 3.17454967e-03 1.31410481e-02 6.60548033e-03 4.02948912e-03 4.88934061e-03 -1.86338334e-03 6.43067155e-03 3.22689838e-03 -1.41764162e-02 -9.75497253e-03 1.72348786e-03 -7.25838495e-03 3.49614467e-03 -1.30871488e-02 -8.16029217e-03 1.20779350e-02 7.99858943e-03 -1.15075177e-02 -9.19918995e-03 4.30104509e-03 -1.56954245e-03 -4.24653525e-04 5.24741132e-04 -7.97717832e-03 -5.97310625e-03 -7.94104114e-03 1.09957112e-02 5.76786231e-04 1.32413851e-02 -9.76415630e-03 2.42170761e-03 8.52323696e-03 1.87439867e-03 1.04719084e-02 -1.82855537e-03 8.64134915e-03 9.13222600e-03 7.61718256e-03 5.01341978e-03 8.23478680e-03 2.14939797e-03 1.07332040e-02 -7.89229199e-03 -3.81819584e-04 -5.69665991e-03 8.80086329e-03 -1.28528094e-02 2.28599692e-03 6.16419828e-03 1.78387389e-03 -2.69096321e-03 6.41008792e-03 -1.08249588e-02 7.74379168e-03 1.00010056e-02 5.66481985e-03 -7.27755157e-03 7.52760854e-04 -1.16319386e-02 5.85254654e-03 1.39763709e-02 -3.62724508e-03 7.59930536e-03 5.10760769e-03 -1.11034727e-02 7.69010885e-03 -8.64818518e-04 -3.67423752e-03 1.16626807e-02 -3.08818603e-03 5.10691665e-03 9.14193969e-03 -2.40512285e-03 8.90630111e-03 2.03459361e-03 4.21815086e-03 -8.19609966e-03 8.42028670e-03 8.47765524e-03 -1.14326645e-03 4.77000838e-03 -6.58133905e-03 8.02835450e-03 5.19612106e-03 -4.20022337e-03 6.46550208e-03 -9.90816113e-03 8.85859970e-03 6.27193693e-03 6.38319645e-03 -2.71886797e-03 -8.53373017e-03 6.99753221e-03 1.07713845e-02 -1.04857916e-02 -1.28230592e-02 3.83726717e-03 -1.10521317e-02 -5.15596941e-03 -6.26123184e-03 -3.89515958e-03 1.84734620e-03 -1.05516305e-02 -5.17846458e-03 1.26876368e-03 8.43428727e-03 -8.97361804e-03 -4.29212069e-03 2.56914366e-03 3.65634239e-03 -4.48132120e-03 -3.57888197e-03 -7.08144158e-03
-1.19289374e-02 -7.62583083e-03 8.95734504e-03 -2.57461593e-02 -2.68395673e-02 2.24065278e-02 1.55993868e-02 -2.40710527e-02 -1.21364556e-02 -2.35263538e-02 2.50288062e-02 1.53963612e-02 -3.04100360e-03 1.30829522e-02 -8.50646902e-05 -1.83846410e-02 -1.10096522e-02 1.99326929e-02 -1.16266701e-02 -1.26583744e-02 1.83348041e-02 -2.92920577e-03 4.69885021e-03 2.38953456e-02 1.67701785e-02 2.78897327e-03 -1.19488023e-03 5.25274547e-03 1.43917575e-02 -2.05394737e-02 -2.05961075e-02 1.65777467e-02 -1.07903136e-02 -4.46734997e-03 -1.95417013e-02 -1.17284833e-02 -1.84321348e-02 5.29094087e-03 8.61982163e-03 -2.03872938e-02 2.15604156e-02 1.75295416e-02 -2.73192357e-02 -8.58163647e-03 1.01460926e-02 9.89555754e-03 2.31613144e-02 8.63960292e-03 2.04750746e-02 -1.40950158e-02 -1.19446833e-02 -1.38396006e-02 -2.32859328e-02 -1.70874726e-02 -8.00280133e-04 3.16847488e-03 2.58298311e-02 -1.65747851e-02 2.36965287e-02 2.93800160e-02 3.26246098e-02 -1.68265421e-02 -2.47455239e-02 1.07385181e-02 -1.74742024e-02 1.14071174e-02 7.44569115e-03 -6.55005628e-04 1.55302286e-02 -4.50002961e-03 -2.74957865e-02 -2.50512548e-03 -1.15177818e-02 -1.97980031e-02 -2.44721621e-02 -1.98373627e-02 3.25253326e-03 2.15845909e-02 1.04612419e-02 1.16530787e-02 2.19593849e-02 -1.13862874e-02 -2.60692015e-02 -6.99113030e-03 -1.81000270e-02 1.09769003e-02 -2.45478383e-04 -2.75188014e-02 -1.31561551e-02 -1.54498164e-02 9.29868966e-03 -1.08248787e-02 -1.20053114e-02 -1.78593341e-02 -1.35218282e-03 7.53631396e-03 -1.66875757e-02 5.44946035e-03 1.28733162e-02 2.05559982e-03 3.57761420e-03 1.17877563e-02 2.09212527e-02 -8.81202985e-03 8.58890451e-03 1.44885043e-02 1.20510021e-02 1.72097255e-02 -1.27506955e-02 2.26212107e-02 4.43406589e-03 -1.78989097e-02 5.22806682e-03 -1.51054300e-02 1.14712361e-02 5.22433035e-03 2.14984175e-02 4.99433419e-03 1.91953704e-02 9.16482322e-03 1.94822084e-02 1.73047353e-02 2.64254622e-02 -1.38182817e-02 9.60797071e-04 3.91179975e-03 -1.55028021e-02 -7.75844743e-03 1.18398629e-02 -2.77204774e-02 1.80833079e-02 -2.56831124e-02 2.19861567e-02 -2.70503480e-02 1.61448941e-02 2.77596358e-02 -1.18974866e-02 6.58172462e-03 2.10305173e-02 1.75656397e-02 8.78040027e-03 -5.65635180e-03 -2.29931995e-02 1.75959468e-02 -1.85256470e-02 1.28931496e-02 1.88995432e-02 4.58027329e-03 4.00793366e-03 1.42197302e-02 1.04784807e-02 -2.81670876e-03 -1.97954606e-02 2.43903175e-02 1.51553266e-02 2.30609160e-02 1.58239156e-03 5.04901540e-03 8.82301107e-03 -1.49797117e-02 7.70925125e-03 1.63732644e-03 2.20280122e-02 -5.82551211e-03 1.53987249e-02 -1.74051840e-02 -3.90020214e-05 1.27552813e-02 1.14540868e-02 1.78620797e-02 2.03790553e-02 -2.66342498e-02 -5.94988652e-03 -2.44240146e-02 5.09010954e-03 -2.18860265e-02 -1.52828731e-02 1.71768107e-02 2.59488099e-03 1.02762962e-02 -1.71760302e-02 -7.60486769e-03 1.45407077e-02 -6.13665814e-03 -1.85833666e-02 5.84549317e-03 -2.17875522e-02 5.86283440e-03 -8.57916567e-03 8.50442797e-03 -3.28816124e-03 1.70687027e-02 -1.99210644e-02 -1.68336444e-02 2.38976702e-02 -2.37473194e-02 7.83440564e-03 -6.61105616e-03 1.62852332e-02 2.15046294e-02 5.08978672e-04 7.68101588e-03 -7.67513877e-03 7.76839536e-03 9.56424512e-03 -2.94120662e-04 -1.37877911e-02 -1.35356812e-02 -1.83855686e-02 -1.56262312e-02 -2.24387404e-02 -1.52697926e-02 -1.85284093e-02 1.56275462e-02 2.20690761e-02 -2.02915799e-02 7.65598193e-03 -1.59658231e-02 2.32868642e-02 2.50152349e-02 1.41197620e-02 9.18049645e-03 2.14229617e-02 -4.91505489e-03 2.55510602e-02 7.79864006e-03 1.50358677e-02 8.18090420e-03 -6.77391561e-03 4.59911767e-03 -1.14238877e-02 -2.49374490e-02 8.51437915e-03 7.04182172e-03 1.89433359e-02 9.12846532e-03 -1.43162571e-02 -2.24391837e-02 -1.49340238e-02 2.52216775e-02 1.03105800e-02 1.32466415e-02 -2.15736479e-02 9.92877502e-03 3.43969883e-03 1.69893671e-02 -7.64388777e-03 1.84714757e-02 1.93668213e-02 -8.04325752e-03 2.06251517e-02 -7.63454335e-03 -1.25291161e-02 2.86984518e-02 -7.30591873e-03 -1.01813963e-02
-8.32494162e-03 -2.58770101e-02 1.52781969e-02 -2.02838480e-02 -2.96451077e-02 9.51041561e-03 1.95754245e-02 -1.08030206e-02 -1.16147855e-02 -8.86220019e-03 1.66835170e-02 1.71831567e-02 -9.63599829e-04 1.59764588e-02 -1.64162437e-03 -1.84022561e-02 -9.40098893e-04 7.62441778e-04 -2.06226353e-02 -5.17813023e-03 1.81949418e-02 5.64244285e-04 3.42065119e-03 6.82679610e-03 1.06483391e-02 2.46412028e-02 -9.50299762e-03 2.44864784e-02 1.35299321e-02 -2.40575708e-02 -2.48035509e-02 1.05249509e-02 -5.27119962e-03 -1.84342638e-02 -2.17396002e-02 -1.67951845e-02 -1.04427878e-02 2.57267430e-02 5.81489410e-03 -2.26804707e-02 1.78146828e-02 2.40413789e-02 -1.29394382e-02 -1.17723532e-02 1.14620235e-02 1.49373822e-02 1.99904758e-02 1.70110923e-03 1.19911425e-03 -8.56698398e-03 -1.22848060e-02 -1.58822518e-02 -6.03862246e-03 -6.72840513e-03 1.57566014e-04 1.42227793e-02 2.33865101e-02 -2.87562776e-02 2.56613493e-02 1.70894377e-02 2.91970130e-02 -8.86420347e-03 -1.86525658e-02 2.34563239e-02 -1.39812697e-02 1.40209449e-02 1.12900129e-02 2.42777937e-03 2.03627925e-02 -2.74016638e-03 -1.39709515e-02 2.77006929e-03 -7.92581216e-03 -9.48905107e-03 -1.04031358e-02 -2.07418818e-02 1.56283155e-02 8.12999438e-03 1.39487777e-02 2.33245883e-02 1.25906682e-02 -1.48673952e-02 -2.05889903e-02 -6.64104382e-03 -2.35364474e-02 5.98848937e-03 -2.15079859e-02 -7.36928126e-03 -2.41871532e-02 -2.09572334e-02 2.39735898e-02 -4.18135140e-04 -3.17458948e-03 -7.19516654e-04 2.17202306e-03 1.36931799e-02 -6.83374703e-03 1.66096874e-02 2.12962199e-02 5.30918222e-03 1.16890874e-02 1.71650890e-02 1.13912569e-02 -1.85722171e-03 2.15647072e-02 1.81200251e-03 5.03503671e-03 8.56047589e-03 -9.62471683e-03 7.34855887e-03 2.20247428e-03 -1.93605255e-02 6.90215873e-03 -5.67089859e-03 1.85084008e-02 1.36778150e-02 2.06873864e-02 1.02492061e-03 2.00489424e-02 1.77826211e-02 4.26630769e-03 1.30641209e-02 2.77865096e-03 -6.00167876e-03 -2.95744394e-03 1.34212198e-03 -2.31599696e-02 -1.71411559e-02 8.08493607e-03 -1.18945260e-02 2.03626566e-02 -8.29809811e-03 2.41499413e-02 -5.17329248e-03 1.69729050e-02 5.83700184e-03 -9.64110717e-03 2.68752836e-02 1.31081259e-02 2.35384088e-02 2.59730015e-02 -2.09509470e-02 -2.60627419e-02 2.13986821e-02 -2.04781368e-02 2.51933350e-03 1.03058303e-02 -1.19551895e-02 6.82821358e-03 9.74979810e-03 1.26773082e-02 4.54251934e-03 -1.60596613e-02 2.42942199e-02 5.98614104e-03 2.66412329e-02 8.67380761e-03 2.31676213e-02 1.77720301e-02 -1.52733913e-02 1.55788483e-02 5.10929339e-03 2.02446375e-02 -2.35567382e-03 6.86839456e-04 -5.08508692e-03 -4.57809540e-03 1.15114693e-02 1.98456384e-02 2.31556501e-02 2.67875772e-02 -1.85727309e-02 -1.44400764e-02 -2.64397953e-02 2.45389901e-02 -2.37026289e-02 -2.97139073e-03 1.25216953e-02 9.93975718e-03 1.51654566e-02 -2.00563446e-02 -2.49160919e-02 6.27178047e-03 1.41951919e-03 -7.00828386e-03 1.57481469e-02 -1.90007761e-02 1.94108058e-02 -1.13150049e-02 2.05631703e-02 1.56453848e-02 1.69250090e-02 -1.01221893e-02 -2.52365116e-02 2.67370269e-02 -1.13926595e-02 7.25321425e-03 -1.47240199e-02 2.59022657e-02 8.38255323e-03 -7.80807342e-03 1.31645976e-02 -9.87360626e-03 2.75658574e-02 1.37335528e-02 -1.69539414e-02 -9.14374460e-03 -1.14766704e-02 -2.07767002e-02 -8.25673901e-03 -2.53728013e-02 -6.01803372e-03 -3.67790461e-03 1.71556566e-02 1.97289698e-02 -2.25785356e-02 8.00419785e-03 -1.38946474e-02 1.33722955e-02 2.38452218e-02 1.24655440e-02 5.80509054e-03 3.12669645e-03 -1.34979095e-02 8.50541703e-03 1.35729453e-02 3.12180864e-03 1.80907585e-02 -1.75186861e-02 2.48129144e-02 -2.17356812e-02 -1.93077344e-02 1.49123045e-02 5.40936599e-03 2.28442233e-02 2.59916708e-02 -2.41056979e-02 -2.16643382e-02 -1.73768289e-02 2.38816421e-02 1.03739407e-02 4.04737378e-03 -2.61414424e-02 5.75662637e-03 6.48868503e-04 1.86690502e-02 -2.76140496e-03 1.51220923e-02 2.20709629e-02 -2.19970364e-02 2.15335898e-02 -1.04246605e-02 -6.07494125e-03 6.69872155e-03 -2.40318738e-02 -1.81594230e-02
-1.82252773e-03 -6.10843953e-03 -1.11126550e-03 3.32100026e-04 -1.12254042e-02 1.34367896e-02 1.64173525e-02 -1.27931382e-03 -4.39776480e-03 2.72854627e-03 1.53628532e-02 1.15062753e-02 1.83660525e-03 1.00844428e-02 -1.00314021e-02 1.17159709e-02 1.09846331e-02 2.66085519e-03 -2.58275704e-03 8.09599645e-03 1.23345177e-03 -1.21896213e-03 -2.93173664e-03 3.16866650e-03 5.82827379e-05 -6.73860637e-03 -1.35620702e-02 -7.91411090e-04 1.28429355e-02 7.02289212e-03 -2.40710308e-03 -1.36705406e-03 -4.45775921e-03 -4.64200974e-03 -1.00189112e-02 4.62649507e-04 -6.48034830e-03 1.48920687e-02 1.99651439e-02 -3.79428221e-03 4.83322516e-03 1.13989869e-02 -1.13046030e-02 -1.95131567e-03 3.83208878e-03 -1.45467871e-04 1.76529884e-02 1.08882235e-02 -4.67685377e-03 2.32864753e-03 -8.67002457e-03 1.09934453e-02 -2.79421476e-03 -1.24013843e-02 -1.15410900e-02 -1.30129058e-03 2.78188055e-03 -1.34628208e-03 9.93103720e-03 2.15934366e-02 2.32719425e-02 -1.54892150e-02 -1.91921170e-03 2.44508777e-03 5.02903387e-03 -7.14365346e-03 6.39691111e-03 -1.37611711e-02 5.27615251e-04 -1.28086088e-02 -1.55602600e-02 -1.17304102e-02 3.48826824e-03 -1.41465124e-02 -1.46207167e-02 1.55958027e-04 9.74888541e-03 -4.60657105e-03 1.29412338e-02 1.13647766e-02 8.65037553e-04 -2.65704654e-02 -1.71782039e-02 -2.05171597e-03 -2.55214138e-04 1.38239944e-02 -3.46410507e-03 3.41443368e-03 1.24022132e-04 -2.53505874e-02 -2.99208239e-03 -3.52321262e-03 1.25663616e-02 -4.46461700e-03 -5.71836298e-03 3.58706410e-03 6.80258824e-03 1.19842002e-02 1.23968404e-02 -6.07178733e-03 -2.54089152e-03 2.54100189e-03 -1.02648092e-02 -8.14720895e-03 1.23944255e-02 -1.18929306e-02 1.76982787e-02 7.73275970e-03 5.04342187e-03 -8.66741501e-03 1.10392505e-02 -8.79901275e-03 -1.79559214e-03 -9.43038438e-04 -5.50499046e-03 -4.66086483e-03 7.13689765e-03 2.65706563e-04 -5.10395644e-03 1.42570445e-02 -9.53182986e-04 -5.91644924e-03 6.87878346e-03 -1.56795215e-02 -5.85842459e-03 -3.86084639e-03 -2.26010859e-04 6.92768837e-04 6.25390187e-03 -1.63026210e-02 -2.85745761e-03 2.78529758e-03 1.43560991e-02 2.10043113e-03 1.21076293e-02 1.13053825e-02 -2.52722832e-03 1.65618043e-02 1.43837677e-02 -4.67576366e-03 2.64734980e-02 -1.40719470e-02 -1.15653099e-02 -4.18095529e-04 8.91617779e-03 1.36560621e-03 4.99117794e-03 6.89022336e-03 -1.49695412e-03 -1.86576461e-03 -1.33943157e-02 -9.43276659e-03 -2.23434577e-03 1.88156795e-02 -1.02416482e-02 1.77830644e-02 2.20591974e-04 1.07254349e-02 -3.76738724e-03 -3.42824892e-03 7.11253425e-03 5.27443457e-03 -7.69038545e-03 -1.03136944e-02 -5.83992526e-03 4.15520184e-03 -1.70461589e-03 1.34804111e-03 1.90686602e-02 8.77718907e-03 1.71660502e-02 -1.35690374e-02 -1.86386686e-02 -3.90678237e-04 4.63742530e-03 -1.14599504e-02 2.41805334e-03 1.05737522e-03 9.14201979e-03 1.78028538e-03 1.21657001e-02 -1.06356731e-02 3.69529868e-03 -2.55424855e-03 1.01968506e-02 3.05395690e-03 -1.36413109e-02 -2.44833902e-03 7.43343355e-03 -1.32975995e-03 -1.03753116e-02 -2.28135055e-03 -1.81663930e-02 -3.53594916e-03 2.89146468e-04 -4.38168878e-03 8.32999032e-03 -8.04713368e-03 3.44877644e-03 6.33946108e-03 -3.54563654e-03 1.34641184e-02 2.43637222e-03 9.21643618e-03 4.65563237e-04 -2.96770455e-03 -1.05771214e-04 -9.75955464e-03 -2.03128662e-02 -9.31671821e-03 -1.84257571e-02 7.28061888e-04 -4.60480107e-03 1.43930614e-02 8.57615750e-03 -5.21773752e-03 1.28357904e-02 -1.04614059e-02 1.59441251e-02 -6.97121862e-03 9.32391640e-03 2.16022669e-03 -6.20442268e-04 5.28474478e-03 1.06016295e-02 2.16244273e-02 9.98491421e-03 1.29193030e-02 -3.87419434e-03 -1.10745570e-03 8.05112999e-04 -1.64388306e-02 2.34121471e-04 5.04647009e-03 6.19719224e-03 4.15334059e-03 -5.21581713e-03 -5.00725070e-03 -2.72435974e-02 -1.13691075e-03 3.47118918e-03 5.78336604e-03 -1.99992266e-02 1.30537269e-03 -3.87867703e-03 7.19885807e-03 1.17534939e-02 9.46078543e-03 1.29939932e-02 -9.09378938e-03 4.60067112e-03 -4.00660187e-03 -1.70930009e-02 1.35184685e-02 -9.35395528e-03 -1.05435383e-02
-6.94949273e-03 6.14532316e-03 -2.28183740e-03 4.40765684e-03 4.55919979e-03 1.38877034e-02 -5.18040685e-03 -1.68336811e-03 4.53913017e-05 2.16781138e-03 4.42647189e-03 1.41102411e-02 1.22399330e-02 -1.16554238e-02 -6.07127883e-03 2.16940022e-03 1.35112349e-02 -4.91279270e-03 3.95365013e-03 1.39416456e-02 -1.97761063e-03 6.81047793e-03 1.57187711e-02 3.68487346e-03 -3.70430644e-03 -1.49047258e-03 4.87592211e-03 7.59082614e-04 -4.15692618e-03 -1.74888031e-04 -5.14166802e-03 -1.26203964e-03 -2.99573899e-03 -1.71088483e-02 -1.31019782e-02 7.64524611e-03 -3.32526193e-04 8.01457185e-03 5.48497122e-03 -1.12680746e-02 8.85880087e-03 3.89814260e-04 -1.18051628e-02 4.12313174e-03 -2.19919952e-03 1.13448557e-02 6.31794333e-03 -6.09198073e-03 -9.51417442e-03 -2.10871012e-03 7.93816615e-03 -4.03181650e-03 -4.16707015e-03 -1.44347372e-02 4.81230812e-03 -1.02102980e-02 1.25550153e-02 -2.06209291e-02 1.00332778e-02 1.87598157e-03 1.63987651e-02 -9.35915206e-03 -7.29383528e-03 1.40946871e-02 1.12391766e-02 -4.38064709e-03 7.00645149e-03 -1.67635288e-02 1.55399777e-02 -6.31775195e-03 -1.85763072e-02 -1.09320683e-02 6.27096044e-03 3.27175949e-03 -9.20724031e-03 -7.61199649e-03 3.42984218e-03 -7.60924444e-03 1.21220145e-02 3.76690552e-03 1.16260834e-02 -1.57924779e-02 -1.42183704e-02 4.53623338e-03 -5.02191670e-03 1.04766255e-02 3.42523004e-03 3.73403658e-03 7.08935177e-03 -7.40728993e-03 1.07798185e-02 -1.28024472e-02 1.81167088e-02 7.33385980e-03 4.33279667e-03 1.75912020e-04 -9.46105644e-03 5.78516070e-03 5.04494365e-03 3.84752825e-03 -3.57001531e-03 -8.68162606e-03 4.96364059e-03 7.03902042e-05 4.01341729e-03 3.59855755e-03 4.05885652e-03 9.97024775e-03 8.43706354e-03 5.78233274e-03 -9.77857225e-03 -9.05341934e-03 7.94164278e-03 2.46358407e-03 1.09926118e-02 -8.17319658e-03 1.20328609e-02 4.11080837e-04 -6.49667019e-03 1.05362562e-02 -3.22877476e-03 9.75576043e-03 1.29516013e-02 -1.50162168e-02 1.11606217e-03 9.99634340e-03 -4.27898904e-03 -7.81093724e-03 1.15843527e-02 -9.09039471e-03 -1.00239795e-02 -1.22738201e-02 -3.54464795e-03 -1.06256120e-02 6.61908044e-03 1.58826895e-02 -5.42332139e-03 8.26065894e-03 1.02369245e-02 -6.88285567e-03 1.35744531e-02 4.08214470e-03 -1.07217105e-02 1.73565410e-02 3.80783645e-03 1.51684857e-03 -8.93338211e-03 -2.04207515e-03 -4.52447822e-03 1.01042967e-02 -8.38189013e-03 -1.30662406e-02 1.37791121e-02 2.34937146e-02 6.85513671e-03 1.17913960e-02 -7.96810375e-04 -7.95803033e-03 -6.59662765e-03 1.04361549e-02 -3.22108297e-03 -8.31477530e-03 -7.47400476e-03 -2.61016120e-03 -9.44044499e-04 1.05965212e-02 2.35879049e-03 -1.21970186e-02 9.92142968e-03 9.55517218e-03 1.57008413e-02 -3.84055986e-03 -1.49303703e-02 -4.54554521e-03 6.97871763e-03 -1.75558180e-02 6.89549139e-04 -5.11814887e-03 -1.01645834e-04 1.03954356e-02 4.42200014e-03 2.80712824e-03 6.48020860e-03 1.36903599e-02 4.01328458e-03 -8.72213952e-03 -1.28933974e-02 3.37568764e-03 3.27468733e-03 -1.55714033e-02 1.12319803e-02 3.55801382e-03 -1.00491541e-02 -1.42947873e-02 5.68123069e-03 -7.71855237e-03 1.12005388e-02 3.89343651e-04 1.65814869e-02 -1.49857870e-03 2.67608999e-03 -8.32416024e-03 -1.16848005e-02 1.55241080e-02 1.08674904e-02 -1.51247182e-03 -3.32307629e-03 -6.99767552e-04 -4.98092547e-03 -6.75840955e-03 -3.65630211e-03 6.80759596e-03 5.98622626e-03 4.18466778e-04 4.79015289e-03 -1.74394138e-02 -6.48993487e-03 -1.47728520e-02 1.06313899e-02 1.18812164e-02 3.32196360e-03 -7.84589630e-03 -1.15677044e-02 1.52564794e-02 8.06993432e-03 8.21323041e-03 -6.98245503e-03 1.20868180e-02 6.06362661e-03 1.46187621e-03 -1.20004884e-03 3.51137365e-03 1.22287767e-02 1.30172796e-03 2.15493236e-03 -9.28972661e-03 -5.29277744e-03 -6.66122325e-03 -7.57086463e-03 2.00387184e-02 -2.76197633e-03 -1.10089313e-02 -4.86959470e-03 3.64949834e-03 6.51035970e-03 -1.39471581e-02 5.00914874e-03 1.35868397e-02 1.27809811e-02 8.98294430e-03 1.40935304e-02 -1.26432003e-02 -1.47808604e-02 1.23802237e-02 -2.90878606e-03 -6.57016085e-03
-2.72292271e-02 -2.70787440e-02 1.12738358e-02 -9.67045780e-03 -8.03402625e-03 1.44368196e-02 2.38666218e-02 -1.96164101e-02 2.91784323e-04 -2.62815971e-03 1.64705254e-02 1.77768730e-02 3.44721880e-03 4.43939865e-03 -1.44960070e-02 -7.13253161e-03 -1.15638021e-02 3.06708505e-03 -1.54640954e-02 -5.66630950e-03 1.97730120e-02 -9.58222590e-05 1.41916366e-03 7.30032893e-03 -2.21806404e-05 6.47783512e-03 -5.79946255e-03 1.66824274e-02 -2.62751943e-03 -1.39083480e-03 7.89951475e-04 -1.12902455e-03 -1.06413225e-02 -1.54250180e-02 -2.56736670e-02 -1.16134025e-02 -1.69488844e-02 1.07861701e-02 5.15929237e-03 -1.60549562e-02 1.47271538e-02 1.13587186e-03 -5.48985135e-03 2.90813949e-03 4.95796790e-03 1.50246089e-02 7.47058447e-03 1.27664935e-02 1.21220956e-02 -1.21507430e-02 -1.69298518e-02 2.90943659e-03 -1.52781997e-02 -1.03923278e-02 7.96616822e-03 5.91587601e-03 2.73230895e-02 -1.78654287e-02 1.89394038e-02 3.41778360e-02 2.93138586e-02 -2.63264999e-02 -1.74828526e-02 1.84507091e-02 4.61211195e-03 1.37398839e-02 1.30884238e-02 -2.70904927e-03 2.84613715e-03 -1.63029856e-03 -8.92441720e-03 2.58157216e-03 -1.92743577e-02 -1.18255885e-02 1.50567372e-04 4.30209737e-04 1.58810802e-02 7.56948604e-04 5.77979209e-03 6.79557770e-03 1.97226238e-02 1.66460837e-03 -1.62237436e-02 -8.24149814e-04 -5.58532821e-03 3.68000288e-03 -3.08856415e-03 -6.67952118e-04 -1.73089746e-03 -1.07663097e-02 1.49030544e-04 -1.28683780e-04 1.63536414e-03 -1.02929594e-02 -6.70245430e-03 4.93673189e-03 -7.33802607e-03 5.95394615e-03 1.08494386e-02 9.74207371e-03 1.29617443e-02 1.94777269e-02 1.64755024e-02 -2.01185867e-02 4.19291854e-03 1.21898521e-02 -4.46276827e-04 1.21743968e-02 5.46491297e-04 2.55313842e-03 3.94014455e-03 -1.50984079e-02 1.54764326e-02 -1.16260471e-02 3.03511671e-03 -3.30757606e-03 1.32507831e-03 1.58421006e-02 1.87995359e-02 1.90645456e-03 -4.48849844e-03 3.54265678e-03 8.11113790e-03 -3.00909253e-03 -9.10306256e-03 -6.77580363e-04 -1.26521597e-02 1.59851345e-03 1.48311872e-02 -2.01059636e-02 1.80323273e-02 -1.87523961e-02 1.06370840e-02 -1.78284142e-02 3.97213642e-03 1.56145450e-02 -8.55672639e-03 1.77154765e-02 1.88365649e-03 7.65482243e-03 6.63096411e-03 -1.85527951e-02 -1.33455088e-02 1.39433015e-02 -7.17312284e-03 1.88680086e-02 5.91747556e-03 8.48098937e-03 -3.13233258e-03 6.82902848e-03 7.89775420e-03 1.04489196e-02 -4.78483550e-03 7.35574635e-03 1.52593032e-02 9.39396676e-03 7.01942341e-03 1.45535264e-02 8.95498786e-03 -1.34303300e-02 5.91342244e-03 7.01929685e-06 -2.10352987e-03 3.58170667e-03 1.83759572e-03 -1.92836951e-02 -7.23773893e-03 8.94443877e-03 1.29205259e-02 1.53163131e-02 1.49655323e-02 -2.70655379e-02 -2.37274170e-02 -1.14292931e-02 2.16061249e-02 -1.30270710e-02 -1.57739979e-03 2.21622903e-02 4.34574205e-03 1.05047515e-02 -2.04991805e-03 -7.24297343e-03 7.17097428e-03 -1.07784923e-02 -1.76045287e-03 1.17844883e-02 -8.10662843e-03 2.55267369e-04 3.79104307e-03 1.12592466e-02 1.18137822e-02 1.16390679e-02 -2.69228332e-02 -1.77985299e-02 1.82983261e-02 -1.62716974e-02 1.86570231e-02 -2.09666640e-02 2.37813964e-02 2.90248264e-02 -6.10534567e-03 1.02300241e-04 4.24205849e-04 -2.88700976e-04 9.30262904e-05 -1.07544120e-02 -1.27918143e-02 2.79166689e-03 -6.77479152e-03 -8.73147324e-03 -1.12425173e-02 -1.76262278e-02 -8.41369200e-03 1.80389006e-02 1.19362548e-02 -1.04168141e-02 8.87241215e-03 -2.68455334e-02 -2.81010376e-04 3.15077923e-04 1.41960580e-03 2.08227523e-03 5.93643123e-03 1.55479519e-03 2.33367260e-04 2.30889488e-02 2.15142760e-02 3.87398293e-03 -1.15536591e-02 1.43297706e-02 -1.32516678e-02 -1.91540308e-02 3.21122748e-03 8.77876766e-04 6.37446670e-03 1.06854774e-02 -1.66572556e-02 -2.24565770e-02 -1.85985398e-02 1.18974261e-02 -2.97598517e-03 1.09144971e-02 -8.81283451e-03 1.45080928e-02 -9.56113543e-03 4.20425972e-03 -1.63473561e-02 2.13715006e-02 2.16301810e-02 -9.55665950e-03 1.30190114e-02 -7.35706184e-03 -1.41618634e-02 1.56217460e-02 -4.10864176e-03 -2.50222534e-02
-9.04713757e-03 -1.89554493e-03 6.31729467e-03 -2.33057868e-02 -1.07852928e-02 2.34544650e-02 2.00552549e-02 -4.16418724e-03 -1.11159459e-02 -8.89525097e-03 1.05289333e-02 -4.39885043e-04 -1.09713031e-02 9.52347182e-03 -1.34204691e-02 -5.34692267e-03 -5.19127352e-03 -1.66490264e-02 -9.79371462e-03 2.11259141e-03 5.42820012e-03 -2.18156795e-03 8.05862527e-03 -6.86846673e-03 1.41430367e-03 -5.41240722e-03 -1.63417868e-02 1.35371368e-02 1.26413452e-02 -8.53069313e-03 1.95623026e-03 1.58208702e-02 -1.17416959e-02 -3.58375674e-03 -1.93430949e-02 -1.60509627e-02 -2.30520833e-02 1.93832442e-02 1.23833967e-02 -2.10195594e-02 1.15967169e-02 8.46287515e-03 5.87342474e-05 -1.16498182e-02 2.74590589e-03 -3.34686181e-03 1.37163885e-02 6.17170706e-03 9.61070787e-03 8.26913025e-03 -4.69268765e-04 -6.03251252e-03 -3.34877288e-03 2.55346554e-03 -9.43111256e-03 -1.49639929e-02 6.10900763e-03 -2.71811429e-02 1.50000528e-02 7.09599303e-03 5.93305007e-03 -2.41349936e-02 -1.16060497e-02 1.29654137e-02 8.20029620e-03 8.47665034e-03 -8.30354169e-03 -6.58113742e-03 9.27663688e-03 1.39950862e-05 4.95656487e-03 3.09001043e-04 -6.00286480e-03 3.38088186e-03 6.83882553e-03 -3.82265681e-03 -1.77720306e-03 8.90890788e-03 1.50790075e-02 1.48164537e-02 1.28114531e-02 -1.63615420e-02 7.18417810e-03 -1.48091847e-02 -3.13262019e-04 1.98404561e-03 5.20676700e-03 -1.56011172e-02 -1.53851369e-02 -1.73536371e-02 -1.95340510e-03 -1.14451423e-02 1.25292316e-02 1.31846708e-03 -5.63513208e-03 -9.62012075e-03 -1.51090315e-02 9.84536484e-03 2.16043391e-03 9.25219711e-03 7.07231415e-03 5.43589843e-03 1.05035882e-02 -1.13149220e-02 1.06250597e-02 -5.58442343e-03 1.34928226e-02 7.51929218e-03 6.99491333e-03 -7.50969071e-03 1.29733682e-02 1.46957114e-03 -3.47463461e-03 3.48964985e-03 2.47251894e-03 1.00870822e-02 1.21940756e-02 1.42517593e-02 9.77923162e-03 1.15562975e-02 1.36326393e-02 8.62654299e-04 2.19771895e-03 -4.22296673e-03 -1.55187573e-03 1.14017958e-02 -1.20825171e-02 -6.94834813e-03 4.02692333e-03 -1.73344538e-02 1.16058001e-02 -3.36601096e-03 1.15545169e-02 -7.83471670e-03 5.22531453e-04 1.37237925e-02 -4.16122936e-03 1.78778041e-02 3.19726672e-03 1.01594161e-02 1.14166485e-02 -1.12706488e-02 -2.28291683e-04 1.47449309e-02 1.06970947e-02 -8.92791431e-03 -5.99049870e-03 -1.71840526e-02 6.07664557e-03 -4.73979721e-03 -1.34634618e-02 4.88763908e-03 4.81727254e-03 1.08865881e-02 -1.22329742e-02 1.72663238e-02 7.47619336e-03 1.41993118e-03 -7.18104281e-03 -1.39455718e-03 4.17942926e-03 2.60781683e-03 5.29181212e-03 -1.67307109e-02 6.79296034e-04 5.32398652e-03 5.16596017e-03 6.93140458e-03 1.53733315e-02 5.67939086e-03 1.20326905e-02 -4.34152875e-03 -1.27514238e-02 -6.61061844e-03 1.29294964e-02 -1.19804572e-02 -8.70821439e-03 5.82276471e-03 -4.08831239e-03 6.23968802e-03 5.56630641e-03 -4.78695286e-03 -5.13232918e-03 1.33038657e-02 3.95428995e-03 4.92506893e-03 6.71675056e-03 8.24111514e-03 7.81030348e-03 5.37727901e-05 -4.90473351e-04 4.50796913e-03 -1.96579136e-02 -4.72582784e-03 1.17795756e-02 -4.62602172e-03 1.76549051e-02 -5.48002636e-03 4.13868949e-03 6.27267873e-03 3.24572972e-03 6.14659442e-03 1.85699505e-03 1.89933386e-02 -5.13395481e-03 5.76501340e-03 -3.23564454e-04 -7.51283392e-03 -1.95064209e-02 -1.49558317e-02 -4.23129695e-03 -7.55655626e-03 -1.20491926e-02 1.60369035e-02 1.14314286e-02 -1.30648762e-02 1.30269909e-03 -1.85594819e-02 1.36232330e-02 -6.52642874e-03 8.48045014e-03 -7.62423174e-03 1.31802307e-02 -2.12961272e-03 9.14150383e-03 1.02179591e-02 7.53880106e-03 1.82370190e-02 -6.59075892e-03 7.55055854e-03 -1.03350803e-02 -1.89448502e-02 8.90579424e-04 -3.45775206e-03 1.13610970e-02 1.25923865e-02 -1.21986475e-02 -2.00807047e-03 -2.49353349e-02 1.14784269e-02 -7.61670945e-03 4.69284318e-03 3.67262377e-03 -6.64428761e-03 -1.80055443e-02 -7.53992703e-03 1.39900558e-02 2.16346257e-03 6.44541858e-03 -3.30161699e-03 7.41310371e-03 1.08055002e-03 -1.14818336e-02 1.48544461e-02 -9.86996200e-03 5.23467606e-04
-2.13303994e-02 -1.88059080e-02 3.99979390e-03 -2.18778988e-03 -2.55864374e-02 3.87894688e-03 1.58795379e-02 -1.22362599e-02 -1.90086104e-02 1.57864823e-03 1.82956904e-02 2.24414393e-02 -9.61977337e-03 5.57321217e-03 -1.20098405e-02 -1.22583343e-03 8.46681371e-03 -1.50574464e-03 -5.72666060e-03 1.13144601e-02 -2.68058875e-03 -1.69294165e-03 3.10278009e-03 -9.37426055e-04 3.01800831e-03 -4.49764216e-03 -1.03555303e-02 4.05487092e-03 9.75802355e-03 5.33160241e-03 -1.80786010e-02 1.50732649e-03 -1.38611216e-02 -3.17365513e-03 -1.38076385e-02 -1.92171410e-02 -1.19613716e-02 1.82345938e-02 1.79528780e-02 -7.48934597e-03 9.78611503e-03 9.59261972e-03 -6.68288628e-03 -3.64523008e-03 5.23327338e-03 1.89093351e-02 7.65074650e-03 1.95993502e-02 7.47321593e-03 9.56320856e-03 -6.14649057e-03 -1.49110407e-02 2.33641570e-03 1.24908676e-02 3.06470320e-03 -5.50469337e-03 8.16622097e-03 -1.53354993e-02 2.57989820e-02 2.46719383e-02 1.65675059e-02 -2.60612406e-02 -2.05572769e-02 1.53949615e-02 -6.76413940e-04 6.92602200e-03 1.35745015e-03 -8.69989104e-04 -6.82295486e-03 -1.98656805e-02 -5.95556293e-03 -3.45634762e-03 -1.62281226e-02 -1.78696867e-03 4.24485235e-03 2.73708138e-03 9.72733833e-03 1.76304635e-02 6.16399525e-03 1.48918256e-02 1.52644264e-02 -3.67335905e-03 8.36666906e-04 -5.48139855e-04 -2.07705367e-02 -6.15938473e-03 3.63261532e-03 -9.98427998e-03 7.24217316e-05 -1.15308883e-02 1.19053097e-02 -3.68475565e-03 8.98723549e-04 -6.64009573e-03 1.11985458e-02 -7.28845084e-03 -2.85347970e-03 -2.71546608e-03 8.31830874e-03 -4.86872811e-03 1.30369579e-02 1.32500697e-02 1.35887424e-02 -1.00498013e-02 1.42789530e-02 -2.92737532e-04 1.16039189e-02 -4.74157510e-03 -3.45131941e-03 1.29825529e-02 1.28387688e-02 -7.43266894e-03 -2.05388409e-03 -1.52592473e-02 6.44703861e-03 -1.13726442e-03 3.78802395e-03 -3.55964457e-03 2.08487012e-03 1.75834782e-02 -4.19701776e-03 1.55384503e-02 1.31265353e-02 -3.27325403e-03 -1.52201420e-02 8.34206492e-03 -8.71108379e-03 -1.04851248e-02 1.52780637e-02 2.80774548e-03 1.35888914e-02 -1.53452251e-02 3.73649155e-03 -2.46509700e-03 1.36984438e-02 1.37023507e-02 -5.55329397e-03 1.67518593e-02 1.42585792e-04 1.66058987e-02 1.06275789e-02 9.42244660e-04 3.19758290e-03 7.57931825e-03 -3.59252997e-04 2.10578064e-03 1.22843664e-02 -1.85317770e-02 8.41364544e-03 8.47002212e-03 1.21382326e-02 4.88202088e-03 5.31757856e-03 8.87004007e-03 -1.32036814e-02 4.84149018e-03 -2.94135534e-03 2.95964000e-03 -6.33699447e-03 -3.45287216e-03 -6.63105398e-03 -7.82713294e-03 9.71559063e-03 6.67512557e-03 -3.05936672e-04 -1.06415376e-02 8.47113784e-03 4.21116035e-03 1.14858095e-02 -2.88005057e-03 1.97906848e-02 -1.34427948e-02 -8.26372020e-03 -2.33249348e-02 6.47532661e-03 1.14377833e-03 -5.25021926e-03 1.00052608e-02 -1.30939661e-02 9.89203155e-03 7.22849509e-03 -5.30280033e-03 -1.10165086e-02 1.24020502e-02 5.80895972e-03 -1.15035044e-03 -8.41161609e-03 1.29854940e-02 -8.19636136e-03 -2.06852535e-04 -1.11300116e-02 3.31582921e-03 -2.01824568e-02 -2.06532683e-02 1.99177209e-02 -1.53691871e-02 1.41755426e-02 -3.23094404e-03 1.50555037e-02 1.52422581e-02 -1.08249476e-02 -3.46205721e-04 1.37400944e-04 3.97277670e-03 3.40942759e-03 1.61292916e-03 3.83954076e-03 -8.86007864e-03 -1.27438959e-02 -2.07273196e-02 -2.14297371e-03 -8.88392981e-03 -7.42564269e-04 1.69688538e-02 1.55217610e-02 -6.04054052e-03 7.41973752e-03 -2.55743284e-02 1.71431396e-02 -1.20148342e-03 1.80332398e-04 4.88768239e-03 9.53375176e-03 4.59197583e-03 -7.28473184e-04 1.88397877e-02 7.83234928e-03 9.20062326e-03 -7.67608231e-04 1.97627749e-02 2.68633314e-03 -6.83051208e-03 1.19735170e-02 2.03242172e-02 4.08037333e-03 2.17700601e-02 -6.80824043e-03 -7.87999388e-03 -1.88059863e-02 1.18421847e-02 -5.25008421e-03 1.32198296e-02 -1.34829143e-02 -3.25602526e-03 -3.32774245e-03 -5.57006150e-03 -6.07223948e-03 1.29438210e-02 1.81729198e-02 -9.90420207e-03 9.46349557e-03 -6.63182000e-03 -1.56724639e-02 2.19850168e-02 5.10475424e-04 -4.77756280e-03
-1.12260543e-02 -1.68092735e-02 8.29337537e-03 -2.62811985e-02 -1.14851091e-02 1.77843254e-02 1.12633798e-02 -3.36466543e-03 -6.95681013e-03 -1.72369163e-02 6.01051201e-04 1.89620778e-02 5.23453986e-04 2.64381146e-04 3.14592529e-04 -1.23633305e-02 8.73830635e-03 8.64669587e-03 -7.35569140e-03 -2.28691869e-03 1.43778306e-02 5.73085807e-03 1.31427860e-02 -2.36457796e-03 1.15828514e-02 2.00201431e-03 -6.74609747e-03 5.90084493e-03 1.59837194e-02 1.15039982e-02 -1.32839596e-02 6.31111814e-03 -1.43880658e-02 -2.01362465e-02 -1.94459595e-02 -2.04041805e-02 -1.17159653e-02 6.02576789e-03 1.90663058e-02 -4.21710545e-03 2.32342947e-02 1.26954280e-02 -2.46684812e-02 1.16919866e-03 1.53906420e-02 8.34619720e-03 7.31525524e-03 -2.51513300e-03 1.00096511e-02 -4.15657443e-04 5.71506098e-03 -1.35791833e-02 5.99244470e-03 -1.41436458e-02 9.20077320e-03 -1.31027121e-03 1.49336793e-02 -1.71551295e-02 1.87450387e-02 1.94269586e-02 2.77473293e-02 -1.72199085e-02 -1.23647228e-02 2.39242166e-02 -1.00870396e-03 -3.02459439e-03 -3.02822609e-03 -1.95720769e-03 4.03998001e-03 -1.49992639e-02 -1.51808029e-02 3.06569738e-03 -1.82624091e-03 -2.58551370e-02 -1.64267663e-02 -1.81578286e-02 7.50782900e-03 4.63354448e-03 1.19238710e-02 7.89031945e-03 1.38196489e-02 -1.11648790e-03 -1.47495223e-02 -1.20962113e-02 1.90480612e-03 9.45678633e-03 -5.48101310e-03 3.65729630e-03 -1.39134182e-02 -4.45173064e-04 1.50788520e-02 1.10383215e-03 3.21261678e-03 -1.44908139e-02 -6.64451392e-03 6.44132087e-04 8.23157432e-04 1.49554480e-02 1.90112796e-02 -2.71771010e-03 1.00450423e-02 1.53383696e-02 -4.27339878e-03 2.87429779e-03 1.38470810e-02 2.83484347e-03 -3.13759898e-03 9.39178932e-03 -1.35098202e-02 1.47889908e-02 5.85443294e-03 -1.24344155e-02 -5.50302817e-03 -7.10014440e-03 4.90069622e-03 9.11881158e-04 1.96922030e-02 4.73317783e-03 3.76872765e-03 1.41085042e-02 3.61325941e-03 -7.25020422e-03 2.12253425e-02 -6.87800348e-03 8.87677446e-03 -1.31402956e-03 -6.94973767e-03 5.39083686e-03 7.34644663e-03 -1.17034763e-02 4.37348499e-04 -6.87408075e-03 -6.90125220e-04 -6.61001168e-03 1.54846571e-02 7.65062310e-03 -2.38134824e-02 3.47782462e-03 2.81928317e-03 1.41742639e-02 7.18734739e-03 -8.17127805e-03 -1.40418261e-02 1.62147861e-02 -4.63766046e-03 2.43219989e-03 3.44960659e-04 -6.40776660e-03 9.03247297e-03 1.11114336e-02 -8.70375149e-03 7.14613765e-04 -1.72902439e-02 3.38793872e-03 -6.36936352e-03 1.72468852e-02 1.53279107e-03 2.05024648e-02 3.88048799e-03 -1.46717895e-02 7.18669454e-03 -2.79184384e-03 7.86909834e-03 1.76973513e-03 -4.51239198e-03 -8.39587767e-03 -8.91656615e-03 1.31475795e-02 6.50103856e-03 2.41955463e-02 1.87146869e-02 -2.01435350e-02 -1.49085531e-02 -1.75971687e-02 2.67770458e-02 -2.09766328e-02 -8.69260821e-03 1.09071610e-02 -5.23160351e-03 4.70537459e-03 1.27683282e-02 -8.95176549e-03 3.12237581e-03 -1.31322653e-03 -5.63853933e-03 -7.05308327e-03 -9.20761551e-04 7.97448494e-03 7.62901967e-03 -1.31543269e-02 -3.63471522e-03 1.03497207e-02 -2.61161644e-02 -1.62004307e-02 2.24169008e-02 -5.52283460e-03 5.81084844e-03 -3.28684668e-03 8.97062756e-03 1.16651710e-02 2.29937112e-04 3.96129815e-03 -4.44586948e-03 7.09389802e-03 1.84880532e-02 6.68028975e-03 9.13056359e-03 -7.95652065e-03 -1.04443990e-02 -2.69562472e-02 -1.32430056e-02 -8.19388777e-03 -8.09107628e-03 1.58819538e-02 2.72118002e-02 -1.72776692e-02 4.17458778e-03 -3.43344902e-04 6.22350909e-03 -7.39763665e-04 1.47069292e-02 5.09275310e-03 1.53092854e-03 -1.22763477e-02 1.86599977e-02 2.31550615e-02 1.40643427e-02 2.13896371e-02 -6.64091622e-03 7.50966650e-03 -1.60853192e-02 -1.63464155e-02 1.98964924e-02 8.21635034e-03 8.39460548e-03 3.18621146e-03 1.22397381e-03 -1.10945478e-02 2.15778462e-04 7.17019290e-03 3.02517903e-03 1.17670847e-02 -1.54874111e-02 -5.26094809e-03 8.31518264e-04 -2.23925244e-03 -8.02496448e-03 1.84951406e-02 2.01419331e-02 -1.70882011e-03 2.49241926e-02 -1.14038456e-02 -2.28189770e-02 1.78446975e-02 3.89710139e-03 4.63910028e-03
-2.51351427e-02 -1.02382954e-02 1.40909813e-02 -9.65680648e-03 -1.70740057e-02 9.15388204e-03 2.12236922e-02 -2.00736206e-02 -1.74474679e-02 -1.94529127e-02 9.42988228e-03 1.69612877e-02 -1.22932894e-02 1.32974740e-02 -2.05069333e-02 -1.06652873e-02 4.44809004e-04 6.91914046e-03 1.32901617e-03 -8.04996863e-03 1.07894819e-02 7.98031967e-03 -3.00909346e-03 2.49398523e-03 5.26353950e-03 1.85361579e-02 -1.19559318e-02 1.24592409e-02 1.98378526e-02 -2.11159009e-02 -9.59961209e-03 2.30160784e-02 -8.65150150e-03 -9.93445795e-03 -2.79343463e-02 -1.39136193e-02 -2.06741560e-02 1.26594827e-02 1.07739037e-02 -2.52014119e-02 4.65810858e-03 1.38869993e-02 -8.72512814e-03 -2.35526003e-02 2.39322358e-03 1.39851682e-02 1.32227866e-02 1.02710687e-02 1.06175197e-02 -1.05098523e-02 -9.52602364e-03 -1.76145025e-02 -3.21496767e-03 -9.46667325e-03 -7.00945500e-04 -4.07260191e-03 1.58596449e-02 -2.39970647e-02 1.11035453e-02 1.10597368e-02 3.22695002e-02 -2.80928779e-02 -2.82644480e-02 1.22897997e-02 -8.39094166e-03 1.34197883e-02 2.22154614e-02 -4.86382795e-03 1.00298878e-02 -1.87574569e-02 -6.13559317e-03 -6.15170749e-04 -8.72771908e-03 -2.26943828e-02 -2.15989668e-02 -1.13845328e-02 9.43689328e-03 1.70233753e-02 5.01544960e-03 9.51029826e-03 1.48483543e-02 -8.17553326e-03 -1.51674058e-02 -1.19850328e-02 -2.35799104e-02 -1.24633433e-02 1.94087310e-03 -6.17393944e-03 -2.01404039e-02 -1.36253899e-02 1.01767518e-02 1.11791313e-04 -6.03065314e-03 -1.38438838e-02 -1.47041818e-03 1.42217651e-02 -2.22271811e-02 2.24600192e-02 1.17454184e-02 1.10166119e-02 1.94936283e-02 9.78907291e-03 2.17805728e-02 -8.01625103e-03 1.06869433e-02 9.91578959e-03 2.26490051e-02 2.60384916e-03 -3.11663887e-03 1.08031312e-03 7.01067550e-03 -1.02028903e-03 1.92864239e-02 -4.10056347e-03 1.97103843e-02 1.39892157e-02 1.06827673e-02 5.68451313e-03 2.30526198e-02 2.26605590e-02 2.39790715e-02 5.72577910e-03 4.90757124e-03 -9.37508699e-03 -1.36377886e-02 1.90980937e-02 -2.12118812e-02 -2.38898676e-02 1.43607780e-02 -2.44944170e-02 1.80624556e-02 -1.34418607e-02 1.17183765e-02 -2.02191733e-02 5.66158490e-03 2.39142664e-02 -1.56393293e-02 8.47102050e-03 1.18083265e-02 2.39601377e-02 1.78521257e-02 -1.34898536e-02 -2.10634377e-02 1.40160024e-02 -2.26158256e-04 2.05101483e-02 1.77250598e-02 -2.11479957e-03 1.41508905e-02 5.41675510e-03 -2.01207586e-03 -3.02163139e-03 1.81568123e-03 2.20578406e-02 1.69527661e-02 1.70163382e-02 8.57575145e-03 2.57068966e-02 2.57895188e-03 -9.45612509e-03 1.93947293e-02 5.94986975e-03 1.59247518e-02 -6.19932951e-04 1.04040308e-02 -1.93501194e-03 2.24660360e-03 1.07270246e-02 2.80289408e-02 1.00133289e-02 7.06561701e-03 -1.30348494e-02 -1.54007738e-02 -1.62865072e-02 1.80995520e-02 -6.46265736e-03 -1.67867392e-02 1.95127688e-02 7.44012091e-03 5.17130783e-03 -6.06701989e-03 -1.58108100e-02 1.26012564e-02 -9.37020304e-05 -1.37503240e-02 1.45804668e-02 -1.34711722e-02 1.28971273e-03 -8.84452090e-03 2.89119268e-03 -1.59573636e-03 1.72858667e-02 -7.60280015e-03 -3.05421762e-02 1.00716846e-02 -2.04672087e-02 1.92861501e-02 -2.44255345e-02 2.31095701e-02 2.44375318e-02 -1.66328363e-02 6.25957130e-03 -1.95310600e-02 2.41434462e-02 1.41702220e-02 -1.66384522e-02 -4.21555061e-03 -1.36661213e-02 -2.92292684e-02 -1.51319504e-02 -2.79873721e-02 -1.48477918e-02 -2.07446534e-02 9.46959481e-03 3.79642122e-03 -3.66827426e-03 2.12942753e-02 -1.45951994e-02 2.53448579e-02 1.80973262e-02 1.65035557e-02 4.09647543e-03 1.51556078e-02 3.36917769e-03 1.73172671e-02 1.54155632e-02 2.29296666e-02 6.73655188e-03 -2.21529678e-02 1.29839154e-02 -1.42119499e-02 -4.76794736e-03 2.19363868e-02 1.29991695e-02 9.13615804e-03 1.81295834e-02 -2.29381043e-02 -1.27143851e-02 -7.88848009e-03 1.98805835e-02 1.46710809e-04 2.13781726e-02 -1.49959596e-02 2.31276676e-02 -1.90332178e-02 1.93637498e-02 -9.46967304e-03 5.73187135e-03 5.98492799e-03 -2.40987893e-02 2.27869283e-02 -5.00176894e-03 -6.70438074e-03 2.64691170e-02 -1.41651221e-02 -1.96020436e-02
-1.35417953e-02 -6.82562403e-03 2.29811110e-02 -2.73741670e-02 -2.14151405e-02 2.46607214e-02 1.46497274e-02 -2.92630475e-02 -1.99114457e-02 -1.45366797e-02 2.18074843e-02 2.75256597e-02 -2.37310529e-02 3.74905067e-03 -1.50467558e-02 -5.98925399e-03 -1.51301743e-02 6.80668978e-03 -2.34006029e-02 -1.92374401e-02 1.10206353e-02 1.33766336e-02 -5.87619143e-03 6.07742742e-03 4.27360786e-03 5.31742815e-03 -1.98425855e-02 1.04598450e-02 4.02762275e-03 -4.55688499e-03 -1.23214135e-02 4.23575612e-03 -1.73570719e-02 -2.07204241e-02 -1.66921914e-02 -1.52518284e-02 -1.92305576e-02 6.22585509e-03 1.80455670e-02 -2.77537424e-02 1.47159370e-02 1.05663389e-02 -2.69074328e-02 -2.20932905e-02 1.63552761e-02 2.04809122e-02 6.42532716e-03 1.82227958e-02 7.71608623e-03 -2.24424656e-02 -1.18688615e-02 -8.51065479e-03 -9.57292039e-03 -9.85319354e-03 1.14542320e-02 2.34101713e-02 1.64481327e-02 -8.46652221e-03 1.33356517e-02 1.32892970e-02 9.92364250e-03 -2.86483634e-02 -1.94623694e-02 7.70055689e-03 -2.34750472e-02 2.18286943e-02 2.73592584e-02 3.61002306e-03 2.36821827e-02 -1.08753778e-02 -2.10565291e-02 4.11346275e-03 -1.46915708e-02 -1.40171684e-02 -1.96679048e-02 -1.56650506e-02 1.83588490e-02 1.60558112e-02 4.71528387e-03 2.45113578e-02 1.32753560e-02 -1.52116856e-02 -1.47954132e-02 -9.82323568e-03 -2.21679471e-02 1.06024435e-02 -1.66129060e-02 -2.50200052e-02 -2.31684614e-02 -2.18931977e-02 2.33939737e-02 -1.52619025e-02 -1.43478215e-02 -1.30951535e-02 -9.21583455e-03 2.66232975e-02 -2.73692794e-02 7.50658102e-03 2.14062631e-02 2.18664706e-02 2.30958443e-02 1.23523921e-02 1.98470782e-02 -6.57452503e-03 1.89903490e-02 1.07016889e-02 1.48117458e-02 1.20788896e-02 -7.11537432e-03 5.88967232e-03 9.49481875e-03 -1.94394868e-02 4.41257050e-03 -8.56413785e-03 1.87890250e-02 1.48835247e-02 1.98391080e-02 2.45030504e-02 1.42663382e-02 2.37490404e-02 5.42836403e-03 8.88651237e-03 1.21921506e-02 -1.10775279e-02 -2.18213145e-02 7.24093476e-03 -1.93159077e-02 -1.56113170e-02 8.40224791e-03 -1.61226522e-02 6.67154090e-03 -2.70633548e-02 2.09875088e-02 -1.26982331e-02 7.87050836e-03 8.58789124e-03 -2.46069040e-02 2.23531332e-02 1.54056279e-02 2.70497501e-02 1.49338124e-02 -5.01497230e-03 -9.57564451e-03 2.44474299e-02 -2.72313207e-02 6.69488078e-03 1.75647903e-02 -1.58719365e-02 2.51003914e-02 1.01531660e-02 1.70467980e-02 6.02777302e-03 -1.07732182e-02 2.78862137e-02 1.82197951e-02 1.79396495e-02 2.65165586e-02 1.28742596e-02 2.15020068e-02 -1.66112836e-02 2.30600443e-02 1.71239898e-02 1.03962533e-02 1.95550825e-02 6.11199159e-03 -7.44283618e-03 -1.41864670e-02 1.11859664e-02 2.71312743e-02 1.72868781e-02 1.38096092e-02 -1.03604896e-02 -1.87842399e-02 -2.30750144e-02 1.06906155e-02 -5.63186174e-03 -2.35024914e-02 1.75733641e-02 1.20980069e-02 1.35822808e-02 -1.84733570e-02 -1.72743779e-02 1.10846572e-02 -4.48551867e-03 -1.32499561e-02 1.94025449e-02 -2.50753667e-02 7.16244988e-03 -7.65658077e-03 1.19887181e-02 2.52373982e-02 2.58819871e-02 -2.62933169e-02 -3.00694257e-02 1.95842870e-02 -1.71977133e-02 8.86964425e-03 -2.32043248e-02 1.26553224e-02 1.22202644e-02 -2.64129788e-02 4.56981407e-03 -3.96244228e-03 2.52156984e-02 1.79051980e-02 -2.26730965e-02 -1.60977840e-02 -8.10454227e-03 -2.99989991e-02 -2.08141468e-02 -1.67217497e-02 -8.39987211e-03 -1.69658307e-02 1.49208782e-02 7.21612945e-03 -2.51242965e-02 7.40163773e-03 -9.88644827e-03 1.89013202e-02 2.80129816e-02 1.30890878e-02 1.85941998e-02 2.34460458e-02 -1.59248635e-02 1.77308396e-02 2.80550122e-02 2.35976260e-02 9.58035421e-03 -1.76308751e-02 5.68837952e-03 -1.04770223e-02 -7.34286988e-03 1.62164774e-02 2.24100463e-02 9.02257673e-03 2.16377005e-02 -2.36647166e-02 -1.75501909e-02 -2.87546925e-02 2.80781146e-02 3.11115198e-03 4.58817743e-03 -6.57817535e-03 6.17151009e-03 4.23940597e-03 1.27280150e-02 -6.73416536e-03 1.79480724e-02 1.52367381e-02 -1.84999462e-02 1.90752205e-02 -2.67413892e-02 -2.00306289e-02 2.48582680e-02 -2.43443232e-02 -6.13866094e-03
-7.15604518e-03 -1.44820837e-02 2.15365477e-02 -1.28592253e-02 -8.48371722e-03 9.58007667e-03 1.88380964e-02 -1.69925876e-02 -7.65938452e-03 -1.75443199e-02 8.25627521e-03 4.20138380e-03 -1.63101591e-02 1.57600231e-02 -1.81664843e-02 -1.71547884e-03 -4.64059180e-03 1.23995701e-02 -9.01131239e-03 -1.20116062e-02 1.53947752e-02 4.35069174e-04 -1.07092718e-02 -1.65705034e-03 1.75665710e-02 1.19866878e-02 -6.75542699e-03 1.97933763e-02 3.93932266e-03 -1.78600214e-02 -1.15092993e-02 3.26350611e-03 -1.58263817e-02 -2.19207518e-02 -1.60896666e-02 -5.61400037e-03 -1.99548565e-02 1.75892264e-02 2.21331958e-02 -1.18917627e-02 1.84985474e-02 1.06989546e-02 -1.95217486e-02 -3.49866296e-03 4.87823552e-03 1.94860883e-02 1.33323176e-02 4.71494393e-03 -3.23022436e-03 7.51808286e-03 8.43559974e-05 3.45438509e-03 -9.77060408e-04 -1.14294644e-02 5.51138353e-03 -7.96668231e-03 2.27014069e-02 -2.18104739e-02 7.53499335e-03 7.87960272e-03 8.11959989e-03 -9.17509198e-03 -2.66692415e-02 1.43242767e-02 3.72013194e-03 -3.56821949e-03 -4.88770055e-03 3.81619972e-03 1.91044202e-03 -2.12207437e-02 -2.67787799e-02 8.72644596e-03 -5.30859921e-03 -9.47939418e-03 -2.10958123e-02 -9.73727801e-05 1.14115828e-03 1.87911596e-02 3.68583668e-03 8.79000407e-03 1.87710039e-02 -2.71345731e-02 -5.41307591e-03 -9.41004511e-03 2.05028366e-04 6.66716322e-03 5.77048573e-04 -8.46459251e-03 -2.21734121e-02 -1.32060722e-02 -2.27694065e-04 -1.11245620e-03 1.90070679e-03 2.59559485e-03 -1.25000505e-02 -3.35880532e-03 -1.68740060e-02 8.89606681e-03 2.31890269e-02 8.91763810e-03 1.54990777e-02 1.35878446e-02 1.42933670e-02 -9.16744210e-03 7.11594592e-04 6.82446174e-03 1.72834527e-02 1.49847111e-02 4.04378492e-03 7.03725871e-03 6.22524647e-03 -8.22709408e-03 2.24454571e-02 -6.25053421e-03 6.68744231e-03 2.91135255e-03 1.35438470e-02 1.12086572e-02 1.20289112e-02 1.00039942e-02 1.47881964e-03 6.60813879e-03 3.33608856e-04 -2.15412769e-02 1.93351356e-03 1.70551818e-02 -2.14225315e-02 -1.42171327e-02 1.40061062e-02 -1.21103805e-02 4.13041515e-03 -1.23723308e-02 2.11369805e-03 -2.20504077e-03 1.89611111e-02 1.75991263e-02 -1.30155049e-02 2.42051519e-02 1.28609044e-02 1.81038473e-02 1.07843969e-02 -2.13970877e-02 -1.85363479e-02 2.77583557e-03 -4.53028362e-03 2.68862816e-03 9.48096626e-03 -2.77599040e-02 1.01035172e-02 1.21232085e-02 -3.18176555e-03 1.41880717e-02 -1.51321320e-02 3.12882960e-02 7.98816048e-03 2.00571194e-02 1.14236735e-02 1.90354660e-02 -3.49046127e-03 -3.04243923e-03 -5.52406535e-03 -6.32949360e-03 2.14033481e-03 2.06889817e-03 7.51241902e-03 5.47420606e-03 9.41060763e-03 -1.20338034e-02 1.53380819e-02 1.85829718e-02 6.89706625e-03 -2.32933965e-02 -1.68398414e-02 -5.50115528e-03 2.35304814e-02 -5.71888965e-03 5.04203793e-03 1.53636923e-02 6.20577484e-03 1.07930892e-03 -1.19108763e-02 -2.61067110e-03 7.16208899e-03 3.07786325e-03 -1.55683588e-02 7.87035096e-03 -2.99412734e-03 2.63532600e-03 3.37964942e-04 -3.14229401e-03 -9.50780115e-04 -3.55605851e-03 -2.42378004e-03 -1.95592344e-02 1.19637065e-02 -1.88917071e-02 1.99840833e-02 -1.99169163e-02 6.24343753e-03 2.08642595e-02 -8.24077334e-03 3.48010799e-03 -2.19379389e-03 7.71022774e-03 4.48636711e-03 -4.88200504e-03 -1.22218067e-02 -1.76517498e-02 -7.68577866e-03 -2.13149097e-02 -1.81706883e-02 -1.06848571e-02 -1.13375094e-02 1.38112549e-02 1.86822470e-02 -2.16391846e-03 1.01316925e-02 -1.04546025e-02 1.02298185e-02 5.80408797e-03 7.86167942e-03 1.57449450e-02 3.48737813e-03 -6.00207923e-03 1.76826771e-02 1.34336054e-02 1.68580674e-02 1.45320268e-02 -2.67663854e-03 2.29745470e-02 -4.20243293e-03 -4.36605420e-03 1.49612885e-03 9.73851699e-03 1.40230143e-02 6.89699955e-04 -8.36259034e-03 -2.06002183e-02 -1.40410839e-02 1.04346545e-02 1.90428493e-03 1.29172932e-02 -1.91351480e-03 8.37942399e-03 7.77356385e-04 1.72953715e-03 -9.16939788e-03 1.64949130e-02 2.43592933e-02 -7.22899195e-03 2.63722381e-03 -2.06185412e-02 -8.88400525e-03 1.15699302e-02 -2.36224886e-02 -2.34993137e-02
-8.58798064e-03 -5.82222501e-03 1.05536440e-02 -6.40812051e-03 -6.46456471e-03 1.74675882e-02 9.76435747e-03 -1.17937727e-02 -1.30389612e-02 -1.47450445e-02 8.04511923e-03 2.06268989e-02 -9.72916081e-04 3.36871692e-03 -3.93760018e-03 -1.25891611e-03 -1.42354388e-02 7.22378120e-03 -1.29740583e-02 -5.20388596e-03 3.84205393e-03 3.90839018e-03 1.11342943e-03 9.63834859e-03 6.67785807e-03 1.96373258e-02 -1.58082321e-02 2.25764569e-02 4.87881387e-03 -1.55992499e-02 -1.27359983e-02 2.47371998e-02 -1.37598347e-02 -1.50208315e-02 -8.37691966e-03 -1.36688566e-02 -6.06611418e-03 2.11068876e-02 1.62650067e-02 -2.67481487e-02 2.43343245e-02 2.10193098e-02 -2.47658882e-02 -7.06225354e-03 1.63015909e-02 2.34088209e-02 3.59109463e-03 1.23946220e-02 8.01237114e-03 -1.28895184e-02 -8.05881806e-03 -2.36957576e-02 -3.02813621e-03 -2.30529811e-02 1.80152003e-02 1.21386331e-02 1.92334633e-02 -1.33694466e-02 7.69621879e-03 1.57537106e-02 2.96899974e-02 -1.96011923e-02 -6.90762466e-03 2.39793900e-02 -9.81777068e-03 9.68541857e-03 1.64713245e-02 -1.13557070e-03 2.60561798e-02 -1.01341652e-02 -1.36071909e-02 7.36472383e-03 -1.03964042e-02 -1.70017760e-02 -1.34061389e-02 -1.83201525e-02 1.71719808e-02 2.61241347e-02 4.50250600e-03 5.35820890e-03 1.02282166e-02 -5.25061879e-03 -1.52051412e-02 -1.15123866e-02 -2.24878360e-02 1.27097312e-03 -8.69512558e-03 -2.04669908e-02 -6.71770982e-03 2.87365541e-03 8.25358031e-04 -1.71616152e-02 -1.07068531e-02 -2.04495838e-04 -5.34524349e-03 1.85337197e-02 -1.19785694e-02 6.86496403e-03 2.47060377e-02 1.74545944e-02 1.52566675e-02 6.92164805e-03 1.43205607e-02 -1.80984335e-03 5.19054988e-03 9.55114141e-03 2.32300553e-02 1.05464868e-02 -7.12633971e-03 1.10580269e-02 9.03935451e-03 -1.64820012e-02 2.01672353e-02 -2.06307843e-02 1.23909516e-02 5.54966088e-03 2.55666394e-02 2.05685198e-02 2.14552376e-02 2.34064832e-02 4.23305109e-03 2.29222160e-02 2.18994543e-02 -1.55664813e-02 -8.06640089e-03 9.67631675e-03 -8.07281397e-03 -9.19172354e-03 1.68605559e-02 -1.03418352e-02 5.16297715e-03 -1.44591425e-02 1.08771725e-02 -1.58075858e-02 1.67370923e-02 8.51747021e-03 -1.97279006e-02 4.74659447e-03 1.15744779e-02 2.26667281e-02 1.32775763e-02 -4.93538054e-03 -1.87175069e-02 2.88342573e-02 -2.15251800e-02 1.57524701e-02 1.42126074e-02 5.69509203e-03 7.79586518e-03 2.05214545e-02 4.88864817e-03 4.14091907e-03 -2.82104407e-03 3.44984024e-03 1.26270028e-02 2.88261008e-02 1.16666220e-03 9.90099367e-03 8.29296466e-03 -2.48092059e-02 1.06807258e-02 1.16827578e-04 4.45737690e-03 1.18425186e-03 1.46381604e-02 -1.24773886e-02 -1.70236193e-02 1.87156424e-02 1.96880475e-02 8.53562541e-03 1.28514217e-02 -2.19834968e-02 -1.45010045e-02 -2.04526708e-02 6.22403435e-03 -1.29496893e-02 -1.96894966e-02 7.21320417e-03 -1.13482936e-03 2.19162516e-02 -1.23100439e-02 -2.33944394e-02 1.16020218e-02 2.09622295e-03 -1.47355357e-02 1.29047772e-02 -1.23780640e-02 7.90660828e-03 -1.64740290e-02 8.01555999e-03 -8.40848661e-05 7.50042638e-03 -1.34482887e-02 -2.70805620e-02 2.17745118e-02 -1.12068420e-02 1.73569936e-02 -1.54650146e-02 2.08538957e-02 4.82462300e-03 -1.09406244e-02 5.90172317e-03 -6.39823219e-03 2.91705653e-02 2.43328493e-02 -1.03864418e-02 -1.80978607e-02 -1.57503132e-02 -2.02229265e-02 -7.76112173e-03 -1.37339067e-02 -7.00828480e-03 -1.77655052e-02 1.63120609e-02 2.71598157e-02 -1.97786633e-02 1.35648521e-02 -1.66707784e-02 1.33985765e-02 6.80218916e-03 6.16932753e-03 2.01239362e-02 5.51905809e-03 -7.95914326e-03 2.17199624e-02 1.33826742e-02 1.79515164e-02 1.90571975e-02 -1.82217099e-02 2.28513014e-02 -1.02123413e-02 -9.70469601e-03 2.19103117e-02 6.30731462e-03 5.87390037e-03 6.33598212e-03 -5.63678844e-03 -7.54034659e-03 -7.78378826e-03 2.54368261e-02 2.42160191e-03 1.62669607e-02 -7.66691193e-03 5.85307833e-03 -1.55627681e-03 1.54299836e-03 -5.85290976e-03 9.14386846e-03 1.70345902e-02 -8.02688301e-03 6.30690856e-03 -1.08888298e-02 -1.43417763e-02 2.37630103e-02 -1.80241577e-02 -1.08647617e-02
-7.98948202e-03 -2.11248267e-02 2.81853061e-02 -1.49629479e-02 -2.16645375e-02 1.69939566e-02 2.20853444e-02 -1.33329704e-02 2.87908432e-03 -1.31848566e-02 2.16127150e-02 7.96442106e-03 -3.14253819e-04 7.29938690e-03 9.37467348e-03 3.81501112e-03 -4.65427944e-03 -3.27425147e-03 -6.16781786e-03 3.37255932e-03 1.73448324e-02 -6.07539492e-04 -5.93722099e-03 1.50351906e-02 1.76511053e-02 2.06625368e-02 -1.99546814e-02 -3.55333439e-03 4.52752039e-03 9.77197848e-03 -2.14779750e-02 1.74003672e-02 -2.12714802e-02 -2.26578768e-02 -1.28595484e-02 -2.82549392e-03 -1.89013220e-02 -3.56288729e-05 1.42068276e-02 -1.22479983e-02 6.43387111e-03 -3.44186439e-04 -2.48164181e-02 -3.22054024e-03 -4.21492057e-03 1.93877332e-02 9.20223352e-03 8.49906169e-03 1.20624872e-02 -1.62967928e-02 -1.46882311e-02 4.48550377e-03 -1.03567762e-03 -7.81651307e-03 5.99339558e-03 -6.76945643e-03 7.74302753e-03 -1.39843570e-02 6.59115333e-03 1.45902252e-02 2.30422411e-02 -2.41680536e-02 -1.24772638e-02 1.31971603e-02 2.05925084e-03 1.25242034e-02 1.22544430e-02 -6.03345037e-03 -1.14767044e-03 -8.58751964e-03 -2.36085262e-02 -1.29640084e-02 -1.48906894e-02 -2.78862230e-02 -2.03988813e-02 -2.49375589e-02 1.57760140e-02 6.71215774e-03 1.02036204e-02 2.14873180e-02 1.68390537e-03 -8.42992589e-03 -1.25426296e-02 2.61005829e-04 -1.89865921e-02 8.88017192e-03 -3.37174186e-03 -2.67185667e-03 -1.36963674e-03 -7.03528151e-03 1.18165389e-02 -1.48252975e-02 5.00135217e-03 -1.28714265e-02 -1.66072082e-02 6.68552518e-03 -1.45964511e-02 2.03452390e-02 1.66078229e-02 6.17752725e-04 6.07265905e-03 2.30116583e-02 -5.62533643e-03 -4.80001746e-03 2.46406980e-02 -3.58137838e-03 -6.94488036e-03 1.46631673e-02 -3.69404489e-03 1.24034863e-02 3.74900852e-03 -1.74057204e-02 1.39906546e-02 5.63179608e-03 1.67726055e-02 1.19854175e-02 2.15982664e-02 8.54895171e-03 5.43646654e-03 1.81342270e-02 1.16231488e-02 2.34725396e-03 1.28505100e-02 -2.59187911e-02 5.46042016e-03 7.85453431e-03 -1.60229336e-02 -2.66943802e-03 1.69553105e-02 -3.75265372e-03 1.23602375e-02 -1.61443148e-02 6.75420882e-03 -1.14605939e-02 1.98735055e-02 2.29793414e-02 -2.76163723e-02 1.82103533e-02 2.40674079e-03 -1.31085375e-03 1.21370498e-02 -1.77551452e-02 -1.79606192e-02 1.41199762e-02 -1.74812786e-02 9.98927280e-03 6.40275097e-03 1.18294982e-02 3.00121726e-03 1.96578279e-02 1.36015741e-02 4.40146215e-03 4.18267329e-04 1.21950861e-02 3.23323440e-03 1.59345679e-02 1.73148885e-02 2.01368332e-02 1.14899864e-02 -1.48932580e-02 4.28535789e-03 -7.25018280e-03 1.06604341e-02 -9.79623199e-03 9.82880592e-03 -9.52709373e-03 5.04078064e-03 1.60316378e-02 7.03408243e-03 2.34459396e-02 1.40590984e-02 -1.77335311e-02 -2.24754885e-02 -1.80615392e-02 1.49621619e-02 -1.96994338e-02 8.58224928e-03 1.32986037e-02 1.42681692e-02 4.77483636e-03 -7.26144481e-03 -2.30771769e-03 -1.06655238e-02 1.42349512e-04 7.58413272e-03 -1.63926464e-03 5.02567552e-03 -5.36279660e-03 9.43157170e-03 -8.38296395e-03 1.12627493e-02 1.33014470e-02 -8.13666359e-03 -1.68336406e-02 6.44263299e-03 -2.56253276e-02 2.15996932e-02 -5.67342248e-03 1.08192787e-02 2.08583511e-02 3.66569642e-04 1.36588803e-02 -9.87865147e-04 2.65686214e-02 1.30980229e-02 1.26482584e-02 1.30573101e-02 -9.22679435e-03 -1.31686047e-05 -1.49307288e-02 -2.32741088e-02 -4.77517582e-03 -5.26038697e-03 7.42854364e-03 1.38115957e-02 -1.75267737e-02 1.94088388e-02 7.50040344e-04 3.51381837e-04 2.35178205e-03 2.00817604e-02 1.08264675e-02 2.08122972e-02 -2.65356596e-03 2.06459444e-02 1.46487271e-02 1.86866820e-02 2.59300731e-02 -7.79438997e-03 1.18564693e-02 -1.63047835e-02 -2.55074557e-02 5.45222638e-03 -3.33067239e-03 6.21598912e-03 2.19159038e-03 1.40123465e-03 -6.17365353e-03 -3.39042454e-04 1.85252614e-02 3.84398689e-03 1.93504915e-02 -1.12380516e-02 -1.39633287e-03 1.10738827e-02 -1.68934942e-03 6.76457537e-03 1.90522987e-02 2.66994946e-02 -1.49172284e-02 1.89879648e-02 -1.19495522e-02 -1.47680044e-02 1.48456693e-02 -1.96455810e-02 -6.65327022e-03
-2.31775101e-02 -1.04559055e-02 1.99536551e-02 -1.08447243e-02 -9.01172683e-03 1.96317323e-02 1.18525112e-02 -2.09080297e-02 -9.40996408e-03 -7.01267039e-04 -4.13007475e-03 9.79370624e-03 -1.42054893e-02 1.17141372e-02 -4.97254543e-03 -8.72005336e-03 -4.85662092e-03 -4.94501879e-03 -1.07495626e-02 -6.50118617e-03 7.62645714e-03 1.33466814e-03 -2.32475647e-03 1.26958918e-02 -1.61863677e-03 2.82340264e-03 1.81977113e-03 1.76993832e-02 7.62416190e-03 -4.10324847e-03 7.73831678e-04 9.33746994e-03 -5.88409230e-03 -1.04764123e-02 -7.55575020e-03 -1.25293052e-02 -1.53197283e-02 1.97365731e-02 1.62090417e-02 -1.24069741e-02 -1.43501523e-03 1.30679309e-02 -2.00773831e-02 -3.86300031e-04 3.43461381e-03 1.21420743e-02 1.64167210e-02 1.48919933e-02 9.40689631e-03 -5.26314694e-03 -1.33120008e-02 1.18828134e-03 -6.97965641e-03 -8.81276838e-03 -5.95944410e-04 -9.90540907e-03 1.61242101e-03 -2.08863113e-02 1.42250312e-02 2.29564663e-02 2.65488867e-02 -9.92479548e-03 -1.42482696e-02 1.12053230e-02 -2.50406214e-03 -6.54341653e-03 1.14070829e-02 5.66041330e-03 3.19032394e-03 -1.26315849e-02 -1.25114489e-02 -1.26276733e-02 -1.56408325e-02 -3.85762122e-03 -8.83894041e-03 -1.04909435e-04 4.18682909e-03 1.52455997e-02 6.07512891e-03 -2.28382205e-03 -4.41433769e-03 -2.36373655e-02 -4.77111107e-03 1.86376320e-03 -1.54953077e-02 1.72028635e-02 3.24472366e-03 -6.50613662e-03 -8.97273887e-03 -1.43638523e-02 1.16288909e-04 -1.10413106e-02 1.46249216e-03 9.21986159e-03 -2.34887120e-03 3.75200470e-04 -1.32258963e-02 1.36714866e-02 1.17467064e-02 -1.63144869e-04 3.00791534e-03 -2.05694651e-03 7.47800758e-03 -1.93452835e-03 -4.63324832e-03 7.55141629e-03 1.55286957e-02 7.25604873e-03 -1.37094017e-02 -8.63370020e-03 1.23540871e-02 -4.00442351e-03 -4.72586975e-03 -1.24327270e-02 1.65258367e-02 -5.97748812e-03 6.01567840e-03 1.19931409e-02 1.52856822e-03 -1.41687377e-03 7.43774697e-03 1.30146965e-02 1.37663670e-02 -2.00253967e-02 -1.04014641e-02 1.53022474e-02 -1.28561249e-02 4.76591475e-03 9.33013484e-03 -7.39419507e-03 -4.41921502e-03 -1.00190779e-02 1.50162177e-02 -5.51086664e-03 3.42099741e-03 5.36648463e-03 -4.13898891e-03 -2.33862503e-03 -2.21639918e-03 1.51631171e-02 2.74313726e-02 -1.38214109e-02 -1.49754779e-02 1.25249997e-02 -8.75611033e-04 -8.69662035e-04 1.68373645e-03 -6.11311942e-03 6.04287675e-03 -5.71240531e-03 5.07439300e-03 -2.74923863e-03 4.13758028e-03 8.50751903e-03 6.95168227e-03 1.56976748e-02 9.54521995e-04 1.46102422e-04 4.80589457e-03 -8.25963262e-03 7.84156006e-03 -2.20424356e-03 1.37509068e-03 -9.40661132e-03 -6.00440009e-03 4.04785899e-03 6.20329520e-03 -1.18371220e-02 -5.96852478e-05 5.21262735e-03 1.36709623e-02 -2.48278882e-02 -2.11471729e-02 -1.83592346e-02 1.00150071e-02 -2.11201217e-02 -6.94450398e-04 8.49529915e-03 1.73529296e-03 3.72595899e-03 -5.88099530e-04 -1.79910343e-02 5.13707474e-03 -7.21024722e-03 -3.39357392e-03 -6.47623418e-03 -1.00808581e-02 6.68433355e-03 4.38804133e-03 2.88619776e-04 4.54558898e-03 -6.66407309e-03 -1.23952264e-02 -1.31808138e-02 5.16740885e-03 -1.08536128e-02 1.64689831e-02 -9.06016026e-03 5.22314711e-03 1.45793073e-02 -1.06816543e-02 1.50562543e-03 1.00567341e-02 2.10718662e-02 4.91115544e-03 -5.27266273e-03 2.12174351e-03 -8.31301615e-04 -2.18498474e-03 -1.87720843e-02 -1.41854454e-02 -1.31774256e-02 -2.16451213e-02 1.98325701e-02 -2.99939327e-03 -1.85583215e-02 8.71259067e-03 -1.09899333e-02 4.64232080e-03 8.74295540e-04 -2.07209890e-03 4.63960040e-03 5.47833834e-03 -2.82789988e-05 1.49469059e-02 1.88686214e-02 1.29482914e-02 1.59449484e-02 2.47364212e-03 3.43077746e-03 -4.70580417e-04 -1.78482700e-02 1.13128070e-02 4.41043824e-03 7.47483363e-03 8.15504696e-03 -2.40196963e-03 -6.28669467e-03 -1.28604397e-02 2.68654642e-03 7.20073562e-03 -8.50485358e-03 -1.56193003e-02 -3.36381025e-04 -1.16581786e-02 1.26992334e-02 -1.28757628e-03 2.83199851e-03 1.55845694e-02 -2.65307445e-03 5.01588872e-03 -1.83837442e-03 -1.15513029e-02 4.15507879e-04 -1.45643996e-02 -2.11881138e-02
-1.58445481e-02 -1.88895725e-02 5.29979588e-03 -1.16727436e-02 -2.22156346e-02 1.70241762e-02 1.69442296e-02 -9.36057046e-03 -2.48572882e-02 -7.71523034e-03 2.28704046e-02 2.47208793e-02 -4.30016685e-03 2.16165297e-02 -1.84755661e-02 -1.98190175e-02 -1.84280705e-02 -1.50344959e-02 -3.72041250e-03 -2.63133249e-03 6.97566243e-03 1.37787862e-02 -1.19436793e-02 -1.52443547e-03 1.68791991e-02 2.07877290e-02 -1.01891961e-02 6.23008003e-03 6.93498319e-03 -1.49297090e-02 -2.11985558e-02 2.34343354e-02 -1.78795382e-02 -7.42225721e-03 -1.36902779e-02 -1.69922318e-02 -1.51559422e-02 1.01491148e-02 1.66321304e-02 -1.27101960e-02 1.99157633e-02 2.19829101e-02 -6.10937923e-03 -2.45209113e-02 1.22020915e-02 1.08979121e-02 5.34838857e-03 2.16827150e-02 1.42266313e-02 5.74656483e-03 2.48200539e-03 -8.33669957e-03 -2.06705206e-03 -1.83148903e-03 -1.98004302e-03 1.43502019e-02 1.14572207e-02 -1.42404521e-02 1.44119393e-02 1.02163162e-02 1.62494313e-02 -2.34377999e-02 -2.17975266e-02 2.73678806e-02 -1.70202758e-02 1.82573795e-02 -3.87303880e-03 1.36230537e-03 1.47669269e-02 -6.14367286e-03 -1.32990750e-02 4.85487515e-03 -2.20669787e-02 -2.45872103e-02 -2.20151376e-02 -2.22904515e-02 8.94070230e-03 7.58035574e-03 1.30682634e-02 7.97811523e-03 1.53893018e-02 -1.12591581e-02 -1.75615568e-02 -1.74200479e-02 -9.99547448e-03 -8.79956596e-03 -1.44858807e-02 -3.55096417e-03 -7.04044895e-03 -2.59757359e-02 1.75207555e-02 -1.95046943e-02 -1.50789116e-02 -8.52968078e-03 -1.52035737e-02 2.39117281e-03 -1.99561175e-02 8.25385097e-03 2.06614137e-02 2.59079132e-03 7.00105680e-03 1.94813646e-02 2.15482581e-02 -1.05535043e-02 1.98417511e-02 1.50294052e-02 1.43053746e-02 2.79765995e-03 -8.97112396e-03 8.39340873e-03 1.23627707e-02 -1.13679133e-02 2.24876944e-02 -1.67227220e-02 4.88525396e-03 2.52664611e-02 1.20376749e-02 1.63191743e-02 4.61829640e-03 2.38740072e-03 9.89474356e-04 2.39955336e-02 7.57092889e-03 -1.50067648e-02 -1.00090196e-02 3.75323580e-03 -2.03987826e-02 -1.30067114e-02 4.63831984e-03 -1.17488531e-02 2.36011408e-02 -1.85097940e-02 2.31910273e-02 -7.97479320e-03 2.25002021e-02 2.38561425e-02 -6.75474806e-03 1.41076241e-02 1.36778140e-02 2.99069416e-02 2.13675909e-02 -1.06234346e-02 -2.24986393e-02 2.57921610e-02 -2.04417668e-02 1.65365310e-03 7.15237577e-04 -1.10391090e-02 1.21989995e-02 -2.50090822e-03 7.93747883e-03 9.68435500e-03 -5.29520120e-03 2.80003734e-02 8.91428906e-03 1.00775380e-02 3.60517786e-03 1.29415942e-02 1.60069652e-02 -1.32652419e-02 2.79716915e-03 -4.00434714e-03 -1.09605887e-03 1.38964644e-03 1.38632525e-02 -8.63808207e-03 2.29900377e-03 1.29028978e-02 2.40403153e-02 2.04101913e-02 2.54013911e-02 -8.49303324e-03 -3.08866221e-02 -1.34449089e-02 2.16236096e-02 -1.31063256e-02 -8.55434500e-03 1.38898920e-02 -3.26020643e-03 1.69583447e-02 -1.23887444e-02 -1.43422438e-02 -1.11061137e-03 -1.15370005e-02 -6.70188479e-03 -1.44119503e-03 -1.84555426e-02 1.02448724e-02 -1.66082494e-02 1.04015192e-03 1.32311545e-02 1.80403739e-02 -1.25108892e-02 -1.19245322e-02 1.68279093e-02 -6.71967911e-03 1.75293945e-02 -1.35255139e-02 2.60133538e-02 1.07353544e-02 -1.54444231e-02 8.55380856e-03 -2.15627700e-02 2.27290038e-02 2.40678689e-03 -2.14617383e-02 -1.51004235e-03 -1.29148485e-02 -9.33228340e-03 -2.21499093e-02 -2.19016764e-02 -2.94161551e-02 -1.42858755e-02 1.96429398e-02 2.23847963e-02 -1.84276644e-02 2.33397819e-02 -1.31587060e-02 3.21604609e-02 1.36005627e-02 1.64675042e-02 1.61769928e-03 3.91868502e-03 -1.42241623e-02 6.63322443e-03 1.57739632e-02 1.52641609e-02 2.55816206e-02 -1.92769207e-02 7.96916243e-03 -7.29979668e-03 -3.51319765e-03 1.51612489e-02 2.53289919e-02 6.95562176e-03 2.33924501e-02 -2.67242882e-02 -1.31540745e-02 -1.41268494e-02 1.37503827e-02 2.03355253e-02 -1.89530861e-03 -5.39273024e-03 1.02382600e-02 -3.32982116e-03 4.17550124e-04 -8.74181371e-03 1.48001441e-03 1.97101627e-02 -1.63349118e-02 8.33314285e-03 -1.45774446e-02 -8.26611463e-03 1.19521683e-02 -1.92174297e-02 -8.04459117e-03
