-1.06417993e-02 -2.80077220e-03 1.88781936e-02 -1.71845313e-02 2.69528222e-03 1.04992473e-02 2.69436790e-03 2.19630558e-04 -6.23103278e-03 -3.75113357e-03 4.74266754e-03 1.97745487e-02 -3.73035111e-03 1.03819128e-02 -9.84735694e-03 -1.46443248e-02 -7.13471044e-03 1.59015097e-02 -1.25934966e-02 -5.86075196e-03 1.47296656e-02 -6.08615903e-03 5.85202361e-03 1.41192907e-02 9.08009335e-03 1.66073442e-02 -9.98229999e-03 1.19805317e-02 1.33518986e-02 -4.72717965e-03 -2.05873083e-02 -5.81885269e-03 -1.02114677e-02 -1.62392519e-02 -9.18837730e-03 -1.26435934e-02 -1.06607983e-03 2.66524614e-03 1.38901230e-02 -7.17584556e-03 2.02545673e-02 1.60263292e-02 -8.47168919e-03 1.22503412e-03 8.41587223e-03 1.80074088e-02 2.13537291e-02 1.18125984e-02 8.04320164e-03 -1.83966570e-02 2.41142209e-03 -1.27535407e-03 -2.23120376e-02 -7.42405234e-03 1.24632167e-02 2.23081931e-03 4.94598318e-03 -2.01926976e-02 4.30862885e-03 7.70046841e-03 2.57190131e-02 -2.20180377e-02 -7.03291129e-03 -1.24978251e-03 -5.17224567e-03 1.13757160e-02 4.88518365e-03 -4.11012582e-03 1.23529416e-02 -8.37771315e-03 -2.11764202e-02 5.27580734e-03 -2.90952949e-03 -1.30942184e-02 2.32834322e-03 -2.35548778e-03 -3.37312883e-03 1.95367401e-03 2.24692631e-03 1.49208736e-02 1.77588395e-03 -3.84952803e-03 -3.24825128e-03 -2.75053829e-03 -2.17506755e-02 1.63912140e-02 -3.16535751e-03 -1.49299325e-02 -2.31283084e-02 -3.92482709e-03 4.45524696e-03 -4.91004810e-03 -2.93307309e-03 -4.59170638e-04 -1.26100685e-02 1.70631614e-02 -8.20832420e-03 2.90820282e-03 1.04967672e-02 1.15983337e-02 1.09750638e-02 1.86852068e-02 1.08595937e-02 -5.64810308e-03 1.33724911e-02 5.70772635e-03 -3.43115628e-03 8.41400120e-03 -8.27647105e-04 8.06132145e-03 4.02845955e-03 -1.14909131e-02 3.64612817e-04 -2.54511600e-03 6.99910510e-04 1.64500496e-03 1.10973138e-02 6.17421512e-03 5.20751206e-03 6.57874951e-03 3.44166672e-03 8.39919597e-03 1.83025431e-02 -1.55323036e-02 3.52673628e-03 6.09245012e-03 -1.46440146e-02 -1.08203785e-02 9.79737565e-03 -2.74889800e-03 -8.05211999e-03 -1.24205049e-04 -7.37903547e-03 -1.89276822e-02 1.34979105e-02 7.98373297e-03 -9.30957869e-03 1.57521702e-02 1.04135908e-02 -8.74500163e-03 -6.36539515e-03 -1.53231649e-02 -3.66031891e-03 2.50854511e-02 -1.41407857e-02 7.60855060e-03 9.95521061e-03 1.56133519e-02 4.32567584e-04 1.68818403e-02 6.43433305e-03 5.41759934e-03 -1.89063996e-02 1.34379312e-03 -2.46807048e-03 2.61408258e-02 9.87954158e-03 2.47234460e-02 2.55951774e-03 -1.73212681e-02 1.27848089e-02 3.17417854e-03 2.18695533e-02 1.19388243e-02 1.35029601e-02 -1.04258722e-02 -1.25831435e-03 1.42604085e-02 1.54882921e-02 2.51761060e-02 1.11186597e-02 -1.79255549e-02 -1.02970377e-02 -1.11104958e-02 2.61330865e-02 -2.04775725e-02 -4.60847979e-03 1.93264242e-02 1.79383699e-02 -5.23683010e-03 7.20473239e-03 -1.78412981e-02 -4.43187216e-03 5.96191222e-03 -2.94994819e-03 -1.53113855e-03 -1.90111492e-02 7.05011887e-03 -1.30312117e-02 -6.72919862e-03 9.50660836e-03 1.75751671e-02 -2.76185274e-02 -5.67987002e-03 2.27790345e-02 -1.29006887e-02 -1.84562802e-03 -1.40286665e-02 2.24509966e-02 1.07358685e-02 -5.44016249e-04 -2.61942181e-03 -8.40545632e-03 1.33416327e-02 6.80928957e-03 3.78633291e-03 3.09760508e-04 -2.14702613e-03 -1.35684432e-03 -1.23196235e-02 2.49604142e-04 3.60226864e-03 -1.42304692e-02 5.88583155e-03 2.40535364e-02 -2.28144526e-02 1.81187764e-02 -5.81885579e-05 1.02028362e-02 1.08663356e-02 5.93924243e-03 -8.15012213e-03 -8.81827000e-05 -1.78846449e-03 1.39111904e-02 4.10953537e-03 -2.55766930e-03 2.40296833e-02 1.05734561e-02 1.04566235e-02 -2.78455531e-03 -2.35862914e-03 4.13521519e-03 3.51982703e-03 1.21199200e-03 1.22430120e-02 3.47666279e-03 -8.12682137e-03 3.08417738e-03 1.02125164e-02 -2.43486441e-03 1.05326399e-02 -6.92163827e-03 4.73948754e-03 2.46882867e-02 3.93351819e-03 4.84193023e-03 1.16296755e-02 1.34284096e-02 8.86713213e-04 1.17797842e-02 -5.14947576e-03 -2.15203892e-02 2.16870867e-02 5.46264881e-03 3.37360497e-03
-1.83167085e-02 -1.45254983e-02 5.89541020e-03 2.82918743e-04 -7.79254595e-03 1.90000106e-02 1.13096824e-02 -2.25767344e-02 -2.71825376e-03 -6.73151528e-03 1.19621083e-02 8.71045981e-03 -7.03949947e-03 -6.99276617e-03 -5.41757850e-04 -6.29343325e-03 -5.13420859e-03 -1.21484203e-02 2.07878253e-03 -1.32051879e-03 1.46218184e-02 9.24323685e-03 1.33694522e-02 -8.80155619e-03 4.99542151e-03 3.38554429e-03 -7.07945740e-03 9.59364697e-03 8.80583469e-03 1.56386511e-03 -7.97255151e-03 -1.11183629e-03 -1.03850085e-02 -9.58753098e-03 -1.71325244e-02 -1.32372901e-02 -9.60098021e-03 4.74226056e-03 1.15531348e-02 -1.42416693e-02 1.93940625e-02 -1.14771212e-03 -1.33117591e-03 -9.52916220e-03 6.34817965e-03 1.43915005e-02 7.31557375e-03 1.10427700e-02 -7.05336640e-03 3.73550312e-04 4.75183874e-03 1.15724336e-02 -8.75195581e-03 7.49680540e-03 -3.48860794e-03 -1.02893971e-02 1.73515044e-02 -4.16804571e-03 1.89709421e-02 2.48722150e-03 2.11621430e-02 -2.14698128e-02 -4.55519464e-03 1.85195021e-02 -5.19900071e-03 3.53829478e-06 -1.30073046e-02 -2.86171143e-03 -1.66488870e-03 1.13406719e-03 -6.53474033e-03 2.77069863e-03 3.98312183e-03 -2.63616885e-03 -1.52229406e-02 -1.29009802e-02 6.92896405e-03 4.57448838e-03 6.13842998e-03 9.85211227e-03 3.42197629e-04 -2.28161626e-02 -9.18582827e-03 -1.76073471e-03 -1.66712664e-02 -3.78920417e-03 9.52165853e-03 -9.11745708e-03 -1.41390611e-03 -3.02187148e-02 -4.04817605e-04 -6.03042450e-03 1.69278886e-02 7.38322409e-03 7.01246737e-03 -5.17013716e-03 -1.23317409e-02 2.26564170e-03 1.25726908e-02 1.15969649e-03 8.33930634e-03 1.54298823e-03 6.12281356e-03 7.77999929e-04 4.60340176e-03 2.81952554e-03 1.23008760e-02 7.70539744e-03 -1.05625782e-02 -6.86039543e-03 1.33873941e-02 -3.11136013e-04 2.79891491e-03 -2.07419693e-03 1.00628957e-02 1.17295664e-02 5.21844812e-03 9.48192086e-03 -3.04425810e-03 3.74020473e-03 1.41787613e-02 6.85316976e-03 -2.57398817e-03 2.98769446e-05 8.57274793e-03 -7.82368705e-03 -2.39425595e-03 4.45818389e-03 -6.22916443e-04 -4.35937243e-03 2.23585870e-03 1.63715961e-03 -3.51315807e-03 -4.78955172e-03 2.14653090e-03 4.63047158e-03 -4.03116876e-03 9.83311329e-04 -3.42031382e-03 2.28945930e-02 2.75267661e-02 -3.51690664e-03 -5.66355605e-03 1.42840492e-02 1.18432865e-02 -6.54440094e-03 -6.04323763e-03 -6.64097909e-03 -8.71975534e-03 -5.76253980e-03 -2.91821919e-03 -1.11472625e-02 1.15558235e-02 1.55318668e-02 4.09298250e-03 5.99427614e-03 9.64927953e-03 -5.03689225e-04 3.45503999e-04 -2.56124744e-03 1.49767380e-03 3.91007587e-03 5.84189827e-03 -1.66378415e-03 -1.64733827e-02 2.78694672e-04 -2.43902649e-03 -1.10913618e-02 1.17040836e-04 7.91666191e-03 7.05273822e-03 -2.33770851e-02 -4.39218013e-03 -4.68036672e-03 9.37523786e-03 -2.47333781e-03 8.01407173e-03 -9.84939467e-03 -1.83527387e-04 -9.34335031e-03 1.02457684e-02 -3.30987293e-03 -6.12423196e-03 2.38521420e-03 8.14952049e-03 -5.60544524e-03 5.44542866e-03 -1.50678784e-03 1.22804306e-02 1.01262536e-02 -3.14369262e-03 -4.54750378e-03 -1.97985303e-02 -1.88041339e-03 6.18454535e-03 -1.67724229e-02 1.75947286e-02 -1.06108207e-02 -2.52322992e-04 7.44336459e-04 3.92932538e-03 -1.61049713e-03 -7.57058617e-03 1.65124033e-02 -2.52785365e-04 -9.29033570e-03 -5.58091141e-03 -9.82643804e-04 -2.11690236e-02 3.08798091e-03 -7.62855308e-03 -9.68202669e-03 -1.07099330e-02 1.07456511e-02 1.70691181e-02 -1.23033877e-02 1.73196029e-02 -1.61858015e-02 2.69851089e-02 4.27040178e-03 2.91576097e-03 5.35218837e-03 -4.80178697e-03 -3.56245716e-03 -5.64798992e-03 1.34244710e-02 1.51594300e-02 6.66570477e-03 -1.57376472e-02 6.25019008e-03 -3.80805461e-03 -4.44604456e-03 3.54922516e-03 2.28983304e-03 7.38824092e-05 1.62040703e-02 1.65609084e-03 3.80000612e-03 -1.96261071e-02 8.60511418e-03 -6.14062324e-03 1.07022934e-02 1.24150596e-03 5.60147595e-03 -6.64917659e-03 5.16949920e-03 7.16245128e-03 -3.91474087e-03 5.91511233e-03 -1.43185677e-02 2.44923611e-03 -1.44276656e-02 -1.86188277e-02 2.10679732e-02 -1.98857598e-02 -1.51527459e-02
1.81156565e-02 1.11789154e-02 -1.30318350e-03 2.95001827e-02 2.92362384e-02 -4.21500541e-02 -5.21137714e-02 3.12328376e-02 -1.75363105e-02 -1.73743814e-02 1.32813854e-02 4.58763272e-04 -3.41409296e-02 1.61726344e-02 -1.09734908e-02 -3.57721793e-03 8.37216601e-02 4.86180522e-02 8.20425451e-02 8.04227442e-02 -6.11399524e-02 -1.11484297e-01 2.02591885e-02 -8.93942937e-02 6.49609184e-03 -4.31780219e-02 -1.49909500e-02 1.70237059e-03 -6.84537143e-02 -1.43254861e-01 2.64825579e-02 3.30679752e-02 -3.53899561e-02 -3.56657580e-02 -9.98499319e-02 -5.73263988e-02 -3.43029127e-02 6.84482306e-02 3.17100361e-02 -9.11646932e-02 -6.48613870e-02 -8.42001196e-03 5.37186153e-02 -4.04448211e-02 -3.76281627e-02 -5.97104616e-02 -4.52428274e-02 -1.29891178e-02 3.65762338e-02 -3.56033705e-02 -4.86142300e-02 -5.97870238e-02 -5.06246798e-02 -7.18380436e-02 3.03895622e-02 -9.60519016e-02 -6.04282655e-02 7.71903917e-02 -8.89769047e-02 -6.44398481e-02 -7.63421357e-02 8.54470059e-02 8.59228298e-02 -8.95668790e-02 -4.71618511e-02 -4.96965600e-03 8.34656581e-02 4.00277600e-02 1.34907560e-02 -1.96724245e-03 -4.17120429e-03 2.84347553e-02 -2.28601798e-01 -1.27567023e-01 -1.83193043e-01 -1.65405527e-01 2.22351715e-01 9.72486734e-02 2.17166111e-01 1.60615608e-01 -6.90304488e-02 1.34055585e-01 1.07204020e-01 8.96652117e-02 1.23419479e-01 1.17077358e-01 -2.20774710e-01 1.09373830e-01 6.08357824e-02 1.61933050e-01 -3.58951837e-03 1.77789569e-01 2.94365697e-02 1.10920452e-01 1.29200399e-01 -1.87032640e-01 -2.37766430e-02 3.66493873e-02 3.06453686e-02 -1.32402647e-02 -1.16950497e-02 8.91792104e-02 3.22861262e-02 3.61472890e-02 -5.61983027e-02 4.41421717e-02 1.75660215e-02 3.17313783e-02 -7.03278114e-04 6.80458471e-02 2.37058941e-02 4.21930961e-02 2.56845225e-02 -1.77936647e-02 4.05588234e-03 5.93285775e-03 -9.59368609e-03 2.60930005e-02 1.69794802e-02 -4.00540140e-03 4.97967191e-02 6.71792254e-02 -3.49767581e-02 4.78914157e-02 -7.58239701e-02 2.08823197e-02 3.16256173e-02 -3.25135328e-02 2.89228987e-02 -6.99773505e-02 1.68616220e-01 -5.26012704e-02 1.51988313e-01 -8.61337259e-02 4.47459109e-02 3.91971283e-02 -4.70757373e-02 1.31806731e-01 9.99302641e-02 1.13038093e-01 -3.53068374e-02 -1.17134579e-01 -1.45736009e-01 3.48236077e-02 -1.46475714e-02 -7.27177225e-03 -1.45424642e-02 -1.92776136e-02 3.42150684e-03 -2.86320504e-02 -1.46521872e-03 2.10104752e-02 -1.40058035e-02 -1.75284967e-02 -1.92544248e-03 1.57894641e-02 1.85468774e-02 6.79372950e-03 2.96295024e-02 -2.08594389e-02 9.05226916e-02 1.05654143e-01 6.42534569e-02 1.15993224e-01 7.29126260e-02 -7.03233406e-02 -7.68662170e-02 9.14886445e-02 1.03795886e-01 2.70752273e-02 5.93659580e-02 -4.36591841e-02 -4.47458103e-02 -7.41761103e-02 3.43706943e-02 -4.55391854e-02 1.06208794e-01 -6.56664968e-02 8.35093260e-02 -7.88996965e-02 9.22867283e-02 3.89854610e-02 -6.42598495e-02 1.12730511e-01 5.30324802e-02 -5.34157529e-02 5.83396479e-02 -2.50531379e-02 -9.27489251e-04 -6.06781617e-02 -5.13701923e-02 -4.42987196e-02 -4.76602092e-02 -7.11083785e-02 3.41620892e-02 -7.11142123e-02 9.25990343e-02 -4.46270183e-02 6.94308653e-02 1.09034307e-01 -1.56451296e-02 -6.66171219e-03 3.99260689e-03 -5.20988833e-03 -5.07072546e-03 -1.57794058e-02 -1.87050700e-02 2.20777802e-02 -7.94222951e-02 -9.42816213e-03 -6.66568354e-02 -1.56931892e-01 -4.64571454e-02 1.51237547e-01 5.59494039e-03 -2.10958421e-02 1.03154629e-02 6.93797469e-02 3.78107019e-02 3.08119766e-02 2.11285558e-02 4.11504209e-02 9.71280504e-03 6.08565435e-02 1.13144979e-01 6.45086020e-02 1.43736303e-01 6.24119975e-02 -2.19139069e-01 1.98290721e-01 -5.98357655e-02 -8.70525390e-02 2.69456208e-02 3.18926498e-02 1.73918754e-02 4.46225367e-02 -1.51724055e-01 -8.67599845e-02 1.26098365e-01 4.73691225e-02 2.37551183e-02 -6.71168566e-02 6.20219782e-02 -1.25503242e-02 8.49264022e-03 1.00388937e-02 1.61611661e-03 -1.49738966e-02 4.54904772e-02 -1.59168184e-01 4.77402806e-02 -1.06136911e-01 -5.16828634e-02 3.92008424e-02 -2.17817411e-01 -5.02812564e-02
-1.64078735e-02 -2.64404137e-02 5.59782889e-03 -1.39197577e-02 -9.14907828e-03 2.88415514e-02 2.37203985e-02 -1.76852923e-02 -2.20726393e-02 -1.49336373e-02 3.46061192e-03 4.87748906e-03 -1.39269503e-02 2.15110946e-02 -1.02254078e-02 -1.51025690e-02 -1.59423165e-02 1.20526250e-03 -1.70330666e-02 -1.54661974e-02 8.79499782e-03 1.91855151e-02 -7.45779602e-03 5.96941495e-03 1.96999218e-02 1.74334943e-02 -1.57937650e-02 2.39476264e-02 7.94787519e-03 -3.67862242e-03 -1.28486138e-02 1.67235695e-02 -7.90706649e-03 -2.38932781e-02 -1.96141973e-02 -4.31361655e-03 -7.65363919e-03 2.12821607e-02 3.90541158e-03 -3.95204267e-03 2.02206280e-02 1.69915278e-02 -1.67057924e-02 -2.40427703e-02 7.52064399e-03 2.67737750e-02 2.42636409e-02 2.54432485e-02 1.78323239e-02 1.30833045e-03 -4.93591279e-03 -5.99892018e-03 -9.63202119e-03 -9.24153626e-03 1.05798338e-02 -5.65357273e-03 2.61239912e-02 -1.12731010e-02 2.16513164e-02 2.53187921e-02 2.91797463e-02 -2.52381638e-02 -2.10896693e-02 2.02973541e-02 -1.43115791e-02 2.59761862e-03 1.44870048e-02 7.04970444e-03 2.36392263e-02 -1.28989667e-03 -2.29039844e-02 -3.29816504e-03 -2.49253828e-02 -1.35561954e-02 -6.86293235e-03 -1.63899437e-02 1.37887783e-02 2.34588590e-02 2.16908045e-02 1.96974315e-02 7.01962598e-03 -6.16150675e-03 -4.43079509e-03 -1.31335529e-02 -1.86047964e-02 4.77951625e-03 2.35616975e-03 -2.84122024e-03 -7.56711699e-03 -2.32227538e-02 1.56372115e-02 -1.25055714e-02 -5.44912275e-03 -1.32073956e-02 -6.47239154e-03 2.15821657e-02 -1.02996062e-02 1.15925642e-02 2.68988963e-03 1.65962595e-02 1.31094912e-02 1.34835579e-02 6.59995386e-03 -1.75145939e-02 1.98513251e-02 1.15410201e-02 1.70705356e-02 1.95433311e-02 -1.65710342e-03 1.95720904e-02 2.78772949e-03 -1.79156475e-02 5.47355134e-03 -1.02991611e-02 5.70868794e-03 7.78351584e-03 1.64941642e-02 2.32831971e-03 4.46083583e-03 1.38503015e-02 5.05800545e-03 2.17963085e-02 2.35903300e-02 -4.73062694e-03 -5.99263143e-03 1.21229365e-02 -3.94683890e-03 -1.24980230e-02 1.68440267e-02 -9.02767200e-03 7.18149543e-03 -2.60335188e-02 1.50773022e-02 -1.32582588e-02 1.86056122e-02 1.62302237e-02 -1.45858014e-02 2.10878588e-02 2.11257730e-02 1.51865417e-02 2.98183002e-02 -7.88088236e-03 -1.73342526e-02 2.54459381e-02 -1.77101940e-02 1.36710359e-02 8.11249577e-03 -1.18004642e-02 4.39862069e-03 1.88331143e-03 3.93453194e-03 1.74148637e-03 -1.82395484e-02 1.33884419e-02 -4.65056743e-04 2.28231065e-02 1.39770526e-02 2.01095641e-02 6.59162086e-03 -6.06653979e-03 7.06343539e-03 -1.53151480e-03 7.27484189e-03 -7.05060503e-03 1.53393457e-02 -1.97677743e-02 -1.77426618e-02 -4.34155529e-03 1.54088400e-02 1.61629785e-02 1.24432473e-02 -8.26306920e-03 -2.36289557e-02 -1.26305558e-02 1.64092667e-02 -7.88458250e-03 5.65450988e-04 2.39870958e-02 9.37359873e-03 8.03138595e-03 -1.82156712e-02 -2.72186100e-03 7.28858216e-03 -4.64031054e-03 -1.48446613e-03 1.76561996e-02 1.72161567e-03 -2.18138075e-03 -4.65249643e-03 1.01075610e-02 -2.85290973e-03 3.83241964e-03 -7.19746295e-03 -1.97734889e-02 4.62139305e-03 -5.36126271e-03 2.50571147e-02 -1.35864150e-02 1.36000151e-02 1.65139232e-02 -1.62218080e-03 1.24812918e-03 -3.62324296e-04 1.58081744e-02 1.78001039e-02 -1.92492176e-02 -4.72605461e-03 -1.24520175e-02 -1.76881216e-02 -1.11572333e-02 -2.33169496e-02 -1.85320862e-02 -7.71773234e-03 2.70126108e-02 2.26675943e-02 -2.64312718e-02 5.25856903e-03 -2.50895396e-02 2.56232657e-02 2.05575451e-02 4.76791523e-03 1.53734814e-02 2.17883680e-02 -8.09968263e-03 1.96185000e-02 1.13665583e-02 1.11707207e-02 8.86512175e-03 -7.77891930e-03 1.80550925e-02 -5.32171922e-03 -4.43524355e-03 1.95568893e-02 1.99143458e-02 2.30620522e-02 8.69441498e-03 -1.86243840e-02 -1.91723537e-02 -2.89700348e-02 1.70883350e-02 1.12213818e-02 1.06479144e-02 -1.35012129e-02 8.87330528e-03 8.20338819e-03 1.60435718e-02 -1.53450738e-03 1.91919580e-02 1.44971432e-02 -6.44362345e-03 1.14904251e-02 -1.60229933e-02 -2.60807271e-03 1.86227057e-02 -1.53606711e-02 -1.08374730e-02
-1.10356305e-02 -1.23541960e-02 1.97772495e-02 -1.59446802e-02 -6.35137409e-03 2.60221455e-02 6.28744718e-03 -2.15944499e-02 -1.32104848e-03 -4.28999029e-03 2.16726381e-02 2.41697021e-02 2.07496155e-03 1.05216017e-03 -6.17885496e-03 -1.81270707e-02 -5.18761901e-03 2.71282494e-02 -5.11942152e-03 -1.17720049e-02 2.22099070e-02 2.40483019e-03 1.14485901e-03 4.05282108e-03 1.37739386e-02 1.23549728e-02 -6.45546336e-03 8.41281936e-03 7.35200662e-03 -1.36725726e-02 -9.04033240e-03 1.25516858e-02 -1.90744326e-02 -8.47662240e-03 -2.36242879e-02 -1.82636324e-02 -1.53059410e-02 1.91828907e-02 2.00301446e-02 -1.53443692e-02 1.51953241e-02 1.57818533e-02 -1.37226628e-02 -1.91252530e-02 2.45584128e-03 1.66769847e-02 2.39850907e-03 1.11612761e-02 9.98889795e-04 -8.42706673e-03 2.26845476e-03 -1.21409576e-02 -1.19966771e-02 -2.20576059e-02 1.05015077e-02 4.12884541e-03 2.54148394e-02 -8.86077154e-03 1.19484141e-02 1.86867081e-02 2.42894497e-02 -1.01459846e-02 -1.16921961e-02 1.86353121e-02 -6.43848954e-03 -1.31037110e-03 1.01683009e-02 8.90605990e-03 2.23820820e-03 -1.61171351e-02 -1.51454620e-02 4.08116262e-03 -3.03482451e-03 -5.85743366e-03 -2.18292978e-02 -1.91005450e-02 2.70011573e-04 2.16450281e-02 1.97591726e-02 1.71778239e-02 1.53984865e-02 -2.44852100e-02 -1.85648203e-02 -2.20223051e-02 -5.76548651e-03 1.24534797e-02 -1.59971230e-02 -1.28745995e-02 -1.88788325e-02 -1.88137982e-02 8.90455768e-03 -3.20800440e-03 -1.21232448e-02 -7.01076817e-03 -1.49669708e-03 2.17952821e-02 -2.01766342e-02 1.93448849e-02 4.64136712e-03 1.09746540e-02 1.75283253e-02 1.72530524e-02 2.22846717e-02 -6.47139386e-04 2.21749954e-02 1.93419773e-02 2.71222014e-02 1.68959219e-02 -1.88077819e-02 1.26500260e-02 9.98038054e-03 -5.42955194e-03 2.28532907e-02 -1.73257068e-02 1.48425531e-02 1.20760230e-02 2.40868218e-02 3.61998127e-06 1.46194547e-02 2.02459879e-02 1.21177994e-02 4.20859922e-03 2.19463613e-02 -1.64035950e-02 -7.62476958e-03 3.52688855e-03 -8.78254417e-03 -1.67552326e-02 7.79627403e-03 -2.15512086e-02 1.47956247e-02 -1.15164407e-02 1.76023655e-02 -1.08458409e-02 2.53448123e-03 1.11750606e-02 -9.44700558e-03 1.69183388e-02 8.00634210e-04 1.41292345e-02 1.62809175e-02 -1.95433758e-02 -1.64957102e-02 1.65593755e-02 -1.21197924e-02 4.35010064e-03 7.98348989e-03 8.58238153e-03 1.12876482e-02 9.73699335e-03 1.72970264e-04 -4.76965960e-03 -8.53753183e-03 2.64027398e-02 1.85567383e-02 7.80302426e-03 -3.99510283e-03 1.86728034e-03 1.13742417e-02 -3.60832957e-04 -2.07927646e-04 3.91640607e-03 8.41257256e-03 1.51357092e-02 5.31042041e-03 -1.50123890e-02 -7.51559949e-03 -3.79338773e-04 1.89104006e-02 1.45869143e-02 8.98262020e-03 -1.91991031e-02 -2.51940042e-02 -2.41313744e-02 1.63990911e-03 -1.43076126e-02 -8.17449763e-03 1.69757847e-02 1.49686122e-02 1.21886991e-02 -1.88301620e-03 -1.13596264e-02 1.55075341e-02 -1.19488500e-02 -5.02437958e-03 1.67688783e-02 -1.02521852e-02 2.05978397e-02 3.08465119e-03 1.61893237e-02 -1.60217995e-03 1.13211656e-02 -8.91977455e-03 -1.76757202e-02 1.33132078e-02 -1.81773920e-02 1.84677150e-02 -2.41645575e-02 8.83408915e-03 9.51215345e-03 -1.04031404e-02 4.62869229e-03 -1.98874772e-02 1.35606080e-02 3.80427437e-03 -2.08290666e-02 -7.39439437e-03 -8.63972679e-03 -1.41395079e-02 -1.42102633e-02 -1.00136418e-02 -2.01143883e-02 -1.08368583e-02 2.28694789e-02 2.12051217e-02 -2.20973697e-02 2.30186861e-02 -2.41057910e-02 1.61449574e-02 1.57682393e-02 3.31969606e-03 1.58276986e-02 1.02050705e-02 2.87491456e-03 1.57161411e-02 2.60989536e-02 1.69661194e-02 1.12398677e-02 -2.02192143e-02 2.22093109e-02 -1.53565882e-02 -1.42073017e-02 1.24144806e-02 2.40900554e-02 1.86830238e-02 5.94033999e-03 -8.15882813e-03 -2.18435302e-02 -1.44974291e-02 9.06924903e-03 1.86682269e-02 6.98970258e-03 -6.97434088e-03 1.69998184e-02 1.92392094e-03 1.12863900e-02 -1.67661291e-02 1.74581818e-03 1.44599583e-02 -1.30424919e-02 1.13245640e-02 -1.04954336e-02 -2.44511086e-02 2.55938843e-02 -1.72040109e-02 -7.05920905e-03
8.15879460e-03 -9.14779026e-03 -4.02825093e-03 -9.45346837e-04 -9.14439093e-03 -3.27301282e-03 4.71483590e-03 -4.66262922e-03 2.04916578e-03 -3.36860516e-03 -5.88028226e-03 6.90652942e-03 -4.76023182e-03 -1.48282675e-02 -7.78289093e-03 -6.29032543e-03 -5.44469571e-03 4.70602605e-03 4.66290861e-03 2.45715724e-03 -6.29866822e-03 5.63191622e-03 1.49686513e-02 -5.94246760e-03 -8.00660625e-03 -8.45910423e-03 -3.06556467e-03 9.96068586e-03 7.62729533e-03 5.39948838e-03 9.71475523e-03 -1.11254454e-02 1.23447655e-02 6.78696437e-03 -4.64717066e-03 -3.23330308e-03 1.18003215e-03 -8.04392342e-03 7.51579227e-03 -9.17634834e-03 5.84842265e-03 1.18145475e-03 7.34635815e-03 4.38125571e-03 -9.61756893e-03 -3.54940398e-03 -2.24323012e-03 4.49178647e-03 -4.05020919e-03 1.16481055e-02 -6.13160292e-03 -4.15323488e-03 -1.10290255e-02 1.31247416e-02 -7.94981979e-03 -4.26349230e-03 7.35712284e-03 4.90330392e-03 4.10236930e-03 -2.01605653e-05 -1.80743833e-03 5.50670922e-03 -7.95340445e-03 -6.42668316e-03 -2.77567422e-03 9.40389757e-04 4.40520496e-04 6.32418925e-03 -2.42157746e-03 4.47702641e-03 5.44847175e-03 -1.31327324e-02 6.47039292e-03 9.45060980e-03 -5.35652321e-03 1.43759220e-03 -8.04707315e-03 -4.64703480e-04 6.82508387e-03 -4.67698614e-04 -1.29972259e-02 7.75115844e-03 -2.05903989e-03 -1.00313239e-02 4.10120236e-03 5.02312370e-03 1.18017774e-02 1.69455819e-03 5.42884134e-03 -6.83285622e-03 6.29513571e-03 -1.41581579e-03 1.05647035e-02 4.88801999e-03 3.26711615e-03 -8.36897455e-03 -9.73976962e-03 1.38117920e-03 5.28940093e-03 -6.67718519e-03 -1.13927722e-02 -1.09457690e-02 4.28951299e-03 1.26984287e-02 9.86825209e-03 -1.41154379e-02 3.53218685e-03 -1.19611351e-02 -2.64439895e-03 2.22123298e-03 6.38325792e-03 9.70199518e-03 -1.66865683e-03 -9.63796675e-03 -1.55826344e-03 -6.11233013e-03 3.48393107e-03 -9.60763171e-03 1.00044729e-02 -6.53302763e-03 -9.36440006e-03 -2.39537956e-04 -1.38664953e-02 1.09914122e-02 -1.91750203e-03 -1.02602849e-02 2.47648288e-03 -7.68046640e-03 -2.87808571e-03 8.09759181e-03 4.66876430e-03 7.39315245e-03 -3.80788697e-03 1.89152011e-03 -4.46277484e-03 2.52019172e-03 -5.50308824e-03 -1.00510544e-03 1.63466134e-03 2.24267785e-03 -2.39547761e-03 -3.59259872e-03 4.98132221e-03 -4.68257535e-03 9.03404970e-03 -1.07437549e-02 -8.30532610e-03 8.57134722e-03 -6.05475670e-03 -8.43285990e-04 3.61173879e-03 -1.02904430e-02 -3.31206317e-03 -5.92200598e-03 -5.27801225e-03 2.53946008e-03 5.94156329e-03 7.96022173e-03 8.41883291e-03 -7.84158614e-03 -5.92083065e-03 -1.00181215e-02 4.29285038e-03 -8.48472118e-03 2.89335335e-03 -5.28617483e-03 1.80926046e-03 -6.12529228e-03 -9.81978606e-03 -9.17456858e-03 1.00140423e-02 -1.41793750e-02 -6.48682658e-03 -1.08886631e-02 -8.27832054e-03 6.16379082e-03 7.38907431e-04 5.76988421e-03 1.11248496e-03 -1.30787473e-02 8.69518495e-04 1.01449266e-02 8.38324951e-04 1.12214740e-02 -5.89745305e-03 -5.19675575e-03 9.17751528e-03 9.63557512e-03 1.20711001e-03 -1.00716855e-02 -9.03360918e-03 7.08512310e-03 -1.62851182e-03 -2.43901834e-03 -2.15570279e-03 -3.62847489e-03 1.45882613e-03 1.12360332e-03 -4.97020874e-03 7.19290227e-03 9.46338812e-04 6.94378791e-03 -2.86045065e-03 7.64035247e-03 1.60193397e-03 6.09845994e-03 1.23662204e-02 -3.44384345e-03 -5.00887772e-03 7.54183950e-03 1.08422684e-02 -7.54416222e-03 -8.47102143e-03 9.52792447e-03 9.19553079e-03 -3.07030184e-03 -1.02249244e-02 -2.38314923e-03 -6.98088319e-04 8.87641963e-03 -1.11630308e-02 7.01630628e-03 6.93982886e-03 8.71721562e-03 5.59423910e-03 8.93555302e-03 -8.00048560e-03 9.53717623e-03 -1.12315323e-02 1.12431264e-02 -8.93198047e-03 -2.99244351e-03 -6.30348595e-03 8.32932536e-03 -1.24267461e-02 -1.49491616e-03 5.76983625e-03 4.12964681e-03 -5.11278678e-03 1.89845319e-04 5.50506404e-03 -4.71816072e-03 -1.41171657e-03 -3.39343642e-05 1.03716152e-02 -6.30444940e-03 -7.75832776e-03 -2.47556251e-03 7.14968750e-03 -1.03712808e-02 4.47005685e-03 9.84257931e-05 5.29531669e-03 -1.11798933e-02 -9.64802317e-03 -9.05499514e-03
-2.10561082e-02 -2.45627034e-02 9.08689108e-03 -2.42218599e-02 -1.87846869e-02 1.21592795e-02 1.23278061e-02 -5.90788247e-03 -1.93572696e-02 -6.19226880e-03 2.08240952e-02 1.68463066e-02 -1.86358171e-03 8.62140767e-03 -1.80884190e-02 -2.02957746e-02 -1.75730716e-02 5.07762050e-03 -7.30341952e-03 -1.61378924e-02 9.01035685e-03 2.20394284e-02 -5.43370424e-03 9.19193774e-03 1.23139750e-02 6.27680914e-03 -1.84796304e-02 1.12559795e-02 1.18609043e-02 -7.93197006e-03 -1.16198640e-02 1.65684577e-02 -1.49641223e-02 -1.07971104e-02 -1.42005654e-02 -1.78617276e-02 -2.06671134e-02 1.34314997e-02 2.13757716e-02 -1.51496250e-02 2.10520886e-02 1.32745504e-02 -2.58059073e-02 -4.73964214e-03 1.63724571e-02 6.73321495e-03 2.29304638e-02 8.86884052e-03 2.26770490e-02 -2.31984183e-02 -2.22724006e-02 -2.10749637e-02 -2.26443959e-03 -5.54254104e-04 1.44268339e-02 6.80807186e-03 2.74210721e-02 -1.48304598e-02 7.78624928e-03 6.85841357e-03 8.16746242e-03 -2.11885367e-02 -2.47014835e-02 1.43274143e-02 -5.13969362e-03 2.32574763e-03 1.07814381e-02 2.11331267e-02 1.84943918e-02 -1.49346963e-02 -2.12516058e-02 4.58706869e-03 -8.30185879e-03 -2.13243496e-02 -2.12743767e-02 -2.53939535e-02 1.43074207e-02 2.50388533e-02 8.63093138e-03 8.90003424e-03 9.15897079e-03 -8.89749173e-03 -1.26751717e-02 -2.75202701e-03 -9.79208853e-03 6.49186969e-03 -7.72773707e-03 -1.19020436e-02 -6.19025761e-03 -2.30422243e-02 1.35360109e-02 -2.03302521e-02 -1.25099150e-02 -2.11510770e-02 -1.70646217e-02 1.47486934e-02 -2.15498880e-02 6.36933930e-03 1.49103133e-02 3.93891148e-03 1.93000305e-02 1.15703838e-02 1.58668235e-02 -1.94692742e-02 2.31256504e-02 1.76155921e-02 2.28661112e-02 2.18467955e-02 -2.04551760e-02 1.75866708e-02 2.22727675e-02 -7.58223748e-03 1.53574934e-02 -6.93932222e-03 1.60626546e-02 2.26921383e-02 7.12865032e-03 9.72233806e-03 1.40703926e-02 1.11118983e-02 1.16807483e-02 1.43171614e-02 2.30065659e-02 -1.51973199e-02 -1.49688078e-02 2.38183811e-02 -1.04642026e-02 -1.82840340e-02 2.07203683e-02 -2.44183689e-02 2.41877921e-02 -2.15396937e-02 2.30302569e-02 -1.07778944e-02 1.72959641e-02 9.91681032e-03 -1.08042387e-02 1.59079749e-02 1.78036671e-02 1.65035296e-02 2.52335053e-02 -5.77836391e-03 -1.57802254e-02 1.26822321e-02 -9.29090939e-03 2.46393252e-02 2.09966698e-03 -1.81827936e-02 1.64968874e-02 2.17712112e-02 1.34834591e-02 1.55459158e-02 -1.71927549e-02 1.48954531e-02 1.98091529e-02 1.26855373e-02 1.70391593e-02 3.92890442e-03 3.00938939e-03 -2.29635183e-02 2.22178921e-02 1.22564835e-02 1.30741380e-03 1.74851082e-02 2.14180741e-02 -1.74829271e-02 -2.00568084e-02 1.15456050e-02 1.36836590e-02 2.62890533e-02 1.38767306e-02 -1.56783164e-02 -1.58027634e-02 -1.59375500e-02 1.93989985e-02 -1.97619274e-02 -9.77981649e-03 1.66365374e-02 1.21205477e-02 3.19047621e-03 -1.00792227e-02 -1.58082806e-02 1.98959606e-03 -1.23120695e-02 -9.02104191e-03 4.10002051e-03 -1.48717295e-02 5.86117012e-03 -9.21519846e-03 8.70755687e-03 2.10249797e-02 2.00896766e-02 -1.26879551e-02 -1.43919764e-02 1.03771789e-02 -5.63936075e-03 6.88478909e-03 -2.68154982e-02 1.83048211e-02 2.10864358e-02 -1.91571116e-02 2.15569772e-02 -5.23603475e-03 2.45745480e-03 2.47423686e-02 -2.20271666e-02 -1.42826010e-02 -9.94318351e-03 -1.12162335e-02 -4.99437423e-03 -7.15926196e-03 -2.33888850e-02 -2.02844925e-02 1.10193407e-02 2.32166555e-02 -2.61267051e-02 2.03826819e-02 -1.98263936e-02 2.01589093e-02 2.01781113e-02 2.10092217e-02 1.11869639e-02 2.36568134e-02 -2.42930558e-02 1.14834029e-02 9.33000259e-03 9.41512361e-03 6.35513850e-03 -1.64366923e-02 7.95959122e-03 -7.32668536e-03 -8.61835293e-03 6.75597973e-03 2.65685637e-02 2.10944228e-02 4.63954126e-03 -2.41296627e-02 -4.52561257e-03 -2.83321925e-02 1.85077339e-02 4.20336984e-03 2.34445259e-02 -2.25870628e-02 1.18326005e-02 1.88041981e-02 2.32373029e-02 -1.85155272e-02 2.20713094e-02 2.00595167e-02 -2.61174943e-02 5.43598132e-03 -1.04956329e-02 -2.55922731e-02 6.48627616e-03 -2.29060967e-02 -9.10958555e-03
-6.77121524e-03 -2.57851509e-03 2.24211905e-02 -1.75636262e-02 -4.51823371e-03 2.29360815e-02 2.32169647e-02 -2.28319466e-02 -1.73572917e-02 9.30723851e-04 1.79970060e-02 6.61428878e-03 -1.64962430e-02 1.94891933e-02 -1.75451972e-02 -1.93293043e-03 -6.26545493e-03 2.32893275e-03 2.92803656e-04 -4.95318382e-04 1.25702219e-02 5.28879743e-03 -1.09271510e-02 1.04920128e-02 2.17501242e-02 -1.34211336e-03 1.66399259e-04 5.83830569e-03 2.15131473e-02 3.66359454e-04 -1.69249568e-02 1.08192051e-02 -1.95615962e-02 -1.93791445e-02 -1.45070339e-02 -7.20540574e-03 -2.05901917e-02 2.28616726e-02 4.16683918e-03 -1.68837532e-02 -1.55582838e-03 -5.20737318e-04 -3.75911966e-03 -1.70267168e-02 2.09021866e-02 1.12650532e-03 7.81509443e-04 1.32639054e-02 1.70133673e-02 -1.24456687e-03 -6.47325860e-03 -1.24727581e-02 -1.41671021e-02 -1.03153326e-02 6.02973206e-03 -7.54845235e-03 1.35498652e-02 -6.17509382e-03 2.69673672e-02 2.66328007e-02 1.26517825e-02 -1.59959011e-02 -8.84526689e-03 2.10557915e-02 -5.81033435e-03 5.07788081e-03 4.34096530e-03 4.11012815e-03 3.28453816e-03 -1.15776956e-02 1.74587662e-03 7.23465579e-03 3.17252532e-04 -1.21785123e-02 -9.47627518e-03 -1.57352758e-03 1.48065649e-02 1.41763017e-02 2.03141365e-02 9.29728523e-03 1.63095891e-02 -1.30120199e-02 -1.00678895e-02 -8.73371202e-04 -1.96282323e-02 6.42541982e-03 -1.47125889e-02 -1.83599126e-02 -5.10088494e-03 -1.48434239e-02 3.84392706e-03 -1.43942647e-02 -9.59701929e-03 4.18932410e-03 3.49918264e-03 1.15195382e-03 -2.05142535e-02 2.02680975e-02 1.35176294e-02 5.10373106e-03 1.87398121e-02 8.15737713e-03 8.89964309e-03 -9.69034270e-04 2.03092024e-02 1.30850887e-02 1.77590307e-02 5.06085204e-03 -9.34588350e-03 3.61828227e-03 8.65259767e-03 -1.05283316e-02 9.79934819e-03 -1.57071054e-02 -4.88534642e-05 1.65083613e-02 1.24787157e-02 1.75708416e-03 -1.80327951e-03 1.95190590e-02 2.41373622e-04 -9.80474360e-05 1.13763576e-02 -4.68192715e-03 -4.13477421e-03 -4.52186447e-04 -6.21441053e-03 -8.41999426e-03 7.90567882e-03 -1.56343468e-02 6.36252202e-03 -1.72406416e-02 1.57237891e-02 -1.11764241e-02 2.01267693e-02 1.28730480e-02 -1.16169164e-02 4.16241353e-03 1.80362277e-02 1.04577411e-02 1.81222539e-02 -1.78873707e-02 -6.62857015e-03 1.40044000e-03 -1.58684440e-02 1.23091852e-02 9.89382900e-03 1.43111695e-03 1.63717922e-02 -1.67283288e-04 1.70143489e-02 -3.43528250e-03 -8.02433025e-03 2.35392787e-02 1.78067312e-02 9.07424022e-04 1.09918257e-02 9.49857105e-03 1.31360590e-02 -1.50519144e-02 2.69844313e-03 8.49674735e-03 -3.96815734e-03 5.01645263e-03 -4.63825930e-03 -2.70524481e-03 5.38845221e-03 1.27881840e-02 1.43255452e-02 1.60113629e-02 1.64566338e-02 -1.71154663e-02 -1.92418378e-02 -1.91342738e-02 2.11365186e-02 -1.95624288e-02 -1.69519261e-02 1.04627181e-02 -5.24846651e-03 1.59180444e-02 -2.05745385e-03 -4.45052108e-04 9.20501538e-03 -6.36590039e-03 5.65979583e-03 6.58485014e-03 -1.44885611e-02 -3.14568642e-05 -3.16036888e-03 1.89715400e-02 -1.76254869e-03 -5.03621902e-03 -1.38595458e-02 -2.60513574e-02 2.21552495e-02 -6.44501811e-03 4.14361572e-03 -1.99144240e-02 1.90986507e-02 1.00858537e-02 2.95927748e-03 1.03130396e-02 -2.90718675e-03 2.13204953e-03 9.71406326e-03 -1.76864471e-02 -6.46100473e-03 -1.83736645e-02 -1.81099717e-02 -1.90053582e-02 -1.67172868e-02 -2.43475027e-02 -1.40318740e-02 1.99436937e-02 8.99890065e-03 -1.70834921e-02 1.08613735e-02 -1.47445276e-02 6.49331929e-03 1.87472254e-02 -1.92932633e-03 6.26861351e-03 6.80154236e-03 -1.05242804e-02 1.31407967e-02 1.29814763e-02 1.17245093e-02 6.84604561e-03 -1.57793146e-02 1.94246992e-02 -4.50318767e-04 -4.50421590e-03 1.15035949e-02 9.55203734e-03 1.34589896e-02 5.43946633e-03 -4.54696966e-03 6.03575376e-04 -2.47398131e-02 8.72181915e-03 -1.07942894e-03 -5.45313349e-03 -1.41547155e-03 8.13122094e-03 -9.01664142e-03 -5.02241834e-04 2.20288592e-03 8.32182541e-03 1.20767094e-02 -5.00094937e-03 1.85248181e-02 -1.34523828e-02 -2.69341632e-03 6.83769071e-03 -9.19984281e-03 -4.83003817e-03
-2.53482945e-02 -7.38260895e-03 2.52526365e-02 -7.06518069e-03 -9.49461572e-03 2.15923116e-02 1.11969151e-02 -1.02749588e-02 -2.04595402e-02 -1.74075924e-02 1.24312472e-02 1.78889278e-02 -2.00645719e-03 1.02397110e-02 -1.75656658e-02 -2.17789263e-02 -7.09040184e-03 -1.07545415e-02 -1.77099474e-03 4.91920684e-04 1.22267213e-02 1.05287731e-02 8.94621946e-03 1.02865957e-02 4.80416138e-03 1.82064949e-04 -4.03723621e-04 6.08142465e-03 1.84159409e-02 -8.28254875e-03 -6.49136864e-03 5.10890444e-04 -2.21851002e-02 -2.18323637e-02 -1.14869829e-02 -1.02806371e-02 -2.62871105e-02 1.91317331e-02 9.54881217e-03 -2.72004977e-02 2.76702666e-03 1.07486043e-02 -1.04190353e-02 -1.52852694e-02 1.23370811e-02 1.69235561e-02 2.19838414e-02 1.19813830e-02 1.48224635e-02 -1.63135622e-02 5.60341822e-03 -1.07209375e-02 -7.11935107e-04 2.51471327e-04 -8.41574464e-03 -9.45659634e-03 2.16688924e-02 -1.93911884e-02 2.02830601e-02 1.31241968e-02 2.31381096e-02 -9.78988968e-03 -2.63715666e-02 8.68371222e-03 5.45803923e-03 2.47305352e-03 1.11339763e-02 -1.00768460e-02 -2.06730980e-03 -2.06031147e-02 -1.84342340e-02 2.59169657e-03 -2.03950033e-02 -1.97241753e-02 -1.33935893e-02 -2.24099457e-02 2.49020718e-02 2.39200592e-02 9.24329367e-03 1.93459895e-02 1.98165048e-02 -2.32363101e-02 -6.43405190e-04 -2.21745763e-02 -1.32131418e-02 -1.06826089e-02 5.08508971e-03 -1.15441522e-02 -9.05021373e-03 -2.10572705e-02 1.11189820e-02 -4.29804763e-03 -3.23233707e-03 -1.48924561e-02 -1.02748144e-02 1.33983819e-02 -1.18704615e-02 4.17685369e-03 9.39935260e-03 -4.24753176e-04 1.02758994e-02 6.13659434e-03 1.74970757e-02 -1.60637647e-02 4.48938226e-03 -7.03254307e-04 -8.12469982e-04 1.80453900e-02 -1.57117080e-02 2.43652775e-03 1.56808426e-04 -2.04337891e-02 3.83409992e-04 -1.82828698e-02 7.23504182e-03 3.31300008e-03 1.99410245e-02 1.32736880e-02 1.49863623e-02 2.11851075e-02 8.52560624e-03 1.84818394e-02 2.16995403e-02 -1.05316220e-02 -1.62020512e-02 1.51336612e-02 -2.04344243e-02 -1.58733800e-02 1.00871930e-02 -1.45269055e-02 1.30563742e-02 -4.92661726e-03 1.59760099e-02 -1.84216723e-02 1.13848159e-02 2.56010219e-02 -1.76358707e-02 1.17393043e-02 8.18236079e-03 5.30335819e-03 2.84607522e-02 -1.21249780e-02 -1.50937308e-02 1.97801217e-02 -1.60716269e-02 1.69807207e-02 1.29692964e-02 -1.31867835e-02 2.32613692e-03 -9.84291546e-04 2.47014198e-03 5.25099272e-03 3.31574382e-04 1.57674216e-02 6.05687406e-03 3.82277300e-03 2.36778730e-03 2.29082890e-02 7.44833658e-03 -1.93996970e-02 1.21305743e-02 -3.67214228e-03 1.51409609e-02 -7.56091671e-04 -8.36057682e-03 -2.19179550e-03 -7.75401713e-03 6.40798826e-03 2.39408892e-02 2.73168609e-02 1.51039464e-02 -1.69828478e-02 -1.03501752e-02 -2.31641438e-02 9.71778482e-03 -9.70498193e-03 -9.96438088e-04 9.55701061e-03 -1.47978626e-02 4.39351378e-03 8.15569796e-03 -1.51763689e-02 1.33255692e-02 -1.09513514e-02 -1.15896808e-02 2.14665174e-03 -1.79136731e-02 1.70370168e-03 -1.03480658e-02 1.19329831e-02 1.01451566e-02 1.74896251e-02 -2.75354069e-02 -8.36356264e-03 1.23604909e-02 -2.44447049e-02 1.10651348e-02 -2.29674056e-02 2.25724187e-02 1.27538797e-02 -9.25570354e-03 -2.39973917e-04 -9.42160469e-03 8.02775379e-03 1.15133459e-02 -8.91495589e-03 -1.94145378e-03 -9.99281462e-03 -2.37163454e-02 -1.87816564e-02 -2.65247673e-02 -2.29714140e-02 -2.47042011e-02 1.14440136e-02 4.57102759e-03 -2.51522418e-02 3.13016400e-03 -9.45579633e-03 1.22054229e-02 1.93899777e-02 2.12182496e-02 1.10224979e-02 4.81632771e-03 -7.28845410e-03 7.16956099e-03 2.40506846e-02 2.26365328e-02 2.62279194e-02 -1.55447600e-02 9.79457609e-03 -2.31783576e-02 -1.01775965e-02 1.94197148e-02 1.80117991e-02 1.09688779e-02 1.31430710e-02 -9.57245100e-03 -5.09032188e-03 -1.90459769e-02 1.42310522e-02 1.10424692e-02 8.88917781e-03 -2.31744517e-02 1.68702081e-02 -1.95695609e-02 1.66137163e-02 -1.26729561e-02 1.28125958e-02 2.71091312e-02 -8.63689370e-03 1.71210356e-02 -2.17206888e-02 -2.30714399e-02 1.04306247e-02 -2.41009109e-02 -1.76577531e-02
4.40476928e-03 -3.34561057e-03 5.38250431e-03 5.75201644e-04 -9.73621011e-03 1.08997552e-02 8.69160425e-03 -8.99500959e-03 1.79929973e-03 7.35630281e-03 -2.33105337e-03 -8.61680415e-03 -4.28815512e-03 1.27098255e-03 9.11916327e-03 9.91546456e-03 5.44035761e-03 5.48936566e-03 6.60061231e-03 -1.49475658e-04 -1.08404951e-02 -1.09612010e-02 4.08164645e-03 -4.13428119e-04 -7.69393891e-03 -9.62617341e-03 -5.43084694e-03 9.23122745e-03 1.18060112e-02 -3.00021656e-03 7.86639191e-03 9.09536052e-03 -9.94215254e-03 -1.38878115e-02 -9.58684087e-03 -1.29398657e-02 9.64844599e-03 -7.88021181e-03 2.49142759e-03 -1.17681548e-03 1.04509043e-02 7.88450614e-03 2.74220831e-03 -1.74461096e-03 -1.06392335e-02 7.98045285e-03 -9.47377470e-04 1.34816403e-02 1.07250586e-02 1.59796991e-03 1.81981327e-03 -1.16936741e-02 3.59805347e-03 1.13424740e-03 -1.04598207e-02 -9.56722070e-03 -8.39228800e-04 7.36570125e-03 -6.03828626e-03 8.73964280e-03 1.28057096e-02 -8.97257123e-03 -1.11274635e-02 8.53520166e-03 -8.32940638e-03 2.66827573e-03 6.92102651e-04 -4.23316378e-03 1.14616116e-04 -4.95134154e-03 4.66618873e-03 -2.91613932e-03 -1.26458714e-02 -4.15146025e-03 8.28721747e-03 -3.24813719e-03 -2.63507199e-03 9.81874391e-03 -8.81829206e-03 -6.20492036e-03 -6.87793363e-03 -4.56911605e-03 -8.68381839e-03 4.78823902e-03 7.47207087e-03 2.45684059e-03 -1.32313147e-02 -3.75753012e-03 1.09600341e-02 2.31585768e-03 -1.01989554e-02 8.93508177e-03 5.05088782e-03 -2.37832638e-03 -5.41640725e-03 1.04013383e-02 -7.30891305e-04 -7.55609944e-03 -4.69599850e-03 -8.37006327e-03 -8.57573759e-04 1.01191681e-02 -8.25111475e-03 3.19005852e-03 -5.44376438e-03 -6.52701361e-03 1.33126127e-02 -3.16458801e-03 5.59920631e-03 -7.53306784e-03 1.05689457e-02 1.66172034e-03 3.17384675e-03 3.06127500e-03 1.30430814e-02 8.98786634e-03 1.13148964e-03 6.75719744e-03 -1.05824438e-03 -1.02847274e-02 4.15955717e-03 6.78209029e-03 -4.60166810e-03 -4.47872007e-04 -7.48061994e-03 -3.11718346e-03 -7.50348158e-03 -5.69965504e-03 7.77673256e-03 -1.05798990e-02 1.43993404e-02 -1.12126814e-02 1.68544264e-03 -9.62856598e-03 1.26408059e-02 -8.88808072e-03 5.26681868e-03 -6.62895292e-03 3.89157375e-03 -3.40924435e-03 -5.30849816e-03 -9.43821575e-03 7.49149767e-04 1.44150360e-02 -1.10199125e-02 1.27760610e-02 2.56345747e-03 -3.51377501e-04 -6.56027533e-03 1.07340747e-02 5.71035733e-03 -2.25440087e-03 9.78459138e-03 -8.89040809e-03 -8.44705291e-03 -7.59018539e-03 8.76797456e-03 1.00722546e-02 -6.17696764e-03 -9.35622584e-03 -4.16993909e-03 6.23225048e-03 -3.37218633e-03 7.06277613e-04 1.23377284e-02 1.43253303e-04 8.16189032e-03 -9.11619235e-03 -2.26360135e-04 -4.51167161e-03 1.45205797e-03 -5.13443863e-03 -2.95161532e-04 -3.21913534e-03 -9.19360295e-03 1.85723824e-03 6.28041429e-03 1.77322770e-04 1.05120810e-02 -1.92335912e-03 -3.42524284e-03 3.81005974e-03 -1.03753358e-02 -2.59708171e-03 7.19293812e-03 -9.00431536e-03 -6.79707108e-03 1.14204334e-02 -9.95093212e-03 -3.43194464e-03 2.70443416e-04 1.16570210e-02 -4.07002075e-03 8.50660820e-03 8.62036273e-03 -8.58742744e-03 9.90077946e-03 -6.92709489e-03 9.23881773e-03 2.18613073e-03 3.20710288e-03 -3.83905112e-03 4.24861675e-03 1.03235468e-02 2.31277524e-03 3.90502787e-03 2.01032753e-03 -1.08547108e-02 -8.57122615e-03 2.35450198e-03 -7.29585532e-03 6.16235833e-04 -7.85498507e-03 -9.66237858e-04 3.08243581e-03 3.64621449e-03 5.58803137e-03 -1.02062142e-02 -5.31372381e-03 1.05852680e-02 -4.27692756e-03 -4.09862120e-03 -9.18993540e-03 -1.08273504e-02 -5.72339678e-03 8.00357759e-03 7.10539939e-03 -9.46800038e-03 1.58376282e-03 -6.91176159e-03 7.12503353e-03 -7.79625773e-03 1.31409829e-02 6.41678553e-03 6.93171564e-03 -7.67836254e-03 9.67079215e-03 -2.72770133e-03 6.30404241e-03 7.89453834e-03 -5.90790203e-03 -6.12847880e-03 -8.24393239e-04 1.01751536e-02 -3.36917024e-03 -6.55267341e-03 1.63260056e-03 -5.94940828e-03 -1.00241685e-02 -7.92353321e-03 4.90766834e-04 9.47441626e-03 -5.06392028e-03 7.83241470e-04 -1.00833327e-02 -3.65464482e-03
-2.46298406e-02 -2.69683674e-02 4.37099859e-03 -9.24879406e-03 -2.65967790e-02 2.21956391e-02 2.13303007e-02 -7.00184144e-03 -1.69793312e-02 -2.89013330e-03 3.63880885e-03 3.92010435e-03 1.10372133e-03 8.42031743e-03 -6.73710741e-03 -1.28912311e-02 -1.59775689e-02 7.32252607e-03 -8.25538766e-03 -9.92595032e-03 2.49662548e-02 6.10813545e-03 -3.09425732e-03 1.31180538e-02 1.70845427e-02 1.10798851e-02 -6.54568058e-03 1.68400127e-02 2.76100053e-03 -1.79861598e-02 -5.19634131e-03 1.93736441e-02 -1.35208294e-02 -1.26883397e-02 -1.84020530e-02 -1.86995547e-02 -1.22024342e-02 1.79706495e-02 2.00134218e-02 -1.31139979e-02 2.22404506e-02 5.57459192e-03 -2.46939007e-02 -3.62496939e-03 1.49841709e-02 1.44736413e-02 8.28096177e-03 1.54784229e-02 1.44737894e-02 -1.51386822e-03 1.34522945e-03 -1.16420276e-02 -2.12897882e-02 -1.10770315e-02 2.10645678e-03 -2.76285433e-03 1.20262150e-02 -2.02275012e-02 1.80432610e-02 1.70034617e-02 2.06444468e-02 -2.40068063e-02 -2.52958313e-02 1.12318061e-02 -4.99936752e-04 2.04205997e-02 1.85152236e-02 1.03909615e-02 2.21046489e-02 -9.93579719e-03 -9.03768558e-03 1.60744246e-02 -8.94764718e-03 -2.40918528e-02 -1.75010189e-02 -4.90587065e-03 2.16376339e-03 1.59638058e-02 3.55326501e-03 2.91666435e-03 1.86801516e-03 -5.17427037e-03 -1.69715919e-02 -2.58318335e-02 -1.26850652e-02 1.34360753e-02 -6.95147272e-03 -1.29248397e-02 -1.28017692e-02 -2.51150206e-02 1.25873564e-02 -4.18226793e-03 -9.15043347e-04 -5.06143970e-03 -6.29707333e-03 1.59497615e-02 -6.91991765e-03 1.99969225e-02 7.76733551e-03 2.05664933e-02 2.07612514e-02 9.44170449e-03 1.24055054e-02 -9.43405833e-03 7.77869532e-03 9.54400375e-03 2.19289772e-02 1.53252799e-02 -3.65961459e-03 8.74940015e-04 2.02699695e-02 -9.46273212e-04 5.12121804e-03 -7.14536197e-03 2.20752656e-02 6.21306896e-03 1.70918610e-02 1.28710084e-02 1.15320086e-02 1.04692494e-02 1.34642161e-02 1.15932394e-02 1.48044946e-02 -2.76203509e-02 -5.26529737e-03 1.31803856e-04 -9.07519087e-03 -1.12023754e-02 2.54070256e-02 -1.54842595e-02 2.02366747e-02 -1.37025509e-02 4.29387018e-03 -1.05975978e-02 2.06716508e-02 6.66793389e-03 -1.36770038e-02 7.51490053e-03 6.21371996e-03 2.09046174e-02 1.11278966e-02 -2.62621697e-02 -2.01926827e-02 2.53352262e-02 8.41183413e-04 5.55820810e-03 1.47642437e-02 -1.32251251e-03 1.83461001e-03 1.61386244e-02 -3.78630153e-04 6.48599910e-03 -1.43007208e-02 2.13928688e-02 3.05056898e-03 2.38042064e-02 9.42421146e-03 8.72825179e-03 4.45110211e-03 -1.98938157e-02 1.83354653e-02 1.40679795e-02 1.81925837e-02 -1.71329186e-03 1.82408523e-02 -7.74686559e-05 -1.04689440e-02 -1.85355358e-03 2.58558262e-02 2.44615264e-02 1.07360315e-02 -2.21209247e-02 -2.61089541e-02 -6.32287469e-03 4.75601992e-03 -8.37713107e-03 -1.64327875e-03 1.11236311e-02 7.15138810e-03 -1.02311606e-03 -1.82688218e-02 -1.74868200e-02 6.34128088e-03 -1.30965477e-02 2.96993204e-03 -1.54656835e-03 -2.27532201e-02 1.39066912e-02 2.38812901e-03 7.76675157e-03 -9.56092772e-05 7.13098468e-03 -8.28741584e-03 -1.82657950e-02 7.08976528e-03 -9.84857883e-03 7.60063156e-03 -1.44808311e-02 5.36992913e-03 1.76197365e-02 2.91822973e-04 1.82051875e-03 1.03432452e-04 1.31373694e-02 4.81099880e-04 1.90150313e-04 -1.90072728e-03 -2.15295814e-02 -1.99151300e-02 -1.91038605e-02 -1.81363411e-02 -1.48353204e-02 -6.59765350e-03 2.70559080e-02 1.65552516e-02 -2.16507614e-02 2.44713388e-02 -2.06752010e-02 3.99835547e-03 5.50247030e-03 3.06051876e-03 8.92792828e-03 7.08333636e-03 -1.26788830e-02 1.58169549e-02 2.31963228e-02 2.35741981e-03 6.41867425e-03 -1.79172284e-03 3.58572463e-03 -7.04947487e-03 -1.24516850e-02 1.31784081e-02 9.15390439e-03 9.29667056e-03 2.31168512e-02 -1.34920245e-02 -8.87862593e-03 -2.79516615e-02 2.29640286e-02 1.06761241e-02 5.67217916e-03 -2.71258038e-02 1.11444816e-02 1.80609766e-02 2.05429923e-02 9.51829279e-05 4.50224569e-03 2.02519670e-02 -3.52958706e-03 2.38369927e-02 -8.52357224e-03 -2.61957664e-02 1.72919314e-02 -5.44391666e-03 -2.28316784e-02
-2.10473407e-02 -6.32761093e-03 2.34251786e-02 -5.69354370e-03 -8.70576594e-03 3.04802395e-02 2.30541304e-02 -9.43556894e-03 -1.79330520e-02 -5.65013010e-03 2.30423883e-02 7.85512850e-03 -1.02032172e-02 1.88388936e-02 -6.02392771e-04 -1.55599834e-02 7.11901739e-05 3.51274875e-03 -1.03494339e-03 -7.35443085e-03 6.10848470e-03 1.95135381e-02 -1.59175694e-02 1.66082196e-02 1.22641791e-02 1.42663252e-03 -1.99481007e-02 2.31746421e-03 2.64088064e-03 -7.15002278e-03 -9.28390119e-03 1.74430571e-02 -2.60299128e-02 -1.74857695e-02 -8.99025518e-03 -1.00710355e-02 -2.48632934e-02 2.71532629e-02 8.39948468e-03 -2.18781419e-02 2.27916706e-02 2.20318921e-02 -1.84812378e-02 -1.29011711e-02 2.29629446e-02 1.47282444e-02 1.36374692e-02 8.32665525e-03 1.14465468e-02 -1.10043548e-02 -1.36615392e-02 -7.84120709e-03 -1.64047573e-02 -1.91315822e-02 1.23531893e-02 1.60099268e-02 2.88869850e-02 -1.19513301e-02 1.73081793e-02 1.30699659e-02 2.21929979e-02 -1.27879828e-02 -1.17124170e-02 2.53927018e-02 -1.61259286e-02 1.01909563e-02 1.04155410e-02 1.24233840e-02 9.70569998e-03 -6.78702444e-03 -1.05601605e-02 -5.34241740e-03 -8.30232259e-03 -1.89022236e-02 -2.06864607e-02 -2.35445099e-03 1.75716225e-02 1.35663664e-02 2.54570302e-02 3.85913532e-03 2.51905713e-02 -1.35603137e-02 -3.52487131e-03 -1.65085252e-02 -1.99206807e-02 -5.17668063e-03 -1.32399769e-02 -8.39642622e-03 -1.44791808e-02 -2.63754744e-02 4.01043054e-03 -1.90269668e-02 -7.34620728e-03 -1.92166269e-02 -1.58085395e-02 1.64314117e-02 -5.48139075e-03 2.38578068e-03 2.35622544e-02 1.64700672e-02 2.09412188e-03 5.10648871e-03 1.05979983e-02 -1.56794414e-02 6.19436055e-03 -1.07456282e-04 1.47041306e-02 9.61426832e-03 -1.10944724e-02 6.19643647e-03 1.85479522e-02 -1.17080938e-02 2.26177759e-02 7.26505183e-04 7.28795631e-03 2.23105624e-02 1.21448739e-02 1.16695892e-02 4.92899399e-03 1.83349345e-02 1.25333704e-02 1.74913220e-02 2.41734385e-02 -1.71510465e-02 -1.26280496e-02 1.71704888e-02 -8.70201923e-03 -6.40855357e-03 1.03493556e-02 -1.49963452e-02 1.85128842e-02 -1.82045326e-02 4.71832370e-03 -2.25655902e-02 2.28691157e-02 6.53550588e-03 -2.61401590e-02 2.02928111e-02 1.28813377e-02 2.54257433e-02 3.11947539e-02 -6.94924546e-03 -3.23651149e-03 2.64109652e-02 -1.48309860e-02 1.55379679e-02 -1.09731313e-03 -1.61389709e-02 -2.45107943e-03 1.33453740e-03 8.90762603e-04 1.71716027e-02 -1.49975391e-02 1.19282426e-02 1.06797479e-02 1.61610804e-02 3.09559167e-03 9.98251420e-03 1.09325675e-02 -2.27074251e-02 1.67743340e-02 -2.27420405e-03 2.22062953e-02 -6.00360520e-03 -2.13434175e-03 -8.67492706e-03 -1.75859593e-02 1.75920520e-02 5.17142285e-03 1.99882910e-02 2.12919563e-02 -2.97292806e-02 -1.51145179e-02 -9.26114805e-03 1.12450849e-02 -6.32237177e-03 -1.60409529e-02 3.79939703e-03 5.46309352e-03 1.01545062e-02 -1.21942032e-02 -1.78568009e-02 -3.76032363e-03 -1.41906096e-02 -8.65355972e-03 1.95590295e-02 -1.51982941e-02 8.76632705e-03 -2.26550805e-03 2.07524607e-03 4.98228846e-03 2.56136816e-04 -1.98917910e-02 -2.77770795e-02 1.24182124e-02 -1.53248925e-02 1.36374105e-02 -1.77025460e-02 2.74571106e-02 1.23946266e-02 -1.80859007e-02 5.85392118e-03 -1.89849343e-02 9.85909719e-03 -5.94235244e-05 -1.73310060e-02 -3.81702645e-04 -2.17161933e-03 -2.09973380e-02 -2.03794725e-02 -1.25866486e-02 -2.29121633e-02 -6.87931525e-03 1.58442687e-02 9.54527780e-03 -1.23790959e-02 1.37437535e-02 -1.92229450e-02 5.62680885e-03 2.43209619e-02 2.19205022e-03 -2.23546033e-03 9.20067169e-03 -1.51907885e-02 1.59018263e-02 2.72974670e-02 1.52313961e-02 1.38637219e-02 -4.47041728e-03 1.54236555e-02 -1.37928333e-02 -2.26250812e-02 1.62316021e-02 1.59835517e-02 2.51144189e-02 2.53335163e-02 -1.10810474e-02 -2.19037198e-02 -1.55977588e-02 1.97530426e-02 1.78470202e-02 8.87446478e-03 -9.89292841e-03 3.57302837e-03 -2.11623125e-03 1.81811154e-02 -1.82584319e-02 6.25103619e-03 1.17161935e-02 -1.39101269e-02 1.41982259e-02 -1.23030478e-02 -2.11147778e-02 2.58285869e-02 -7.72219198e-03 -1.89573821e-02
-9.71339084e-03 8.35397746e-03 9.35901143e-03 -3.47105233e-04 1.32018654e-02 -5.71537577e-03 7.10078841e-03 -1.48875813e-03 2.23734952e-03 -5.32695977e-03 -1.82806747e-03 5.60132496e-04 -2.65393872e-03 -7.43882544e-03 8.14550277e-03 4.28947667e-03 4.75552725e-03 9.39874630e-03 -4.26699349e-04 -2.58677010e-03 -6.21300144e-03 6.91304123e-03 5.03466977e-03 -3.04552470e-03 -3.25283757e-03 -5.33862598e-03 4.20155143e-03 7.96162337e-03 9.95116401e-03 7.38564599e-03 -1.41462348e-02 5.97167574e-03 -1.25180958e-02 -1.21045485e-02 -5.71963936e-03 9.41419322e-03 -6.99496176e-03 -1.99413509e-03 1.80474725e-02 -9.12166853e-03 -7.24807288e-03 -9.52669187e-04 -1.26517098e-02 -1.58858486e-03 -8.73952173e-03 1.34939570e-02 1.09154666e-02 -1.50357839e-03 -8.96538328e-03 7.64465565e-03 1.55723374e-02 8.55296385e-03 -2.02368130e-03 -6.94057951e-03 -1.15342038e-02 2.56877602e-03 -3.03745875e-03 -1.74780823e-02 5.28523326e-03 1.15855178e-02 7.70240696e-03 -8.51682853e-03 -1.25522800e-02 -3.87229561e-03 5.11665782e-03 1.84865296e-03 9.48106311e-03 -4.55154665e-03 1.48924431e-02 -1.33323893e-02 -2.46843416e-02 -2.93025607e-03 1.56387016e-02 -1.34425312e-02 -8.16884357e-03 -7.17309304e-03 7.73789268e-03 6.14919327e-03 -1.19100269e-02 -3.22526466e-04 1.06146270e-02 -6.18921453e-03 -1.05382577e-02 -6.26369053e-03 1.99179328e-03 1.07672652e-02 -8.55457783e-03 9.27016418e-03 -9.86533612e-03 -1.11186821e-02 3.80885787e-03 5.08393534e-03 -2.08063619e-04 1.96279236e-03 1.13102412e-02 -2.77346140e-03 1.55382575e-02 4.26864438e-03 -3.87803558e-03 6.61942549e-03 8.63111112e-03 -3.36970994e-03 -5.68565959e-03 8.04560725e-03 2.62644025e-03 -1.63341016e-02 1.37009230e-02 2.35629827e-03 -2.16493267e-03 -1.52133321e-02 6.63249660e-03 -4.89310827e-03 -1.07460460e-02 1.37675451e-02 -1.50124950e-04 5.64047927e-03 5.59377531e-03 2.84419861e-03 8.84152297e-03 -1.33411307e-03 -5.69150504e-03 -7.19598914e-03 -7.40384823e-03 -6.58806181e-03 1.38658361e-05 -1.32198185e-02 -4.43586614e-03 -7.28154834e-03 1.26154022e-02 1.68179313e-03 -1.27200289e-02 -7.59448856e-03 -6.98736636e-03 -2.29315553e-03 8.89907032e-03 4.25583171e-03 -1.45280513e-03 -4.65034274e-03 3.66106769e-03 8.67182110e-03 2.04310156e-02 -5.11447946e-03 5.11322985e-04 9.69611108e-03 6.78396132e-03 7.06724776e-03 -1.69998836e-02 8.24917201e-03 -9.33589414e-03 7.35989725e-03 -9.09252372e-03 -1.02481302e-02 6.46940432e-03 4.95992741e-03 -4.20668116e-03 1.50920609e-02 -6.71131816e-03 7.41498405e-03 -6.78897230e-03 -1.28137488e-02 -1.47050861e-02 -6.73560100e-03 -1.64856622e-03 -9.11181606e-03 -1.09197674e-02 9.82354768e-03 -5.88339567e-03 -1.35560113e-03 2.40254775e-03 1.81011073e-02 -7.45258899e-03 7.45435897e-03 -3.79964872e-03 -4.53038467e-03 -2.22605257e-03 5.15126158e-03 -2.99572916e-04 9.24615003e-03 -6.11320045e-03 -4.20834054e-04 2.74984841e-03 -7.24047516e-03 -1.95201801e-03 1.36691751e-02 1.66382995e-02 1.77777268e-03 -1.13166301e-02 5.71478298e-03 8.20000563e-03 -4.41739615e-03 -5.71941305e-03 3.82762379e-03 4.58572293e-03 3.18983500e-03 1.22291669e-02 3.94305168e-03 4.00182139e-03 1.04143322e-02 -7.69343786e-03 -8.37516598e-03 4.39399621e-03 -1.66889615e-04 -1.27653673e-03 1.31610772e-02 7.51627469e-03 -5.78306802e-03 -6.21879054e-03 -9.17396415e-03 -1.10883396e-02 1.50833360e-03 -1.45080388e-02 -2.54448736e-03 3.23918625e-03 -2.97094556e-03 1.41279434e-03 -1.17779942e-02 -3.84881068e-03 -6.97267707e-03 1.18975798e-02 2.18709675e-03 6.76498981e-03 -1.06632682e-02 -5.72142843e-03 1.37858922e-02 6.57921750e-03 1.34311300e-02 7.56028434e-03 9.07841418e-03 5.50478371e-03 -7.06855441e-03 4.04356048e-03 -5.17541543e-03 3.36947292e-03 4.30182833e-03 2.96664843e-03 2.58767535e-03 4.90711955e-03 5.32617234e-03 -1.91765279e-02 6.10745186e-03 5.00691915e-03 1.86138391e-03 -7.40627991e-03 -1.20013850e-02 -5.16045326e-03 2.33976520e-03 8.35342333e-03 3.82251805e-03 7.29738735e-03 -3.45618045e-03 -1.67203555e-03 -3.38967261e-03 3.85299185e-03 -1.84352743e-03 -6.48135785e-03 4.49632341e-03
-9.74263065e-03 -3.95703129e-03 2.11236416e-03 -9.54202190e-03 -3.17301927e-03 7.72418920e-03 1.48242889e-02 -2.16101902e-03 9.27580148e-03 -1.72510964e-03 1.29490830e-02 1.33783920e-02 -5.91364177e-03 4.71721077e-03 1.17720095e-02 -6.25873031e-03 8.20887741e-03 3.85988457e-03 1.23300254e-02 3.97532189e-04 6.66729780e-03 2.63878424e-03 3.71840503e-03 -1.19236214e-02 2.76335329e-03 -3.86942620e-03 -6.69816323e-03 -3.89342988e-03 -5.05205616e-03 2.41285539e-03 -6.33038871e-04 1.51426010e-02 -1.52687570e-02 -1.54604968e-02 5.55334194e-03 -7.42939161e-03 3.55669111e-03 7.20996549e-03 1.78358573e-02 -5.97470626e-03 6.43266086e-03 1.14769889e-02 -1.33771431e-02 -6.81454735e-03 -2.30936171e-03 7.02599483e-03 -7.07972934e-03 -7.36196293e-04 3.69426794e-04 2.67744227e-03 9.07244533e-03 -2.06011138e-03 -6.72634644e-03 1.00247283e-02 8.19668360e-03 -8.71361978e-03 8.78273975e-03 8.38344742e-04 4.20475518e-03 -4.14206646e-03 2.38180091e-03 -1.47181218e-02 -1.38617447e-02 -1.32928276e-03 -6.16179220e-03 9.39290691e-03 1.62139477e-03 6.63738744e-03 9.73641593e-03 -1.34937186e-02 -1.32791209e-03 -6.29853876e-03 -9.13686212e-03 5.61617548e-03 -1.32196024e-02 -7.33316550e-03 -4.86310059e-03 -4.98062145e-05 1.95872504e-03 -6.30558818e-04 -6.49768859e-03 -1.18013145e-02 -1.59778688e-02 -1.71986502e-02 -3.49200866e-03 1.04306091e-03 -3.60737741e-03 -1.58404931e-02 1.61180412e-03 -3.50051513e-03 1.30822659e-02 -1.30334625e-03 9.22572147e-03 1.60701119e-03 -6.45620888e-03 -4.93697124e-03 -3.44493310e-03 -7.58127915e-03 3.95029318e-03 -2.95128138e-03 3.68535402e-03 1.24954460e-02 -1.01007922e-02 1.71176589e-03 1.13615561e-02 -6.68942789e-03 1.36729628e-02 1.23628071e-02 -5.98493032e-03 1.73046906e-03 7.52825756e-03 -2.86583952e-03 8.36065505e-03 -7.12841691e-04 1.49046881e-02 1.14355031e-02 3.08788178e-04 1.28076952e-02 -1.22139533e-03 1.15437014e-02 5.68868173e-03 1.21152634e-02 1.11084469e-02 -3.82939889e-03 -9.94295534e-03 6.07313542e-03 -1.68299989e-03 -9.79960617e-03 1.30823050e-02 9.61608626e-03 -6.73079537e-03 -3.81824502e-04 8.60414281e-03 -2.96921527e-04 -3.55511229e-03 1.91032290e-02 -1.15815410e-02 -1.21304172e-03 -7.72672798e-03 -3.26899090e-03 1.79994840e-03 -1.05281388e-02 -7.45623745e-03 7.69950543e-03 3.71640990e-03 1.21393781e-02 -1.00346524e-02 -5.55342901e-03 5.17599110e-04 1.04282796e-02 2.99018063e-03 7.30981072e-03 1.22023365e-02 2.79821479e-03 -9.64040589e-03 1.63892675e-02 -2.86518270e-03 -3.38945445e-03 1.00548621e-02 -4.69597569e-03 7.34559773e-03 -5.77067118e-03 9.00794193e-03 1.55485270e-03 -8.66476912e-03 -8.28793179e-03 -2.98344065e-03 1.17631340e-02 -5.49062272e-04 1.76031992e-03 -4.44584060e-03 -1.48296505e-02 -9.21015569e-04 -2.71567213e-03 5.82393026e-03 -1.64489336e-02 8.60063266e-03 9.79215745e-03 2.11087125e-03 5.34959044e-03 2.60332949e-03 1.24667771e-03 6.88745128e-03 7.88519904e-03 5.38153527e-03 -8.61200783e-03 7.20469560e-03 -1.20147914e-02 9.35046774e-05 4.78353864e-03 1.45422490e-02 2.48115137e-03 -1.04022706e-02 -9.55115363e-04 1.77117232e-02 1.20369322e-03 8.83816648e-03 4.78930364e-04 1.49143999e-02 4.27879021e-03 -2.63600796e-03 -4.81386390e-03 6.73410948e-03 1.69461332e-02 1.15869781e-02 9.81367845e-03 6.96358085e-03 9.76550113e-03 -5.92736155e-03 -8.85358360e-03 -1.17846495e-02 1.09099710e-04 4.84743109e-03 8.98792176e-04 2.52554798e-03 2.17730831e-03 8.80039670e-03 -1.66170523e-02 1.70783326e-02 -9.57114995e-03 4.76305613e-05 3.43225850e-03 5.16281743e-03 8.80570523e-03 -6.33349456e-03 1.68541053e-04 -6.54870365e-03 1.59887373e-02 6.77255867e-03 8.71223211e-03 -1.33101447e-02 3.68127925e-03 4.04176954e-03 -3.69425252e-04 -7.10851513e-03 9.32819210e-03 7.54879368e-03 -3.10755405e-03 -2.47659497e-02 7.84078147e-04 7.64192955e-04 2.48068618e-03 -1.45966443e-03 -3.21574439e-03 -1.18594402e-02 -2.81336438e-03 1.47512765e-04 1.33539373e-02 1.13373389e-02 -1.29232118e-02 1.41459098e-02 -1.25129400e-02 -2.71479576e-03 7.66236521e-03 1.71568722e-03 3.70597839e-03
-1.12624969e-02 -1.95503626e-02 2.61311904e-02 -1.28832096e-02 -1.99845415e-02 2.35718023e-02 2.23564077e-02 -1.41850933e-02 -6.09698985e-03 -6.34172885e-03 1.71634406e-02 9.58621223e-03 1.84738403e-03 1.87413432e-02 -6.90819789e-03 -1.27004357e-02 6.20668987e-03 2.15838826e-03 -1.27277002e-02 -4.49931482e-03 8.87587434e-04 4.14857920e-03 6.13864046e-04 1.81977339e-02 1.10180816e-02 3.93478246e-03 -1.01449667e-02 -7.66879646e-04 1.96900475e-03 -1.79536957e-02 -4.96807089e-03 8.87672324e-03 -1.23997433e-02 -2.23463774e-02 -1.95834190e-02 -2.34947391e-02 -2.00278480e-02 2.64529251e-02 1.04536274e-02 -2.76258513e-02 2.12521497e-02 2.11871248e-02 -1.78108700e-02 2.89840554e-03 2.53552035e-03 6.23072917e-03 2.09419001e-02 2.94641504e-04 1.36323087e-02 -4.94162925e-03 4.47415980e-04 5.08421846e-03 -1.52218239e-02 -1.71674024e-02 1.37787322e-02 1.24046244e-02 3.04972436e-02 -1.83980577e-02 1.98898949e-02 2.68112943e-02 1.80182494e-02 -3.35174091e-02 -1.64808910e-02 1.19749811e-02 -4.30705072e-03 9.56548005e-03 3.61039513e-03 -5.84021630e-03 2.08217055e-02 -1.31867798e-02 -1.21783800e-02 -3.79571645e-03 9.04493500e-04 -2.19401587e-02 -2.27912646e-02 -8.58617295e-03 2.06819791e-02 1.21038873e-02 -2.43342714e-03 7.65272183e-04 1.57715324e-02 -7.69528514e-03 -1.96297970e-02 -6.98945252e-04 -2.24225335e-02 -8.06004182e-03 -1.47387283e-02 4.95016982e-04 5.41999354e-04 1.15373440e-03 -4.23889833e-05 -2.88821873e-03 6.43133326e-03 -1.17532201e-02 -1.68777015e-02 1.54720070e-02 -1.46477800e-02 1.61174163e-02 1.60433054e-02 1.24043608e-02 1.76657538e-03 1.29304780e-02 -3.13999993e-03 -3.45321349e-03 6.21778239e-03 -2.38623354e-03 -1.67887704e-03 8.80174898e-03 -8.81635305e-03 4.83489363e-03 3.43944435e-03 2.23597465e-03 1.22917984e-02 -1.51390256e-03 -1.81606505e-03 1.82500258e-02 7.05919089e-03 1.79340746e-02 2.02437658e-02 9.12371092e-03 3.73552390e-03 3.66796367e-03 9.22755804e-03 -2.20903456e-02 -7.71762244e-03 1.73594560e-02 -1.07694389e-02 -1.84098314e-02 1.42968288e-02 -1.57945976e-02 9.09343921e-03 -2.65680403e-02 6.61170529e-03 -4.81505971e-03 8.50030314e-03 8.86483584e-03 -1.02945352e-02 1.46384872e-02 2.21438408e-02 5.08663710e-03 2.17644479e-02 -2.50940155e-02 -2.50293352e-02 1.16434498e-02 1.77555229e-03 1.74553674e-02 7.10720522e-03 8.44219234e-03 1.34521201e-02 1.69498287e-02 1.10031981e-02 1.33024994e-02 1.22866605e-03 -3.94651573e-03 -1.72056165e-03 5.41899586e-03 1.00150541e-03 4.85898694e-03 1.72687266e-02 2.54160399e-03 1.99254416e-03 1.18016833e-02 -3.08812736e-03 6.01906935e-03 -2.47870130e-03 -8.01077392e-03 -4.12854925e-03 1.24294180e-02 1.16699357e-02 2.90995017e-02 2.15078816e-02 -2.61709932e-02 -2.17359904e-02 -9.14473645e-03 1.35766715e-02 -1.60035286e-02 -7.27488752e-03 1.11598475e-02 1.50461250e-03 6.71573868e-03 -3.93731752e-03 -1.98444817e-02 6.05281675e-03 -1.12999650e-02 -1.34625342e-02 1.26117719e-02 -1.09299261e-03 5.58707910e-03 -2.79652653e-03 1.38487536e-02 -2.82889348e-03 3.50745977e-03 -9.16427840e-03 -2.52317134e-02 2.54533160e-02 -2.31465194e-02 1.06596397e-02 -1.16253737e-02 2.69235075e-02 2.75682285e-02 9.70376015e-04 1.23634180e-02 -1.74001530e-02 1.63858905e-02 5.12847491e-03 -2.10175081e-03 -3.05993063e-03 -2.04303823e-02 -1.60845034e-02 -1.32756643e-02 -2.16330029e-02 -1.05401045e-02 -7.80237978e-03 1.37936715e-02 5.18731726e-03 -1.70713831e-02 1.45339342e-02 -7.78006157e-03 8.90446361e-03 7.25373253e-03 4.57347091e-03 1.83962230e-02 5.11262752e-03 -7.84518570e-03 7.98022095e-03 2.16599051e-02 1.39012572e-03 1.63214542e-02 -2.30408516e-02 2.90155341e-03 -1.55826723e-02 -7.26700947e-03 2.14411016e-03 3.85608431e-03 8.20325594e-03 1.24704856e-02 -1.86699852e-02 -1.40590267e-02 -2.80936658e-02 1.26061337e-02 1.25468671e-02 8.66570976e-03 -6.54962845e-03 6.28812565e-03 1.05202047e-03 9.67404805e-03 -3.94374039e-03 1.87068433e-02 1.74135156e-02 -8.90275929e-03 1.98547952e-02 -2.26422064e-02 -6.50334777e-03 1.77026261e-02 -1.21367462e-02 -1.69377960e-02
-4.35399497e-03 -1.13229807e-02 1.07406797e-02 -1.71971961e-03 -1.69224497e-02 7.95607734e-03 2.35824957e-02 -9.78331361e-03 -6.80399174e-03 -1.44652762e-02 1.63781010e-02 3.16943624e-03 -6.76141214e-03 -6.40051067e-03 -4.24882816e-03 2.09436449e-03 9.99029167e-03 -6.31429255e-03 -1.18240109e-02 2.53432337e-03 5.11245569e-03 1.18833957e-02 8.73604137e-03 -5.53095527e-03 -6.77504868e-04 -4.61033126e-03 4.55406075e-03 1.22872170e-03 1.81957297e-02 -2.44181580e-03 -3.15704383e-03 1.44263990e-02 -1.80073641e-02 -8.63174035e-04 -6.00866601e-03 -4.25391970e-03 -1.50798047e-02 1.53936967e-02 1.87831968e-02 -1.76694710e-02 2.22913790e-02 1.36536937e-02 -1.08394045e-02 -1.61615554e-02 1.29377637e-02 4.01625410e-03 -6.65536034e-04 1.54012190e-02 -4.42643138e-03 3.82416230e-03 -6.37743273e-04 -9.94774513e-03 8.01184494e-03 -3.60412966e-03 -7.32815545e-03 -1.34281693e-02 6.90295734e-03 -2.26458386e-02 2.01726779e-02 2.43881065e-02 2.61493362e-02 -2.56671365e-02 -2.68633794e-02 7.02051632e-03 -5.41287009e-03 4.80384473e-03 4.78210999e-03 4.43554716e-03 1.06255547e-03 -8.52864515e-03 -2.39181463e-02 1.24196114e-03 -8.59057251e-03 -5.90033643e-03 -1.70936864e-02 -1.71573423e-02 -3.63112777e-04 5.40433172e-03 6.53239060e-03 1.00973072e-02 4.77140490e-03 -7.38571910e-03 -3.48956743e-03 -1.42184794e-02 -2.63230572e-03 -1.38946390e-02 6.54708222e-03 -5.26185904e-04 -1.41284475e-02 -3.82921775e-03 1.37896091e-03 -1.21012973e-02 -5.18049998e-03 1.11381384e-02 1.59332308e-03 1.13104666e-02 7.31590088e-04 9.94533580e-03 1.63557800e-03 1.47367045e-02 5.92578761e-03 1.70558579e-02 5.54356072e-03 -1.83261409e-02 -4.82324511e-03 1.22127659e-03 6.54177088e-03 6.38140924e-03 -2.04027630e-03 1.21472003e-02 -1.02589978e-03 2.70016462e-04 1.03051821e-02 4.67068003e-03 1.18692974e-02 1.60999200e-03 1.48040781e-04 5.21542458e-03 2.98232818e-03 2.00417899e-02 1.39698135e-02 2.03729346e-02 1.25718387e-02 -2.51759365e-02 5.93059696e-03 1.70410201e-02 -1.51427025e-02 -1.62489358e-02 1.42188203e-02 -7.74772558e-03 2.35188529e-02 -9.00562480e-03 1.98302735e-02 -3.41186812e-03 8.06964003e-03 1.17212879e-02 -1.41434139e-02 8.41834862e-03 1.81902677e-03 9.19692125e-03 1.92119367e-02 -1.48760211e-02 -5.12414938e-03 1.25790620e-02 -1.06594926e-02 -3.68891773e-03 -1.04566170e-02 -9.76772979e-03 -8.49649590e-03 -2.25732438e-05 -1.14430338e-02 5.75242750e-03 -4.85366862e-03 2.07027104e-02 -3.54072475e-03 7.80165708e-03 6.86888176e-04 1.78868026e-02 4.17347997e-03 -1.19951880e-02 -5.61757130e-04 3.77472630e-03 3.89677170e-03 -5.38665196e-03 -1.17017934e-02 -3.55234928e-03 4.92098369e-03 3.44656850e-03 1.26108686e-02 6.22709841e-03 2.45232955e-02 -5.84512670e-03 -2.13219859e-02 -9.65636317e-03 1.30203451e-04 -5.27083175e-03 4.50786157e-03 -6.52680174e-03 -2.29171365e-02 1.57162789e-02 6.96033798e-03 -1.28275249e-02 -1.08849229e-02 6.79753441e-03 -3.03167570e-03 5.60181821e-03 2.54252157e-03 1.04262400e-02 3.88765126e-03 -2.51810416e-04 -9.95736010e-03 3.27289850e-03 -3.12093715e-03 -1.07127922e-02 4.96929279e-03 -1.42722204e-02 1.06515177e-02 -2.11219266e-02 1.05582445e-03 8.16237833e-03 -7.13912724e-03 -5.63275116e-03 9.65826400e-03 1.27218477e-02 -8.55535828e-03 -9.74075403e-03 6.84110494e-03 -1.20023666e-02 -2.79508438e-02 -5.94341243e-03 -2.42251083e-02 -2.36802697e-02 -1.88755672e-02 1.85373016e-02 3.55933723e-03 -1.35426354e-02 1.16301104e-02 -2.18344349e-02 1.69497207e-02 -1.26422651e-03 1.12521583e-02 -5.78495767e-03 -8.32180213e-03 -9.23340116e-03 1.03878453e-02 1.10732066e-02 1.42553179e-02 1.36674335e-02 -6.42788317e-03 3.69283091e-03 -1.62173957e-02 -1.22611166e-03 3.99852451e-03 7.11998763e-03 2.09228601e-04 1.38927419e-02 -3.19562643e-03 -1.77356298e-03 -2.82202009e-02 5.78777865e-03 -8.60468950e-03 6.69994904e-03 -1.70345381e-02 -1.50854365e-04 -9.24778730e-03 -9.54536349e-03 6.06074871e-04 1.93093698e-02 6.98010204e-03 -1.91727243e-02 2.36091148e-02 -4.41980595e-03 -1.92406718e-02 1.31556205e-02 -2.58240309e-02 -3.87051655e-03
-2.33971830e-02 -8.81706271e-03 1.11396415e-02 -6.44292403e-03 -9.72838793e-03 7.31792953e-03 1.68083627e-02 -3.00336555e-02 -8.32841825e-03 -1.62216108e-02 4.02920693e-03 4.93501546e-03 -3.98534071e-03 3.14555317e-03 -1.44245513e-02 -1.59073155e-02 -1.20994486e-02 -1.98300406e-02 8.54448881e-03 6.63318671e-03 1.05928732e-02 5.87710924e-03 5.97286923e-03 -7.53863528e-03 9.98729561e-03 3.63934110e-03 2.87888222e-03 6.45809248e-03 1.46275628e-02 -9.30666458e-03 -1.59915239e-02 5.28852083e-03 -1.01748882e-02 -8.04584194e-03 -2.36084182e-02 -2.49175299e-02 -1.00660101e-02 9.09350626e-03 2.37094285e-03 -9.28496011e-03 1.96569934e-02 9.86457337e-03 -1.96731072e-02 -8.81410437e-04 2.17170604e-02 8.21129419e-03 1.75258741e-02 1.96587015e-02 4.93707717e-04 9.64573468e-04 -5.12924651e-03 5.61485114e-03 3.91775928e-03 5.06828493e-03 -3.17462999e-03 -1.36480853e-02 2.31910050e-02 -1.52397575e-02 2.17998698e-02 1.81488413e-02 2.74413098e-02 -1.94978658e-02 -2.52199546e-02 1.88838542e-02 -7.39167095e-04 4.28830943e-04 1.60579849e-02 1.85750634e-03 -2.15223874e-03 2.61345599e-03 -2.86680926e-03 9.71540809e-03 -1.69749167e-02 -1.48320785e-02 -1.46106128e-02 -1.91051420e-02 1.20714644e-03 5.22036804e-03 1.11032752e-02 7.07411021e-03 4.55787918e-03 -1.07978703e-02 4.56431415e-03 -2.02623825e-03 -2.01482748e-04 3.82831367e-03 8.22476484e-03 -1.23067489e-02 -2.17651073e-02 -1.67588275e-02 7.72072701e-03 -4.35559871e-03 -7.85497949e-03 3.99060460e-04 1.30187515e-02 -2.14314042e-03 -1.04941810e-02 1.17062600e-02 2.20832881e-02 1.56222368e-02 1.91679574e-03 1.55204786e-02 1.92102306e-02 -3.91824218e-03 1.85645670e-02 -3.19574447e-03 1.99094303e-02 1.47997346e-02 -8.07965174e-03 9.28192120e-03 4.47269855e-03 1.17821654e-03 4.16513300e-03 -1.44879399e-02 -3.27763101e-03 6.18874747e-03 1.43344076e-02 6.65881485e-03 1.17318556e-02 7.30241043e-03 1.56490002e-02 -1.42632565e-03 -2.87003978e-03 -2.40613110e-02 -9.93102416e-03 4.18715319e-03 -1.64082628e-02 -2.89651612e-03 4.75196168e-03 -1.97789390e-02 1.63456816e-02 -1.09024264e-03 2.03240328e-02 -1.52907288e-02 1.61736459e-02 2.25038119e-02 -2.31909659e-02 2.32726540e-02 3.62718641e-03 2.60611232e-02 2.27320902e-02 -5.25871478e-03 -1.30696194e-02 1.92854609e-02 -5.10071497e-03 -2.46109418e-03 -1.78614364e-03 -3.65409954e-03 -3.05018551e-03 1.38578638e-02 -5.35493204e-03 1.00202328e-02 -8.07199348e-03 2.29201186e-02 7.82809965e-03 1.82043724e-02 3.78869427e-03 6.72537927e-03 1.40104406e-02 -1.08137261e-02 3.54197982e-04 -1.79145206e-03 6.40944624e-03 6.27821311e-03 -7.63646327e-03 5.54127805e-03 -7.96346925e-03 -1.14486902e-03 2.05195304e-02 1.10481130e-02 2.22515687e-02 -2.86104847e-02 -3.11498698e-02 -2.87613948e-03 2.12941524e-02 -8.88324901e-03 -1.18124383e-02 -2.68234260e-04 -1.48613015e-02 6.51884777e-03 -7.38032674e-03 -5.34866611e-03 -1.17122871e-03 -9.97243170e-03 -1.72364037e-03 -5.40264929e-03 4.83158929e-03 -1.10842078e-03 -8.73287302e-03 6.22524228e-03 -3.55556747e-03 9.21860617e-03 -7.20552122e-03 -2.04038713e-02 1.13037927e-02 -1.98218524e-02 2.57679075e-02 -8.24007206e-03 1.20591326e-02 2.59705279e-02 8.89684306e-04 8.56239256e-03 -1.42298508e-02 6.25598384e-03 -3.94399045e-03 1.24540890e-03 -4.97352844e-03 -7.72943394e-03 -1.70026850e-02 -1.50907896e-02 -1.06772631e-02 -2.70454790e-02 -1.78402644e-02 7.27038411e-03 8.15161783e-03 -1.65589228e-02 1.83663182e-02 -2.84677371e-02 1.99954771e-02 -4.36211750e-03 -2.23090686e-03 1.42908683e-02 1.19015463e-02 3.08391219e-03 5.72994770e-03 1.06145656e-02 1.19808959e-02 2.23718230e-02 -1.26060694e-02 1.79398414e-02 -2.11496204e-02 -2.58421674e-02 1.12154605e-02 2.26578303e-02 1.12114865e-02 1.76418554e-02 -1.63889565e-02 -1.85889360e-02 -2.86288336e-02 1.07241888e-02 1.21952677e-02 1.14523228e-02 -1.94796687e-03 1.43807409e-02 -2.04754174e-02 3.63360654e-04 3.65220173e-03 1.91825479e-02 1.72517393e-02 -1.58620328e-02 1.73635706e-02 -2.49274354e-02 -6.93903631e-03 1.57029256e-02 -2.28392985e-02 -2.65570655e-02
-2.69486587e-02 -1.86593663e-02 2.14529149e-02 -1.61740463e-02 -1.20881544e-02 1.09349359e-02 1.99080482e-02 -3.94670293e-03 -5.07454667e-03 -2.10488345e-02 3.94354993e-03 1.15249660e-02 -8.30918737e-03 9.10537876e-03 6.68901950e-03 -7.33083021e-03 6.20099669e-03 9.24212579e-03 -1.01886066e-02 1.45927293e-03 -6.90318691e-03 -3.56343971e-03 5.97836263e-03 -4.53431997e-03 1.41984061e-03 5.70733426e-03 4.20873659e-03 6.71940623e-03 5.05975168e-03 1.44070433e-03 -2.14823559e-02 1.13119027e-02 -1.03525463e-02 -1.49440970e-02 -1.85753144e-02 -2.05046106e-02 -2.30809161e-03 2.18148567e-02 1.68625358e-02 -1.58825032e-02 6.56728540e-03 -6.08590432e-03 -2.17259489e-02 6.19098311e-03 1.00344594e-03 2.85655935e-03 2.22940929e-02 1.17733963e-02 1.29575124e-02 -1.61784161e-02 -5.32034133e-03 -1.23429131e-02 3.93463578e-03 -1.46162678e-02 -6.85776304e-03 -1.52592536e-03 2.10754331e-02 -1.83726177e-02 2.33713556e-02 2.32490320e-02 2.64821164e-02 -1.31361112e-02 -1.25122592e-02 7.35235354e-03 -7.43573718e-03 2.79133325e-03 1.47270402e-02 -6.87269447e-03 1.06535973e-02 -1.31987231e-02 -4.38694889e-03 -3.18104075e-03 8.40140879e-03 -2.94134859e-03 -1.82233436e-03 -5.09608025e-03 1.88303590e-02 1.98899284e-02 1.05010709e-02 2.21199002e-02 1.70079190e-02 -7.82620627e-03 -2.51479825e-04 -1.38639030e-03 -1.76336672e-02 9.41344071e-03 -1.27902860e-02 -2.26832554e-03 -2.24912837e-05 1.51352247e-03 1.68305971e-02 -1.41649544e-02 7.30625773e-03 -1.74970049e-02 7.76221044e-04 1.18344808e-02 8.44596792e-03 1.04188081e-02 1.85471606e-02 1.61115862e-02 -4.26808977e-03 1.79000888e-02 2.87720398e-03 -1.09978206e-02 1.35134514e-02 1.58944689e-02 -1.16955228e-02 2.89729534e-04 -1.47137316e-02 -5.51218633e-03 1.12131406e-02 -8.21490679e-03 1.63084511e-02 -6.38294360e-03 3.61611997e-03 -9.60653927e-03 5.66678355e-05 -4.29656077e-03 1.50827123e-02 9.02271946e-04 1.20244781e-03 -7.40132481e-03 1.64807513e-02 -1.67548116e-02 2.87057459e-03 1.62537545e-02 -1.37197943e-02 3.59632564e-03 1.78154316e-02 -2.09385678e-02 9.52059031e-03 -1.19684050e-02 7.20841903e-03 -1.08812721e-02 1.96056627e-02 2.18398701e-02 -1.09475655e-02 -2.87471048e-04 2.31108535e-02 1.01601230e-02 -9.15863551e-04 -9.89041943e-03 -1.24129960e-02 2.51759980e-02 -2.88451044e-03 3.40127765e-04 2.21288390e-03 7.68590393e-03 -4.95114271e-03 1.04978299e-02 -8.58038664e-03 7.11303717e-03 -1.76304933e-02 -5.47036668e-03 8.88153631e-03 2.26145349e-02 1.55975837e-02 1.67430360e-02 1.43687415e-03 -1.51848905e-02 1.74477547e-02 -8.97871051e-03 1.34186037e-02 -1.18826954e-02 4.39047068e-03 -1.24157192e-02 6.26028655e-03 -4.33769674e-05 5.09116706e-03 1.44328848e-02 2.09124219e-02 -2.07243487e-02 -6.42167777e-03 -7.95693044e-03 2.24159937e-02 -2.57086959e-02 9.59576108e-03 1.46619268e-02 8.43909848e-03 -5.73335961e-03 9.42571368e-03 -2.70843483e-03 -1.00181962e-03 -5.71701257e-03 2.36956822e-03 -1.22266905e-02 -9.01792757e-03 -2.64563831e-03 1.40534062e-02 -6.55630929e-03 -5.78297069e-03 1.05249844e-02 -1.94883533e-02 -3.97894671e-03 8.52202903e-03 -1.34295076e-02 1.43464431e-02 -1.52690308e-02 2.33109295e-02 2.04125401e-02 -6.82058604e-03 6.16074190e-04 4.72475961e-03 6.65437989e-03 5.64891321e-04 1.25835661e-03 1.39481924e-03 -7.09978025e-03 -1.01400269e-02 -1.00648236e-02 -1.89178325e-02 -1.31214196e-02 -2.03555282e-02 1.92189608e-02 2.67477687e-02 -2.31012329e-02 1.37536647e-02 -1.45120705e-02 -1.77145982e-03 8.50457046e-03 1.14427339e-02 1.44637364e-04 1.32520888e-02 1.41643605e-03 8.19834322e-03 2.68467609e-02 1.36383167e-02 6.24506222e-03 -1.41122937e-02 5.24710352e-03 -1.01753669e-02 -1.66249461e-02 1.53755676e-02 4.08770470e-03 5.63348318e-03 5.51487412e-03 -7.08073319e-04 -1.20184729e-02 2.54330621e-03 1.66573897e-02 2.42089201e-03 1.66497380e-02 4.68680606e-04 -3.58684082e-03 1.57050136e-02 -6.82453904e-03 -7.18053139e-04 7.24099670e-03 7.84397777e-03 3.54660966e-04 1.93731170e-02 -5.04363654e-03 -2.20898148e-02 2.36001369e-02 -6.96766190e-03 2.00974522e-03
-2.26757098e-02 -2.26635784e-02 1.73279084e-02 -1.47423483e-02 -5.28460462e-03 1.83278397e-02 1.66957080e-02 -2.37032659e-02 -2.19461378e-02 -7.75909377e-03 8.60986020e-03 1.81238968e-02 -1.86291896e-02 2.86567630e-03 -1.02916621e-02 -3.00930953e-03 1.82207359e-03 6.13560993e-03 -1.93905942e-02 -3.20382044e-03 1.92501750e-02 1.93821229e-02 -1.61396749e-02 7.13735446e-03 1.05674751e-02 9.61224549e-03 -2.39103585e-02 6.27032621e-03 1.30349882e-02 -1.09323754e-03 -1.96948536e-02 1.55293597e-02 -2.13439595e-02 -2.04294100e-02 -1.23227704e-02 -1.45800915e-02 -1.76800974e-02 1.77350622e-02 4.27771220e-03 -8.24680272e-03 1.05855763e-02 2.20454130e-02 -4.72089089e-03 -4.65492252e-03 1.52715798e-02 2.30305903e-02 1.96338054e-02 2.22035740e-02 -1.16328774e-04 -6.93875086e-03 -1.43088503e-02 -1.40097719e-02 -4.00653156e-03 -2.59534437e-02 1.65872164e-02 7.91500788e-03 1.02070738e-02 -2.50224378e-02 2.43636128e-02 2.09186748e-02 9.21783410e-03 -2.45892555e-02 -2.64799539e-02 2.87914518e-02 -1.24673247e-02 8.88084713e-03 1.66210365e-02 1.33877378e-02 1.66327674e-02 -2.37717219e-02 -1.51803726e-02 9.68116522e-03 -1.46871982e-02 -5.90103818e-03 -1.44373449e-02 -9.04467329e-03 2.46372446e-03 4.41039680e-03 2.14762185e-02 1.43413246e-02 1.51145365e-02 -1.38774225e-02 -1.04420399e-02 -2.09770724e-02 -9.21935868e-03 1.26770120e-02 -1.08480165e-02 -5.87736955e-03 -1.28458096e-02 -2.47070696e-02 1.70710888e-02 -2.30735503e-02 -1.57284439e-02 -4.48741543e-04 -1.01038720e-02 1.48143694e-02 -3.41498922e-03 8.24870355e-03 1.54724764e-02 1.93371959e-02 2.14001536e-02 2.34470591e-02 1.51749596e-03 -5.03220828e-03 1.05237253e-02 -1.32959709e-03 9.11497604e-03 6.34496287e-03 -1.26461172e-02 5.38971601e-03 5.76400803e-03 -1.71608999e-02 5.14652522e-04 -9.49412491e-03 2.20428891e-02 2.32573878e-02 2.23405045e-02 9.31116473e-03 1.37705570e-02 2.23809537e-02 2.26629600e-02 6.16060919e-04 1.62108913e-02 -2.34919097e-02 -1.47943133e-02 1.96709763e-02 -1.07243294e-02 -6.27478072e-03 2.83711427e-03 -1.82655882e-02 2.39996072e-02 -1.01757301e-02 1.99034042e-03 -8.54558684e-03 3.09658539e-03 2.33807322e-02 -1.58398021e-02 2.20022984e-02 1.75842103e-02 5.32737747e-03 1.50330001e-02 -6.52980292e-03 -7.96249509e-03 1.22929746e-02 -1.80556346e-02 7.38994218e-03 2.71485606e-03 1.05369592e-03 7.46389711e-03 -1.39488198e-03 1.15790805e-02 1.13188364e-02 -9.94702894e-03 9.19472054e-03 3.99142271e-03 1.72791798e-02 3.74888885e-03 2.68598963e-02 1.85540039e-02 -1.78668182e-02 2.05588192e-02 1.10828094e-02 2.45527900e-03 5.70731098e-03 1.46459946e-02 5.81533299e-04 -2.06961986e-02 1.41167613e-02 1.14097139e-02 1.15668103e-02 6.04187092e-03 -1.91323198e-02 -8.66379868e-03 -9.05826595e-03 1.36237787e-02 -1.71035416e-02 3.19445319e-03 2.01602979e-03 2.07186621e-02 7.64057832e-03 -1.57647245e-02 -2.18393896e-02 5.07686008e-03 2.84191850e-03 -1.55949751e-02 3.63468862e-04 -3.19866370e-03 1.11639258e-02 9.17812285e-04 9.84343328e-03 -1.53296511e-03 5.32617001e-03 -1.17925359e-02 -2.22129077e-02 1.50807975e-02 -1.41581763e-02 1.20151453e-02 -1.98648032e-02 1.07238032e-02 1.80357825e-02 -2.07845829e-02 1.72630455e-02 -2.88120424e-03 1.01568075e-02 3.87291191e-03 -4.30527003e-03 2.03632354e-03 -1.12502901e-02 -1.66355334e-02 -2.08702981e-02 -2.02629790e-02 -1.07861776e-02 -6.49369322e-03 5.88456122e-03 4.88338759e-03 -3.57553805e-03 2.39364132e-02 -1.01557542e-02 1.55184092e-02 1.12565486e-02 2.33476683e-02 1.12878028e-02 1.48687176e-02 -1.16081815e-02 1.25852767e-02 6.00603921e-03 1.26197385e-02 2.35722195e-02 -2.48432774e-02 4.56987694e-03 -2.60730251e-03 -2.06798092e-02 1.93193406e-02 2.37338990e-02 5.83696226e-03 1.93037763e-02 -2.42765006e-02 -1.24260942e-02 -8.14098027e-03 1.31609514e-02 7.32793985e-03 3.58352112e-03 -2.75075939e-02 9.47383977e-03 3.07327602e-03 7.14226393e-04 -1.49922082e-02 6.54020393e-03 1.42936641e-02 -2.08624210e-02 1.82117093e-02 -1.93968751e-02 -1.72327999e-02 1.29548786e-02 -1.92333106e-02 -4.97789634e-03
-6.53670216e-03 -1.84168406e-02 2.40917597e-02 -6.84034685e-03 -2.33291127e-02 1.43336849e-02 1.07242521e-02 -1.76184662e-02 -5.67740249e-03 -2.04790942e-02 7.70970806e-03 2.81543918e-02 -1.07785519e-02 1.76704191e-02 -7.79848173e-03 -1.12421140e-02 -1.61854047e-02 2.15291828e-02 -5.69585338e-03 -1.80596039e-02 6.28722366e-03 5.51506085e-03 -1.08716898e-02 1.02186045e-02 8.61187745e-03 7.19664199e-03 -1.80718619e-02 1.68710109e-02 2.57335994e-02 -2.15011798e-02 -2.79395562e-02 6.05450710e-03 -1.06197586e-02 -2.59680506e-02 -5.98721486e-03 -1.03979511e-02 -2.95773167e-02 1.90033037e-02 2.37247329e-02 -6.64466899e-03 2.56895702e-02 1.12219015e-02 -6.51375204e-03 -1.07844565e-02 2.36069746e-02 9.78766382e-03 2.47548837e-02 1.43975187e-02 6.80489885e-03 -5.54310950e-03 -1.86868906e-02 -9.06726066e-03 -2.21796595e-02 -2.53321491e-02 1.51002612e-02 1.04069319e-02 3.12366467e-02 -1.68754235e-02 3.05475071e-02 2.18928959e-02 2.95457114e-02 -2.57971790e-02 -1.75387524e-02 1.70486029e-02 -4.67400253e-03 2.39247363e-02 5.80683816e-03 2.62919106e-02 2.60530654e-02 -1.69283655e-02 -9.84973740e-03 4.80721565e-03 -2.77807266e-02 -7.61580979e-03 -8.44000280e-03 -6.66173408e-03 2.43571624e-02 1.52381836e-02 6.66377274e-03 1.27020311e-02 1.90561004e-02 -1.63002573e-02 -1.98260304e-02 -2.52380259e-02 -2.86634378e-02 2.10498995e-03 -1.34902438e-02 -1.93502419e-02 -5.28882816e-03 -2.63277534e-02 5.16011892e-03 -1.16630970e-02 -1.80023834e-02 -2.69383993e-02 -2.53808554e-02 1.43131511e-02 -7.38566788e-03 1.30625330e-02 2.70031337e-02 2.58981884e-02 1.40163489e-02 2.89702155e-02 1.50173325e-02 -1.81132630e-02 2.76748799e-02 7.84964301e-03 1.93743259e-02 2.65222024e-02 -2.86023114e-02 1.20416386e-02 2.22869683e-02 -1.84995737e-02 1.62317697e-02 -4.42562765e-03 2.29995567e-02 6.91372156e-03 5.44394832e-03 2.21806038e-02 1.12472232e-02 1.92438010e-02 2.49066856e-02 2.53386442e-02 2.35844590e-02 -8.80158786e-03 -2.03657169e-02 1.88548565e-02 -5.30976895e-03 -1.61410831e-02 1.57124754e-02 -2.23400090e-02 2.28210781e-02 -2.89465543e-02 1.83278397e-02 -1.46189006e-02 6.24565966e-03 1.78390350e-02 -1.67595223e-02 1.87709350e-02 1.48208356e-02 1.27779795e-02 3.19552086e-02 -1.87559500e-02 -2.13248637e-02 2.55846325e-02 -2.41703596e-02 1.18639236e-02 2.25765686e-02 1.23858964e-03 1.30439093e-02 2.04295013e-02 2.05757525e-02 2.18382962e-02 -2.70647854e-02 1.88419055e-02 8.94373655e-03 1.97504796e-02 1.69929471e-02 8.40910431e-03 1.52436243e-02 -1.56421941e-02 2.57362779e-02 7.99742807e-03 1.09672686e-02 3.55215208e-03 1.60244685e-02 -1.38170747e-02 -2.25363858e-02 2.15835199e-02 8.63490626e-03 1.51440380e-02 6.30232831e-03 -1.32415788e-02 -2.33029369e-02 -2.76327226e-02 2.03523003e-02 -9.30333976e-03 -7.84935523e-03 2.57129800e-02 2.43027285e-02 1.81579813e-02 -2.31788754e-02 -2.42439359e-02 2.08404232e-02 -1.21950340e-02 -3.87869193e-03 1.65753216e-02 -2.24885233e-02 2.60870345e-02 -9.69048776e-03 7.73630571e-03 2.05166321e-02 1.89966857e-02 -2.58441214e-02 -9.19691380e-03 1.03864744e-02 -5.90818562e-03 2.89476812e-02 -2.59560905e-02 1.77631471e-02 1.08024497e-02 -1.04782302e-02 2.18350645e-02 -9.11353622e-03 2.79067736e-02 9.79861990e-03 -9.68534034e-03 -3.37229809e-03 -2.86173504e-02 -2.15162188e-02 -1.53473672e-02 -1.06249209e-02 -2.26726010e-02 -1.50677310e-02 8.00074451e-03 8.31787009e-03 -2.07355767e-02 5.71826659e-03 -2.82972436e-02 1.99183859e-02 1.32294549e-02 2.37009861e-02 9.36914887e-03 1.04227774e-02 -2.60572340e-02 1.35172047e-02 2.36413889e-02 1.14129083e-02 2.27653962e-02 -2.11877953e-02 2.04617530e-02 -1.34560540e-02 -1.42201353e-02 2.30834447e-02 2.82186698e-02 1.91074312e-02 2.40972787e-02 -2.71056220e-02 -1.51048731e-02 -1.58953499e-02 1.62746646e-02 1.27067883e-02 2.63069980e-02 -2.24072803e-02 1.96716655e-02 1.59798507e-02 6.69076573e-03 -1.64066069e-02 9.47608333e-03 1.83464643e-02 -1.90861169e-02 9.00149811e-03 -1.81432609e-02 -7.26316217e-03 1.01403976e-02 -2.69841477e-02 -2.60501914e-02
-1.72996055e-02 -1.20192776e-02 8.94355308e-03 -5.91131113e-03 -8.26569740e-03 1.63100027e-02 6.59330841e-03 -1.82275344e-02 -1.74114574e-02 -8.97501595e-04 1.24452049e-02 4.93075885e-03 -4.18476062e-03 1.90875493e-02 -6.06274651e-03 -3.21512111e-04 -1.46228625e-02 2.53355457e-03 -2.58256774e-03 -9.56335012e-03 3.76509875e-03 1.04623837e-02 6.59285206e-03 1.80695262e-02 1.80745497e-02 1.60484072e-02 -9.76642966e-03 4.21030866e-03 1.47072952e-02 -5.14341146e-03 -5.48398402e-03 1.12833548e-02 -1.31437527e-02 -2.17539947e-02 -1.17591117e-02 -1.94206014e-02 -2.40088403e-02 1.48308100e-02 1.53345950e-02 -1.40492397e-03 2.38241162e-02 2.13276930e-02 -2.27938611e-02 -1.22758718e-02 1.95946801e-03 2.41452400e-02 2.42040073e-03 2.19834480e-03 -5.57344081e-03 8.75352882e-03 3.09708295e-03 -3.88221140e-03 -1.53049473e-02 -1.74006878e-03 1.29347024e-02 9.59808007e-03 1.90137271e-02 -8.80686939e-03 1.16881952e-02 1.28163295e-02 1.31119164e-02 -2.74998900e-02 -2.42957864e-02 2.61393525e-02 -1.24096088e-02 1.30151175e-02 1.39632367e-03 5.02727414e-03 -1.00697589e-03 -8.54355562e-03 -1.62446387e-02 8.60797893e-03 -1.52361700e-02 -1.80552565e-02 -2.41885660e-03 -4.75056609e-03 1.96417514e-02 5.90329245e-03 1.75199788e-02 6.00105571e-03 3.57124442e-03 -1.09040374e-02 -4.99131391e-03 -8.90748389e-03 -6.37738127e-03 9.18749440e-03 -1.04327500e-02 -3.23480403e-04 6.24923559e-05 -2.35722959e-02 1.83918383e-02 -1.42950108e-02 1.04301227e-02 -1.43700670e-02 -1.34505881e-02 1.62162706e-02 8.72471777e-04 3.24902078e-03 5.61154447e-03 -9.24484571e-04 1.67604387e-02 6.51939213e-03 1.19441906e-02 3.15287383e-03 1.76132005e-02 -5.01631713e-03 1.22755812e-02 3.68788489e-03 -1.49162002e-02 1.24186780e-02 1.86630189e-02 -1.37253264e-02 1.01182470e-03 -1.73296295e-02 1.15005290e-02 1.91595852e-02 8.86871072e-04 4.67125559e-03 5.29977959e-03 1.40379872e-02 1.61414186e-03 8.72605201e-03 6.61517493e-03 -2.26906184e-02 -1.57797970e-02 -3.40854796e-03 -1.82424299e-02 -3.81817878e-03 9.71985981e-03 -2.23788060e-02 5.83973015e-03 -1.33450730e-02 9.40893777e-03 -1.25062345e-02 5.59583539e-03 1.10037820e-02 -2.32123826e-02 8.59643146e-03 5.56269288e-03 2.46711001e-02 2.75781378e-02 -1.42540988e-02 -2.01098956e-02 1.98328495e-02 -4.56347596e-03 1.82582159e-02 1.01127168e-02 -1.63631141e-02 1.34362364e-02 -4.14450560e-03 6.42484240e-03 4.06578882e-04 4.21745516e-03 2.29161810e-02 1.35695953e-02 2.19598096e-02 1.10214120e-02 5.29109500e-03 -1.72405748e-03 -6.25598338e-03 -3.72212683e-03 4.85138688e-03 3.33010615e-03 -9.53919254e-03 1.29035106e-02 4.34159487e-03 9.01294500e-03 1.14887860e-02 6.31901063e-03 1.99122019e-02 2.42260136e-02 -1.59304999e-02 -2.68342886e-02 -1.03157004e-02 5.13736974e-04 -8.12284742e-03 -1.09708691e-02 6.15251437e-03 1.00495499e-02 -4.54012305e-03 3.62353493e-03 -1.00475615e-02 1.19330706e-02 1.32730056e-03 -7.51194591e-03 9.05357394e-03 -8.99791438e-03 -5.50128706e-03 3.59432097e-03 -1.31127250e-03 -6.09211344e-03 1.36140352e-02 -7.97486398e-03 -1.37051418e-02 7.66473729e-03 -2.51201703e-03 7.85083883e-03 -2.08235215e-02 1.49362842e-02 1.49784014e-02 -1.28090940e-02 1.10716904e-02 -1.07273972e-02 2.60510966e-02 1.66434590e-02 -1.00746443e-02 -1.17096771e-02 -1.41558638e-02 -4.07272484e-03 -1.55550698e-02 -8.84438772e-03 -1.38183171e-02 -7.33409356e-03 1.01374937e-02 1.75041966e-02 -1.67058352e-02 8.61961581e-03 -1.00861406e-02 1.25891371e-02 3.04575404e-03 1.32495221e-02 -4.53708181e-03 4.15726705e-03 -1.81888361e-04 1.98735148e-02 1.30260792e-02 1.00047207e-02 1.81035101e-02 -1.32324100e-02 5.87648246e-03 -1.93667654e-02 -7.31509225e-03 -1.66584447e-03 9.88196861e-03 8.95792153e-03 1.10305706e-02 -1.12054534e-02 -4.88698250e-03 -2.17575952e-02 1.19980741e-02 2.90850759e-03 9.93231591e-03 -2.49487069e-02 6.30006101e-03 -1.12980716e-02 4.11076518e-03 6.09120412e-04 2.93592573e-03 1.13578513e-02 -5.87180164e-03 1.36408973e-02 -9.89377382e-04 5.65454946e-04 1.27061736e-02 -1.09997820e-02 -1.62557401e-02
-6.69324212e-03 -1.40663991e-02 1.35827772e-02 -6.02564402e-03 -1.00848433e-02 1.62005480e-02 7.87876640e-03 -2.73391828e-02 -8.19785055e-03 -8.02014861e-03 2.26214956e-02 2.04230193e-02 -8.69198644e-04 1.89672075e-02 -7.84517545e-03 -1.71227790e-02 -9.21356585e-03 1.95568893e-02 -1.19020091e-02 -1.22211371e-02 2.35923249e-02 1.77915432e-02 -5.70884906e-04 2.63111237e-02 9.90665331e-03 8.46077036e-03 -2.21400298e-02 1.30595465e-03 2.06161011e-02 -4.74680122e-03 -2.72428337e-02 1.35287950e-02 -2.62832977e-02 -2.77397074e-02 -1.66494865e-02 -2.63624769e-02 -3.84489354e-03 2.39225850e-02 7.57915759e-03 -2.49510799e-02 2.63542831e-02 1.71389598e-02 -1.67447012e-02 -4.26131766e-03 1.25299925e-02 1.12205995e-02 1.20099988e-02 2.55384799e-02 2.13556420e-02 -2.03319755e-03 -1.14586111e-02 -7.55902892e-03 -6.91066543e-03 -2.81277541e-02 7.44944811e-03 -3.18951439e-03 6.85289502e-03 -2.31789015e-02 3.02919559e-02 1.62515882e-02 2.52533499e-02 -8.77551548e-03 -1.76153593e-02 2.89078355e-02 1.41365407e-03 1.77779570e-02 2.11516060e-02 -4.96878196e-03 1.57536287e-02 -2.24250108e-02 -3.14281769e-02 8.78847577e-03 -1.68051627e-02 -1.84786487e-02 -2.35174391e-02 -2.02000439e-02 2.00687293e-02 8.89951922e-03 -9.53375886e-04 2.15659924e-02 1.49300676e-02 2.50925310e-03 -2.64875647e-02 -2.62600482e-02 -2.37830356e-02 -5.76486811e-04 -1.35126188e-02 -2.13236436e-02 -6.29278598e-03 -3.80735425e-03 9.76917986e-03 -1.42780468e-02 5.84952708e-04 -2.04779717e-04 -1.08268550e-02 1.97423697e-02 -8.74334667e-03 2.11141352e-02 1.90675911e-02 8.15616641e-03 1.26028210e-02 2.49464903e-02 2.84217438e-03 -2.21312363e-02 2.22411938e-02 2.30556615e-02 3.28925485e-03 1.16214612e-02 -1.48211531e-02 2.96078343e-03 1.90313477e-02 -2.24385113e-02 8.60453304e-03 1.34744146e-03 1.38109419e-02 3.26935714e-03 7.74474954e-03 1.05251046e-02 1.35604283e-02 2.46478803e-02 1.02657424e-02 1.79357380e-02 1.27556026e-02 -7.36456970e-03 -1.93322152e-02 1.60949342e-02 -7.27142580e-03 -8.46773013e-03 2.55672429e-02 -2.21319497e-02 2.31925491e-02 -7.28826365e-03 1.77487284e-02 -1.61983669e-02 5.18514868e-03 9.14104842e-03 -1.94365382e-02 1.97004341e-02 2.23640669e-02 1.94641892e-02 2.27166805e-02 -2.28177942e-02 -1.28376111e-02 1.64778586e-02 -9.76495259e-03 2.19142325e-02 2.96729128e-03 -1.00309430e-02 1.11514982e-02 1.84911937e-02 9.58151091e-03 1.19597372e-02 -1.53779816e-02 7.26214377e-03 9.57580376e-03 1.06714256e-02 1.84169393e-02 2.02461910e-02 2.34053116e-02 -1.80141516e-02 2.72789579e-02 -1.59553008e-03 7.05355080e-03 -7.93708488e-04 2.18207296e-02 -1.53738922e-02 -1.63524803e-02 1.07050547e-02 5.96238021e-03 1.03271473e-02 2.19183043e-02 -1.72283053e-02 -2.07240470e-02 -2.66884211e-02 1.01767182e-02 -1.56282410e-02 -4.16973699e-03 2.30079032e-02 5.93160698e-03 7.35354144e-03 -2.05079410e-02 -1.23928627e-02 5.19871712e-03 -1.21370368e-02 -1.70868612e-03 7.09119486e-03 -5.01136994e-03 8.51655845e-03 -1.46653522e-02 -3.36933765e-03 1.27665941e-02 1.04465289e-02 -2.48460099e-02 -2.46829707e-02 1.76441874e-02 -2.15475112e-02 7.22713163e-03 -2.39949152e-02 7.27255922e-03 2.61194687e-02 -4.20915661e-03 1.28069948e-02 -4.02810192e-03 2.02589892e-02 4.84794425e-03 -1.03121083e-02 3.60448216e-03 -1.41558424e-02 -5.68295550e-03 -1.74800437e-02 -2.48507150e-02 -1.18060671e-02 -2.47331560e-02 5.16694831e-03 2.07552463e-02 -1.05343396e-02 2.60501746e-02 -2.38681100e-02 1.04441366e-03 7.31906248e-03 7.92934187e-03 1.70515664e-02 2.02072524e-02 -1.49374933e-03 4.41120751e-03 1.96939390e-02 1.18572237e-02 1.35872737e-02 -1.11492162e-04 2.73327436e-03 -2.45701559e-02 -8.18423554e-03 2.32870523e-02 5.84439375e-03 2.28249170e-02 1.76508967e-02 -1.90902650e-02 -1.91614367e-02 -2.46078335e-02 1.85121428e-02 -1.71781809e-03 4.74890601e-03 -1.97085850e-02 7.87625462e-03 9.17073339e-03 1.53740980e-02 -1.80512629e-02 1.73954293e-02 1.20551521e-02 -1.67377759e-02 2.76319161e-02 -2.27358360e-02 -1.55218206e-02 2.67427638e-02 -7.60206999e-03 -1.22398986e-02
-8.67526606e-03 -1.24253538e-02 2.78358925e-02 -2.49322038e-02 -4.17312048e-03 1.88458972e-02 1.20949727e-02 -8.27123225e-03 -4.78580827e-03 -2.00484060e-02 1.93454493e-02 1.03285396e-02 7.60652823e-03 8.75965413e-03 2.16966332e-03 1.17206376e-03 1.00518856e-02 1.48984641e-02 -1.71846000e-03 -8.61373544e-03 1.73666216e-02 6.10747701e-03 1.07000852e-02 6.76633045e-03 3.10215680e-03 1.38657410e-02 1.35323231e-03 3.45712085e-03 1.75003484e-02 5.78463869e-03 -1.32731004e-02 5.28545026e-03 -1.05234375e-02 -2.15239655e-02 -2.59698788e-03 -1.72917601e-02 -1.53794400e-02 1.47197414e-02 5.80151565e-03 -8.26906820e-04 9.51392390e-03 -1.40769931e-03 -1.16976537e-02 -5.21242153e-03 -5.24607021e-04 3.81310447e-03 1.21227326e-02 1.26624452e-02 4.15468449e-03 5.16666751e-03 -1.21362871e-02 -1.24285156e-02 4.10547294e-03 -1.78299379e-02 3.65404226e-03 2.76748184e-03 6.30602567e-03 -1.14709297e-02 2.12723035e-02 1.03491591e-02 1.47271939e-02 -6.74222736e-03 -6.71075564e-03 1.98335922e-03 3.30978422e-03 3.20599764e-03 6.33516442e-03 -6.31415751e-03 1.80799291e-02 -9.10917111e-03 -1.74085628e-02 7.24433968e-03 -4.81127575e-03 -6.05927687e-03 -1.04869576e-03 -2.42473930e-03 1.21881776e-02 1.61028430e-02 4.70383093e-03 6.30163588e-03 1.43325422e-02 -5.56277111e-03 -1.31414756e-02 -1.80095260e-03 7.64673576e-04 1.63388029e-02 -1.50443884e-02 -1.39541151e-02 -2.21139845e-02 -1.52193976e-03 -3.52512766e-03 -1.52817685e-02 -7.63406279e-04 -1.40379081e-02 -1.24174645e-02 1.28826881e-02 -1.09376768e-02 7.74484826e-03 1.10258227e-02 1.46606471e-02 -3.75783327e-03 4.47827764e-03 -2.86646094e-03 -1.10114217e-02 2.16020457e-02 -4.36918996e-03 -2.85467191e-04 8.34980165e-04 -9.90823563e-03 7.68063730e-03 1.78465210e-02 -3.51763912e-03 1.02359045e-03 5.08079398e-03 1.04642380e-03 -6.80809282e-03 1.83800440e-02 1.07400585e-02 6.49753213e-03 2.83550541e-03 -7.85960723e-03 9.28185880e-03 1.34985643e-02 -6.59118872e-03 8.22251849e-03 7.03081209e-03 -1.91680174e-02 -5.00409212e-03 2.62132306e-02 -9.06540733e-03 1.22000836e-02 -2.04720646e-02 7.69418478e-03 -2.16186102e-02 5.82567928e-03 8.43466911e-03 -1.12104714e-02 3.58763710e-03 1.33359442e-02 -5.71387063e-04 1.49631202e-02 -1.71044227e-02 -1.81576740e-02 1.22633716e-02 -1.78463068e-02 1.19340178e-02 1.59613322e-02 2.04642350e-03 1.44545268e-02 1.30483778e-02 1.32532166e-02 7.83026405e-03 -4.80497209e-03 1.10832732e-02 -7.00659025e-03 6.52213767e-03 1.54883694e-02 2.33147535e-02 2.18876209e-02 -1.92276072e-02 1.09479679e-02 1.22630475e-02 3.68304271e-03 -4.52847872e-03 -6.88404171e-03 -1.24840867e-02 -1.09222624e-02 8.13189615e-03 1.52004091e-02 1.89952310e-02 5.95493149e-03 -8.07663426e-03 -6.60030171e-03 -4.08485672e-03 1.86471716e-02 -7.54106883e-03 6.73719356e-03 2.55337358e-03 3.94700747e-03 -7.35306041e-03 1.14910658e-02 -1.00273490e-02 1.43956079e-03 -2.34043528e-03 3.63206631e-03 1.12437438e-05 5.17202821e-03 -2.49932171e-03 2.39333371e-03 -1.09818857e-02 1.91833067e-03 9.29480325e-03 -1.30778151e-02 -1.63044967e-03 1.71722081e-02 -1.02160163e-02 4.29868279e-03 -1.89565811e-02 1.18705425e-02 8.98969546e-03 6.21208269e-03 9.60241631e-03 -1.71547551e-02 1.36290658e-02 7.98605755e-03 7.39436876e-03 6.08456647e-03 -1.57679264e-02 -4.37711133e-03 -1.15758255e-02 -7.15198135e-03 -1.29026559e-03 -2.64381878e-02 1.37756346e-02 2.16696914e-02 -6.96353661e-03 1.38623854e-02 -1.21124741e-02 -9.65312705e-04 1.78715978e-02 2.73818150e-03 -5.46434429e-04 8.13404657e-03 -8.01949063e-05 1.03187747e-02 6.11125352e-03 3.08436202e-03 1.31713022e-02 -6.12450857e-03 -8.56267579e-04 -1.73177272e-02 -1.06062042e-02 2.98196147e-03 1.80872250e-03 1.05941966e-02 4.80805710e-03 9.55449475e-04 -4.27913899e-03 -2.48761778e-03 1.48914354e-02 6.82237744e-03 9.64205060e-03 2.81940069e-04 -4.04776540e-03 9.33146384e-03 -1.15759196e-02 -2.76827463e-03 1.64957321e-03 1.10648843e-02 -5.32786187e-04 2.28182022e-02 -1.42398570e-02 -1.97435096e-02 1.57138165e-02 -1.14785358e-02 2.18771328e-03
-1.17622493e-02 -7.09859002e-03 1.27329892e-02 1.70953362e-03 1.33265136e-03 1.01577425e-02 5.09795360e-03 -1.01272156e-03 -6.14251103e-03 5.83436165e-04 1.10810539e-02 4.58952459e-03 4.02650749e-03 2.58476147e-03 1.03401318e-02 5.82567463e-03 9.74034145e-03 -1.98118854e-03 1.28184911e-02 -8.25984962e-03 6.57315319e-03 -6.24303566e-03 8.18101224e-03 -2.18618824e-03 1.25974845e-02 9.54237022e-03 -1.61517865e-03 1.23921931e-02 -2.88327946e-03 -8.55462998e-03 -2.78332015e-03 4.91769100e-03 -1.68490224e-02 -4.72131884e-03 -6.89606508e-03 3.02172708e-03 -1.45377601e-02 1.55354675e-03 1.31243169e-02 -1.35043208e-02 -3.79924173e-03 -7.08810007e-03 -1.54440466e-03 -1.30736064e-02 1.17777893e-02 7.00355973e-03 -3.97048984e-03 -4.26690094e-03 -1.38860743e-03 1.27798337e-02 3.10958922e-03 3.81545350e-03 -1.52890035e-03 6.96273171e-04 -6.14438439e-03 1.45794742e-03 1.02158738e-02 -1.83815733e-02 1.34064574e-02 6.47925586e-03 9.69460700e-03 -5.66547550e-03 -8.13642330e-03 -3.00520379e-03 -7.53371418e-03 -5.06246928e-03 -1.19457673e-03 5.89648681e-03 2.06944509e-03 5.84952766e-03 -2.03287788e-02 -1.42955920e-02 1.46056118e-04 -9.54312645e-03 -1.46808138e-03 3.04180849e-03 4.89307707e-03 7.53521128e-03 1.45363910e-02 3.64080624e-04 9.78988688e-03 -2.52679791e-02 -5.57003310e-03 -2.98668444e-03 -6.32862793e-03 -2.21625669e-03 1.32040838e-02 -2.89091771e-03 -8.61426070e-03 -2.63663959e-02 5.73725719e-03 -1.51250819e-02 6.20872248e-04 -3.42880026e-04 1.07930414e-02 2.14315089e-03 6.45144144e-03 2.55130534e-03 1.09767588e-02 3.41069303e-04 1.12619549e-02 -7.91270938e-03 -3.19546694e-03 -5.09650866e-03 1.05348350e-02 1.30535162e-03 1.86412688e-02 -3.96357896e-03 -4.82673477e-03 -1.33085912e-02 2.93980842e-03 -1.18598863e-02 3.60598555e-03 9.09275655e-03 -2.92401155e-03 -5.88741340e-03 3.64795153e-04 -3.21749481e-03 7.43214693e-03 6.01938693e-03 1.02541763e-02 9.97002050e-03 4.22876421e-03 -1.65137090e-02 -9.67046153e-03 -2.30841525e-03 -4.29523038e-03 5.58700413e-03 4.70382581e-03 -1.39296139e-02 -3.39532294e-03 -1.65486019e-02 -7.67902611e-03 -8.43873154e-03 -6.34503970e-03 2.30910592e-02 -7.34978169e-03 -4.75428207e-03 2.80039455e-03 -2.70124013e-03 2.06772126e-02 -1.37796963e-03 1.15805492e-03 2.21855385e-04 2.39120331e-03 6.41225837e-03 -1.35556329e-03 -1.08934613e-02 -8.39691795e-03 3.47431027e-03 2.98870309e-05 -5.16471919e-04 3.92696075e-03 1.05735650e-02 -8.12807307e-03 2.44641909e-03 2.76151602e-03 -5.64412476e-05 -1.06429188e-02 -6.99543068e-03 8.72765109e-03 -1.01110600e-02 -8.11174326e-03 2.99723120e-03 -1.32587152e-02 -1.09868106e-02 7.45794177e-03 -1.14165833e-02 1.76669862e-02 1.66689679e-02 -2.49920413e-03 -1.24516226e-02 -7.63768842e-03 -7.12224422e-03 9.66335996e-04 -1.75083019e-02 -9.33005381e-03 5.90228615e-03 -1.49263209e-02 6.68637222e-03 4.63146297e-03 -9.31034703e-03 5.59089659e-03 -2.89399899e-03 6.42776489e-04 4.88056161e-04 4.57004458e-03 5.28765284e-03 5.18962881e-03 -7.87215214e-03 1.35466387e-03 -2.78581236e-03 -1.18592102e-02 -8.85283947e-03 1.29024927e-02 -1.12732919e-02 1.76254567e-02 -1.56383570e-02 1.62877496e-02 1.23634618e-02 8.08569789e-03 -5.88313956e-03 8.81206989e-03 2.20485963e-02 -4.83222818e-03 4.61402861e-03 6.66570850e-03 -7.11899763e-03 -1.72016434e-02 1.29510008e-03 -1.66790411e-02 -1.21281547e-02 -2.43404618e-04 1.69391055e-02 -5.30158752e-04 -1.43669182e-02 6.32478250e-03 -1.32837938e-02 1.06716352e-02 4.49324073e-03 1.06796827e-02 -1.41777573e-02 -1.82244321e-03 -7.14176986e-03 1.04213096e-02 2.45987549e-02 -7.65498774e-03 -7.93422281e-04 -8.99840705e-03 5.99334436e-03 -5.81950741e-03 5.70425298e-03 -4.76984726e-03 3.22230486e-03 1.66079681e-02 6.18881918e-03 -1.15909241e-02 -5.49819879e-03 -7.91717134e-03 1.09817442e-02 9.07734036e-03 1.09818764e-02 -1.37392543e-02 9.27710033e-04 -8.81453231e-03 -1.12610301e-02 9.40808840e-03 1.33261215e-02 1.47275012e-02 -4.93088178e-03 1.31131755e-02 -8.86651967e-03 1.40451069e-03 -2.13002041e-03 -8.49819649e-03 -1.50269475e-02
-2.77513489e-02 -1.83118936e-02 1.89357288e-02 -1.48171550e-02 -2.13629939e-02 2.98278406e-02 2.01768354e-02 -7.39861233e-03 -2.05743462e-02 -1.71058550e-02 7.64030591e-03 1.31770009e-02 -1.64410155e-02 6.82101119e-03 -1.70741603e-02 -1.42375873e-02 -1.83491930e-02 1.63271371e-02 -4.51299129e-03 -1.30119985e-02 7.80083239e-03 1.32882437e-02 -1.44193275e-02 9.26972274e-03 2.01027375e-02 2.06562504e-02 -1.02929096e-03 2.31781304e-02 1.38274934e-02 -1.31886192e-02 -2.49929465e-02 1.74045563e-02 -1.45297265e-02 -1.28588015e-02 -2.79590748e-02 -1.62978172e-02 -2.96761617e-02 1.66750718e-02 2.00384166e-02 -1.98260956e-02 8.58492032e-03 1.80777181e-02 -9.67504643e-03 -1.40093062e-02 1.84641294e-02 1.03249848e-02 3.92962806e-03 8.25728290e-03 1.87740698e-02 -1.45352185e-02 -1.79366674e-02 -2.01495122e-02 -3.88895802e-04 -1.91199314e-02 1.08101657e-02 -1.22253597e-03 1.43259158e-02 -2.56311987e-02 2.45652404e-02 2.36528181e-02 2.36570165e-02 -7.79507449e-03 -8.02900642e-03 2.11210102e-02 -3.84470215e-03 -1.89397880e-03 -2.42293673e-03 -2.11171387e-03 8.94673262e-03 -7.48618913e-04 -1.36704445e-02 1.39712682e-02 -2.15156879e-02 -1.74350068e-02 -1.92471072e-02 -3.38931684e-03 1.06596369e-02 4.94736806e-03 1.14417588e-02 2.48297714e-02 2.01352481e-02 -8.67405068e-03 -1.52332662e-02 -1.88314505e-02 -9.07992385e-03 -4.62942896e-03 -1.47288032e-02 -3.54056084e-03 -1.29479012e-02 -2.61440799e-02 1.26264850e-02 -1.02824101e-03 -4.12610546e-03 -1.25544788e-02 1.52795634e-03 1.11952992e-02 -2.02864259e-02 1.11461803e-02 2.38010325e-02 2.28316858e-02 6.10775640e-03 1.35046039e-02 1.92234088e-02 -2.95863044e-03 3.59004736e-03 1.65723059e-02 8.30095448e-03 1.76172964e-02 -1.25789382e-02 4.45963163e-03 4.45727631e-03 -1.23385685e-02 8.55074357e-03 -5.17405523e-03 1.80046894e-02 8.05254187e-03 2.14403924e-02 2.48346888e-02 6.24020351e-03 5.37398830e-03 2.09606327e-02 1.74937900e-02 8.01766757e-03 -5.92479296e-03 -2.38079764e-02 1.88042484e-02 -2.25039199e-03 -6.50496874e-03 7.53224222e-03 -2.16347259e-02 2.40319148e-02 -2.30729561e-02 1.85925327e-02 -1.57040432e-02 1.58269908e-02 1.28305145e-02 -1.47987790e-02 2.58957054e-02 2.32025087e-02 5.96808642e-03 2.97309086e-02 -1.90735273e-02 -2.60070041e-02 1.60780251e-02 -1.88489892e-02 2.71382858e-03 9.42109711e-03 -2.80780252e-02 -3.69732804e-03 2.14766841e-02 1.48563934e-02 4.82028304e-03 -3.63136455e-03 2.59664208e-02 8.15313030e-03 7.98771903e-03 1.64269768e-02 2.83625443e-03 4.29471955e-04 -5.82778128e-03 1.80277620e-02 5.02280286e-03 1.29615478e-02 1.57715995e-02 -4.19237564e-04 -1.56130223e-02 -1.80767775e-02 -5.68570627e-04 1.17971320e-02 2.43116710e-02 2.58815475e-02 -2.19350923e-02 -1.37735531e-02 -1.61248781e-02 3.19629163e-03 -7.17159547e-03 -5.00104576e-03 1.48698194e-02 3.81288584e-03 1.57560650e-02 -1.15376646e-02 -1.91958286e-02 -3.27391084e-04 -4.33640927e-03 -1.33181019e-02 -8.67000199e-04 -1.22324452e-02 5.29681006e-03 -5.36133349e-03 3.57557810e-03 1.31996619e-02 1.83503162e-02 -2.72683483e-02 -2.60375533e-02 8.15623626e-03 -5.35359466e-03 1.29945055e-02 -1.86936539e-02 2.15998851e-02 2.30699833e-02 -7.02830963e-03 9.71964095e-03 -4.92334645e-03 2.05348078e-02 7.63876457e-03 -4.27986874e-04 -1.10286092e-02 -5.07588405e-03 -1.52297644e-02 -1.67294703e-02 -2.82937475e-02 -6.99400017e-03 -6.70519192e-03 8.30358360e-03 2.58498583e-02 -9.53249726e-03 2.04399899e-02 -1.41602000e-02 1.02001512e-02 5.23620704e-03 1.46854892e-02 1.82145853e-02 9.96560324e-03 -1.76276695e-02 1.77572053e-02 1.40635138e-02 2.13713367e-02 3.25605902e-03 -2.28778198e-02 1.88756920e-02 -2.11494695e-02 -1.19808568e-02 8.71429127e-03 2.03945488e-02 2.14347392e-02 1.92893874e-02 -3.87094123e-03 -3.09449597e-03 -2.86262296e-02 6.39084447e-03 5.25517575e-03 7.33164139e-03 -3.98788322e-03 1.01932092e-04 -7.61044770e-03 1.28380526e-02 -6.19119219e-03 5.95420459e-03 1.93128251e-02 -2.33638585e-02 2.00955458e-02 -2.09814757e-02 -7.33193895e-03 2.49634329e-02 -9.07074939e-03 -2.17952337e-02
